-0.053418029099702835
0.06490281224250793
0.06918823719024658
0.00979516003280878
0.0317142978310585
0.06454462558031082
-0.04764767363667488
-0.08141516149044037
0.020549753680825233
0.10201964527368546
-0.06514866650104523
0.03586585447192192
0.08852463960647583
-0.04620810225605965
0.06360675394535065
0.03653270751237869
0.05341311916708946
0.06885460019111633
-0.016093416139483452
-0.04373301938176155
-0.08287707716226578
-0.11181342601776123
-0.09637968987226486
-0.03327889367938042
0.11092948168516159
0.07231354713439941
0.0050174337811768055
-0.03853874281048775
0.10324777662754059
0.08377885818481445
0.08436683565378189
-0.058921970427036285
0.053516946732997894
-0.028726227581501007
0.0016590686282142997
-0.04325418919324875
-0.041454192250967026
0.08504056185483932
0.06316669285297394
-0.032802533358335495
0.04977722838521004
0.04337732121348381
-0.02041052281856537
0.047603752464056015
0.028533659875392914
0.09586263447999954
0.03537008538842201
0.059475190937519073
-0.06606228649616241
-0.05079672113060951
0.05341237038373947
0.09944161772727966
0.05189919471740723
-0.0007984128315001726
-0.07974565029144287
0.03555417060852051
-0.049844495952129364
0.09577938169240952
0.07767339795827866
0.04562751576304436
0.0729520320892334
-0.031047238036990166
0.05826880410313606
-0.012589954771101475
0.09354083985090256
0.08565498143434525
0.053121719509363174
-0.04819142073392868
0.023997008800506592
0.0315854586660862
-0.023419778794050217
-0.10460231453180313
-0.04040786623954773
0.1452375203371048
0.05632027983665466
0.00411378126591444
-0.0038708108477294445
-0.08256025612354279
-0.04369238018989563
0.046293456107378006
0.04132859408855438
-0.021455425769090652
-0.11506077647209167
-0.03236338868737221
-0.059680841863155365
-0.06614475697278976
-0.11654262244701385
-0.0573207288980484
0.07253037393093109
-0.07912126928567886
0.0590953603386879
0.07225264608860016
0.06564701348543167
0.02639998309314251
0.10986223816871643
0.04534660652279854
-0.04435645788908005
0.01666765846312046
0.11152321100234985
0.1219724491238594
0.14241507649421692
-0.09148627519607544
0.06978307664394379
0.07525899261236191
-0.032460737973451614
0.06537538021802902
-0.054028574377298355
0.02699941396713257
0.07805471122264862
-0.07785458862781525
-0.08607326447963715
0.04808201640844345
0.04277442395687103
-0.03156781569123268
0.04454301670193672
0.12474187463521957
0.04833662882447243
0.04312194138765335
-0.03196917474269867
-0.041973456740379333
-0.10568507015705109
0.026754381135106087
-0.03845485672354698
0.05799821391701698
-0.053094442933797836
0.08400576561689377
-0.06974080204963684
0.020096486434340477
-0.03856460005044937
-0.08700614422559738
-0.0967039167881012
0.029591428115963936
-0.055563583970069885
0.06930021941661835
-0.06904694437980652
-0.05207303166389465
-0.09019964933395386
-0.09467115253210068
-0.05933969095349312
0.06474244594573975
0.07205880433320999
0.10062114894390106
-0.07253957539796829
-0.07517670094966888
0.045376669615507126
0.08222535997629166
-0.013099515810608864
0.06147993728518486
-0.03533005714416504
0.027542078867554665
0.054139114916324615
-0.03252167999744415
-0.06260495632886887
0.06716444343328476
-0.05517077073454857
0.10027571022510529
-0.062482234090566635
0.04558979719877243
-0.047350723296403885
-0.09300919622182846
-0.029612459242343903
0.007048407569527626
0.06406407058238983
0.07981540262699127
-0.06210530549287796
-0.09898591041564941
0.03652312606573105
-0.06225051358342171
0.05883098766207695
0.06675749272108078
-0.010548029094934464
0.07490380108356476
-0.03168065473437309
0.10205044597387314
-0.027632130309939384
0.044025931507349014
0.0697583332657814
0.09032326191663742
0.028253939002752304
-0.033629100769758224
-0.06965701282024384
0.04941212385892868
0.06252466142177582
0.030809521675109863
-0.032307542860507965
-0.05139860883355141
-0.03023328073322773
-0.04205702245235443
-0.1289702206850052
0.09092460572719574
-0.07035283744335175
0.11052398383617401
-0.05944725126028061
-0.04990483820438385
-0.0422845184803009
-0.058878492563962936
0.04331625625491142
0.04454093426465988
0.046130090951919556
-0.006619371473789215
-0.060255374759435654
-0.079616017639637
0.031755201518535614
-0.06563373655080795
0.026599569246172905
0.06758090108633041
-0.04418696463108063
0.07175886631011963
0.011979475617408752
-0.0760800912976265
0.015815511345863342
-0.030550971627235413
0.07450316846370697
-0.04930399730801582
-0.07622145861387253
-0.04469813033938408
-0.02383723296225071
0.09363558143377304
-0.08047248423099518
-0.03601140156388283
-0.08287029713392258
0.04392305389046669
-0.05637480318546295
-0.05986824259161949
0.06143569201231003
-0.05027155950665474
-0.05933181196451187
-0.0677737146615982
-0.08183718472719193
0.0845511332154274
-0.05203068256378174
0.04479682818055153
-0.052562981843948364
-0.06493628770112991
-0.0040239933878183365
5.0480510253692046e-05
0.05745010823011398
0.04932939261198044
0.04936974495649338
0.06407217681407928
0.0702982023358345
0.05590308830142021
-0.08303891867399216
-0.07748138904571533
0.06634274125099182
0.004578941967338324
0.12223854660987854
-0.03392495959997177
-0.09120245277881622
-0.026258036494255066
-0.04272840544581413
0.07130210101604462
-0.07385610044002533
-0.08828114718198776
0.0686817467212677
0.03153197467327118
0.018692830577492714
-0.042582374066114426
-0.0054379734210669994
-0.059303492307662964
-0.0783640444278717
-0.024852978065609932
0.07539710402488708
0.030241962522268295
-0.0381895937025547
-0.015400022268295288
-0.023167172446846962
-0.08580461889505386
-0.008433264680206776
0.051798295229673386
-0.05590022727847099
0.13866953551769257
-0.06279870122671127
0.06389392912387848
-0.07658921927213669
-0.055354103446006775
-0.0487142875790596
0.0779690369963646
0.017778949812054634
0.10799284279346466
0.0410497821867466
-0.04551910609006882
-0.050560809671878815
-0.06476379185914993
-0.04411695897579193
0.05767587199807167
-0.10441439598798752
0.01133084949105978
0.06134719029068947
0.11578711867332458
-0.09918558597564697
-0.029647860676050186
0.09351565688848495
-0.00020745267102029175
-0.10554768145084381
-0.06474868208169937
-0.06429267674684525
-0.058186162263154984
-0.023249180987477303
0.05986139923334122
-0.07850039750337601
-0.04827168956398964
-0.05645164102315903
-0.03821539878845215
0.01873449981212616
-0.04041969031095505
0.023014158010482788
0.03853965550661087
-0.08630470186471939
-0.07464450597763062
-0.07560695707798004
0.08643943071365356
-0.047486476600170135
0.07415611296892166
-0.0706154853105545
-0.038218215107917786
-0.05520816519856453
-0.07223811000585556
0.10163184255361557
-0.010777534916996956
0.0023954620119184256
-0.05038590729236603
-0.06930674612522125
-0.009567832574248314
0.03877132385969162
-0.07883921265602112
0.02292943000793457
0.08048075437545776
0.05599048361182213
-0.03326898813247681
-0.07079680263996124
0.03827577084302902
0.05785903334617615
0.10552847385406494
0.03993108868598938
-0.1404000073671341
-0.13397806882858276
0.1319362074136734
0.016895011067390442
-0.04308418557047844
-0.039051368832588196
0.08495935797691345
0.027701936662197113
-0.05024481937289238
-0.03693826124072075
-0.024858204647898674
-0.046757422387599945
-0.04368215426802635
0.08940433710813522
-0.12685072422027588
0.05904122442007065
-0.05585157126188278
0.027117526158690453
-0.018639899790287018
-0.043897517025470734
0.0022210341412574053
-0.005765242502093315
0.027370359748601913
-0.012895900756120682
-0.06199048087000847
0.08590111136436462
0.06622926890850067
0.006723902188241482
-0.08251095563173294
-0.07351134717464447
0.05318253114819527
0.049025122076272964
-0.06099490076303482
-0.0352933295071125
0.0051259552128612995
-0.03898664563894272
-0.004124992061406374
-0.09026464819908142
-0.07891330868005753
0.03573896735906601
-0.04310230165719986
0.032052502036094666
-0.0444512739777565
0.07315082848072052
-0.030692288652062416
-0.03940003737807274
-0.041355833411216736
0.05458613485097885
-0.025807660073041916
-0.07698547840118408
0.059575844556093216
0.06516928225755692
-0.09278570860624313
0.05657605454325676
-0.03961186110973358
0.06877394020557404
0.07792481034994125
0.07544650137424469
-0.03257465735077858
0.09095147252082825
-0.06226850673556328
-0.02836105413734913
-0.06905802339315414
-0.017130956053733826
-0.0608406625688076
-0.052209943532943726
-0.09674078226089478
0.08751199394464493
-0.06141180917620659
0.10492487996816635
0.019497685134410858
-0.06028739735484123
-0.02127368375658989
-0.013691517524421215
-0.10248614847660065
0.08734018355607986
0.0627497062087059
0.07507016509771347
-0.06504803150892258
-0.07765745371580124
-0.06655813008546829
0.07465760409832001
-0.05390971899032593
0.02680126577615738
-0.03187967836856842
-0.05705498903989792
0.11433396488428116
-0.10065425932407379
0.0669499933719635
0.062267694622278214
-0.09033280611038208
0.09400999546051025
-0.07441698014736176
0.015074907802045345
-0.04834780842065811
0.07129519432783127
-0.050871942192316055
-0.06628729403018951
-0.05549667775630951
-0.09374100714921951
-0.041738688945770264
0.036397457122802734
0.03965672850608826
-0.040092889219522476
-0.03093513660132885
0.0630580261349678
0.06787331402301788
0.008981714956462383
0.0779881402850151
0.06289168447256088
0.05551252141594887
0.05074099078774452
-0.013868014328181744
-0.05026547983288765
0.015754694119095802
0.013107146136462688
0.04458405449986458
-0.00919983722269535
0.02551429532468319
-0.11855164915323257
0.09415331482887268
0.08981477469205856
-0.031098930165171623
0.05377473682165146
-0.10133432596921921
-0.11252039670944214
-0.0346837192773819
-0.02724945731461048
-0.1566188633441925
-0.06690672039985657
0.054572541266679764
0.052974678575992584
-0.007363430690020323
-0.02633102796971798
0.028474675491452217
0.006869116332381964
-0.06025427579879761
-0.08068791031837463
0.06344620138406754
0.06062699481844902
0.0013124137185513973
-0.04893752932548523
0.028760382905602455
-0.06188929080963135
0.08151629567146301
0.03131512179970741
-0.016237327829003334
-0.023287972435355186
-0.10963118821382523
-0.06365389376878738
-0.09977376461029053
-0.030615486204624176
0.03960506618022919
0.09068704396486282
-0.11361631751060486
0.09609147906303406
0.04921369627118111
0.0791575089097023
-0.004641664680093527
-0.07944509387016296
0.046098824590444565
0.04782235249876976
-0.09445662051439285
0.05506819859147072
-0.118720144033432
-0.04366292804479599
-0.005913431756198406
0.006886942777782679
-0.06302066892385483
-0.0008884904673323035
0.04821652173995972
-0.09782842546701431
-0.054943814873695374
-0.02471710741519928
0.08145207911729813
0.09705734997987747
0.05239764228463173
0.07705818116664886
0.0834573283791542
-0.012109742499887943
0.04345010966062546
-0.018377700820565224
-0.04945431649684906
0.05770830437541008
0.007732551544904709
0.04461977630853653
0.06564821302890778
0.054043080657720566
0.09978940337896347
-0.12647561728954315
-0.05954993516206741
0.04663645103573799
-0.04709944501519203
-0.07691149413585663
-0.10230390727519989
0.05787138640880585
-0.04811679199337959
-0.010954733937978745
0.07266677170991898
0.04325413331389427
-0.053835704922676086
-0.07980532944202423
-0.03176197037100792
0.05352196469902992
0.032743602991104126
-0.08002009242773056
-0.09541497379541397
0.10267218947410583
0.11573801189661026
-0.021872270852327347
-0.03656692057847977
0.03584372624754906
-0.062048740684986115
0.11505605280399323
-0.011874874122440815
0.0020776265300810337
0.04688320681452751
-0.06670434027910233
-0.06374571472406387
0.02473580092191696
-0.07774218916893005
0.054582200944423676
-0.13838034868240356
0.03405391424894333
-0.025129904970526695
0.04170076921582222
0.03740055114030838
0.02412888966500759
-0.06072123348712921
0.03582613915205002
0.04932462051510811
0.030367176979780197
-0.04829030856490135
0.0657348483800888
-0.09911670535802841
0.05311745032668114
0.03900875896215439
0.07121779769659042
-0.0801529511809349
-0.058087464421987534
-0.04657360166311264
0.08823014795780182
0.04792557656764984
0.06214649975299835
0.05544447526335716
0.0027824565768241882
-0.07179141789674759
0.04720040038228035
-0.04368789121508598
0.07303943485021591
-0.0189877450466156
-0.059773195534944534
0.09044784307479858
0.06987987458705902
-0.06859280169010162
0.07975403219461441
0.10518933087587357
-0.02287849225103855
-0.03542288392782211
0.07859011739492416
0.12051388621330261
-0.020199976861476898
0.05748511105775833
0.05103158578276634
0.05521030351519585
0.0579022616147995
-0.04986328259110451
0.030503584071993828
0.05755646899342537
-0.046533625572919846
0.017721248790621758
-0.10240651667118073
0.0424119308590889
-0.06400832533836365
-0.04629024118185043
0.07460792362689972
0.06597818434238434
0.03046013042330742
0.08026206493377686
0.03262075409293175
-0.01091593224555254
-0.06810662150382996
-0.00126519869081676
-0.043110571801662445
0.024546733126044273
-0.049346670508384705
-0.08734071254730225
0.028147563338279724
-0.02839643321931362
-0.10583951324224472
0.047793831676244736
0.04382551833987236
0.07192984968423843
0.07218001782894135
0.06946112215518951
-0.028774486854672432
0.11011402308940887
0.058330707252025604
0.04769159480929375
0.05142807960510254
-0.025804493576288223
0.0860709398984909
-0.02927057445049286
-0.040002960711717606
-0.0896257683634758
0.04102643206715584
-0.020267263054847717
-0.02412155456840992
0.04593665897846222
0.06717389822006226
-0.04056267440319061
-0.08118212968111038
0.07530998438596725
0.06928102672100067
-0.08806183934211731
0.013709674589335918
-0.16900591552257538
-0.017758358269929886
0.014532088302075863
0.07319522649049759
-0.07494023442268372
0.04309501498937607
-0.028168976306915283
0.0794624611735344
0.11078356206417084
0.0646945908665657
-0.05990321934223175
-0.02755754441022873
0.0663985162973404
0.05367027968168259
-0.07249508798122406
-0.0356416217982769
-0.051656339317560196
0.010967820882797241
-0.09975655376911163
0.04658827930688858
0.06985190510749817
-0.12738409638404846
0.08692429214715958
-0.09171806275844574
0.0953068733215332
-0.0440840981900692
-0.04006842151284218
0.026712052524089813
0.06131882965564728
-0.04719365015625954
0.048068173229694366
0.07398108392953873
-0.0481625534594059
-0.008207901380956173
-0.0077319457195699215
-0.02938210219144821
-0.0007965415134094656
-0.09233751893043518
0.009523248299956322
-0.08223394304513931
-0.0613623671233654
-0.08352421224117279
-0.0849182978272438
0.0803627148270607
-0.03216142579913139
0.045055780559778214
-0.052050523459911346
-0.06466720253229141
-0.02824140153825283
-0.06523595005273819
0.057093504816293716
-0.03300660848617554
-0.013136806897819042
-0.09342475980520248
0.047508276998996735
-0.05666865035891533
0.07240026444196701
-0.12766467034816742
-0.05269405245780945
0.024102110415697098
0.0227044690400362
-0.05301544442772865
0.006236685439944267
-0.04770970717072487
0.05384822189807892
-0.12974853813648224
0.024917131289839745
0.011965767480432987
0.03526466712355614
0.07900195568799973
0.0775197297334671
-0.08419813215732574
0.0433974526822567
0.1100507602095604
-0.05917265638709068
0.036772988736629486
0.12480504810810089
0.03068322129547596
0.0029696000274270773
-0.03304671868681908
-0.06256271153688431
0.0798906460404396
-0.0683848038315773
-0.031178828328847885
-0.07449799031019211
-0.09288608282804489
0.14021223783493042
-0.03730044886469841
0.013983745127916336
0.00555025227367878
0.051537614315748215
0.015150926075875759
-0.045749783515930176
0.020218927413225174
0.055529288947582245
0.053180571645498276
-0.06414871662855148
-0.05271249637007713
0.04147230088710785
0.026031775400042534
-0.088380366563797
-0.05729895457625389
-0.015578576363623142
-0.04748137667775154
0.10430361330509186
-0.09632060676813126
-0.053562164306640625
-0.11321470886468887
0.08042819052934647
0.07318431884050369
-0.025248447433114052
0.07245827466249466
0.01659204065799713
0.038486555218696594
-0.0112835131585598
-0.055974725633859634
-0.022535264492034912
