0.10307375341653824
-0.07616464048624039
-0.4454955756664276
0.3657473027706146
-0.04333275929093361
-0.01840001903474331
0.002347109839320183
0.008677865378558636
0.04987279325723648
-0.05230368673801422
-0.036247074604034424
0.06648069620132446
-0.08576881140470505
0.37885430455207825
0.02807130292057991
0.06517661362886429
0.04517429322004318
0.16521233320236206
0.1507311463356018
-0.015058109536767006
0.04265569522976875
-0.047056932002305984
0.1779266595840454
-0.31566816568374634
-0.22849953174591064
-0.0025501810014247894
-0.06055464595556259
-0.0907469242811203
-0.045331042259931564
0.08521562069654465
0.06056619808077812
0.018292153254151344
-0.2551921308040619
0.13773438334465027
-0.06775511801242828
-0.10850425809621811
-0.11677655577659607
0.08308358490467072
-0.062204841524362564
-0.040384043008089066
-0.05900133028626442
0.0039209830574691296
-0.21367742121219635
0.16760440170764923
-0.048275887966156006
0.005233042407780886
-0.046817198395729065
-0.10135481506586075
0.05004217475652695
0.02197040058672428
-0.036525122821331024
-0.23792046308517456
0.0711175724864006
-0.09468425065279007
-0.015016339719295502
0.04097028076648712
0.025093674659729004
0.014768770895898342
-0.10261940956115723
-0.11278916150331497
-0.054764170199632645
0.19285577535629272
0.1429671049118042
-0.03611850365996361
0.14469483494758606
0.0004354814300313592
0.06693392992019653
0.06685889512300491
0.1652047336101532
-0.021073849871754646
-0.0972650796175003
-0.07680610567331314
0.02658865787088871
0.49198654294013977
0.04580463096499443
-0.040054142475128174
0.13268207013607025
0.030250877141952515
-0.20483280718326569
-0.23117126524448395
0.1013236790895462
-0.052816376090049744
-0.033370696008205414
0.10096916556358337
-0.0919373407959938
0.05292313173413277
0.06969496607780457
-0.04408499598503113
0.11800172924995422
-0.06133967265486717
-0.20651976764202118
0.03463931754231453
-0.11626410484313965
-0.06984321773052216
-0.021025367081165314
-0.10785207152366638
-0.0970577523112297
0.12048488855361938
-0.05777618661522865
0.19275429844856262
0.2238447219133377
-0.04521064832806587
0.05673808604478836
-0.016364814713597298
0.0172036811709404
0.12025683373212814
0.1406252384185791
-0.13178886473178864
-0.11186160147190094
-0.12838976085186005
-0.018992990255355835
-0.020899996161460876
-0.09324435889720917
0.03976428508758545
0.059053897857666016
-0.050436899065971375
0.18519887328147888
0.11330339312553406
0.02488909661769867
-0.1380602866411209
-0.0773136094212532
-0.12728305160999298
-0.015501260757446289
-0.019087525084614754
0.02826438657939434
0.06116418540477753
-0.04821101948618889
0.07357726246118546
