0.02346111834049225
0.08692897856235504
0.07667820900678635
-0.15722905099391937
-0.07444138079881668
-0.13922572135925293
-0.1562160849571228
-0.0037340521812438965
0.024758027866482735
-0.13882561028003693
-0.013178684748709202
0.15139789879322052
0.03233439847826958
-0.26181793212890625
0.0041193123906850815
-0.060058072209358215
0.09193877130746841
-0.12380684912204742
-0.1792411357164383
0.0006855832762084901
0.02441301755607128
-0.016833409667015076
0.05254063010215759
-0.13192950189113617
0.13386407494544983
0.017029516398906708
-0.05729283019900322
0.08071131259202957
-0.05214840918779373
-0.07186774164438248
-0.1237872913479805
-0.12612229585647583
0.05864116549491882
-0.10378335416316986
-0.07684431225061417
-0.2125389277935028
-0.04156035557389259
0.12356012314558029
-0.0031188095454126596
-0.18852393329143524
0.16710060834884644
0.041494306176900864
-0.13668206334114075
0.24145935475826263
-0.011109435930848122
0.04937515780329704
0.10273949056863785
0.038369070738554
-0.05856028199195862
-0.02093227580189705
0.32094329595565796
0.03225713223218918
0.01855846866965294
0.1155884861946106
0.018282471224665642
-0.13736289739608765
0.07220298051834106
0.11553464829921722
0.022051597014069557
0.09059315174818039
0.11455835402011871
-0.0572967566549778
-0.011163405142724514
-0.03583228215575218
-0.13881930708885193
0.13735772669315338
0.04647834971547127
-0.061134885996580124
0.008977866731584072
0.020631998777389526
-0.22482344508171082
0.15267455577850342
0.10741616785526276
-0.11416670680046082
-0.021477941423654556
-0.13698124885559082
0.026027856394648552
0.06768827885389328
0.20037131011486053
0.08995294570922852
0.06493007391691208
-0.10918106883764267
0.0992821604013443
-0.04402131587266922
0.05161910131573677
-0.14016495645046234
-0.10636845976114273
-0.10028250515460968
0.05570784956216812
-0.07980220764875412
0.026233630254864693
0.07374870777130127
-0.061788227409124374
0.050510991364717484
-0.08699644356966019
-0.06055879965424538
-0.01461194921284914
0.09209782630205154
0.10139086842536926
0.03748186305165291
-0.11180105805397034
0.11924952268600464
-0.022841978818178177
0.044711437076330185
0.057582102715969086
-0.051128268241882324
-0.0994986891746521
0.15593311190605164
0.00955980084836483
-0.03826941177248955
0.09932989627122879
-0.05575931817293167
0.07694902271032333
0.00021297487546689808
0.02028665319085121
0.05515572801232338
-0.18159432709217072
0.015550648793578148
0.024287361651659012
0.02087334357202053
0.19198726117610931
0.10803200304508209
0.017014946788549423
0.06230775639414787
-0.0989520326256752
0.04420223459601402
0.07264282554388046
-0.04510560631752014
