0.5133674144744873
-0.4028339982032776
-0.47723937034606934
0.0008490270120091736
0.29448047280311584
0.4737704396247864
-0.8995511531829834
-0.7030958533287048
-0.687519371509552
0.1580992043018341
0.3861284554004669
-0.00861020665615797
0.20481431484222412
0.1535494327545166
-0.47676199674606323
0.1052449643611908
0.060550231486558914
0.5692514777183533
0.1000291034579277
0.20559638738632202
0.11309552192687988
-0.32662782073020935
0.24373453855514526
-0.2061385214328766
-0.15315347909927368
-0.544419527053833
0.43454068899154663
-0.9912782907485962
0.3085577189922333
-0.06746239215135574
0.19160455465316772
0.15345552563667297
0.778322696685791
-0.5293213725090027
-0.23068861663341522
-0.3606570065021515
0.17061908543109894
0.3148392140865326
-0.10109872370958328
-0.2282905876636505
-0.14035281538963318
-0.037408553063869476
0.10155360400676727
0.6241095662117004
0.9989944100379944
0.8290866017341614
-0.16649621725082397
-0.3756261169910431
0.5141855478286743
-0.20557233691215515
-0.7466933131217957
-0.17589545249938965
0.4374712109565735
-0.4489596486091614
0.5038939118385315
0.05054633319377899
0.06479386240243912
0.07305975258350372
-0.2721541225910187
-0.6280897855758667
-0.4612686336040497
0.34937334060668945
0.3386867344379425
-0.22016319632530212
-0.26592370867729187
0.9697260856628418
0.20975174009799957
0.07665908336639404
-0.30933454632759094
0.23499038815498352
-0.3071959912776947
-0.5838060975074768
-1.0780643224716187
0.013566126115620136
0.6577655076980591
0.6195331811904907
-0.5755742788314819
0.90494704246521
0.10245457291603088
0.2862374484539032
0.41878843307495117
0.20097790658473969
-0.2815164625644684
-0.7387797832489014
-0.14172129333019257
-0.012751031666994095
-0.1117701381444931
0.2051767110824585
-0.37720373272895813
-0.029790086671710014
-0.44316235184669495
0.5547130703926086
-0.5376996994018555
-1.1137038469314575
0.5663480758666992
-0.10522393882274628
-0.7343928217887878
0.04359368607401848
-0.1753217875957489
-0.38916096091270447
0.8378028869628906
0.5842639803886414
0.7470598816871643
-0.3726516664028168
0.013247182592749596
-0.4551321566104889
-0.4529106020927429
-1.0765641927719116
0.010529767721891403
0.10587194561958313
-0.22739377617835999
0.4028718173503876
-0.13530012965202332
0.09516583383083344
-0.030912574380636215
-0.4198001027107239
0.5452067255973816
0.7617021799087524
0.5926767587661743
-0.38287708163261414
0.18819433450698853
0.315271258354187
0.01746605709195137
-0.24332495033740997
1.253377079963684
-0.14044171571731567
0.5986711382865906
0.11311589181423187
