-0.15777693688869476
-0.08670468628406525
-0.004452735651284456
-0.030917800962924957
0.04024159535765648
-0.21338015794754028
0.015592866577208042
0.10868413001298904
-0.014108213596045971
0.11136365681886673
-0.08857293426990509
-0.07823392748832703
-0.05144456773996353
0.10368838161230087
0.0752423107624054
-0.03379411995410919
0.118042953312397
0.11465149372816086
0.02358086034655571
-0.21049098670482635
-0.040069062262773514
0.015405937097966671
-0.016188845038414
0.02600899152457714
0.12627822160720825
-0.04430406168103218
0.04663941264152527
0.03413796052336693
0.08356661349534988
-0.10008317232131958
0.09134393185377121
-0.017505038529634476
-0.0018854939844459295
0.008652999997138977
-0.1185038760304451
0.054150402545928955
0.19550721347332
0.009260905906558037
-0.0779181644320488
-0.01971326395869255
-0.015749525278806686
-0.07736203819513321
-0.20634013414382935
0.0613778717815876
0.01252785511314869
-0.07685711979866028
-0.01937883347272873
0.07773028314113617
0.030760368332266808
0.04334932565689087
0.03826890140771866
0.016581960022449493
-0.08077946305274963
0.004710135515779257
-0.06845302879810333
0.04489095136523247
0.040595948696136475
-0.06317262351512909
0.11909328401088715
0.11207354813814163
0.05484582483768463
-0.03795250132679939
-0.02324412576854229
-0.04719593748450279
0.009659165516495705
-0.17326320707798004
0.20899344980716705
0.017692605033516884
0.30452385544776917
-0.14952318370342255
-0.13261178135871887
-0.02176447957754135
-0.1193477138876915
-0.05739758908748627
-0.08440209180116653
-0.17797012627124786
0.032350458204746246
0.09541281312704086
-0.055019229650497437
0.2621389627456665
-0.16442005336284637
0.000674871844239533
-0.13252964615821838
-0.24769549071788788
-0.014606787823140621
-0.11989349871873856
-0.400907039642334
-0.06705985963344574
-0.021045805886387825
-0.0829729437828064
-0.055644549429416656
0.00849007535725832
0.2174808382987976
-0.0454481765627861
0.19768235087394714
-0.21613140404224396
0.035654205828905106
-0.184327632188797
-0.06557026505470276
0.09387801587581635
0.2742445766925812
-0.19992811977863312
0.0250228364020586
0.06937960535287857
0.1964273452758789
-0.1086660698056221
-0.043448153883218765
0.05793972313404083
-0.09355653077363968
0.10623732954263687
-0.0661882534623146
0.027346493676304817
0.12520292401313782
-0.08082502335309982
0.013505842536687851
-0.22597023844718933
-0.11063383519649506
0.15065041184425354
-0.10833613574504852
-0.260922372341156
0.12224022299051285
-0.12467020750045776
0.1986466497182846
-0.22267146408557892
0.0341997966170311
-0.2719249427318573
-0.09769640117883682
-0.0676497370004654
0.057056307792663574
-0.044481050223112106
0.03308301791548729
-0.06343232095241547
0.032426949590444565
-0.0061191413551568985
-0.07762951403856277
-0.016005270183086395
0.04932558536529541
-0.08023929595947266
0.12182579189538956
0.23598307371139526
-0.047696877270936966
-0.09787547588348389
0.003208449576050043
-0.01412186399102211
0.015474913641810417
0.09018595516681671
0.01872231997549534
-0.07368074357509613
-0.024504363536834717
-0.006831349339336157
0.023957310244441032
-0.05138346180319786
-0.02694404497742653
0.0063681891188025475
0.016305381432175636
-0.05430067330598831
-0.0652647390961647
0.054713256657123566
0.040929634124040604
-0.04346315190196037
-0.05516417324542999
0.03173612803220749
-0.0662522092461586
-0.09608392417430878
0.025130897760391235
0.005762140732258558
-0.05883096531033516
-0.020643744617700577
-0.07746283710002899
0.04847772419452667
-0.02517222799360752
0.028550175949931145
-0.025773504748940468
0.02933771349489689
-0.06729380041360855
0.03609851002693176
-0.024149024859070778
-0.056556858122348785
0.04745914041996002
0.006578558590263128
0.10773007571697235
0.02376408874988556
-0.004347298759967089
0.027471737936139107
0.044151026755571365
0.04801791161298752
-0.03892964869737625
-0.011597177013754845
0.07729262113571167
0.08531158417463303
-0.05526137351989746
0.028810938820242882
0.09433679282665253
0.0975482389330864
0.0635988712310791
0.11900251358747482
0.006423057522624731
0.01110185869038105
-0.2282019555568695
-0.03464225307106972
-0.07497538626194
0.1428949385881424
-0.12402542680501938
-0.020231807604432106
-0.0809914618730545
0.11107079684734344
0.12198270112276077
-0.08481650799512863
0.09531879425048828
-0.06252507120370865
-0.07493756711483002
-0.10344203561544418
0.128925621509552
0.08248796314001083
-0.176711305975914
0.05973140150308609
-0.09770121425390244
0.19261755049228668
0.06100836023688316
0.051924750208854675
-0.1328893005847931
-0.135536789894104
-0.15786433219909668
0.0019887485541403294
0.05682371184229851
-0.20101408660411835
-0.2233259528875351
-0.19641244411468506
-0.21034197509288788
0.04700944572687149
0.03762931376695633
0.15800628066062927
0.017000837251544
0.2854776382446289
-0.036111462861299515
0.07729458063840866
0.07578261196613312
-0.054019153118133545
-0.03349423035979271
0.17075182497501373
-0.006023042369633913
-0.052051201462745667
-0.11004763096570969
-0.4233892261981964
0.12488987296819687
0.007643251214176416
-0.07458646595478058
0.04327242821455002
0.029414232820272446
-0.053943853825330734
0.09221628308296204
-0.3413204252719879
-0.01207221020013094
0.051207561045885086
0.09596211463212967
-0.07201432436704636
0.06849131733179092
0.06021393835544586
-0.10203299671411514
-0.023640913888812065
-0.07452134788036346
-0.008106781169772148
-0.101171113550663
-0.043537646532058716
-0.024402529001235962
-0.009362882003188133
-0.07997559756040573
0.007173747755587101
0.003991704434156418
-0.02479744330048561
-0.010036269202828407
-0.0040897587314248085
0.04997437819838524
-0.0237702839076519
-0.024036264047026634
0.004793419502675533
-0.057887498289346695
-0.022036850452423096
0.003310510655865073
-0.025806881487369537
0.011180774308741093
0.11185965687036514
-0.01930711418390274
0.03213692829012871
0.09514334797859192
-0.0811297670006752
0.03160766139626503
-0.037283383309841156
-0.052343837916851044
0.025963876396417618
-0.13030143082141876
-0.016716284677386284
0.16014598309993744
0.014420551247894764
0.025149906054139137
0.037526972591876984
0.020321590825915337
-0.03328290209174156
-0.0011356425238773227
0.006826139520853758
-0.034900132566690445
-0.08752180635929108
0.018187353387475014
-0.11220057308673859
-0.05911000072956085
0.12415220588445663
0.01851791888475418
0.006778404116630554
-0.07004494220018387
-0.08436009287834167
-0.027182502672076225
-0.06744028627872467
0.05253741145133972
-0.02996334433555603
0.05003989487886429
0.0008878859807737172
-0.15217198431491852
0.0505235455930233
-0.00325736659578979
0.06581011414527893
0.05047803372144699
-0.0969601720571518
-0.012496337294578552
-0.020938144996762276
0.10585280507802963
0.04860654100775719
0.016154982149600983
-0.014748536981642246
0.13796547055244446
-0.17555508017539978
-0.16045275330543518
-0.12231437116861343
-0.12578311562538147
-0.1501757949590683
-0.030024535953998566
0.08380238711833954
-0.2811521291732788
0.05202043801546097
-0.07612837851047516
0.17551395297050476
0.08983655273914337
0.13083046674728394
-0.029077762737870216
-0.099906787276268
-0.11138155311346054
-0.2067381590604782
0.23517487943172455
0.1542929857969284
0.2734290063381195
0.16080299019813538
0.06868282705545425
0.06406897306442261
0.10571735352277756
0.18864859640598297
-0.10495038330554962
-0.15569378435611725
-0.12026955187320709
0.27826008200645447
-0.110003761947155
0.012538136914372444
0.09090360999107361
0.12875507771968842
-0.17479509115219116
-0.015310248360037804
-0.04871973395347595
0.05851701274514198
-0.10709917545318604
0.11766276508569717
0.08728687465190887
-0.02784264087677002
-0.006578746251761913
0.14442339539527893
-0.14309850335121155
-0.0741141140460968
0.0808674618601799
-0.043617133051157
-0.1014346331357956
0.08864651620388031
-0.02511860430240631
0.09380806982517242
-0.10854841768741608
0.13610318303108215
-0.03505874425172806
0.10422278940677643
0.0016001805197447538
-0.009809309616684914
0.13054993748664856
-0.06466804444789886
-0.08864110708236694
-0.01112736389040947
0.032572515308856964
0.041613318026065826
0.013145243749022484
-0.05126051977276802
-0.028170816600322723
-0.006686924025416374
-0.08135724812746048
-0.029241010546684265
-0.035744208842515945
0.013014310970902443
-0.020480865612626076
-0.009432190097868443
-0.004680953454226255
0.005389925092458725
0.03679753467440605
0.03203723952174187
0.03873641416430473
0.0033871447667479515
0.006476323585957289
0.03988032415509224
0.17350463569164276
0.04725682735443115
0.07793545722961426
-0.008517330512404442
-0.03195860609412193
0.004422014579176903
-0.009310669265687466
-0.0231661144644022
0.05992938578128815
0.06611421704292297
-0.09075577557086945
-0.028580989688634872
0.031466614454984665
0.03785199671983719
0.05410323664546013
-0.05605221539735794
-0.05732592195272446
0.045357637107372284
0.107884980738163
-0.016937311738729477
0.05534868687391281
-0.01025369856506586
0.02671099454164505
0.030067630112171173
0.008812574669718742
0.04154575616121292
-0.0957588329911232
0.059937555342912674
0.026375841349363327
0.13902096450328827
-0.02405940368771553
-0.08009064197540283
-0.004977135919034481
0.010961607098579407
0.04514051228761673
-0.016104862093925476
0.06360318511724472
0.02103612944483757
-0.01616803929209709
-0.006162398029118776
-0.021931784227490425
0.0021109231747686863
0.012918955646455288
-0.012019998393952847
-0.0025125122629106045
0.03448447957634926
-0.007011780049651861
0.03134346380829811
0.060354068875312805
-0.0712190642952919
0.03574947640299797
-0.04800626263022423
0.027404995635151863
0.010066954419016838
-0.023331169039011
0.045867919921875
-0.020708847790956497
0.013689258135855198
0.025065958499908447
0.016924915835261345
0.07002446800470352
0.05735548585653305
0.08415159583091736
-0.004577500279992819
-0.020567581057548523
-0.0009667606209404767
0.006350264418870211
0.0508960597217083
-0.024644147604703903
0.0030235336162149906
-0.03293497487902641
0.041585683822631836
-0.03670920804142952
-0.04598319157958031
0.00034048440284095705
0.006144744344055653
0.018557872623205185
0.03570061922073364
0.062056224793195724
-0.03781852126121521
0.01935199648141861
-0.018286792561411858
-0.01046445406973362
-0.018468255177140236
0.027925819158554077
0.008029271848499775
-0.0023894731421023607
-0.0026865131221711636
0.023893864825367928
0.0026221235748380423
-0.06715895980596542
0.03291766718029976
-0.044368091970682144
-0.0698801577091217
0.0265493206679821
-0.030693378299474716
-0.06779376417398453
0.07053505629301071
-0.003715759376063943
0.02978169545531273
-0.020589198917150497
-0.01189939770847559
0.010824357159435749
0.1074296310544014
-0.1233610063791275
0.02647739090025425
-0.03499721735715866
-0.13270263373851776
-0.05351445451378822
0.09070231020450592
-0.008551042526960373
-0.16430167853832245
-0.06197565793991089
-0.018282096832990646
-0.06770643591880798
-0.008218564093112946
-0.04947901517152786
-0.06271691620349884
0.03494061902165413
0.05388511344790459
-0.04373633489012718
0.13334231078624725
0.001651441096328199
-0.04502665624022484
-0.19097940623760223
0.12644627690315247
0.055826835334300995
-0.05476637929677963
0.07812163978815079
-0.07274743914604187
-0.04951002076268196
0.02533915638923645
-0.21665596961975098
0.06482978910207748
0.009646228514611721
0.015141614712774754
-0.09958703070878983
0.06217014044523239
0.055528271943330765
-0.022879501804709435
-0.044000402092933655
-0.047963567078113556
-0.1291874349117279
0.030363233759999275
0.0037890984676778316
0.04751173034310341
-0.009384320117533207
-0.07499086856842041
-0.014229410327970982
0.015132581815123558
0.09519311785697937
-0.09879507124423981
0.06484220921993256
0.11925549060106277
0.039691753685474396
0.006916863843798637
-0.02160724066197872
-0.0039946516044437885
0.11718734353780746
0.01947832852602005
-0.15194649994373322
-0.04396301507949829
-0.027182023972272873
0.09364026039838791
-0.014684435911476612
-0.048932481557130814
0.013373316265642643
-0.1626846194267273
-0.001957840519025922
0.004779858514666557
-0.05143773928284645
0.27919358015060425
-0.08870125561952591
0.03637830168008804
0.0027339556254446507
-0.21947526931762695
0.11557924747467041
-0.05432410165667534
-0.08334915339946747
0.04679650813341141
0.09525060653686523
0.02173437736928463
-0.04332980886101723
0.18365135788917542
0.051985494792461395
0.06904791295528412
0.06612119823694229
-0.09915851801633835
0.0681893453001976
0.052089545875787735
-0.23533761501312256
0.08630635589361191
-0.08351507782936096
-0.1250557005405426
0.06657589226961136
0.07462616264820099
-0.1617531031370163
0.10654641687870026
-0.22974549233913422
-0.021620266139507294
0.10936705768108368
-0.3627796471118927
0.00868445448577404
0.053391024470329285
-0.0945543721318245
-0.008203604258596897
0.08445161581039429
-0.1486881971359253
0.14027178287506104
0.08805260807275772
-0.32664167881011963
0.061585765331983566
0.06581632792949677
-0.16424565017223358
0.00425045657902956
-0.02081533707678318
-0.24640852212905884
-0.024810791015625
0.10490021109580994
-0.07739510387182236
0.12316762655973434
0.171544149518013
0.00489776162430644
-0.15037788450717926
-0.04176744073629379
-0.15984132885932922
0.009355314075946808
0.24742433428764343
-0.01611723192036152
-0.13476774096488953
0.0460214726626873
-0.009672308340668678
0.03694203123450279
-0.07564151287078857
-0.016518833115696907
-0.05673254653811455
0.044210437685251236
0.057355184108018875
-0.15064722299575806
0.03688449040055275
-0.0003905482590198517
-0.07850662618875504
0.006087314337491989
0.0893150120973587
-0.0005643383483402431
0.042400699108839035
-0.033208802342414856
-0.17310422658920288
0.07971376180648804
-0.028084035962820053
0.13129127025604248
-0.03838689252734184
-0.06953859329223633
-0.055906087160110474
-0.05507790669798851
-0.034641098231077194
-0.052284110337495804
-0.08615423738956451
-0.09347020089626312
-0.012426665052771568
0.014931580051779747
0.07787300646305084
-0.07612647116184235
-0.12973161041736603
0.0036021771375089884
0.13991087675094604
0.05004280433058739
0.03431842476129532
-0.09610605239868164
0.09333006292581558
-0.05378158017992973
-0.04801966995000839
0.06826988607645035
0.05413657799363136
0.010003934614360332
-0.003492959775030613
-0.013095949776470661
-0.005297051277011633
-0.08947518467903137
-0.10736136138439178
0.043508317321538925
0.031875986605882645
-0.010079573839902878
0.06352431327104568
-0.023953435942530632
0.10700931400060654
0.11567077785730362
-0.09977597743272781
0.10134913772344589
-0.1487826406955719
0.08319132775068283
-0.03463250398635864
-0.025660501793026924
0.017692090943455696
0.023012327030301094
0.005583193618804216
-0.04333219304680824
0.17663569748401642
-0.19383104145526886
0.03175443410873413
-0.0034851492382586002
0.008820691145956516
0.23125052452087402
0.03272320702672005
0.07157563418149948
-0.05034923553466797
0.08880291879177094
0.17628760635852814
-0.04377960413694382
0.28387904167175293
0.07014421373605728
0.06685586273670197
-0.010666065849363804
0.011519285850226879
-0.07733846455812454
0.15593168139457703
0.09393121302127838
-0.4159505069255829
0.14814640581607819
0.21287976205348969
0.1317090392112732
0.052932772785425186
-0.08480365574359894
0.2583039402961731
0.1458975374698639
-0.05092930421233177
-0.06494849920272827
0.11186560988426208
0.22483502328395844
-0.1399952918291092
0.03596797585487366
-0.08997886627912521
0.05946829169988632
0.03126027435064316
0.010375662706792355
0.032840482890605927
0.12482542544603348
0.04277770221233368
-0.043620601296424866
-0.1092803105711937
-0.21328867971897125
0.1615460366010666
0.0549885556101799
-0.164031982421875
-0.030728764832019806
-0.17595122754573822
0.12758629024028778
-0.08777408301830292
-0.007808875758200884
0.11084765195846558
0.023913105949759483
0.2045433521270752
-0.10123669356107712
-0.1607944220304489
0.12123971432447433
-0.26720163226127625
0.030972445383667946
-0.18882477283477783
-0.017044171690940857
0.06704241037368774
0.09628110378980637
0.008196873590350151
0.017860855907201767
-0.02741827815771103
-0.08440644294023514
0.016854243353009224
-0.047610748559236526
-0.10612720996141434
0.003348473459482193
-0.03642728179693222
0.07640927284955978
0.0874161422252655
-0.10032924264669418
0.002131686545908451
-0.07003383338451385
0.044519323855638504
0.07517768442630768
-0.017267940565943718
0.07099384814500809
0.04183470085263252
0.029239125549793243
-0.03906291723251343
-0.01667586714029312
0.017781361937522888
-0.030046813189983368
-0.01634254865348339
-0.0007900436175987124
-0.030987007543444633
0.0028476733714342117
0.056893788278102875
-0.04622309282422066
-0.08102244138717651
-0.023220600560307503
-0.035815369337797165
-0.11498979479074478
-0.023626253008842468
-0.04076201096177101
-0.07827331870794296
-0.09800294041633606
0.030941499397158623
0.09893909096717834
-0.09230172634124756
0.09188909083604813
0.004486931953579187
0.08005140721797943
-0.10663380473852158
0.060451120138168335
0.16585376858711243
-0.04880363866686821
0.06822425872087479
0.044697634875774384
-0.09937839210033417
-0.06802923232316971
0.043434370309114456
-0.048622749745845795
0.11006336659193039
-0.042959269136190414
0.04202263802289963
0.015076402574777603
0.047516897320747375
-0.019571814686059952
0.007236565463244915
0.011098800227046013
-0.07076353579759598
-0.10944802314043045
0.014147319830954075
-0.012851663865149021
-0.25043821334838867
0.06157362461090088
-0.05189422890543938
-0.16620363295078278
0.12629233300685883
0.09174398332834244
0.14699281752109528
-0.1321866661310196
0.04473792761564255
0.07862928509712219
-0.06721631437540054
0.07605182379484177
-0.0650356113910675
-0.07163667678833008
0.010908207856118679
-0.002653562929481268
-0.03942846134305
-0.12033194303512573
-0.04375438764691353
0.008103652857244015
-0.1073811873793602
0.19519028067588806
-0.05988603085279465
-0.16773155331611633
0.03970371186733246
-0.025677528232336044
-0.07659623771905899
-0.04283839091658592
-0.060931507498025894
-0.07786146551370621
-0.1820671409368515
0.09616374224424362
-0.046862415969371796
-0.13934986293315887
0.13743078708648682
-0.1332036852836609
0.06859144568443298
0.1341930776834488
0.058900319039821625
-0.20850138366222382
-0.022878196090459824
-0.04691767320036888
0.14072734117507935
0.008318128064274788
0.05485795810818672
0.012679320760071278
0.38969752192497253
-0.05328456684947014
0.05782296136021614
-0.10382536798715591
0.17835581302642822
0.18698881566524506
0.005187103524804115
0.02472672425210476
-0.01707634888589382
-0.19644175469875336
0.09139183908700943
0.05908505991101265
0.04209978133440018
0.027784721925854683
0.0103079155087471
-0.01449589803814888
0.050021182745695114
-0.044845182448625565
0.02617267146706581
-0.08981029689311981
0.0606544055044651
0.19387884438037872
-0.08931741118431091
0.14474284648895264
0.05883252993226051
-0.07395107299089432
0.03725932911038399
-0.07496370375156403
0.134787917137146
0.07785561680793762
-0.07127838581800461
0.09052883833646774
-0.03246982768177986
0.009086034260690212
-0.0037750136107206345
0.0701703354716301
0.06526637822389603
-0.01256328821182251
-0.06926640123128891
-0.06480499356985092
0.07448236644268036
-0.0920652225613594
0.0788855254650116
-0.08099561929702759
0.07397828996181488
0.12122920900583267
-0.03294159099459648
-0.010144732892513275
0.0002827872522175312
-0.023018160834908485
0.02075187861919403
-0.03818690776824951
0.09344150125980377
0.002557558473199606
-0.02619045227766037
-0.07459381222724915
0.07021132111549377
-0.04223240166902542
-0.0867290124297142
0.04163259267807007
0.08960189670324326
0.09346447885036469
0.023282838985323906
-0.01933111809194088
-0.009480612352490425
-0.07994239032268524
0.1020311787724495
-0.025733686983585358
-0.08022814244031906
0.03140097111463547
0.07495635747909546
0.10669859498739243
-0.008589324541389942
0.015289437025785446
0.0019789652433246374
-0.03217742219567299
6.165752711240202e-05
0.037242453545331955
-0.14477285742759705
-0.17077651619911194
-0.08914940059185028
0.09150592982769012
0.09712930023670197
-0.23590752482414246
0.24528643488883972
-0.034048452973365784
0.03616282716393471
0.09811999648809433
0.18276329338550568
-0.06264086812734604
-0.0355716273188591
-0.04275193065404892
-0.30572640895843506
-0.09843958169221878
-0.2527986466884613
-0.0850028321146965
-0.045205097645521164
-0.06420693546533585
0.13655826449394226
0.08396925032138824
-0.1536179631948471
-0.09361609071493149
-0.07175398617982864
-0.21983863413333893
-0.05390121415257454
-0.13890092074871063
-0.03524957597255707
0.011648659594357014
-0.0855175331234932
-0.23289090394973755
0.05473894998431206
-0.2634512782096863
0.0213242769241333
0.2854855954647064
0.03420798480510712
0.036042969673871994
-0.10741916298866272
0.16202899813652039
-0.41468244791030884
-0.08614850044250488
-0.32343003153800964
0.025842254981398582
0.012764221988618374
-0.010800722986459732
0.0506645068526268
-0.006290162447839975
0.007213781587779522
0.04009510204195976
-0.13556548953056335
0.14614659547805786
-0.14516904950141907
0.3115405738353729
0.1341347098350525
-0.10604637116193771
-0.18230792880058289
-0.06254243850708008
-0.24288888275623322
0.026002468541264534
-0.062106285244226456
0.32050788402557373
-0.05411933362483978
-0.04675455763936043
0.031213978305459023
-0.05687135457992554
0.013598344288766384
-0.03248526155948639
-0.07647308707237244
0.012004733085632324
0.06734674423933029
0.031091641634702682
0.0007926822872832417
0.047238849103450775
-0.05254198610782623
-0.1542678028345108
0.05095982924103737
-0.0017397559713572264
-0.12648870050907135
0.057289931923151016
0.08226203173398972
-0.06753500550985336
-0.042542632669210434
0.029203306883573532
0.06081915274262428
0.008358260616660118
-0.12576206028461456
-0.021796876564621925
0.09663129597902298
-0.07628527283668518
-0.13374251127243042
-0.003553522750735283
-0.07884640246629715
0.03546028211712837
-0.06293073296546936
0.08121223747730255
-0.008711766451597214
0.02114979922771454
-0.010465401224792004
0.09396496415138245
0.04060724377632141
-0.025139572098851204
0.06511658430099487
-0.03050306811928749
0.07270850986242294
0.03131059557199478
-0.04273604601621628
-0.08901791274547577
-0.002292107790708542
-0.027193831279873848
0.0432642325758934
-0.05452779680490494
-0.08013367652893066
0.03132643178105354
-0.07356419414281845
-0.037077538669109344
-0.05044589936733246
-0.11163356900215149
-0.008965827524662018
0.08134392648935318
-0.037981946021318436
0.03599557280540466
0.12526056170463562
0.07922183722257614
0.09908531606197357
0.01668608747422695
-0.04405287653207779
-0.08027375489473343
0.1776285171508789
-0.03028959594666958
-0.12253779917955399
-0.01563955470919609
-0.029534654691815376
0.0783250704407692
0.22401273250579834
-0.035527553409338
0.0318010076880455
0.055471599102020264
0.10487997531890869
-0.23234428465366364
-0.106488898396492
0.11407994478940964
-0.23060692846775055
0.10280045121908188
0.07886382192373276
0.1391168236732483
-0.27050355076789856
-0.08640488982200623
-0.1735873818397522
-0.079388327896595
-0.019667860120534897
-0.17221499979496002
0.10773850232362747
-0.07818959653377533
0.19251394271850586
0.08085579425096512
0.009191717021167278
0.06953617930412292
-0.009234456345438957
0.04711499065160751
0.14199873805046082
-0.2944142520427704
-0.19449438154697418
-0.032485608011484146
-0.08283492922782898
-0.03575194627046585
0.0011554176453500986
0.2021327018737793
0.11133912950754166
-0.08973215520381927
0.1660303771495819
0.04764558747410774
-0.028141969814896584
-0.12624157965183258
-0.07838131487369537
-0.27082207798957825
-0.04504673182964325
0.06807497888803482
0.002308084163814783
-0.1816866397857666
-0.0313086099922657
0.05781450867652893
-0.13022968173027039
-0.050959546118974686
-0.16705265641212463
0.1055350974202156
0.03699497878551483
-0.045772161334753036
-0.059912629425525665
0.049871183931827545
0.10459445416927338
0.23155280947685242
0.039326224476099014
-0.08344130963087082
0.07441134750843048
0.12293829768896103
0.005528594367206097
0.03474276512861252
-0.04127144813537598
-0.10547798126935959
0.06843475997447968
-0.07613438367843628
-0.010615595616400242
-0.061133261770009995
0.023430872708559036
-0.01735801063477993
0.07824647426605225
0.0588381290435791
-0.01927606575191021
-0.05728632211685181
-0.027531316503882408
0.06442578881978989
0.10847938060760498
0.04734894260764122
0.05625340715050697
0.000763706280849874
-0.031377438455820084
0.060465797781944275
-0.023170653730630875
-0.10055013000965118
-0.11802825331687927
-0.06953905522823334
-0.011966150254011154
0.1845891922712326
-0.020468004047870636
-0.008342214860022068
0.12104443460702896
-0.09863512217998505
0.003127029165625572
-0.020247912034392357
0.002397366566583514
-0.22870519757270813
0.08870194107294083
0.06592114269733429
0.041292399168014526
0.04271913692355156
0.006835469510406256
-0.0005465378635562956
-0.06706640124320984
-0.019309991970658302
0.0723448321223259
-0.009385205805301666
0.04488041251897812
-0.016060713678598404
0.04106961935758591
0.04655998572707176
0.054759420454502106
0.008904863148927689
-0.04275619611144066
0.10793039202690125
-0.0009120372706092894
0.08525440096855164
0.12858130037784576
-0.038411159068346024
0.013284659944474697
-0.07698942720890045
-0.0229995958507061
-0.03579056262969971
0.02233250066637993
-0.2357027381658554
-0.05288081243634224
0.07954911887645721
0.06260443478822708
-0.06645555049180984
0.23396192491054535
0.11458177119493484
0.04194413125514984
-0.08730687946081161
-0.11368438601493835
0.0037245566491037607
-0.4666481018066406
0.14562487602233887
0.12377361208200455
-0.2223176509141922
-0.15880689024925232
0.06893762946128845
-0.005838141776621342
-0.02927546761929989
-0.04150282219052315
-0.007333568297326565
-0.35299360752105713
0.34472864866256714
-0.02856704778969288
0.04540728032588959
0.17055925726890564
-0.16230683028697968
-0.3012736141681671
0.05137597769498825
-0.1297103315591812
0.07130518555641174
0.13329744338989258
0.19060152769088745
-0.14901982247829437
0.08755837380886078
0.1377677321434021
0.04583359137177467
-0.016749074682593346
-0.029302386566996574
0.08878610283136368
-0.0734802857041359
-0.00805237889289856
-0.1200975850224495
-0.18612809479236603
-0.1803109347820282
-0.10252539813518524
-0.09070781618356705
-0.07270415872335434
0.4164096415042877
-0.1635931432247162
0.16269433498382568
-0.22271983325481415
-0.006738078314810991
0.059155914932489395
0.12318665534257889
0.19530357420444489
-0.03138874098658562
0.1418587863445282
-0.19181007146835327
-0.10614019632339478
0.11576252430677414
0.06418375670909882
0.002629613969475031
-0.06296570599079132
-0.04086174815893173
-0.10859549045562744
-0.015136231668293476
0.1062290221452713
-0.055585239082574844
0.031740203499794006
-0.01756143383681774
0.011452814564108849
-0.013010291382670403
-0.0959441140294075
0.08077952265739441
-0.0725235715508461
-0.022216342389583588
0.010697140358388424
0.004099435638636351
0.01368742436170578
0.0011246827198192477
0.06573519855737686
-0.08463678508996964
0.10238002985715866
-0.15831153094768524
-0.08896337449550629
0.03234443441033363
0.08707775175571442
0.16403484344482422
-0.02615542523562908
0.055740807205438614
-0.024517588317394257
0.06698143482208252
0.02294202707707882
0.11743951588869095
-0.014614524319767952
-0.033420171588659286
0.012911590747535229
-0.019873039796948433
-0.07276523858308792
0.04003841057419777
0.03570779040455818
-0.07757590711116791
0.0036278062034398317
-0.018581802025437355
0.035219185054302216
-0.10162718594074249
-0.009771529585123062
-0.006843110546469688
-0.0034618028439581394
0.07484906911849976
-0.08722367882728577
-0.06306856125593185
-0.02841942198574543
0.0022008318919688463
-0.04775509983301163
-0.08710191398859024
0.06049520522356033
0.12708227336406708
0.12076415121555328
-0.07020580768585205
0.01515430212020874
-0.09577525407075882
-0.08166980743408203
0.2876225709915161
0.08755791187286377
-0.025519775226712227
-0.26817184686660767
-0.06593732535839081
0.14484407007694244
-0.0916895940899849
0.028949212282896042
-0.11828704923391342
-0.10744495689868927
-0.02867646887898445
0.16136474907398224
0.15578724443912506
0.0086497962474823
0.2665625214576721
0.07543091475963593
0.3055538833141327
-0.2384108603000641
0.14112114906311035
0.15579459071159363
0.11637848615646362
0.3027145266532898
0.1531773805618286
-0.10615529119968414
-0.042322855442762375
-0.16859301924705505
-0.006579820066690445
0.1337788850069046
0.033410705626010895
-0.02412695437669754
0.18811261653900146
-0.04917597398161888
-0.1527964174747467
-0.03224159777164459
0.07172880321741104
-0.08627884835004807
-0.008185580372810364
-0.10343480855226517
-0.04132671654224396
0.005467094015330076
-0.12015436589717865
0.0828460305929184
0.03298751637339592
-0.21673472225666046
-0.144727885723114
-0.07337525486946106
-0.0286842193454504
0.0779690220952034
0.22189131379127502
0.014187058433890343
0.11233024299144745
-0.03840271383523941
0.1483956128358841
0.28484615683555603
-0.07542433589696884
-0.1202944964170456
0.011081282049417496
0.028228964656591415
0.05893796309828758
0.2714866101741791
-0.18572001159191132
0.08740665018558502
0.0057497043162584305
-0.13200706243515015
-0.05958407372236252
-0.10195527225732803
0.0036878292448818684
0.012121007777750492
-0.07197847217321396
-0.0059610349126160145
-0.0033900050912052393
-0.002281646942719817
0.036007244139909744
0.17363466322422028
0.032764289528131485
0.07570067048072815
-0.04864886403083801
0.0019655071664601564
-0.12853355705738068
0.08946152031421661
-0.08811184763908386
0.0431879460811615
-0.07331709563732147
0.07478804141283035
-0.14465411007404327
-0.06640275567770004
0.024143068119883537
-0.09008463472127914
0.0299662034958601
0.03302248567342758
-0.14512604475021362
-0.11371015757322311
-0.07975432276725769
-0.00834405142813921
-0.03709442541003227
0.08169636130332947
0.03910102695226669
0.01168879121541977
0.07112932205200195
-0.01827004924416542
-0.07345183193683624
-0.027900436893105507
-0.05281422287225723
-0.08074629306793213
0.08307040482759476
-0.012371615506708622
-0.02104066126048565
-0.025327226147055626
-0.01211362425237894
0.07867906987667084
0.054444633424282074
0.07888521999120712
-0.0604696124792099
-0.19098864495754242
0.03648523986339569
0.020451869815587997
0.019817136228084564
-0.02762838639318943
0.05433700978755951
-0.05782867968082428
-0.08882644772529602
0.11085449904203415
-0.034745778888463974
0.025968778878450394
-0.05972646176815033
0.07820390909910202
0.05882992595434189
-0.08739929646253586
-0.06681998074054718
0.16834436357021332
-0.07262451201677322
0.13160760700702667
0.10367104411125183
0.05900263041257858
-0.052534136921167374
-0.018713537603616714
-0.09459678083658218
0.12206899374723434
-0.05622485280036926
0.06524007767438889
-0.10543221235275269
-0.07158732414245605
0.02864849381148815
0.06357725709676743
0.09932933002710342
0.02215499058365822
-0.055753231048583984
0.10226555913686752
0.09312104433774948
-0.10383384674787521
0.07899414002895355
0.08268283307552338
-0.02499428205192089
-0.09432071447372437
0.03134620934724808
0.04320557788014412
0.31686297059059143
0.08984357863664627
-0.038938604295253754
0.2254132181406021
-0.18656519055366516
0.041779402643442154
0.10557109862565994
-0.16303645074367523
0.170484259724617
-0.02503364160656929
0.09225551038980484
-0.10721810907125473
0.1426636129617691
-0.004117433447390795
-0.01900877058506012
0.05951597914099693
-0.01089633721858263
-0.13761486113071442
0.20724254846572876
-0.12837040424346924
0.06099017709493637
-0.030110888183116913
0.012006234377622604
0.042339276522397995
-0.03659340739250183
-0.21828237175941467
0.04847155138850212
0.055977124720811844
0.07539435476064682
-0.012392022646963596
-0.040550824254751205
-0.03352808952331543
-0.04118816554546356
0.007723299320787191
0.04481805860996246
-0.1885061264038086
0.024393972009420395
-0.06460387259721756
0.004469059873372316
0.018082965165376663
-0.05875120684504509
-0.07512078434228897
-0.005236229859292507
-0.04893388971686363
0.0894470140337944
-0.05463959649205208
0.12224187701940536
0.0038822919595986605
-0.0006977174780331552
0.14913418889045715
-0.017159046605229378
-0.03517187014222145
0.0675441324710846
0.06361542642116547
-0.12126248329877853
0.052394185215234756
-0.12003307044506073
-0.022305527701973915
-0.002522875787690282
0.11129935085773468
-0.10075976699590683
0.009359592571854591
-0.04475750774145126
0.00293514272198081
-0.06679817289113998
-0.016505597159266472
0.11272227019071579
-0.016549888998270035
-0.005931607447564602
0.0694221630692482
-0.006593103986233473
-0.027658801525831223
-0.0023996734526008368
0.11444919556379318
0.08179140090942383
-0.0004166154540143907
-0.04173329100012779
-0.0675671249628067
0.029809508472681046
0.10044070333242416
-0.062143102288246155
0.008347760885953903
-0.06758291274309158
0.11625973135232925
0.007454271428287029
-0.04589884355664253
0.05714614689350128
-0.11070353537797928
0.03877576068043709
-0.08020754158496857
0.020648717880249023
-0.009425499476492405
0.014222737401723862
-0.03317399322986603
-0.006377577781677246
0.01000541727989912
0.00432184711098671
-0.06644447892904282
-0.039163943380117416
0.06715942919254303
0.06366351991891861
-0.2864871919155121
-0.12453552335500717
0.1309128850698471
-0.09807074069976807
-0.009371205233037472
0.07978177815675735
0.1526268720626831
0.0326213464140892
0.00904637947678566
-0.04871531203389168
0.19325681030750275
0.07095996290445328
-0.1114754006266594
-0.020043177530169487
0.1833178550004959
-0.11716657876968384
-0.005631555803120136
-0.06447508186101913
-0.06410088390111923
0.12179534882307053
-0.2516641318798065
-0.026488423347473145
-0.0793519988656044
0.08935003727674484
-0.14067217707633972
-0.10969540476799011
-0.017319099977612495
-0.1303793489933014
-0.13008277118206024
0.09328709542751312
-0.04676033928990364
0.12808440625667572
-0.024786239489912987
0.3412265181541443
0.04717295616865158
-0.07050243765115738
0.08522236347198486
-0.1323218196630478
-0.08914785832166672
0.03448627516627312
0.09863955527544022
-0.04005489870905876
-0.02327260561287403
0.07657092809677124
-0.005124078597873449
-0.07847174257040024
0.12732507288455963
-0.04314678907394409
0.2545596957206726
0.14274056255817413
0.08554859459400177
-0.04711155965924263
-0.18879786133766174
0.19378621876239777
0.13234874606132507
0.06634145230054855
-0.22424086928367615
-0.5021910071372986
-0.1527397781610489
-0.16067440807819366
0.03227703273296356
0.13431255519390106
0.16347122192382812
-0.09707990288734436
0.019489167258143425
-0.006862275768071413
-0.10048922896385193
-0.025189287960529327
0.04548067972064018
-0.05027642846107483
0.07679649442434311
-0.06156904622912407
-0.09886965155601501
0.05538347363471985
0.06259315460920334
0.09403949230909348
-0.07128285616636276
0.03147733211517334
-0.059071678668260574
0.07763990759849548
-0.02486160583794117
0.05383840948343277
0.04251566901803017
0.1071396991610527
-0.06237377971410751
-0.021929634734988213
0.007321855053305626
0.09707612544298172
0.019975990056991577
-0.09523098915815353
-0.00930508691817522
0.04463019222021103
0.030594127252697945
-0.08887463808059692
0.11481554061174393
-0.035148151218891144
0.009947564452886581
0.09120503813028336
0.0889049768447876
-0.009550291113555431
0.18292948603630066
0.02086973376572132
0.033975712954998016
-0.02619311958551407
0.006285395007580519
0.009863766841590405
0.041429996490478516
0.15169285237789154
-0.11905211210250854
-0.023985836654901505
-0.024517502635717392
0.04379398003220558
0.07858926057815552
0.1166771724820137
-0.003314906731247902
-0.03916669636964798
0.13643138110637665
-0.014283077791333199
-0.06680087745189667
-0.08231797069311142
-0.03778218850493431
0.02797577530145645
0.038239870220422745
0.07872548699378967
0.0044290898367762566
-0.08478759974241257
0.08975397050380707
-0.17807455360889435
0.010208820924162865
-0.01718073897063732
0.03003479167819023
0.04521482437849045
-0.03690512105822563
0.12681648135185242
-0.10068350285291672
0.08417604863643646
-0.021335162222385406
0.054859474301338196
-0.22557397186756134
0.10781547427177429
-0.0558185875415802
0.234064519405365
0.03560829907655716
-0.21806718409061432
0.09437284618616104
-0.11600812524557114
0.010555132292211056
-0.010608338750898838
0.003303233766928315
-0.19849275052547455
0.05654650554060936
0.009718862362205982
-0.07848776131868362
-0.022160343825817108
0.2371743768453598
0.015917982906103134
-0.03695331886410713
-0.21307672560214996
-0.08917085081338882
0.1874394416809082
-0.01909753680229187
0.23950982093811035
-0.01505992654711008
-0.13017290830612183
0.051902420818805695
-0.09280906617641449
-0.17127472162246704
-0.02289685606956482
-0.004741886630654335
0.09633177518844604
-0.25993290543556213
0.028471190482378006
-0.046819206327199936
-0.12158764153718948
0.07711463421583176
0.13011637330055237
0.03480277583003044
-0.24163396656513214
-0.011747339740395546
0.11233943700790405
0.06470771133899689
-0.09710688143968582
0.22829577326774597
0.18602800369262695
0.2136961668729782
0.2779805064201355
0.024489877745509148
0.014084788970649242
-0.13416509330272675
-0.051175035536289215
0.0388558991253376
0.014189806766808033
-0.1272948980331421
-0.0313602015376091
-0.045985281467437744
-0.06471621245145798
0.06556250154972076
0.04228554666042328
-0.03619850054383278
0.0503334105014801
0.042710594832897186
0.024276819080114365
0.024625010788440704
-0.007845287211239338
-0.0854044184088707
0.023242546245455742
0.0870494619011879
0.14460009336471558
-0.02406715415418148
0.06601863354444504
-0.09415273368358612
-0.04528004303574562
0.008027753792703152
-0.027473727241158485
0.009130841121077538
0.05512110888957977
0.08556172251701355
0.05261265113949776
0.09246471524238586
-0.01587047427892685
0.07438767701387405
0.13654620945453644
0.050045933574438095
0.02103598788380623
-0.02052728645503521
0.046203598380088806
0.06048259511590004
0.01608586125075817
0.05470556020736694
-0.1187729611992836
-0.06989903748035431
0.07558787614107132
-0.03616834804415703
0.088175930082798
0.03471757471561432
-0.052619609981775284
-0.01750997267663479
0.015039227902889252
-0.05581754446029663
0.027824966236948967
0.07123412936925888
-0.00011123137664981186
0.04188994690775871
-0.017468450590968132
-0.03892199695110321
-0.019499685615301132
0.0725664496421814
-0.046108122915029526
-0.005336683709174395
-0.0005414489423856139
-0.0015715438639745116
0.07344125211238861
0.04207796975970268
-0.0156121626496315
0.006347866263240576
-0.056044138967990875
0.09523497521877289
0.09964786469936371
0.1310192048549652
0.005334591027349234
-0.003073840867727995
0.015391395427286625
0.2126237004995346
0.07704337686300278
0.09054675698280334
0.18143871426582336
-0.01767079159617424
0.11812000721693039
0.027614831924438477
0.02486935630440712
0.2697873115539551
0.1026165783405304
-0.34218379855155945
0.04485088214278221
0.28283894062042236
0.014380136504769325
0.09228981286287308
0.24392518401145935
0.2447001188993454
-0.13544154167175293
0.047412823885679245
0.007139545399695635
-0.0738762766122818
0.12804412841796875
0.055410489439964294
-0.02749214880168438
0.012051491998136044
0.10837361216545105
-0.20787647366523743
0.06762593984603882
-0.09545062482357025
0.02220434509217739
0.08519131690263748
-0.19129301607608795
-0.16947346925735474
0.04214533418416977
0.22621303796768188
-0.14994484186172485
-0.02939123846590519
-0.08822010457515717
-0.007755458354949951
-0.017790021374821663
-0.037857405841350555
-0.08558809757232666
-0.17207621037960052
-0.18449221551418304
0.10291692614555359
0.011487522162497044
-0.06797440350055695
-0.05247684568166733
0.03802627697587013
0.10404007881879807
-0.08223697543144226
-0.01516073290258646
-0.2548676133155823
-0.30673152208328247
-0.2221134454011917
-0.1307089775800705
0.04420279711484909
-0.05849235877394676
0.023550154641270638
0.019794093444943428
0.113772451877594
0.02009005844593048
0.009322966448962688
0.050402238965034485
-0.03169773519039154
0.03841090947389603
-0.00814754981547594
0.056730128824710846
-0.03439982980489731
-0.052649952471256256
-0.035449352115392685
0.024722419679164886
-0.02737262099981308
-0.002760636853054166
0.018319914117455482
0.0005622419994324446
-0.04699278250336647
0.024482788518071175
-0.01424804050475359
0.02453918382525444
0.028001947328448296
0.022818122059106827
-0.18482673168182373
0.004266712814569473
-0.10492601990699768
-0.011191599071025848
-0.10053321719169617
0.12993671000003815
0.004376334138214588
-0.0881958082318306
0.1220787763595581
-0.0016040471382439137
-0.06185134872794151
0.06650497019290924
-0.06147600710391998
0.045786675065755844
-0.021821007132530212
-0.03646185249090195
-0.11065845936536789
-0.0006675495533272624
0.03510699048638344
-3.726681097759865e-05
0.08378584682941437
0.09294824302196503
0.051176607608795166
0.055860042572021484
-0.07569950073957443
-0.04071148484945297
0.11894774436950684
0.024804292246699333
0.06106308847665787
0.016789676621556282
-0.10549397021532059
0.010202653706073761
0.0061917295679450035
-0.08805027604103088
-0.10006401687860489
-0.09510178118944168
0.028686925768852234
0.04100729525089264
-0.09406057000160217
0.09140966832637787
0.1540672928094864
0.06063743308186531
0.019848018884658813
-0.0632326528429985
0.008290968835353851
0.0021931312512606382
-0.061689622700214386
-0.034197866916656494
0.03493479639291763
-0.18007118999958038
-0.14833086729049683
0.22555945813655853
-0.08735037595033646
-0.00563039118424058
0.04072846472263336
0.11857675760984421
-0.1516333818435669
0.10662402957677841
-0.02588944509625435
-0.2596698999404907
0.14949622750282288
0.13072265684604645
-0.2625095546245575
0.14468160271644592
0.10590972006320953
0.13225646317005157
-0.10230935364961624
0.08760804682970047
0.0003989756223745644
0.028692198917269707
0.02622942626476288
0.2000245898962021
-0.22536832094192505
0.08171653002500534
0.054795462638139725
0.001740173320285976
0.16003304719924927
-0.20277099311351776
0.31807371973991394
0.1899196207523346
-0.07025141268968582
-0.18507076799869537
-0.04165701940655708
0.027295388281345367
0.08583137392997742
0.10363368690013885
-0.06577286869287491
0.05001884326338768
-0.1056695431470871
0.2142132967710495
0.1709311157464981
-0.15663589537143707
0.006449661683291197
-0.11409477144479752
0.05321783199906349
-0.09867006540298462
-0.1889975368976593
0.07659503817558289
-0.19029676914215088
-0.12426627427339554
-0.0842776745557785
0.08016838878393173
0.006201042328029871
0.03495245426893234
-0.02147258073091507
-0.006254142615944147
0.032454244792461395
-0.029288170859217644
-0.1624215692281723
-0.055711667984724045
-0.011751150712370872
0.010274253785610199
0.06902763992547989
-0.03318284824490547
0.025280369445681572
-0.008340761065483093
0.004038041923195124
-0.044759154319763184
-0.051402535289525986
-0.09502425789833069
0.049805816262960434
-0.20531168580055237
0.014835745096206665
0.021497555077075958
0.11007167398929596
-0.0394853800535202
0.036106470972299576
0.022083457559347153
0.08749846369028091
0.003941941075026989
-0.06335044652223587
0.06353536993265152
0.06235045567154884
0.02258404530584812
0.058451730757951736
0.052918143570423126
0.00732404412701726
0.05249839276075363
0.05884655565023422
-0.05148551985621452
-0.011769410222768784
0.0007087194244377315
-0.031368229538202286
0.03168433532118797
-0.014326343312859535
-0.05879124626517296
0.08411368727684021
-0.007957647554576397
-0.01334710419178009
0.06715255230665207
0.00526388781145215
-0.0032952530309557915
0.058983031660318375
-0.07099799811840057
0.07335570454597473
0.002200585789978504
-0.02413322404026985
0.06245258450508118
-0.05234653130173683
0.09967455267906189
0.03173472359776497
-0.015580843202769756
-0.11425431072711945
0.020411286503076553
-0.02741084434092045
-0.03886497765779495
-0.04271738603711128
0.003952629864215851
-0.17426666617393494
-0.2659286856651306
0.1522178053855896
-0.08522235602140427
-0.07552089542150497
0.12709754705429077
-0.07224796712398529
0.07259351760149002
-0.12455641478300095
-0.1366073340177536
0.05422336980700493
-0.17885436117649078
-0.11204563081264496
-0.194782555103302
-0.000985887716524303
-0.06715607643127441
0.004055183380842209
-0.11595937609672546
-0.14706730842590332
0.22083395719528198
0.24504466354846954
0.1463940143585205
0.03310231864452362
0.02815999835729599
0.16658587753772736
0.07084418833255768
-0.09373614192008972
0.11121732741594315
-0.13553333282470703
0.21633008122444153
0.1653432697057724
0.10958726704120636
0.16451311111450195
-0.053899481892585754
0.12343134731054306
0.23104983568191528
0.007269360590726137
0.03504437580704689
0.04491050913929939
0.009524127468466759
0.24423879384994507
0.050191719084978104
-0.0931801125407219
-0.24760986864566803
0.16184763610363007
0.19948843121528625
-0.013139402493834496
0.1853594034910202
0.19681960344314575
-0.3173087239265442
-0.21486084163188934
-0.1742624044418335
-0.008862876333296299
-0.27731853723526
-0.02072606235742569
0.002413711044937372
-0.044459059834480286
-0.10136209428310394
0.1549879014492035
-0.04188968613743782
0.009008741937577724
0.1167529821395874
-0.0911526083946228
-0.05366825684905052
0.14453887939453125
-0.02026686817407608
0.026800328865647316
-0.021947482600808144
0.046920206397771835
-0.02479410357773304
0.10901804268360138
-0.14386765658855438
-0.036576833575963974
-0.003628165926784277
-0.07653840631246567
0.07036658376455307
-0.043936837464571
-0.002973355120047927
0.003900866024196148
0.139322429895401
0.09275999665260315
0.09045588970184326
-0.0758652314543724
0.10848886519670486
-0.0718332901597023
-0.028036048635840416
-0.008644595742225647
-0.08202854543924332
-0.08466759324073792
-0.026823950931429863
0.0271134153008461
-0.01885356567800045
-0.03249957039952278
-0.12699560821056366
-0.0135844387114048
0.037080831825733185
0.026463359594345093
-0.010920550674200058
0.10239219665527344
0.02946626767516136
0.0352947823703289
-0.01372688077390194
0.04835726320743561
-0.15290042757987976
-0.007639311719685793
0.08940564841032028
0.05778966099023819
-0.009811321273446083
-0.057472679764032364
0.1421871930360794
-0.030254900455474854
0.037056609988212585
0.10246960818767548
-0.023204075172543526
0.027427712455391884
0.08966878056526184
-0.06320551037788391
0.030125465244054794
0.042985375970602036
-0.09368261694908142
-0.10659129172563553
0.013845792971551418
-0.0006566533702425659
0.09676439315080643
-0.0086252111941576
-0.09224971383810043
-0.030623316764831543
0.0888599380850792
0.10629944503307343
-0.09850676357746124
0.23549000918865204
0.22921495139598846
-0.027470402419567108
0.17908507585525513
-0.19270646572113037
0.15092386305332184
0.03246201574802399
0.03850280120968819
0.0654226765036583
0.4021562933921814
0.15576213598251343
-0.0908694714307785
-0.18378481268882751
0.1368209272623062
-0.0022935322485864162
0.17542362213134766
-0.26090195775032043
-0.0897512435913086
-0.27530303597450256
-0.06528666615486145
-0.26885294914245605
0.03565853834152222
0.14569757878780365
-0.14407706260681152
0.19639965891838074
0.198049858212471
-0.029227692633867264
-0.03217064216732979
0.0869055911898613
0.08357851952314377
-0.07870516926050186
-0.1318383812904358
0.04686211422085762
-0.08780284225940704
0.10624800622463226
0.21947051584720612
-0.0243291687220335
0.022524500265717506
0.015276767313480377
0.19752180576324463
-0.00945452693849802
-0.07873263955116272
0.012502884492278099
0.08750101178884506
0.07736403495073318
-0.22203709185123444
-0.1096634790301323
0.13698500394821167
0.15446177124977112
0.005025571212172508
0.21067526936531067
-0.11770331114530563
-0.15401959419250488
-0.07410357892513275
-0.17378166317939758
0.044186826795339584
0.08965129405260086
0.059255048632621765
0.16510729491710663
-0.08912073075771332
0.0799408107995987
0.004154428374022245
0.00872445572167635
0.061922818422317505
-0.1057862788438797
-0.020289890468120575
-0.005971759092062712
0.01337546855211258
-0.0486295148730278
-0.06343825906515121
0.039372075349092484
0.03313005715608597
-0.13303494453430176
-0.02925010584294796
-0.06567870080471039
0.015040338039398193
-0.003226327244192362
-0.08373817801475525
-0.022364875301718712
0.13081783056259155
0.14014115929603577
-0.09634707123041153
0.05541243776679039
0.03401113674044609
-0.013314939104020596
0.09362556040287018
0.06959791481494904
-0.03257780894637108
-0.07139214128255844
-0.09201852232217789
0.018463032320141792
0.11832598596811295
-0.0026102273259311914
0.028357701376080513
0.024413492530584335
-0.1896262764930725
-0.03260478377342224
-0.0911129042506218
-0.05099182575941086
-0.008700001053512096
-0.14378036558628082
-0.15779678523540497
-0.020586811006069183
0.03693291172385216
0.06334084272384644
0.1726193130016327
-0.029160737991333008
-0.06908223032951355
-0.06066451221704483
0.04522617161273956
0.13023416697978973
0.0014097924577072263
-0.04098193347454071
-0.029655244201421738
-0.13685381412506104
-0.03675786778330803
-0.1634347140789032
-0.018021725118160248
0.04687461629509926
0.03165263682603836
0.06417669355869293
0.1561473160982132
0.053397227078676224
-0.09931615740060806
0.04235418513417244
-0.11648185551166534
0.1794423907995224
-0.04561934992671013
-0.12294565141201019
0.0997455045580864
-0.057387206703424454
-0.1883903294801712
-0.012781534343957901
-0.10444323718547821
0.06779573857784271
-0.07059062272310257
0.1852838695049286
-0.17916344106197357
0.05972724407911301
0.14896096289157867
0.1980491429567337
-0.20378562808036804
-0.07319823652505875
-0.04926402494311333
0.2908557057380676
-0.013033067807555199
-0.1755092889070511
-0.13314330577850342
-0.09229279309511185
-0.08306604623794556
-0.15349318087100983
0.2616730332374573
0.2662726044654846
-0.09061675518751144
-0.0008655451820231974
0.2595381438732147
0.07340493053197861
-0.08832783252000809
0.029711753129959106
-0.12274957448244095
0.10216619819402695
0.14360485970973969
-0.1911604106426239
-0.25691837072372437
-0.06904396414756775
-0.005932872649282217
0.08121131360530853
0.060854434967041016
0.099570132791996
-0.043851736932992935
0.06667664647102356
-0.09698674082756042
-0.19233043491840363
0.09336959570646286
0.09144891053438187
0.07994505017995834
-0.11187382787466049
-0.1721826195716858
0.05300278961658478
0.01404972467571497
0.19855991005897522
0.16877451539039612
-0.2854574918746948
-0.030229883268475533
-0.041346341371536255
0.011779963970184326
0.06751131266355515
-0.019950253888964653
0.26738715171813965
-0.024525783956050873
-0.041808295994997025
0.0070535908453166485
-0.03334862366318703
-0.0008944565779529512
-0.026189250871539116
-0.01725367270410061
-0.048571277409791946
0.029923778027296066
-0.10834213346242905
0.10583247989416122
0.09161031991243362
0.015536016784608364
0.05774189159274101
-0.006613026838749647
-0.0141519820317626
0.1111748144030571
-0.02200586348772049
-0.02213088423013687
0.05323977395892143
0.061523452401161194
-0.004774515517055988
0.004838714841753244
-0.04408452287316322
-0.03171456605195999
0.004355634097009897
0.10070604830980301
-0.07359297573566437
-0.006201812066137791
-0.025731248781085014
-0.09993616491556168
0.015054352581501007
-0.09057852625846863
-0.08575630187988281
0.06222148239612579
0.030303064733743668
-0.003104891860857606
-0.07235603779554367
-0.050526149570941925
0.04245864599943161
-0.09538260847330093
0.033924225717782974
0.03905750438570976
0.035791005939245224
0.0439034141600132
-0.08459741622209549
0.05672135204076767
-0.08594705164432526
0.03526602312922478
0.05982436239719391
-0.014215705916285515
-0.05247616022825241
0.013747603632509708
0.10243920236825943
0.09951434284448624
-0.09049882739782333
-0.016531502828001976
0.06281417608261108
0.08569799363613129
0.049470189958810806
-0.07624047249555588
0.05582270398736
-0.023029714822769165
0.04959571734070778
-0.03935040533542633
-0.052488964051008224
0.23364543914794922
-0.10090390592813492
-0.14579671621322632
-0.02213011495769024
-0.2178640067577362
-0.02783891186118126
0.052572332322597504
-0.027644235640764236
0.15262159705162048
-0.054873380810022354
-0.05028221383690834
0.0897136852145195
-0.008311246521770954
0.05336423218250275
-0.08346353471279144
-0.13139499723911285
-0.07758072763681412
-0.062114179134368896
-0.02521725744009018
-0.09150993824005127
-0.024353930726647377
0.21701934933662415
-0.2540793716907501
-0.009910975582897663
0.08402039855718613
-0.22155307233333588
0.09471897780895233
-0.19896535575389862
-0.14116936922073364
-0.15259522199630737
-0.14313463866710663
0.08878343552350998
0.08847210556268692
0.045105915516614914
0.029096825048327446
0.23419976234436035
-0.16920675337314606
0.10905984044075012
0.17024999856948853
-0.036282189190387726
-0.040238697081804276
0.12060105055570602
-0.13841967284679413
-0.07695100456476212
-0.17051072418689728
0.13658472895622253
-0.02139788493514061
-0.20149344205856323
-0.17302626371383667
0.00816615391522646
0.12266412377357483
-0.019252225756645203
-0.11589255928993225
-0.1178569495677948
0.06383497267961502
0.031252168118953705
-0.018715139478445053
-0.01118839904665947
0.3456284999847412
-0.20214982330799103
0.14405155181884766
-0.1742856502532959
-0.020210523158311844
0.06365359574556351
0.03876510262489319
0.04144159331917763
-0.0031595819164067507
0.02237009070813656
0.009023589082062244
0.15647128224372864
-0.06029961258172989
0.06676995009183884
0.05461456626653671
-0.00858372077345848
0.08555170148611069
-0.032833874225616455
-0.05242003872990608
-0.07389062643051147
-0.08100121468305588
-0.020144706591963768
0.012154316529631615
-0.019570648670196533
-0.06353304535150528
-0.09468637406826019
-0.042147014290094376
0.0037997043691575527
-0.03668517246842384
-0.10511346906423569
0.01809863932430744
-0.018696248531341553
0.04639601707458496
0.028243474662303925
0.006294589024037123
-0.02547953836619854
0.09632444381713867
-0.006568772718310356
-0.12359414994716644
-0.03935312479734421
-0.07556396722793579
-0.039855778217315674
-0.0395839586853981
-0.1607441008090973
0.058466486632823944
0.11140704154968262
-0.004270383156836033
0.050472192466259
-0.07968994230031967
0.15669134259223938
0.11876744031906128
-0.09256207942962646
0.09183569252490997
-0.088177889585495
-0.01839005947113037
-0.04065092280507088
-0.08508622646331787
0.028844401240348816
0.027909468859434128
-0.04661927372217178
0.09039442241191864
0.033312857151031494
0.01648348569869995
0.026312828063964844
-0.11163242906332016
0.029951568692922592
-0.02067466452717781
-0.007398704532533884
0.07608342170715332
0.11727212369441986
0.12807697057724
-0.015952855348587036
-0.17743028700351715
-0.028130829334259033
-0.12030281871557236
0.024352099746465683
-0.04749707132577896
0.1617673635482788
-0.046191029250621796
-0.12286856770515442
-0.02116633951663971
-0.08504299819469452
0.07723300158977509
0.36214157938957214
0.16125094890594482
-0.09370579570531845
-0.30655983090400696
-0.08041742444038391
-0.08119775354862213
-0.2128794640302658
-0.1279159039258957
0.18177346885204315
0.02021126076579094
0.1713314652442932
-0.16839803755283356
0.026463622227311134
-0.2261723130941391
0.21511368453502655
-0.15630242228507996
5.189250805415213e-05
-0.21708953380584717
-0.05257868766784668
-0.18531180918216705
0.036250997334718704
0.023485206067562103
-0.012595164589583874
0.08260984718799591
0.007453780621290207
0.09643130004405975
0.2976143956184387
-0.019993025809526443
-0.20353485643863678
0.12533213198184967
-0.18990381062030792
-0.13838960230350494
0.05874301865696907
-0.03454625606536865
0.1650615930557251
-0.020907090976834297
0.1125260517001152
0.004393650218844414
0.015463382937014103
0.042229361832141876
0.04141578823328018
0.07526809722185135
0.18613053858280182
0.10199681669473648
0.18711628019809723
-0.10946308821439743
0.1864258199930191
0.08889762312173843
0.11947726458311081
0.012280230410397053
0.026661936193704605
-0.10984580963850021
-0.05064447224140167
0.07186309248209
-0.04105369374155998
0.034467436373233795
-0.10146656632423401
-0.09031543880701065
0.019828224554657936
0.06276413798332214
-0.01205624733120203
-0.034863002598285675
0.07770339399576187
-0.09993452578783035
0.009407253935933113
-0.03703989088535309
0.007804649416357279
0.018205666914582253
-0.023250456899404526
-0.06681471318006516
-0.037488050758838654
-0.09781242161989212
0.09805282950401306
0.009096520952880383
0.1348717361688614
-0.008085972629487514
-0.014682348817586899
0.025552168488502502
-0.08392494916915894
-0.016035646200180054
0.02263140119612217
0.013395245186984539
-0.02384263277053833
-0.00030060578137636185
0.04755464941263199
-0.06521477550268173
-0.11391182988882065
-0.012067940086126328
-0.04573817923665047
-0.08044550567865372
0.008720493875443935
0.019024193286895752
-0.10098179429769516
-0.11596443504095078
-0.031248262152075768
0.008423997089266777
0.16941043734550476
-0.06111109256744385
-0.019274799153208733
-0.07004908472299576
0.04376787692308426
-0.08293142169713974
-0.042181264609098434
0.03160769119858742
-0.033145155757665634
-0.02186192385852337
-0.0501398965716362
-0.03615488111972809
-0.023845434188842773
0.0743546113371849
0.07063815742731094
-0.03602255880832672
0.057344965636730194
-0.06992380321025848
-0.16146458685398102
0.03306914120912552
0.12098895013332367
-0.08451641350984573
0.18148428201675415
-0.15627124905586243
-0.013124755583703518
0.032406874001026154
0.09435980767011642
0.10572269558906555
0.009109173901379108
-0.17245441675186157
-0.005249190144240856
-0.041531406342983246
0.08513369411230087
-0.11215768754482269
0.03015938214957714
-0.06698068976402283
0.047087348997592926
0.20124712586402893
-0.06160299852490425
0.05822305753827095
-0.10537484288215637
0.05990400165319443
0.05832955241203308
-0.15164460241794586
-0.027608836069703102
0.05014677718281746
0.0005643822951242328
0.005329735577106476
-0.17004798352718353
0.10865999758243561
0.09488335251808167
-0.002871624194085598
0.004566522780805826
0.11596488207578659
-0.04279560223221779
0.20427553355693817
0.02424502931535244
-0.022808851674199104
0.10608609020709991
-0.1154281347990036
0.26642078161239624
0.1495128571987152
0.07906585186719894
0.08654602617025375
0.11800392717123032
-0.023456662893295288
-0.09617682546377182
0.06698427349328995
-0.15447604656219482
0.16811662912368774
-0.0933765098452568
-0.1058373674750328
0.158578023314476
2.86739432340255e-05
0.06781814247369766
0.3056289553642273
0.21794232726097107
0.09165055304765701
0.09886916726827621
0.1315859705209732
0.0005073627107776701
0.05429859459400177
-0.06573019176721573
-0.03066008724272251
0.03254842758178711
0.06306158006191254
-0.0815897211432457
0.024620534852147102
-0.08366432040929794
-0.090793676674366
0.1343265175819397
-0.013389617204666138
0.10775098204612732
-0.011076538823544979
0.007140314672142267
-0.030557500198483467
-0.010148751549422741
0.09182543307542801
-0.011404165998101234
0.007378078065812588
-0.003175287274643779
0.02413940243422985
-0.011219627223908901
-0.05348602682352066
0.00969335250556469
0.008774396032094955
0.032639279961586
0.012185062281787395
0.1539260596036911
-0.1064881682395935
-0.04274788871407509
0.12383752316236496
0.1402857005596161
0.03125903010368347
-0.042804889380931854
-0.033939559012651443
-0.18835397064685822
0.08762870728969574
0.04629573971033096
0.09180926531553268
0.10618583858013153
-0.04217489808797836
0.028400877490639687
-0.034112103283405304
-0.05774301290512085
-0.019742777571082115
0.027446039021015167
0.0823637843132019
-0.07604337483644485
-0.013587775640189648
-0.05789627134799957
-0.0010539116337895393
-0.040511831641197205
-0.0061183529905974865
0.018373478204011917
0.0015150216640904546
-0.124454565346241
0.08980788290500641
0.03765510022640228
-0.05986975505948067
0.050252851098775864
-0.057169344276189804
-0.018194882199168205
-0.012745991349220276
0.019821682944893837
0.19965769350528717
0.17515121400356293
0.04171441122889519
-0.15568412840366364
-0.11692183464765549
-0.12576605379581451
0.1486300379037857
0.13578735291957855
0.23171398043632507
0.026748675853013992
0.13808713853359222
0.07642953842878342
-0.03860539570450783
-0.19273939728736877
0.1192064955830574
0.3885818421840668
0.027954136952757835
-0.0600520484149456
-0.08869274705648422
-0.07314520329236984
-0.06347749382257462
0.07506240904331207
-0.2033839225769043
0.1381046175956726
-0.08432017266750336
-0.09751899540424347
-0.02135726809501648
0.01709500141441822
-0.033330000936985016
-0.017265448346734047
-0.07421587407588959
0.09859935939311981
-0.14375539124011993
-0.2069544494152069
0.16101078689098358
0.018025288358330727
0.276862770318985
-0.13892731070518494
-0.030955327674746513
-0.06470637023448944
-0.04288596659898758
-0.0833415687084198
0.14072449505329132
0.146060511469841
0.24150532484054565
0.12485199421644211
0.10176052898168564
0.0208559799939394
-0.09543833136558533
0.05329294875264168
-0.0286211259663105
0.002791303675621748
0.03302161023020744
0.04447023943066597
-0.22941914200782776
-0.06164960563182831
-0.08475454151630402
-0.023149747401475906
-0.08494243025779724
-0.008886260911822319
-0.006820907816290855
0.18688033521175385
0.04898801073431969
-0.17910069227218628
0.10151030868291855
-0.005369483958929777
0.02427675575017929
-0.03190505504608154
0.11316922307014465
0.11640994250774384
-0.10529699176549911
0.015488600358366966
-0.054854393005371094
-0.034142185002565384
0.24549338221549988
-0.19553318619728088
0.05121637508273125
0.055807359516620636
-0.009578975848853588
0.1319379210472107
0.11916714906692505
-0.12225651741027832
-0.12742425501346588
-0.06989851593971252
0.033000484108924866
0.046026792377233505
0.11966528743505478
0.04167991131544113
-0.07715058326721191
-0.08883004635572433
-0.08275013417005539
0.07095606625080109
0.1210801973938942
-0.047914981842041016
-0.07996376603841782
-0.1269853562116623
0.0560259073972702
0.014438319951295853
0.03990728035569191
-0.04092743992805481
0.08272212743759155
-0.001305131590925157
-0.05950063467025757
-0.11592253297567368
-0.028937894850969315
-0.030079331248998642
-0.004937747493386269
-0.06107388436794281
-0.0020741350017488003
-0.08661822974681854
0.01500874012708664
-0.07814513891935349
-0.03759351000189781
-0.021916307508945465
-0.032610177993774414
0.08520609885454178
0.09974324703216553
0.006496999878436327
-0.01577155478298664
-0.1002354845404625
-0.03576058894395828
0.05323587357997894
-0.10973843932151794
-0.06746806204319
-0.04470725730061531
0.05862569063901901
-0.07710064202547073
0.04062182828783989
0.02786845713853836
-0.0003911624080501497
0.15689341723918915
-0.18210971355438232
-0.06016271188855171
0.02872348390519619
0.0021534948609769344
0.12843501567840576
0.030436189845204353
0.0958167016506195
-0.19176085293293
0.14825356006622314
-0.004009073134511709
-0.02518351748585701
0.012980825267732143
-0.07759971171617508
0.08525029569864273
0.13928502798080444
-0.13240809738636017
-0.009738120250403881
0.1322759985923767
0.12690487504005432
-0.1283237487077713
-0.0031382679007947445
-0.17166519165039062
-0.26638755202293396
0.03793651610612869
-0.09334754198789597
0.014717762358486652
-0.15774282813072205
0.033484525978565216
-0.14070577919483185
0.18489836156368256
0.20688305795192719
0.1298379749059677
0.19537784159183502
-0.07324759662151337
-0.08209652453660965
-0.013543509878218174
0.02466636523604393
-0.09629657119512558
-0.1486535370349884
0.03486698120832443
0.2848358452320099
0.05384310334920883
0.09295923262834549
0.21073491871356964
-0.007856341078877449
-0.07325351238250732
0.09619396924972534
-0.18783991038799286
0.013759944587945938
-0.09448293596506119
0.15448886156082153
0.014444265514612198
0.2354525774717331
-0.02807358093559742
0.019504036754369736
0.06567136198282242
-0.08012758940458298
0.11177319288253784
-0.0428447499871254
-0.060977570712566376
0.19750559329986572
-0.0959625169634819
0.043085306882858276
-0.05704411864280701
0.09544919431209564
-0.05087645724415779
0.046524230390787125
0.05292549356818199
-0.01645992137491703
0.024535277858376503
0.10145474970340729
-0.0980645939707756
0.003652747953310609
0.13349023461341858
0.02999814972281456
0.03784612566232681
0.05605947598814964
0.13170580565929413
-0.12149222940206528
-0.06559280306100845
0.0668780654668808
-0.11647597700357437
0.015529896132647991
0.055723145604133606
0.0029623759910464287
-0.04764074832201004
0.040331970900297165
0.06248287856578827
0.016328349709510803
-0.01918117143213749
-0.024446353316307068
-0.0036228171084076166
0.10876510292291641
-0.02000127173960209
0.01634622924029827
0.06089602783322334
-0.04967954382300377
0.005187026225030422
0.06599494814872742
0.0645596906542778
-0.020712753757834435
0.024012764915823936
0.1562846302986145
-0.018792126327753067
-0.01465443056076765
-0.05001822113990784
-0.07536143064498901
-0.0879334956407547
0.0766775831580162
-0.0813414454460144
-0.0025042491033673286
0.0798330008983612
-0.040755197405815125
0.011437132023274899
-0.010248689912259579
0.1313878297805786
0.005482377950102091
0.03623901680111885
-0.045402806252241135
-0.1417897343635559
0.05338612571358681
-0.0193785447627306
0.06255783885717392
0.08262026309967041
-0.1066344752907753
-0.04001159593462944
-0.07758823037147522
-0.029464304447174072
0.0038527101278305054
0.06406822800636292
0.11940188705921173
0.33897665143013
0.09932531416416168
-0.1462533175945282
-0.24721013009548187
-0.24367177486419678
0.06250900775194168
0.09264255315065384
-0.13221287727355957
0.1617487072944641
0.07169371098279953
0.14763009548187256
-0.027949366718530655
-0.008734665811061859
0.04425463080406189
0.19364893436431885
0.12899425625801086
-0.0437195785343647
0.1521422564983368
0.06112854182720184
-0.09655251353979111
0.1710083782672882
-0.0766933411359787
-0.023036854341626167
0.2151309847831726
-0.1096862405538559
-0.05487307906150818
-0.24669139087200165
0.04982200264930725
-0.15656527876853943
0.07905005663633347
-0.08999237418174744
0.005099386442452669
0.17537853121757507
-0.06421899795532227
0.0090656578540802
0.028469383716583252
-0.06686126440763474
0.07021191716194153
0.07427182793617249
0.0264713354408741
0.03354886174201965
0.23845401406288147
0.17604443430900574
-0.03220202773809433
0.02106414921581745
-0.021947329863905907
0.1808200180530548
0.07390253990888596
-0.12657618522644043
0.15034136176109314
0.05925505608320236
-0.11028168350458145
-0.24733462929725647
0.013248592615127563
0.09915417432785034
-0.029573814943432808
-0.055868279188871384
-0.014798939228057861
-0.07582785189151764
-0.06762156635522842
-0.005927186459302902
0.11008549481630325
-0.0033007804304361343
-0.09462843090295792
0.03342146798968315
0.030354229733347893
0.008887464180588722
-0.002473259111866355
-0.0006674121832475066
0.051177673041820526
0.048234693706035614
-0.0581045038998127
-0.1368962526321411
0.01602047123014927
0.01604435406625271
0.032343365252017975
0.030430197715759277
-0.07396356761455536
0.023617245256900787
0.04113632068037987
-0.09823530912399292
0.01479713898152113
-0.07050389051437378
-0.03896234557032585
-0.023070931434631348
-0.03958463296294212
0.05007539317011833
-0.0996473953127861
0.012539027258753777
-0.12610885500907898
0.09084461629390717
0.012710551731288433
-0.005413242615759373
-0.013583874329924583
-0.14637111127376556
-0.03244241327047348
0.04137048125267029
-0.006472805514931679
0.005376253742724657
-0.05600166320800781
0.005960135720670223
-0.047913361340761185
0.013272424228489399
0.015386349521577358
0.01928778365254402
0.0711316391825676
0.05064241588115692
0.11091132462024689
-0.03037136420607567
-0.010716160759329796
-0.06506859511137009
0.12515446543693542
0.015148838981986046
-0.055645864456892014
0.09740495681762695
-0.02158096246421337
-0.002178539289161563
-0.02585841715335846
-0.017803512513637543
0.12095220386981964
0.06361737847328186
-0.010082008317112923
0.06842471659183502
-0.0963701456785202
0.1821574568748474
-0.06626451760530472
0.24456417560577393
0.06645303964614868
-0.09303530305624008
-0.08674747496843338
-0.07117749005556107
0.17548993229866028
-0.12398282438516617
-0.22604456543922424
0.16763412952423096
-0.05608802288770676
0.03236145153641701
-0.023926815018057823
0.019629567861557007
0.12805995345115662
0.0799543708562851
-0.05351872369647026
0.02639814279973507
-0.04548249766230583
0.08186569809913635
0.34104716777801514
-0.03229808062314987
-0.015950165688991547
0.34708160161972046
0.1845582276582718
-0.22170208394527435
-0.09008701145648956
0.06134864315390587
-0.10594720393419266
-0.11623263359069824
0.05803626775741577
0.1636362224817276
-0.10926400125026703
0.002407532650977373
-0.22701261937618256
-0.10136430710554123
-0.14885105192661285
0.2991481125354767
0.10772615671157837
0.09449773281812668
0.051986921578645706
-0.14539912343025208
-0.03946404159069061
-0.12669062614440918
-0.32281067967414856
-0.016763601452112198
0.028925346210598946
0.07258421927690506
0.035612016916275024
0.0596231110394001
0.06213272362947464
-0.045610059052705765
0.05160577967762947
-0.12652789056301117
0.13675057888031006
-0.08193917572498322
0.14531832933425903
0.028931202366948128
0.09675733745098114
-0.03221394866704941
-0.14308346807956696
0.027854232117533684
-0.06805466115474701
0.02931024134159088
0.14247392117977142
0.071295827627182
0.03785225749015808
-0.0037907627411186695
0.019235966727137566
0.06913985311985016
-0.004154322203248739
-0.018542690202593803
0.030226435512304306
0.06518925726413727
-0.04543520137667656
-0.07384943217039108
0.028125518932938576
-0.020833918824791908
-0.01981382444500923
-0.034518782049417496
0.04761575162410736
0.008563547395169735
0.07031481713056564
-0.03000582940876484
0.003896239446476102
-0.032773457467556
0.00222059921361506
0.08068525046110153
0.01324954628944397
0.0485956147313118
0.009813481010496616
-0.02201712876558304
0.01540874782949686
-0.03826846554875374
-0.052834320813417435
-0.05246851593255997
0.07359789311885834
0.07089594751596451
0.1202254444360733
-0.0592520497739315
0.009138425812125206
0.009411793202161789
-0.0596163235604763
0.026749981567263603
-4.6607588046754245e-06
-0.057191379368305206
-0.08051835745573044
-0.07237181812524796
-0.029982779175043106
0.023493753746151924
-0.018838973715901375
0.14575940370559692
-0.20160408318042755
0.0972912535071373
-0.18444201350212097
-0.008234158158302307
-0.026988578960299492
-0.007669712416827679
0.021667933091521263
0.03910483419895172
-0.02951894886791706
-0.19426707923412323
-0.05615415796637535
0.0862383171916008
-0.015742896124720573
0.09522823244333267
0.07038714736700058
0.13737617433071136
0.10885055363178253
0.0509706512093544
-0.16017773747444153
0.018753554672002792
0.13711324334144592
0.1272391825914383
0.09074237942695618
0.10691475123167038
-0.13291966915130615
0.022626176476478577
0.12898485362529755
0.06168967857956886
-0.22867824137210846
-0.0771707072854042
0.044830143451690674
0.12410856783390045
0.18594558537006378
0.2018096148967743
-0.05929451808333397
-0.007620892487466335
0.04147684946656227
0.10751157253980637
-0.11407443135976791
0.15828683972358704
-0.045143138617277145
0.1917058229446411
0.0833040177822113
0.2796414792537689
0.16996905207633972
-0.18760563433170319
-0.021343421190977097
0.1127389594912529
-0.03514385223388672
-0.037530072033405304
-0.10576087236404419
-0.06287934631109238
0.0019182086689397693
0.028636638075113297
-0.018608635291457176
-0.06586141884326935
0.10827173292636871
0.13218510150909424
0.06326236575841904
-0.17919021844863892
-0.08110372722148895
-0.1012822762131691
0.11754056811332703
0.05591145157814026
-0.21244841814041138
-0.25586554408073425
-0.033676628023386
-0.05401470512151718
0.2075708955526352
-0.009021326899528503
-0.08520456403493881
0.3288130760192871
-0.0861964225769043
0.08389746397733688
0.3303357660770416
0.16812020540237427
0.002680649049580097
0.02974800206720829
0.023003485053777695
0.03348066285252571
0.05378096178174019
0.04046185314655304
0.12284407019615173
0.04782555624842644
-0.10234565287828445
-0.054289571940898895
-0.17728756368160248
0.09073856472969055
0.09812796860933304
0.1533338725566864
0.18400676548480988
-0.050274305045604706
0.014950653538107872
-0.05169801786541939
-0.006621044594794512
0.12705902755260468
0.02864842675626278
0.03027462214231491
0.08084028959274292
-0.031861402094364166
-0.07528495788574219
-0.006201384589076042
0.09220614284276962
-0.011781859211623669
-0.0039437394589185715
-0.10334067791700363
-0.02107383869588375
-0.04262171685695648
-0.10401710122823715
0.0178856011480093
-0.06343673914670944
-0.08012887090444565
-0.08241574466228485
0.021780656650662422
-0.011654621921479702
-0.01299573015421629
-0.06633485108613968
-0.013337449170649052
-0.03807173669338226
-0.05514194071292877
-0.08994250744581223
0.056306932121515274
-0.13167555630207062
0.05689999461174011
0.01028341893106699
-0.13047079741954803
-0.020390676334500313
0.01208175253123045
0.013619489967823029
-0.010929564945399761
0.015619445592164993
0.08721453696489334
-0.06419554352760315
0.03090360388159752
0.08478710055351257
-0.03421478718519211
-0.004042346496134996
0.04444047063589096
-0.040166813880205154
0.054870329797267914
-0.06978949159383774
0.02374197170138359
-0.17977571487426758
-0.14090290665626526
-0.1492517590522766
-0.07453737407922745
-0.2273520976305008
-0.10277417302131653
-0.24928271770477295
0.05893978476524353
0.1649189591407776
-0.18063461780548096
0.13345275819301605
0.017178846523165703
0.08415243029594421
-0.13417677581310272
-0.05561166629195213
-0.10339539498090744
0.2320573776960373
0.2301120162010193
-0.08580346405506134
-0.21337205171585083
0.15602117776870728
0.25391247868537903
0.18089134991168976
0.09548833966255188
0.18662944436073303
-0.2678564190864563
-0.08100235462188721
0.04975450783967972
-0.03899966925382614
0.06284044682979584
-0.049899712204933167
-0.023410359397530556
0.04939616098999977
0.18314151465892792
0.011959263123571873
-0.2545170783996582
-0.19030779600143433
-0.01903039962053299
0.23212870955467224
0.1692168414592743
0.0778675228357315
-0.21382270753383636
0.08596085757017136
0.12511341273784637
0.013607176952064037
-0.2498055398464203
-0.0452643446624279
-0.42155465483665466
0.06114602088928223
0.05738100782036781
0.08612021803855896
0.026662137359380722
-0.08648428320884705
-0.22025376558303833
0.12570805847644806
-0.3120860755443573
0.05758346989750862
-0.2049012929201126
-0.1313377320766449
-0.06427843123674393
-0.1538858413696289
-0.16674962639808655
-0.17690353095531464
0.014482688158750534
0.03257394954562187
0.04561230167746544
-0.14893189072608948
-0.09370318055152893
-0.0810302346944809
0.0015293773030862212
0.13278457522392273
-0.05621323361992836
0.07319936156272888
-0.03060307167470455
-0.05255729705095291
0.016551338136196136
0.11193834245204926
0.0005533777293749154
0.004059294238686562
-0.017884114757180214
-0.0021279475186020136
0.0947985127568245
-0.05395720154047012
0.06709986925125122
0.0063602435402572155
0.11229697614908218
0.035527303814888
0.039171863347291946
0.055955369025468826
0.11588401347398758
0.05972801521420479
0.061974331736564636
-0.017928991466760635
-0.03399622067809105
-0.07118085026741028
-0.01915767602622509
-0.06909265369176865
-0.08262626081705093
0.020718131214380264
0.03429977223277092
0.015280169434845448
0.0005855546914972365
0.05730292946100235
-0.020432842895388603
-0.03755525127053261
0.019540010020136833
-0.010155781172215939
0.03662955388426781
-0.03187325596809387
-0.07514352351427078
0.04710204899311066
0.07470032572746277
0.023915879428386688
-0.007820929400622845
-0.028315983712673187
0.05895533040165901
-0.04778319224715233
0.014416860416531563
0.018666589632630348
0.10030607134103775
0.02302234247326851
-0.06754688918590546
0.04236616939306259
-0.04436466842889786
0.007317742332816124
-0.07192644476890564
0.12059919536113739
0.08945406228303909
-0.06463655829429626
0.11322455108165741
-0.08230599761009216
-0.14759461581707
0.17616842687129974
0.07016009837388992
-0.14382445812225342
0.00981883518397808
0.06913042068481445
-0.11317474395036697
-0.16408582031726837
-0.001038024085573852
0.01792091317474842
0.1240723505616188
-0.015233296900987625
-0.21854932606220245
-0.20824240148067474
-0.055709000676870346
0.028545871376991272
0.057326771318912506
-0.02478324994444847
-0.14762713015079498
0.17564064264297485
-0.03066348284482956
0.09238231182098389
0.08302022516727448
0.04166485741734505
0.021708009764552116
0.0626581609249115
0.10203158855438232
-0.05139518156647682
-0.1302441507577896
0.04240177199244499
0.17958973348140717
-0.10568391531705856
0.106585294008255
0.09901721775531769
0.025961795821785927
-0.22295387089252472
-0.1093464121222496
-0.009596905671060085
-0.13598087430000305
0.08292005211114883
0.06355097144842148
0.019176045432686806
0.15197902917861938
0.06820868700742722
-0.04313736781477928
-0.04240422695875168
0.07357744127511978
0.1678592413663864
0.04526577517390251
0.1575758010149002
-0.022251078858971596
-0.0664735808968544
-0.010072866454720497
-0.10125568509101868
-0.050986502319574356
0.0027433917857706547
-0.11591937392950058
0.18173101544380188
-0.021337226033210754
0.1634141057729721
-0.13382269442081451
-0.005703821778297424
-0.014036299660801888
-0.06835738569498062
-0.02200310304760933
0.11863750964403152
-0.04250714182853699
-0.085560142993927
0.010263989679515362
-0.027347823604941368
-0.0644523948431015
-0.026024717837572098
0.05412263423204422
0.026078518480062485
0.016879919916391373
-0.015865065157413483
-0.03559795394539833
-0.018406109884381294
0.016866356134414673
0.018029026687145233
0.10866006463766098
-0.03446979075670242
-0.04715364798903465
-0.024492207914590836
-0.04986342787742615
-0.0333225354552269
0.04646403342485428
-0.0525570772588253
-0.03983403742313385
-0.038962509483098984
0.021417373791337013
0.03300736844539642
0.09693215042352676
-0.04678521305322647
0.054409150034189224
0.021343931555747986
0.06542837619781494
-0.11801663786172867
-0.008666934445500374
0.06338470429182053
-0.005797738675028086
-0.0711011290550232
-0.0548231266438961
-0.011891737580299377
0.00824117660522461
-0.06094183772802353
-0.039643410593271255
-0.009156345389783382
0.017167527228593826
0.039083145558834076
0.0622883103787899
0.05734837427735329
-0.008500109426677227
0.00557617237791419
-0.02742360718548298
-0.05742814764380455
0.09151934087276459
0.06261791288852692
0.05126511678099632
0.02478218264877796
0.002613659482449293
-0.04600353538990021
-0.01943400874733925
0.11775358021259308
-0.1484186351299286
-0.09073376655578613
-0.055020369589328766
-0.0805034264922142
0.1887303590774536
-0.03941434621810913
-0.14656884968280792
0.024039143696427345
-0.20992930233478546
-0.07575486600399017
0.10126040875911713
0.0017728081438690424
0.2754928767681122
-0.12193010747432709
0.050450991839170456
0.02823399379849434
-0.0069616250693798065
-0.33145052194595337
-0.00016242942365352064
-0.13819843530654907
0.12119860202074051
0.24892309308052063
-0.15915055572986603
0.1225607842206955
0.021280324086546898
-0.004067069385200739
-0.10703732818365097
0.028930312022566795
-0.0048508355394005775
-0.014535601250827312
-0.2513991594314575
-0.15714383125305176
0.2474820911884308
-0.00016089000564534217
0.024219075217843056
0.1002930998802185
0.20584340393543243
-0.1539701372385025
-0.17106643319129944
0.0591566376388073
-0.11503072828054428
0.21812725067138672
-0.2083580642938614
0.1281726062297821
-0.08129677176475525
0.2508470416069031
-0.08381001651287079
-0.1398364007472992
0.11486292630434036
-0.1528189480304718
0.11642935127019882
-0.16265113651752472
-0.021149886772036552
-0.24559949338436127
-0.007617202587425709
-0.025897424668073654
0.07620787620544434
0.16083557903766632
-0.14293695986270905
0.1554567962884903
0.24496346712112427
0.22620779275894165
-0.04234661906957626
0.08883610367774963
-0.17056992650032043
-0.0030344624537974596
-0.041615184396505356
7.133763801903115e-07
0.05436573922634125
0.0031692110933363438
-0.03780128434300423
0.08290203660726547
-0.01540309190750122
-0.08917690813541412
0.0548931360244751
0.048496123403310776
-0.06064501777291298
0.056891992688179016
0.04639916494488716
-0.14693830907344818
-0.023236706852912903
-0.011514640413224697
-0.05619223043322563
0.00824975036084652
0.11637365072965622
-0.00681651895865798
-0.05269220843911171
0.07048302888870239
0.09076159447431564
-0.007234038319438696
-0.005573299713432789
-0.03003917820751667
0.007294545881450176
-0.1121002733707428
-0.02661978267133236
0.07730790972709656
-0.03632507845759392
-0.0994672030210495
-0.04322890564799309
-0.027897153049707413
-0.03490174189209938
-0.09173170477151871
0.03534673526883125
-0.023810718208551407
0.09953322261571884
0.030009690672159195
0.03882862254977226
0.04231293126940727
0.026470744982361794
0.030209844931960106
0.174169659614563
-0.07803170382976532
0.014089985750615597
0.03775899484753609
0.014869175851345062
-0.05057624727487564
0.024920156225562096
-0.07094549387693405
0.03972192853689194
-0.053814731538295746
0.022668007761240005
0.0042818086221814156
-0.03192725032567978
0.09528805315494537
0.12735147774219513
0.004880000837147236
0.08006555587053299
0.00967083964496851
0.06920126080513
0.003531117457896471
0.2207133173942566
0.0797499567270279
-0.04243183135986328
-0.11639496684074402
-0.020961977541446686
0.060861486941576004
-0.05873823165893555
-0.0034851969685405493
0.16357186436653137
-0.04720484837889671
0.11569717526435852
-0.13537603616714478
-0.07298917323350906
0.14766038954257965
0.12721623480319977
-0.21497048437595367
0.08558972179889679
-0.03455070033669472
-0.1400012969970703
0.1618526726961136
0.21838189661502838
-0.23903651535511017
0.0018242719816043973
-0.03827323764562607
-0.09682431071996689
0.16387873888015747
-0.059831224381923676
-0.10182929039001465
-0.14111000299453735
-0.04156545177102089
0.04732699692249298
0.013224822469055653
0.05047892779111862
-0.10581903159618378
-0.13209614157676697
0.052710048854351044
0.1686985045671463
0.18978619575500488
-0.1930471956729889
-0.05577833205461502
-0.11087828129529953
0.07033292204141617
0.10760396718978882
0.016901055350899696
-0.07698585093021393
-0.13283054530620575
0.12185164541006088
0.16355383396148682
-0.2534744143486023
-0.21623484790325165
0.02292460948228836
-0.06749923527240753
-0.12652170658111572
0.013042505830526352
0.0964190736413002
-0.10851947963237762
-0.21927589178085327
0.02940172143280506
0.18026022613048553
0.023873208090662956
-0.10253120958805084
0.08478807657957077
-0.06591722369194031
-0.09055972099304199
0.12178511172533035
-0.03459128737449646
-0.056773923337459564
0.052420735359191895
-0.06168770417571068
-0.08845137804746628
-0.018675781786441803
-0.009425095282495022
0.10116954892873764
-0.039463628083467484
-0.12692129611968994
0.03442494571208954
0.03938853368163109
0.050312113016843796
0.039740510284900665
-0.021767446771264076
-0.07723929733037949
0.05142480880022049
0.14139322936534882
-0.0990351065993309
-0.06622722744941711
0.02092081867158413
-0.019062701612710953
-0.0739416629076004
0.015577579848468304
-0.19724231958389282
-0.018709158524870872
0.04117300361394882
-0.052749186754226685
-0.04415786266326904
-0.10668588429689407
0.006617811042815447
-0.14783188700675964
-0.1077658161520958
0.08256025612354279
-0.07279839366674423
0.02455330640077591
0.06165807694196701
-0.02592262625694275
-0.20250555872917175
0.04617691412568092
0.04202384129166603
-0.01923866756260395
-0.006649810820817947
0.0780273899435997
-0.04495623707771301
-0.11399707198143005
0.09959565848112106
0.045584194362163544
-0.06462621688842773
-0.044093579053878784
0.10305176675319672
-0.04721202328801155
0.01959676668047905
0.061555806547403336
-0.14771635830402374
-0.0639551505446434
0.1678440272808075
0.01782963052392006
0.020594989880919456
0.019566869363188744
-0.11738158017396927
-0.18062078952789307
-0.09114285558462143
-0.05332433432340622
-0.09284794330596924
-0.12856453657150269
0.07131282985210419
0.01398851815611124
-0.07454238086938858
-0.26410025358200073
-0.18951410055160522
0.04539492726325989
-0.12964853644371033
-0.09876099228858948
-0.09799578785896301
0.0567973293364048
-0.015337822027504444
-0.049685243517160416
-0.10786804556846619
0.06163077801465988
0.12808577716350555
-0.2504338026046753
0.11673813313245773
-0.2999940812587738
-0.09080227464437485
-0.036720626056194305
-0.12155146896839142
0.0785178616642952
-0.04182080924510956
-0.22240865230560303
0.10135724395513535
0.16871581971645355
0.15528474748134613
0.17930351197719574
-0.0008261740440502763
0.13666243851184845
-0.15049508213996887
0.09843124449253082
-0.038583219051361084
0.23539701104164124
0.05934267118573189
0.01857149787247181
0.003776742611080408
-0.10418253391981125
-0.07651366293430328
0.0688258484005928
-0.08872019499540329
-0.07443667948246002
-0.09251749515533447
-0.16011251509189606
0.2502324879169464
0.10803332179784775
-0.05911519378423691
-0.08113222569227219
0.02263905666768551
-0.11043310910463333
-0.030136611312627792
0.17189429700374603
0.0635715052485466
-0.03373226523399353
-0.16492533683776855
-0.08061423897743225
-0.02272845059633255
0.06585017591714859
-0.07613347470760345
-0.024134507402777672
0.054592493921518326
0.08205815404653549
0.12638695538043976
-0.06742271780967712
-0.12274682521820068
-0.03591502830386162
-0.14507625997066498
-0.09394899755716324
-0.1446770876646042
-0.12764789164066315
-0.0477430522441864
0.050982192158699036
0.033318523317575455
0.02708270214498043
0.07612849771976471
0.004135636147111654
0.08347221463918686
-0.10164031386375427
0.07857454568147659
-0.07063395529985428
0.010469651781022549
-0.04194788634777069
0.06238514184951782
0.03046063520014286
-0.06687525659799576
0.055989108979701996
0.0024289386346936226
0.005827102344483137
0.04805462807416916
-0.021654639393091202
-0.02972063049674034
-0.021206308156251907
0.012699173763394356
0.03289380669593811
0.06379227340221405
-0.0023444725666195154
0.03532407060265541
-0.07101880013942719
0.10216576606035233
-0.05606745928525925
-0.0657072439789772
-0.029859421774744987
0.019090590998530388
0.02496260032057762
-0.02516833133995533
0.0015516590792685747
0.06213020160794258
-0.025202155113220215
-0.07201484590768814
0.0648365318775177
0.10549871623516083
0.055421218276023865
0.0233122818171978
-0.003353910753503442
0.02887294813990593
-0.0662781223654747
0.0031310743652284145
0.08168602734804153
0.003558716271072626
0.05433928593993187
-0.035786595195531845
-0.052568987011909485
0.050752684473991394
0.05206587538123131
0.22024212777614594
-0.21091942489147186
0.09851112961769104
-0.15114298462867737
-0.06768199056386948
-0.27098721265792847
-0.09579198807477951
0.004560783039778471
-0.13668128848075867
0.16110658645629883
-0.051217980682849884
-0.13562573492527008
0.053386107087135315
-0.009773456491529942
0.3690803349018097
0.08786173909902573
-0.030414916574954987
0.21965497732162476
-0.247968852519989
-0.26499536633491516
-0.0738779678940773
-0.18094231188297272
-0.044134482741355896
0.2729046046733856
-0.03941281512379646
0.008606926538050175
0.015390315093100071
-0.03141533210873604
-0.1494089961051941
-0.05561031401157379
0.03418244048953056
0.033993326127529144
-0.06567215174436569
-0.2285119742155075
0.12212641537189484
-0.04436466470360756
-0.024632496759295464
-0.10657147318124771
-0.0950574055314064
0.034529902040958405
-0.33753839135169983
-0.07243193686008453
0.0009148563840426505
-0.02771344967186451
0.11452967673540115
0.03228246048092842
0.07523618638515472
-0.3235236704349518
-0.0770207941532135
-0.030449718236923218
-0.06662199646234512
0.200657457113266
0.10488218069076538
0.020545748993754387
0.12722177803516388
0.041886258870363235
0.0007597789517603815
-0.2708316147327423
0.06294860690832138
-0.011731436476111412
0.08587197214365005
-0.27542221546173096
-0.25288185477256775
0.024878188967704773
-0.05507946014404297
-0.048295412212610245
-0.03617741912603378
-0.08549905568361282
0.03597481921315193
0.058725323528051376
-0.04046187549829483
-0.05501898378133774
-0.07089066505432129
0.015633217990398407
-0.05490860715508461
-0.11978495866060257
0.04937496781349182
-0.04378106817603111
-0.11017703264951706
-0.09606517106294632
-0.048729244619607925
-0.03615172579884529
-0.06625042110681534
0.09899362921714783
0.045148495584726334
0.025563543662428856
-0.030812090262770653
-0.022856106981635094
0.05567881092429161
0.10399314761161804
-0.1496325433254242
0.007593479473143816
0.09963293373584747
0.08635043352842331
-0.028180280700325966
0.0760997012257576
-0.04130129516124725
-0.03755292668938637
-0.06586893647909164
-0.1665612757205963
0.03266890347003937
0.026432260870933533
0.09960202127695084
0.031278226524591446
-0.05737312138080597
0.032167065888643265
0.09527236968278885
-0.06611813604831696
-0.07858296483755112
0.06649747490882874
0.05911779776215553
-0.022811591625213623
0.1024106964468956
0.08147867023944855
0.019586946815252304
-0.05106525868177414
-0.024443060159683228
-0.054263029247522354
0.08944810926914215
-0.10071364790201187
-0.021722210571169853
0.07199832051992416
0.0011337518226355314
-0.012777958996593952
-0.13840678334236145
-0.04254499077796936
-0.06386252492666245
-0.020176324993371964
-0.12232232093811035
-0.028990047052502632
-0.18508563935756683
-0.18540364503860474
-0.08168436586856842
0.05109398066997528
0.07906325906515121
0.10579153895378113
-0.02414489910006523
0.11888867616653442
-0.21855531632900238
0.07969395071268082
0.2653808891773224
-0.013663285411894321
-0.09955205023288727
0.09808415174484253
0.16999457776546478
0.08682151883840561
0.1023431122303009
0.07108145207166672
0.07387654483318329
-0.06368757784366608
-0.024586042389273643
-0.026650922372937202
0.02399001643061638
0.03285250812768936
-0.21361276507377625
-0.07026217132806778
0.0069277784787118435
-0.25353342294692993
0.33930301666259766
0.14324632287025452
0.08315057307481766
-0.07798770815134048
-0.02868335135281086
0.004943793639540672
0.14828753471374512
0.19227898120880127
-0.17461174726486206
-0.0019877729937434196
-0.13009606301784515
0.04091877117753029
0.0521499402821064
-0.1460346132516861
0.05098247528076172
-0.1397840827703476
-0.12229401618242264
-0.03610828146338463
-0.012787199579179287
-0.10911878198385239
-0.04502395540475845
0.04447893425822258
0.2684187889099121
-0.07231306284666061
0.16575559973716736
0.1317119151353836
-0.062432438135147095
-0.03983459249138832
0.05700237676501274
-0.08904321491718292
-0.21112067997455597
0.0817221999168396
0.14078643918037415
-0.018309488892555237
0.04715739190578461
-0.060217492282390594
-0.013126123696565628
0.04446055740118027
0.07264436036348343
0.10831904411315918
-0.08435643464326859
0.023376522585749626
-0.028794320300221443
0.04088769108057022
0.0055339825339615345
0.019025972113013268
0.128509983420372
-0.06522873789072037
-0.0031293174251914024
-0.12607356905937195
0.06066077575087547
0.07094000279903412
0.04753077030181885
0.022661926224827766
-0.05963760241866112
0.11302042007446289
-0.07348383218050003
0.01981501467525959
0.08925729244947433
-0.03905767947435379
-0.03257089853286743
0.06818972527980804
0.13085848093032837
0.09554193168878555
-0.05578995868563652
-0.0665929764509201
0.1658620834350586
0.05599314346909523
-0.0612218901515007
0.11631099879741669
-0.06619337201118469
0.003176159458234906
-0.0693531259894371
0.04408171772956848
-0.05076383799314499
-0.01813000626862049
-0.026823529973626137
-0.08499038964509964
-0.01828971691429615
-0.04047166183590889
-0.054268356412649155
-0.03218476474285126
-0.056062765419483185
0.07603158056735992
0.09132424741983414
-0.005343456286936998
-0.09676855802536011
0.00789907481521368
-0.06447719037532806
0.08620267361402512
0.07098795473575592
0.11842446029186249
0.01551771443337202
-0.07937395572662354
-0.01435335073620081
0.013628244400024414
-0.0015597468009218574
-0.02505645528435707
-0.08684227615594864
-0.006985547952353954
-0.06655548512935638
-0.025789346545934677
-0.02004867047071457
-0.15341781079769135
0.1884959489107132
-0.049044474959373474
-0.06653138995170593
-0.06009887903928757
-0.037543054670095444
0.03374868631362915
-0.2116711437702179
-0.17700879275798798
-0.10478024184703827
0.0705156922340393
-0.0023203883320093155
0.08876046538352966
0.056588441133499146
-0.2604948878288269
0.07412013411521912
-0.11127512156963348
-0.24989894032478333
0.018408063799142838
0.0042898887768387794
-0.06963876634836197
-0.05597776547074318
0.049079932272434235
-0.12189211696386337
-0.038369257003068924
-0.34966832399368286
-0.056603677570819855
0.07068061828613281
0.10864739120006561
0.05132737383246422
-0.1964990496635437
-0.10245718061923981
0.07045882940292358
-0.07838720828294754
-0.16997559368610382
0.09083696454763412
-0.0034655285999178886
0.1479758769273758
0.06078391149640083
-0.23146569728851318
-0.11363930255174637
-0.04981498420238495
0.11523976922035217
0.16984549164772034
-0.20935934782028198
0.0040994747541844845
0.026924660429358482
0.32275569438934326
0.023034323006868362
0.07438668608665466
-0.08399145305156708
-0.17964337766170502
0.03780778869986534
-0.029433203861117363
-0.026349229738116264
-0.02918684110045433
0.06334882974624634
0.022076092660427094
-0.018096277490258217
0.030513418838381767
-0.039503030478954315
-0.02838827297091484
-0.10209277272224426
-0.003542474238201976
-0.07338783890008926
-0.04217744618654251
-0.09876705706119537
0.055047277361154556
0.11166974157094955
-0.12130988389253616
0.09694824367761612
-0.06669594347476959
0.039961960166692734
-0.009999925270676613
0.003460182109847665
-0.06737305968999863
-0.009107055142521858
0.008814137428998947
0.13632634282112122
0.024909406900405884
-0.06517479568719864
-0.07522932440042496
0.0702567920088768
-0.0684298723936081
0.061893753707408905
-0.008655503392219543
-0.04066353291273117
-0.004348483402282
0.015657242387533188
-0.07270349562168121
-0.10420967638492584
-0.0762123093008995
0.0389389730989933
0.028274964541196823
-0.029082903638482094
0.06639283895492554
-0.06779580563306808
-0.03822946920990944
-0.05830422788858414
-0.0062265037558972836
0.061336468905210495
0.009083221666514874
0.0737435445189476
0.038197729736566544
0.007443592883646488
0.00608430290594697
0.05849898234009743
0.1175541952252388
-0.046331003308296204
-0.021466555073857307
-0.04824260622262955
0.006275895517319441
-0.1635502427816391
0.15148790180683136
-0.05810031667351723
0.0914284884929657
0.12254833430051804
-0.01916739158332348
0.06893692165613174
0.054074082523584366
-0.031476378440856934
0.1097053587436676
0.03628445789217949
-0.43599429726600647
0.06737709790468216
-0.129037544131279
0.08649497479200363
-0.018626734614372253
0.04012329503893852
0.08933104574680328
-0.12017034739255905
0.060387130826711655
0.08691158890724182
0.34247398376464844
-0.15930284559726715
0.17375177145004272
0.09800630062818527
0.03487596660852432
-0.05353977531194687
0.03585214540362358
0.010236641392111778
-0.041330210864543915
-0.22842775285243988
0.2453485131263733
-0.2761075794696808
0.1072268933057785
-0.03975171968340874
-0.0755053460597992
-0.11939703673124313
-0.010859502479434013
0.16607250273227692
0.08255083858966827
-0.10181749612092972
0.14590227603912354
0.12403766065835953
-0.07835293561220169
-0.16374750435352325
-0.07100678980350494
-0.22162389755249023
0.14588280022144318
-0.024736355990171432
-0.09425843507051468
0.018746301531791687
-0.10209603607654572
0.060646455734968185
-0.25551918148994446
-0.010895969346165657
-0.04991195350885391
0.13845857977867126
0.03310728818178177
0.02578837238252163
-0.17222724854946136
-0.006922225002199411
-0.19621391594409943
-0.14231866598129272
-0.16760551929473877
-0.0519104078412056
0.03296756371855736
-0.12476824969053268
0.05650532245635986
0.23812353610992432
-0.15743863582611084
0.08698466420173645
0.19438853859901428
-0.12259683012962341
-0.03878047689795494
-0.007682450581341982
-0.02795095555484295
0.05082021281123161
-0.04889955371618271
-0.010961659252643585
0.05928130820393562
0.028287671506404877
-0.024902155622839928
-0.07891544699668884
-0.012049912475049496
0.07712529599666595
0.03598513826727867
0.01127091608941555
-0.01880616880953312
-0.07373669743537903
0.020200582221150398
0.04338221624493599
-0.07311505824327469
0.051209788769483566
-0.05160420015454292
0.04042985290288925
0.09926655143499374
-0.07831661403179169
0.09257873147726059
0.019977925345301628
-0.033815398812294006
-0.07210275530815125
0.06356362998485565
-0.003526469459757209
-0.006501379422843456
-0.019126012921333313
0.08706482499837875
-0.03990349918603897
0.04458218440413475
-0.012432483956217766
-0.012049884535372257
0.09214825183153152
0.05891584977507591
0.04628054052591324
-0.12495013326406479
0.012778479605913162
-0.017216918990015984
0.07948016375303268
-0.08019712567329407
-0.03907034546136856
0.10292206704616547
0.04328740015625954
-0.054979708045721054
-0.025320924818515778
-0.0483105443418026
0.07154233753681183
0.0512700229883194
-0.046424515545368195
-0.02345086820423603
-0.12982210516929626
-0.06790260970592499
0.06018243357539177
0.037415143102407455
0.08786765486001968
0.03075915388762951
0.0017411090666428208
-0.0269445963203907
-0.02999311126768589
0.06513727456331253
0.0031864268239587545
0.044102706015110016
-0.1299879401922226
-0.26705726981163025
0.06039125844836235
0.10360205918550491
0.06616588681936264
-0.051400866359472275
0.13577784597873688
0.07597581297159195
0.04814828559756279
-0.04938233271241188
0.01738530956208706
0.20816591382026672
-0.21027244627475739
0.06754700839519501
0.10567715764045715
-0.056670669466257095
-0.11451376229524612
-0.31185415387153625
0.08824213594198227
0.1212628185749054
-0.07622910290956497
0.033068347722291946
-0.05769667401909828
-0.014607622288167477
-0.058767255395650864
0.22807000577449799
0.027445871382951736
0.05654539912939072
-0.050251130014657974
0.1944846212863922
-0.15993762016296387
0.059288620948791504
-0.0447382926940918
0.32446709275245667
-0.04160749912261963
0.28296005725860596
-0.3827282786369324
0.254743367433548
-0.0768408477306366
0.20713363587856293
0.06964444369077682
0.10069935768842697
0.045912325382232666
0.05559718981385231
-0.2206874042749405
0.15198400616645813
0.04835980758070946
0.047040536999702454
0.09411261230707169
0.25149208307266235
-0.07181685417890549
0.08547183871269226
0.08488790690898895
-0.15615493059158325
-0.33086398243904114
-0.2983965277671814
-0.11719236522912979
-0.13268031179904938
0.24107572436332703
-0.3113463222980499
-0.05291929468512535
0.0488550178706646
0.09519756585359573
0.012989241629838943
0.1408274918794632
-0.030646612867712975
-0.08423076570034027
0.028933299705386162
-0.10323038697242737
0.011490237899124622
0.07745353877544403
-0.028034275397658348
0.014905882999300957
-0.07685288786888123
-0.013650459237396717
-0.06641217321157455
0.027056097984313965
-0.03947452828288078
-0.1020670011639595
0.08372291922569275
0.046232279390096664
-0.07239823043346405
-0.022083083167672157
-0.08308162540197372
-0.10149438679218292
-0.0002245452196802944
0.09753961116075516
0.036494068801403046
-0.08103196322917938
0.12776073813438416
-0.0253741554915905
0.009209982119500637
0.0021263589151203632
-0.12512384355068207
0.005839033052325249
-0.007555305492132902
0.19611261785030365
-0.08948606252670288
0.02336801588535309
0.02212056890130043
-0.07468143105506897
0.12251371145248413
-0.05426274612545967
-0.08059383183717728
0.01554406713694334
-0.055364593863487244
-0.026139788329601288
-0.006871667690575123
-0.22675757110118866
-0.01914791204035282
-0.048054784536361694
-0.06078406423330307
-0.006860801018774509
-0.018450304865837097
-0.022998768836259842
0.10513537377119064
0.071986623108387
-0.029760506004095078
-0.03750854730606079
0.06129639595746994
-0.07094012945890427
0.06240980327129364
-0.0775400698184967
-0.14494922757148743
0.0742897093296051
0.06266392022371292
0.13864131271839142
0.09437587857246399
0.11821942776441574
0.2060241997241974
0.21300895512104034
0.2553708255290985
-0.11336564272642136
0.1527199000120163
-0.1091243326663971
-0.06471648812294006
0.01968575455248356
0.06589075177907944
0.014025319367647171
-0.0703120008111
-0.14469754695892334
-0.07032034546136856
-0.20258772373199463
-0.04968898370862007
-0.01106203068047762
-0.03663913533091545
-0.10767699033021927
0.11330418288707733
0.06919214129447937
0.13461236655712128
-0.019307805225253105
0.029960816726088524
-0.038924477994441986
0.06980523467063904
-0.06379207223653793
0.19824926555156708
-0.16195940971374512
0.07161907851696014
0.09158376604318619
-0.06558402627706528
0.1481974571943283
