-1.459356546401977539e-01
7.189627736806869507e-02
6.595235317945480347e-02
-1.950327120721340179e-02
-5.024463683366775513e-02
-4.737533628940582275e-02
1.197984591126441956e-01
-2.957168035209178925e-02
9.891721606254577637e-02
-1.220258399844169617e-01
6.528892368078231812e-02
8.808874338865280151e-02
-2.134689688682556152e-01
1.885266751050949097e-01
4.431482851505279541e-01
4.204394295811653137e-02
8.369989693164825439e-02
-2.000248283147811890e-01
-2.836570143699645996e-02
-1.072694659233093262e-01
6.337255239486694336e-02
-8.663521707057952881e-02
1.172670125961303711e-01
-1.405677646398544312e-01
3.518229722976684570e-02
4.698865115642547607e-02
1.291622780263423920e-02
-1.485667079687118530e-01
-2.130231261253356934e-02
-7.054249197244644165e-02
-1.132862046360969543e-01
-1.743362993001937866e-01
-1.651711016893386841e-02
5.902743712067604065e-02
3.669835999608039856e-02
1.405227631330490112e-01
-8.802520483732223511e-02
-3.292923569679260254e-01
-3.000768367201089859e-03
2.408287078142166138e-01
5.654958635568618774e-02
-2.660336671397089958e-03
-1.051965821534395218e-02
1.874788850545883179e-01
2.283165929839015007e-03
-5.677386652678251266e-03
2.119474485516548157e-02
-1.146773323416709900e-01
-4.981689527630805969e-02
1.188193634152412415e-01
9.237564355134963989e-02
4.527750425040721893e-03
-1.471365839242935181e-01
-7.064296305179595947e-02
-5.075673758983612061e-02
-2.905268035829067230e-02
-1.975727733224630356e-03
1.216991022229194641e-01
4.538800194859504700e-02
-8.061436563730239868e-02
-3.338386118412017822e-02
6.014865264296531677e-02
-4.865515977144241333e-02
7.787015289068222046e-02
1.595911234617233276e-01
-6.761745363473892212e-02
1.177759654819965363e-02
-6.025449186563491821e-02
3.290781378746032715e-02
-6.450666487216949463e-02
-6.593783944845199585e-02
-3.963275998830795288e-02
-5.706026777625083923e-02
-3.423936665058135986e-02
-1.140680834650993347e-01
-1.235439535230398178e-02
-1.202272344380617142e-02
-3.831871598958969116e-02
-9.111518412828445435e-02
1.439594477415084839e-02
1.812641322612762451e-02
-7.359164208173751831e-02
-3.037900477647781372e-02
-8.117964863777160645e-02
1.175239086151123047e-01
3.061251342296600342e-02
-4.222235083580017090e-02
-3.400499746203422546e-02
1.639398559927940369e-02
-5.288229137659072876e-02
3.412405773997306824e-02
-1.157181560993194580e-01
1.163264811038970947e-01
-8.866561204195022583e-02
-9.876217693090438843e-02
6.169274076819419861e-02
9.677693247795104980e-02
-1.314477026462554932e-01
-1.083464547991752625e-01
-5.127677321434020996e-02
-3.197836503386497498e-02
-3.297765925526618958e-02
-2.279222011566162109e-03
2.715893462300300598e-02
2.464849874377250671e-02
-1.614230917766690254e-03
-7.672665268182754517e-02
-6.318946927785873413e-02
-3.296077018603682518e-03
8.397298306226730347e-02
5.912596359848976135e-02
3.460666164755821228e-02
-1.281635016202926636e-01
4.139165859669446945e-03
-6.431706994771957397e-02
1.090006902813911438e-01
-2.568074502050876617e-02
-5.277423933148384094e-02
-5.933335982263088226e-03
-8.438004553318023682e-02
-2.257645316421985626e-02
2.481904253363609314e-02
-1.369826495647430420e-01
2.682346850633621216e-02
1.066211983561515808e-02
4.430199041962623596e-02
-9.758045524358749390e-02
5.426637455821037292e-02
-1.775417774915695190e-01
-8.113691210746765137e-02
-2.026508562266826630e-03
4.747362434864044189e-02
-4.033012688159942627e-02
2.269142307341098785e-02
-4.470308870077133179e-02
-1.202174182981252670e-02
-1.431883275508880615e-01
1.225721761584281921e-01
-5.359422042965888977e-02
2.591799795627593994e-01
-1.216517835855484009e-01
-2.819527685642242432e-01
-5.020078271627426147e-02
5.256529897451400757e-02
-2.635274641215801239e-02
6.839517503976821899e-02
-7.891749590635299683e-02
-3.644423931837081909e-02
8.473311364650726318e-02
3.826559055596590042e-03
-5.886649247258901596e-03
2.554870955646038055e-02
-5.426924675703048706e-02
-7.877001166343688965e-02
6.980965286493301392e-02
-9.383364021778106689e-02
-1.157432869076728821e-01
-7.765277754515409470e-03
5.241875723004341125e-02
5.565043538808822632e-03
1.240529771894216537e-02
-7.116081193089485168e-03
-9.952510707080364227e-03
-5.658071022480726242e-03
5.448939278721809387e-02
-2.683744393289089203e-02
-6.649862509220838547e-03
1.123267225921154022e-02
-1.065128855407238007e-02
-1.016794815659523010e-01
6.678248941898345947e-02
-2.045922353863716125e-02
7.026154547929763794e-02
-6.015958636999130249e-02
-2.252297475934028625e-02
-1.330979466438293457e-01
4.870344325900077820e-02
3.011503489688038826e-03
2.426784299314022064e-02
-7.335170637816190720e-03
1.221916601061820984e-01
1.143562272191047668e-01
1.910888706333935261e-03
-1.219251751899719238e-01
-1.177025958895683289e-01
-1.794830560684204102e-01
4.859172552824020386e-02
1.034877821803092957e-01
-3.458708897233009338e-02
-9.857077151536941528e-02
-1.093538105487823486e-01
-1.369967609643936157e-01
-8.204451948404312134e-02
-3.571613132953643799e-02
2.071913704276084900e-02
-9.561266005039215088e-02
-3.782069087028503418e-01
-1.799864917993545532e-01
-3.114167787134647369e-02
8.646583557128906250e-02
-4.463982209563255310e-02
1.842107065021991730e-02
-4.219865798950195312e-02
-5.177639052271842957e-02
7.006675004959106445e-02
-1.007217541337013245e-01
7.599628716707229614e-02
1.444153953343629837e-02
-8.560735732316970825e-02
8.927435427904129028e-02
2.251695469021797180e-02
2.516785562038421631e-01
-1.297496259212493896e-03
-1.904224418103694916e-02
-8.885711431503295898e-02
1.417953968048095703e-01
-2.919933386147022247e-02
7.356992363929748535e-02
1.109049394726753235e-01
-8.629558235406875610e-02
2.563326386734843254e-03
3.326605260372161865e-02
1.211544722318649292e-01
3.042045980691909790e-02
-6.432408839464187622e-02
-1.757411099970340729e-02
-1.426816731691360474e-01
5.163053050637245178e-03
3.693229332566261292e-02
-9.727721661329269409e-02
1.464902609586715698e-01
4.345895349979400635e-02
-2.575817052274942398e-03
1.127241086214780807e-02
1.782459951937198639e-02
-6.971570849418640137e-02
-1.526677757501602173e-01
5.075844749808311462e-02
8.766382187604904175e-02
1.829837858676910400e-01
1.805386394262313843e-01
-7.546264678239822388e-03
1.010489389300346375e-01
5.620219558477401733e-02
1.434086561203002930e-01
2.790361344814300537e-01
1.784584075212478638e-01
3.374382480978965759e-02
8.444773405790328979e-02
-4.116468131542205811e-02
-5.402942746877670288e-02
-2.613626979291439056e-02
1.791882701218128204e-02
1.304306183010339737e-02
-5.058730486780405045e-03
3.725542500615119934e-02
1.630055606365203857e-01
1.013086810708045959e-01
9.421205520629882812e-02
-1.265555471181869507e-01
-3.264651447534561157e-02
8.719963952898979187e-04
-1.061169430613517761e-02
1.353747327812016010e-03
3.159141167998313904e-03
-1.588741242885589600e-01
3.627565456554293633e-03
-6.954704876989126205e-03
-1.257373858243227005e-02
8.765883743762969971e-03
-1.219798028469085693e-01
-1.825048588216304779e-03
5.169695615768432617e-02
4.491032660007476807e-02
-3.174170479178428650e-02
3.572968766093254089e-02
3.647936508059501648e-02
5.354425683617591858e-02
-1.305104047060012817e-01
-1.112249121069908142e-02
2.693243324756622314e-02
-8.447472751140594482e-02
-5.309227481484413147e-02
-9.079673327505588531e-03
-2.079659253358840942e-01
-1.548354178667068481e-01
6.814050138927996159e-04
-2.286391705274581909e-02
-5.254932492971420288e-02
-4.542975872755050659e-02
5.196174979209899902e-02
-1.042423099279403687e-01
4.360053315758705139e-02
-2.025251984596252441e-01
6.956184655427932739e-02
-1.009920910000801086e-01
-3.367152065038681030e-02
-7.056190818548202515e-02
1.027280315756797791e-01
-9.343351423740386963e-02
-9.957375936210155487e-03
-1.840482465922832489e-02
9.634566307067871094e-02
-9.916127473115921021e-02
-2.979350090026855469e-02
-2.830865420401096344e-02
4.054784029722213745e-02
4.946570843458175659e-02
-5.278076604008674622e-02
1.728349179029464722e-02
-1.610493101179599762e-02
-4.163742437958717346e-02
-2.100179493427276611e-01
1.466819345951080322e-01
-2.912221662700176239e-02
1.264637112617492676e-01
8.093035966157913208e-02
-8.518160879611968994e-02
-2.850947715342044830e-02
-3.696382418274879456e-02
1.093000471591949463e-01
8.342780917882919312e-02
2.130563408136367798e-01
4.391466453671455383e-02
-7.683347165584564209e-02
3.715427592396736145e-02
2.284126542508602142e-02
1.667562313377857208e-02
-1.478540897369384766e-02
-4.495165497064590454e-02
7.260291278362274170e-02
1.444540768861770630e-01
8.965035527944564819e-02
6.697437912225723267e-02
-2.014273405075073242e-02
3.244213014841079712e-02
3.120347484946250916e-02
-6.777919828891754150e-02
-3.854809328913688660e-02
2.710935287177562714e-02
1.693551614880561829e-02
2.910476922988891602e-01
1.311821937561035156e-01
-2.597756311297416687e-02
2.556465752422809601e-02
-4.257285594940185547e-02
9.176966734230518341e-03
1.220983220264315605e-03
6.608010083436965942e-02
-4.243391752243041992e-02
-1.742497980594635010e-01
6.525286287069320679e-02
6.413711607456207275e-02
1.234974414110183716e-01
-1.055935323238372803e-01
4.178700968623161316e-02
7.272702455520629883e-02
5.532188341021537781e-02
-2.185626477003097534e-01
1.153147593140602112e-01
2.563365548849105835e-02
2.826394140720367432e-02
-2.521863020956516266e-02
-7.291741669178009033e-02
5.500000435858964920e-03
-1.571584194898605347e-01
1.171940937638282776e-01
6.078634411096572876e-02
9.344802796840667725e-02
1.450576446950435638e-02
-5.775696039199829102e-02
2.323864400386810303e-01
9.065157733857631683e-03
1.166775226593017578e-01
-1.109848394989967346e-01
-1.031291931867599487e-01
8.687923662364482880e-03
3.424283117055892944e-02
-1.350037604570388794e-01
3.479455038905143738e-02
7.896909862756729126e-02
-2.223003283143043518e-02
1.096460670232772827e-01
-1.881864964962005615e-01
-7.388713955879211426e-02
-3.862201701849699020e-03
-5.808264762163162231e-02
-1.950109191238880157e-02
-9.258448332548141479e-02
3.828705102205276489e-02
-1.825161650776863098e-02
-5.956837907433509827e-02
9.999148547649383545e-02
-2.191860973834991455e-02
-3.791609406471252441e-02
1.482899487018585205e-02
8.797384053468704224e-02
1.760418899357318878e-02
8.014217019081115723e-02
4.073176532983779907e-02
-2.243620604276657104e-01
1.622535735368728638e-01
-2.988034859299659729e-02
1.161384582519531250e-01
2.954766713082790375e-02
-4.143987596035003662e-01
2.251764945685863495e-02
7.998489774763584137e-03
-1.593026667833328247e-01
8.419004082679748535e-02
1.631871759891510010e-01
-1.171390637755393982e-01
3.761193901300430298e-02
-3.397909924387931824e-02
7.382637262344360352e-02
-3.789138421416282654e-02
-1.297173555940389633e-02
-2.686645835638046265e-02
-4.818997159600257874e-02
-5.315265432000160217e-02
1.029453426599502563e-02
-3.989780694246292114e-02
3.224992007017135620e-02
-2.566163614392280579e-02
4.464746117591857910e-01
1.028794869780540466e-01
-1.201407611370086670e-01
-1.603275984525680542e-01
-3.823790326714515686e-02
6.181666254997253418e-02
8.157540112733840942e-02
1.778191700577735901e-02
-1.885107718408107758e-02
2.049693092703819275e-02
6.187861785292625427e-02
9.875635802745819092e-02
1.199183613061904907e-02
-1.990295797586441040e-01
2.062407694756984711e-02
-8.931825868785381317e-03
-2.919413708150386810e-02
-9.856685064733028412e-03
3.289011493325233459e-02
-4.720050096511840820e-02
1.013210136443376541e-02
1.283500809222459793e-02
-6.926211062818765640e-03
1.074041798710823059e-01
-2.363959699869155884e-01
1.146640442311763763e-02
9.747177362442016602e-02
-6.897266954183578491e-02
1.022627018392086029e-02
1.766650527715682983e-01
-3.666500002145767212e-02
3.626430779695510864e-02
2.224808484315872192e-01
-1.930540613830089569e-02
-3.593803197145462036e-02
-3.274279832839965820e-02
1.846589297056198120e-01
1.728922507027164102e-04
-1.317485719919204712e-01
-9.458950161933898926e-02
2.237902721390128136e-03
-1.372812688350677490e-01
-1.359260678291320801e-01
7.421907037496566772e-02
1.058786585927009583e-01
-5.435300618410110474e-02
-5.403276532888412476e-02
8.175235986709594727e-02
-8.317168056964874268e-02
8.711459487676620483e-02
-2.124840207397937775e-02
-1.187843922525644302e-02
8.261343091726303101e-02
1.872108578681945801e-01
-1.138163730502128601e-01
1.378911584615707397e-01
-2.577785775065422058e-02
5.085583031177520752e-02
6.385635584592819214e-02
-6.469634920358657837e-02
-1.891076564788818359e-01
7.701852172613143921e-02
8.210913278162479401e-03
1.266884058713912964e-01
1.202080473303794861e-01
-4.574488475918769836e-02
1.348531693220138550e-01
5.071845278143882751e-02
-3.657333552837371826e-02
9.059126675128936768e-02
-9.703450649976730347e-02
-2.697482146322727203e-02
3.095956705510616302e-02
1.499053984880447388e-01
-4.779556393623352051e-02
1.263216324150562286e-02
5.157921835780143738e-02
4.185444861650466919e-02
-6.444788724184036255e-02
-2.419973760843276978e-01
-3.134411573410034180e-02
1.992178708314895630e-02
5.004489049315452576e-02
9.172032773494720459e-02
1.037115044891834259e-02
-1.648979820311069489e-02
-3.192179650068283081e-02
3.399919718503952026e-02
-5.252292379736900330e-02
-5.574815347790718079e-02
1.250018551945686340e-02
5.504791811108589172e-02
-4.876634851098060608e-02
1.033375784754753113e-01
4.491118341684341431e-02
-3.354786336421966553e-02
-1.117318496108055115e-01
3.042519465088844299e-02
-2.943358570337295532e-02
-1.715278476476669312e-01
5.298464000225067139e-02
-3.315526247024536133e-02
-9.022389352321624756e-02
2.727760933339595795e-02
-1.278882008045911789e-02
-1.376589108258485794e-02
-1.840490102767944336e-02
1.028910353779792786e-01
-1.124339774250984192e-01
3.651580307632684708e-03
1.867887564003467560e-02
-5.859089642763137817e-02
-2.375149913132190704e-02
9.087997674942016602e-02
9.268992394208908081e-02
8.108593523502349854e-02
-2.082625217735767365e-02
-3.529551997780799866e-02
1.359516661614179611e-02
1.102019548416137695e-01
5.679658800363540649e-02
2.005815692245960236e-02
-4.401889070868492126e-02
-2.612000331282615662e-02
4.332994297146797180e-02
-6.536313891410827637e-02
3.131650760769844055e-02
-7.209128141403198242e-02
-7.664675265550613403e-02
-8.893653284758329391e-04
-6.272227503359317780e-03
-3.252661824226379395e-01
-7.958538085222244263e-02
8.927211910486221313e-02
-2.574474550783634186e-02
-6.659481674432754517e-03
-2.086697667837142944e-01
6.667244434356689453e-02
-9.374121576547622681e-02
-3.296235203742980957e-02
2.014122717082500458e-02
-1.761794090270996094e-02
1.431056112051010132e-01
-8.532202802598476410e-03
-1.683352291584014893e-01
-2.415723502635955811e-01
1.032925248146057129e-01
-8.723716437816619873e-02
1.059405133128166199e-01
-5.691673234105110168e-02
1.698630452156066895e-01
-1.944437064230442047e-02
5.337165296077728271e-02
6.140098907053470612e-03
3.386915102601051331e-02
-2.331334911286830902e-02
-7.851739972829818726e-02
7.097849249839782715e-02
3.064052760601043701e-02
3.317320719361305237e-02
-6.038191914558410645e-02
4.742912203073501587e-02
2.505214326083660126e-02
-2.191384881734848022e-02
-9.793004393577575684e-02
-1.188068836927413940e-01
8.725909888744354248e-02
7.642237097024917603e-02
-3.300801664590835571e-02
-3.218931332230567932e-02
3.213953226804733276e-02
-1.218625828623771667e-01
-3.639131784439086914e-02
1.240128800272941589e-01
-9.041552245616912842e-02
3.213804587721824646e-02
1.343871653079986572e-01
-2.312560565769672394e-02
-9.905115514993667603e-02
-5.790375545620918274e-02
-6.462670117616653442e-02
6.048056110739707947e-02
-1.064172387123107910e-01
1.859960556030273438e-01
-5.670838057994842529e-02
1.126947030425071716e-01
7.911948859691619873e-02
6.357358396053314209e-02
4.541886970400810242e-02
4.501330107450485229e-02
3.576479852199554443e-02
-6.072470918297767639e-02
9.838784486055374146e-02
-3.469587862491607666e-02
-9.519923478364944458e-03
4.231463372707366943e-02
9.880450670607388020e-05
-1.786273866891860962e-01
5.647112801671028137e-02
-5.396869778633117676e-02
2.204243093729019165e-01
-8.813386410474777222e-02
-3.259390965104103088e-02
9.531088173389434814e-03
5.529571697115898132e-02
-1.428855676203966141e-02
-8.679495751857757568e-02
-1.431010663509368896e-02
-9.164576418697834015e-03
-2.502202987670898438e-03
6.597674638032913208e-02
1.207209527492523193e-01
-8.750487118959426880e-02
-8.061467856168746948e-02
3.681808710098266602e-02
5.751441791653633118e-02
-1.192682143300771713e-02
-1.229934319853782654e-01
-1.830994151532649994e-02
-1.452676951885223389e-02
-2.361161605222150683e-04
3.303603082895278931e-02
-4.967127740383148193e-02
1.604397892951965332e-01
-7.453843206167221069e-02
2.099576592445373535e-02
6.827489286661148071e-02
2.427660301327705383e-02
-5.399473011493682861e-02
-1.789887547492980957e-01
-6.237488985061645508e-02
1.387224532663822174e-02
-1.306919846683740616e-02
-1.239859387278556824e-01
6.120913475751876831e-02
1.098938062787055969e-01
5.900903488509356976e-04
-7.658946514129638672e-02
1.374956034123897552e-02
-1.037940904498100281e-01
-1.196149736642837524e-02
1.268057990819215775e-02
-5.483945086598396301e-02
-2.986915409564971924e-02
1.889773458242416382e-01
5.856382846832275391e-02
7.041392382234334946e-03
6.867634505033493042e-02
-9.713097661733627319e-02
-4.889178276062011719e-02
-8.087587542831897736e-03
-8.747542276978492737e-03
8.853569626808166504e-02
-5.906902998685836792e-02
-5.511899664998054504e-02
1.174286007881164551e-01
-1.543828845024108887e-01
7.458336651325225830e-02
5.510744452476501465e-02
4.491329938173294067e-02
1.118709295988082886e-01
8.057361096143722534e-02
3.130275011062622070e-02
-4.895161837339401245e-02
-7.589184492826461792e-02
1.017870306968688965e-01
5.119732394814491272e-02
-9.390256367623806000e-03
-7.113742828369140625e-02
-1.066439002752304077e-01
7.895623892545700073e-02
-5.608488991856575012e-02
6.331350654363632202e-02
3.751485794782638550e-02
-8.732979744672775269e-02
1.308119744062423706e-01
-1.333975940942764282e-01
8.285951614379882812e-02
1.070486009120941162e-01
1.974310167133808136e-02
-8.000565320253372192e-02
2.397433854639530182e-02
-4.754399135708808899e-02
1.292857676744461060e-01
2.382633509114384651e-03
1.678417921066284180e-01
4.290891811251640320e-02
5.303482525050640106e-03
-1.058528572320938110e-01
1.439064592123031616e-01
8.024702221155166626e-02
-1.399308536201715469e-02
-9.143989533185958862e-02
-1.447721384465694427e-02
-6.368849426507949829e-02
-3.785485029220581055e-02
-4.179303348064422607e-02
9.081054478883743286e-02
-9.406131505966186523e-02
-6.057180836796760559e-02
-6.914450973272323608e-02
-4.750619409605860710e-04
-1.438907682895660400e-01
-1.300366595387458801e-02
-3.999256715178489685e-02
8.012899011373519897e-02
-2.439125627279281616e-02
1.130860745906829834e-01
1.429020911455154419e-01
6.348181050270795822e-03
-1.333243101835250854e-01
2.676806040108203888e-02
-4.425685107707977295e-02
-1.490374654531478882e-02
1.846513450145721436e-01
-1.200842484831809998e-02
8.439344167709350586e-02
7.092908024787902832e-02
-3.524734452366828918e-02
8.001937717199325562e-02
4.873696342110633850e-02
-1.127951368689537048e-01
-6.728542596101760864e-02
-4.288937151432037354e-02
6.474424153566360474e-02
-1.098679676651954651e-01
-7.108961790800094604e-02
-1.151297986507415771e-01
-2.245568186044692993e-01
-3.206733241677284241e-02
-4.289444908499717712e-02
-5.602499470114707947e-02
2.704528346657752991e-02
4.855941981077194214e-02
2.648612949997186661e-03
-1.016405597329139709e-02
3.459845110774040222e-02
-9.368552267551422119e-02
2.651357091963291168e-03
9.875497967004776001e-02
6.933751702308654785e-02
-3.011447191238403320e-02
-4.356556013226509094e-02
6.754241883754730225e-02
-9.411408752202987671e-02
-5.071517080068588257e-02
1.720459014177322388e-01
5.004736129194498062e-03
1.962610781192779541e-01
2.544695138931274414e-02
-4.809622839093208313e-02
-2.296688035130500793e-02
3.938161581754684448e-02
-9.734528139233589172e-04
-1.049434021115303040e-01
-1.279316395521163940e-01
-5.741070210933685303e-02
-7.233147323131561279e-02
-4.715506732463836670e-02
5.351359769701957703e-02
-7.942880503833293915e-03
5.620083585381507874e-02
-1.465862393379211426e-01
-1.198354661464691162e-01
-1.031933501362800598e-01
5.207446217536926270e-02
1.008868739008903503e-01
-1.853812299668788910e-02
-6.457825750112533569e-02
-7.663592696189880371e-02
-2.712972834706306458e-02
4.220063239336013794e-02
1.687487810850143433e-01
-2.353966794908046722e-02
-3.730431944131851196e-02
-3.759592771530151367e-02
-6.374737247824668884e-03
2.454259060323238373e-02
-4.068721830844879150e-02
1.657508686184883118e-02
-4.239173978567123413e-02
1.525191962718963623e-01
2.773668849840760231e-03
4.766101948916912079e-03
-5.164628103375434875e-02
5.320984870195388794e-02
1.300443336367607117e-02
3.501821681857109070e-02
5.935264006257057190e-02
-9.314898401498794556e-02
-9.853027015924453735e-02
-1.605494171380996704e-01
7.782662659883499146e-02
4.436015337705612183e-02
4.306340217590332031e-02
1.063543260097503662e-01
1.830534450709819794e-02
9.618210606276988983e-03
-8.894336223602294922e-02
1.777633465826511383e-02
1.071325540542602539e-01
9.246190637350082397e-02
2.842770516872406006e-02
-2.182500995695590973e-02
-8.976055681705474854e-02
3.214750438928604126e-03
-1.541076600551605225e-02
8.881224691867828369e-02
-2.710849232971668243e-02
1.437491476535797119e-01
3.870397806167602539e-02
-1.338711567223072052e-02
5.433720722794532776e-02
-3.124562499579042196e-04
-2.387628518044948578e-02
-8.724799752235412598e-02
-1.391127146780490875e-02
1.327911466360092163e-01
-1.706102341413497925e-01
1.091532409191131592e-01
1.556574851274490356e-01
-8.384221047163009644e-02
1.866560988128185272e-02
-2.263546362519264221e-02
1.788942329585552216e-02
-5.258319526910781860e-02
4.160508513450622559e-02
8.220262825489044189e-02
3.238436952233314514e-02
1.468188315629959106e-01
-8.726387470960617065e-02
4.067627713084220886e-02
7.821111939847469330e-03
-9.061384201049804688e-02
-1.210954859852790833e-01
-1.562326587736606598e-02
-3.025752305984497070e-02
-1.246255636215209961e-02
5.150796473026275635e-02
-9.390007704496383667e-03
7.077191490679979324e-03
-1.478236727416515350e-02
-2.206917405128479004e-01
9.335836023092269897e-02
-2.401480451226234436e-02
1.676082909107208252e-01
6.783909350633621216e-02
8.341315202414989471e-03
-9.317861497402191162e-02
8.377498015761375427e-03
-5.237395409494638443e-03
1.054510623216629028e-01
-6.336081773042678833e-02
1.451442092657089233e-01
1.281275302171707153e-01
-1.763137876987457275e-01
-3.227380290627479553e-02
9.863601624965667725e-02
5.473973229527473450e-02
-5.084642022848129272e-02
1.671658754348754883e-01
-3.502604737877845764e-02
-1.229113563895225525e-01
7.904951274394989014e-02
-7.347512245178222656e-02
3.289123624563217163e-02
-5.571930110454559326e-02
-3.410440310835838318e-02
4.229509830474853516e-01
2.912193723022937775e-02
-2.936310134828090668e-02
1.174213513731956482e-01
-1.326882839202880859e-01
2.019689530134201050e-01
-7.742188405245542526e-03
-3.975141048431396484e-02
4.009196907281875610e-02
3.334582969546318054e-02
1.063508018851280212e-01
-1.531123816967010498e-01
-2.141376882791519165e-01
2.897226996719837189e-02
1.203822996467351913e-02
4.104547947645187378e-02
-8.751762658357620239e-02
-2.671211771667003632e-02
1.406585518270730972e-02
7.581266760826110840e-02
-2.343595921993255615e-01
1.005904003977775574e-01
7.489792257547378540e-02
-1.077088415622711182e-01
2.694769948720932007e-02
-9.034302085638046265e-02
-7.969333231449127197e-02
2.765543200075626373e-02
7.824455946683883667e-02
2.661386504769325256e-02
-1.261706501245498657e-01
8.472985029220581055e-02
-3.130554780364036560e-02
8.411901444196701050e-02
-2.641462534666061401e-02
4.099952057003974915e-02
-1.760159730911254883e-01
-8.827291429042816162e-02
-2.314672432839870453e-02
3.110723383724689484e-02
1.247260272502899170e-01
2.595943026244640350e-02
1.471916120499372482e-02
2.066020667552947998e-02
1.519425511360168457e-01
3.404729068279266357e-05
-1.136874407529830933e-01
-1.602804809808731079e-01
4.366618022322654724e-02
1.086293458938598633e-01
-1.020083501935005188e-01
-1.921522081829607487e-03
6.586715113371610641e-03
-8.700318634510040283e-02
6.645926088094711304e-02
1.148351877927780151e-01
-3.631936560850590467e-04
6.304980069398880005e-02
-3.491906076669692993e-02
-1.739316582679748535e-01
-1.670972444117069244e-02
-6.833680719137191772e-02
3.150750324130058289e-02
1.904092915356159210e-02
4.029473662376403809e-02
-1.130416691303253174e-01
1.837454587221145630e-01
-6.018807739019393921e-02
8.575358241796493530e-02
-1.239965762943029404e-02
-4.251830652356147766e-02
-1.448799669742584229e-01
-1.001107022166252136e-01
-4.389341175556182861e-02
-1.957331039011478424e-02
1.137439906597137451e-01
1.109115481376647949e-01
3.355374932289123535e-02
6.463747471570968628e-02
1.593906879425048828e-01
2.631779909133911133e-01
5.374904721975326538e-02
-1.499569509178400040e-02
4.195945337414741516e-02
4.131272062659263611e-02
-2.391925081610679626e-02
-1.951734162867069244e-02
6.384092569351196289e-02
-2.258400060236454010e-02
1.205094903707504272e-01
-1.303814798593521118e-01
1.330854184925556183e-02
1.141603887081146240e-01
5.815544631332159042e-03
-4.992533847689628601e-02
-1.917413622140884399e-01
-4.534558858722448349e-03
-2.500494010746479034e-02
1.397247463464736938e-01
6.799478828907012939e-02
-3.909709677100181580e-02
8.418771438300609589e-03
1.855136007070541382e-01
1.273908168077468872e-01
2.604776024818420410e-01
1.016603559255599976e-01
-1.270376052707433701e-02
-1.368998438119888306e-01
1.414396613836288452e-01
-6.133479997515678406e-02
-1.005074009299278259e-01
1.265663951635360718e-01
6.496607093140482903e-04
-2.210122905671596527e-02
1.160623654723167419e-01
-4.453181475400924683e-02
6.212950870394706726e-02
-4.673913866281509399e-02
1.537317782640457153e-02
-2.168592438101768494e-02
-2.842004895210266113e-01
-7.603116799145936966e-03
4.188334196805953979e-02
1.301803737878799438e-01
-6.100055202841758728e-02
2.488783188164234161e-02
-1.089859306812286377e-01
-1.101423501968383789e-01
-5.033729970455169678e-02
3.449758887290954590e-02
-2.524986863136291504e-02
2.493833005428314209e-02
2.676787041127681732e-02
-9.282343089580535889e-02
-7.696449756622314453e-02
-3.496012464165687561e-02
-5.329439416527748108e-02
-5.526820197701454163e-02
2.227316424250602722e-02
1.456732898950576782e-01
1.018923800438642502e-02
8.777686953544616699e-02
-1.447375714778900146e-01
4.728339985013008118e-02
-1.259152144193649292e-01
9.721866995096206665e-02
-1.813522130250930786e-01
8.172003924846649170e-02
-3.847948461771011353e-02
2.236682549118995667e-02
1.223137378692626953e-01
2.696287073194980621e-02
1.314635723829269409e-01
-7.379086315631866455e-02
-6.429071724414825439e-02
-9.516088664531707764e-02
-2.137042023241519928e-02
6.518550217151641846e-02
5.117208883166313171e-02
7.325246185064315796e-02
7.572203874588012695e-02
8.050398528575897217e-02
4.816116020083427429e-02
1.018134057521820068e-01
-5.848829820752143860e-02
-2.836528979241847992e-02
4.568316042423248291e-02
-1.165615990757942200e-01
-1.335338596254587173e-02
-7.339717354625463486e-03
3.244331106543540955e-02
1.077174991369247437e-01
-4.243206977844238281e-02
-4.989105835556983948e-02
7.995368540287017822e-02
-3.193821758031845093e-02
-6.893868744373321533e-02
1.325661838054656982e-01
-5.936935171484947205e-02
1.220977492630481720e-02
-4.347193986177444458e-02
-8.096367120742797852e-02
-7.525663822889328003e-02
-3.743634372949600220e-02
-1.512890332378447056e-03
-5.216729268431663513e-02
4.423716105520725250e-03
2.030469477176666260e-02
3.643277287483215332e-02
-5.968245863914489746e-02
4.012460261583328247e-02
-1.096750050783157349e-01
-8.079551905393600464e-02
-4.629323631525039673e-02
1.344569921493530273e-01
7.580690085887908936e-02
-9.748080372810363770e-02
-3.420396521687507629e-02
-9.487194009125232697e-03
2.819062769412994385e-02
-4.816722497344017029e-02
7.688895612955093384e-02
5.725688114762306213e-02
-1.184135559014976025e-03
-1.233351975679397583e-02
2.400819212198257446e-02
-5.188088864088058472e-02
7.858849316835403442e-02
2.228812081739306450e-03
-1.871851459145545959e-02
3.595374897122383118e-02
3.513727337121963501e-02
-3.601733222603797913e-02
-7.885260134935379028e-02
8.705649524927139282e-02
2.262537553906440735e-02
-6.432645767927169800e-02
1.027421578764915466e-01
4.665553942322731018e-02
-2.429238520562648773e-02
-5.101533606648445129e-02
-9.251581877470016479e-02
-2.205773256719112396e-02
7.520535588264465332e-02
-1.374515742063522339e-01
-5.015859007835388184e-02
-3.281272016465663910e-03
8.949779719114303589e-02
2.042947895824909210e-02
1.409221440553665161e-01
-1.023820135742425919e-02
7.301340997219085693e-02
9.609099477529525757e-02
-7.703320682048797607e-02
2.973235957324504852e-02
1.589898020029067993e-01
-5.297372117638587952e-02
2.283637598156929016e-02
-2.342978119850158691e-02
-1.771822106093168259e-03
-8.124540001153945923e-02
-5.850794911384582520e-02
1.323989778757095337e-01
-5.763138644397258759e-03
7.727826386690139771e-02
-1.274566501379013062e-01
2.817237377166748047e-02
2.666377276182174683e-02
4.731807857751846313e-03
1.444523185491561890e-01
1.799272149801254272e-01
6.680828332901000977e-02
-9.076825529336929321e-02
-3.114206250756978989e-03
7.935574650764465332e-02
1.705937236547470093e-01
1.443642675876617432e-01
1.345753818750381470e-01
-5.585386604070663452e-02
-9.192822128534317017e-02
-6.544957309961318970e-02
-1.715012192726135254e-01
-4.661694914102554321e-02
-1.252516955137252808e-01
-9.604419581592082977e-03
9.266129136085510254e-02
7.161533087491989136e-02
-4.436868429183959961e-02
-2.327053621411323547e-02
-8.818686753511428833e-02
1.347399353981018066e-01
-7.253290712833404541e-02
6.804892420768737793e-02
1.729505062103271484e-01
1.938959956169128418e-01
-8.929053694009780884e-02
2.714098617434501648e-02
1.734955310821533203e-01
3.778015449643135071e-02
-2.921224758028984070e-02
-4.349220544099807739e-02
-7.579276710748672485e-02
-2.936445176601409912e-02
6.949622184038162231e-02
-6.173977628350257874e-02
9.227667003870010376e-02
-2.113648690283298492e-02
9.876311570405960083e-02
1.223220825195312500e-01
1.541865617036819458e-02
-5.746865272521972656e-02
4.636713862419128418e-02
-1.017487198114395142e-01
-8.617585897445678711e-02
-1.375241321511566639e-03
-9.954407811164855957e-02
8.533198386430740356e-02
5.912534892559051514e-02
5.490973591804504395e-02
-3.883602470159530640e-02
-1.141102146357297897e-02
3.031442165374755859e-01
-6.405912339687347412e-02
3.449741005897521973e-02
5.918923392891883850e-02
1.470703184604644775e-01
1.388693451881408691e-01
-4.616079851984977722e-02
-9.013376384973526001e-02
1.064940541982650757e-01
2.880079299211502075e-02
-3.095850907266139984e-02
-1.191638316959142685e-02
4.139572381973266602e-03
-1.279511582106351852e-02
-5.286020413041114807e-02
-1.381311118602752686e-01
-3.078968264162540436e-02
2.094229497015476227e-02
9.898459911346435547e-02
-3.629608824849128723e-02
1.230439357459545135e-02
1.929593980312347412e-01
3.299866104498505592e-03
-5.941533669829368591e-02
-6.473514437675476074e-02
-1.035212874412536621e-01
9.690218418836593628e-02
-9.362529218196868896e-02
1.145865395665168762e-01
-1.874788664281368256e-02
-7.379032671451568604e-02
-4.875418916344642639e-02
-6.791013479232788086e-02
1.057640537619590759e-01
4.328100383281707764e-02
-1.961430907249450684e-02
8.335903286933898926e-02
-4.710948839783668518e-02
-8.097630739212036133e-02
1.285545080900192261e-01
-2.471138909459114075e-02
-1.385383903980255127e-01
-1.055138185620307922e-01
-6.753533333539962769e-02
8.228839188814163208e-02
9.369033388793468475e-03
-8.312229067087173462e-02
1.520108059048652649e-02
-1.295268386602401733e-01
-8.625368773937225342e-02
-1.521414704620838165e-02
-1.042587459087371826e-01
-4.505867883563041687e-02
-1.528393328189849854e-01
-4.300700873136520386e-02
5.973370745778083801e-02
-5.018249154090881348e-02
6.962439417839050293e-02
-3.573254495859146118e-02
-6.696589291095733643e-02
3.168367221951484680e-02
-1.446400284767150879e-01
-1.035130172967910767e-01
7.428391277790069580e-02
-1.168477013707160950e-01
1.420141607522964478e-01
2.976748906075954437e-02
2.638945728540420532e-02
-5.916563048958778381e-02
-2.454703114926815033e-02
7.358883321285247803e-02
-9.905954450368881226e-02
8.230397105216979980e-02
4.233677312731742859e-02
-2.788121439516544342e-02
6.099614873528480530e-02
5.917119234800338745e-02
-8.361122757196426392e-02
-3.207958117127418518e-02
8.105158805847167969e-02
-4.000225663185119629e-02
7.545755803585052490e-02
3.177592530846595764e-02
3.313896432518959045e-02
-7.058222591876983643e-02
-3.616541996598243713e-02
1.698299497365951538e-01
-1.757977455854415894e-01
3.436267375946044922e-02
-1.676723659038543701e-01
-1.430771593004465103e-02
-8.839434385299682617e-02
-5.834442377090454102e-02
-5.246602743864059448e-02
-2.544149197638034821e-02
-4.412876814603805542e-02
-9.496948122978210449e-02
1.035645511001348495e-02
-6.713533401489257812e-02
2.613397836685180664e-01
6.683528423309326172e-02
-7.736984640359878540e-02
-4.635283723473548889e-03
6.687164306640625000e-02
6.119028106331825256e-02
3.168759495019912720e-02
1.075819656252861023e-01
-7.915632426738739014e-02
-5.241679958999156952e-03
-5.550056695938110352e-03
2.147041494026780128e-03
-9.961973130702972412e-02
-3.444217145442962646e-02
-4.835594445466995239e-03
-1.017538160085678101e-01
-8.928541839122772217e-02
1.176514942198991776e-02
1.025435775518417358e-01
1.074275076389312744e-01
-8.146334439516067505e-02
-6.213797256350517273e-03
-5.342360585927963257e-02
-6.872384995222091675e-02
-5.290295928716659546e-03
7.349980622529983521e-02
-2.034372836351394653e-02
-2.503411658108234406e-02
-1.530853658914566040e-01
-2.313381992280483246e-02
-1.109794452786445618e-01
8.392897993326187134e-02
-2.614178881049156189e-02
-6.508632563054561615e-03
-4.394505545496940613e-02
-7.204406708478927612e-02
8.567910641431808472e-02
5.443405732512474060e-02
9.969264268875122070e-03
1.673296443186700344e-03
-2.774868533015251160e-02
5.756476521492004395e-02
1.082482412457466125e-01
-6.984155625104904175e-02
9.010478854179382324e-02
4.870631173253059387e-02
-1.310682594776153564e-01
1.806505471467971802e-01
-1.097564622759819031e-01
6.706686317920684814e-02
-4.708704724907875061e-02
4.991799220442771912e-02
2.154505252838134766e-02
-8.483823388814926147e-03
2.695492468774318695e-03
-9.205247461795806885e-02
-4.012906178832054138e-02
-2.347292006015777588e-02
6.635778397321701050e-02
3.209103271365165710e-02
1.826155483722686768e-01
3.341811150312423706e-02
1.216704100370407104e-01
-8.080367743968963623e-02
-2.787687443196773529e-02
-1.226978674530982971e-01
4.186494275927543640e-02
-1.637993194162845612e-02
-9.442159906029701233e-03
4.991636052727699280e-02
-7.360179722309112549e-02
-4.560091346502304077e-02
2.461416833102703094e-02
-1.404803693294525146e-01
2.744678035378456116e-02
1.464014649391174316e-01
-3.216719627380371094e-02
8.874978870153427124e-02
-2.956876996904611588e-04
4.746327176690101624e-02
9.019481949508190155e-03
-4.274578019976615906e-02
3.899090737104415894e-02
1.628392748534679413e-02
3.358644992113113403e-02
-7.799335569143295288e-02
6.968066841363906860e-02
9.544234722852706909e-03
-1.047579851001501083e-02
-9.099944680929183960e-02
-7.722778618335723877e-02
-1.633496582508087158e-01
-3.998701274394989014e-02
-7.549703866243362427e-02
4.379545897245407104e-02
5.145847052335739136e-02
2.023376971483230591e-01
3.440824896097183228e-02
6.742548942565917969e-02
1.579181402921676636e-01
-6.181840784847736359e-03
4.244274273514747620e-02
8.513919264078140259e-02
-1.366690248250961304e-01
-3.795233741402626038e-02
3.198364377021789551e-02
-4.941450059413909912e-02
9.519016742706298828e-02
-9.961733222007751465e-02
-8.086132258176803589e-02
-9.537065029144287109e-02
6.490474939346313477e-02
3.298560529947280884e-02
-1.080246642231941223e-01
-1.625044792890548706e-01
6.366612017154693604e-02
5.644859373569488525e-02
-5.698392912745475769e-02
-1.546428538858890533e-02
4.386757314205169678e-02
1.431766618043184280e-02
4.804475232958793640e-02
-6.206152960658073425e-02
2.733215875923633575e-02
-9.472775273025035858e-03
-1.074825040996074677e-02
-1.604378670454025269e-01
-3.925377503037452698e-02
-1.463383156806230545e-02
1.933457533596083522e-04
-2.566399797797203064e-02
1.411098092794418335e-01
2.085502147674560547e-01
-6.869857013225555420e-02
-1.096986141055822372e-02
-8.144897967576980591e-02
-4.891483113169670105e-02
-8.767666667699813843e-02
6.385398656129837036e-02
-4.600922390818595886e-02
7.482717745006084442e-03
3.544585779309272766e-02
-1.387186348438262939e-01
3.271320462226867676e-02
7.403419166803359985e-02
-2.769802883267402649e-02
2.285736240446567535e-02
2.326382137835025787e-02
-5.257387086749076843e-02
-6.008218973875045776e-02
-7.963975518941879272e-02
6.214194744825363159e-02
2.654877305030822754e-02
-6.034255027770996094e-02
1.037267223000526428e-01
5.198933067731559277e-04
8.978329598903656006e-02
-2.512350492179393768e-02
1.853412687778472900e-01
-2.396455407142639160e-02
1.484632585197687149e-02
3.635351732373237610e-02
-9.027592092752456665e-02
2.955183759331703186e-02
-4.958697035908699036e-02
2.132115140557289124e-02
5.656409077346324921e-03
1.002826988697052002e-01
-3.426508978009223938e-02
5.957379192113876343e-02
3.259582817554473877e-02
1.786539405584335327e-01
2.862945571541786194e-02
-5.650229379534721375e-02
7.430640514940023422e-03
-1.303714327514171600e-02
1.073765903711318970e-01
-4.380958899855613708e-02
-2.327130362391471863e-02
-2.287002652883529663e-02
-1.495520025491714478e-01
-9.013442322611808777e-03
1.632227562367916107e-02
5.295890197157859802e-02
-1.004666537046432495e-01
5.362178385257720947e-02
1.337766498327255249e-01
1.866034045815467834e-02
3.943127393722534180e-02
-9.954490512609481812e-02
6.014282256364822388e-02
-2.162736095488071442e-02
2.979153208434581757e-02
-8.298745751380920410e-02
-4.663919657468795776e-02
-6.495188921689987183e-02
3.829993680119514465e-02
2.874489314854145050e-02
4.579623928293585777e-04
-1.379320621490478516e-01
-1.000027582049369812e-01
-9.727096185088157654e-03
6.020823121070861816e-02
-7.776825875043869019e-02
2.564671263098716736e-02
3.182141855359077454e-02
-7.790918648242950439e-02
1.534014195203781128e-01
-2.924363687634468079e-02
-1.611558496952056885e-01
2.335195243358612061e-01
5.182174965739250183e-02
-1.811753585934638977e-02
-5.771182943135499954e-03
1.527424752712249756e-01
-6.062224041670560837e-03
2.112962119281291962e-02
2.851150557398796082e-02
1.282643619924783707e-02
-3.359926864504814148e-02
-8.250721544027328491e-02
-5.696182139217853546e-03
-3.001674264669418335e-02
-4.850413277745246887e-02
-4.639025405049324036e-02
1.987314410507678986e-02
4.075295850634574890e-02
1.119982637465000153e-02
-3.181402757763862610e-02
7.652321457862854004e-02
4.969215020537376404e-02
-1.969872266054153442e-01
-3.964830338954925537e-01
-5.493112374097108841e-03
6.889662891626358032e-02
1.969415098428726196e-01
1.873633265495300293e-02
-1.159862801432609558e-01
-3.275952860713005066e-02
-3.185695502907037735e-03
5.369100719690322876e-02
8.653578907251358032e-02
-8.797165006399154663e-02
-2.299758605659008026e-02
4.549676924943923950e-02
9.839197993278503418e-02
-1.872393488883972168e-02
2.273652330040931702e-02
1.224721744656562805e-01
-6.443047523498535156e-02
-3.165337815880775452e-02
-6.806355714797973633e-02
-9.655836969614028931e-02
7.275608181953430176e-02
-1.712125837802886963e-01
-4.503888264298439026e-02
1.607686877250671387e-01
-5.000539124011993408e-02
2.269886732101440430e-01
-3.076330944895744324e-02
-6.984845548868179321e-02
-4.496610537171363831e-02
7.906424999237060547e-02
-2.302152961492538452e-01
1.062391996383666992e-01
1.191106811165809631e-02
-7.184582203626632690e-02
-2.318862229585647583e-01
-9.611809998750686646e-02
8.594632893800735474e-02
-4.715691134333610535e-02
-3.503397852182388306e-02
-3.831789642572402954e-02
-2.013794519007205963e-02
-1.090190261602401733e-01
-8.497770875692367554e-02
-7.788286311551928520e-04
1.412235498428344727e-01
-1.135573685169219971e-01
-8.766975998878479004e-02
1.359370201826095581e-01
1.535880416631698608e-01
-5.517281591892242432e-02
8.077715337276458740e-02
-2.404268458485603333e-02
-1.833318360149860382e-02
1.659755781292915344e-02
-1.771592050790786743e-01
-3.876118957996368408e-01
2.560402499511837959e-03
1.105973497033119202e-01
-8.155536651611328125e-02
2.664256654679775238e-02
-8.255342021584510803e-03
5.781834572553634644e-02
-3.496817953418940306e-04
6.123449653387069702e-02
-1.161723770201206207e-02
-1.043830905109643936e-02
-8.018464595079421997e-02
-4.559197463095188141e-03
-8.288950473070144653e-02
-1.331163104623556137e-02
-1.519143283367156982e-01
3.382295370101928711e-02
-1.547467336058616638e-02
1.968989521265029907e-01
1.101117953658103943e-01
7.043418288230895996e-02
1.038850843906402588e-01
8.741102367639541626e-02
1.003478374332189560e-02
-1.061652377247810364e-01
-4.163353517651557922e-02
3.279015421867370605e-02
5.954533070325851440e-02
1.649791896343231201e-01
9.475635015405714512e-04
-1.267234534025192261e-01
-6.362990289926528931e-02
-3.033242002129554749e-02
-1.167658492922782898e-01
6.114067509770393372e-04
1.518367975950241089e-01
-3.585347905755043030e-02
9.647752158343791962e-04
2.291301824152469635e-02
-2.275123726576566696e-03
-3.509087115526199341e-02
-1.656261272728443146e-02
5.589365214109420776e-02
2.240334264934062958e-02
-2.747033536434173584e-01
1.117709428071975708e-01
1.004112586379051208e-01
-6.040268018841743469e-02
5.691741779446601868e-02
-1.011489052325487137e-02
3.011229261755943298e-02
-5.100015178322792053e-02
5.186846479773521423e-02
1.909962892532348633e-01
-3.019535914063453674e-02
-2.372298203408718109e-02
1.009972393512725830e-01
-2.336481958627700806e-02
2.709494158625602722e-02
-2.749883942306041718e-02
4.560734704136848450e-02
-3.253903985023498535e-02
9.760335832834243774e-02
6.199739128351211548e-02
-5.294018983840942383e-02
5.815710127353668213e-02
-5.443408340215682983e-02
-4.454478621482849121e-02
2.897346578538417816e-02
8.386757224798202515e-03
3.351068869233131409e-02
-4.965962097048759460e-02
1.184943467378616333e-01
2.082254886627197266e-01
7.965712994337081909e-02
8.377586305141448975e-02
-4.030458629131317139e-02
-2.122483551502227783e-01
2.987436763942241669e-02
4.311606660485267639e-02
7.094873581081628799e-03
-1.166447997093200684e-02
1.552815828472375870e-02
7.133067399263381958e-02
1.551117300987243652e-01
5.188038572669029236e-03
1.941045187413692474e-02
3.714100271463394165e-02
8.282399922609329224e-02
-2.700822893530130386e-03
3.812683373689651489e-02
1.088100820779800415e-01
-1.173244416713714600e-01
4.086667671799659729e-02
-3.429386019706726074e-02
-2.489997074007987976e-02
5.405377596616744995e-02
-4.648801311850547791e-02
5.432092025876045227e-02
4.538559820502996445e-03
6.190432235598564148e-02
8.493363112211227417e-02
1.579437404870986938e-02
-3.849144652485847473e-02
7.217851281166076660e-02
-9.207126684486865997e-03
-1.047628745436668396e-01
3.568631410598754883e-02
-2.071494013071060181e-01
7.635292410850524902e-02
6.250585429370403290e-03
4.238839447498321533e-02
1.840288639068603516e-01
-9.577403962612152100e-02
2.827256917953491211e-02
2.053514122962951660e-02
1.964846253395080566e-02
1.669870615005493164e-01
-1.337963193655014038e-01
-5.060386285185813904e-02
-1.644177138805389404e-01
-3.237441182136535645e-02
9.967178106307983398e-02
2.234494313597679138e-02
5.421798303723335266e-02
-1.732902675867080688e-01
-6.301143206655979156e-03
-4.471978917717933655e-02
-9.486208111047744751e-02
7.318957149982452393e-02
9.155226498842239380e-02
-2.147920057177543640e-02
-7.523951679468154907e-02
2.004081197082996368e-02
1.437523812055587769e-01
9.002250432968139648e-02
6.368976086378097534e-02
-1.237098723649978638e-01
-6.607194244861602783e-02
6.015804782509803772e-02
2.638252377510070801e-01
1.903844624757766724e-01
4.499046504497528076e-02
1.148307397961616516e-01
-8.523988537490367889e-03
5.778210237622261047e-02
-4.833227023482322693e-02
-1.561941485852003098e-02
9.678816795349121094e-02
8.758737891912460327e-02
-8.035988360643386841e-02
6.124604493379592896e-02
-7.061251997947692871e-02
-6.992724537849426270e-02
-2.087265253067016602e-03
-8.911789208650588989e-02
1.959076616913080215e-03
-9.437184035778045654e-02
-1.267696768045425415e-01
7.335990667343139648e-03
-3.368013771250844002e-03
2.014508703723549843e-03
6.203973665833473206e-02
2.940828725695610046e-02
1.864303797483444214e-01
1.309118717908859253e-01
-1.356195211410522461e-01
-5.127750709652900696e-02
-5.649863183498382568e-02
-9.680391103029251099e-02
3.371864731889218092e-04
-5.835779011249542236e-02
8.635337464511394501e-03
6.994175910949707031e-02
7.147242873907089233e-02
1.218150183558464050e-01
-1.919840648770332336e-02
1.110577806830406189e-01
-5.084583908319473267e-02
-1.999540254473686218e-02
6.836370378732681274e-02
-2.275896631181240082e-02
4.600208997726440430e-02
-6.352549046277999878e-02
-2.115617543458938599e-01
1.033677384257316589e-01
-3.854331374168395996e-02
8.356323093175888062e-02
9.692478924989700317e-02
3.697033971548080444e-02
-1.603706553578376770e-02
1.704788058996200562e-01
1.650454290211200714e-02
-1.339868605136871338e-01
-1.400845050811767578e-01
-8.789061754941940308e-02
1.007700264453887939e-01
-1.175821349024772644e-01
8.292357437312602997e-03
-1.803741157054901123e-01
1.854362934827804565e-01
5.976209416985511780e-02
-1.275268103927373886e-02
-5.945448204874992371e-02
1.928066276013851166e-02
8.690311014652252197e-02
-9.619560092687606812e-02
1.336103677749633789e-01
1.431716531515121460e-01
3.494651988148689270e-02
1.219465807080268860e-01
-2.359337918460369110e-02
2.071224385872483253e-03
-2.237425360362976789e-04
4.236785694956779480e-03
-6.970613449811935425e-02
-6.871074438095092773e-02
4.613539576530456543e-02
4.799929633736610413e-02
8.783316006883978844e-04
1.574475020170211792e-01
-3.983859904110431671e-03
1.371514610946178436e-02
3.946401923894882202e-02
1.532597690820693970e-01
7.423388957977294922e-02
1.836377382278442383e-02
-4.696664400398731232e-03
6.602808833122253418e-02
3.052188083529472351e-02
2.963822707533836365e-02
-6.200274825096130371e-02
2.919470332562923431e-02
8.949939161539077759e-02
-1.392797380685806274e-01
-7.979145646095275879e-02
5.723309516906738281e-02
5.945475026965141296e-02
6.408875342458486557e-03
-2.166456356644630432e-02
9.262702614068984985e-02
7.705589383840560913e-02
1.248158887028694153e-01
5.800524726510047913e-02
-1.028146669268608093e-01
-1.276367008686065674e-01
-5.474618077278137207e-02
-1.161508411169052124e-01
-6.837552040815353394e-02
-1.144972071051597595e-01
9.784655272960662842e-02
1.221057474613189697e-01
-1.272626966238021851e-01
3.321944177150726318e-02
-4.471506923437118530e-02
5.648965016007423401e-03
1.128797139972448349e-02
-5.735894292593002319e-02
-1.278574317693710327e-01
2.199176466092467308e-03
-4.479451104998588562e-02
7.259520143270492554e-02
7.253535091876983643e-02
-4.801583662629127502e-02
-9.921303391456604004e-02
-8.296582102775573730e-02
-1.668315753340721130e-02
8.398010581731796265e-02
-9.219087660312652588e-02
-1.219808235764503479e-01
-3.833025693893432617e-02
6.148223951458930969e-02
6.156278029084205627e-02
1.221907977014780045e-02
6.195957213640213013e-02
8.653314411640167236e-02
8.731501549482345581e-02
-3.198976442217826843e-02
-2.327648922801017761e-02
3.378378599882125854e-02
-6.626445800065994263e-02
-9.312984347343444824e-02
1.090221852064132690e-02
8.290073275566101074e-02
8.786981552839279175e-02
-6.830114871263504028e-02
-3.098677610978484154e-03
-3.962946310639381409e-02
-3.238055109977722168e-02
-1.456313282251358032e-01
-2.109031006693840027e-02
1.795782148838043213e-02
9.006635285913944244e-03
-6.968110334128141403e-03
1.913018971681594849e-01
-6.876204907894134521e-02
4.836113750934600830e-02
-5.619796738028526306e-02
-2.294540405273437500e-02
2.802415192127227783e-02
1.808834820985794067e-02
-7.466326653957366943e-02
2.493754401803016663e-02
1.080999616533517838e-02
-6.794576346874237061e-02
-3.347832709550857544e-02
1.815087744034826756e-03
5.337781831622123718e-02
-5.834399163722991943e-02
-2.842754125595092773e-02
-1.357295066118240356e-01
-4.356464836746454239e-03
7.155380398035049438e-02
9.540376812219619751e-02
9.545014798641204834e-02
-2.029352188110351562e-01
-3.916222602128982544e-02
5.210333317518234253e-02
3.312771907076239586e-03
6.765670608729124069e-03
-1.710999459028244019e-01
2.477194881066679955e-03
-1.072358712553977966e-01
-9.073945134878158569e-02
-5.892678350210189819e-02
-1.893608644604682922e-02
2.463839575648307800e-02
1.162178814411163330e-02
-4.951712861657142639e-02
-1.275879293680191040e-01
-2.442270144820213318e-02
5.800524353981018066e-02
-1.169849410653114319e-01
1.030904948711395264e-01
2.379025369882583618e-01
-2.870153822004795074e-02
-1.479244977235794067e-02
-7.762431353330612183e-02
-1.668326109647750854e-01
-1.586441248655319214e-01
3.783223778009414673e-02
-9.602268785238265991e-02
-6.093419715762138367e-02
2.485317736864089966e-02
6.510987132787704468e-02
8.510123193264007568e-02
1.009909659624099731e-01
9.510023146867752075e-02
-2.136340886354446411e-01
6.840059906244277954e-02
-5.234143137931823730e-02
-2.463405020534992218e-02
-7.225951552391052246e-02
4.318811371922492981e-02
1.495556719601154327e-02
-9.390413761138916016e-02
-9.702328592538833618e-02
-6.594443693757057190e-03
-2.012784779071807861e-02
-5.963072553277015686e-02
1.536153163760900497e-02
-2.065000087022781372e-01
-9.619469195604324341e-02
1.250413656234741211e-01
-2.360986918210983276e-02
1.269661337137222290e-01
1.302505433559417725e-01
7.107891142368316650e-02
-3.269157931208610535e-02
9.458497166633605957e-02
4.528851434588432312e-02
-1.329414248466491699e-01
2.468760609626770020e-01
6.225793063640594482e-02
-8.256499469280242920e-02
1.499490141868591309e-01
-2.824745140969753265e-02
-1.513274665921926498e-02
-7.888612151145935059e-02
2.003216184675693512e-03
2.488290965557098389e-01
7.691087573766708374e-02
-3.345818817615509033e-02
-1.735466346144676208e-02
-5.393953993916511536e-02
-2.868220582604408264e-02
3.088036924600601196e-02
1.061515808105468750e-01
8.114509284496307373e-02
2.261422760784626007e-02
-7.525002956390380859e-02
-7.113774865865707397e-02
-3.287633880972862244e-02
3.121755085885524750e-02
-1.163518149405717850e-02
-6.824604421854019165e-02
1.302520558238029480e-02
3.761648759245872498e-02
8.339530974626541138e-02
1.839654594659805298e-01
1.115495190024375916e-01
-7.667076587677001953e-02
-1.689656754024326801e-03
5.537894740700721741e-02
-8.332095295190811157e-02
-4.698386043310165405e-02
-5.143873766064643860e-02
2.265631407499313354e-01
1.024297848343849182e-01
1.493677124381065369e-02
-1.156633645296096802e-01
-4.658389091491699219e-02
1.106145009398460388e-01
7.691091299057006836e-02
6.851577758789062500e-02
-5.330909416079521179e-02
9.241298586130142212e-02
4.892127588391304016e-02
1.044087260961532593e-01
-5.925817042589187622e-02
1.831321418285369873e-02
3.308251500129699707e-02
-3.196439892053604126e-02
-1.032482162117958069e-01
1.032948717474937439e-01
5.120217800140380859e-02
-6.152624264359474182e-03
-3.969153761863708496e-02
7.845460623502731323e-02
4.872104525566101074e-02
-7.837119698524475098e-02
-1.381675750017166138e-01
-2.039324119687080383e-02
1.217475906014442444e-01
1.066135317087173462e-01
1.580223254859447479e-02
8.427111059427261353e-02
-5.139334127306938171e-02
-4.308951273560523987e-02
1.069876477122306824e-01
-1.010445058345794678e-01
-2.743664570152759552e-02
7.886117696762084961e-02
-6.061962991952896118e-02
-3.020055126398801804e-03
1.038435399532318115e-01
1.547665894031524658e-01
-1.177300736308097839e-01
-1.124151498079299927e-01
-1.019687578082084656e-02
-7.534478604793548584e-02
-7.213679142296314240e-03
-1.896718167699873447e-03
1.138536185026168823e-01
-8.288584649562835693e-02
-1.935595273971557617e-01
-2.144172191619873047e-01
5.188874900341033936e-02
-4.551400244235992432e-02
2.817445695400238037e-01
-1.139171645045280457e-01
1.174267567694187164e-02
1.006848141551017761e-01
-3.743554465472698212e-03
1.179986447095870972e-01
5.968292802572250366e-02
1.094075366854667664e-01
7.763790339231491089e-02
-8.221815526485443115e-02
4.934256151318550110e-02
-1.454274207353591919e-01
-3.287032619118690491e-02
5.821491777896881104e-02
-4.962295293807983398e-02
-3.654886037111282349e-02
7.798865437507629395e-02
7.515826076269149780e-02
-1.285524219274520874e-01
-7.113467901945114136e-02
-5.194811150431632996e-02
-1.643334180116653442e-01
-3.574287891387939453e-02
1.449033468961715698e-01
3.404563665390014648e-02
-8.135465532541275024e-02
-1.467654854059219360e-01
9.755607694387435913e-02
-4.612075909972190857e-02
7.431768625974655151e-02
-9.202136844396591187e-02
1.276265271008014679e-02
1.429363042116165161e-01
2.803312800824642181e-02
-8.475513756275177002e-02
-3.466624766588211060e-02
2.274135313928127289e-02
-2.379670366644859314e-02
-2.412967942655086517e-02
1.095706224441528320e-01
-9.005455672740936279e-02
5.161788780242204666e-03
-4.908526781946420670e-03
1.063748747110366821e-01
-1.129291672259569168e-02
-7.317514624446630478e-03
-2.563301622867584229e-01
-1.410165727138519287e-01
7.077281177043914795e-02
-2.122780866920948029e-02
7.466757297515869141e-02
1.646868586540222168e-01
1.868716925382614136e-01
1.281359582208096981e-03
1.609046161174774170e-01
-1.805305108428001404e-02
2.480028429999947548e-03
8.061059750616550446e-03
-1.568969786167144775e-01
-3.359981998801231384e-02
8.134172111749649048e-02
-1.985527388751506805e-02
7.501734793186187744e-02
1.197412386536598206e-01
1.020083427429199219e-01
3.325393423438072205e-03
4.106533527374267578e-02
4.767711088061332703e-02
-1.449801027774810791e-02
2.280974527820944786e-03
-2.833846211433410645e-02
2.670987509191036224e-02
-1.564930565655231476e-02
-7.598870247602462769e-02
-2.980688028037548065e-02
-2.641772106289863586e-02
9.824819117784500122e-02
1.059147417545318604e-01
-1.714760065078735352e-02
-7.872495800256729126e-02
-2.168851196765899658e-01
-1.347004771232604980e-01
5.884848535060882568e-02
7.792881876230239868e-02
-2.146098949015140533e-02
1.074401885271072388e-01
-1.365993320941925049e-01
-2.358050458133220673e-02
-5.366870760917663574e-02
4.714918881654739380e-02
-1.874517649412155151e-02
1.841908134520053864e-02
-3.526664897799491882e-02
-3.383564203977584839e-02
-9.935406269505620003e-04
1.088303774595260620e-01
3.555107163265347481e-03
-7.302530109882354736e-02
-1.437920331954956055e-01
-4.900157824158668518e-02
6.359645724296569824e-02
3.692794591188430786e-02
-1.061614379286766052e-01
1.053291708230972290e-01
-7.616453617811203003e-02
1.408867090940475464e-01
7.415647804737091064e-02
1.250890940427780151e-01
6.610916554927825928e-02
1.321300864219665527e-02
-1.500892639160156250e-01
-2.239912375807762146e-02
5.548655614256858826e-02
-3.130814805626869202e-02
-6.696391105651855469e-02
6.922674365341663361e-03
-1.009416952729225159e-01
-5.688984692096710205e-02
9.119553864002227783e-02
-7.820078730583190918e-02
6.923367828130722046e-02
2.385745197534561157e-02
-2.356003038585186005e-02
-4.011314734816551208e-02
-3.032144531607627869e-02
4.524393752217292786e-02
4.477351903915405273e-02
1.592398881912231445e-01
-2.925717458128929138e-02
-1.237902715802192688e-01
6.638970226049423218e-02
-7.725667953491210938e-02
8.776793628931045532e-02
1.713276840746402740e-02
4.326932132244110107e-03
7.044451683759689331e-02
-3.854563832283020020e-02
-8.651638776063919067e-02
7.955835200846195221e-03
-3.150844201445579529e-02
-1.269640922546386719e-01
-6.094637885689735413e-02
8.959542959928512573e-03
-8.504414930939674377e-03
-4.294093325734138489e-02
2.031522393226623535e-01
-3.700384497642517090e-02
1.417433749884366989e-02
7.658849656581878662e-02
-5.234305933117866516e-02
5.453070253133773804e-02
5.791986361145973206e-02
5.379465967416763306e-02
-1.518354937434196472e-02
1.716662645339965820e-01
4.041955992579460144e-02
1.402088999748229980e-01
-4.898981750011444092e-02
-1.268629133701324463e-01
7.742545567452907562e-03
9.035263955593109131e-02
1.210207641124725342e-01
8.388586342334747314e-02
-7.796543091535568237e-02
4.148253798484802246e-02
-3.470501303672790527e-01
1.191938742995262146e-01
5.157238990068435669e-02
7.727656513452529907e-02
-5.398706346750259399e-02
-8.780384808778762817e-02
1.654399484395980835e-01
-4.633111134171485901e-02
3.277557343244552612e-02
7.816743105649948120e-02
-4.400854185223579407e-02
9.439621120691299438e-02
-1.320146322250366211e-01
-2.896453738212585449e-01
1.229798719286918640e-01
1.310094376094639301e-03
8.834715187549591064e-02
6.862692534923553467e-02
-1.697482541203498840e-02
-1.015597395598888397e-02
-4.802894219756126404e-02
7.171659963205456734e-04
1.109057888388633728e-01
-7.163942605257034302e-02
1.507443487644195557e-01
-4.540859535336494446e-02
-1.236639637500047684e-02
-9.064789861440658569e-02
-6.142741814255714417e-02
-8.286605775356292725e-02
1.129060797393321991e-02
8.804757148027420044e-02
5.842050537467002869e-02
-4.380620550364255905e-03
1.001859679818153381e-01
2.899421937763690948e-02
-4.377436265349388123e-02
1.300757378339767456e-01
-1.615646183490753174e-01
-2.481465600430965424e-02
8.030121028423309326e-02
-1.085653677582740784e-01
1.889129355549812317e-02
9.430745244026184082e-02
-6.232444569468498230e-02
-8.706359565258026123e-02
1.213791146874427795e-01
-1.850917190313339233e-01
9.038636088371276855e-02
-7.865441963076591492e-03
-2.470206096768379211e-02
2.231126278638839722e-02
4.116969183087348938e-02
-6.189518049359321594e-02
5.474409833550453186e-02
7.411167025566101074e-02
-1.525643318891525269e-01
-6.034646648913621902e-03
2.118278789566829801e-04
-2.380436658859252930e-02
2.105055376887321472e-02
8.079127222299575806e-02
-1.199400722980499268e-01
1.030755490064620972e-01
9.313552826642990112e-02
1.197289861738681793e-02
-5.775041878223419189e-03
-2.931188605725765228e-02
9.119752049446105957e-02
5.449355766177177429e-02
-5.708080250769853592e-03
4.133735224604606628e-02
-1.129624247550964355e-01
-5.038682371377944946e-02
1.256540864706039429e-01
1.418496109545230865e-02
-4.616182669997215271e-02
-8.555230498313903809e-02
-3.518262133002281189e-02
-2.204790562391281128e-01
-1.170997619628906250e-01
8.137945085763931274e-02
-5.441630259156227112e-03
2.402218990027904510e-02
1.085390374064445496e-01
1.192063912749290466e-01
-8.703800849616527557e-03
-1.761783286929130554e-02
2.110377140343189240e-02
2.129965275526046753e-01
-3.925691545009613037e-02
9.879016876220703125e-02
-1.738478429615497589e-02
3.073862753808498383e-02
8.410944789648056030e-02
-5.644860491156578064e-02
8.307372033596038818e-02
-3.761555626988410950e-02
2.071254104375839233e-01
5.426838994026184082e-02
-1.440113484859466553e-01
-1.135216429829597473e-01
-8.070900291204452515e-02
-7.855191826820373535e-02
-1.000845991075038910e-02
1.302600651979446411e-01
-3.041394241154193878e-02
-1.036921590566635132e-01
-5.617384985089302063e-02
1.286803483963012695e-01
-1.951534487307071686e-02
-3.004156649112701416e-01
2.480926066637039185e-01
8.616510778665542603e-02
-2.135055139660835266e-02
-1.058143302798271179e-01
-1.834795624017715454e-02
1.512483507394790649e-01
-6.924969702959060669e-02
5.172283574938774109e-02
2.868333086371421814e-02
8.150763064622879028e-02
-5.874709412455558777e-02
8.489817380905151367e-02
-6.908452510833740234e-02
4.498692601919174194e-02
3.638977184891700745e-02
-2.112974040210247040e-02
-5.793985351920127869e-02
-9.954852610826492310e-02
-1.571293920278549194e-01
3.970428183674812317e-02
-1.841771975159645081e-02
1.946056960150599480e-03
1.623277924954891205e-02
8.793657273054122925e-02
1.355862896889448166e-02
5.677254870533943176e-02
-9.824368357658386230e-02
-6.220109760761260986e-02
-1.536955833435058594e-01
1.160324737429618835e-01
-6.865459680557250977e-02
-7.103090733289718628e-02
2.327412553131580353e-02
-1.544829159975051880e-01
-1.197323948144912720e-02
-1.532340198755264282e-01
6.494421511888504028e-02
-1.884071901440620422e-02
9.657546877861022949e-02
4.591298848390579224e-02
6.850808113813400269e-02
-2.197196707129478455e-02
6.423319876194000244e-02
-1.006073206663131714e-01
1.517100818455219269e-02
6.323240697383880615e-02
3.969201073050498962e-02
1.020580902695655823e-01
-3.129657730460166931e-02
-1.203756704926490784e-01
-5.062224343419075012e-02
-2.540439367294311523e-02
-2.144749909639358521e-01
-8.248373866081237793e-02
-1.018318533897399902e-01
4.491558298468589783e-02
9.999248385429382324e-02
-6.753303855657577515e-02
-6.913611432537436485e-04
-6.036760285496711731e-02
-6.413371860980987549e-02
1.674592792987823486e-01
1.566445268690586090e-02
-9.768851846456527710e-02
-5.118441767990589142e-03
3.650341182947158813e-02
-1.024054596200585365e-03
-6.084982305765151978e-02
-1.892842352390289307e-02
5.772355571389198303e-02
-1.446373015642166138e-02
-5.355862155556678772e-02
2.462833188474178314e-03
1.735758483409881592e-01
2.826791815459728241e-02
7.839497923851013184e-02
-1.890212893486022949e-01
-1.245778352022171021e-01
1.915760524570941925e-02
-6.053040549159049988e-02
-7.474354654550552368e-02
-8.730919100344181061e-03
-3.095601871609687805e-02
-7.075568288564682007e-02
-1.347312889993190765e-02
-1.628923416137695312e-02
3.892900049686431885e-02
-1.263166405260562897e-02
-9.067945182323455811e-02
9.314354509115219116e-02
-1.851779520511627197e-01
-1.312612146139144897e-01
-1.231999918818473816e-01
-1.123124063014984131e-01
1.491263955831527710e-01
-1.237351149320602417e-01
-6.435608863830566406e-02
1.144318133592605591e-01
2.686607241630554199e-01
-5.851159244775772095e-02
9.924974292516708374e-02
-6.968157365918159485e-03
1.612755954265594482e-01
-3.204486519098281860e-02
3.967886790633201599e-02
1.460550278425216675e-01
-1.236615553498268127e-01
7.376099377870559692e-02
-6.828027963638305664e-02
-6.788343191146850586e-02
3.437187895178794861e-02
4.558706656098365784e-02
4.454741999506950378e-02
4.730110615491867065e-02
1.059928834438323975e-01
-4.441696777939796448e-02
3.098493069410324097e-02
-1.130391210317611694e-01
1.802001893520355225e-02
-1.970238834619522095e-01
2.931411005556583405e-02
7.592070847749710083e-02
4.219513852149248123e-03
5.184385809116065502e-04
-1.859534159302711487e-02
1.211068243719637394e-03
-4.637255519628524780e-02
1.096448302268981934e-01
-2.971418015658855438e-02
5.207654088735580444e-02
1.241318956017494202e-01
8.716282993555068970e-02
-1.666102111339569092e-01
-5.660589784383773804e-02
2.180883474647998810e-02
6.455778330564498901e-02
-2.450400590896606445e-02
-2.166921794414520264e-01
-1.268001049757003784e-01
5.454866588115692139e-02
1.350653618574142456e-01
-1.638199537992477417e-01
-1.889244616031646729e-01
-7.372557371854782104e-02
1.381483208388090134e-02
-1.567583158612251282e-02
-1.681629754602909088e-02
1.426072865724563599e-01
-9.898582845926284790e-02
4.359519854187965393e-02
-7.750678807497024536e-02
-6.257608532905578613e-02
-9.590345621109008789e-02
-1.122624129056930542e-01
1.577279902994632721e-02
-6.168220192193984985e-02
2.502129673957824707e-01
4.806983470916748047e-02
2.430956251919269562e-02
3.459007292985916138e-02
-5.457258224487304688e-02
8.032204955816268921e-02
2.938398718833923340e-02
3.918869793415069580e-02
1.805521994829177856e-01
2.287732958793640137e-01
-7.014226913452148438e-02
1.466318368911743164e-01
-1.852507516741752625e-02
-2.008855640888214111e-01
-9.282623231410980225e-02
-8.531067520380020142e-02
5.812694132328033447e-02
5.929287150502204895e-02
3.593698516488075256e-02
-9.518261998891830444e-02
8.456823998130857944e-04
-1.310870889574289322e-02
-1.276725679636001587e-01
1.636250913143157959e-01
-5.675020068883895874e-02
-8.276040852069854736e-02
-8.863417804241180420e-02
1.100155338644981384e-01
1.325570940971374512e-01
-2.391481027007102966e-02
6.651879847049713135e-02
-9.888776391744613647e-02
-2.219759821891784668e-01
-9.496974945068359375e-02
2.159707713872194290e-03
1.764699816703796387e-01
1.463488638401031494e-01
-5.241234600543975830e-02
1.164659392088651657e-02
8.415604941546916962e-03
5.997027084231376648e-02
-8.273313939571380615e-02
7.536584883928298950e-02
-7.948227971792221069e-02
-3.050503134727478027e-02
5.769795551896095276e-02
1.575802825391292572e-02
-5.795371904969215393e-02
1.462079025804996490e-02
-4.773996397852897644e-02
3.111899830400943756e-02
1.870596408843994141e-01
1.605695039033889771e-01
-2.671311497688293457e-01
1.078558503650128841e-03
1.820984994992613792e-03
4.138246551156044006e-02
-5.024529993534088135e-02
1.728520244359970093e-01
3.697006031870841980e-02
-3.643521293997764587e-02
-2.992659620940685272e-02
-7.439489709213376045e-04
8.713914081454277039e-03
5.140707828104496002e-03
1.502424292266368866e-02
7.428305596113204956e-02
-2.525484375655651093e-02
-2.960093133151531219e-02
-5.376998707652091980e-02
-1.376723591238260269e-02
-1.770110428333282471e-01
1.029113605618476868e-01
1.193608492612838745e-01
-1.848795264959335327e-02
1.218711212277412415e-01
3.113365173339843750e-01
4.781353101134300232e-02
-6.397417187690734863e-02
-7.115247845649719238e-02
-1.436659507453441620e-02
3.621726855635643005e-02
-6.044999510049819946e-02
-1.241814494132995605e-01
4.446868225932121277e-02
8.676968514919281006e-03
-5.702219903469085693e-02
9.094574302434921265e-02
-5.207125470042228699e-02
4.908789880573749542e-03
1.164816692471504211e-02
7.111896574497222900e-02
5.150879546999931335e-02
3.634896129369735718e-02
6.939937174320220947e-02
2.975515834987163544e-02
1.577322036027908325e-01
3.215184435248374939e-02
8.187375962734222412e-02
1.433494091033935547e-01
2.843858115375041962e-02
8.473087102174758911e-02
-5.774369835853576660e-02
-6.394573301076889038e-02
1.386762014590203762e-03
6.119470298290252686e-02
-5.804643407464027405e-02
1.797775775194168091e-01
-2.521325275301933289e-02
-1.875884016044437885e-03
3.311789780855178833e-02
-2.614428400993347168e-01
-6.155746430158615112e-02
6.157805211842060089e-03
1.865143030881881714e-01
-1.907240785658359528e-02
-3.052562102675437927e-02
-3.001742996275424957e-03
-1.447121240198612213e-02
9.541049599647521973e-02
1.135393679141998291e-01
4.424564540386199951e-02
-1.039857864379882812e-01
2.843718603253364563e-02
9.950799494981765747e-02
-6.607028841972351074e-02
-1.047356948256492615e-01
-8.474757522344589233e-02
7.590093463659286499e-02
5.196289159357547760e-03
1.029602661728858948e-01
1.185847818851470947e-02
7.541415095329284668e-02
1.067363992333412170e-01
-5.318986624479293823e-02
-3.964009508490562439e-02
9.262884408235549927e-02
-8.809682726860046387e-02
5.814446508884429932e-02
-2.207023091614246368e-02
1.343504786491394043e-01
9.088219702243804932e-02
2.483531087636947632e-02
3.829208388924598694e-02
1.358212679624557495e-01
9.926220774650573730e-02
-1.468638628721237183e-01
5.360975489020347595e-02
-1.566467992961406708e-02
3.276775032281875610e-02
-1.643742434680461884e-02
-5.624393373727798462e-02
-5.558662861585617065e-02
-7.643800973892211914e-02
-2.744704019278287888e-03
-1.803672313690185547e-02
1.716932468116283417e-02
-3.471463918685913086e-02
9.592174901627004147e-04
7.050164788961410522e-02
-7.919576019048690796e-03
-1.736180670559406281e-02
-8.509469777345657349e-02
-3.499321267008781433e-02
2.385113621130585670e-03
1.852026209235191345e-02
-3.886890038847923279e-02
-2.715718187391757965e-02
2.616615593433380127e-02
6.906104832887649536e-02
-4.651345312595367432e-02
4.334867373108863831e-02
-2.088078111410140991e-01
-3.080032765865325928e-02
4.170494899153709412e-02
-8.228704333305358887e-03
-4.678662493824958801e-02
-3.331663832068443298e-02
7.366973906755447388e-03
-5.233157053589820862e-02
5.503581464290618896e-02
-7.969060540199279785e-02
4.457318037748336792e-02
-1.966356337070465088e-01
4.494782909750938416e-02
-2.514612376689910889e-01
9.624806232750415802e-03
-4.244992136955261230e-02
-1.443571895360946655e-01
-1.011518761515617371e-01
9.181558154523372650e-03
-1.346619427204132080e-01
2.779274014756083488e-03
9.706847369670867920e-02
2.818898297846317291e-03
-2.872854005545377731e-03
-6.251315772533416748e-02
-1.785565540194511414e-02
-4.346458986401557922e-02
-4.584299400448799133e-02
3.298389911651611328e-02
3.239249065518379211e-02
1.623377762734889984e-02
4.356316849589347839e-02
-5.085600167512893677e-02
-1.101188957691192627e-01
-2.142071276903152466e-01
4.101699218153953552e-03
4.834627732634544373e-02
-6.293502449989318848e-02
-4.557494446635246277e-02
-1.367518603801727295e-01
-7.199617475271224976e-02
-1.648763939738273621e-02
-1.784481853246688843e-01
6.049341335892677307e-02
1.321980059146881104e-01
1.161857992410659790e-01
2.869376167654991150e-02
5.180869996547698975e-02
5.510311573743820190e-02
8.846107870340347290e-03
-1.254400797188282013e-02
5.408030003309249878e-02
-2.120448276400566101e-02
-1.059747189283370972e-01
4.326020926237106323e-02
2.970319613814353943e-02
8.817087858915328979e-02
6.955567281693220139e-03
9.581974893808364868e-02
1.111827194690704346e-01
3.524487465620040894e-02
3.169070556759834290e-02
5.507182329893112183e-02
-9.007719904184341431e-02
-3.111465647816658020e-02
-3.370201215147972107e-02
-7.358116563409566879e-03
4.129888489842414856e-02
-1.377382036298513412e-02
-6.039432808756828308e-02
3.661017864942550659e-02
9.966364130377769470e-03
-1.117128953337669373e-01
1.200581341981887817e-02
-2.947680279612541199e-02
-3.379934281110763550e-02
-1.298074722290039062e-01
6.860624533146619797e-03
5.656332150101661682e-02
-1.702791638672351837e-02
-9.925420582294464111e-02
2.763109281659126282e-02
3.423597291111946106e-02
-1.031245961785316467e-01
1.322561353445053101e-01
9.311145544052124023e-02
-3.077441081404685974e-02
1.257792264223098755e-01
-2.146771699190139771e-01
9.080818295478820801e-02
-4.189092293381690979e-02
-5.420853942632675171e-02
1.241114214062690735e-01
-3.368020290508866310e-03
2.973148413002490997e-02
-7.190582901239395142e-02
-7.447211444377899170e-02
-7.951679825782775879e-02
-1.091073006391525269e-01
4.388216510415077209e-02
4.505366086959838867e-02
-1.716588288545608521e-01
-3.998843953013420105e-03
5.094512924551963806e-02
1.469409167766571045e-01
-5.894873291254043579e-02
8.485098369419574738e-03
-3.240496618673205376e-03
9.837066382169723511e-02
-1.714150421321392059e-02
4.959905892610549927e-02
-3.915165551006793976e-03
-5.906660482287406921e-02
-6.948024779558181763e-02
-2.002092078328132629e-02
6.316147744655609131e-02
-1.607423648238182068e-02
-8.183868229389190674e-02
-8.521812409162521362e-02
-3.119289502501487732e-02
-3.141998872160911560e-02
-1.198934763669967651e-01
-6.238663569092750549e-02
-6.455220282077789307e-02
1.653680950403213501e-02
2.049855142831802368e-02
1.543129831552505493e-01
-8.965119719505310059e-02
-1.178700998425483704e-01
6.289689242839813232e-02
2.080231904983520508e-02
1.125548928976058960e-01
-3.844533115625381470e-02
5.352400243282318115e-02
-5.087943375110626221e-02
7.286442816257476807e-02
-8.001705259084701538e-02
-5.774167180061340332e-02
2.268915027379989624e-01
1.201619487255811691e-02
-5.236788839101791382e-02
7.878661155700683594e-02
-2.451402544975280762e-01
-3.941631689667701721e-02
6.942949444055557251e-02
-2.188336290419101715e-02
-9.309154003858566284e-02
-2.079215347766876221e-01
3.096633777022361755e-02
3.767553716897964478e-02
9.146180748939514160e-02
-9.463595226407051086e-03
-3.192317113280296326e-02
6.920961197465658188e-03
-7.760602235794067383e-02
-7.415642589330673218e-02
-2.660302817821502686e-01
-6.456393748521804810e-03
6.569994986057281494e-02
-9.720861911773681641e-03
-5.067658424377441406e-02
-4.679159447550773621e-02
-8.904526382684707642e-02
7.534299045801162720e-02
-5.794310197234153748e-02
-1.163344010710716248e-01
3.665880486369132996e-02
-1.541234254837036133e-01
1.992118358612060547e-02
1.899150572717189789e-02
2.711135707795619965e-02
-8.974487334489822388e-02
-3.285719826817512512e-02
1.118242144584655762e-01
2.291784249246120453e-02
-5.006145685911178589e-02
3.082431107759475708e-02
1.568539887666702271e-01
2.797425352036952972e-02
7.515035569667816162e-02
-8.911097049713134766e-02
7.468418031930923462e-02
-5.573938135057687759e-03
6.448091566562652588e-02
4.174150992184877396e-03
7.765959203243255615e-02
-4.153397306799888611e-02
-5.308300256729125977e-02
2.308655343949794769e-02
-5.489322543144226074e-02
1.908473484218120575e-02
-1.380709111690521240e-01
2.027393504977226257e-02
-5.598788335919380188e-02
-6.332655996084213257e-02
-8.842310309410095215e-02
7.490334659814834595e-02
2.431128025054931641e-01
-7.214239984750747681e-02
5.853542685508728027e-02
-2.004692796617746353e-03
5.092422943562269211e-03
5.110732465982437134e-02
3.151434240862727165e-03
6.999765988439321518e-03
-3.887747647240757942e-03
-6.649085320532321930e-03
1.047340556979179382e-01
-6.503186654299497604e-03
1.881681382656097412e-01
1.585895568132400513e-02
-5.418171361088752747e-02
4.701329395174980164e-02
-5.584678146988153458e-03
1.063141133636236191e-02
-5.612932890653610229e-02
7.562612742185592651e-02
-9.003008902072906494e-02
-3.736415132880210876e-02
-2.950981957837939262e-03
-1.476139724254608154e-01
9.240815788507461548e-02
-1.226053535938262939e-01
-3.803240135312080383e-02
1.722425036132335663e-02
-4.636006057262420654e-02
-6.615673005580902100e-02
4.298425838351249695e-02
3.732585906982421875e-01
-1.669435948133468628e-02
-5.065965279936790466e-02
-2.075032442808151245e-01
3.742470964789390564e-02
5.385976657271385193e-02
-2.707250975072383881e-02
-1.936081610620021820e-02
-1.085779666900634766e-01
-2.998785115778446198e-02
-6.679876707494258881e-03
1.383565962314605713e-01
1.274196356534957886e-01
2.716383896768093109e-03
2.308904379606246948e-02
-6.633935123682022095e-02
-9.275694936513900757e-02
-1.909687370061874390e-02
3.606544062495231628e-02
-1.203948184847831726e-01
-1.056557819247245789e-01
5.531784519553184509e-02
-4.409998655319213867e-02
-6.453724205493927002e-02
1.401101984083652496e-02
-5.833645910024642944e-02
-4.074002802371978760e-02
4.663887247443199158e-02
-1.007574051618576050e-01
-3.761828318238258362e-02
-3.107801266014575958e-02
-1.224305555224418640e-01
1.110426336526870728e-01
2.516435645520687103e-02
9.593854844570159912e-02
-6.229799985885620117e-02
3.190800920128822327e-02
2.034020982682704926e-02
4.031628370285034180e-02
-7.935912907123565674e-02
-5.034225806593894958e-02
-2.424267493188381195e-02
4.423324391245841980e-02
-3.216031566262245178e-02
-1.186113208532333374e-01
5.630935728549957275e-02
1.722987927496433258e-02
3.266867250204086304e-02
-2.869029529392719269e-02
-1.067573800683021545e-01
-1.492506451904773712e-02
5.375965684652328491e-02
1.378966215997934341e-02
-1.237002294510602951e-02
5.052317306399345398e-02
1.025401726365089417e-01
-1.343411952257156372e-02
4.854617640376091003e-02
8.916146121919155121e-03
-3.781071677803993225e-02
6.556574255228042603e-02
1.474696546792984009e-01
-6.492617074400186539e-03
3.662770241498947144e-02
8.693416416645050049e-02
8.423411101102828979e-02
-2.105450071394443512e-02
-1.885708048939704895e-02
1.405481696128845215e-01
-2.017991617321968079e-02
-3.430711477994918823e-02
-6.213143002241849899e-03
7.400770485401153564e-02
1.753292232751846313e-01
-2.150866761803627014e-02
-1.620529145002365112e-01
1.954305358231067657e-02
-1.746091246604919434e-01
-6.017907336354255676e-02
-7.794389128684997559e-02
2.278083749115467072e-02
-1.027629594318568707e-03
-1.745503209531307220e-02
-1.031082822009921074e-03
3.624163568019866943e-02
8.531680703163146973e-02
-6.838823109865188599e-02
-1.827220991253852844e-02
-9.353397041559219360e-02
3.796541318297386169e-02
4.187887534499168396e-02
-5.396815016865730286e-02
1.805260591208934784e-02
1.650594770908355713e-01
-8.975256979465484619e-02
-1.218699663877487183e-01
-1.721710781566798687e-03
2.166054584085941315e-02
3.121416568756103516e-01
-8.735044859349727631e-03
-1.885856315493583679e-02
9.845910221338272095e-02
-2.517863176763057709e-02
2.398337237536907196e-02
6.753096729516983032e-02
2.819853089749813080e-02
-1.714638918638229370e-01
3.064984641969203949e-02
4.022270441055297852e-02
3.600332513451576233e-02
-8.397398889064788818e-02
-1.798240095376968384e-02
-8.209589868783950806e-02
-8.997814729809761047e-03
-1.597852557897567749e-01
8.294526487588882446e-02
-7.206738740205764771e-02
-6.012487225234508514e-03
-3.330323845148086548e-02
-1.105818077921867371e-01
-2.800345048308372498e-02
-2.253422699868679047e-02
1.781619898974895477e-02
3.892159834504127502e-02
4.972681403160095215e-03
-9.631634503602981567e-02
8.873457554727792740e-04
7.399806380271911621e-02
2.961560711264610291e-02
3.915257379412651062e-02
-1.341835558414459229e-01
7.262150198221206665e-02
-5.762267857789993286e-02
-3.697830438613891602e-02
-1.196034327149391174e-01
-7.100411504507064819e-02
-5.779297277331352234e-02
7.719978690147399902e-02
-6.133346632122993469e-02
5.565666407346725464e-02
-1.592246256768703461e-02
-4.680066369473934174e-03
5.557500757277011871e-03
-6.475098431110382080e-02
-1.105173453688621521e-01
-7.495005428791046143e-02
-5.197598412632942200e-02
-1.967836637049913406e-03
-2.657922506332397461e-01
-3.910472616553306580e-02
9.103935956954956055e-02
4.330938681960105896e-02
-1.260582637041807175e-02
9.808544069528579712e-02
1.185902282595634460e-01
-5.303490534424781799e-02
-6.716149300336837769e-02
3.764903917908668518e-02
-7.990815676748752594e-03
-8.782996982336044312e-02
-8.978673815727233887e-02
-9.140708297491073608e-02
1.049926728010177612e-01
1.465218374505639076e-03
4.063976928591728210e-02
7.703616470098495483e-02
-9.036453813314437866e-02
-1.225199624896049500e-01
-1.092983856797218323e-01
-1.967036351561546326e-02
-1.570874452590942383e-02
-6.563425809144973755e-02
5.064922198653221130e-02
-2.140039019286632538e-02
4.888121783733367920e-02
1.400039345026016235e-01
4.890503361821174622e-02
-1.732259243726730347e-02
2.533877454698085785e-02
-8.863934874534606934e-02
1.194511279463768005e-01
-6.549608707427978516e-02
6.542536616325378418e-02
8.051985502243041992e-02
6.032175198197364807e-02
-2.566223265603184700e-03
1.989584416151046753e-02
1.306685507297515869e-01
-5.477378144860267639e-02
-7.389093935489654541e-02
2.168872952461242676e-02
2.348059266805648804e-01
6.591189652681350708e-03
3.501888737082481384e-02
5.419486761093139648e-02
-2.320640720427036285e-03
-6.503384560346603394e-02
3.928333148360252380e-02
-3.399082645773887634e-02
-6.340614706277847290e-02
1.709526218473911285e-02
6.720601581037044525e-03
-4.354375973343849182e-02
-1.246687173843383789e-01
-4.182703420519828796e-02
-8.560226857662200928e-02
-1.077188178896903992e-02
-1.442380845546722412e-01
5.575989559292793274e-02
-1.842620074748992920e-01
-2.242006920278072357e-02
-6.865424662828445435e-02
-9.845021367073059082e-02
4.708331450819969177e-02
-5.007669702172279358e-02
-1.601070910692214966e-02
7.123510539531707764e-02
1.346646845340728760e-01
-5.569921433925628662e-02
1.468982100486755371e-01
7.264618575572967529e-02
-2.022551186382770538e-02
-1.726094447076320648e-02
-7.746725343167781830e-03
-5.766792222857475281e-02
4.878720268607139587e-03
-6.237629428505897522e-02
-1.341952681541442871e-01
-2.083672210574150085e-02
-4.300164058804512024e-03
-8.392668329179286957e-03
-5.585812777280807495e-02
-1.322563178837299347e-02
-8.834230899810791016e-02
3.430941840633749962e-03
6.018293555825948715e-03
5.327098071575164795e-03
-7.653467357158660889e-02
9.454088658094406128e-02
7.017201930284500122e-02
-1.130375862121582031e-01
9.212989360094070435e-02
-8.104979246854782104e-02
5.067360401153564453e-02
-1.590784755535423756e-03
-2.179837040603160858e-02
2.041808096691966057e-03
-6.117962673306465149e-02
8.857425302267074585e-03
1.126670092344284058e-01
8.489517495036125183e-03
3.419887274503707886e-02
3.452968597412109375e-02
-7.246690243482589722e-02
-3.113741613924503326e-02
2.809849381446838379e-02
1.390639692544937134e-01
-9.405943006277084351e-02
-4.562922567129135132e-02
-7.389181107282638550e-02
1.956568844616413116e-02
4.994451627135276794e-02
2.273472025990486145e-02
8.447733521461486816e-02
1.373644620180130005e-01
6.603058427572250366e-02
8.100228011608123779e-02
3.092966042459011078e-02
-2.530888095498085022e-02
6.828238815069198608e-02
-5.443543195724487305e-02
6.398733705282211304e-03
-4.538750648498535156e-02
-2.171421609818935394e-02
-1.587983667850494385e-01
1.201401948928833008e-01
4.782938864082098007e-03
7.156404200941324234e-03
1.055209781043231487e-03
2.599077299237251282e-02
1.332362294197082520e-01
5.585779249668121338e-02
1.688448339700698853e-02
-4.815388470888137817e-03
7.226749509572982788e-02
-8.302349597215652466e-03
1.747833006083965302e-02
4.505202174186706543e-03
-1.561303436756134033e-01
-6.828534416854381561e-03
5.886513739824295044e-02
1.226971298456192017e-01
2.562352083623409271e-02
3.207908198237419128e-02
1.156363859772682190e-01
-1.331927925348281860e-01
1.161349117755889893e-01
7.981059700250625610e-02
-3.314043628051877022e-03
-1.146332640200853348e-02
6.699071824550628662e-02
9.924137592315673828e-02
-3.350029140710830688e-02
-1.506436336785554886e-02
1.104833651334047318e-02
2.748367609456181526e-03
-1.101451963186264038e-01
4.294596984982490540e-02
-4.066833853721618652e-02
-6.942075677216053009e-03
-1.483131051063537598e-01
-5.123613402247428894e-02
3.043032065033912659e-02
7.756844162940979004e-02
8.036066778004169464e-03
-1.637571156024932861e-01
-5.419214442372322083e-02
-1.275636907666921616e-02
-7.335803657770156860e-02
-2.805073373019695282e-02
-8.107254654169082642e-02
-4.523071274161338806e-02
1.242181733250617981e-01
-4.045055061578750610e-02
-3.483477607369422913e-02
-9.688270092010498047e-02
1.275060772895812988e-01
-2.081745117902755737e-02
-1.976992934942245483e-01
5.202563107013702393e-02
6.957336515188217163e-02
6.063424423336982727e-02
-5.479228124022483826e-02
-6.108258292078971863e-02
-8.934510499238967896e-02
-1.495987474918365479e-01
8.632349967956542969e-02
1.473588403314352036e-02
4.241197183728218079e-02
-9.082346409559249878e-02
7.323694974184036255e-02
2.553453445434570312e-01
4.787579923868179321e-02
7.723038643598556519e-02
2.954869717359542847e-02
2.890271879732608795e-02
-2.256297040730714798e-03
5.923852324485778809e-02
6.342751532793045044e-02
-7.239545881748199463e-02
8.183311671018600464e-03
1.477931588888168335e-01
6.766650825738906860e-02
-5.115176364779472351e-02
-8.576118946075439453e-02
-6.452121585607528687e-02
3.866945207118988037e-02
4.793469980359077454e-02
-2.572571486234664917e-02
1.137253921478986740e-02
6.480371113866567612e-03
-2.899183519184589386e-02
2.773785404860973358e-02
-2.344489283859729767e-02
5.310633778572082520e-02
7.008150219917297363e-02
9.693685919046401978e-02
-6.639962643384933472e-02
-1.274770200252532959e-01
-1.097015142440795898e-01
-4.337316378951072693e-02
-3.351584076881408691e-03
1.902285218238830566e-02
7.190989702939987183e-02
2.022428065538406372e-02
1.835594139993190765e-02
-4.746038001030683517e-03
-2.747430093586444855e-02
-5.298119038343429565e-02
-1.427859254181385040e-02
-3.193025290966033936e-02
-1.904199868440628052e-01
3.358779475092887878e-02
-4.234948381781578064e-02
-8.371873758733272552e-03
-5.520084500312805176e-02
3.696166723966598511e-02
-2.804420143365859985e-02
1.212350185960531235e-02
6.990617513656616211e-02
-6.712795048952102661e-02
4.371725022792816162e-02
3.456336632370948792e-02
-8.572491258382797241e-02
-3.083504363894462585e-02
-3.459323942661285400e-02
-1.623012311756610870e-02
3.925202786922454834e-02
8.893841505050659180e-02
-3.948587924242019653e-02
-9.094916458707302809e-05
-3.661244809627532959e-01
3.982081636786460876e-02
6.107280030846595764e-03
1.210737898945808411e-01
-7.090112566947937012e-02
-4.081325978040695190e-02
1.799176074564456940e-02
2.242674492299556732e-02
-4.330283775925636292e-02
-6.907688081264495850e-02
-1.650944054126739502e-01
1.287433803081512451e-01
8.922898210585117340e-03
-9.591291099786758423e-02
1.339010801166296005e-02
6.443212181329727173e-02
1.674697548151016235e-02
-5.807314440608024597e-02
2.930644154548645020e-02
3.875532001256942749e-02
6.060929968953132629e-02
6.649975478649139404e-02
-1.080296337604522705e-01
3.468585386872291565e-02
-5.769586190581321716e-02
2.722278535366058350e-01
6.963617634028196335e-03
-2.497550845146179199e-02
-1.142336241900920868e-02
1.058262437582015991e-01
1.111697498708963394e-02
-1.098901405930519104e-01
1.628211513161659241e-02
-3.454356640577316284e-02
2.452145516872406006e-02
-1.545856893062591553e-01
-1.219922769814729691e-02
4.423725232481956482e-02
-1.441386193037033081e-01
-1.679297983646392822e-01
-5.111072212457656860e-02
4.989830777049064636e-02
9.867808967828750610e-02
-7.253996282815933228e-02
-4.220609366893768311e-02
2.792763151228427887e-02
-2.126019448041915894e-02
-4.706476628780364990e-02
6.737031787633895874e-02
1.703584194183349609e-02
2.817610464990139008e-02
-7.020516693592071533e-02
5.027009546756744385e-02
-1.190348193049430847e-01
2.676432020962238312e-03
4.872384294867515564e-02
1.160793676972389221e-01
-3.018139628693461418e-03
2.446617744863033295e-02
-4.321286082267761230e-02
7.378200441598892212e-02
3.767654066905379295e-03
1.362758316099643707e-02
6.961860507726669312e-02
-7.291292399168014526e-02
1.921939104795455933e-02
1.363961845636367798e-01
-3.569552898406982422e-01
3.658324480056762695e-02
5.345078930258750916e-02
1.401646248996257782e-02
4.842743650078773499e-02
6.565611809492111206e-02
-5.265098437666893005e-02
1.065248623490333557e-01
5.776359513401985168e-02
-4.663758352398872375e-02
2.121917754411697388e-01
3.189029544591903687e-02
1.326459739357233047e-02
-3.171052411198616028e-02
-1.050561573356389999e-02
2.393771335482597351e-02
-1.187359318137168884e-01
1.160636097192764282e-01
-5.590437352657318115e-02
3.172864392399787903e-02
2.118340134620666504e-02
-4.677437618374824524e-02
6.768910586833953857e-02
4.252199828624725342e-02
7.249137759208679199e-02
2.180685698986053467e-01
-3.486294299364089966e-02
-3.998649120330810547e-02
9.313365072011947632e-02
-5.122065171599388123e-02
-2.812124229967594147e-02
-1.088293120265007019e-01
1.550033595412969589e-02
-3.788711503148078918e-03
-3.387138992547988892e-02
-1.365818381309509277e-01
9.939879179000854492e-02
3.915783949196338654e-03
-9.793941676616668701e-02
-5.104238167405128479e-02
6.657474488019943237e-02
-1.363562494516372681e-01
-7.355703972280025482e-03
-5.844372138381004333e-02
-1.741577684879302979e-01
-8.314177393913269043e-02
5.045030638575553894e-02
-6.462835520505905151e-02
-6.333189457654953003e-02
3.758471459150314331e-02
1.042745932936668396e-01
3.020695596933364868e-02
4.353404790163040161e-02
1.463604569435119629e-01
-9.749937057495117188e-02
-5.414298549294471741e-02
-2.074749208986759186e-02
-1.741470023989677429e-02
8.543872088193893433e-02
-2.848843857645988464e-02
3.679552581161260605e-03
3.560563549399375916e-02
-1.983108967542648315e-01
-5.060348659753799438e-02
-4.275055974721908569e-02
6.205222010612487793e-02
4.048441722989082336e-02
4.923096671700477600e-02
-1.947510987520217896e-02
3.726571798324584961e-03
5.203762277960777283e-02
-1.433189809322357178e-01
2.999160625040531158e-02
4.320923984050750732e-02
3.600149229168891907e-02
-2.427916228771209717e-02
2.780260518193244934e-02
-3.551964834332466125e-02
8.435549587011337280e-02
-3.577158349798992276e-05
-6.617300957441329956e-02
5.645848810672760010e-02
1.526584476232528687e-02
-1.286816783249378204e-02
2.246609143912792206e-02
2.516333945095539093e-02
7.791874557733535767e-02
-2.719912491738796234e-02
3.173708543181419373e-02
-1.198731828480958939e-02
-5.411822348833084106e-02
-4.914650321006774902e-02
5.850606039166450500e-02
-8.515384793281555176e-02
-3.861990198493003845e-02
6.120531354099512100e-03
1.801195321604609489e-03
2.677532844245433807e-02
1.337423175573348999e-02
3.940744698047637939e-02
1.815125904977321625e-02
6.276401877403259277e-02
-3.478892520070075989e-02
9.144484996795654297e-02
-4.404297471046447754e-02
-8.626652508974075317e-02
-1.779571920633316040e-02
-8.199276030063629150e-02
9.359496831893920898e-02
2.470057010650634766e-01
-1.753440648317337036e-01
-9.821136295795440674e-02
-3.825874626636505127e-02
5.306363105773925781e-02
2.154474854469299316e-01
-4.813624545931816101e-02
2.289032191038131714e-01
-5.858237668871879578e-02
1.079002022743225098e-02
-6.382846087217330933e-02
6.782245635986328125e-02
3.484186902642250061e-02
9.145379811525344849e-02
-9.171103686094284058e-02
-1.241138949990272522e-01
-2.711614593863487244e-02
5.059992149472236633e-02
2.589916624128818512e-02
-5.629598163068294525e-03
-4.287199676036834717e-02
-1.657124422490596771e-02
6.001954432576894760e-03
1.356940418481826782e-01
-3.439379725023172796e-05
2.165052108466625214e-03
-3.438083687797188759e-03
-1.076781228184700012e-01
-1.506449133157730103e-01
-2.473344560712575912e-03
5.169963464140892029e-03
7.154537737369537354e-02
4.255375266075134277e-02
-9.915139526128768921e-03
4.625129979103803635e-03
-3.649385273456573486e-02
7.816751301288604736e-02
1.973794214427471161e-02
4.744036123156547546e-03
-1.325580626726150513e-01
1.565679013729095459e-01
9.085729718208312988e-02
4.587593674659729004e-02
-3.893709555268287659e-02
-4.354278743267059326e-02
-1.358318328857421875e-02
2.382070571184158325e-02
8.342148363590240479e-02
9.877618402242660522e-02
5.221154913306236267e-02
3.927548974752426147e-02
-2.380422502756118774e-02
-6.921747326850891113e-02
-3.328555962070822716e-03
5.112902447581291199e-02
-3.571677580475807190e-02
2.598557621240615845e-02
-4.503018409013748169e-02
1.108779907226562500e-01
-1.399363577365875244e-01
-6.240874901413917542e-02
8.792654611170291901e-03
3.697285056114196777e-02
1.191735640168190002e-01
-2.373462729156017303e-02
2.461281418800354004e-02
-4.071410000324249268e-02
-3.618738427758216858e-02
-4.199545073788613081e-04
4.827199876308441162e-02
8.531662821769714355e-02
1.194298937916755676e-01
-4.449589923024177551e-02
7.308132946491241455e-03
1.213624030351638794e-01
-1.139349788427352905e-01
6.665807217359542847e-02
2.018052898347377777e-02
-7.194141298532485962e-02
1.202747821807861328e-01
-1.792839728295803070e-02
-9.144179522991180420e-02
-2.529539763927459717e-01
1.391428112983703613e-01
1.091401465237140656e-02
1.428937166929244995e-01
-1.069857850670814514e-01
-1.302543375641107559e-02
7.064294070005416870e-02
-5.041369423270225525e-02
-1.838360913097858429e-02
-1.921645998954772949e-01
-6.392684765160083771e-03
-9.641284495592117310e-02
3.350093588232994080e-02
-7.545262575149536133e-02
-9.860899299383163452e-02
-1.084000244736671448e-02
7.450030744075775146e-02
-4.742756951600313187e-03
-1.823212802410125732e-01
-1.005663052201271057e-01
-9.875894337892532349e-02
1.353996433317661285e-02
2.647539228200912476e-02
-4.133775830268859863e-02
-9.818819351494312286e-03
1.281209290027618408e-01
-1.246616169810295105e-01
-7.876469753682613373e-03
-2.980288118124008179e-02
3.033819794654846191e-02
-3.249850869178771973e-02
-3.278192505240440369e-02
1.416403949260711670e-01
-5.106296762824058533e-02
7.711131125688552856e-02
-3.821619227528572083e-02
1.795923709869384766e-01
-5.703648552298545837e-02
-8.774320036172866821e-02
-1.127339899539947510e-01
5.234556645154953003e-02
-4.092899337410926819e-02
9.929321706295013428e-02
3.748158738017082214e-02
-7.083544880151748657e-02
4.493666440248489380e-02
-5.668828263878822327e-02
-5.106389150023460388e-02
-5.168949440121650696e-02
-5.577314272522926331e-02
-8.208125829696655273e-02
-3.263533860445022583e-02
4.583287611603736877e-02
-3.759661316871643066e-02
-2.700588852167129517e-02
-5.943421274423599243e-03
-8.359392732381820679e-02
4.849619045853614807e-02
-1.762130856513977051e-01
-8.428148180246353149e-02
9.480721503496170044e-02
-4.705746471881866455e-02
-1.345056146383285522e-01
2.320374920964241028e-02
2.596223354339599609e-02
-2.224485017359256744e-02
-8.476774394512176514e-02
2.119640707969665527e-01
-8.373752981424331665e-02
1.075982898473739624e-01
-5.393046513199806213e-02
2.878271788358688354e-02
-1.255885213613510132e-01
3.073151968419551849e-02
1.275216490030288696e-01
-7.332934439182281494e-02
3.412641584873199463e-01
3.272631019353866577e-02
2.081979811191558838e-02
-3.370523452758789062e-02
9.465774893760681152e-02
-1.010879874229431152e-01
1.671767830848693848e-01
-1.036991253495216370e-01
-1.276104003190994263e-01
-1.073900684714317322e-01
-1.202667355537414551e-01
-4.032950475811958313e-02
-4.884012043476104736e-02
-1.301200389862060547e-01
-2.004878036677837372e-02
-3.379802405834197998e-02
1.476717442274093628e-01
-9.427821636199951172e-02
-1.289378851652145386e-02
-1.237622946500778198e-01
4.117489755153656006e-01
-5.098779872059822083e-02
-3.164710849523544312e-02
6.542020291090011597e-02
5.049151950515806675e-04
1.000736281275749207e-01
3.228729218244552612e-02
-4.082447662949562073e-02
5.216256156563758850e-02
8.519422262907028198e-02
5.671947449445724487e-02
2.476100344210863113e-03
-5.658864229917526245e-02
9.546329826116561890e-02
9.815995395183563232e-02
-1.305800378322601318e-01
5.643396824598312378e-02
-6.824532896280288696e-02
-4.563912376761436462e-02
-2.733709104359149933e-02
-2.461732365190982819e-02
-6.641370058059692383e-02
-4.826027527451515198e-02
-1.207566112279891968e-01
7.805149070918560028e-04
-4.045559093356132507e-02
-5.583921447396278381e-02
3.072277456521987915e-02
1.329041719436645508e-01
5.261266976594924927e-02
1.913612475618720055e-03
6.113089993596076965e-02
-1.746723894029855728e-03
1.733082532882690430e-02
4.369260370731353760e-02
2.513126097619533539e-02
-1.395050585269927979e-01
-2.760302834212779999e-02
3.471104800701141357e-02
-5.752108991146087646e-02
-9.717780351638793945e-02
1.192187890410423279e-01
-4.164910688996315002e-02
5.401270464062690735e-02
-1.096566556952893734e-03
5.914754793047904968e-02
3.373407945036888123e-02
8.015616983175277710e-02
6.433108448982238770e-02
-4.674594476819038391e-02
-2.429665811359882355e-02
-7.426764816045761108e-02
-1.455377489328384399e-01
8.693293668329715729e-03
-4.390121623873710632e-02
-9.323931485414505005e-02
-7.351540029048919678e-02
1.032003946602344513e-02
6.142638623714447021e-02
-3.850269317626953125e-02
3.732077404856681824e-02
-1.047356426715850830e-01
4.787798598408699036e-02
-3.336995840072631836e-02
-1.433542650192975998e-02
1.492460491135716438e-03
-3.181394189596176147e-02
3.589186370372772217e-01
5.582813173532485962e-02
-6.377719342708587646e-02
-1.242996081709861755e-01
1.443141698837280273e-01
1.046043261885643005e-02
8.367265760898590088e-02
5.516643635928630829e-03
8.028352260589599609e-02
2.417273260653018951e-02
-1.142517179250717163e-01
1.546029746532440186e-02
-1.146362908184528351e-02
6.414769589900970459e-02
-4.323407635092735291e-02
2.386956475675106049e-02
-1.080789715051651001e-01
-7.621964812278747559e-02
-9.263245016336441040e-02
-1.147542297840118408e-01
3.121403791010379791e-02
6.674087047576904297e-02
5.869624763727188110e-02
4.572737589478492737e-02
-7.852011173963546753e-02
-4.922701790928840637e-02
-5.849595367908477783e-02
-2.021265402436256409e-02
-2.240270376205444336e-01
-4.872419685125350952e-02
-6.337671726942062378e-02
1.610716283321380615e-01
1.143141742795705795e-02
4.740555211901664734e-02
-1.658895611763000488e-01
-4.981425702571868896e-01
-1.417917944490909576e-02
6.398327648639678955e-02
6.609915196895599365e-02
3.682283684611320496e-02
1.254061143845319748e-02
8.560971170663833618e-02
-1.018367055803537369e-02
-4.646170884370803833e-03
-6.081345304846763611e-02
6.737080961465835571e-02
-5.595275759696960449e-02
1.058801170438528061e-02
8.936692774295806885e-02
-5.154933780431747437e-03
5.624495074152946472e-02
3.517333045601844788e-02
-6.825229525566101074e-02
-4.887015372514724731e-02
-1.763690412044525146e-01
2.977097034454345703e-02
-5.715881474316120148e-03
-1.156709715723991394e-01
-1.549565494060516357e-01
-5.167293548583984375e-02
-8.035860955715179443e-02
-5.289557948708534241e-02
-3.162873536348342896e-02
-9.314751252532005310e-03
1.557124406099319458e-01
-6.263734400272369385e-02
-5.840756744146347046e-02
3.939650580286979675e-02
1.099639106541872025e-02
4.962996765971183777e-02
2.481500059366226196e-02
1.220982447266578674e-01
-1.037306115031242371e-01
5.928490683436393738e-02
-9.419601410627365112e-02
1.461689770221710205e-01
2.695922739803791046e-02
7.074815034866333008e-02
5.987167824059724808e-03
1.047456562519073486e-01
1.238739490509033203e-01
-2.923079766333103180e-02
8.764816075563430786e-02
4.136843979358673096e-02
-1.522402372211217880e-02
-2.067672088742256165e-02
5.039265379309654236e-02
-1.093088686466217041e-01
-2.293159626424312592e-02
-9.998904168605804443e-02
1.428718566894531250e-01
8.946453034877777100e-02
4.359594732522964478e-02
1.087599471211433411e-01
3.525223582983016968e-02
5.279372632503509521e-02
-2.886623516678810120e-02
-2.014572322368621826e-01
4.036812577396631241e-03
-1.510484516620635986e-01
-3.665574267506599426e-02
8.518490009009838104e-03
1.896078586578369141e-01
1.171056628227233887e-01
-1.026247143745422363e-01
6.317649036645889282e-02
7.208141684532165527e-02
2.477178573608398438e-01
-4.009221494197845459e-02
-5.082539469003677368e-02
-3.157331421971321106e-02
1.317007560282945633e-02
-1.134937163442373276e-02
-1.063690427690744400e-02
5.713004246354103088e-02
-1.445546932518482208e-02
-1.182050183415412903e-01
1.560083869844675064e-02
6.788481026887893677e-02
3.952430933713912964e-02
7.513425499200820923e-02
1.366677582263946533e-01
7.287646643817424774e-03
2.043150365352630615e-02
-1.489030849188566208e-02
3.576415404677391052e-02
8.096323907375335693e-02
1.458616089075803757e-02
1.321167568676173687e-03
-1.056749094277620316e-02
3.341489136219024658e-01
6.251376122236251831e-02
1.220898404717445374e-01
-1.719518192112445831e-02
-1.467481814324855804e-02
-3.484052419662475586e-01
-4.050324112176895142e-02
3.402450354769825935e-03
-3.675399720668792725e-02
3.032306768000125885e-02
-2.647126279771327972e-02
-3.630529344081878662e-02
6.789243966341018677e-02
-2.865793928503990173e-02
-1.398785971105098724e-02
6.265731155872344971e-02
-1.131663173437118530e-01
1.709457486867904663e-01
-9.649580717086791992e-02
7.580327987670898438e-02
1.319901645183563232e-02
-1.171414479613304138e-01
-4.373665526509284973e-02
5.170196294784545898e-02
1.008271649479866028e-01
6.105487048625946045e-02
3.376150876283645630e-02
-2.085504867136478424e-02
-1.293260008096694946e-01
-2.297755889594554901e-02
5.001188442111015320e-02
5.671700835227966309e-02
5.801454186439514160e-02
-3.153406828641891479e-02
1.557388007640838623e-01
-9.711451828479766846e-03
9.445682168006896973e-03
3.213346749544143677e-02
9.516719728708267212e-02
-9.287645667791366577e-02
5.933025106787681580e-02
9.982567280530929565e-03
-1.793917864561080933e-01
-8.140635490417480469e-02
-2.151862978935241699e-01
5.601655691862106323e-03
-1.866609901189804077e-01
-1.164645552635192871e-01
-2.195914834737777710e-02
1.975096995010972023e-03
4.411936923861503601e-02
2.251974074169993401e-04
-4.267580062150955200e-02
4.259417951107025146e-02
4.062451049685478210e-02
1.143638715147972107e-01
-8.312652353197336197e-04
-1.592854112386703491e-01
2.122253924608230591e-02
6.479851901531219482e-02
8.032363653182983398e-02
9.208310395479202271e-02
-9.008972346782684326e-02
7.697232067584991455e-02
5.531306192278862000e-02
-5.159807857125997543e-03
1.136047542095184326e-01
4.222314059734344482e-02
-9.227596968412399292e-02
1.927681639790534973e-02
-3.667876496911048889e-02
4.059233143925666809e-02
-4.334457218647003174e-02
-1.489292830228805542e-01
-3.897778689861297607e-02
-4.968553781509399414e-02
2.184149809181690216e-02
-7.510483264923095703e-02
1.444840058684349060e-02
1.304448843002319336e-01
3.182877600193023682e-02
6.499990355223417282e-03
-7.040414493530988693e-03
-7.108533382415771484e-02
-2.649957605171948671e-05
6.428000330924987793e-02
5.584768205881118774e-02
2.158319763839244843e-02
1.681990176439285278e-02
-1.407895684242248535e-01
3.233128041028976440e-02
8.605799823999404907e-02
-8.889710158109664917e-02
-9.526277333498001099e-02
-3.428289294242858887e-02
1.053188070654869080e-01
