0.08724065124988556
0.027836820110678673
0.019403718411922455
-0.03972316533327103
-0.02821740135550499
-0.1423759162425995
0.019451910629868507
-0.025424810126423836
0.015614467673003674
-0.08569743484258652
0.07725165039300919
-0.09909065812826157
0.027938006445765495
0.0490698404610157
0.04247839376330376
0.05543110892176628
0.03236546367406845
-0.03913649171590805
0.00740994606167078
0.019328240305185318
0.023677928373217583
-0.05611347034573555
0.02471165359020233
0.0296617541462183
-0.04166145622730255
0.05573229491710663
-0.0780634805560112
-0.04893944039940834
0.020881209522485733
-0.012293299660086632
0.05435805395245552
0.08560577780008316
-0.005903545301407576
-0.06303942948579788
0.045433565974235535
0.11480027437210083
-0.0777011290192604
-0.0541764535009861
-0.12261886149644852
-0.13369806110858917
-0.11072209477424622
0.04732269421219826
0.04098162427544594
0.01226956769824028
0.07164543122053146
-0.04118223115801811
-0.003162908600643277
0.06439900398254395
0.054229989647865295
-0.0740523412823677
0.1193690225481987
0.012631675228476524
-0.04993581399321556
0.1397268921136856
-0.04445752128958702
-0.02641846425831318
0.0034387775231152773
0.08129367977380753
0.01511881873011589
-0.027241691946983337
0.032818276435136795
-0.0055911545641720295
-0.06023931875824928
0.0026698082219809294
0.06911053508520126
-0.06027261167764664
-0.03537025302648544
0.02547520212829113
0.119293212890625
-0.004985275212675333
0.059299685060977936
-0.04894004389643669
0.08500935882329941
-0.02656620927155018
0.0003485018387436867
-0.0010270304046571255
-0.057066936045885086
-0.025735730305314064
0.08759740740060806
0.04558505862951279
-0.09172189980745316
0.1331309825181961
0.035216789692640305
-0.09120797365903854
-0.06132468581199646
0.03232653811573982
-0.12140591442584991
-0.01974869705736637
-0.04755007103085518
0.04332064837217331
-0.037135932594537735
0.06498872488737106
0.04516775906085968
0.12116745859384537
0.003485309425741434
-0.05502855032682419
-0.03255123645067215
0.05268494039773941
-0.05009133368730545
-0.005008958280086517
0.058476902544498444
0.033476196229457855
0.011696791276335716
-0.014464128762483597
-0.09231986850500107
-0.0346900150179863
0.014636894688010216
-0.040896378457546234
0.04485582187771797
-0.14406287670135498
0.006052532698959112
0.059909358620643616
-0.03547224774956703
0.031872786581516266
0.103318952023983
-0.010587376542389393
-0.1551094800233841
-0.024143818765878677
-0.08464042097330093
0.04465559497475624
-0.042837344110012054
0.044737786054611206
0.07365419715642929
-0.002149870852008462
-0.0743740051984787
0.011237258091568947
-0.018958942964673042
-0.12378213554620743
0.035010941326618195
0.06454595178365707
0.009661165066063404
-0.1323680430650711
-0.06124027073383331
-0.07237531244754791
0.019440647214651108
-0.003635718720033765
0.039819881319999695
-0.07316751778125763
-0.030185580253601074
-0.035339392721652985
-0.03504345193505287
-0.03210040554404259
0.010488198138773441
-0.07856648415327072
-0.1395658552646637
-0.08474577963352203
0.04968831315636635
0.0783512070775032
-0.027661781758069992
-0.051439546048641205
0.022447975352406502
-0.006535750348120928
-0.05331900343298912
0.08180087804794312
-0.07889273762702942
-0.003793905721977353
-0.011218753643333912
-0.023979103192687035
0.030877655372023582
0.06602321565151215
-0.05015251412987709
-0.03455189988017082
0.10741367936134338
0.027852170169353485
-0.04134046286344528
-0.08645540475845337
-0.027859250083565712
0.017229223623871803
0.036355793476104736
0.16454185545444489
0.10715761035680771
0.01792334020137787
-0.11201369762420654
0.042985301464796066
-0.026937097311019897
0.03138674050569534
-0.0800199955701828
-0.09030327945947647
0.07314702123403549
0.029839588329195976
0.03717319667339325
0.02205667644739151
-0.0681861862540245
-0.10061044991016388
-0.04298821836709976
0.0020157897379249334
-0.015242205932736397
-0.06586960703134537
-0.028020842000842094
0.025347620248794556
-0.00745722372084856
-0.01857687532901764
0.030722305178642273
-0.10660815238952637
0.14150677621364594
0.06345207989215851
0.15460285544395447
-0.0821111872792244
-0.002499957103282213
-0.023148085922002792
0.036240480840206146
-0.07816899567842484
0.022244853898882866
-0.06056280434131622
0.049037013202905655
-0.059954844415187836
0.013373243622481823
-0.030636105686426163
-0.048917416483163834
0.12028482556343079
0.07399614155292511
0.007836268283426762
-0.013286877423524857
0.12569110095500946
0.003897435497492552
-0.016644641757011414
-0.061972178518772125
0.07966147363185883
-0.01667795516550541
-0.034709781408309937
0.05710810050368309
-0.042007531970739365
-0.08778206259012222
0.01018776185810566
0.11370103806257248
0.010791742242872715
-0.05660996586084366
0.06616626679897308
0.14621715247631073
-0.04861503839492798
-0.06424147635698318
0.08263056725263596
-0.021804487332701683
0.07646099478006363
0.02227025106549263
0.047383569180965424
-0.06274479627609253
-0.008106939494609833
0.11367011815309525
0.055199552327394485
-0.14419502019882202
0.00553992809727788
0.05346773564815521
-0.04411793127655983
-0.0278574600815773
0.02108619548380375
-0.05567567050457001
0.07627872377634048
0.011727262288331985
-0.022701596841216087
-0.014921216294169426
-0.12893739342689514
-0.015201232396066189
0.029054943472146988
-0.07183648645877838
-0.13661693036556244
0.02170330472290516
0.0039171017706394196
-0.00034230202436447144
-0.04898781329393387
0.025781460106372833
-0.03876250609755516
-0.015392974950373173
0.052060943096876144
0.005898574832826853
0.09278922528028488
-0.09154126048088074
-0.02179032377898693
0.04198624566197395
-0.058707959949970245
0.03158855438232422
0.03923596441745758
0.04254189133644104
-0.08882354199886322
-0.038146886974573135
0.022952968254685402
-0.1069098636507988
0.03378201648592949
0.09588874131441116
0.048405177891254425
-0.01898188516497612
0.005330085754394531
0.008007025346159935
0.01749497279524803
0.06331242620944977
0.049592502415180206
0.027193356305360794
0.14418341219425201
0.012321921065449715
-0.0013533260207623243
-0.10926829278469086
-0.04097997024655342
0.053868383169174194
-0.030460648238658905
0.043233711272478104
-0.057547710835933685
0.03323017805814743
-0.017678191885352135
0.04383689537644386
-0.037838611751794815
0.06428970396518707
0.023833228275179863
-0.04476596415042877
0.014271605759859085
-0.05093985050916672
0.06590275466442108
0.020669108256697655
-0.10860562324523926
-0.05374286323785782
0.004919231403619051
-0.04424048587679863
-0.057737644761800766
-0.07524535804986954
0.08618158847093582
0.05479721352458
0.05510280653834343
-0.059012871235609055
0.04931752011179924
-0.0055436682887375355
0.005498562473803759
0.12086176872253418
-0.009733550250530243
-0.020403200760483742
0.005604130681604147
0.0186777226626873
-0.009787711314857006
0.02571273408830166
-0.029701972380280495
0.027830487117171288
-0.035562291741371155
0.015320257283747196
-0.01875094138085842
-0.008125894702970982
-0.008348342962563038
-0.03265934810042381
0.06935040652751923
0.05901524797081947
0.003651792649179697
0.03032425418496132
0.003080177353695035
-0.11804790794849396
0.029561419039964676
0.06177922338247299
-0.03279779478907585
0.03874587267637253
-0.060476016253232956
-0.001952111953869462
0.009784969501197338
0.061006810516119
-0.11434298753738403
0.003769987029954791
0.03515515848994255
-0.0010638573439791799
0.03046904131770134
0.07631907612085342
-0.0572788342833519
-0.030822761356830597
0.07310781627893448
-0.04088820889592171
0.008793920278549194
-0.0018931818194687366
0.1046319305896759
-0.03625477850437164
0.020200582221150398
-0.048705823719501495
-0.031170165166258812
0.04006487876176834
0.01177283376455307
0.004568899516016245
0.033220190554857254
0.054761581122875214
-0.05194760486483574
-0.13341175019741058
0.04035722464323044
-0.04809298738837242
-0.006866896525025368
0.059553906321525574
-0.00172018026933074
0.046464838087558746
0.09722810983657837
-0.04429556056857109
0.004818977788090706
0.011921373195946217
-0.07485257089138031
0.0298350490629673
-0.027367785573005676
-0.03623664006590843
0.029728172346949577
0.025605810806155205
-0.004876688588410616
-0.02299109846353531
0.013183500617742538
-0.029791105538606644
-0.07994824647903442
0.07032863795757294
0.029742097482085228
-0.08214546740055084
0.03233630210161209
0.025400256738066673
0.04737130552530289
-0.03281644731760025
0.04724528267979622
-0.11110301315784454
-0.025707582011818886
0.05825816094875336
0.008150731213390827
-0.0081004174426198
-0.02535727433860302
-0.019902298226952553
0.06102808192372322
0.0739094540476799
0.031193919479846954
0.03292737528681755
0.0510619655251503
0.03247075527906418
-0.02312941662967205
-0.027882607653737068
0.011811424978077412
0.0535372830927372
-0.02780362032353878
-0.010335447266697884
0.006963340099900961
-0.024467723444104195
-0.02671554498374462
-0.057338207960128784
0.03858880326151848
-0.09330308437347412
-0.019131923094391823
0.04089422896504402
-0.06972525268793106
0.027072787284851074
-0.0041261580772697926
0.04197445139288902
0.01954873465001583
0.038826148957014084
-0.032378509640693665
0.007794743869453669
0.09672939777374268
-0.011118181981146336
-0.023526744917035103
0.02298061177134514
0.07072445005178452
0.009810611605644226
-0.003075484884902835
0.016369903460144997
0.01487809233367443
0.0152905797585845
0.03678499907255173
0.0237350445240736
0.04499735310673714
-0.001439673942513764
-0.020424192771315575
0.04108746722340584
-0.005920825991779566
-0.02393338643014431
-0.023909002542495728
-0.0910177230834961
0.05976779758930206
-0.002256368985399604
0.012927294708788395
-0.022195063531398773
0.06479127705097198
0.04632506147027016
-0.029977379366755486
-0.020331375300884247
-0.009768449701368809
-0.018525227904319763
0.01302042044699192
-0.02372042089700699
-0.0013941464712843299
-0.029470324516296387
0.0021008234471082687
0.036210883408784866
0.0031170006841421127
0.004712098278105259
-0.0060688164085149765
-0.01138249784708023
0.023158490657806396
-0.09566283971071243
-0.029283393174409866
0.05847376585006714
0.012048007920384407
-0.03168869391083717
0.032189711928367615
0.010910486802458763
0.009503403678536415
0.038130033761262894
-0.018518444150686264
-0.01621389575302601
-0.0907941684126854
-0.03458750993013382
-0.018013525754213333
0.06381542980670929
0.028503837063908577
0.024297144263982773
0.017403481528162956
-0.04186568781733513
-0.00799946766346693
0.034058310091495514
0.0030777286738157272
0.04318147152662277
0.013701355084776878
-0.005740717984735966
-0.028793297708034515
0.006788591854274273
0.02111261524260044
0.03323094919323921
0.03683894872665405
-0.03571151942014694
-0.021104032173752785
-0.0805133730173111
0.008081222884356976
0.009909046813845634
0.058055341243743896
0.0018057998968288302
-0.1033032014966011
-0.10612813383340836
-0.07620341330766678
-0.10208014398813248
0.037493303418159485
0.05669643357396126
-0.010775094851851463
-0.012637161649763584
-0.11586268991231918
0.027848834171891212
0.03550947457551956
0.04457314312458038
-0.008822011761367321
0.044768501073122025
0.05335158482193947
0.1690608263015747
0.015390390530228615
0.0440676286816597
-0.053687531501054764
0.015445015393197536
0.1734623908996582
-0.2686825394630432
0.05956435948610306
-0.05524253472685814
-0.0668751448392868
-0.09988775104284286
0.025749720633029938
-0.03875378519296646
-0.028107402846217155
0.033362820744514465
0.058705199509859085
-0.050270888954401016
0.05374867469072342
-0.05420175939798355
-0.019820543006062508
0.024778282269835472
-0.020723458379507065
0.029500484466552734
0.06050166115164757
0.09595945477485657
-0.0343630425632
-0.03455861285328865
0.020034918561577797
-0.04324563220143318
0.03714825212955475
0.0003100397880189121
0.03230927139520645
0.049237001687288284
-0.03161367401480675
-0.07367122173309326
0.09037548303604126
-0.03481293097138405
-0.05985771864652634
-0.014144343324005604
-0.0038478125352412462
-0.012012103572487831
-0.016738606616854668
-0.043525442481040955
0.18536442518234253
0.08664387464523315
0.019939633086323738
-0.004565708339214325
-0.11701700836420059
0.08760195225477219
0.10187868773937225
-0.061180196702480316
0.07506664097309113
-0.07060644775629044
0.06329219043254852
0.05449385195970535
-0.09606730192899704
-0.05983924865722656
-0.002095853677019477
0.06880885362625122
0.002697575371712446
-0.08326050639152527
0.03244556859135628
-0.16712374985218048
0.06440889835357666
-0.08252307027578354
0.04747787490487099
-0.04219047352671623
-0.0424688495695591
-0.027149690315127373
0.04598994553089142
-0.12467420101165771
-0.04888520762324333
0.02080506831407547
0.001389145152643323
0.2299463301897049
0.05687540024518967
-0.06112535297870636
0.06450937688350677
-0.006038365885615349
0.15388129651546478
0.030463993549346924
0.0986669510602951
-0.0905907079577446
-0.05128005892038345
-0.006228203885257244
0.02731766737997532
-0.08101162314414978
-0.02557116560637951
0.11191558837890625
0.09705325216054916
-0.024984566494822502
0.08438094705343246
0.13865046203136444
-0.12129051983356476
-0.04335024952888489
0.010807228274643421
0.07546494901180267
0.047253694385290146
-0.16078513860702515
-0.02989339642226696
0.010508655570447445
0.13151255249977112
0.009580415673553944
0.05439186841249466
-0.08951122313737869
-0.010627351701259613
0.08537016808986664
0.02724621072411537
0.012383931316435337
-0.10612558573484421
0.04750578850507736
-0.017875470221042633
0.011006363667547703
-0.018022626638412476
0.12230074405670166
-0.04651661589741707
0.0639893114566803
0.13203059136867523
-0.08268050849437714
-0.08516078442335129
0.005656805355101824
-0.025002917274832726
-0.017737608402967453
-0.08440021425485611
-0.00251089408993721
0.27905672788619995
0.05438302457332611
-0.00048015304491855204
-0.17485591769218445
-0.03708842024207115
0.03445463255047798
-0.04582681506872177
-0.15398135781288147
0.006818101275712252
-0.06008684262633324
0.0396459735929966
-0.04851863160729408
-0.016700129956007004
0.058098454028367996
0.11684496700763702
0.08163377642631531
0.14829091727733612
0.06541461497545242
-0.06265845894813538
0.09396879374980927
-0.08197944611310959
-0.06286729872226715
-0.079826220870018
-0.009565264917910099
-0.163702130317688
0.01779613085091114
-0.12821687757968903
-0.005320436786860228
-0.07988787442445755
0.11764770746231079
-0.07447928190231323
0.15512394905090332
-0.11320566385984421
0.09020736068487167
0.03636888414621353
0.01061589177697897
0.05212578549981117
-0.03943457081913948
-0.007068886887282133
0.07527563720941544
-0.04965107515454292
-0.0829637348651886
0.00721706822514534
-0.006074555683881044
-0.00855203252285719
0.04298386722803116
0.01320743840187788
0.01434712391346693
0.12491516768932343
-0.0030160481110215187
-0.017896709963679314
-0.09241395443677902
-0.040141746401786804
-0.007431040983647108
0.09900495409965515
0.08128369599580765
-0.0775836855173111
0.06754704564809799
0.0024827623274177313
0.037832558155059814
0.10322850197553635
0.05912533774971962
0.03146476298570633
0.07594691962003708
0.046445827931165695
0.08884592354297638
0.09036922454833984
0.031086549162864685
0.040700413286685944
0.02581731602549553
-0.05953152850270271
0.038995373994112015
0.012060234323143959
0.043797366321086884
0.09893478453159332
-0.056668806821107864
-0.11824656277894974
-0.1455370932817459
-0.002997307339683175
0.03676459565758705
0.07417379319667816
-0.08318489044904709
-0.06555387377738953
0.02722669392824173
0.0003574518777895719
0.16339793801307678
0.06365230679512024
0.07149788737297058
-0.035763394087553024
-0.03764726221561432
-0.0007065393729135394
-0.08912816643714905
-0.08047185838222504
0.071311816573143
-0.07204122096300125
-0.060589294880628586
0.05611755698919296
0.0004419515607878566
-0.19526715576648712
0.056741632521152496
0.09167762845754623
-0.05824681371450424
0.02949349768459797
0.014302865602076054
0.03287210315465927
-0.18094444274902344
0.11177962273359299
-0.01290944404900074
0.053059376776218414
-0.029392212629318237
-0.040337663143873215
-0.045890968292951584
0.00434429757297039
-0.011364010162651539
-0.056257639080286026
-0.030287282541394234
0.06873030960559845
0.045674487948417664
0.09775335341691971
0.016752121970057487
0.008963278494775295
-0.03020584024488926
-0.016520733013749123
0.0699063092470169
0.02218797244131565
-0.05391087383031845
0.045102838426828384
-0.09461940079927444
-0.011198478750884533
0.009320688433945179
0.037678081542253494
0.002211920917034149
0.07812224328517914
0.029039863497018814
-0.00451827934011817
-0.04385194182395935
0.01871580444276333
-0.03928877040743828
-0.023684721440076828
0.09945183992385864
0.02717852033674717
0.07747279107570648
-0.0043878923170268536
-0.01997433602809906
0.05698053166270256
-0.0025023454800248146
-0.08777686208486557
0.093796506524086
0.005302939098328352
0.038997817784547806
0.020937733352184296
-0.07771772146224976
-0.02138526737689972
0.04233493283390999
0.019075345247983932
-0.04970041662454605
-0.028748903423547745
0.013747000135481358
0.02140381745994091
-0.03816387802362442
-0.04737333953380585
-0.02004057541489601
-0.0315503291785717
-0.08629089593887329
0.040871407836675644
0.05013240501284599
-0.016572287306189537
-0.00019968203559983522
0.013851393014192581
-0.10987338423728943
0.02049257606267929
0.06377337127923965
-0.0038343570195138454
-0.040686704218387604
0.005248091649264097
-0.026750367134809494
0.040483660995960236
-0.04735855013132095
0.03299030661582947
-0.0413978137075901
-0.018742138519883156
-0.03094964660704136
0.014791910536587238
0.10890775918960571
-0.10492079704999924
-0.08100257813930511
0.07417114824056625
0.09275151789188385
0.096906378865242
-0.07071732729673386
-0.02153930813074112
-0.02603745460510254
0.02462085522711277
0.14631156623363495
0.015469581820070744
-0.02217988856136799
0.009915774688124657
-0.02970784157514572
-0.04533858224749565
0.07350537925958633
0.06044817715883255
-0.03319530189037323
-0.03267170488834381
-0.013993489556014538
0.13720737397670746
-0.013478090986609459
0.00035603504511527717
0.09413041174411774
-0.027729030698537827
0.0318155437707901
0.06337448954582214
-0.03743792325258255
-0.12390515953302383
-0.004777537193149328
-0.06316898763179779
0.0887436792254448
0.01364927552640438
0.0015156043227761984
-0.09924621134996414
0.002609190298244357
-0.03828491270542145
0.028461825102567673
-0.03474493697285652
-0.003296461421996355
0.02384832687675953
-0.11900032311677933
0.02771878056228161
-0.022470900788903236
-0.11215631663799286
0.21371079981327057
-0.06122171878814697
0.001279681222513318
-0.028449127450585365
-0.04485607519745827
0.0388052724301815
-0.006185546983033419
-0.05522418022155762
-0.04802173748612404
0.0033487852197140455
0.06733255088329315
0.005329247564077377
-0.039634767919778824
-0.033649999648332596
-0.027367647737264633
-0.07585716247558594
0.043279532343149185
-0.13624325394630432
-0.03250206261873245
0.0726253017783165
0.06014833226799965
-0.01254643127322197
-0.011370460502803326
0.0006252231542021036
0.01303914561867714
-0.03762426599860191
0.06610552221536636
0.007263472769409418
0.08510743826627731
-0.05910559371113777
0.010203475132584572
-0.04349678382277489
0.009831608273088932
-0.005725840572267771
-0.029612546786665916
0.04750930517911911
0.01614406332373619
-0.09978581964969635
0.02051566168665886
0.047309212386608124
0.025247132405638695
-0.009799671359360218
0.02131902426481247
-0.06738274544477463
-0.011425454169511795
0.00344233401119709
-0.05275196582078934
0.024763863533735275
0.005206179339438677
-0.07115361094474792
0.07877503335475922
-0.05917147547006607
0.11820254474878311
0.08824554830789566
0.08227216452360153
0.05045568197965622
-0.04818270355463028
0.004679111763834953
0.053499817848205566
0.03497176989912987
0.014031288214027882
0.050822582095861435
0.09394574165344238
0.013931797817349434
-0.05888722836971283
0.11755028367042542
-0.06909272819757462
-0.04790310934185982
0.06991761922836304
-0.010055369697511196
0.04791718348860741
0.02326277270913124
-0.07267706841230392
0.04383533075451851
0.03201398625969887
-0.0027596221771091223
0.02493792027235031
-0.0976950004696846
-0.008237714879214764
0.03482290729880333
0.013171539641916752
0.038320448249578476
0.0009727661963552237
-0.000957082083914429
0.07746931910514832
0.02350098080933094
-0.02329290099442005
-0.0002141205914085731
0.06744042783975601
-0.006319068837910891
0.025359271094202995
0.08188684284687042
-0.09728749096393585
0.009825064800679684
0.03357969596982002
0.08299122750759125
0.03473161160945892
-0.05778621509671211
0.023535843938589096
-0.036667510867118835
-0.03738870471715927
0.01921961084008217
0.00365880667231977
0.056363992393016815
0.01181138027459383
0.022701891139149666
-0.10588789731264114
-0.025139858946204185
0.01157735101878643
0.06840942800045013
0.005540062207728624
-0.043083555996418
-0.06240498647093773
0.020454492419958115
-0.028401492163538933
-0.05915534496307373
0.012296886183321476
0.04211646318435669
0.07990710437297821
0.0013838467421010137
0.01927696168422699
0.04377700388431549
0.09764616936445236
-0.03302896395325661
0.09323880076408386
-0.04600582271814346
0.0720408707857132
0.07899848371744156
-0.07269953191280365
0.051974017173051834
-0.019398588687181473
-0.018897349014878273
-0.04285662993788719
-0.11887908726930618
-0.0406586192548275
0.01583019830286503
0.04305717349052429
0.033190615475177765
-0.0031279660761356354
-0.05368203669786453
0.12942896783351898
-0.05020817741751671
0.0004795346176251769
0.05714651942253113
-0.01593673788011074
-0.09465398639440536
-0.10462329536676407
-0.06758292764425278
0.0002096412208629772
-0.06733871251344681
0.021574053913354874
-0.08435582369565964
-0.04477129504084587
-0.05165265128016472
-0.008696498349308968
0.03914700448513031
0.006711812224239111
-0.09148696064949036
-0.07585231959819794
0.0537804551422596
0.09555156528949738
-0.09279319643974304
0.105857253074646
-0.08345448970794678
0.024498585611581802
0.13437782227993011
0.06304468214511871
0.04257843643426895
0.06298041343688965
0.033337485045194626
0.04975562542676926
0.19474992156028748
-0.09309222549200058
-0.034631501883268356
0.002622909378260374
0.08708437532186508
-0.08114396035671234
0.015649959444999695
-0.12045850604772568
-0.07463881373405457
-0.009161253459751606
-0.026351597160100937
-0.08683180063962936
-0.026443760842084885
0.09008985012769699
0.049582384526729584
-0.06053027883172035
0.05137921869754791
0.07937771826982498
-0.03997378051280975
-0.03400088846683502
-0.014038130640983582
-0.010388447903096676
0.06336289644241333
-0.0454985536634922
0.06288928538560867
-0.0006305225542746484
0.0911259651184082
-0.012361366301774979
-0.00504565192386508
-0.04475456848740578
0.04131435602903366
-0.10444057732820511
0.020602503791451454
-0.009962325915694237
-0.028861239552497864
-0.047406990081071854
0.08480890095233917
-0.003879908239468932
-0.02709026075899601
-0.009670917876064777
-0.025746218860149384
-0.012128465808928013
0.07020717114210129
0.07191892713308334
-0.050582218915224075
-0.013987652957439423
-0.07759906351566315
0.06175384297966957
0.056104741990566254
0.04794382303953171
0.10611994564533234
0.10134564340114594
-0.1429668664932251
-0.0711577981710434
0.07493022829294205
-0.10577914863824844
-0.10346288233995438
0.07680810242891312
0.050153765827417374
-0.05599205940961838
0.0817098468542099
0.04149134084582329
0.014682726003229618
0.005533864721655846
-0.02708335779607296
-0.0212688148021698
0.03287370502948761
-0.05637852102518082
-0.01043948344886303
-0.12501993775367737
0.07457800954580307
-0.03397805243730545
0.01106160320341587
-0.058629196137189865
0.01174494531005621
-0.026848694309592247
-0.057187486439943314
-0.058806635439395905
-0.02701379731297493
0.03920166194438934
-0.022630009800195694
-0.007484927773475647
0.050373174250125885
0.017338810488581657
-0.005626984406262636
-0.028350170701742172
-0.04212186112999916
-0.06413541734218597
-0.004159396514296532
-0.060267090797424316
0.01750168763101101
0.09515955299139023
0.019353242591023445
-0.07975704967975616
0.05255762115120888
-0.03333881124854088
-0.048544999212026596
0.014938405714929104
0.0852484330534935
-0.00730486772954464
0.012485760264098644
0.021341439336538315
0.0003743580891750753
-0.034178849309682846
-0.005174353718757629
-0.05646807327866554
-0.0013617081567645073
0.09407815337181091
0.15673641860485077
0.07343084365129471
-0.034207142889499664
0.002105429768562317
0.0021195504814386368
-0.04556441307067871
0.053117502480745316
0.04860342666506767
-0.18268531560897827
-0.08823134750127792
0.027958625927567482
0.0012297765351831913
0.012737203389406204
-0.06875958293676376
-0.02998468652367592
-0.1407276839017868
-0.0005334916641004384
0.03764024004340172
0.05154995247721672
-0.04101346433162689
0.008813039399683475
-0.0024104234762489796
0.08092097193002701
-0.08142336457967758
0.04458540678024292
0.003568140557035804
0.0035662916488945484
0.02338762953877449
0.07488410174846649
0.025812534615397453
-0.03047451376914978
-0.014697391539812088
0.08122425526380539
-0.1117766797542572
0.015794718638062477
-0.06889751553535461
-0.023412924259901047
-0.021282635629177094
-0.11180797964334488
0.017200006172060966
0.07637538015842438
-0.0019044511718675494
-0.004536287393420935
-0.027167726308107376
-1.1031293070118409e-05
0.01461462676525116
0.034326400607824326
-0.07663805782794952
-0.10417472571134567
-0.03585970401763916
0.14729762077331543
-0.015991337597370148
-0.08040490001440048
-0.09569138288497925
-0.07085149735212326
-0.06888467073440552
0.05368974804878235
0.08432972431182861
-0.02592111937701702
-0.06670749932527542
-0.03418911248445511
-0.047492511570453644
0.02444368414580822
0.06595660001039505
0.007442362140864134
0.10288628935813904
0.005585920996963978
-0.02574646845459938
-0.015537126921117306
0.04791470617055893
0.007481745909899473
0.04743191599845886
-0.012106383219361305
-0.07003629207611084
0.06415271759033203
-0.08306121081113815
-0.0002269676188006997
0.08539895713329315
0.030796855688095093
0.02082514949142933
0.04972921311855316
0.05103057250380516
0.020061668008565903
-0.062011998146772385
0.02734203450381756
-0.04393809661269188
-0.04849294573068619
-0.026125645264983177
-0.14383485913276672
-0.0020370492711663246
-0.005505676381289959
-0.028916679322719574
0.015563699416816235
-0.0841899961233139
-0.06577003002166748
0.0444570928812027
-0.006594919599592686
0.03694935515522957
0.04847807437181473
-0.06305563449859619
0.017787989228963852
-0.06478159129619598
-0.05422825738787651
0.1003885418176651
-0.0877404510974884
0.043811894953250885
-0.04173818230628967
-0.10447542369365692
0.07354006171226501
-0.001838250900618732
0.036156609654426575
0.0839422196149826
0.20086055994033813
0.08148082345724106
0.11281832307577133
-0.09570308774709702
-0.026857048273086548
0.04723358526825905
-0.07035098969936371
0.025614295154809952
-0.018645040690898895
-0.0548132099211216
0.10345416516065598
0.14009065926074982
-0.021419189870357513
0.07267225533723831
-0.03134411573410034
-0.004713783506304026
0.0007600072422064841
-0.017488067969679832
-0.06461046636104584
-0.053721778094768524
-0.03555242717266083
-0.03410578891634941
-0.0058403643779456615
0.09676077961921692
-0.05409068614244461
-0.04308730736374855
0.23072656989097595
0.031065840274095535
-0.0528840608894825
-0.02357071451842785
0.010108823888003826
-0.005004690494388342
0.01369631290435791
0.034943483769893646
0.01883109100162983
0.026383990421891212
-0.04041517898440361
0.038758598268032074
0.07120437175035477
0.03961038962006569
0.031589142978191376
-0.015585735440254211
-0.02822026051580906
-0.04152188450098038
0.14281362295150757
-0.055034089833498
0.048894383013248444
-0.18854603171348572
0.08087793737649918
-0.03542044758796692
-0.015535684302449226
0.059400737285614014
0.06737779080867767
0.09924176335334778
0.043919891119003296
-0.004616007208824158
-0.021986352279782295
0.034784961491823196
0.026805486530065536
-0.14174532890319824
0.03907185047864914
-0.06747325509786606
-0.06659319996833801
0.12671908736228943
-0.029400866478681564
-0.018627559766173363
-0.0419735312461853
0.023834513500332832
-0.09712338447570801
0.05037485435605049
0.007322806399315596
-0.017197880893945694
0.03977697342634201
0.030150849372148514
-0.15138447284698486
0.062454842031002045
0.045827824622392654
-0.07581137865781784
-0.01564057357609272
-0.007229695096611977
0.04241224750876427
-0.07159139961004257
-0.0172104574739933
-0.028510862961411476
0.036910541355609894
-0.0339864157140255
-0.004562949296087027
-0.05043159797787666
-0.028439966961741447
0.014170462265610695
-0.08656390756368637
0.0325373113155365
-0.17915783822536469
-0.04828814044594765
0.0160712581127882
0.03218386322259903
0.0973728746175766
-0.06626484543085098
-0.013653932139277458
-0.01725616119801998
-0.009485295042395592
0.052409395575523376
-0.02938455529510975
0.04471474885940552
-0.020815791562199593
0.0007799049490131438
-0.055479202419519424
-0.05428033322095871
-0.08352860063314438
0.01641114428639412
0.05945302173495293
0.0851045697927475
-0.01739569939672947
0.06077525019645691
-0.0009890120709314942
-0.037729598581790924
-0.051116056740283966
0.029418084770441055
-0.06640123575925827
0.02388923056423664
-0.07624789327383041
0.016315270215272903
0.10162125527858734
0.028883647173643112
-0.043113816529512405
-0.011880245991051197
0.12797187268733978
-0.039681125432252884
0.007433648221194744
-0.10666568577289581
0.0443001314997673
0.028187774121761322
-0.03899205103516579
-0.10040006041526794
-0.009379953145980835
0.00035531294997781515
-0.00906554888933897
0.012564824894070625
0.03028247319161892
0.012078261002898216
-0.05279142037034035
-0.06494441628456116
-0.03363398090004921
-0.059089772403240204
0.010951591655611992
-0.02814038097858429
0.008678595535457134
0.007540990598499775
0.08577445894479752
-0.05615277960896492
0.05238789692521095
0.052540235221385956
-0.06546136736869812
0.052924349904060364
-0.03636160120368004
-0.03294317424297333
-0.03238243982195854
-0.004575632978230715
0.03932705894112587
0.06325839459896088
-0.06251420080661774
-0.009152189828455448
-0.038261450827121735
0.13291358947753906
0.1380501091480255
-0.04470561072230339
0.013780781999230385
0.027506887912750244
-0.054447241127491
0.18343015015125275
-0.007251766975969076
0.0477437749505043
0.05562596768140793
0.052511975169181824
0.002984380815178156
0.023861944675445557
0.036071449518203735
0.018792446702718735
0.00815216638147831
-0.006314251571893692
-0.1264447569847107
0.020432954654097557
-0.06029469147324562
-0.024975843727588654
-0.09878279268741608
-0.028751004487276077
-0.03504078835248947
-0.15081854164600372
-0.021702833473682404
-0.027791544795036316
0.02884650230407715
-0.002862905617803335
-0.056845542043447495
0.05768189951777458
0.00503240991383791
0.0809783935546875
-0.013898879289627075
0.06629426032304764
-0.009351200424134731
-0.0960601344704628
0.07318869233131409
0.07704394310712814
0.03925119712948799
-0.05144812911748886
-0.1019618809223175
-0.04194284602999687
-0.002318860264495015
0.02526962384581566
0.03861701861023903
-0.06186360493302345
-0.05469678342342377
0.043373994529247284
0.0423586443066597
0.09570557624101639
-0.08388135582208633
-0.05221956968307495
0.07270058989524841
-0.06015912815928459
-0.06236811727285385
0.022003306075930595
-0.030714360997080803
0.10044968128204346
-0.006594843231141567
0.0390448197722435
0.02070585824549198
-0.06596340239048004
-0.027183402329683304
-0.050161462277173996
-0.07244634628295898
-0.1408597230911255
0.04922111704945564
0.007441508583724499
-0.004742708522826433
-0.01989191398024559
-0.03920302540063858
0.11289332807064056
-0.019442152231931686
-0.03955918923020363
-0.04298128932714462
0.006852881982922554
-0.04304772615432739
-0.07602392882108688
-0.02961105667054653
-0.04344290867447853
0.054543063044548035
0.04407186061143875
0.0840621218085289
0.08362264931201935
0.024234134703874588
0.06620887666940689
0.01984078623354435
0.12052354961633682
-0.06870118528604507
-0.05505554378032684
0.07339087873697281
0.020633889362215996
-0.03218027204275131
-0.003952849190682173
-0.05986085161566734
-0.08049321174621582
0.047439299523830414
-0.015072262845933437
0.15138806402683258
-0.02338462881743908
-0.06021692603826523
-0.006571246776729822
-0.022808419540524483
0.0011435199994593859
-0.009534462355077267
0.05949638783931732
-0.07342609018087387
-0.06561677157878876
0.10457966476678848
0.1805536299943924
0.00045096923713572323
0.04781504347920418
0.014986248686909676
0.06621984392404556
-0.09731834381818771
0.08228988200426102
-0.0368148572742939
-0.08862607926130295
0.12285052239894867
0.004033173434436321
0.029659762978553772
-0.02630663476884365
0.031647343188524246
-0.1982635259628296
0.03641431778669357
-0.1498192399740219
-0.02444612607359886
-0.04526365175843239
-0.08367133885622025
0.0681038424372673
-0.0026737297885119915
-0.0192246176302433
0.052665866911411285
0.040566131472587585
0.06678923964500427
-0.038119278848171234
-0.06781095266342163
0.03797811642289162
0.0381467342376709
0.034703075885772705
0.13517388701438904
-0.01939033716917038
-0.041153352707624435
0.012820363976061344
0.05284271389245987
0.13228300213813782
0.009558581747114658
-0.036248113960027695
-0.021439559757709503
-0.016734275966882706
-0.02537887543439865
-0.15807044506072998
-0.05343114212155342
-0.02084655500948429
0.04894415661692619
-0.14208641648292542
0.026649875566363335
-0.013999572955071926
-0.13437554240226746
0.04167100042104721
0.05703406780958176
0.008096159435808659
-0.026655148714780807
0.04520665109157562
0.028326276689767838
-0.0465366505086422
0.0680980309844017
-0.07671297341585159
0.11285897344350815
0.14060114324092865
-0.048839930444955826
0.0578768253326416
-0.021429119631648064
-0.08936923742294312
0.03888513892889023
0.020592903718352318
-0.010297296568751335
-0.1466052234172821
-0.04808611422777176
-0.002135713119059801
-0.02178608998656273
-0.08222143352031708
0.1336747705936432
0.0036071136128157377
-0.006189168896526098
-0.13044342398643494
0.010666384361684322
-0.08924506604671478
0.06884133070707321
-0.10858530551195145
-0.1377047598361969
-0.0309943538159132
0.023845059797167778
0.012547401711344719
0.01835492253303528
-0.020694486796855927
0.1311763972043991
-0.10866626352071762
0.025803254917263985
-0.009373091161251068
-0.16765934228897095
0.015817515552043915
-0.04448547214269638
-0.05379096791148186
0.04307537525892258
0.03997737541794777
-0.03772252798080444
-0.14219944179058075
-0.03891685977578163
0.041225865483284
0.1505473107099533
0.1411338895559311
0.10824231803417206
-0.044369131326675415
-0.04349856078624725
0.0838843286037445
0.013578061945736408
-0.0727027878165245
0.09021895378828049
-0.002944420790299773
-0.026334205642342567
0.01067525427788496
0.0573376826941967
0.08599002659320831
-0.07208199054002762
-0.0010550541337579489
0.02250569500029087
-0.023546315729618073
-0.054192204028367996
0.016674542799592018
0.05848380923271179
0.061333730816841125
0.030665278434753418
0.06865932047367096
-0.005749518517404795
0.017965322360396385
0.036176662892103195
-0.11011461168527603
-0.024440757930278778
0.011195258237421513
-0.025725290179252625
-0.010078724473714828
-0.03869279474020004
0.07208427786827087
0.002262442372739315
0.018096307292580605
0.16397248208522797
0.0633331909775734
0.05016547441482544
-0.03638317808508873
0.027061572298407555
0.015060095116496086
-0.018111636862158775
-0.09793836623430252
0.001667581032961607
0.028765562921762466
0.024332132190465927
0.03786567598581314
-0.040432244539260864
0.019260050728917122
0.04440676420927048
0.039339084178209305
-0.022870466113090515
-0.07001671195030212
0.08860806375741959
-0.01595192588865757
-0.0318952277302742
0.018320346251130104
0.04615972191095352
-0.0805603563785553
-0.10807828605175018
0.024256408214569092
-0.008549049496650696
-0.003235269570723176
0.020139332860708237
-0.10532829910516739
-0.0021477187983691692
0.13053618371486664
-0.03541405126452446
-0.04512781277298927
0.030365964397788048
-0.020666047930717468
0.007446101866662502
0.051268309354782104
0.0074555398896336555
-0.07570280879735947
-0.0007390822283923626
-0.023768886923789978
-0.13199062645435333
0.055135734379291534
-0.02219817042350769
-0.047263242304325104
-0.0013452812563627958
-0.026031291112303734
-0.11924759298563004
0.0793713703751564
-0.04102253168821335
-0.04711213707923889
-0.048863738775253296
0.07477770000696182
0.08328179270029068
-0.027371391654014587
-0.004934570752084255
-0.020181097090244293
-0.017843181267380714
0.0006447936175391078
0.009336354210972786
-0.08211014419794083
0.026295579969882965
-0.06170191243290901
-0.05243125557899475
0.005329492036253214
-0.14029137790203094
0.007995979860424995
-0.05418921262025833
0.010348009876906872
0.06359639763832092
-0.0813453271985054
0.013222591951489449
0.08870245516300201
-0.018609393388032913
-0.04523593932390213
0.0022220632527023554
-0.0046863858588039875
0.02121717296540737
0.03524193540215492
-0.11345242708921432
0.052527617663145065
-0.0060645705088973045
0.06773031502962112
-0.06716722995042801
0.04409532994031906
-0.09662751108407974
0.08771122246980667
-0.009088943712413311
0.003990729805082083
-0.01711190678179264
0.07540249824523926
-0.10118437558412552
0.052822910249233246
-0.01919960230588913
0.005412788596004248
0.10335582494735718
0.04600765183568001
-0.056699708104133606
-0.09202930331230164
0.08925898373126984
-0.05188250169157982
-0.0015763278352096677
-0.10930740088224411
0.04246606305241585
0.008222024887800217
-0.016937585547566414
-0.02784878760576248
-0.023221127688884735
0.062355443835258484
-0.0007234710501506925
-0.12417034804821014
-0.12737825512886047
-0.08473590761423111
0.07510068267583847
0.03653845191001892
0.045940034091472626
0.18731188774108887
-0.0370359793305397
0.025176001712679863
-0.08484552055597305
-0.04108619689941406
-0.12228454649448395
-0.021846966817975044
0.044171642512083054
-0.09612568467855453
0.02712731808423996
0.06085165590047836
-0.08762829750776291
-0.0007676977547816932
-0.011565571650862694
0.05642334371805191
-0.04487362876534462
0.12056683748960495
-0.12282466143369675
-0.0039297183975577354
0.006464223377406597
-0.05113314464688301
-0.12848439812660217
-0.07849033921957016
-0.10208551585674286
-0.052252914756536484
0.015548844821751118
0.10213723033666611
-0.047083787620067596
-0.05878319963812828
-0.030297914519906044
0.04040345177054405
0.007626180537045002
-0.01920340396463871
0.127974733710289
-0.017253221943974495
0.1426006406545639
-0.02923586405813694
0.08687897771596909
0.04876533895730972
0.043873272836208344
0.012545693665742874
-0.0117090018466115
0.1072540357708931
0.1240425556898117
0.04829660803079605
0.026509078219532967
0.1476784646511078
-0.07454831153154373
-0.020728066563606262
-0.010645965114235878
0.05615755170583725
0.04998761788010597
0.07735472917556763
0.08987525850534439
-0.008963936008512974
-0.06152809038758278
-0.042088791728019714
0.09029849618673325
0.058593589812517166
-0.048939891159534454
0.03755161538720131
-0.016305482015013695
0.09045279771089554
0.03763778135180473
-0.13348187506198883
0.13714687526226044
-0.08357121050357819
0.005203010514378548
-0.051205798983573914
0.09523582458496094
0.02504679374396801
-0.01643594168126583
-0.0950046256184578
0.016959605738520622
-0.06583090871572495
0.1026989296078682
0.019164126366376877
-0.014673477038741112
-0.03440003842115402
-0.0009848799090832472
-0.032985858619213104
0.09683727473020554
-0.05578300356864929
0.06802522391080856
0.012484526261687279
0.019600877538323402
-0.013392524793744087
0.07175150513648987
-0.09285716712474823
-0.1244787722826004
-0.06388039886951447
-0.055509310215711594
-0.012762806378304958
-0.08734992146492004
-0.13322687149047852
-0.13843154907226562
0.030132535845041275
-0.060008980333805084
-0.08428449928760529
0.010503062047064304
0.10992827266454697
-0.14026440680027008
-0.038599349558353424
0.052417218685150146
0.10722064226865768
0.009648521430790424
0.11732906848192215
0.011263152584433556
-0.18684929609298706
0.0817156657576561
0.015091572888195515
-0.1742457002401352
0.04260668903589249
-0.02594577707350254
0.024735545739531517
-0.0461287796497345
0.17421478033065796
-0.010653546079993248
-0.05320839211344719
0.0940619558095932
0.020246053114533424
0.08924572914838791
-0.05991389974951744
-0.1031414046883583
-0.12383512407541275
-0.04732475057244301
0.025372609496116638
-0.059967976063489914
-0.046128734946250916
0.12200812250375748
-0.06890769302845001
0.005938857793807983
0.0358484722673893
-0.053639523684978485
0.04371073469519615
-0.07905101776123047
0.035686831921339035
-0.04980709031224251
-0.09542438387870789
-0.09968125075101852
-0.02207195572555065
-0.0452335849404335
0.03402867168188095
-0.06714171916246414
-0.03783903270959854
-0.016016677021980286
-0.12287983298301697
-0.05382537841796875
-0.027159977704286575
-0.11649785190820694
0.007675785105675459
-0.08154799044132233
-0.013721966184675694
-0.047939036041498184
-0.031176410615444183
0.03785283863544464
-0.03839709237217903
-0.048845063894987106
0.051157187670469284
-0.07602742314338684
-0.14308467507362366
-0.01586652174592018
-0.11031602323055267
-0.08619258552789688
-0.06615307927131653
-0.07794415950775146
-0.11884667724370956
-0.02930305339396
-0.06475871056318283
0.03644619882106781
0.12547121942043304
-0.14772404730319977
0.04951195418834686
-0.11267074197530746
0.11204793304204941
-0.0007534993346780539
-0.029232192784547806
-0.06820006668567657
0.09375863522291183
0.016335031017661095
0.09875430911779404
-0.16524168848991394
0.11486835032701492
0.16870279610157013
0.040999043732881546
0.0041222721338272095
-0.09416496753692627
0.012017297558486462
-0.23011057078838348
-0.06494808942079544
0.149519681930542
0.21211721003055573
-0.0007973911124281585
0.02952323667705059
0.1189492866396904
0.17347170412540436
0.037250831723213196
0.04671121761202812
0.08379144221544266
-0.020296474918723106
0.0031915721483528614
0.014650469645857811
-0.044005535542964935
-0.003493999131023884
0.07214058190584183
0.01817895844578743
0.1579553633928299
-0.11026127636432648
0.06153286248445511
0.04816072806715965
-0.13873237371444702
-0.09339509159326553
-0.02929096110165119
-0.02940424531698227
-0.2882469594478607
0.06781850755214691
-0.10100186616182327
0.1376543939113617
0.05714992433786392
0.0140052055940032
0.08304201811552048
0.04369697347283363
0.11699160188436508
-0.07143549621105194
0.0177839957177639
0.02545233629643917
0.005379927810281515
0.06466741859912872
-0.04266174137592316
-0.052731797099113464
0.04752629995346069
0.0739569291472435
-0.021919913589954376
0.030121134594082832
-0.1412203013896942
0.1444161981344223
0.23074394464492798
-0.10861050337553024
0.1606699675321579
0.016094570979475975
0.060508277267217636
0.11144054681062698
-0.2214132696390152
0.031602613627910614
0.018615704029798508
0.08744847774505615
0.001133526093326509
-0.013776319101452827
0.053810037672519684
0.0002892322081606835
0.004841219633817673
-0.06115774065256119
0.05203454941511154
-0.021149763837456703
-0.09633844345808029
-0.003522222861647606
0.04652801901102066
0.005524610169231892
0.022452035918831825
-0.04360506683588028
0.014378638938069344
-0.016847867518663406
-0.0376407615840435
-0.019376331940293312
0.003916762303560972
0.03841627016663551
-0.012790685519576073
-0.01052065659314394
0.006119323894381523
-0.06385734677314758
-0.08436120301485062
0.023488085716962814
0.030110059306025505
-0.057180628180503845
-0.03141546621918678
0.056950341910123825
-0.025866294279694557
-0.014428572729229927
0.03478226065635681
-0.006443324498832226
-0.05274396762251854
0.020335424691438675
0.03967936709523201
0.04119739681482315
-0.004667698405683041
0.049784205853939056
0.060686808079481125
0.045061834156513214
-0.0074685560539364815
0.02396441251039505
0.001536787603981793
0.008448348380625248
0.07881353795528412
-0.07716138660907745
-0.008347595110535622
0.014817653223872185
-0.008742750622332096
0.01614661142230034
-0.022763270884752274
-0.034059539437294006
0.030390799045562744
0.06469901651144028
0.05260428786277771
0.05527028813958168
-0.02478024549782276
0.05010359734296799
-0.0954255536198616
0.032395608723163605
0.02640702947974205
-0.019200224429368973
0.0736052393913269
0.002404547529295087
0.057528942823410034
0.014436539262533188
-0.0021239547058939934
0.0817892774939537
0.02010803110897541
0.004506862722337246
0.0030227568931877613
0.0013114835601300001
0.0008554173400625587
0.03330923989415169
0.049981746822595596
-0.033588144928216934
0.0027740965597331524
-0.003115755971521139
-0.029558591544628143
0.05083931237459183
0.03457203879952431
-0.037570659071207047
0.013674774207174778
0.030702482908964157
0.006496142130345106
0.0029918295331299305
-0.047310348600149155
-0.02358316443860531
-0.0018378834938630462
0.0117116030305624
-0.05493707209825516
0.0318199098110199
0.01905047334730625
-0.06094970554113388
-0.028291955590248108
-0.019455289468169212
0.06425534188747406
-0.0324745737016201
-0.05681654065847397
-0.017369505017995834
0.09538378566503525
-0.02624904364347458
0.006900825537741184
0.031153276562690735
0.0005008071893826127
0.04808041825890541
0.0688418373465538
-0.04550527408719063
-0.014510826207697392
-0.00745884096249938
-0.08120691776275635
0.0119637381285429
-0.0017856999766081572
-0.08823356032371521
-0.030383432283997536
0.013678374700248241
-0.0035168977919965982
0.017018647864460945
-0.02191777527332306
-0.029939834028482437
-0.010953224264085293
-0.03280378133058548
-0.023813234642148018
-0.06867562979459763
-0.08120157569646835
-0.01724410057067871
0.06058468669652939
0.05965559929609299
-0.01397418137639761
0.06340987235307693
0.05386257544159889
-0.00042456676601432264
-0.05547734349966049
-0.05010924115777016
0.0598323717713356
-0.10011959820985794
-0.03669155016541481
0.0196242518723011
-0.13083824515342712
0.12355067580938339
-0.07592358440160751
0.06477159261703491
-0.04445783793926239
-0.018514500930905342
0.03802895545959473
0.12142843008041382
-0.01894271932542324
-0.007816005498170853
0.06745343655347824
-0.012459937483072281
-0.13922613859176636
0.04099049046635628
0.03743969649076462
-0.05166114866733551
-0.03807747736573219
0.1516650766134262
0.19065450131893158
0.049997229129076004
-0.09372265636920929
0.03453255817294121
-0.12498308718204498
0.12371157854795456
0.0451790876686573
0.03736279532313347
0.02465897612273693
-0.10736843198537827
-0.029825296252965927
0.04770776629447937
-0.014369494281709194
0.03724243491888046
0.04818856343626976
0.09507285803556442
-0.11833544820547104
0.06996230781078339
-0.060940325260162354
0.05713692307472229
-0.04823807626962662
-0.007323212921619415
-0.045445866882801056
0.0477750338613987
-0.09671942889690399
0.014878090471029282
-0.11189435422420502
0.13420027494430542
0.04118555039167404
-0.09694832563400269
-0.020342709496617317
0.05068222060799599
-0.032943323254585266
0.03037535771727562
0.10071804374456406
-0.10223772376775742
0.035145290195941925
-0.025783147662878036
0.15388372540473938
0.020227644592523575
0.06128169968724251
0.058926813304424286
0.03235729783773422
0.007369800936430693
0.04603305459022522
0.004654369782656431
-0.0519477017223835
-0.09945206344127655
-0.08927269279956818
0.002055784221738577
-0.006874554790556431
-0.014814863912761211
-0.026716694235801697
-0.015336361713707447
-0.009317038580775261
0.048948585987091064
-0.14512859284877777
-0.05394558608531952
0.030242105945944786
0.01460087951272726
-0.10699106007814407
0.02581622265279293
0.02506990171968937
-0.009105624631047249
-0.030079076066613197
-0.12437529861927032
0.029855092987418175
0.028603726997971535
-0.021019283682107925
-0.02214781753718853
0.01070256344974041
0.056468378752470016
0.011509109288454056
0.09789612144231796
0.004995942115783691
-0.018445663154125214
-0.06591038405895233
-0.056886136531829834
-0.05810241401195526
-0.08680295199155807
-0.05381549149751663
-0.02553391084074974
-0.03482881188392639
0.0052079977467656136
0.04495903104543686
0.023470358923077583
-0.043945398181676865
0.06997829675674438
-0.1277625411748886
0.013718710280954838
-0.02862323820590973
-0.07028703391551971
-0.07399515062570572
0.004705188330262899
-0.0843615010380745
-0.021550916135311127
0.06344036757946014
-0.13759471476078033
-0.07041473686695099
0.09193135052919388
0.13879676163196564
-0.03205660358071327
0.041704293340444565
-0.03069407120347023
0.07326281815767288
-0.011805624701082706
0.009325888007879257
-0.024440156295895576
-0.07482752948999405
0.03049941174685955
0.03535043075680733
-0.012497165240347385
-0.005890341941267252
-0.023434624075889587
-0.004112337250262499
0.03769613057374954
-0.008832864463329315
-0.03722600266337395
-0.12300067394971848
-0.03300516679883003
-0.16595254838466644
0.0336688831448555
0.031948089599609375
-0.002912478754296899
-0.009460986591875553
-0.012547626160085201
-0.0654691681265831
0.020308440551161766
0.046613048762083054
0.05525017902255058
0.15891285240650177
0.0031976429745554924
-0.12481056898832321
0.018163293600082397
0.05580293759703636
-0.05424473434686661
0.0546906404197216
0.03257756307721138
0.040248528122901917
0.03912755474448204
0.013380656018853188
-0.006388450041413307
0.031088709831237793
0.021199235692620277
-0.009468097239732742
0.008502034470438957
-0.06642009317874908
0.06808217614889145
-0.10313399881124496
-0.0731864720582962
-0.004142088815569878
0.005404687952250242
-0.009895307011902332
-0.09100359678268433
-0.03586456552147865
0.016425661742687225
-0.0045651341788470745
0.03836256265640259
-0.030516277998685837
-0.03271263837814331
0.039372459053993225
-0.004478437826037407
0.007476265076547861
-0.062493305653333664
-0.07156341522932053
-0.016595445573329926
-0.08757387846708298
0.016872936859726906
0.1109040305018425
-0.025181597098708153
-0.002159014344215393
-0.023384258151054382
0.13214805722236633
-0.03459005057811737
0.016140159219503403
-0.007643094286322594
0.017505234107375145
0.022950617596507072
0.04283794388175011
-0.03487071022391319
-0.026476046070456505
0.06243068352341652
-0.015543765388429165
0.005342560354620218
0.10813829302787781
-0.12597410380840302
0.02496466226875782
-0.12422402948141098
-0.024744000285863876
-0.04536053165793419
0.06519418209791183
0.049105048179626465
-0.04886993393301964
0.06376051157712936
-0.08527969568967819
0.04020724073052406
0.013123119249939919
0.07250308245420456
-0.06209482252597809
-0.06444188207387924
0.05055364593863487
-0.012335378676652908
0.025892769917845726
0.11239975690841675
0.053060825914144516
-0.03399189934134483
0.0395723432302475
-0.08405594527721405
-0.029558835551142693
-0.05996285751461983
-0.03567517176270485
0.21481509506702423
-0.07838835567235947
-0.051813479512929916
-0.05258508399128914
-0.04267571493983269
-0.021807029843330383
0.06772717088460922
-0.018578747287392616
-0.08125577121973038
0.02510020136833191
0.04757073521614075
0.08503342419862747
0.028900129720568657
0.018491026014089584
-0.033949241042137146
0.057067230343818665
0.11777417361736298
0.036578260362148285
-0.08435355126857758
-0.03903718292713165
-0.12568114697933197
-0.00835489109158516
0.03843420743942261
0.0592120960354805
0.014906189404428005
-0.022313158959150314
0.04369911178946495
0.14924773573875427
0.07296700775623322
0.0923331081867218
0.023776955902576447
0.0314180813729763
0.008537454530596733
0.051021233201026917
0.02326657995581627
-0.11190396547317505
0.0785631388425827
0.03298235312104225
0.07517463713884354
-0.11156836897134781
-0.08666258305311203
-0.06686036288738251
-0.037031494081020355
0.031166458502411842
-0.07677478343248367
0.08536762744188309
0.0504780039191246
-0.07676384598016739
-0.030933551490306854
-0.01618243381381035
0.05864403396844864
-0.0883914902806282
-0.008393294177949429
0.1536073386669159
-0.10888725519180298
0.07227638363838196
0.09381008893251419
0.040560584515333176
-0.07045326381921768
-0.13240426778793335
-0.012678165920078754
0.011006424203515053
0.11198655515909195
0.06868355721235275
-0.1332506239414215
0.05340304225683212
-0.020148424431681633
-0.014622515067458153
0.07847477495670319
-0.018858376890420914
-0.03069986402988434
0.14051775634288788
0.004216256085783243
-0.011606546118855476
-0.05650538578629494
-0.09264203906059265
0.04099459946155548
-0.0007033206056803465
6.328468589344993e-05
0.03895794227719307
0.043619200587272644
0.08208867907524109
0.09062351286411285
-0.024194445461034775
0.04202166944742203
0.0564899817109108
0.01273485366255045
0.20477497577667236
-0.08994141221046448
-0.12994034588336945
-0.08843478560447693
-0.09419304877519608
-0.027486441656947136
-0.012651597149670124
-0.007301175966858864
-0.16964444518089294
0.03706152364611626
-0.09619712084531784
-0.073163703083992
-0.04851177707314491
0.0343189463019371
0.05256549268960953
0.051046233624219894
-0.1940309852361679
0.11003502458333969
-0.03811953589320183
-0.019926471635699272
0.05528906360268593
-0.06802266836166382
-0.017682233825325966
-0.008249793201684952
-0.022351965308189392
-0.1093253567814827
0.05917056277394295
0.0785500705242157
-0.051600050181150436
0.06544288992881775
-0.0823405534029007
-0.019768059253692627
-0.14090602099895477
0.019746826961636543
0.0026664198376238346
0.12914715707302094
-0.0163225457072258
0.00436438899487257
0.011231107637286186
-0.12379895895719528
0.06140487641096115
-0.1754705011844635
0.031458597630262375
0.030698556452989578
-0.07658049464225769
0.02652318775653839
-0.04683736339211464
0.01790340431034565
-0.03765306621789932
-0.05661550164222717
0.026175079867243767
-0.12062448263168335
0.027503710240125656
0.10123793035745621
-0.009359358809888363
-0.09519562870264053
-0.07984280586242676
0.0043886746279895306
-0.030425062403082848
-0.009992639534175396
-0.045201197266578674
-0.03331940248608589
0.10833980143070221
0.037371937185525894
-0.050160665065050125
0.08006548136472702
0.005812215153127909
0.011111456900835037
-0.02072317525744438
0.029289619997143745
0.12852376699447632
0.03808608651161194
0.09676690399646759
0.04795696958899498
-0.041478145867586136
-0.00021841962006874382
0.019174255430698395
0.12052653729915619
-0.017233463004231453
-0.036740079522132874
-0.127837136387825
-0.04938041418790817
0.0620868094265461
0.014753520488739014
0.1911357194185257
-0.009815466590225697
-0.11332489550113678
-0.06043471023440361
-0.021049965173006058
0.006087969057261944
0.006534464657306671
-0.03374968841671944
-0.07616695761680603
-0.03401528298854828
0.06745702028274536
0.00011004419502569363
-0.055120743811130524
0.05274621769785881
-0.002183582866564393
0.022622423246502876
-0.0004329479415901005
0.18059700727462769
-0.07633773237466812
0.00643334724009037
-0.008912869729101658
-0.007787561509758234
-0.020804885774850845
-0.025826353579759598
-0.048833202570676804
-0.10217804461717606
-0.1385265290737152
0.04077005758881569
-0.05652178078889847
-0.02680996060371399
-0.1256307065486908
-0.052279435098171234
-0.005729902070015669
0.12774088978767395
-0.11083916574716568
0.021172979846596718
0.028516925871372223
0.04561103135347366
0.03526918590068817
-0.15883569419384003
-0.03701120615005493
-0.06587080657482147
-0.09875991195440292
-0.13100315630435944
0.22132785618305206
-0.006067145150154829
0.010491925291717052
-0.048146553337574005
-0.08100999891757965
-0.04094225540757179
0.03228447586297989
0.011441843584179878
-0.0653257891535759
0.009960928000509739
-0.022052669897675514
-0.021974433213472366
-0.013264098204672337
0.026692640036344528
-0.06410377472639084
-0.07165733724832535
0.03315110504627228
0.014525070786476135
-0.0042723845690488815
0.0038703358732163906
-0.022737205028533936
0.050481632351875305
-0.051109328866004944
0.05026009678840637
-0.0038779512979090214
0.20783750712871552
0.07084499299526215
0.07670484483242035
0.06629694998264313
-0.05518849194049835
0.1114598736166954
-0.02554032951593399
0.04232615604996681
-0.008716346696019173
-0.06654392927885056
0.02219352126121521
-0.0019366637570783496
-0.0359153226017952
-0.01915835030376911
0.052872270345687866
-0.014452234841883183
0.02492494322359562
-0.059879641979932785
0.0018099272856488824
0.04492997005581856
0.08462230116128922
-0.06593139469623566
0.047237373888492584
-0.09364205598831177
-0.03883983939886093
-0.02761038951575756
-0.0175783671438694
-0.01902460679411888
0.013040323741734028
-0.02807079814374447
0.14544208347797394
0.001782692619599402
0.14365415275096893
-0.023944616317749023
-0.09036963433027267
-0.10910126566886902
-0.10646955668926239
0.0872717872262001
0.0002559446729719639
0.003961080685257912
0.05793022736907005
-0.1320011466741562
-0.032466642558574677
0.18668551743030548
0.08832032978534698
-0.031142856925725937
0.0756409540772438
-0.006904290523380041
-0.20591264963150024
0.10686992853879929
-0.017179276794195175
-0.146922305226326
0.09545666724443436
0.006945529021322727
0.03605126962065697
0.006767852697521448
-0.05582122504711151
0.008495195768773556
0.017706606537103653
-0.1750526875257492
-0.04085579141974449
-0.028916651383042336
-0.15469449758529663
0.03854696452617645
0.07681210339069366
-0.11588635295629501
0.06526269018650055
-0.03373400494456291
6.057970676920377e-05
-0.03530532866716385
-0.046378880739212036
0.06201516464352608
0.07132233679294586
0.07035303115844727
-0.002901656087487936
0.005456160753965378
-0.01898237317800522
0.024170050397515297
0.07146130502223969
-0.014580780640244484
0.03486677631735802
0.04319022223353386
0.057650502771139145
0.05938326194882393
-0.06000462919473648
-0.025178177282214165
0.002561749191954732
0.01627587340772152
-0.06754732877016068
-0.039193615317344666
-0.04753756523132324
-0.0870342031121254
0.15531626343727112
0.06337926536798477
0.03246806934475899
0.008096281439065933
0.07545497268438339
0.010582965798676014
-0.054750360548496246
0.010789075866341591
-0.043368056416511536
0.14152708649635315
0.07928193360567093
0.14082445204257965
-0.06993676722049713
-0.04287341609597206
-0.14864270389080048
-0.041486673057079315
-0.02708435244858265
-0.1322678178548813
-0.013823343440890312
-0.08602175861597061
0.035410404205322266
0.01996859535574913
0.0307321734726429
0.057994525879621506
0.12548038363456726
0.008299849927425385
0.019513489678502083
0.004251583945006132
0.060813967138528824
0.04847948998212814
-0.04650232940912247
0.08603029698133469
-0.13637907803058624
0.003542130347341299
0.036045629531145096
0.0439542718231678
0.010848813690245152
-0.05575309321284294
0.011219367384910583
0.024723192676901817
0.14679519832134247
-0.08058126270771027
0.08252906799316406
-0.02836848795413971
0.08403806388378143
-0.051430877298116684
0.09019032120704651
-0.05178958550095558
0.0463225394487381
0.02333064377307892
-0.05217297375202179
-0.01073806919157505
-0.04175965487957001
0.10540468990802765
-0.058335669338703156
-0.1754990518093109
0.029903385788202286
-0.05232299119234085
0.07565849274396896
-0.05890010669827461
-0.04208950325846672
-0.010099304839968681
-0.07772451639175415
0.03955011069774628
0.1311202049255371
0.0925508365035057
-0.19077740609645844
0.04825718328356743
-0.022762494161725044
-0.028596388176083565
-0.0007405068608932197
0.0552346408367157
0.006709075532853603
-0.11687774956226349
0.009764405898749828
0.017161553725600243
-0.1106100082397461
-0.11209258437156677
0.014054493978619576
-0.12745709717273712
-0.030595017597079277
-0.2327975034713745
-0.034709952771663666
-0.08759386837482452
0.0015850106719881296
0.1260504424571991
-0.009862027131021023
-0.010478070937097073
-0.17027339339256287
0.053781215101480484
0.04478137195110321
0.09478218108415604
0.0954338014125824
-0.09265553206205368
-0.037452735006809235
-0.17982789874076843
-0.03197683393955231
0.15905719995498657
0.06806153059005737
-0.04062691330909729
0.028997724875807762
-3.115918661933392e-05
0.0454581156373024
0.11604953557252884
0.09300250560045242
-0.10100961476564407
-0.040194638073444366
0.0961315706372261
-0.0036902467254549265
-0.00565790431573987
-0.0910254418849945
0.009419182315468788
-0.3032034933567047
0.07913153618574142
-0.022428665310144424
-0.014642952010035515
0.05830119177699089
-0.0010050628334283829
0.008585027419030666
0.01934950426220894
0.12797360122203827
0.167495459318161
0.03877953067421913
0.11273360997438431
-0.06111960485577583
0.12915098667144775
0.025653567165136337
-0.055804092437028885
-0.11642628908157349
0.11316050589084625
-0.023215284571051598
-0.02414669468998909
-0.020386740565299988
-0.06464901566505432
0.20297491550445557
0.043277040123939514
0.07379867881536484
0.12906590104103088
0.13593125343322754
-0.28470197319984436
-0.0044066715054214
-0.13634200394153595
0.15078595280647278
0.034422870725393295
0.1584436446428299
-0.0406048558652401
-0.0027161287143826485
0.04354200139641762
0.004440455697476864
0.17513549327850342
0.04411068931221962
0.06625279039144516
0.06337077915668488
0.1298539936542511
0.07960881292819977
-0.1587257832288742
0.0019550053402781487
-0.05140336975455284
-0.007733266334980726
-0.006894879043102264
-0.052160635590553284
-0.008013471961021423
-0.11576235294342041
0.01131469290703535
-0.2824733853340149
-0.01365403551608324
-0.04018707200884819
-0.05241989716887474
0.07288587838411331
-0.1846637725830078
0.057014718651771545
-0.046627577394247055
0.04210406541824341
0.025702403858304024
-0.11246911436319351
-0.04990053549408913
-0.04322122037410736
0.06304115802049637
-0.0776776522397995
0.13489165902137756
0.018926816061139107
-0.04902350530028343
-0.007427488453686237
-0.1309952586889267
-0.17257173359394073
0.07359170913696289
0.008085496723651886
0.1394566148519516
0.06605750322341919
0.001475110650062561
-0.015372510068118572
0.02034871093928814
-0.03742638975381851
0.042600665241479874
-0.2171662598848343
-0.013120817951858044
-0.07444446533918381
0.018268417567014694
0.01306304894387722
-0.07214486598968506
-0.07308559119701385
-0.056257568299770355
-0.024850070476531982
0.05445136874914169
-0.005150760058313608
-0.020986508578062057
-0.04105667397379875
-0.020746147260069847
0.090438611805439
-0.03194291889667511
0.019054042175412178
0.0005338471382856369
-0.030822554603219032
0.02451479062438011
0.03219141438603401
0.02510901167988777
0.08207927644252777
-0.007823538035154343
-0.0023424315731972456
0.0019693279173225164
0.0005919288378208876
-0.03943318501114845
0.003296875860542059
0.04898617044091225
-0.0437551811337471
0.04619568586349487
0.044561877846717834
0.04890694469213486
-0.011544271372258663
0.04474818706512451
0.03157957270741463
0.015224000439047813
-0.017233937978744507
0.032884497195482254
0.03038892149925232
-0.06223724037408829
-0.007976329885423183
-0.012050885707139969
-0.02130405232310295
0.04671507328748703
-0.013466725125908852
0.05347835272550583
-0.03232270106673241
-0.011170949786901474
0.07870076596736908
-0.02661832980811596
-0.04313679039478302
0.10174085199832916
0.08381728827953339
0.05675910413265228
0.006539744790643454
0.007951701059937477
-0.02005799300968647
-0.049920856952667236
0.029570596292614937
-0.025938691571354866
-0.022028369829058647
-0.0111270472407341
-0.005401876755058765
-0.0067372131161391735
0.13993872702121735
0.0038272347301244736
-0.05374671146273613
-0.004060214851051569
-0.03115631826221943
-0.0329936221241951
-0.02920745685696602
-0.030030017718672752
0.03414657339453697
-0.002096704440191388
0.03617434948682785
0.010639972984790802
0.014381175860762596
-0.08553773164749146
-0.023378893733024597
0.004897118080407381
-0.04202646762132645
0.07850862294435501
-0.006391562055796385
-0.02749253436923027
0.07644981145858765
0.09621204435825348
0.0034082571510225534
0.0067115286365151405
-0.057560134679079056
-0.08009602129459381
0.096635602414608
-0.0495523102581501
0.04244389757514
-0.020898155868053436
-0.018379125744104385
-0.015874123200774193
0.015862904489040375
0.05415983870625496
0.028709901496767998
0.01132148876786232
0.024743694812059402
-0.004900116473436356
-0.02586481161415577
-0.04577405005693436
0.009385673329234123
-0.012907449156045914
-0.041231993585824966
-0.07791845500469208
-0.06599262356758118
0.08711838722229004
-0.06609813123941422
0.02780122309923172
0.07711006700992584
0.025988182052969933
0.017077261582016945
-0.04830751195549965
0.026234567165374756
0.030567174777388573
0.008043510839343071
0.026860004290938377
0.0546482689678669
-0.10196481645107269
-0.0500774048268795
0.041625700891017914
0.04345850646495819
-0.014103290624916553
-0.05156136676669121
0.028587352484464645
0.008930597454309464
-0.015842942520976067
0.07376889884471893
-0.07122132927179337
0.030450716614723206
-0.04499657824635506
0.02779770828783512
0.07083980739116669
0.06583606451749802
-0.008872670121490955
-0.07016657292842865
0.0667545273900032
0.037783194333314896
0.02561441995203495
0.0029243784956634045
0.04514186829328537
-0.020590489730238914
0.0885181799530983
-0.009472144767642021
-0.049493707716464996
-0.09529995918273926
-0.007830617018043995
0.08020279556512833
-0.03271404653787613
-0.06517885625362396
0.001229931483976543
-0.028228426352143288
-0.004618510138243437
-0.06481196731328964
0.052826859056949615
0.04069727286696434
-0.03135913982987404
0.020177509635686874
0.034988902509212494
-0.004516036715358496
0.060956165194511414
0.022343311458826065
-0.09301736950874329
-0.01691369153559208
0.012416036799550056
0.023677753284573555
-0.07961763441562653
-0.00382572622038424
-0.03999852389097214
0.02552892453968525
-0.03590859845280647
0.0024747857823967934
-0.005845731124281883
-0.021983051672577858
-0.025318384170532227
-0.031139852479100227
-0.02089386060833931
0.04772856459021568
0.03388087823987007
0.04567677155137062
0.010778889060020447
-0.003487181384116411
-0.02153591252863407
0.015324250794947147
0.016055060550570488
0.033003199845552444
-0.08112262189388275
0.05939633771777153
0.02819964662194252
0.04517796263098717
0.07133796066045761
0.07223178446292877
0.049177251756191254
0.005693474318832159
0.08770797401666641
0.006988190580159426
0.1093592718243599
-0.1884300857782364
0.02279145084321499
-0.03948432207107544
-0.022387757897377014
-0.012943756766617298
0.02005743235349655
-0.06628669798374176
0.000861922453623265
0.03742023557424545
0.05324606969952583
-0.07836072146892548
0.00044089669245295227
0.01505495049059391
-0.031598690897226334
-0.027538422495126724
0.02885221689939499
0.014274504967033863
-0.004971532616764307
-0.12108412384986877
0.10460204631090164
0.028022661805152893
-0.016339795663952827
0.024414414539933205
-0.04414575919508934
0.034200627356767654
-0.002593348966911435
-0.04436062276363373
-0.05729927122592926
-0.049454450607299805
-0.008541760966181755
-0.00016394852718804032
-0.08410828560590744
0.07471271604299545
0.030843911692500114
-0.018267247825860977
-0.063082255423069
0.012394621036946774
-0.0007846797816455364
-0.058786243200302124
-0.1213005855679512
0.08654056489467621
0.008294016122817993
-0.05548335984349251
0.04620359092950821
-0.05813191458582878
0.012059377506375313
0.07742972671985626
0.03144124895334244
-0.07434385269880295
-0.057518839836120605
0.027423594146966934
-0.013500990346074104
0.016778182238340378
-0.003725256770849228
-0.08338811248540878
-0.07267825305461884
0.024181175976991653
0.025728600099682808
-0.0644649863243103
0.005071632564067841
0.03745296597480774
0.006218018010258675
-0.026771029457449913
0.08932708948850632
0.03931993246078491
-0.02345859818160534
-0.12598755955696106
-0.03530556336045265
0.02223079837858677
0.12471993267536163
0.13882112503051758
-0.001861117547377944
-0.018763240426778793
0.027919260784983635
-0.05019189789891243
0.060439202934503555
0.04311024770140648
0.016636842861771584
-0.08797018975019455
-0.06964032351970673
0.013524580746889114
-0.09613780677318573
-0.013064911589026451
-0.03159692883491516
0.0665881484746933
-0.005590478889644146
0.13736465573310852
0.03219161927700043
0.030007293447852135
-0.07755297422409058
-0.11144283413887024
-0.0417117141187191
-0.04373342543840408
-0.12627722322940826
0.028568889945745468
0.02623431384563446
0.004450822714716196
0.07635097205638885
0.08728068321943283
-0.03846639022231102
0.00791426282376051
-0.07802040129899979
0.046092841774225235
0.011686993762850761
-0.05568722262978554
0.07722336053848267
-0.05886652693152428
-0.034583788365125656
0.04549505189061165
0.05813707783818245
0.01944792829453945
0.03099086880683899
0.042239755392074585
0.03166123107075691
0.008766189217567444
-0.05851711332798004
0.027693774551153183
0.01276305504143238
0.014001574367284775
0.008911234326660633
-0.026271658018231392
-0.02171218954026699
-0.0026360820047557354
-0.03856588155031204
-0.01998746395111084
0.08997270464897156
0.04824783653020859
0.05139181390404701
-0.020604372024536133
-0.020935477688908577
0.07554295659065247
-0.046157076954841614
-0.052499689161777496
0.09367454051971436
0.046539466828107834
0.036469608545303345
0.0228617861866951
0.02178097330033779
-0.03928716480731964
-0.1006760373711586
-0.09927921742200851
0.05162298306822777
0.0021341233514249325
0.11783668398857117
0.08313018828630447
-0.0533246174454689
0.014603327959775925
0.035554442554712296
0.011237657628953457
-0.0284116268157959
-0.01077967043966055
0.06057019904255867
0.013841837644577026
0.040974486619234085
-0.0728006586432457
-0.00536933820694685
0.15204943716526031
-0.05235045403242111
0.020469658076763153
0.020559897646307945
-0.015099627897143364
-0.04873163253068924
-0.0144547950476408
-0.0018229242414236069
-0.021405400708317757
-0.008966920897364616
-0.039781756699085236
-0.06279585510492325
0.13657568395137787
0.09583501517772675
0.02729364112019539
-0.0904344990849495
-0.058007966727018356
0.022379253059625626
0.10169593244791031
0.034129709005355835
-0.07653488963842392
0.01343328133225441
-0.03484633192420006
-0.03089759685099125
0.0020496738143265247
0.01995786279439926
-0.02776472270488739
-0.024237867444753647
0.01009808573871851
0.0026626556646078825
-0.016235625371336937
0.011945574544370174
0.02051910012960434
0.12814465165138245
0.030086157843470573
-0.01083025336265564
0.017275193706154823
-0.009509759023785591
-0.005949361715465784
0.10498611629009247
0.0045848023146390915
0.03829983249306679
-0.024333104491233826
-0.053994469344615936
0.08683764934539795
0.014611298218369484
-0.015988755971193314
-0.05463092774152756
0.11218404769897461
-0.0612327978014946
-0.03352920338511467
0.020521316677331924
-0.06388407200574875
0.03259484842419624
-0.036631952971220016
-0.08538887649774551
-0.04024103656411171
-0.0917677953839302
-0.06591004878282547
0.05771889537572861
-0.055863648653030396
-0.0581173337996006
-0.07237545400857925
0.0002612098178360611
0.0010980290826410055
-0.02322077751159668
0.0742434710264206
0.06495270878076553
0.024536238983273506
0.022355984896421432
0.025456467643380165
-0.012279166840016842
-0.07192102819681168
0.07799816876649857
0.005212664604187012
-0.04410386085510254
0.08725401759147644
-0.036925215274095535
0.006227861624211073
0.03714199364185333
0.02866777405142784
0.002520699054002762
-0.13741424679756165
0.0979284942150116
-0.15810328722000122
0.028588633984327316
-0.009871763177216053
0.08151209354400635
0.011413241736590862
-0.053415123373270035
0.045373279601335526
-0.005849790759384632
-0.017341403290629387
0.026888633146882057
0.011776546016335487
0.005408795550465584
-0.024685608223080635
0.015963582322001457
0.015188856981694698
-0.043814659118652344
-0.05006064847111702
-0.027077943086624146
0.0012632763246074319
0.0037988685071468353
0.020071906968951225
-0.03147811070084572
-0.08255019783973694
0.021836604923009872
0.1138346791267395
0.08419012278318405
0.09354475885629654
-0.024632547050714493
-0.13151945173740387
0.10202257335186005
-0.017863433808088303
-0.10640639811754227
-0.014397241175174713
0.1249353438615799
-0.12010782212018967
0.024594977498054504
0.12730436027050018
-0.17313514649868011
0.009857282042503357
0.06056078523397446
0.11047463119029999
-0.01970781199634075
0.033859409391880035
-0.006348497234284878
-0.032176874577999115
0.007084747310727835
0.04357936978340149
-0.04616271331906319
0.08812659978866577
0.027232669293880463
0.009427586570382118
-0.05802631005644798
0.013577536679804325
0.05752195790410042
-0.024969803169369698
0.02601909637451172
0.017624476924538612
-0.05443160980939865
0.08011454343795776
0.05734957382082939
-0.01752351224422455
-0.02954723872244358
0.058910537511110306
0.03153521940112114
0.02754923142492771
0.016482409089803696
0.06878636032342911
-0.013048429042100906
0.026412194594740868
-0.06697232276201248
0.011330082081258297
0.05935576185584068
0.09962355345487595
0.04189609736204147
-0.06977131962776184
-0.08938200026750565
-0.06503705680370331
-0.08054173737764359
0.06969296187162399
0.06909243762493134
0.012361875735223293
-0.0030187692027539015
-0.021713895723223686
0.013079104013741016
-0.03426335006952286
0.009067629463970661
-0.09260737150907516
-0.010340680368244648
-0.09257781505584717
0.03590947017073631
-0.006348637398332357
0.0055969394743442535
-0.011149009689688683
-0.020052483305335045
0.014604443684220314
-0.0446716845035553
-0.11854802817106247
-0.012500349432229996
-0.06620098650455475
-0.01905156672000885
0.07617510855197906
0.007778196595609188
-0.06632440537214279
-0.00880827009677887
0.09600220620632172
0.05606405436992645
-0.0860292911529541
0.014199679717421532
-0.06280338764190674
-0.1449122577905655
-0.036296579986810684
-0.09475792944431305
0.08816225081682205
0.06885820627212524
0.01809040643274784
-0.122490793466568
-0.07297760993242264
0.0024177853483706713
0.07891567051410675
0.041251711547374725
-0.00459182308986783
0.11716319620609283
0.036263901740312576
-0.04945311322808266
0.1618925780057907
-0.021106630563735962
0.010589666664600372
0.03399451822042465
-0.11903120577335358
0.04233711212873459
-0.06644380837678909
-0.03382009267807007
0.017861178144812584
-0.024891270324587822
0.08127609640359879
0.021336754783988
-0.022497445344924927
0.02315150760114193
0.08947006613016129
0.09968476742506027
-0.046245601028203964
0.031307049095630646
0.1297033429145813
0.12515531480312347
-0.05120032653212547
0.0021412817295640707
-0.10805244743824005
0.016650808975100517
0.052615873515605927
-0.019158966839313507
0.04137473553419113
-0.08607901632785797
0.08591436594724655
0.09379777312278748
0.0011778168845921755
0.035351380705833435
0.02844112366437912
0.04980408772826195
-0.06304697692394257
0.014771676622331142
-0.04877317324280739
-0.023666761815547943
-0.02772720903158188
0.056129660457372665
0.09762497246265411
0.006301389541476965
0.016728578135371208
0.07999887317419052
0.06889992207288742
0.026567891240119934
0.04333866760134697
-0.04828626289963722
-0.03760753944516182
-0.10686177760362625
-0.06613826751708984
0.022048959508538246
0.08822841942310333
0.034365490078926086
0.013962607830762863
0.013170093297958374
0.03867694362998009
0.051074691116809845
-0.07342849671840668
-0.09412622451782227
0.0020696434658020735
0.10308671742677689
0.049950119107961655
0.02015402913093567
0.08608566224575043
-0.17546877264976501
0.15010127425193787
0.02526436746120453
-0.16930903494358063
-0.00581014109775424
-0.03720513731241226
0.0528351366519928
0.03265799954533577
-0.04247905686497688
-0.030398521572351456
-0.07147723436355591
-0.00786048173904419
-0.0033812185283750296
0.014343243092298508
-0.029853248968720436
-0.032827120274305344
0.041329409927129745
-0.004506472963839769
0.04739144816994667
-0.02869749255478382
-0.02558494172990322
0.010042631067335606
-0.07749655097723007
0.009778661653399467
-0.030479902401566505
0.0437031015753746
0.051386427134275436
0.015139436349272728
0.07049720734357834
-0.010653539560735226
-0.03279988095164299
-0.021842103451490402
-0.04119236022233963
-0.007750249933451414
-0.11401816457509995
-0.008330143988132477
-0.027042686939239502
-0.03684423863887787
0.07836782932281494
-0.0079382648691535
-0.030562181025743484
-0.029602929949760437
-0.021311946213245392
-0.00965043529868126
0.05139167234301567
-0.028272448107600212
-0.00817420519888401
-0.02632294036448002
0.0071181743405759335
-0.03267441689968109
-0.013730119913816452
-0.016914688050746918
-0.006158416625112295
-0.00011143851588713005
-0.05107438936829567
0.004747036844491959
-0.01397198997437954
-0.005372965708374977
-0.0005997206317260861
0.042208150029182434
0.02477915957570076
-0.007991335354745388
-0.02888389676809311
0.028186537325382233
-0.01696878671646118
0.005328490398824215
0.05034266412258148
-0.11290743201971054
-0.06340976804494858
-0.06867875158786774
-0.025879569351673126
0.0678277313709259
-0.07892858237028122
0.03433080017566681
0.016159657388925552
0.025841766968369484
0.011300813406705856
0.01370463240891695
-0.008490277454257011
-0.009551504626870155
0.05696186423301697
-0.03672802448272705
0.0039911093190312386
-0.005046435631811619
-0.014188905246555805
-0.01427608635276556
-0.028914136812090874
0.025348056107759476
-0.054908107966184616
-0.01811072789132595
-0.026222916319966316
-0.0469655767083168
0.08045972138643265
-0.018355997279286385
0.02516593411564827
0.051360659301280975
0.015796538442373276
0.021280726417899132
-0.03496496006846428
0.018275288864970207
-0.03254185989499092
0.039192646741867065
-0.01590370386838913
0.02858414314687252
-0.09363871067762375
0.03184327483177185
0.02081417292356491
0.04973667860031128
0.058592282235622406
0.06283675134181976
0.03554554283618927
-0.0004051814030390233
0.017441900447010994
0.03844625875353813
0.016365524381399155
-0.002769554266706109
-0.05309271812438965
-0.05183461681008339
-0.03533352538943291
-0.012145078741014004
0.05744743347167969
-0.01999404840171337
0.05210559442639351
0.02894853614270687
-0.10033904761075974
0.0009400641429238021
0.0027726490516215563
-0.05193155258893967
0.006704846862703562
0.022531496360898018
-0.01093359850347042
-0.025780268013477325
-0.02210909128189087
0.03928709030151367
0.021802037954330444
-0.0057165352627635
0.006326164584606886
-0.001528979279100895
0.09829212725162506
-0.014908842742443085
-0.005197776947170496
-0.03993556648492813
0.05502068251371384
0.01217974815517664
-0.0008550495840609074
0.05007995292544365
-0.022994911298155785
0.10120739042758942
0.04216255620121956
-0.0968690738081932
-0.02966972626745701
-0.040226150304079056
0.04507105052471161
0.0058394200168550014
-0.05833565816283226
0.00020053490879945457
-0.00485049095004797
0.07558367401361465
0.0042053344659507275
0.0384930819272995
0.059501033276319504
0.013385774567723274
0.046577516943216324
0.04407436400651932
0.033276285976171494
0.0016932855360209942
0.060542505234479904
0.0014363223453983665
-0.055562615394592285
0.04014066606760025
0.05080598592758179
-0.03103107027709484
-0.04330698028206825
0.08373027294874191
0.0367727093398571
0.007163713686168194
0.06510365754365921
0.012388498522341251
-0.027347225695848465
0.05240900442004204
-0.01039496622979641
0.02124650962650776
0.012323332019150257
0.026700250804424286
-0.015784483402967453
-0.004247759468853474
-0.009476646780967712
0.016818467527627945
-0.04950591176748276
-0.00019427179358899593
0.011722508817911148
0.04288055747747421
0.035378292202949524
0.039426494389772415
-0.07327975332736969
0.04278002306818962
-0.09270940721035004
0.020626237615942955
-0.04240205138921738
-0.048504844307899475
-0.08965716511011124
0.00608432199805975
-0.0830480232834816
0.0379110723733902
-0.03594862297177315
0.15875953435897827
-0.020681126043200493
0.025009695440530777
-0.07384607940912247
-0.051922619342803955
-0.002828578231856227
-0.0025464275386184454
-0.027876902371644974
0.002077866578474641
-0.02945016697049141
-0.031565435230731964
0.04372837021946907
0.009891612455248833
0.01005641371011734
-0.059825628995895386
-0.011592627502977848
0.04035751894116402
-0.03962435945868492
0.0005168881034478545
-0.06601984798908234
0.034073930233716965
0.031171370297670364
-0.01917620748281479
-0.0015184484655037522
0.04454025626182556
0.05381631478667259
-0.08259603381156921
0.07425568252801895
0.037145256996154785
0.0417054146528244
-0.13892509043216705
0.03783708065748215
-0.08466967940330505
-0.0077131991274654865
0.0319780670106411
-0.019086474552750587
0.0054643042385578156
0.038242097944021225
-0.10411790758371353
-0.061739109456539154
-0.09645090997219086
-0.02223033644258976
0.014419681392610073
0.0008716244483366609
-0.00038777198642492294
-0.002059230115264654
-0.04091481864452362
-0.06600674241781235
0.026952490210533142
0.09675168246030807
0.00048063555732369423
-0.008947310969233513
0.047941092401742935
0.00594303198158741
-0.043006327003240585
-0.056325916200876236
-0.0012290136655792594
-0.04572261869907379
-0.05171145498752594
-0.024428244680166245
0.040722962468862534
-0.028520049527287483
-0.05227687582373619
0.0885728970170021
0.0976233035326004
-0.015554402954876423
0.07787872850894928
-0.030396152287721634
0.020208774134516716
0.028224140405654907
0.04952617362141609
0.078224316239357
-0.008830355480313301
0.06891236454248428
-0.012987307272851467
-0.01838059350848198
-0.08357755094766617
0.025050906464457512
0.07944029569625854
-0.013112010434269905
0.020580651238560677
0.03303117677569389
0.02640465274453163
-0.025670217350125313
-0.035824965685606
0.0784110575914383
0.006444165483117104
-0.01758510246872902
-0.0489930622279644
0.015061532147228718
0.009669359773397446
0.00021999960881657898
0.07245451956987381
0.09455061703920364
-0.06505736708641052
-0.03846278786659241
0.0519317202270031
0.045793138444423676
-0.0172320157289505
0.0012911580270156264
-0.011539938859641552
-0.004407375585287809
0.020390234887599945
-0.06845733523368835
0.039624813944101334
0.05845728889107704
-0.026115532964468002
0.0077004097402095795
-0.0003882136370521039
-0.059777602553367615
-0.041152846068143845
0.016887681558728218
-0.03029145486652851
0.08602668344974518
0.01341924350708723
-0.056495942175388336
0.045736752450466156
0.05328160151839256
0.014545012265443802
0.02070752903819084
0.11241678148508072
0.042259301990270615
0.04313766211271286
-0.02212407812476158
-0.04792935028672218
-0.028547244146466255
0.0158836729824543
-0.035758305341005325
0.042370036244392395
0.08843641728162766
-0.0006550965481437743
-0.008552666753530502
-0.03753712400794029
0.07958777993917465
0.06645475327968597
-0.008910845033824444
0.013152623549103737
0.01977202296257019
-0.005396487656980753
0.06399089843034744
0.0438283309340477
-0.003948808182030916
-0.06823879480361938
-0.02644156478345394
-0.005154753103852272
-0.02733389101922512
-0.03500381112098694
0.012984495609998703
-0.04977712407708168
-0.0002581203880254179
-0.002401484176516533
-0.03898390755057335
0.0563608855009079
0.00012017567496513948
0.08592675626277924
-0.017646797001361847
0.015074126422405243
0.025271469727158546
0.00846797600388527
-0.021300140768289566
-0.029373621568083763
-0.0068742516450583935
-0.04527771472930908
-0.0019060265040025115
-0.056262675672769547
-0.06646663695573807
-0.07550745457410812
-0.040953729301691055
-0.04252208396792412
0.02488730475306511
-0.01784086413681507
-0.024222761392593384
0.04592004045844078
-0.05254008620977402
0.1864595264196396
0.04784167557954788
-0.008873874321579933
-0.03143380954861641
-0.027605708688497543
0.02625248394906521
0.004506255034357309
0.09911190718412399
-0.06818322092294693
0.054325513541698456
-0.0396149642765522
-0.013651115819811821
-0.02121022157371044
0.04944925010204315
0.004337073303759098
-0.01424669660627842
0.0062215691432356834
0.09540461003780365
0.025066327303647995
-0.14304186403751373
5.769186464021914e-05
0.13581249117851257
-0.02342456392943859
0.0132240429520607
-0.04317124933004379
-0.03204050287604332
-0.03851020336151123
0.02070130966603756
-0.031828559935092926
-0.023357940837740898
-0.06324857473373413
0.003923218231648207
0.008939743041992188
0.11282379925251007
-0.054387860000133514
0.010263045318424702
0.09399386495351791
-0.059320058673620224
-0.11025158315896988
-0.06229611113667488
0.00737482076510787
-0.0265590138733387
0.03910258412361145
-0.029118234291672707
0.034971270710229874
0.00908249244093895
-0.10646246373653412
0.004483271390199661
0.1236896738409996
0.06126260384917259
-0.036055099219083786
-0.036106519401073456
-0.0794309675693512
0.041648924350738525
0.10503346472978592
0.0175151564180851
0.07019443064928055
-0.20687928795814514
0.0479317270219326
-0.07740145921707153
0.04817776009440422
0.0541229285299778
0.00888534914702177
0.10842343419790268
-0.02161189541220665
0.1055900976061821
-0.09625677764415741
-0.06805524975061417
0.05422452092170715
-0.021546771749854088
-0.004052984062582254
0.09658801555633545
-0.11713634431362152
-0.014850154519081116
-0.09001459181308746
0.008874477818608284
-0.03889590874314308
0.11999921500682831
0.007377584930509329
-0.046138860285282135
-0.06240260601043701
0.014485002495348454
0.03051876462996006
0.03205180913209915
-0.09931585192680359
0.10900719463825226
0.11550968140363693
-0.05483990162611008
-0.05580006539821625
-0.052480779588222504
-0.013781817629933357
-0.06664948165416718
-0.051596157252788544
-0.06537803262472153
0.027051914483308792
-0.1107119545340538
-0.01212336402386427
-0.04472022131085396
-0.0034081635531038046
0.04417376592755318
-0.03680833801627159
0.04619912803173065
-0.05171754211187363
-0.09508324414491653
-0.019297001883387566
0.041043899953365326
0.0033557971473783255
-0.005595084745436907
0.06664323061704636
-0.10073782503604889
-0.0015872924122959375
0.13452772796154022
0.007887091487646103
0.04831027612090111
0.09767875075340271
-0.036702632904052734
-0.08711741119623184
-0.07359704375267029
-0.08088910579681396
-0.01171158254146576
-0.007039670366793871
0.052188824862241745
0.062164437025785446
-0.00419084494933486
0.010802005417644978
-0.02320908010005951
-0.02919393964111805
0.028366422280669212
-0.04759339988231659
0.08350757509469986
-0.0018111931858584285
0.03730778396129608
-0.03178419917821884
0.04339376837015152
-0.06559408456087112
0.0038079218938946724
0.04824940860271454
-0.0007320030126720667
-0.017990006133913994
0.20829322934150696
0.06597224622964859
-0.020192695781588554
-0.07216054946184158
-0.02026854269206524
-0.08716210722923279
-0.010277188383042812
0.001407395233400166
0.04843813553452492
0.05654190853238106
-0.05378921702504158
-0.07410635054111481
0.11008844524621964
-0.1469745934009552
-0.010612509213387966
0.012402635999023914
0.11611994355916977
0.030511576682329178
0.037830106914043427
-0.010271814651787281
-0.04284553974866867
0.020877880975604057
0.005384293384850025
0.02796541154384613
-0.05934609845280647
-0.020495425909757614
-0.028190314769744873
0.048539865761995316
-0.03967027738690376
-0.06512244045734406
-0.0761563628911972
-0.08145870268344879
0.0035513266921043396
0.0061055198311805725
-0.01370436791330576
-0.00875370018184185
-0.002331299241632223
-0.07990486174821854
0.06088542565703392
0.003878191811963916
0.04357842355966568
-0.16968229413032532
-0.02115778438746929
-0.029000988230109215
0.02654491923749447
-0.2402355819940567
0.0011344884987920523
0.1014685183763504
-0.12976108491420746
-0.004367092624306679
-0.0030142622999846935
0.027516959235072136
0.05171651765704155
0.010196547023952007
0.03325776383280754
-0.10298844426870346
0.04855155944824219
0.08132024854421616
-0.003632621606811881
-0.08768663555383682
-0.0185104813426733
0.06555838137865067
0.028324805200099945
0.0064301867969334126
0.05876147747039795
0.01866040751338005
0.006776515394449234
0.0181589238345623
-0.07824251055717468
-0.019145213067531586
0.06577553600072861
0.054224420338869095
-0.03711909055709839
-0.010580305941402912
0.015487809665501118
-0.019158484414219856
-0.01563292369246483
-0.006333736702799797
0.03397876024246216
-0.1874702125787735
0.008522724732756615
-0.04238511621952057
-0.17011113464832306
-0.011903790757060051
0.08944570273160934
-0.1606057733297348
-0.04683586582541466
-0.02574676275253296
0.05687766522169113
-0.012515402399003506
-0.11807677894830704
-0.028253726661205292
0.13702353835105896
-0.062400780618190765
0.09352652728557587
0.03714430332183838
-0.03471830487251282
-0.036891888827085495
-0.014480898156762123
0.014143195003271103
0.01642868109047413
-0.01195517648011446
-0.05120374262332916
0.034718167036771774
0.057092152535915375
0.07340496778488159
-0.104484923183918
0.11699088662862778
0.010942574590444565
-0.07839033007621765
-0.07188121229410172
-0.03565285727381706
0.02617022581398487
-0.04308852180838585
0.09872496873140335
0.006840069312602282
-0.01614496298134327
-0.058469466865062714
0.024443568661808968
0.029263963922858238
0.06815776973962784
-0.027461227029561996
0.05151022970676422
-0.013837250880897045
-0.02440514974296093
0.0013926653191447258
0.0543147511780262
0.03407502919435501
0.04220331832766533
0.011597723700106144
0.02136630192399025
-0.02055966667830944
0.12164905667304993
-0.10448522865772247
0.04850461333990097
0.13470719754695892
-0.038471296429634094
-0.019984422251582146
-0.055103953927755356
-0.03404434770345688
0.0769643634557724
0.026180651038885117
-0.020445337519049644
-0.21917018294334412
-0.026864180341362953
0.013729004189372063
-0.062142059206962585
0.08688323199748993
-0.09200932085514069
-0.069720059633255
-0.03230971097946167
0.023629533126950264
0.035001542419195175
0.04600687697529793
-0.08152328431606293
0.009938361123204231
-0.031202901154756546
0.17638713121414185
-0.10928898304700851
0.014620695263147354
0.03280940279364586
0.06100567802786827
0.07865917682647705
0.3034963309764862
0.04064358025789261
0.04507485777139664
0.07311616837978363
0.2346295863389969
-0.025128154084086418
-0.11345525085926056
-0.10574425756931305
0.0368531234562397
-0.08008948713541031
0.003402788657695055
-0.05288625508546829
-0.16485293209552765
0.008217905648052692
0.04090224951505661
-0.077059805393219
-0.024033330380916595
-0.1268744319677353
-0.006520167924463749
-0.13595859706401825
-0.09195065498352051
-0.02585414983332157
0.13207928836345673
0.025623926892876625
0.03862269967794418
-0.07495205849409103
0.01834055595099926
0.009437900967895985
0.04055165499448776
-0.14090833067893982
0.07052864879369736
-0.12815353274345398
-0.051900073885917664
0.02382799983024597
-0.04844263568520546
0.05644598230719566
0.1549271047115326
0.09238169342279434
-0.050597693771123886
0.10603772103786469
-0.20032279193401337
0.008455968461930752
0.10658219456672668
0.11295963823795319
-0.02853197418153286
-0.04467353597283363
-0.18002110719680786
0.04225575551390648
0.23434297740459442
-0.014064640738070011
0.09897754341363907
0.028182830661535263
-0.01257357094436884
-0.2612534165382385
0.16295284032821655
-0.13395239412784576
-0.1867106407880783
0.05979121848940849
0.12545539438724518
-0.014586946927011013
-0.02907668612897396
0.09473100304603577
0.030210155993700027
-0.1511145681142807
0.0037873329129070044
0.14687013626098633
-0.04920458048582077
-0.1571219116449356
-0.023327717557549477
-0.08058466762304306
-0.06038820371031761
-0.03758632019162178
-0.011976942420005798
-0.15442711114883423
-0.0983038917183876
-0.032473716884851456
-0.18599972128868103
-0.05661721155047417
-0.08221147209405899
0.0727604478597641
0.002347721252590418
-0.28650519251823425
0.09295335412025452
0.08833422511816025
-0.07268745452165604
0.0027713230811059475
-0.06795989722013474
-0.07190944999456406
0.10029769688844681
-0.16103197634220123
-0.2631668448448181
0.05821973830461502
-0.03415200114250183
-0.3434182405471802
-0.06267401576042175
-0.1397681087255478
-0.15374532341957092
-0.07193076610565186
0.060127757489681244
0.020901847630739212
0.10110799968242645
0.026441039517521858
-0.02042185515165329
-0.024751219898462296
0.02041696384549141
0.021870873868465424
0.01756078377366066
0.005941309500485659
0.05466128885746002
-0.052423786371946335
-0.07599148899316788
0.044739142060279846
0.08883461356163025
0.11485127359628677
-0.0342562161386013
-0.03414202481508255
-0.03861553221940994
-0.03733266517519951
-0.07478038221597672
-0.06326982378959656
0.026833681389689445
0.051035888493061066
-0.016407059505581856
0.011744373477995396
-0.004147789906710386
-0.047686733305454254
-1.8086013369611464e-05
-0.12494398653507233
0.036903951317071915
-0.010389064438641071
0.0001800993923097849
-0.007535677868872881
0.08149848133325577
0.07362522184848785
0.015760347247123718
0.18537068367004395
-0.11792607605457306
0.08779136091470718
0.06205691397190094
-0.0436134859919548
0.052373215556144714
0.02211923524737358
-0.03212464600801468
-0.007299934513866901
-0.05675710737705231
0.020199796184897423
0.04445243254303932
0.11439339071512222
0.03092179074883461
0.011372370645403862
0.008523593656718731
-0.054268814623355865
-0.02156391181051731
0.01437347661703825
-0.029780983924865723
0.03365100920200348
0.0590016171336174
-0.05861705541610718
-0.031281258910894394
0.05669613182544708
0.16544176638126373
-0.0952092707157135
-0.034648969769477844
0.007986434735357761
-0.010753671638667583
-0.012947485782206059
0.07381074875593185
0.04939231276512146
0.015891922637820244
0.04638630524277687
0.009593119844794273
-0.008039276115596294
-0.08265591412782669
-0.06031491979956627
-0.0820489153265953
0.0020681561436504126
0.006388280540704727
-0.009213327430188656
-0.006238487549126148
0.07136315852403641
0.05208658427000046
0.014007065445184708
0.05297650024294853
0.005517010577023029
-0.031059864908456802
0.02516571618616581
0.026779819279909134
-0.03157209977507591
0.001956105465069413
-0.01947147771716118
-0.028105927631258965
0.053450800478458405
-0.019758984446525574
-0.10288138687610626
-0.012038646265864372
-0.006769394967705011
0.016235774382948875
-0.013179103843867779
0.0068550412543118
0.01439765002578497
-0.039080798625946045
-0.014877875335514545
-0.07417917251586914
-0.019101044163107872
-0.04041176289319992
-0.04356752708554268
-0.036856509745121
-0.035505205392837524
-0.005943812429904938
0.009410572238266468
0.004557234700769186
0.03506198525428772
-0.00027671156567521393
0.034092340618371964
0.012169486843049526
0.04646753892302513
0.0006079704617150128
-0.07677389681339264
-0.08299229294061661
-0.024553945288062096
-0.03158196061849594
0.0353485569357872
0.06329376995563507
0.026567326858639717
-0.014512433670461178
-0.08023715019226074
0.07098886370658875
0.008495178073644638
-0.017459368333220482
-0.040694668889045715
-0.11416222900152206
-0.001310270861722529
0.056386638432741165
-0.18164533376693726
0.15809643268585205
-0.1571047455072403
-0.053394414484500885
-0.1388251930475235
-0.12119971215724945
-0.04062482342123985
-0.009806710295379162
0.10238964855670929
0.042162973433732986
-0.004385163076221943
-0.0941043272614479
0.1391180455684662
0.0956612080335617
-0.010236700065433979
-0.012071866542100906
0.008157157339155674
0.06639976799488068
-0.0030406787991523743
-0.05793902277946472
0.08584687858819962
-0.14579501748085022
0.04430924355983734
-4.406531297718175e-05
0.02155727706849575
0.14647696912288666
-0.056878603994846344
-0.05019427463412285
-0.07734519988298416
0.2466692328453064
0.06410471349954605
0.06662022322416306
0.09400339424610138
0.1904446929693222
-0.012365134432911873
-0.06304525583982468
0.09672396630048752
-0.04796908423304558
-0.0649835392832756
-0.004217706620693207
-0.07363848388195038
-0.064608633518219
-0.026563918218016624
-0.06922401487827301
-0.10365203768014908
-0.08432018011808395
0.019966982305049896
0.05345558002591133
-0.08521556109189987
-0.07514895498752594
-0.10681917518377304
-0.12043430656194687
0.001593374297954142
-0.018828364089131355
-0.013815918937325478
-0.059136033058166504
-0.10059044510126114
0.06538965553045273
-0.03540700674057007
-0.1553473174571991
0.058725666254758835
-0.17260880768299103
-0.07679533958435059
0.036080412566661835
-0.042561039328575134
-0.006804356351494789
0.016029994934797287
0.21122154593467712
-0.05567603185772896
0.09149578958749771
0.13732348382472992
-0.014318583533167839
-0.08672662079334259
0.22368822991847992
-0.04902184382081032
-0.025250321254134178
0.016943231225013733
0.08430403470993042
0.09386394172906876
0.01936807483434677
-0.10922414064407349
0.013448568992316723
-0.170124351978302
-0.059140853583812714
0.11200223863124847
-0.0242377370595932
0.08067429810762405
0.06751448661088943
-0.07367956638336182
0.08356541395187378
-0.0355866476893425
-0.06683337688446045
-0.05173809081315994
-0.0369861014187336
0.033945340663194656
-0.2422623187303543
-0.08929271250963211
0.030379625037312508
0.11336754262447357
-0.07556745409965515
-0.057124003767967224
-0.07467039674520493
0.0050879912450909615
0.016873832792043686
-0.01865522377192974
0.04399237409234047
-0.04323366656899452
0.008119042031466961
-0.12971729040145874
0.03871117904782295
-0.1203383281826973
-0.06713376939296722
0.04377821832895279
-0.08255994319915771
-0.0790313333272934
-0.018815772607922554
-0.225017249584198
0.16098222136497498
-0.049181777983903885
0.06750482320785522
-0.005837485194206238
0.08675400912761688
-0.0298920851200819
-0.0044889794662594795
0.007162933703511953
0.005664568394422531
-0.004643610212951899
0.014277604408562183
-0.07567951828241348
0.014664542861282825
0.11428322643041611
0.11400526016950607
0.08301844447851181
-0.028448650613427162
0.06202772632241249
0.0070880684070289135
-0.05290305241942406
0.0581791065633297
0.011087180115282536
-0.12199912220239639
-0.06641846895217896
0.014207661151885986
-0.0007171970792114735
-0.01354268565773964
-0.09221171587705612
-0.08546343445777893
-0.07177524268627167
0.021852442994713783
0.03612679988145828
0.08004447817802429
-0.12888900935649872
-0.036804474890232086
-0.030413255095481873
0.06721515208482742
-0.11333557963371277
0.012557671405375004
-0.06079801544547081
-0.016676638275384903
0.04559186100959778
0.03202793374657631
-0.02887675352394581
-0.00037265141145326197
-0.01988445781171322
0.09568148106336594
-0.09259174764156342
0.07465282827615738
-0.10333818197250366
0.01143096573650837
-0.049651358276605606
-0.08464925736188889
-0.01875394396483898
0.010629778727889061
0.016535887494683266
-0.07279227674007416
-0.08225534856319427
-0.044969748705625534
0.002694765804335475
0.041011255234479904
-0.08227024227380753
-0.05428118631243706
-0.021391866728663445
0.14652882516384125
-0.05946909636259079
-0.022299615666270256
-0.024426022544503212
-0.07182426750659943
-0.027031052857637405
-0.006811865139752626
0.03495628014206886
-0.009673462249338627
-0.05936528742313385
-0.04126017168164253
0.06049763783812523
0.004171702079474926
0.10470768809318542
-0.04552210494875908
0.07720431685447693
-0.06891868263483047
0.008510295301675797
0.013000690378248692
0.03323087841272354
-0.009481399320065975
-0.03674086928367615
-0.017520016059279442
-0.07566326856613159
-0.013001012615859509
-0.10900302231311798
-0.03862249106168747
0.08211255818605423
0.02356122061610222
0.00955294817686081
-0.03032614104449749
0.03655900061130524
0.039049286395311356
-0.05016925558447838
0.04469263553619385
-0.02522590570151806
0.03559350222349167
-0.025546712800860405
-0.08420705795288086
0.011050840839743614
0.0038732162211090326
0.027324946597218513
-0.033296674489974976
-0.004229966551065445
-0.03815068304538727
0.06899966299533844
0.04195740818977356
0.01066687423735857
0.045632101595401764
-0.13516643643379211
0.06212924048304558
-0.12303721904754639
-0.09268035739660263
0.09550925344228745
-0.12022631615400314
0.09612414985895157
-0.004687870852649212
-0.13382993638515472
-0.009026694111526012
-0.08008080720901489
0.00982657726854086
0.015660855919122696
0.0948600322008133
0.01257008221000433
0.055110856890678406
-0.10137296468019485
0.05151702091097832
-0.007683577481657267
0.10770366340875626
0.05070389434695244
0.0004721399745903909
0.1381014585494995
0.49857857823371887
0.33768773078918457
0.18403854966163635
-0.006780206225812435
-0.1251945197582245
0.007998200133442879
0.24907490611076355
0.037340473383665085
-0.2762153148651123
-0.035157203674316406
-0.10873118042945862
0.2540178894996643
0.03850838169455528
0.049802541732788086
-0.10801442712545395
-0.20084212720394135
-0.07132638245820999
-0.058687176555395126
-0.05082012712955475
-0.0542188324034214
0.3486054837703705
0.2537092864513397
-0.24160712957382202
-0.053383324295282364
0.008312966674566269
0.16753412783145905
-0.09159862250089645
0.10076915472745895
-0.239616259932518
-0.1429993063211441
0.11067664623260498
0.31840163469314575
0.03238179534673691
-0.3586084246635437
-0.11555691063404083
0.08920520544052124
-0.006018079351633787
0.006105049513280392
9.856935503194109e-05
-0.11379218846559525
0.05100429803133011
-0.04231153801083565
-0.06425756961107254
0.1191258430480957
-0.506853461265564
0.04736717417836189
0.17470964789390564
-0.555554211139679
-0.20209422707557678
-0.19565239548683167
0.14628641307353973
