-0.08453578501939774
-0.026869017630815506
0.0021921058651059866
-0.02047627791762352
0.0852842777967453
0.036228131502866745
0.05405629426240921
-0.009013703092932701
0.007637316361069679
0.011959662660956383
-0.015339568257331848
-0.05110921710729599
0.06656666100025177
-0.035025931894779205
0.10211742669343948
0.04003075882792473
0.050580598413944244
-0.0011828773422166705
-0.00869681965559721
0.0013516221661120653
0.028999481350183487
0.0705767422914505
-0.10840655118227005
-0.06185757368803024
-0.024532455950975418
-0.04812126234173775
-0.09426447749137878
0.09383607655763626
-0.12136199325323105
-0.01854967325925827
0.04088035970926285
-0.002238733461126685
0.004678062163293362
0.03534017875790596
-0.04520636796951294
0.009448638185858727
0.001279443851672113
0.025370586663484573
0.04679355025291443
-0.09879294037818909
-0.004052248317748308
0.03475401923060417
0.009556284174323082
0.038456451147794724
-0.0847088024020195
-0.09093590080738068
0.050802432000637054
-0.005548219196498394
-0.016407396644353867
0.10065054893493652
-0.015124266035854816
0.017694145441055298
0.05755104869604111
-0.0023058848455548286
-0.08862107992172241
-0.03880014643073082
0.1019115000963211
-0.10658204555511475
0.05098717659711838
-0.016773834824562073
0.09907561540603638
0.045096106827259064
0.016034478321671486
0.039690230041742325
-0.04682694002985954
-0.07555947452783585
-0.049664828926324844
0.035429712384939194
-0.0035793064162135124
0.09353787451982498
-0.027878960594534874
-0.07090143859386444
-0.030999301001429558
-0.008386258967220783
-0.01608424074947834
0.12659606337547302
0.02340886741876602
-0.02182387001812458
-0.01887417770922184
-0.08099044114351273
0.04071163386106491
0.04403674229979515
0.012576655484735966
0.0061179157346487045
-0.04343036189675331
-0.030737372115254402
-0.056644514203071594
0.019241761416196823
-0.08958060294389725
0.0011275438591837883
0.03856467828154564
0.05594317615032196
-0.06066983565688133
-0.10229894518852234
-0.041723985224962234
-0.02349131554365158
-0.05693216249346733
0.03902305290102959
0.07256538420915604
-0.023608991876244545
0.04531947895884514
-0.095001719892025
0.03904220461845398
-0.07307222485542297
0.004563033115118742
0.027246978133916855
-0.05164088308811188
-0.013472020626068115
0.010064833797514439
0.0334397591650486
0.05350083112716675
0.06525105983018875
0.025784414261579514
-0.03211389109492302
0.014588502235710621
0.0795300155878067
-0.057009752839803696
-0.031174561008810997
0.015970269218087196
-0.09324897080659866
-0.03662022575736046
-0.004901614040136337
0.018573137000203133
-0.027974046766757965
-0.07338831573724747
0.07909528911113739
0.07167541235685349
0.02026824653148651
-0.02746969647705555
-0.01479653175920248
-0.029193773865699768
0.07432962208986282
-0.07793623208999634
0.014933252707123756
0.004024475812911987
-0.012785753235220909
0.004243746399879456
0.029409268870949745
-0.2635591924190521
0.20862244069576263
0.037298496812582016
-0.044945862144231796
0.09132863581180573
-0.1556292325258255
-0.08227170258760452
-0.048680488020181656
-0.06542131304740906
-0.12972213327884674
-0.04589076340198517
-0.0051704104989767075
0.007151291240006685
0.14160504937171936
-0.004388274624943733
-0.01576140895485878
0.04922739788889885
0.08971113711595535
-0.06440669298171997
-0.05900430679321289
0.00412296038120985
0.005627358797937632
-0.02179589308798313
-0.08672972768545151
-0.08536957949399948
0.04674747213721275
0.11059962213039398
-0.057886794209480286
0.14938096702098846
-0.022553596645593643
0.052083246409893036
-0.05771502107381821
0.023235756903886795
0.03803599998354912
-0.04241637513041496
0.12376485019922256
0.1370367556810379
0.0337514691054821
-0.08028680831193924
0.03654535859823227
0.06703764200210571
0.00817729253321886
0.1170375645160675
0.04770654812455177
-0.07162550836801529
-0.19920432567596436
0.09735425561666489
-0.006455858238041401
0.11671816557645798
0.0217535849660635
0.1608482152223587
-0.04985523968935013
0.029763398692011833
-0.04292968288064003
0.009196525439620018
-0.08638212084770203
-0.02658260613679886
-0.1068754643201828
-0.0116483885794878
0.010603136382997036
-0.12519916892051697
-0.02211628668010235
0.054566070437431335
0.10477577894926071
-0.119131900370121
-0.18844561278820038
0.00493635842576623
-0.06041428819298744
0.023557672277092934
-0.0025782580487430096
-0.03167014941573143
0.1756136417388916
0.08502788096666336
0.03866637125611305
0.0476694218814373
-0.04481428489089012
-0.003081860486418009
-0.10792789608240128
-0.10786899924278259
0.028481844812631607
-0.019555533304810524
0.017161697149276733
0.09072690457105637
0.1547894924879074
-0.14946508407592773
-0.2927097976207733
0.006844942923635244
0.004096470773220062
0.07188357412815094
-0.18736843764781952
-0.1461252123117447
-0.07447615265846252
-0.029610255733132362
0.09111154824495316
0.003345935605466366
0.14589840173721313
0.08504831045866013
0.06939809769392014
-0.20358572900295258
-0.1234048530459404
0.06384577602148056
0.05895113945007324
0.07069755345582962
-0.050427813082933426
-0.2082533836364746
0.016972115263342857
0.0038144716527312994
0.07521499693393707
-0.06469148397445679
-0.0809381753206253
0.00392335606738925
0.04240148514509201
-0.009939908050000668
0.0075021767988801
-0.026087993755936623
0.13453572988510132
0.07064437866210938
-0.04958903789520264
-0.16533870995044708
0.07635023444890976
0.16527090966701508
0.012114683166146278
-0.1382373720407486
0.02826530858874321
0.04512719064950943
0.10744977742433548
0.0013008442474529147
0.05735383555293083
0.018638458102941513
0.031535036861896515
0.07854095846414566
0.04565511271357536
0.08673655241727829
-0.0759987086057663
0.05909411981701851
-0.12152161449193954
0.14072643220424652
-0.05002811923623085
0.12982316315174103
-0.03838176280260086
0.09389423578977585
0.013747906312346458
-0.10739751160144806
-0.0009947174694389105
0.023617852479219437
-0.11194759607315063
-0.1563350260257721
-0.023338399827480316
-0.07423330843448639
-0.053608138114213943
-0.017207682132720947
-0.1337834894657135
-0.004217070527374744
-0.1918352097272873
-0.18520058691501617
0.08652780950069427
-0.07437020540237427
-0.21977996826171875
-0.11446654796600342
-0.08432609587907791
0.0006124107749201357
0.00899496953934431
0.10859612375497818
-0.12662102282047272
-0.0765753984451294
0.18196822702884674
0.28050005435943604
-0.2610588073730469
0.09237983822822571
0.0951257050037384
-0.08415894955396652
0.07742592692375183
-0.14659713208675385
-0.019760189577937126
0.08088697493076324
0.02504170686006546
-0.12355180084705353
0.03942378982901573
0.05337956175208092
0.027974631637334824
-0.010934398509562016
-0.05988163873553276
0.03794816508889198
-0.10884035378694534
0.11865834146738052
0.10471541434526443
0.0815507099032402
0.01568426378071308
0.1432420313358307
0.09819116443395615
-0.05253339558839798
-0.03591184318065643
-0.04774840921163559
-0.1015963926911354
-0.1110796257853508
-0.021278418600559235
-0.060864370316267014
0.03754303604364395
0.003956006374210119
0.10038607567548752
-0.0013094936730340123
-0.1414145678281784
-0.037723902612924576
0.019522113725543022
-0.01167749147862196
0.06756047159433365
-0.21002186834812164
0.004497375339269638
0.010819227434694767
0.08710258454084396
0.036131661385297775
0.1711440086364746
-0.018733004108071327
0.05312151461839676
-0.05056700482964516
-0.08078591525554657
0.01081100944429636
0.29308760166168213
-0.03584000840783119
0.009790416806936264
0.0009063349571079016
-0.0630134642124176
-0.08468412607908249
0.16874904930591583
-0.018272778019309044
0.07844316214323044
-0.1422906368970871
-0.26703402400016785
-0.06320755928754807
0.10818137228488922
0.055449988692998886
0.0724523738026619
0.03585248813033104
0.09728104621171951
0.04570580646395683
-0.16667361557483673
0.11143685132265091
-0.029963180422782898
-0.12515491247177124
0.0034406513441354036
0.09727120399475098
0.0412801168859005
0.07125765830278397
-0.0005145256291143596
-0.1533910632133484
-0.05526991933584213
-0.05535746365785599
0.10675188153982162
0.0059959497302770615
0.0024337039794772863
-0.1431579887866974
-0.009866159409284592
0.047731176018714905
-0.05156731233000755
-0.1119973435997963
-0.10588910430669785
-0.11374975740909576
-0.03611528128385544
0.0058713648468256
-0.023042485117912292
0.11504501104354858
-0.05908047780394554
0.03150317445397377
-0.05250269174575806
0.1134597659111023
0.008713326416909695
-0.15324667096138
-0.046034932136535645
0.07360301911830902
0.04895245283842087
0.022457920014858246
0.002019341103732586
0.08650442212820053
0.0719015896320343
-0.10809130221605301
-0.06593262404203415
-0.03586110845208168
-0.055300839245319366
0.01462310366332531
0.03521624207496643
-0.190103679895401
-0.01618068665266037
0.012332144193351269
-0.024787507951259613
0.06366080790758133
0.035527266561985016
0.11033852398395538
-0.08916448056697845
0.0891379714012146
0.09085806459188461
-0.07670291513204575
0.07451245933771133
-0.02717340551316738
0.0005077516543678939
-0.032338082790374756
0.08156659454107285
-0.07992963492870331
-0.032708413898944855
0.02874838002026081
-0.09181759506464005
0.015381311066448689
0.0036694463342428207
0.04317310079932213
-0.012615415267646313
-0.07803607732057571
0.04809664562344551
0.07482480257749557
-0.04382871836423874
0.030629606917500496
-0.03996294364333153
0.044715702533721924
-0.10644224286079407
-0.009534958750009537
-0.08620147407054901
0.001678654458373785
-0.06181296706199646
-0.009871009737253189
0.08674538135528564
-0.009326600469648838
0.14115792512893677
-0.01754341833293438
-0.034267865121364594
-0.05769902095198631
-0.050366342067718506
0.044920358806848526
-0.040631528943777084
-0.1054249256849289
0.047810159623622894
-0.05206158012151718
0.07161260396242142
-0.07328193634748459
-0.06792358309030533
-0.016426466405391693
-0.08776576817035675
0.101610466837883
-0.030985018238425255
-0.055125679820775986
0.0501193031668663
-0.032120734453201294
0.006747069768607616
-0.010250242426991463
-0.06426364928483963
0.06295015662908554
-0.1417982280254364
-0.012069174088537693
0.07386469095945358
-0.08568780869245529
-0.034246232360601425
-0.004924355540424585
0.01858924701809883
0.011133714579045773
0.01311660185456276
0.019306538626551628
-0.04412569850683212
0.03483283892273903
-0.07408825308084488
0.03282202407717705
0.03386145085096359
0.021779842674732208
-0.0252002514898777
-0.010711734183132648
0.12810030579566956
-0.03676292300224304
-0.08438495546579361
0.0717678889632225
0.08422888815402985
-0.03743988648056984
0.05519852787256241
-0.07726608216762543
-0.01653209887444973
0.03520581126213074
0.10399047285318375
0.0997457429766655
-0.12446541339159012
-0.003102600807324052
0.02874542400240898
-0.05873093381524086
0.10151904076337814
-0.058298513293266296
0.013682950288057327
0.12342767417430878
0.017688138410449028
-0.09927523136138916
-0.06519211083650589
-0.034638941287994385
0.018222365528345108
0.06268984824419022
-0.04975472390651703
0.06517238914966583
-0.07919584214687347
0.04427715763449669
0.0323333665728569
0.0021047203335911036
-0.0198846235871315
-0.05548622086644173
-0.14270441234111786
-0.12151241302490234
-0.07454272359609604
-0.03707018494606018
-0.08325174450874329
0.14075890183448792
0.06315068900585175
0.013969596475362778
-0.10053642094135284
0.03272053226828575
-0.1182679757475853
0.06606943905353546
-0.013579274527728558
-0.0015050034271553159
0.026605289429426193
-0.014767449349164963
0.02951495163142681
0.07183696329593658
-0.04788912087678909
-0.016746696084737778
0.025688303634524345
0.00976154487580061
-0.02676614746451378
-0.04099395498633385
0.00178663176484406
0.04090871661901474
-0.04816203936934471
0.11104590445756912
0.02522624284029007
-0.07315140962600708
-0.004764880985021591
0.15041638910770416
0.05822966620326042
-0.04798702150583267
-0.01187145709991455
0.04475445672869682
0.03788477182388306
-0.09339301288127899
-0.023521050810813904
-0.030850810930132866
-0.04085707291960716
0.1665351539850235
0.030470257624983788
-0.030072856694459915
0.06220906600356102
-0.004692105110734701
-0.101888507604599
-0.04935319349169731
0.025708146393299103
-0.009930102154612541
-0.01587943360209465
-0.018089963123202324
0.013449463993310928
-0.017931004986166954
-0.036459650844335556
-0.04455147311091423
-0.01320559997111559
0.08408821374177933
0.05231977999210358
0.1661681979894638
0.03244945779442787
0.08273248374462128
-0.044733427464962006
-0.03351934999227524
0.01624707318842411
-0.051435306668281555
0.08141966164112091
-0.04722164198756218
-0.10052130371332169
-0.0031151315197348595
0.10007482767105103
0.07372616231441498
-0.01654648967087269
-0.049266815185546875
-0.007701798342168331
-0.060040656477212906
0.01889660768210888
-0.08098489791154861
0.014891022816300392
-0.10365422815084457
0.07543592900037766
-0.023512963205575943
0.0842117890715599
-0.03123990073800087
-0.14208906888961792
0.0635988786816597
0.007181691937148571
0.021704623475670815
0.015539581887423992
0.009054179303348064
0.06361060589551926
0.039395272731781006
0.04261751100420952
-0.02602013573050499
-0.04611404240131378
0.03933534026145935
-0.11845672875642776
0.014830642379820347
-0.005850945133715868
-0.009608710184693336
0.0415739007294178
0.0062303016893565655
-0.0762920081615448
0.05646577477455139
0.043550267815589905
0.11962499469518661
0.042715515941381454
0.06623869389295578
0.017111238092184067
-0.003983805421739817
7.790203380864114e-05
-0.02159668318927288
0.03909656032919884
0.051268070936203
-0.015193922445178032
-0.006467622239142656
-0.06830921024084091
-0.10145794600248337
0.09001846611499786
0.09031592309474945
0.12628620862960815
0.011660917662084103
0.09755430370569229
0.04582882300019264
0.015775306150317192
-0.04538962244987488
0.011349457316100597
0.020532727241516113
0.014824447222054005
-0.06048384681344032
-0.03476249799132347
-0.02600735053420067
-0.07362654060125351
0.012338983826339245
0.06201948598027229
-0.02767978049814701
0.07909104973077774
-0.016113797202706337
-0.05944175273180008
0.00947615783661604
0.12059299647808075
-0.06894707679748535
0.07244276255369186
-0.004146240185946226
-0.04960877075791359
0.06758658587932587
-0.10014774650335312
0.007362416014075279
-0.013091804459691048
0.03552702069282532
-0.08599819242954254
-0.05255551263689995
-0.01122091431170702
0.05254649743437767
0.1000979095697403
-0.11096646636724472
0.05573130398988724
0.02186950296163559
-0.007655820809304714
-0.0771070271730423
0.039330873638391495
-0.03403427451848984
-0.08723612129688263
0.2289607673883438
-0.020277729257941246
0.09116165339946747
-0.05333545804023743
0.00028478188323788345
0.10462656617164612
0.005520989652723074
0.02087954804301262
-0.02179471217095852
0.0325971357524395
-0.08771851658821106
0.05557813122868538
-0.022333567962050438
-0.03152504563331604
-0.029501358047127724
-0.020540734753012657
0.06151577830314636
0.16933824121952057
-0.13050097227096558
-0.08866312354803085
-0.049750812351703644
0.006338806357234716
-0.013636169023811817
0.03820784017443657
-0.04483920708298683
0.07911263406276703
-0.1136825829744339
-0.05182059854269028
0.011989759281277657
0.003443483030423522
0.09065458923578262
-0.059619780629873276
-0.06174767017364502
-0.059041451662778854
-0.1069255843758583
0.05252735689282417
0.03319685906171799
-0.0650237500667572
-0.02872885949909687
-0.048071715980768204
0.021149130538105965
-0.11775950342416763
-0.01869047060608864
-0.03575877845287323
0.011978325434029102
0.04274817928671837
-0.026163792237639427
0.07200676947832108
-0.07823533564805984
0.07617326080799103
0.02607610821723938
0.07182078063488007
-0.030870676040649414
-0.06857393682003021
0.02766568586230278
-0.021217243745923042
-0.028789224103093147
0.00022456690203398466
0.05903250351548195
0.06488258391618729
-0.11102449893951416
0.02912437915802002
-0.061004649847745895
-0.03955261781811714
-0.03472232073545456
-0.15457738935947418
0.04562655836343765
-0.021652285009622574
0.03149541839957237
0.033982161432504654
-0.05121374875307083
-0.032137416303157806
0.037896525114774704
0.04641535505652428
-0.06129613518714905
-0.006960858125239611
-0.049779947847127914
0.04286813363432884
-0.05310951918363571
-0.027877481654286385
-0.03344033285975456
-0.11158831417560577
-0.038575462996959686
-0.005932006053626537
0.06719314306974411
-0.013544740155339241
0.010851242579519749
-0.04910825192928314
-0.050933875143527985
0.04405267909169197
0.004673689138144255
0.142685204744339
-0.019226692616939545
-0.10719987750053406
-0.02765660360455513
-0.017546890303492546
0.0811646431684494
-0.1146094799041748
0.01242796704173088
-0.053085435181856155
0.1360095888376236
-0.020629843696951866
-0.007350060157477856
0.029771948233246803
-0.009252369403839111
0.1006496250629425
-0.07305365055799484
0.09051528573036194
0.0611380934715271
-0.007754755672067404
0.09197759628295898
0.001082834554836154
-0.0814913883805275
0.012872381135821342
0.10119464248418808
0.055280379951000214
-0.025998031720519066
0.11760298907756805
-0.021943027153611183
-0.10755407810211182
-0.16619831323623657
0.05305963382124901
-0.07789719849824905
-0.0313187874853611
0.005705359857529402
-0.03217539191246033
-0.10604698956012726
-0.01892732083797455
-0.014428197406232357
-0.0016943208174780011
0.09584885090589523
-0.08209607005119324
0.010441032238304615
-0.10142363607883453
0.03743194043636322
0.02609959989786148
0.09651561081409454
0.09304460883140564
-0.05837337672710419
-0.05641840398311615
0.08403970301151276
-0.05015643313527107
-0.0661541298031807
-0.03290680795907974
-0.08342930674552917
0.05678833648562431
-0.06235804036259651
0.034952275454998016
-0.12188538163900375
-0.02841905504465103
-0.010422971099615097
-0.045598071068525314
-0.0012007487239316106
-0.0004124275001231581
-0.0944533497095108
0.07687496393918991
0.10503610968589783
-0.03426850587129593
-0.0870971754193306
0.13052931427955627
0.016519756987690926
-0.07201061397790909
0.03438178077340126
0.10230734199285507
-0.12081906199455261
0.03737860918045044
0.01731610856950283
-0.01895957626402378
0.035373520106077194
-0.06295695900917053
0.07841522246599197
-0.10936642438173294
-0.033250369131565094
-0.056875936686992645
-0.03725815191864967
-0.0064277732744812965
-0.061015985906124115
-0.030274393036961555
0.13195520639419556
0.0008838865323923528
0.022755920886993408
0.017300589010119438
-0.054354287683963776
0.026593009009957314
-0.0022942598443478346
-0.030899502336978912
-0.19775502383708954
0.012459787540137768
0.09826791286468506
-0.04463516175746918
0.01120844203978777
0.14313560724258423
0.03219980746507645
0.0013915521558374166
0.043497826904058456
-0.05310695618391037
-0.07539104670286179
0.06894014775753021
0.03618151694536209
0.06054435297846794
0.04170582443475723
0.022153891623020172
0.056908078491687775
0.007040536496788263
-0.021152380853891373
-0.03498939424753189
0.10715510696172714
-0.07255139201879501
-0.01755998656153679
-0.020609701052308083
-0.011578753590583801
0.027024898678064346
-0.09384176135063171
-0.008334721438586712
0.015960797667503357
-0.03816072642803192
-0.05316641554236412
-0.026128513738512993
0.12773624062538147
-0.05809342488646507
-0.039196934551000595
-0.033161841332912445
-0.01662411168217659
0.014604690484702587
-0.08439043909311295
0.09065829962491989
0.14337235689163208
0.07095079869031906
-0.034535933285951614
-0.10057297348976135
0.05803872272372246
0.1670255810022354
-0.04049192741513252
-0.008082936517894268
0.002063262974843383
0.027555905282497406
0.05064636096358299
-0.0960659384727478
0.06147529557347298
-0.048492323607206345
-0.041450925171375275
0.0009355369838885963
-0.0022232229821383953
0.05396433547139168
0.033463023602962494
-0.02646584063768387
0.02469799295067787
-0.010636065155267715
0.008998915553092957
0.057352498173713684
0.017802083864808083
-0.048821963369846344
0.04941316694021225
-0.10144928842782974
-0.1439395397901535
-0.020107386633753777
-0.024237751960754395
0.0565800704061985
-0.043657418340444565
-0.05894454941153526
0.09898898750543594
0.06180417910218239
0.10918758064508438
0.024855002760887146
-0.0680205449461937
0.01695258729159832
-0.021811826154589653
0.03050101362168789
-0.14909081161022186
-0.035998981446027756
0.16035306453704834
0.008167095482349396
-0.07956891506910324
-0.007341551128774881
0.06930109858512878
0.04704180359840393
0.011647652834653854
-0.03634500131011009
0.061983440071344376
0.01848570443689823
0.0557633638381958
-0.004167051520198584
-0.08560355752706528
0.03887777402997017
0.046925947070121765
-0.05618852376937866
-0.0507802814245224
-0.07581844925880432
-0.008340243250131607
-0.12721380591392517
-0.13819487392902374
0.07834003120660782
0.0348040945827961
-0.003951741382479668
0.0710061639547348
-0.017412543296813965
0.09579245001077652
-0.01260179840028286
0.017085358500480652
-0.03651644289493561
-0.019863981753587723
0.007528229150921106
0.090941421687603
-0.01210127305239439
0.051622889935970306
-0.07673605531454086
-0.05505228042602539
0.10583120584487915
0.02486054226756096
-0.07627912610769272
-0.05714716762304306
-0.0059353504329919815
-0.1346685290336609
0.05711790919303894
-0.1144527792930603
-0.05678877606987953
-0.035837508738040924
-0.026323499158024788
-0.08539990335702896
0.021655870601534843
-0.04142018407583237
0.033537961542606354
0.004009557422250509
0.040074821561574936
-0.017123404890298843
0.05744386091828346
0.05304718390107155
-0.058126941323280334
-0.0020633041858673096
0.061830975115299225
0.04175921157002449
-0.002952486975118518
0.0282902829349041
-0.030479762703180313
0.08023563772439957
0.05232236534357071
0.05178353190422058
-0.02831224724650383
0.005409058183431625
0.003256644122302532
0.04632540047168732
-0.04551168158650398
-0.0341714583337307
0.15133337676525116
-0.023821627721190453
0.06319969147443771
-0.02297072298824787
-0.009781748056411743
-0.06788791716098785
0.03254338353872299
-0.08897294849157333
-0.02439274452626705
0.03273839130997658
-0.018248174339532852
-0.04480331391096115
-0.024521999061107635
-0.010884745977818966
-0.008964769542217255
0.08113699406385422
0.09072554111480713
-0.02168472670018673
0.03347590193152428
-0.025848055258393288
0.08317039161920547
0.06816720217466354
-0.03942703455686569
0.005988012999296188
-0.056446339935064316
-0.028171474114060402
0.01541826780885458
-0.06728058308362961
-0.048636190593242645
-0.0782928541302681
-0.05978455767035484
0.07629963755607605
0.01054363138973713
-0.10890772938728333
0.10293184220790863
0.11695802956819534
0.0067847976461052895
0.00756697915494442
-0.04147014766931534
0.0879242867231369
0.045044057071208954
0.05981973558664322
-0.13794757425785065
-0.014956627041101456
0.005731503013521433
0.051145367324352264
0.018343858420848846
0.08272403478622437
0.01993042416870594
0.05395927652716637
0.02401285246014595
-0.09110942482948303
0.02000507339835167
-0.0951852947473526
0.032341118901968
0.01593419723212719
0.04749424383044243
0.07841762155294418
0.0242919921875
0.026339635252952576
0.03182809799909592
0.08007492125034332
0.058017656207084656
0.02166827768087387
-0.11511056125164032
-0.09199383109807968
-0.03359515964984894
-0.08158175647258759
0.05001727119088173
-0.028659433126449585
-0.03621916100382805
0.025631925091147423
-0.008349930867552757
0.11370031535625458
-0.03700637072324753
-0.05924876406788826
-0.04932558909058571
-0.03449385613203049
0.0016720723360776901
0.006139130797237158
0.029746543616056442
-0.13363289833068848
0.06915700435638428
0.06096969544887543
-0.010542619973421097
0.1006796807050705
-0.0006115727010183036
-0.026473037898540497
-0.057470254600048065
0.07599944621324539
0.020285097882151604
-0.07144183665513992
0.0018034123349934816
0.188872292637825
0.08561833947896957
0.07491524517536163
-0.12495902180671692
-0.02958056516945362
-0.0984770804643631
0.08845944702625275
-0.012619668617844582
-0.005286762490868568
0.07564467936754227
-0.12762579321861267
0.03256366401910782
0.057286858558654785
-0.04096411541104317
-0.01510846521705389
-0.02011566050350666
-0.031628336757421494
0.07349076867103577
0.06477951258420944
0.049599844962358475
-0.17239205539226532
-0.19642804563045502
0.07949788123369217
0.017764579504728317
0.13902243971824646
-0.05201715975999832
-0.01954611949622631
-0.2067367285490036
-0.10900205373764038
-0.02831280790269375
-0.049631644040346146
-0.04820021614432335
-0.24970734119415283
-0.010934212245047092
-0.1413118690252304
-0.09622006863355637
0.15318267047405243
0.10596176981925964
-0.1439157873392105
0.0015267865965142846
0.00591421639546752
-0.07391612231731415
-0.06572499871253967
-0.1718336045742035
-0.01447257213294506
0.18747588992118835
0.007869639433920383
-0.005318597890436649
0.04920616000890732
0.11060915887355804
0.330074667930603
0.09776140749454498
0.14810393750667572
0.1333296149969101
0.08572408556938171
0.009016688913106918
-0.16266007721424103
-0.15548743307590485
0.08201918751001358
-0.14063329994678497
-0.0720098614692688
-0.07168751955032349
0.0082938764244318
0.19293250143527985
-0.06379790604114532
0.011836821213364601
-0.05007113143801689
0.055938273668289185
0.040609318763017654
-0.22635459899902344
-0.14896313846111298
0.17631796002388
0.1333332061767578
-0.13686777651309967
-0.0017155626555904746
0.00969694647938013
0.08691186457872391
0.10757499188184738
0.002472273539751768
0.027334950864315033
-0.05035943537950516
0.09404516220092773
-0.019737016409635544
-0.20133469998836517
0.0634508728981018
-0.010460094548761845
0.21803686022758484
0.22435647249221802
-0.01844499446451664
-0.04601091891527176
-0.1720561385154724
-0.018937241286039352
0.11926604062318802
-0.02951117232441902
0.10611443221569061
0.2806973159313202
0.01941802352666855
-0.1846206784248352
-0.17772142589092255
-0.006929977796971798
0.14940319955348969
0.08637011796236038
-0.03271512687206268
-0.08453238010406494
-0.2267804592847824
0.031030762940645218
-0.16747809946537018
-0.11823493987321854
-0.2600572407245636
0.02290649153292179
-0.006340033374726772
-0.11801532655954361
0.05270738527178764
-0.17572753131389618
-0.16436129808425903
0.023176487535238266
0.1485161930322647
-0.007591418921947479
0.1231851652264595
-0.019978653639554977
-0.10670726746320724
0.1139538362622261
0.06116500124335289
0.18759196996688843
0.044441983103752136
-0.06996015459299088
0.1601269245147705
0.16201868653297424
0.033504925668239594
-0.09503796696662903
0.0748177021741867
-0.1100030168890953
-0.17838744819164276
-0.011958594433963299
0.0750870332121849
-0.005662580952048302
0.11581039428710938
-0.08474434167146683
-0.11009413748979568
-0.04311337321996689
0.08332639932632446
0.044165611267089844
-0.053630389273166656
-0.2738296687602997
-0.10113412141799927
0.19060613214969635
0.29170650243759155
-0.09510941803455353
-0.025450414046645164
0.028828900307416916
0.0033961765002459288
-0.0630701333284378
0.0033220648765563965
0.07636470347642899
-0.08199091255664825
0.031833466142416
-0.058823782950639725
0.12812469899654388
-0.017232824116945267
-0.011209486983716488
0.10876046121120453
-0.019601786509156227
0.11283592134714127
-0.18146635591983795
-0.04933682829141617
-0.061265721917152405
-0.09588844329118729
-0.09000402688980103
0.0023624086752533913
-0.03630237653851509
0.028977379202842712
0.06825874745845795
-0.005122241098433733
-0.08765637874603271
-0.00695515051484108
-0.10544628649950027
0.043497808277606964
0.004397200420498848
0.1594930738210678
-0.002481115283444524
-0.0980122834444046
-0.11877059936523438
-0.052026133984327316
-0.05134088918566704
0.13071776926517487
0.07128853350877762
-0.08228527754545212
-0.07437863945960999
0.008962207473814487
0.09533172100782394
-0.0029242089949548244
0.026571830734610558
0.11607570946216583
-0.0016569591825827956
-0.05407416447997093
0.041302602738142014
-0.053651370108127594
-0.042535629123449326
-0.07966262847185135
0.02667573280632496
-0.10615698248147964
0.04410400241613388
-0.1360345333814621
-0.010807429440319538
-0.033400826156139374
-0.02316422015428543
-0.010786779224872589
0.13369005918502808
0.030214805155992508
-0.03191961720585823
-0.04493286833167076
-0.06081700697541237
-0.10607192665338516
-0.025588661432266235
0.09064048528671265
0.0362081378698349
0.09079929441213608
-0.001166794914752245
-0.014201043173670769
-0.10182207822799683
-0.08939236402511597
-0.008298230357468128
0.009311776608228683
-0.06668867915868759
-0.12926942110061646
0.007519913837313652
-0.09737343341112137
0.019839631393551826
0.11219723522663116
0.01422354206442833
0.1200939416885376
-0.0300003532320261
-0.07777947187423706
0.11299259960651398
0.12179424613714218
0.07721216231584549
-0.08648210018873215
-8.505708683514968e-05
0.0049169957637786865
0.13126343488693237
0.03607210889458656
-0.12220125645399094
-0.011695669032633305
-0.08201856166124344
0.006440380122512579
-0.023186801001429558
-0.03252503648400307
0.01283140666782856
0.016294658184051514
0.018095679581165314
0.13221991062164307
0.009726429358124733
0.04797275736927986
0.044070497155189514
0.024480413645505905
0.07336167991161346
-0.17312756180763245
-0.025008011609315872
-0.056248344480991364
0.03838234394788742
0.0059332470409572124
0.09060893207788467
-0.061917174607515335
0.11052627861499786
0.23837922513484955
-0.0951378270983696
0.12881669402122498
-0.0263922531157732
-0.16480134427547455
-0.07203475385904312
-0.024259814992547035
0.08026615530252457
-0.03218652680516243
-0.04085230827331543
-0.12806855142116547
0.03478884696960449
0.05400145798921585
-0.007165944203734398
-0.06064435467123985
0.08223672211170197
0.05256444960832596
-0.048822276294231415
-0.010577618144452572
0.024059483781456947
-0.014544328674674034
-0.02059193141758442
-0.0027351980097591877
0.019387947395443916
0.022963864728808403
0.022136712446808815
0.13794375956058502
-0.042904458940029144
0.05417902395129204
-0.09138936549425125
0.06845376640558243
-0.0024406856391578913
0.015784604474902153
0.0032846841495484114
0.061891715973615646
-0.055538054555654526
-0.023915141820907593
0.05066895857453346
-0.030992962419986725
0.047425881028175354
-0.02587824873626232
-0.016032619401812553
-0.0634608194231987
-0.045484162867069244
0.011972314678132534
-0.06706764549016953
-0.018997885286808014
-0.0036319049540907145
-0.1119154617190361
0.035827577114105225
-0.026981640607118607
-0.030002575367689133
-0.0003671609447337687
-0.07348457723855972
-0.013290331698954105
0.0505957156419754
0.004495970904827118
0.02970932424068451
0.015178241766989231
0.0229487381875515
-0.004308671224862337
-0.04734254628419876
0.030543368309736252
-0.022873077541589737
-0.03968435153365135
0.0706711933016777
0.05191463604569435
-0.032221719622612
0.0460614338517189
0.07779771834611893
-0.02876128815114498
0.043000563979148865
0.030121374875307083
-0.013390114530920982
-0.07375176250934601
0.03469952195882797
-0.002343137050047517
-0.1015084758400917
-0.013755794614553452
0.0759604424238205
0.06828773021697998
-0.012935158796608448
-0.12433682382106781
0.07676812261343002
0.05079403519630432
-0.028154566884040833
-0.035853710025548935
0.02657586708664894
0.047708962112665176
0.047156643122434616
0.02605203352868557
-0.09731841832399368
-0.10586463660001755
0.03326816111803055
0.09816144406795502
0.009503871202468872
0.0009520023595541716
-0.0511179082095623
0.09217092394828796
-0.04700293391942978
-0.040366820991039276
-0.02852843701839447
-0.008678759448230267
0.003907028120011091
-0.04105009138584137
-0.025039255619049072
-0.008825489319860935
0.029807303100824356
0.08337543159723282
-0.016420286148786545
0.003376980312168598
-0.005821592174470425
-0.006387039087712765
0.039315324276685715
-0.028596434742212296
-0.013545287773013115
0.0011721003102138638
0.0598050020635128
-0.0976167619228363
-0.038439251482486725
-0.09388386458158493
-0.051148150116205215
-0.038201164454221725
0.10365556925535202
0.09239073097705841
-0.06453005969524384
0.0036489146295934916
0.08240386843681335
-0.07774155586957932
0.09258317202329636
0.06093628704547882
-0.07780729234218597
0.003399389795958996
0.05012305825948715
-0.02730562351644039
0.054138343781232834
0.05009318143129349
0.00728234788402915
0.0264325812458992
-0.03238832578063011
-0.04227833077311516
-0.12150724977254868
-0.0335070863366127
-0.02229118160903454
0.03881584107875824
-0.049151524901390076
-0.15309754014015198
0.28891998529434204
0.07534544169902802
0.059098757803440094
-0.09550243616104126
0.06704451888799667
0.02970426343381405
0.13988043367862701
0.03505951911211014
-0.031854696571826935
-0.09409044682979584
-0.005666092969477177
-0.09352203458547592
0.022589432075619698
0.08345698565244675
-0.08897777646780014
-0.0572676882147789
-0.005465649999678135
0.04595905914902687
-0.05527462065219879
-0.17273399233818054
-0.1855287104845047
0.04844065383076668
0.13558605313301086
-0.020015593618154526
-0.0947546660900116
0.07077758014202118
-0.1014489084482193
-0.13502340018749237
-0.0038427505642175674
0.03628716990351677
0.05398652330040932
0.10791945457458496
0.004190240055322647
0.0350106880068779
0.03269422799348831
0.011581397615373135
0.009600081481039524
0.06270451843738556
0.035643186420202255
0.0429382249712944
-0.06873802840709686
0.016907213255763054
-0.0211515910923481
0.06051920726895332
0.10849041491746902
-0.057036787271499634
0.050941742956638336
-0.05472176522016525
-0.013974967412650585
0.01332245022058487
-0.028678549453616142
-0.10851965844631195
-0.06978340446949005
0.07380451261997223
0.0454685240983963
0.015441781841218472
0.0047789388336241245
-0.1037573516368866
0.05843662470579147
-0.10287845134735107
-0.02757093869149685
0.12963466346263885
0.022183580324053764
0.06282690912485123
-0.04227925091981888
0.007292643655091524
-0.03412080928683281
-0.11052689701318741
-0.004789348226040602
-0.05191167816519737
0.07848557084798813
-0.020955663174390793
-0.05973367765545845
0.01885942555963993
-0.06869711726903915
-0.014642844907939434
0.05489170923829079
-0.015945490449666977
0.0213906392455101
0.08227875083684921
0.08588162064552307
0.013758293353021145
-0.20720763504505157
0.047612011432647705
-0.01838759519159794
0.00731942942366004
-0.11836621910333633
-0.005105779506266117
-0.07976319640874863
-0.06224982440471649
0.0790800079703331
0.07074075937271118
-0.059652525931596756
-0.08117076754570007
-0.07560361921787262
-0.022579647600650787
0.12433268129825592
-0.03665503114461899
0.036924298852682114
0.07274845242500305
-0.08706611394882202
0.03253272548317909
0.11439289152622223
-0.03232571855187416
-0.05217285826802254
-0.07650505751371384
0.08592506498098373
-0.030674057081341743
0.011881792917847633
0.0789959728717804
-0.061995841562747955
0.11905432492494583
-0.16081146895885468
-0.1383078545331955
-0.19079551100730896
-0.0319150947034359
0.012615291401743889
-0.003741130931302905
-0.012086991220712662
0.0381234735250473
0.05871548131108284
0.04831666499376297
-0.05834096297621727
0.17124584317207336
-0.04684135690331459
0.018427766859531403
-0.0164240263402462
-0.01182923000305891
0.09044738858938217
0.0043595582246780396
0.03709115460515022
0.032594580203294754
-0.03609935939311981
-0.0029885685071349144
0.016631903126835823
-0.06127137318253517
0.05306021869182587
-0.012861816212534904
0.03787442669272423
0.0011222664033994079
-0.014254037290811539
0.026240909472107887
0.05655010789632797
-0.07202885299921036
-0.04436447098851204
-0.012039069086313248
0.08148106187582016
-0.14796356856822968
0.010710814036428928
0.039034731686115265
0.09913234412670135
-0.059465423226356506
0.032604146748781204
0.003273399779573083
0.046969231218099594
0.10669983178377151
0.09308997541666031
0.014193402603268623
-0.0189836323261261
-0.03376259282231331
-0.026402674615383148
0.040739744901657104
-0.03518421947956085
-0.04272235929965973
0.043184809386730194
0.03699991852045059
-0.031248170882463455
-0.02170935459434986
-0.041817229241132736
-0.13811402022838593
-0.025194883346557617
0.02208692952990532
-0.0792590007185936
0.034176114946603775
-0.012557490728795528
-0.03351406380534172
0.05529693141579628
-0.017240535467863083
-0.08816660195589066
0.13368599116802216
0.06870806217193604
0.03781686723232269
0.004912637174129486
-0.004611560609191656
0.007640560157597065
-0.08270540088415146
-0.04358715936541557
0.014943442307412624
0.07996147871017456
0.004834267310798168
0.06016337871551514
-0.0022620712406933308
-0.07005278021097183
0.11890500038862228
0.053437959402799606
0.07060226052999496
0.06313371658325195
0.042362112551927567
0.07377322018146515
-0.009877405129373074
-0.04331407696008682
-0.08236825466156006
-0.06747280061244965
-0.03742911294102669
0.0647055059671402
-0.05346160754561424
0.07893004268407822
-0.011665835045278072
-0.026970118284225464
-0.04222259670495987
0.052648402750492096
-0.06784412264823914
-0.046961959451436996
-0.01739761233329773
-0.03782372176647186
0.04696061462163925
0.019594945013523102
-0.054896216839551926
-0.11784196645021439
-0.017694834619760513
-0.017478862777352333
0.12498992681503296
-0.09177465736865997
0.08363256603479385
-0.06858886033296585
0.046302106231451035
0.0387197770178318
-0.013659725897014141
-0.022228948771953583
-0.020373040810227394
0.06403619796037674
0.10809066891670227
-0.10524892807006836
0.04108177870512009
0.019038472324609756
0.12858080863952637
-0.006332238204777241
0.010665803216397762
0.052742231637239456
-0.006080072373151779
-0.004534052684903145
-0.027622658759355545
-0.06527010351419449
0.006422403734177351
0.0736369863152504
0.018360480666160583
0.013929220847785473
-0.027703428640961647
0.04594290629029274
0.06673599034547806
0.05738542228937149
0.09017418324947357
0.3337435722351074
-0.10883662849664688
-0.0728415995836258
-0.05537954717874527
-0.06823562830686569
0.021578963845968246
0.056513942778110504
-0.0737919881939888
-0.17184598743915558
0.12859204411506653
-0.007391930557787418
-0.04188593849539757
0.011285360902547836
0.07727159559726715
0.03194868564605713
-0.0226308424025774
-0.05547511205077171
-0.040625374764204025
-0.18437887728214264
-0.05979841575026512
-0.14818741381168365
0.11439391225576401
-0.017959903925657272
0.07813102006912231
0.0883328914642334
0.018201272934675217
-0.010134539566934109
-0.05427791550755501
-0.18654146790504456
-0.09579670429229736
-0.01065038237720728
0.03896741196513176
-0.15261507034301758
-0.1419709026813507
-0.0008981719147413969
0.06460342556238174
-0.034795619547367096
0.15500077605247498
0.06277317553758621
-0.2321978211402893
-0.003336812136694789
0.041131485253572464
0.07310008257627487
-0.011666686274111271
0.010474917478859425
-0.04824674874544144
0.10419300198554993
0.10926774889230728
-0.04698718339204788
-0.15636010468006134
-0.012924609705805779
-0.016546884551644325
-0.06712856143712997
-0.04919875040650368
-0.039427340030670166
-0.10825458914041519
-0.18082527816295624
0.08702594041824341
0.04768674448132515
0.009028991684317589
0.021259207278490067
0.1117456927895546
-0.011471794918179512
0.025343207642436028
0.10622065514326096
-0.0329061858355999
0.04331941157579422
-0.02793460711836815
0.06208914890885353
-0.07621187716722488
0.13776440918445587
-0.039139389991760254
0.029680166393518448
0.05522175878286362
0.07764751464128494
0.059529416263103485
-0.18299660086631775
-0.015218449756503105
-0.016324862837791443
0.06710927933454514
-0.11780331283807755
0.1563088297843933
0.03742823749780655
-0.06271129101514816
0.10648941248655319
0.0968058854341507
-0.004275694023817778
0.06958870589733124
-0.07474193722009659
-0.06260308623313904
0.0011473956983536482
-0.16864122450351715
0.030748100951313972
0.09429101645946503
-0.0865868553519249
-0.013594185933470726
-0.13318511843681335
-0.008275685831904411
0.0641985535621643
0.03092075139284134
-0.008509626612067223
0.1621933877468109
0.03209477663040161
-0.11008279770612717
0.17646023631095886
-0.045968931168317795
-0.012383488938212395
-0.011244181543588638
0.009709092788398266
0.02581988461315632
0.06015409529209137
-0.0032986497972160578
0.025826260447502136
0.14290891587734222
-0.10060145705938339
-0.03569980710744858
-0.1561882048845291
0.08846132457256317
-0.01619407907128334
-0.008849816396832466
0.017405642196536064
0.05808424577116966
-0.001937928725965321
0.07342356443405151
-0.027277052402496338
0.13951575756072998
-0.07299847900867462
-0.24082398414611816
-0.024486340582370758
0.3115522861480713
0.09058231860399246
-0.20774005353450775
-0.04284144192934036
-0.2206806093454361
0.10909071564674377
0.18032217025756836
0.011901776306331158
0.14259472489356995
-0.10313079506158829
-0.09852449595928192
0.020443640649318695
0.08192760497331619
0.06644799560308456
-0.13979555666446686
-0.051287949085235596
0.031562283635139465
-0.29252761602401733
-0.3282514214515686
0.15065288543701172
0.04770922660827637
-0.15121768414974213
0.11110521852970123
0.013310293667018414
0.02848672680556774
0.17549863457679749
0.10538705438375473
0.18165653944015503
0.12009532749652863
-0.2133011370897293
-0.07769204676151276
0.01758236438035965
0.10570693016052246
-0.0753025934100151
0.06890478730201721
-0.04092302918434143
0.06922474503517151
-0.08816064894199371
0.011549737304449081
-0.0913991779088974
0.13223940134048462
0.1685469001531601
0.11656109243631363
-0.06311038136482239
0.058080293238162994
-0.024063291028141975
-0.18195271492004395
-0.24194057285785675
0.05209239572286606
-0.12797410786151886
0.051203906536102295
0.02606988325715065
-0.10515426099300385
0.09007904678583145
0.07905450463294983
-0.032559528946876526
-0.09226537495851517
-0.005871911067515612
0.08546140789985657
0.12644238770008087
-0.09394445270299911
-0.05397431552410126
-0.17645490169525146
-0.16065867245197296
-0.08536682277917862
0.24736954271793365
-0.17737546563148499
-0.04823562130331993
0.2004770040512085
0.10533318668603897
-0.024881480261683464
0.027705639600753784
0.0875181034207344
0.16669419407844543
0.2621849775314331
0.18684403598308563
0.06992263346910477
-0.012450557202100754
0.04305651783943176
-0.20985771715641022
-0.07986947149038315
-0.1997603178024292
0.2230735421180725
-0.02645895816385746
-0.038060545921325684
0.13714374601840973
-0.21867650747299194
0.025051426142454147
-0.10761620104312897
-0.3022565245628357
0.1422734558582306
-0.1281498223543167
0.028956152498722076
-0.20715300738811493
0.19567786157131195
-0.023988639935851097
0.1658349633216858
0.14967414736747742
0.12576532363891602
0.01803923211991787
0.07003360986709595
-0.13219749927520752
-0.26416870951652527
-0.18884173035621643
0.05914042145013809
-0.155979722738266
-0.0876002237200737
0.07311491668224335
-0.04560413211584091
-0.183740496635437
-0.023729536682367325
0.039773743599653244
0.16113388538360596
0.07264909893274307
0.22085699439048767
-0.029582273215055466
0.011712607927620411
0.07722271978855133
-0.2861877977848053
-0.010518844239413738
-0.015765147283673286
0.1410108208656311
0.02995252050459385
0.0005535193486139178
0.013731014914810658
-0.050953470170497894
0.0010852515697479248
0.06176174059510231
-0.04160059615969658
-0.06127419322729111
-0.11874068528413773
0.027149228379130363
-0.0624769851565361
-0.019073987379670143
0.04552217200398445
-0.05113331228494644
-0.07440672069787979
0.012459853664040565
0.11405861377716064
-0.13134820759296417
-0.014507369138300419
0.03579750284552574
0.020665083080530167
-0.005083151627331972
0.012623954564332962
-0.08967474848031998
-0.08800547569990158
0.025797266513109207
0.003448610892519355
-0.06313856691122055
0.12393693625926971
-0.07971145212650299
0.048183854669332504
0.008781860582530499
0.03817993029952049
0.09241025894880295
-0.0481724888086319
0.03643659129738808
0.0875806212425232
0.06778932362794876
0.01348868664354086
0.012894101440906525
0.06489197164773941
0.03079119324684143
-0.12125737220048904
0.0739593654870987
-0.062459785491228104
0.07269727438688278
0.10417997092008591
-0.07465239614248276
0.026547936722636223
0.06532075256109238
-0.022099629044532776
-0.061369650065898895
0.07887426018714905
-0.054451219737529755
-0.011590429581701756
0.019764497876167297
-0.051562268286943436
0.06603974848985672
0.16343286633491516
0.004941532853990793
0.14969752728939056
0.03465421497821808
0.02071344293653965
0.10417626798152924
0.043536558747291565
0.0034457920119166374
0.07257063686847687
-0.07815851271152496
-0.02500680461525917
-0.11311516910791397
-0.014816747047007084
-0.03125327453017235
-0.012914929538965225
-0.049048613756895065
0.013913293369114399
-0.01597069390118122
-0.1148781031370163
-0.06332796066999435
0.07137278467416763
-0.03015807457268238
-0.08598491549491882
0.011797686107456684
-0.047617990523576736
0.049396857619285583
-0.027283838018774986
0.051962949335575104
0.044535040855407715
0.07620681077241898
-0.09737382084131241
0.03904136270284653
0.026963548734784126
0.038183048367500305
0.048309631645679474
-0.02348412573337555
-0.008965029381215572
0.11958976089954376
-0.033490780740976334
-0.0025815600529313087
0.021330956369638443
0.05610279738903046
0.14180713891983032
0.004767065867781639
-0.015328631736338139
0.1118992269039154
-0.08155687153339386
-0.03465767204761505
-0.06798189878463745
-0.09880278259515762
0.04121719300746918
0.1020810604095459
0.03131483495235443
0.11400923132896423
-0.011332324706017971
-0.09820187091827393
-0.06394267827272415
-0.05475236475467682
-0.046529725193977356
0.005197471473366022
0.026691416278481483
0.03335084766149521
0.023146962746977806
0.035035647451877594
0.0048397984355688095
0.041027188301086426
0.04504546523094177
-0.012051240541040897
0.10899331420660019
0.13581624627113342
0.01876087859272957
-0.07150822877883911
0.1345996856689453
0.05457049980759621
-0.042902782559394836
0.05369048938155174
0.22497032582759857
0.03932112827897072
-0.16832587122917175
0.021168379113078117
-0.02297523058950901
0.017348602414131165
0.03396783769130707
0.0878448337316513
0.03680461272597313
0.05469588562846184
0.05993543937802315
0.026990393176674843
0.02317095175385475
-0.16366396844387054
0.07723429799079895
-0.019778979942202568
-0.026455668732523918
0.0447673536837101
0.009195576421916485
-0.0985790267586708
0.09400837123394012
0.02039415016770363
0.031639426946640015
-0.08940209448337555
-0.07333223521709442
0.026836063712835312
-0.010888312943279743
-0.08259040117263794
-0.012693782337009907
0.022785982117056847
-0.17441871762275696
-0.02671707049012184
-0.09522063285112381
-0.0272984616458416
0.052780862897634506
0.016727669164538383
-0.028245197609066963
0.04674246907234192
-0.04512842372059822
0.04139707237482071
0.1140756830573082
0.03777717053890228
0.07263216376304626
0.0756375715136528
-0.017261778935790062
0.06030432507395744
-0.04027878865599632
0.04035353288054466
-0.05898686870932579
0.09014195203781128
0.016452835872769356
-0.01580979861319065
-0.051573026925325394
0.011648678220808506
-0.03543221205472946
0.03762934356927872
0.07736510038375854
0.08762747794389725
-0.15982773900032043
0.018277838826179504
0.11754743754863739
0.058735545724630356
0.01692824997007847
0.0741836279630661
0.11313833296298981
0.027813861146569252
-0.14834706485271454
0.062325820326805115
-0.09462093561887741
-0.018540022894740105
-0.03440605476498604
-0.02170504443347454
0.06891734153032303
0.05833996459841728
-0.07756492495536804
-0.0500025637447834
-0.12563717365264893
0.0037529156543314457
-0.0342649407684803
-0.11461488902568817
0.08665589988231659
-0.03297719359397888
0.030997343361377716
-0.044013358652591705
-0.06176908314228058
0.023736238479614258
0.010298527777194977
-0.1875307708978653
0.017019303515553474
-0.024068742990493774
-0.09140890091657639
0.09843360632658005
0.06748641282320023
-0.006558860652148724
-0.08234982192516327
0.12036406993865967
0.14996172487735748
-0.03819634020328522
-0.1324009746313095
0.07798589766025543
0.04930242523550987
0.1292167752981186
-0.09017404168844223
-0.15855543315410614
-0.06424519419670105
-0.023972919210791588
-0.02461332269012928
-0.05470067262649536
-0.035289738327264786
-0.05505097657442093
-0.003259059274569154
0.20603269338607788
-0.10615851730108261
0.2619512677192688
-0.0635538399219513
-0.010750255547463894
0.10523495078086853
0.018880821764469147
-5.9731497458415106e-05
0.08435902744531631
-0.005137788597494364
-0.15175482630729675
-0.13389261066913605
-0.08714025467634201
-0.013323953375220299
-0.057934001088142395
-0.007143041584640741
-0.023169083520770073
-0.09404890239238739
0.00810209009796381
-0.06957027316093445
0.03319292888045311
-0.06341198831796646
-0.0546327568590641
-0.0277105700224638
0.09315930306911469
-0.038022588938474655
-0.06215784326195717
0.13902324438095093
-0.06624408811330795
0.010315469466149807
0.06608858704566956
-0.08285165578126907
0.06964854151010513
0.09738465398550034
-0.047155290842056274
-0.05625057965517044
-0.005927274934947491
-0.12400775402784348
0.017781594768166542
0.19023102521896362
0.023339100182056427
0.031209850683808327
0.07645173370838165
0.08121486008167267
0.061361491680145264
0.03573833033442497
-0.06038530170917511
-0.009551445953547955
-0.03693389892578125
-0.03495451435446739
-0.11775805801153183
-0.07183489203453064
-0.13528397679328918
-0.03243863955140114
-0.07106488943099976
0.006535794120281935
-0.050753720104694366
0.08811420202255249
0.0038736374117434025
-0.08292955905199051
0.08661745488643646
-0.038668833673000336
-0.0909482017159462
0.01127228420227766
-0.033268388360738754
-0.13389316201210022
0.15364430844783783
-0.07351692020893097
-0.01310177706182003
0.0031086732633411884
0.011941978707909584
-0.021101845428347588
-0.014219569973647594
-0.08770383894443512
-0.022718414664268494
0.10026343911886215
-0.003921356983482838
-0.08701121062040329
-0.01462456863373518
-0.014058778993785381
0.04257397726178169
0.11383432894945145
0.07932335883378983
0.022679639980196953
0.10107573866844177
0.011231704615056515
-0.03133178502321243
-0.02969655767083168
-0.0693308636546135
-0.043422628194093704
-0.021251698955893517
-0.02104792185127735
0.033978112041950226
0.038546327501535416
0.012092076241970062
-0.0005108346813358366
-0.009582055732607841
0.09438832104206085
0.01943846605718136
0.04651060700416565
0.023645637556910515
-0.05660908296704292
0.02649794891476631
-0.07649720460176468
0.15499965846538544
0.012823207303881645
0.031513310968875885
-0.03859924152493477
-0.00414430582895875
0.0741514042019844
-0.003912924323230982
0.06319165974855423
-0.08327138423919678
-0.04209693521261215
-0.021238839253783226
0.06535880267620087
0.0243852399289608
0.001307617872953415
0.0636112242937088
0.05928553640842438
-0.005279624368995428
-0.19500400125980377
-0.07292399555444717
-0.07882189005613327
0.03290099650621414
-0.03393381088972092
0.07809609919786453
0.09946650266647339
-0.009988046251237392
-0.0010472496505826712
-0.0727209821343422
0.08239492028951645
-0.008867479860782623
-0.04546340927481651
-0.12164037674665451
-0.047278933227062225
0.15614745020866394
0.0343489870429039
0.04722533002495766
-0.14674849808216095
0.05651818588376045
0.006112417206168175
-0.042345013469457626
0.07813433557748795
0.01216754037886858
0.008526334539055824
0.08063014596700668
-0.046672042459249496
0.04833566024899483
0.07592754811048508
0.021652095019817352
-0.02754131518304348
-0.04445170238614082
0.08520811796188354
0.056501466780900955
-0.08704598993062973
-0.08619941025972366
-0.01416031550616026
0.009421907365322113
-0.08139212429523468
0.015345060266554356
-0.05939154699444771
0.025810102000832558
-0.0405624620616436
0.04753221943974495
-0.0751168504357338
-0.07586634159088135
-0.09191486239433289
-0.10825879126787186
0.03679011017084122
0.03241616114974022
-0.04019073769450188
-0.18490108847618103
0.021228192374110222
-0.012015272863209248
0.12301843613386154
0.03789648041129112
0.014901897870004177
-0.08142931759357452
0.06217212229967117
0.026915740221738815
0.0019882158376276493
-0.0524301640689373
-0.06334183365106583
0.13386911153793335
0.0817212164402008
-0.08042415231466293
-0.08538132905960083
-0.17415186762809753
-0.12791959941387177
0.03554227575659752
-0.1274489015340805
0.10373464971780777
0.04988841712474823
-0.03739633411169052
-0.003901225747540593
-0.004034960642457008
-0.06446835398674011
-0.05075021833181381
-0.15728098154067993
-0.11232580244541168
-0.08611513674259186
-0.01510570477694273
-0.007649090141057968
0.11811614036560059
0.01373445987701416
-0.0308125838637352
-0.024202818050980568
-0.08493440598249435
-0.09461282938718796
0.07017380744218826
0.0657930076122284
0.02152196131646633
-0.0026096219662576914
-0.05642060935497284
0.04351753368973732
0.0833682045340538
-0.04100912809371948
0.11694639921188354
-0.05833795666694641
-0.012622380629181862
0.03307818993926048
-0.004350693896412849
0.07454133033752441
0.02451116405427456
-0.0069909049198031425
-0.012848202139139175
0.020877724513411522
0.06371110677719116
-0.14902731776237488
-0.010438944213092327
0.053827814757823944
-0.0629182904958725
0.030742261558771133
-0.20302483439445496
0.12476126104593277
-0.0005860781529918313
-0.18014825880527496
-0.024093864485621452
0.053610898554325104
0.012889743782579899
0.03051883727312088
-0.03543779253959656
0.029042718932032585
-0.01009667944163084
0.0019457521848380566
-0.039563409984111786
0.025287631899118423
0.003015425056219101
-0.13725486397743225
-0.020640190690755844
-0.10471022874116898
0.07318693399429321
0.02882026508450508
0.014220056124031544
0.02106432244181633
-0.13867948949337006
0.04118639975786209
-0.020199734717607498
0.050408605486154556
0.026324253529310226
-0.02415478229522705
-0.07036574184894562
0.04872050881385803
-0.06682725250720978
-0.01603952795267105
0.05096524581313133
0.06637132167816162
-0.043708499521017075
-0.02753169648349285
0.06455709785223007
-0.05021153390407562
0.032090362161397934
0.017911426723003387
0.08806882798671722
0.007189588155597448
0.014782086946070194
-0.061791203916072845
-0.11848393082618713
-0.043907925486564636
0.030541006475687027
0.11600030958652496
0.1074918583035469
0.14655199646949768
-0.005252989940345287
0.12408435344696045
-0.160319983959198
-0.05636268109083176
-0.11670646071434021
-0.05223320797085762
0.06438183039426804
0.0460951067507267
0.03968670219182968
0.1081368699669838
-0.009567593224346638
-0.15292158722877502
0.09867677837610245
-0.1904197633266449
0.04755895957350731
0.004767694976180792
-0.017809521406888962
-0.061028338968753815
0.09806838631629944
-0.32664066553115845
-0.01128852553665638
0.13742482662200928
0.037071265280246735
0.15897850692272186
-0.06142355501651764
0.07861188799142838
-0.25018927454948425
0.07014050334692001
-0.037392858415842056
-0.004671571310609579
0.16296227276325226
0.23672091960906982
0.0783919170498848
-0.029000453650951385
-0.01760965771973133
0.015079312026500702
-0.01623113825917244
-0.0823662206530571
-0.10215761512517929
-0.0858379602432251
-0.39909929037094116
0.008962390944361687
0.06381882727146149
0.20426958799362183
0.052010428160429
0.20334012806415558
-0.024347838014364243
-0.08155153691768646
0.011356464587152004
0.14177162945270538
0.06691624224185944
-0.07098090648651123
-0.053347278386354446
0.009369305334985256
-0.04865854233503342
-0.0031326531898230314
-0.07095161080360413
0.1154441386461258
0.1830739676952362
-0.12656621634960175
0.02427239529788494
-0.025376098230481148
-0.028560571372509003
0.02277522161602974
-0.016341695562005043
-0.13678821921348572
0.26280179619789124
0.22348743677139282
-0.060997121036052704
-0.16694876551628113
-0.01655729115009308
0.1062803715467453
0.06538215279579163
0.04980049282312393
-0.11029275506734848
-0.12375470995903015
0.049833543598651886
0.20455659925937653
0.27492934465408325
-0.2063165158033371
-0.22948336601257324
0.22508470714092255
0.1718592792749405
-0.09519405663013458
-0.10741866379976273
-0.26077452301979065
0.08621345460414886
0.0226665697991848
0.1187082827091217
-0.26826316118240356
0.30215129256248474
0.07217259705066681
0.017726970836520195
-0.09750736504793167
-0.1714186817407608
0.4015434980392456
-0.023716619238257408
-0.057429976761341095
-0.06247945502400398
-0.4242258369922638
-0.013594334945082664
-0.06419285386800766
-0.16101330518722534
-0.006801428738981485
0.06292843073606491
0.01616223342716694
-0.020006833598017693
0.009738046675920486
0.12716105580329895
-0.11521816998720169
0.21470066905021667
-0.017132658511400223
-0.042399369180202484
0.10312909632921219
0.014715807512402534
0.18337376415729523
0.024939604103565216
0.009633494541049004
0.04020920395851135
-0.11900622397661209
-0.12954643368721008
0.11021613329648972
-0.08608291298151016
0.1826697140932083
-0.053306177258491516
-0.05245381221175194
0.04907326027750969
0.0203629769384861
-0.05645528808236122
0.2787175476551056
-0.038626961410045624
-0.1663745641708374
-0.15719491243362427
0.056874241679906845
0.052209269255399704
0.11329415440559387
-0.028462383896112442
-0.08986020088195801
-0.13161137700080872
0.045939426869153976
-0.10942941159009933
-0.2593761384487152
0.0840488150715828
-0.13461647927761078
0.32097750902175903
0.07583365589380264
-0.015712739899754524
-0.051667291671037674
-0.09445392340421677
-0.18181665241718292
0.22040753066539764
-0.02774166129529476
-0.06952919811010361
-0.18945400416851044
-0.12915028631687164
0.008089574053883553
-0.050154104828834534
0.19807644188404083
-0.14820046722888947
0.2818717062473297
0.053373727947473526
-0.08001656085252762
-0.060088783502578735
0.09997332096099854
-0.22680780291557312
-0.04103976488113403
-0.22646073997020721
0.11631506681442261
0.022755995392799377
0.057346321642398834
0.00822948757559061
0.2743149399757385
0.09171675145626068
-0.1291404813528061
0.26876798272132874
0.0437391996383667
0.1442297250032425
-0.14273974299430847
-0.16398422420024872
-0.06981461495161057
-0.031304046511650085
-0.08484681695699692
-0.008163312450051308
-0.0458841510117054
0.12298691272735596
0.21987764537334442
-0.15964536368846893
-0.10802912712097168
0.11922166496515274
-0.009066679514944553
0.06491712480783463
-0.2801506221294403
-0.04287267103791237
0.06572270393371582
0.09760946035385132
0.03596683591604233
0.035524990409612656
-0.14313744008541107
0.3053285777568817
0.024794980883598328
-0.038083165884017944
0.11901400983333588
-0.015264833346009254
-0.17679482698440552
-0.21173043549060822
-0.1417277306318283
0.20910774171352386
-0.2830997705459595
0.09573204815387726
0.2055310159921646
0.18894049525260925
-0.051584381610155106
-0.0677628368139267
-0.05508464202284813
0.1926845908164978
-0.17567160725593567
0.08814060688018799
-0.034309614449739456
0.0858435109257698
-0.005955419968813658
-0.06657472997903824
-0.20397935807704926
0.03188520669937134
0.02610483020544052
-0.018783727660775185
0.03426314517855644
-0.017748983576893806
-0.18452225625514984
-0.13028208911418915
0.005891236010938883
0.17128103971481323
0.09201539307832718
0.08325336128473282
-0.11144120246171951
0.101899653673172
0.011973857879638672
0.1485244333744049
0.06610812991857529
0.15449480712413788
0.01377276424318552
0.0969863012433052
0.010729637928307056
0.0028980905190110207
0.033713679760694504
-0.027109717950224876
0.04665922373533249
-0.018572207540273666
0.0007965582772158086
0.003683894407004118
0.00148296682164073
-0.13185352087020874
-0.037911079823970795
-0.058192647993564606
0.003341755596920848
-0.025893419981002808
-0.113257996737957
0.04277674853801727
-0.060848407447338104
0.007113627623766661
-0.01123194769024849
-0.01135343313217163
0.03105906769633293
-0.14093495905399323
-0.22173762321472168
-0.09186720103025436
-0.0898510292172432
-0.042849961668252945
0.006171693559736013
-0.03228912875056267
0.0882251188158989
0.014371765777468681
0.031523145735263824
0.03003150224685669
0.15011000633239746
0.052187539637088776
0.11069846153259277
0.04616334289312363
-0.04819934442639351
0.007571513298898935
0.04885564371943474
0.14242655038833618
0.013169746845960617
0.005376977380365133
0.013920643366873264
-0.04046899825334549
0.07351262867450714
-0.03969919681549072
-0.06844653189182281
-0.13262839615345
-0.017783857882022858
0.013269537128508091
-0.040074001997709274
-0.002090639667585492
0.09700676798820496
0.03107422962784767
-0.05611468479037285
0.11048924177885056
-0.004029686097055674
0.017560722306370735
0.03150174021720886
-0.06263776123523712
-0.06763409078121185
0.02074684202671051
-0.011936844326555729
0.07804489135742188
0.06372993439435959
0.06865530461072922
-0.035811278969049454
-0.08253228664398193
0.05637030676007271
-6.549251793330768e-06
0.018249552696943283
-0.008810600265860558
-0.10418882220983505
-0.08080725371837616
0.07654601335525513
0.06713316589593887
-0.01958812214434147
-0.044984400272369385
-0.047528382390737534
0.1000518947839737
0.019575195387005806
-0.07056385278701782
-0.009176445193588734
0.05500665679574013
0.0270204097032547
0.031658101826906204
-0.12849470973014832
-0.021422650665044785
0.005261975806206465
0.053724080324172974
0.04104510694742203
-0.11249452084302902
-0.038032304495573044
-0.07814721018075943
-0.04880901053547859
0.1034499779343605
-0.04903830587863922
0.009604718536138535
-0.05340574309229851
-0.019821928814053535
0.06524129211902618
-0.04414082691073418
-0.060367412865161896
-0.028395244851708412
-0.035911377519369125
0.004298132378607988
0.04879740625619888
-0.02084517292678356
0.07765044271945953
0.06932596117258072
-0.10507233440876007
-0.00040375537355430424
-0.014455859549343586
0.04082510620355606
-0.06449397653341293
-0.04127347841858864
-0.008455485105514526
0.06780321896076202
0.0202830471098423
0.01555266696959734
0.001334899803623557
-0.022176269441843033
-0.05207442864775658
0.004033976700156927
0.0893741101026535
-0.10003901273012161
0.046582743525505066
0.09944547712802887
0.037643302232027054
0.045476336032152176
0.07424316555261612
0.34058520197868347
-0.049043700098991394
-0.10254383087158203
-0.1098095178604126
0.01041352842003107
0.017625771462917328
0.06096775457262993
0.07972224801778793
0.02290847711265087
0.09713943302631378
-0.016600610688328743
0.014335733838379383
0.0316903218626976
0.011713307350873947
0.02340233139693737
-0.0241260789334774
-0.013483197428286076
0.021313173696398735
-0.07715629786252975
-0.051053065806627274
0.07212144136428833
0.07198826968669891
-0.05062764883041382
0.07541163265705109
-0.02371351420879364
0.00025955220917239785
-0.03417566046118736
-0.09404733777046204
-0.17305274307727814
-0.03576606884598732
0.13707250356674194
0.03274042159318924
-0.11644396930932999
0.0020256356801837683
0.013101059012115002
-0.07029996067285538
-0.010659590363502502
0.04723292589187622
-0.022419298067688942
-0.2803521454334259
0.06395267695188522
0.009351623244583607
0.050503749400377274
-0.043827395886182785
0.007580144330859184
0.02422907017171383
0.028469540178775787
0.11210576444864273
0.026118502020835876
-0.12115335464477539
0.06913348287343979
-0.009718579240143299
-0.07891235500574112
0.04020826518535614
-0.06420974433422089
0.019341986626386642
-0.07698249071836472
0.039958417415618896
-0.05738309398293495
0.03850232809782028
-0.04493281617760658
-0.0497448556125164
0.01426764577627182
0.02818113937973976
0.03112097643315792
-0.006297739688307047
0.037279900163412094
-0.00899664219468832
0.10897050052881241
-0.027063783258199692
0.05455317720770836
0.007765043061226606
0.02304581180214882
-0.019241947680711746
-0.07381615787744522
0.020372483879327774
-0.21062380075454712
0.004360430873930454
0.05211052671074867
0.02790890634059906
-0.07293391972780228
0.11404997855424881
0.03663758561015129
-0.023455604910850525
0.03861470893025398
0.018843846395611763
0.035613052546978
-0.030572662129998207
0.024046065285801888
0.01360835786908865
-0.141560360789299
-0.13117839395999908
0.06697342544794083
-0.01703133061528206
0.02485308051109314
0.037757061421871185
0.045192569494247437
0.0399247445166111
0.06276144087314606
0.03956615924835205
-0.05677683651447296
0.07786320149898529
-0.045806899666786194
-0.04524461552500725
0.030257685109972954
-0.035316694527864456
0.046774476766586304
-0.06667003780603409
-0.06425749510526657
-0.08481238037347794
-0.008002455346286297
-0.14289051294326782
-0.10156994313001633
0.006468879524618387
0.019839519634842873
0.020470738410949707
-0.02440887875854969
0.16150078177452087
0.002478987444192171
-0.08194801956415176
-0.02792222797870636
-0.024496888741850853
-0.1876952052116394
0.11005806177854538
0.08098957687616348
0.003957004752010107
-0.06519614905118942
0.10210824012756348
0.07712244242429733
0.009980163536965847
0.023261066526174545
0.04746513441205025
0.008902098052203655
-0.07560566812753677
0.045725371688604355
0.003439944935962558
-0.18010461330413818
0.0012344664428383112
-0.0936615988612175
0.07635726034641266
0.0398126095533371
-0.0767984390258789
-0.06515023112297058
-0.06317384541034698
-0.08096005022525787
0.052206818014383316
0.02873733825981617
-0.024103417992591858
0.12729007005691528
-0.05428890511393547
0.04037905111908913
-0.044545210897922516
-0.11786491423845291
0.07656241208314896
0.0012930658413097262
-0.06863551586866379
0.17403751611709595
0.07114095240831375
0.04773164913058281
0.18472078442573547
-0.02637997642159462
0.0339035838842392
0.035708021372556686
-0.0473017543554306
-0.026477329432964325
0.06587859243154526
0.017620431259274483
-0.07469471544027328
0.009710471145808697
-0.04035867750644684
0.05687912926077843
-0.09091358631849289
0.020937670022249222
0.028122736141085625
-0.01423982996493578
0.12708519399166107
-0.021137727424502373
-0.07136867940425873
-0.050340067595243454
0.10053816437721252
-0.08172407001256943
0.1993160843849182
-0.08676119893789291
0.11622646450996399
0.03215135261416435
0.0011624129256233573
0.316276878118515
-0.06502390652894974
-0.0060303243808448315
-0.12124577909708023
-0.04568503797054291
0.011938348412513733
0.08051715046167374
0.036044880747795105
0.005409167148172855
0.0181321632117033
-0.07614041119813919
-0.030783431604504585
-0.10375157743692398
-0.0816911980509758
-0.047109514474868774
0.032746389508247375
0.004334736615419388
0.0453161783516407
0.15718209743499756
-0.03568486124277115
0.18955956399440765
-0.0065952506847679615
-0.06823106110095978
0.0636703372001648
-0.09850989282131195
0.14708569645881653
-0.14074073731899261
-0.08355371654033661
0.018224043771624565
0.051679618656635284
-0.0767270177602768
-0.09787617623806
-0.020045587792992592
0.007580024655908346
-0.08239562809467316
0.0886881873011589
-0.03545934706926346
0.05878634378314018
-0.08699076622724533
0.15235446393489838
0.06012134253978729
-0.06939306855201721
-0.06734763830900192
-0.09080468118190765
0.0335116945207119
-0.05462116375565529
0.03690892085433006
-0.10341239720582962
0.08753452450037003
0.08839138597249985
0.028653617948293686
-0.06530848145484924
-0.11924555897712708
-0.022177401930093765
-0.059505682438611984
-0.16117267310619354
0.06627587974071503
0.052444007247686386
-0.10053372383117676
-0.024477995932102203
0.11554532498121262
0.06114925071597099
-0.14514806866645813
0.49103912711143494
-0.15109848976135254
-0.1312219649553299
0.11099328100681305
0.004733780864626169
-0.10173377394676208
-0.1867433339357376
-0.06698053330183029
-0.0020314743742346764
0.257231742143631
-0.11944350600242615
0.11802111566066742
-0.14159394800662994
0.03058690018951893
0.03198166564106941
-0.007368776481598616
0.11288772523403168
0.1613745540380478
-0.1414920836687088
-0.07613355666399002
-0.00439109280705452
-0.0435841828584671
-0.1902799904346466
0.11301741003990173
-0.06652455776929855
-0.24755632877349854
-0.026613930240273476
0.16102829575538635
0.07931029051542282
-0.20575973391532898
0.24640971422195435
-0.16578729450702667
0.013496322557330132
0.07832455635070801
-0.0006304633570834994
-0.025321030989289284
0.12890371680259705
-0.04405534267425537
-0.07452268898487091
-0.299591600894928
0.030778169631958008
0.01807641051709652
0.08371028304100037
0.2858223021030426
-0.012552665546536446
-0.011303810402750969
0.03913961723446846
-0.045116499066352844
0.16644996404647827
0.028782403096556664
-0.1078801080584526
-0.005896999966353178
0.17704661190509796
-0.13446786999702454
-0.2691148817539215
-0.1568286418914795
0.150410458445549
-0.027183592319488525
-0.05117771774530411
-0.02914579026401043
-0.014812526293098927
0.06731787323951721
0.15297135710716248
0.16716007888317108
0.08269468694925308
0.020789068192243576
-0.045997004956007004
-0.04590645432472229
-0.0290280282497406
-0.08845291286706924
-0.0799725130200386
-0.18461941182613373
0.16021136939525604
0.13395081460475922
-0.15987470746040344
-0.19690364599227905
-0.014208226464688778
-0.00594446063041687
-0.10329709202051163
0.0015489431098103523
-0.04252029210329056
0.09008226543664932
0.08453008532524109
0.10795113444328308
0.223483145236969
-0.0011671464890241623
0.0557343065738678
-0.05067412555217743
-0.04356313869357109
0.024006390944123268
-0.07479927688837051
-0.04914220795035362
-0.07203370332717896
0.11198660731315613
-0.050041455775499344
0.018576452508568764
-0.1957768052816391
-0.07389172166585922
0.057232245802879333
-0.06073958799242973
-0.04679719731211662
-0.21454565227031708
0.20691479742527008
-0.20093049108982086
0.05256682261824608
0.07670719176530838
0.02667299285531044
0.051782041788101196
-0.1134023517370224
-0.0033014402724802494
0.076802097260952
-0.0468251034617424
0.05435993894934654
-0.12009530514478683
-0.04758858308196068
0.03854847699403763
-0.10679619014263153
0.18097668886184692
-0.07153765857219696
0.054939161986112595
0.24459336698055267
-0.0061631216667592525
0.17776715755462646
-0.02661193534731865
0.08406858146190643
-0.030251847580075264
-0.15138967335224152
0.06503172963857651
0.05118422955274582
-0.047171056270599365
0.10670235753059387
0.07349962741136551
-0.0382232666015625
-0.032912660390138626
0.055455099791288376
-0.17809197306632996
0.043459855020046234
0.05484561249613762
0.01293938234448433
-0.03197098895907402
0.03390628844499588
0.10745273530483246
-0.03489413112401962
0.0010156555799767375
-0.04510347917675972
-0.023988911882042885
-0.026545392349362373
-0.001630615210160613
-0.07704422622919083
0.015150162391364574
0.17320218682289124
0.0912872701883316
0.005739715415984392
-0.03914995118975639
-0.14473645389080048
0.14080271124839783
-0.01658003218472004
-0.006346489768475294
-0.017825493589043617
0.056844163686037064
0.1120128333568573
0.07638426125049591
0.03882244601845741
-0.038816407322883606
0.1973751336336136
-0.035719532519578934
-0.048963937908411026
0.03902667760848999
-0.007598676718771458
-0.0256371907889843
-0.010647964663803577
0.020097851753234863
0.0032348150853067636
-0.11498627811670303
0.13360996544361115
-0.057557664811611176
-0.016175497323274612
0.07509885728359222
-0.03497997671365738
-0.11711648851633072
-0.03493940085172653
-0.03248998150229454
-0.1410222053527832
0.026161711663007736
-0.018726030364632607
0.03495119884610176
0.031731534749269485
-0.027490749955177307
-0.09160473942756653
-0.01533192303031683
-0.050914354622364044
0.02761954814195633
0.03187252953648567
-0.026232589036226273
-0.002515394939109683
-0.027586033567786217
-0.034267619252204895
0.007480515632778406
-0.010489032603800297
-0.024492459371685982
0.03584550321102142
-0.09768848121166229
0.04362117499113083
0.08417870104312897
-0.0754094272851944
0.014606047421693802
0.08341137319803238
-0.061333008110523224
-0.03259287774562836
-0.1445194035768509
0.06598128378391266
0.11823879927396774
-0.03882022947072983
-0.01045667938888073
-0.012175511568784714
0.007909341715276241
-0.070958212018013
0.05365011841058731
0.036582913249731064
0.05295661464333534
-0.038382962346076965
-0.0995388776063919
0.0509612113237381
0.07393747568130493
0.12701810896396637
0.0343216173350811
0.01855921745300293
0.003255019662901759
-0.018245702609419823
-0.020673483610153198
-0.07945631444454193
-0.04488438740372658
-0.07882706075906754
-0.11584837734699249
0.054162539541721344
0.11093879491090775
-0.11908017843961716
0.12339957803487778
0.09089718014001846
0.002282481174916029
0.03623845800757408
-0.1494847536087036
-0.062227096408605576
0.02885107696056366
-0.07417501509189606
0.04526514932513237
-0.07710385322570801
0.033912986516952515
-0.03828822821378708
-0.03374704718589783
0.05419766530394554
0.22807179391384125
-0.09793774783611298
-0.04883687570691109
-0.03466957435011864
-0.08015526831150055
-0.08317523449659348
-0.05272355303168297
-0.04601713642477989
-0.059148725122213364
0.0013127151178196073
-0.06531638652086258
-0.07586703449487686
0.04970209300518036
0.10338518768548965
5.410308585851453e-05
-0.06309207528829575
-0.0948253720998764
-0.058123838156461716
-0.013591684401035309
-0.13683031499385834
0.016331607475876808
-0.02291790395975113
-0.04420226812362671
0.0726933479309082
0.05469806492328644
0.04621417820453644
-0.05411841347813606
-0.09222089499235153
-0.051232144236564636
-0.02566005475819111
0.015233561396598816
-0.13246217370033264
0.0971950963139534
0.09220351278781891
0.04955122992396355
0.07988148182630539
0.017994100227952003
-0.061983898282051086
0.00948566198348999
0.07169675827026367
0.10964840650558472
0.03269617632031441
0.017800863832235336
-0.17973875999450684
-0.06297600269317627
0.13451527059078217
-0.01528337225317955
0.12874966859817505
-0.030589673668146133
-0.06614722311496735
-0.16206589341163635
0.02765027992427349
0.03769214078783989
0.025120388716459274
0.14830301702022552
0.17323577404022217
0.08382688462734222
-0.041174355894327164
0.017359653487801552
0.019471608102321625
0.026220079511404037
-0.08324640989303589
-0.07226642966270447
-0.055676694959402084
-0.3038446009159088
-0.07847797870635986
0.1032373458147049
0.152443990111351
-0.11754623800516129
0.03170337900519371
0.04102933406829834
-0.006195437163114548
0.029657039791345596
0.1218850389122963
0.08425656706094742
0.04796285927295685
-0.07088722288608551
-0.010235298424959183
-0.06566949933767319
0.03592746704816818
-0.1103992909193039
-0.05358954891562462
-0.04217103496193886
-0.07400942593812943
-0.02626284398138523
-0.0029128871392458677
0.00493962038308382
0.03943542018532753
0.09877412021160126
-0.05452753230929375
0.1817535161972046
0.14932215213775635
-0.11831620335578918
0.0013058690819889307
-0.0750691369175911
0.08388374745845795
-0.04869737848639488
0.09057196974754333
-0.06997726857662201
-0.05212399363517761
0.027385715395212173
0.003214293858036399
0.1774287074804306
-0.03383570909500122
-0.2529108226299286
0.060724806040525436
0.09638256579637527
-0.028431065380573273
-0.11422204226255417
-0.11262807250022888
0.057768553495407104
0.0898386687040329
0.055048320442438126
-0.12951026856899261
0.15901105105876923
0.06327187269926071
0.005842946004122496
-0.09622103720903397
-0.03692442551255226
0.12214557081460953
-0.04490312188863754
-0.061219826340675354
-0.08658576011657715
-0.24431505799293518
-0.13120342791080475
-0.013199839740991592
-0.06124645099043846
-0.018391713500022888
0.05094725638628006
0.018975557759404182
0.04613704979419708
0.03217426687479019
0.09648383408784866
-0.08807685226202011
0.1325654238462448
-0.037356480956077576
-0.11839498579502106
-0.05127192661166191
-0.034566208720207214
-0.04898352175951004
-0.03464879095554352
-0.02539816126227379
0.0034855278208851814
0.03709806129336357
-0.0972110703587532
0.08698904514312744
0.03702564164996147
-0.02345447801053524
0.054811034351587296
-0.02017734758555889
-0.12026030570268631
-0.14147090911865234
0.05571484565734863
0.10044120252132416
0.05023088678717613
-0.0002374262985540554
-0.06220429018139839
-0.0797533243894577
0.057880666106939316
-0.08488159626722336
0.11540212482213974
-0.04202404245734215
-0.040907204151153564
0.05439116805791855
0.11310181021690369
-0.011570572853088379
0.00446265609934926
0.06802184879779816
-0.009537197649478912
-0.013464255258440971
-0.003498944453895092
0.15960586071014404
-0.15179404616355896
0.017673123627901077
-0.10844380408525467
-0.04770039767026901
0.02578643523156643
0.0705954059958458
0.001416963990777731
0.01814940944314003
-0.10022225975990295
-0.062132202088832855
0.06406218558549881
-0.012415396980941296
-0.0491153784096241
-0.10581526905298233
0.023875104263424873
-0.16147015988826752
0.01421984750777483
-0.07789622247219086
0.12478188425302505
-0.0353105328977108
0.040172263979911804
-0.02026180922985077
0.04926840215921402
-0.03024435229599476
0.021718857809901237
-0.1342848688364029
-0.09948477149009705
0.004614276345819235
-0.12698279321193695
-0.020185276865959167
0.020372435450553894
0.15371131896972656
-0.07828773558139801
-0.07422811537981033
-0.005315335001796484
0.031207958236336708
0.02627127803862095
-0.014101380482316017
0.02043219283223152
0.03100300207734108
-0.007278745528310537
0.06544294208288193
-0.032547980546951294
-0.02794495038688183
0.03856358304619789
0.1328740119934082
-0.04380228370428085
0.0019418461015447974
0.033478617668151855
0.02546805702149868
0.06131613254547119
0.11581027507781982
0.07017043232917786
-0.060254767537117004
0.15236878395080566
-0.007184689864516258
0.06573762744665146
0.04106992110610008
-0.07315023243427277
0.013685873709619045
-0.019892493262887
-0.09061144292354584
-0.052545178681612015
-0.06515997648239136
-0.0788879320025444
-0.06306025385856628
-0.034831345081329346
0.07001414149999619
0.005808496847748756
0.019444718956947327
-0.019103892147541046
0.08979187160730362
0.14027848839759827
-0.06421812623739243
0.03629741072654724
0.05012921988964081
0.005170187912881374
0.03794962912797928
0.04287625476717949
0.020126601681113243
-0.08313579857349396
0.0491652674973011
0.06457232683897018
-0.07644283026456833
0.07515978068113327
-0.09979568421840668
-0.06394559890031815
0.0006793541251681745
-0.015679728239774704
-0.017659218981862068
0.06939883530139923
-0.0005967087927274406
0.014989831484854221
0.016162537038326263
-0.07569409906864166
-0.03916613385081291
-0.10166653990745544
-0.026441039517521858
-0.040094710886478424
0.014356096275150776
-0.09082857519388199
0.03700845688581467
0.11774151772260666
-0.1200309619307518
-0.026266401633620262
0.0024005339946597815
0.0031825813930481672
0.08795666694641113
-0.0032396677415817976
-0.05136830732226372
-0.0651959776878357
0.09720772504806519
0.02760208770632744
0.08544982224702835
-0.03532868251204491
-0.052322257310152054
0.1031201183795929
0.08480357378721237
0.1150282770395279
0.09876444190740585
0.056049272418022156
-0.07540921121835709
-0.08692992478609085
0.06992100924253464
0.0915980115532875
-0.021553853526711464
0.002108038868755102
-0.11894581466913223
-0.041858971118927
0.04131059721112251
-0.02546241506934166
0.08430156111717224
-0.00908971019089222
-0.0744212418794632
-0.021146811544895172
0.14660315215587616
0.07779622077941895
-0.0960455983877182
0.11677515506744385
0.06356284767389297
-0.07749665528535843
-0.03279978036880493
-0.15141178667545319
-0.08775270730257034
0.1122809499502182
0.06333458423614502
-0.04253367334604263
0.04118584468960762
-0.020297884941101074
-0.15345703065395355
0.035494059324264526
-0.09124651551246643
-0.07079657912254333
-0.05267443507909775
-0.03969130292534828
-0.010073359124362469
-0.018138401210308075
0.058283936232328415
0.035827867686748505
0.09603633731603622
0.10553707182407379
0.018073007464408875
0.007085421122610569
-0.007071600295603275
-0.061023563146591187
-0.07887489348649979
-0.036101408302783966
0.11849753558635712
-0.04199409857392311
0.0021775634959340096
-0.032289136201143265
0.03840222582221031
0.10747968405485153
0.04974651336669922
-0.10293550044298172
0.01104473602026701
0.04436451196670532
0.05047651380300522
0.004514570347964764
-0.05919378995895386
-0.06992039829492569
0.018850067630410194
-0.024055441841483116
-0.019797351211309433
0.05340629070997238
0.003203532425686717
0.002191993873566389
0.06879743933677673
-0.08494892716407776
0.03226970508694649
0.008121244609355927
-0.06512617319822311
-0.0031071347184479237
-0.16829566657543182
-0.07676370441913605
-0.011230424977838993
0.07042744755744934
-0.05757959187030792
0.018507538363337517
0.03861120343208313
-0.05354867875576019
0.011022398248314857
-0.06155302748084068
0.00407536281272769
0.10539419203996658
0.026545431464910507
0.02337431162595749
-0.11853225529193878
-0.024508215487003326
0.004211456049233675
-0.06893080472946167
-0.07432345300912857
0.05853206291794777
0.009119064547121525
0.014057469554245472
-0.0014094238867983222
-0.07400072365999222
-0.19736406207084656
0.04396261274814606
-0.00514665013179183
-0.020606588572263718
0.008901488967239857
0.04590248689055443
0.046860359609127045
-0.04472918063402176
0.10258745402097702
-0.04681137949228287
-0.07243622839450836
0.03801995888352394
-0.03294763341546059
-0.006069490686058998
0.1002274751663208
0.017288150265812874
-0.03285869210958481
-0.08890373259782791
0.032380297780036926
0.013599139638245106
0.08514228463172913
0.10863117128610611
-0.045688699930906296
-0.035905610769987106
-0.032550979405641556
0.0682547390460968
0.028957387432456017
-0.02275655046105385
0.022589394822716713
-0.07284338027238846
-0.008632244542241096
0.03432649001479149
-0.004037029575556517
0.07414434105157852
-0.009139804169535637
0.0774615928530693
0.031875111162662506
-0.03723406791687012
0.05729033052921295
0.09175945073366165
0.010688160546123981
-0.03858700767159462
-0.007307001389563084
-0.16145479679107666
0.031013550236821175
-0.036490973085165024
-0.025977032259106636
0.013747170567512512
0.05911358818411827
-0.09894654899835587
0.05400834232568741
-0.03951461240649223
0.0006778114475309849
0.16095109283924103
0.04199541360139847
-0.06312763690948486
-0.07144708931446075
0.02087518759071827
0.04130500927567482
0.06347966194152832
-0.006401920225471258
-0.015024950727820396
-0.04137067496776581
0.10916884243488312
-0.01886999048292637
0.044809918850660324
-0.08113375306129456
0.00471467012539506
-0.09884395450353622
-0.009782537817955017
-0.06813573092222214
0.018405504524707794
-0.025264134630560875
-0.01590670272707939
0.027327507734298706
0.0012838365510106087
0.10782868415117264
0.03758229687809944
-0.014509010128676891
0.018801795318722725
-0.010219618678092957
0.04105367884039879
-0.04537314176559448
0.017494242638349533
0.0014756052987650037
-0.0024682229850441217
0.03797091543674469
-0.028454814106225967
-0.09822100400924683
-0.11449101567268372
0.0941617414355278
-0.006483966484665871
-0.049474865198135376
0.08993919938802719
-0.014864538796246052
-0.06566538661718369
0.026756444945931435
-0.00883372500538826
0.006019584834575653
-0.02531253919005394
0.0717262253165245
-0.093373142182827
0.02463495545089245
-0.05063694342970848
0.08542277663946152
-0.03727122023701668
0.014927404932677746
-0.045188337564468384
0.15320733189582825
-0.030479084700345993
-0.08822425454854965
-0.10421884804964066
-0.007450865115970373
0.05616939812898636
-0.06161898374557495
-0.0300204548984766
0.007272777147591114
-0.04296964406967163
0.042723897844552994
0.08098851144313812
-0.020469600334763527
0.06109066680073738
0.07436445355415344
-0.041820477694272995
-0.04019268974661827
-0.06856589019298553
-0.0036961284931749105
-0.006669380236417055
-0.05545739457011223
0.10001468658447266
-0.12003056704998016
-0.013407832942903042
0.01249656267464161
0.0870233029127121
-0.024175040423870087
0.03930961340665817
-0.029035400599241257
0.022601112723350525
-0.043805837631225586
-0.04891359433531761
-0.00030955352121964097
0.13414141535758972
0.014720282517373562
-0.010835881344974041
0.011877533048391342
-0.011134963482618332
-0.040816530585289
0.06837378442287445
-0.03431249037384987
0.06755039840936661
0.024818960577249527
0.009624471887946129
-0.012791434302926064
-0.029131967574357986
-0.0654115080833435
-0.0187430027872324
0.03799448907375336
0.04694024473428726
0.06524877995252609
-0.02213355153799057
0.0030335800256580114
-0.07293418794870377
0.00294153462164104
-0.0369289368391037
-0.03889442980289459
0.0050179315730929375
-0.053418390452861786
0.04614933207631111
0.08305589854717255
-0.06433752924203873
0.18715794384479523
0.027455588802695274
0.08052240312099457
-0.008887222968041897
-0.017065737396478653
0.13495783507823944
-0.09873177111148834
0.07739370316267014
0.056522537022829056
-0.1039615198969841
-0.05046047642827034
-0.06014806777238846
0.06759288161993027
-0.10066583752632141
0.036715492606163025
0.010613135993480682
-0.09641395509243011
0.0005386986886151135
-0.00281151058152318
-0.04016554728150368
0.14406363666057587
-0.020144348964095116
-0.049614161252975464
-0.06256310641765594
-0.01367987971752882
0.08192799240350723
-0.0075325919315218925
0.0025707348249852657
0.03944793716073036
0.05033233389258385
-0.029670676216483116
0.012103543616831303
-0.044300246983766556
-0.09850673377513885
0.053866513073444366
0.0538041777908802
0.05233517289161682
0.025315655395388603
-0.06755184382200241
-0.03442128747701645
0.007823493331670761
0.055967219173908234
0.01291007548570633
0.0645981952548027
0.021131329238414764
-0.027479225769639015
-0.013457613065838814
-0.021219775080680847
0.09577537328004837
-0.006254327483475208
0.0013948455452919006
0.10677624493837357
0.016095614060759544
0.04917562007904053
0.011247527785599232
0.015359010547399521
0.0421382375061512
-0.1441882699728012
0.0030420341063290834
-0.010683853179216385
-0.014928359538316727
-0.02476615644991398
-0.05218712240457535
0.042789410799741745
-0.03775086626410484
-0.05193846672773361
-0.08728982508182526
-0.055530011653900146
0.07528911530971527
-0.11471991240978241
0.0583098866045475
0.03206821158528328
0.002648544032126665
-0.07141716778278351
-0.013485636562108994
-0.024399204179644585
-0.014791186898946762
0.05084451660513878
0.03819825127720833
-0.06530463695526123
0.028924360871315002
0.029672475531697273
-0.04487335681915283
0.0691194012761116
-0.03943634778261185
-0.05897528678178787
0.010500212199985981
0.05321729555726051
0.06253640353679657
0.028691567480564117
0.10098589956760406
-0.06507076323032379
0.09182937443256378
0.34592530131340027
-0.0246908999979496
0.03562430292367935
-0.0027475054375827312
-0.04059138521552086
0.00960893277078867
-0.04207495599985123
0.12223853170871735
0.12110000848770142
-0.16123266518115997
-0.01607859507203102
-0.053632237017154694
0.0353076308965683
-0.06004570052027702
-0.15431050956249237
-0.044858407229185104
0.006291690282523632
0.0990060567855835
0.042564574629068375
-0.0032755392603576183
0.030995547771453857
0.023384271189570427
0.05559618026018143
0.0729321613907814
0.03463876247406006
0.01833423599600792
-0.052435826510190964
-0.041785698384046555
-0.212238147854805
0.03631901741027832
0.0006011585355736315
0.06700337678194046
-0.09371718019247055
-0.11955252289772034
0.018672119826078415
-0.08442317694425583
-0.0006365366280078888
-0.08344638347625732
0.07960429787635803
-0.3340756595134735
0.006395928096026182
-0.05751628428697586
0.045261822640895844
-0.0279227327555418
0.07403433322906494
-0.07688150554895401
-0.057545892894268036
0.017969734966754913
0.014954114332795143
0.039173830300569534
0.034585122019052505
0.0103466110303998
-0.007343310862779617
-0.0997963473200798
-0.03194775432348251
0.0401616133749485
-0.06073424220085144
-0.05454663187265396
-0.07080467790365219
-0.08767639100551605
-0.031101150438189507
-0.11663591116666794
0.019691677764058113
-0.04343044385313988
-0.02243560180068016
-0.03815830871462822
-0.003157589817419648
-0.12784062325954437
-0.0429728738963604
-0.12402789294719696
0.4077083170413971
0.02303612232208252
0.0025861277244985104
-0.015524500980973244
0.0631428211927414
0.007258208002895117
-0.32640570402145386
-0.02699808031320572
-0.011072931811213493
-0.05264270678162575
0.008903131820261478
0.062153011560440063
-0.10579917579889297
-0.11132390052080154
0.097112737596035
0.027246544137597084
-0.07334773242473602
0.0017858220962807536
0.07014917582273483
-0.06595693528652191
0.009920461103320122
0.09162575751543045
-0.10850517451763153
0.1703837513923645
-0.17977046966552734
0.03828781470656395
-0.09991196542978287
-0.08290982991456985
0.005640754941850901
0.05837709829211235
0.04769691079854965
0.1304779201745987
-0.1232905387878418
-0.08766146004199982
0.06883224844932556
0.012344407849013805
-0.06497865170240402
0.0017252108082175255
-0.055991433560848236
-0.037896670401096344
-0.061321698129177094
-0.12392561882734299
0.007135819178074598
0.06936442852020264
0.023622019216418266
0.030380219221115112
-0.08395341783761978
0.028675373643636703
0.07229387015104294
-0.10409300029277802
-0.009027893655002117
-0.13696332275867462
0.07945968955755234
-0.11803098022937775
0.07398144900798798
-0.015436830930411816
0.05619765445590019
0.03211281821131706
-0.02508344128727913
0.002777582034468651
-0.007833201438188553
0.06982629001140594
-0.008478143252432346
0.00987232755869627
0.021076129749417305
-0.10662547498941422
0.03156688064336777
0.07869482785463333
0.0014764092629775405
-0.09597578644752502
0.08225762099027634
-0.08712908625602722
-0.09491297602653503
0.08262519538402557
0.017688622698187828
-0.04510074481368065
-0.062089189887046814
-0.06931913644075394
0.08391415327787399
0.0017261685570701957
0.05579423904418945
-0.12349724024534225
0.03436129912734032
0.08474244922399521
-0.04003560543060303
-0.07811611890792847
-0.0936342403292656
0.054847266525030136
-0.014369756914675236
0.039795324206352234
0.009263969957828522
0.02236700803041458
-0.0750097706913948
0.02219146117568016
0.08320104330778122
0.008269436657428741
-0.08605193346738815
0.040688127279281616
0.06121591478586197
-0.06368603557348251
0.05056747421622276
-0.0415080301463604
-0.1078367754817009
0.038327209651470184
-0.029211873188614845
-0.0368092842400074
-0.02920084074139595
-0.01178007386624813
-0.017722448334097862
-0.015272965654730797
-0.001621749484911561
-0.020281994715332985
-0.01119769923388958
-0.08195299655199051
-0.015950534492731094
0.08130426704883575
-0.14254699647426605
0.017650827765464783
0.07871007174253464
0.04679121822118759
0.006940833292901516
0.02724929340183735
-0.058118365705013275
-0.045056406408548355
-0.03413938730955124
0.11846424639225006
0.041669510304927826
-0.03480949252843857
-0.04740314185619354
0.09407251328229904
0.07917048037052155
-0.07810181379318237
0.006375060882419348
0.1039581224322319
-0.009680812247097492
0.011656787246465683
0.036809682846069336
-0.029996860772371292
0.010244821198284626
-0.0630095973610878
-0.10616599768400192
0.026034532114863396
0.021597953513264656
-0.06677054613828659
-0.00868028774857521
0.003203051630407572
0.13193173706531525
0.04835948720574379
-0.06753057986497879
0.16810831427574158
-0.005204866174608469
-0.005560128018260002
-0.051684875041246414
0.05533147230744362
0.030988678336143494
0.007223460823297501
-0.07262054830789566
0.08287574350833893
0.02242959849536419
0.07648400962352753
-0.026097839698195457
-0.06952303647994995
0.05587416887283325
0.08982066810131073
-0.11879377067089081
-0.10845720022916794
0.10230895131826401
0.008419602178037167
0.04215889424085617
-0.040745727717876434
-0.07508697360754013
-0.11055982857942581
-0.10469615459442139
0.028462618589401245
-0.06292058527469635
-0.054849572479724884
0.0650957003235817
0.03885781764984131
-0.019342316314578056
-0.07986593246459961
0.03280537948012352
0.054151225835084915
-0.028399687260389328
-0.08862923830747604
-0.03583993390202522
0.06557393819093704
-0.07225717604160309
0.04664292186498642
0.12239664047956467
-0.03605102002620697
0.0811009407043457
0.0626855120062828
0.00377313862554729
0.00809352658689022
0.020165694877505302
0.01416653860360384
0.009880384430289268
-0.05915456637740135
0.0024172794073820114
0.09133091568946838
-0.031024081632494926
-0.1917492151260376
-0.012562867254018784
0.01984458416700363
-0.17925722897052765
-0.24620012938976288
-0.06731105595827103
-0.04650270193815231
-0.014401808381080627
0.06160689517855644
-0.051443617790937424
0.12664222717285156
0.08218619972467422
0.13239644467830658
0.0015437365509569645
0.03452973812818527
0.13760584592819214
-0.00579802505671978
-0.0842578187584877
0.12786109745502472
0.02275238186120987
0.07275751978158951
0.24837185442447662
0.22671857476234436
0.09264488518238068
-0.013234871439635754
-0.05557864159345627
-0.04057937487959862
0.02543495036661625
-0.04636267200112343
-0.19274593889713287
-0.2320055067539215
0.12443657964468002
0.06024888530373573
-0.1355559080839157
0.005748543422669172
0.08726947009563446
-0.04510396346449852
-0.04170430079102516
0.007705002557486296
-0.15526996552944183
0.21914982795715332
0.018240490928292274
-0.155223548412323
0.004150798078626394
-0.015955597162246704
0.09740103781223297
-0.09371928125619888
0.021685348823666573
-0.04078938066959381
-0.1123545691370964
0.19934684038162231
-0.006697520148009062
0.07486610859632492
-0.054466862231492996
-0.037922635674476624
0.09314537793397903
-0.002837981330230832
-0.03148043900728226
-0.0640820786356926
-0.1212199479341507
-0.05172299966216087
0.0991588830947876
0.13086244463920593
-0.022932954132556915
0.046808868646621704
0.15516535937786102
-0.06816767156124115
-0.1796216517686844
0.05298006162047386
-0.17811870574951172
0.060670193284749985
0.001763729378581047
-0.003459029598161578
-0.03150133788585663
-0.05925406515598297
-0.007451058365404606
-0.13351759314537048
-0.02039862796664238
0.012135719880461693
0.07170860469341278
0.07683198899030685
-0.12320073693990707
-0.039260465651750565
-0.0790807232260704
-0.002222748938947916
0.17379453778266907
0.03476462513208389
-0.07710098475217819
0.1931699812412262
-0.01123036164790392
0.024004405364394188
0.08132817596197128
0.08050850033760071
-0.21536992490291595
-0.09122077375650406
0.11876988410949707
0.09528690576553345
0.12650705873966217
-0.008787821047008038
-0.01902109943330288
-0.00768404733389616
-0.0344308540225029
-0.04874521493911743
-0.22133547067642212
-0.11534141004085541
0.06680508702993393
-0.0026546402368694544
0.04981842264533043
-0.21746617555618286
0.1060166284441948
0.053015951067209244
-0.04296569898724556
0.03732224926352501
0.037444524466991425
-0.14405366778373718
-0.09107546508312225
-0.012453073635697365
-0.05780036374926567
-0.06273693591356277
-0.048114847391843796
0.01668853871524334
-0.11172712594270706
0.03225615248084068
0.11755666881799698
-0.02113145776093006
0.04497101157903671
-0.002825423376634717
0.07482592761516571
0.018536023795604706
0.03564321994781494
0.048755887895822525
-0.17803828418254852
-0.009138548746705055
-0.022974664345383644
-0.09456083178520203
0.016140952706336975
0.08067099750041962
-0.026350783184170723
0.05156426131725311
0.008636459708213806
0.041871242225170135
0.09285937249660492
-0.05579429864883423
0.010036096908152103
0.03335905447602272
0.021714704111218452
-0.08693747967481613
0.005925335455685854
-0.02184372767806053
-0.032724738121032715
-0.0855564996600151
-0.01770886220037937
-0.0583278052508831
0.022123970091342926
0.046835433691740036
0.012589831836521626
0.03240033984184265
-0.0017357304459437728
-0.0003439983120188117
-0.0470307394862175
0.03239263594150543
-0.05529788136482239
-0.12476716190576553
0.04315648227930069
0.06051264703273773
0.041848212480545044
-0.012626904994249344
0.022580990567803383
-0.10215000808238983
-0.005099541507661343
0.013345086015760899
0.038639262318611145
0.12152358889579773
0.029461676254868507
-0.025098269805312157
-0.04875180870294571
-0.05704544484615326
0.049962010234594345
0.05037622153759003
-0.05161824822425842
-0.08869415521621704
-0.007928881794214249
-0.0016232210909947753
-0.0851701870560646
0.00971182994544506
0.021510455757379532
-0.00907251425087452
-0.04111194238066673
-0.07408194988965988
-0.042100828140974045
0.00490505900233984
-0.03579000383615494
0.0035760581959038973
0.025042835623025894
0.0037741996347904205
0.13583438098430634
0.02758602425456047
0.06904641538858414
0.1012607142329216
0.035411618649959564
-0.037703774869441986
0.026305364444851875
-0.030340924859046936
0.06314819306135178
-0.03153352811932564
0.05734146758913994
0.032986827194690704
0.08403176069259644
-0.05224792659282684
-0.12478944659233093
-0.09297988563776016
0.03973442688584328
-0.031814832240343094
0.03862539678812027
-0.054799117147922516
-0.053378839045763016
0.008137286640703678
0.005160703789442778
0.032202623784542084
0.05412701517343521
-0.03656046465039253
0.025844460353255272
-0.03471880778670311
0.12462060898542404
0.07984383404254913
-0.011717799119651318
-0.1420113444328308
-0.04421370103955269
0.042840033769607544
0.045212265104055405
0.00631681689992547
-0.02911061979830265
0.0003407296899240464
0.04942454397678375
0.06275495886802673
0.029172392562031746
0.0002526464522816241
0.09520933032035828
-0.007934841327369213
-0.07936228811740875
0.04676399379968643
-0.03136757016181946
0.03187086433172226
0.05685150623321533
0.11867127567529678
0.02455342374742031
-0.08956202864646912
0.006647088099271059
0.023999568074941635
-0.03198195993900299
-0.016812963411211967
0.08050992339849472
0.04233963415026665
-0.01725931093096733
0.010467829182744026
-0.08547570556402206
0.01270768977701664
-0.022241299971938133
-0.061262670904397964
-0.009700527414679527
-0.039463941007852554
-0.06621962040662766
-0.01950804702937603
0.03379759564995766
-0.048329632729291916
-0.0215968806296587
0.02100278064608574
-0.0039075762033462524
-0.03919258713722229
0.06351795047521591
-0.07892472296953201
-0.0014746745582669973
0.02772100456058979
-0.006960328668355942
-0.03233017399907112
0.03832037001848221
-0.0021024495363235474
-0.04144696518778801
0.0008142584702000022
-0.07653109729290009
0.026679961010813713
-0.01518151257187128
-0.06349506229162216
0.018002266064286232
-0.026078306138515472
-0.037888433784246445
-0.0022617264185100794
-0.0003059523878619075
0.006776480935513973
-0.03872256726026535
0.08269093930721283
0.040063682943582535
0.06115960329771042
-0.018313022330403328
-0.05843500792980194
0.08755723387002945
-0.028815273195505142
0.02943146415054798
-0.05185452476143837
0.03995495289564133
-0.025349607691168785
-0.08829032629728317
-0.04736301302909851
-0.05889835208654404
-0.15491017699241638
0.0880817398428917
0.0802495926618576
0.040706101804971695
0.05272806063294411
-0.030042698606848717
-0.03193003684282303
0.035989195108413696
0.042705606669187546
-0.035791561007499695
-0.10669992119073868
0.04457936808466911
0.08497180789709091
-0.055318769067525864
0.05400818586349487
0.04369349032640457
-0.02467818185687065
-0.03154008835554123
0.07017368823289871
-0.02404819056391716
-0.07898471504449844
0.07347816228866577
-0.00436483696103096
0.06290542334318161
-0.051084328442811966
0.0808662474155426
0.06482438743114471
0.038268283009529114
0.01650240831077099
-0.03100850060582161
0.03985126316547394
0.03219703584909439
0.0031795070972293615
0.05860289931297302
-0.03438359498977661
-0.06953763216733932
0.016827786341309547
0.026484260335564613
0.025820495560765266
0.045865580439567566
0.01488368771970272
-0.058468498289585114
0.06445576250553131
0.03555595129728317
-0.04270501062273979
-0.04001905769109726
0.06256672739982605
0.09117215871810913
0.01854916475713253
0.0615527518093586
0.0215956661850214
-0.05731843039393425
-0.07572336494922638
-0.07819530367851257
0.06636200100183487
-0.002490347484126687
-0.004955313168466091
-0.1532648801803589
-0.01121475175023079
0.0033436117228120565
0.07731848210096359
0.06716979295015335
0.1453220099210739
-0.10040228813886642
0.01945275440812111
0.021068157628178596
-0.06548810005187988
-0.04461502283811569
-0.07487268000841141
-0.007621735334396362
-0.075225830078125
-0.07881911844015121
0.01383239682763815
-0.040422044694423676
0.06204798072576523
0.08448486030101776
6.512361142085865e-05
-0.0984923392534256
-0.07960420846939087
0.044741421937942505
0.10690078884363174
0.061163365840911865
-0.01486680842936039
-0.19672445952892303
-0.09162721037864685
-0.033031266182661057
-0.023375291377305984
0.10744127631187439
0.09466879814863205
-0.05722067877650261
0.08269674330949783
0.04661398008465767
0.15465092658996582
0.01591278612613678
-0.0400373712182045
0.06544511020183563
-0.08333998918533325
0.16744525730609894
-0.08292891830205917
0.012240125797688961
0.10501657426357269
-0.022326843813061714
-0.16584713757038116
-0.0921078622341156
-0.01791204884648323
0.09032918512821198
0.03641181439161301
0.05810125544667244
0.0018076966516673565
-0.015911918133497238
-0.12708300352096558
-0.02613803930580616
-0.11262384802103043
-0.12002720683813095
-0.07871759682893753
-0.02399117313325405
-0.04945440962910652
0.03505518287420273
0.03802932798862457
0.03738509863615036
0.0011282963678240776
-0.08632592111825943
-0.012589897029101849
0.03582385554909706
-0.015105110593140125
0.10144190490245819
0.09451001137495041
-0.0609108991920948
-0.004952579736709595
0.01340046152472496
0.12951745092868805
0.08450142294168472
0.03453566133975983
0.006580023560672998
-0.022220317274332047
-0.010559513233602047
0.05675465613603592
0.0018185597145929933
-0.049051202833652496
-0.06091952323913574
