-0.03220038115978241
0.0428132526576519
-0.15241006016731262
-0.17161422967910767
-0.40082499384880066
0.024304473772644997
0.08452345430850983
-0.06801050156354904
0.014992190524935722
-0.09604252129793167
0.12876439094543457
-0.11389055103063583
-0.4388160705566406
0.08950145542621613
-0.10236494988203049
0.2200516164302826
0.38163644075393677
0.1253320723772049
0.21344034373760223
0.08791743963956833
0.231166809797287
0.1168469786643982
-0.09502264112234116
0.2333734631538391
0.23584690690040588
-0.08229902386665344
0.10274887830018997
0.07351882755756378
0.12230680882930756
-0.3826470375061035
-0.00717982929199934
-0.420112282037735
0.007811578921973705
0.11509038507938385
-0.07163788378238678
-0.31334611773490906
-0.13310106098651886
-0.15980678796768188
0.0674896389245987
-0.0010991967283189297
-0.00812112633138895
0.13139992952346802
0.10069897025823593
0.298694908618927
-0.40208926796913147
-0.43491697311401367
0.10045616328716278
-0.0226027462631464
0.22116896510124207
-0.21154944598674774
0.004789626691490412
0.29430028796195984
0.23929275572299957
-0.028987718746066093
-0.1484171450138092
0.16062024235725403
0.09704402089118958
-0.13254563510417938
-0.17496106028556824
-0.14256282150745392
0.051925238221883774
0.2591843903064728
-0.3140617907047272
-0.43278688192367554
-0.10455013066530228
-0.36258915066719055
-0.19025039672851562
-0.28026336431503296
0.35111841559410095
-0.005581629928201437
0.073221355676651
0.13351888954639435
0.008031570352613926
-0.20773139595985413
-0.03355167433619499
0.05653038248419762
-0.22692669928073883
-0.07473520934581757
-0.14176304638385773
-0.07930329442024231
-0.47846144437789917
0.21443353593349457
0.03724828362464905
0.006206576246768236
-0.3132459223270416
-0.24031271040439606
-0.4837498664855957
0.040472496300935745
-0.059492163360118866
-0.11077255010604858
-0.411775141954422
-0.16627292335033417
0.4947451055049896
-0.3487035632133484
0.0638701468706131
-0.02745869569480419
0.4631338119506836
-0.09332157671451569
-0.07507218420505524
-0.08700492233037949
-0.27935266494750977
0.279358446598053
0.011479364708065987
-0.46892037987709045
-0.2235906720161438
0.32902947068214417
0.15382950007915497
-0.016506316140294075
0.49674785137176514
0.022195730358362198
0.2517416477203369
-0.12635888159275055
-0.3406892716884613
-0.18011082708835602
0.31330713629722595
-0.08827531337738037
0.006728608161211014
-0.4255867004394531
-0.17155563831329346
-0.3246719539165497
-0.15813516080379486
-0.15750639140605927
-0.1281013935804367
0.5958126783370972
-0.2790258824825287
0.31346842646598816
-0.2456846684217453
0.003572090296074748
