-0.13937883079051971
-0.22143138945102692
-0.3618224561214447
-0.08254987746477127
0.23792292177677155
-0.4474942088127136
-0.03387200087308884
0.07501113414764404
0.24878939986228943
-0.32496553659439087
-0.36488932371139526
0.19143056869506836
-0.11607909947633743
0.07970764487981796
0.3790394365787506
-0.1813969612121582
0.1486930549144745
0.1773912012577057
0.23027679324150085
0.24528759717941284
-0.02382734976708889
-0.271939218044281
-0.12596099078655243
0.28926336765289307
-0.3423434793949127
-0.03803928196430206
0.2854982614517212
0.01824699155986309
-0.259494423866272
0.2562144696712494
-0.3148108124732971
-0.25847047567367554
0.286624014377594
0.03810293227434158
0.16592636704444885
0.32049572467803955
0.15490296483039856
0.11730731278657913
-0.05865100398659706
0.35745230317115784
0.09037866443395615
-0.4550801217556
-0.1418668031692505
-0.10872602462768555
-0.119509756565094
0.185006782412529
0.14473913609981537
0.2487480789422989
0.24959346652030945
-0.3690640330314636
0.25355714559555054
0.12396100163459778
0.3666612505912781
0.34981581568717957
-0.2915714681148529
0.3643709123134613
0.5298047065734863
-0.3601686954498291
0.07321199774742126
-0.04807974398136139
0.4308169186115265
0.12755578756332397
0.1891421675682068
-0.24470922350883484
0.24684932827949524
-0.23576302826404572
-0.4563780426979065
-0.38216760754585266
0.1778050661087036
-0.3241980969905853
0.046574898064136505
0.19463011622428894
0.27120471000671387
0.43720677495002747
-0.22188839316368103
0.3155912756919861
0.23196803033351898
0.03780379146337509
-0.034995049238204956
0.16328996419906616
-0.10571184009313583
-0.24545064568519592
0.0921880230307579
0.10337227582931519
-0.030300935730338097
-0.47452986240386963
-0.17650742828845978
-0.18460336327552795
0.33161428570747375
0.12007056921720505
0.25211572647094727
-0.178829625248909
0.11568904668092728
0.021315058693289757
-0.059031352400779724
0.048133574426174164
0.18455712497234344
0.14291995763778687
-0.08068264275789261
0.07934923470020294
0.016211647540330887
-0.03273056820034981
-0.04094498232007027
-0.031665049493312836
0.33354440331459045
-0.0823463499546051
0.09020411223173141
0.15752966701984406
-0.3253198266029358
0.16157111525535583
-0.05699663236737251
-0.02191660925745964
-0.399062842130661
-0.25833266973495483
-0.08313951641321182
0.29147255420684814
0.11980549246072769
-0.14576342701911926
0.3109799027442932
0.18094725906848907
-0.2717963755130768
0.22321927547454834
-0.3596101999282837
-0.12874510884284973
0.17502138018608093
0.01896115392446518
0.15342403948307037
-0.10872853547334671
