-0.09660374373197556
-0.07937853783369064
0.09694957733154297
-0.252997487783432
-0.09040995687246323
0.09267545491456985
0.014897407032549381
0.1938161998987198
-0.13524560630321503
-0.12117654830217361
0.05257512629032135
-0.2369471937417984
-0.014164204709231853
-0.2813812792301178
0.03380446135997772
-0.2274729311466217
-0.34483733773231506
-0.08534666150808334
-0.029073772951960564
-0.2550663948059082
-0.4449364244937897
-0.022443139925599098
-0.34162721037864685
0.21808579564094543
-0.12649030983448029
-0.02097935788333416
-0.04081754386425018
0.11429841816425323
-0.30730241537094116
-0.030498536303639412
0.2735818922519684
-0.16253335773944855
-0.3763435482978821
-0.5693407654762268
0.08637329190969467
-0.5490103363990784
-0.35950395464897156
0.3012261390686035
-0.06968507170677185
-0.2104203999042511
-0.18240150809288025
0.01754363626241684
-0.0487888902425766
-0.10068677365779877
-0.20384088158607483
-0.23101168870925903
-0.10884146392345428
0.11334056407213211
0.16421249508857727
-0.3877485990524292
0.05745663866400719
-0.4955867528915405
0.20843574404716492
-0.30211448669433594
-0.04164040833711624
-0.23719550669193268
-0.41729721426963806
0.03284311294555664
0.02921026386320591
-0.07526086270809174
0.02102792263031006
-0.03537990525364876
-0.5233214497566223
-0.1452309638261795
-0.06434138119220734
-0.4418545365333557
-0.47435277700424194
0.11763836443424225
-0.09965827316045761
0.1608070433139801
-0.030073903501033783
-0.17049060761928558
-0.15537786483764648
-0.22463807463645935
0.11070064455270767
-0.3786807060241699
-0.3663268983364105
0.17719115316867828
-0.079453244805336
-0.11063683778047562
-0.124250128865242
0.047894448041915894
-0.09361021220684052
-0.19709019362926483
-0.26135173439979553
-0.20266520977020264
-0.07137034088373184
0.1748266965150833
-0.007141411304473877
0.00845894031226635
-0.2518211603164673
0.002438025549054146
0.012498943135142326
-0.49324995279312134
-0.14396055042743683
-0.4464281499385834
-0.12803204357624054
0.0195712149143219
-0.10489511489868164
-0.08846519887447357
-0.37290266156196594
-0.2897984981536865
0.38727834820747375
-0.062132906168699265
-0.1888403296470642
-0.3181159794330597
-0.035037629306316376
-0.3623947203159332
-0.22333982586860657
-0.13631579279899597
-0.13266731798648834
-0.08689647912979126
0.050131723284721375
-0.21214012801647186
0.10596895217895508
0.17594334483146667
-0.2102109044790268
-0.21234697103500366
-0.13315559923648834
0.3130751848220825
0.00942692905664444
0.18901462852954865
-0.13446614146232605
-0.05701412260532379
-0.037158720195293427
-0.3327406942844391
-0.0987178236246109
-0.06216365471482277
-0.026211775839328766
-0.05005854368209839
0.26939940452575684
-0.38457781076431274
0.057519637048244476
-0.037070248275995255
-0.17193332314491272
0.0012740331003442407
0.035610031336545944
0.022805433720350266
-0.03379027917981148
-0.18837903439998627
0.06463836133480072
-0.02848741039633751
0.36520877480506897
0.020540721714496613
-0.3185969889163971
0.19801002740859985
-0.3986213803291321
0.003701990470290184
0.15370510518550873
-0.477567195892334
-0.9195014834403992
0.13005197048187256
-0.1128760352730751
-0.03150089457631111
0.18391482532024384
-0.38571983575820923
0.19887323677539825
0.001616384950466454
0.12852834165096283
0.39538198709487915
0.0608038567006588
-0.26349931955337524
0.03788091987371445
-0.16070012748241425
0.052062518894672394
-0.5272743105888367
-0.02038249932229519
-0.08845441043376923
-0.5355310440063477
-0.30785784125328064
0.20536135137081146
-0.016871172934770584
-0.5306954979896545
0.0020745228976011276
-0.030960610136389732
-0.1482432335615158
-0.11455576866865158
-0.23160505294799805
-0.16134165227413177
0.11439545452594757
0.007362829986959696
0.10169695317745209
-0.12321107089519501
0.0054470691829919815
0.07088778167963028
-0.07983452826738358
-0.6466644406318665
-0.42713308334350586
0.0640464723110199
-0.44146502017974854
0.15800078213214874
0.04347279667854309
0.07810952514410019
-0.0784321203827858
0.12151945382356644
-0.30277296900749207
0.04799402877688408
-0.025382881984114647
-0.23277908563613892
-0.3237181305885315
-0.3213810920715332
-0.27701863646507263
0.0147076565772295
-0.12336655706167221
-0.4280259907245636
-0.16926832497119904
0.0911024883389473
-0.3047102689743042
-0.37204694747924805
-0.32119080424308777
0.029388252645730972
-0.596733808517456
0.04239523783326149
-0.12265253812074661
-0.0237642303109169
-0.14316855370998383
-0.2798880636692047
-0.1941012591123581
0.09176351130008698
0.2291473150253296
-0.13812418282032013
-0.1997796595096588
-0.1497184783220291
-0.13493947684764862
-0.03497583046555519
-0.2821279466152191
-0.12851597368717194
0.040455546230077744
0.06851242482662201
-0.05885294824838638
0.006620403844863176
-0.08968258649110794
0.0005109564517624676
-0.045327190309762955
-0.026395853608846664
-0.38563451170921326
-0.47351738810539246
-0.06970596313476562
-0.2518443763256073
-0.18847137689590454
0.07644842565059662
-0.2878503203392029
-0.46747416257858276
-0.07835954427719116
-0.3486037850379944
-0.8713082075119019
-0.6865741610527039
-0.33518293499946594
-0.4364694356918335
-0.13374587893486023
-0.12476678192615509
0.020924866199493408
-0.2639850080013275
-0.047775499522686005
-0.003470541210845113
0.1343255639076233
-0.42475998401641846
-0.3493485152721405
-0.03508470207452774
-0.12203805148601532
-0.22514505684375763
-0.42733845114707947
-0.5226333141326904
-0.09712734073400497
-0.5104680061340332
-0.018271684646606445
-0.6021807789802551
-0.03503066673874855
0.03895595297217369
-0.03792501986026764
0.05507660657167435
0.21799378097057343
-0.5212815403938293
0.11776910722255707
-0.0810890719294548
-0.02504688687622547
-0.31851932406425476
-0.31040841341018677
-0.17742101848125458
-0.05481037124991417
-0.07385753095149994
-0.1302391141653061
-0.24539783596992493
-0.000654333271086216
-0.24292391538619995
0.036423709243535995
0.2140340507030487
-0.3722139298915863
-0.4598557949066162
-0.052332207560539246
-0.07097626477479935
-0.5012451410293579
-0.07493681460618973
-0.09029942750930786
-0.09643847495317459
-0.19318535923957825
0.17811985313892365
-0.4229836165904999
-0.2549116313457489
-0.17311471700668335
-0.010929354466497898
0.025572843849658966
0.0035997452214360237
-0.02062850259244442
-0.4987388551235199
-0.20176011323928833
-0.35586410760879517
-0.21985910832881927
-0.022278370335698128
-0.3498729169368744
0.006255813408643007
-0.06908524036407471
0.08065596967935562
0.02647656947374344
-0.25470206141471863
0.13128723204135895
0.056619226932525635
0.07102522253990173
0.06552709639072418
-0.25160685181617737
-0.04156211018562317
-0.48636046051979065
-0.09022144973278046
0.0002978744450956583
0.01481419987976551
-0.19747821986675262
0.04809758439660072
-0.3900440037250519
-0.1869523972272873
0.10638292133808136
-0.2491307407617569
-0.21949531137943268
-0.2041654884815216
-0.009016038849949837
-0.04296615347266197
-0.2272990643978119
-0.48580676317214966
-0.2954873740673065
0.0826287642121315
0.16096028685569763
-0.22114413976669312
-0.43816816806793213
-0.07287215441465378
0.03903619572520256
-0.2705138325691223
-0.3803359270095825
0.020324593409895897
-0.21994762122631073
-0.3304930031299591
-0.0051951417699456215
0.11648648232221603
-0.0010212933411821723
0.023405885323882103
-0.06359504908323288
-0.18347612023353577
-0.17881794273853302
0.2013452649116516
-0.26935726404190063
-0.09490966796875
-0.15423256158828735
-0.14894191920757294
-0.006768509745597839
-0.03973769396543503
-0.05239006504416466
0.04288897663354874
-0.2839154005050659
0.04263871908187866
-0.1793154776096344
0.04231317713856697
-0.3383728265762329
-0.43636974692344666
-0.5541232824325562
-0.24300915002822876
0.5120537281036377
-0.16911917924880981
-0.06462733447551727
-0.3504449725151062
-0.06174124404788017
-0.03859618306159973
-0.3115837275981903
-0.4248235821723938
0.021207962185144424
-0.5461601614952087
-0.201065331697464
-0.1464904546737671
-0.13192491233348846
-0.002560215536504984
-0.3772113025188446
-0.5425986051559448
-0.0755891427397728
0.1642152965068817
-0.056299928575754166
-0.35711583495140076
-0.5055753588676453
0.12026377767324448
-0.08196987956762314
-0.40494775772094727
-0.14362375438213348
0.0741957351565361
-0.3968923091888428
0.04940573498606682
-0.45231348276138306
0.01688949204981327
0.01552084181457758
-0.216513529419899
0.07660400122404099
-0.20470650494098663
0.3437559902667999
0.017572425305843353
-0.3192339539527893
-0.3834829032421112
-0.10749652236700058
0.010882887989282608
-0.22616806626319885
-0.23066797852516174
-0.0634932890534401
0.13050194084644318
-0.01354125328361988
-0.33129632472991943
-0.09001103043556213
-0.16103489696979523
-0.008059327490627766
-0.03813498094677925
-0.14727744460105896
-0.1944541037082672
-0.41070643067359924
-0.02624347433447838
-0.05848398432135582
0.047935567796230316
0.006224782671779394
-0.11383766680955887
0.08183321356773376
-0.12889613211154938
-0.13737046718597412
-0.3866196274757385
-0.020827826112508774
0.14275194704532623
-0.5716785788536072
-0.06846065819263458
-0.0721445083618164
-0.20857635140419006
0.02266395092010498
-0.06865020841360092
0.010406763292849064
-0.258372962474823
-0.3080384433269501
-0.33580994606018066
0.2097252905368805
0.08615077286958694
-0.08113804459571838
-0.5848220586776733
-0.08918379247188568
-0.06106443330645561
-0.22147105634212494
0.08870486915111542
-0.11875937134027481
-0.19807277619838715
0.16797198355197906
-0.32456448674201965
-0.09942484647035599
0.07448819279670715
0.029039457440376282
-0.2651486098766327
-0.24621915817260742
-0.18514682352542877
-0.3351285755634308
-0.14201803505420685
0.1629970222711563
0.07820707559585571
-0.12473243474960327
-0.07354169338941574
0.11036612093448639
0.2289423793554306
-0.2362315058708191
0.17128652334213257
-0.08186295628547668
0.2786133885383606
-0.09706336259841919
-0.31098151206970215
0.004873319063335657
-0.4961773753166199
-0.027158701792359352
0.11635822057723999
-0.16421708464622498
-0.12567080557346344
-0.3777952790260315
-0.08477742969989777
-0.21451550722122192
-0.4077727794647217
-0.07304473966360092
0.03951392322778702
0.018035002052783966
0.04710851237177849
-0.5467054843902588
0.09700686484575272
-0.2970353662967682
0.023846719413995743
-0.03797881305217743
-0.16277490556240082
-0.10305726528167725
-0.13638316094875336
-0.316763311624527
-0.0412735641002655
-0.5518996119499207
-0.16941821575164795
0.06556817144155502
-0.020092390477657318
-0.0057674311101436615
-0.12939175963401794
-0.017441434785723686
0.13822636008262634
0.28499114513397217
