-0.0684308111667633
0.05605693534016609
-0.04326855018734932
0.01610598899424076
-0.02180139720439911
0.004333609249442816
0.005316327791661024
0.04359576106071472
-0.0638497844338417
-0.049100786447525024
-0.01889968104660511
0.03859392926096916
0.004090840462595224
-0.017807612195611
-0.016921386122703552
-0.05087196081876755
0.03509746119379997
0.022697849199175835
0.005915787070989609
-0.06437943875789642
0.060498807579278946
0.04537595808506012
-0.12125750631093979
0.005965288262814283
0.01348128356039524
-0.04116318002343178
0.05393499135971069
-0.04066108912229538
-0.021159326657652855
0.0455266535282135
0.023942114785313606
0.0275682732462883
-0.012168819084763527
-0.0737287625670433
-0.00941195897758007
0.030208751559257507
0.06503894925117493
0.01513911597430706
-0.07305032014846802
0.09787702560424805
0.004966182634234428
-0.06549098342657089
0.04104006662964821
-0.05115211009979248
0.04353420063853264
0.029840711504220963
-0.009298348799347878
0.018019244074821472
0.08342096209526062
-0.02047746069729328
-0.009868822060525417
0.09503098577260971
-0.053851816803216934
-0.019206423312425613
0.019606873393058777
0.035646770149469376
0.04707183688879013
-0.051849380135536194
0.09918753802776337
-0.018144898116588593
-0.03480533882975578
0.04459884762763977
0.0210020300000906
0.013090157881379128
-0.02715589478611946
0.002585086738690734
-0.008263505063951015
-0.006398308556526899
-0.018914075568318367
0.0500456765294075
0.012307674624025822
0.07075995206832886
0.050332117825746536
0.045606132596731186
-0.02009730041027069
0.010850315913558006
-0.03261612355709076
-0.026305517181754112
-0.06779889762401581
0.004721623845398426
0.019522065296769142
0.054591625928878784
-0.05912390351295471
0.011399189941585064
0.00265278248116374
0.07144437730312347
-0.06757411360740662
0.027215201407670975
-0.033469513058662415
-0.013400780037045479
0.029845135286450386
-0.03978486731648445
0.010326380841434002
-0.04613402113318443
0.02171129360795021
-0.05417438596487045
0.004106828011572361
0.067533478140831
0.011095649562776089
0.013518352061510086
-0.03231070563197136
-0.04599098488688469
0.02107253670692444
-0.07301287353038788
-0.02111893706023693
-0.03139157220721245
-0.02521963231265545
0.0403660424053669
0.04117364063858986
-0.07460694015026093
0.008168870583176613
0.04792001470923424
0.06857474893331528
0.007681856397539377
0.039617959409952164
-0.06347441673278809
-0.040721628814935684
0.0771600678563118
-0.005194302648305893
0.02420036680996418
0.051359619945287704
-0.00788595899939537
-0.05496950075030327
0.019268164411187172
-0.009413585066795349
0.021122170612215996
0.03894107788801193
-0.02010076865553856
