-0.084430992603302
-0.19019101560115814
-0.03645988553762436
0.030480442568659782
0.09247805923223495
-0.29504939913749695
0.004097530618309975
0.014392457902431488
0.2472207099199295
-0.41527730226516724
-0.2067980021238327
0.16479867696762085
-0.3086983859539032
0.07404550164937973
0.18610824644565582
-0.09825385361909866
0.1755589097738266
-0.18069446086883545
-0.07229245454072952
-0.5033109188079834
-0.12744392454624176
-0.08695781975984573
-0.14857104420661926
-0.16741032898426056
-0.08896538615226746
-0.34461870789527893
-0.1950223594903946
-0.23906567692756653
-0.15608905255794525
-0.13370181620121002
-0.07573967427015305
0.21755839884281158
-0.5975679755210876
-0.13210982084274292
-0.24628958106040955
-0.071244016289711
-0.1654682159423828
-0.3583947718143463
-0.15053915977478027
0.2281493991613388
0.0691600888967514
-0.008799702860414982
0.030278094112873077
-0.31406164169311523
-0.42534565925598145
-0.1901477575302124
-0.23075947165489197
-0.11783791333436966
-0.24755676090717316
0.13747180998325348
-0.08404198288917542
0.06490727514028549
0.07372790575027466
-0.0899592936038971
-0.07847384363412857
0.07524541765451431
-0.07509604841470718
-0.8022753000259399
-0.30550113320350647
-0.08975902199745178
-0.13598161935806274
0.04239340499043465
-0.12913645803928375
-0.8549944162368774
-0.1803101748228073
0.026581043377518654
-0.22625871002674103
-0.23239804804325104
-0.0023749209940433502
-0.5511981248855591
0.20152534544467926
-0.2782849669456482
0.048845335841178894
-0.034185849130153656
0.1849486380815506
0.1678435206413269
-0.07014106959104538
-0.3215777277946472
-0.05644741281867027
-0.06167178601026535
-0.36627721786499023
0.07540725916624069
-0.0598251111805439
-0.060233067721128464
0.17473717033863068
-0.15400011837482452
0.10763651877641678
0.007716068532317877
-0.09399131685495377
-0.22470250725746155
-0.2747853696346283
-0.0075201187282800674
-0.2889440357685089
0.07122097164392471
-0.07559189200401306
-0.022060567513108253
-0.006897913757711649
-0.3917027711868286
0.27980348467826843
-0.1391647905111313
-0.10326926410198212
-0.35127758979797363
0.17246146500110626
-0.15221992135047913
-0.3569941818714142
0.17906199395656586
-0.010843934491276741
-0.08634952455759048
-0.23475509881973267
0.04485481232404709
-0.6143876314163208
-0.019892502576112747
-0.23342543840408325
0.06277410686016083
-0.0397612601518631
-0.6521009802818298
0.0721878781914711
-0.12992551922798157
-0.2927224040031433
0.06248895823955536
-0.17305497825145721
-0.01625651866197586
-0.06969247758388519
0.2302730530500412
-0.3397518992424011
-0.18115422129631042
-0.13721750676631927
0.36502426862716675
-0.1117260679602623
-0.4517000913619995
0.1551017314195633
-0.05397133529186249
-0.05798700824379921
0.14409922063350677
-0.10210396349430084
0.06456291675567627
-0.23827150464057922
-0.11449525505304337
-0.033875610679388046
-0.23571111261844635
-0.05411621183156967
-1.0890620946884155
0.1859043389558792
-0.20399080216884613
0.1425020396709442
0.2371625006198883
0.14511699974536896
-0.04268653690814972
0.08599450439214706
-0.10244560986757278
-0.07836276292800903
-0.28620481491088867
0.2600991129875183
-0.037825316190719604
0.014055320993065834
-0.15562711656093597
-0.07771787792444229
-0.08865809440612793
-0.03766844794154167
0.020588789135217667
0.012298781424760818
-0.2538872957229614
-0.04254205897450447
0.11842867732048035
-0.23690758645534515
-0.4823151230812073
-0.10759899765253067
-0.12791398167610168
-0.5634228587150574
-0.0850127637386322
0.09024560451507568
-0.0317097008228302
0.30720680952072144
0.17568498849868774
-0.09821967035531998
0.05835297331213951
0.06793911755084991
0.13653886318206787
-0.449473112821579
-0.05978187546133995
-0.003781213192269206
0.32864412665367126
0.10977058112621307
0.17311158776283264
-0.05915367230772972
0.02395189180970192
0.005266290158033371
-0.23062445223331451
0.05434935539960861
0.11092902719974518
-0.14998653531074524
0.09998784959316254
-0.08504480868577957
-0.1519426554441452
-0.3262379765510559
0.04519800841808319
-0.24576221406459808
-0.21852713823318481
-0.06653092801570892
0.03789915516972542
-0.09260281175374985
-0.3042927384376526
-0.03844768553972244
-0.4899108111858368
0.23121275007724762
-0.316069096326828
0.022127075120806694
-0.06515802443027496
-0.18545471131801605
0.0312788225710392
-0.008555128239095211
-0.5306994318962097
-0.09296338260173798
-0.03819574415683746
-0.030599243938922882
-0.11992721259593964
-0.00011521222040755674
-0.12728078663349152
-0.11906808614730835
0.18244178593158722
-0.49696630239486694
0.01735466532409191
-0.03229725733399391
0.026565592736005783
0.04150836914777756
-0.20287588238716125
-0.33571112155914307
-0.09197311848402023
-0.18394310772418976
-0.07520387321710587
0.14249081909656525
-0.17905056476593018
-0.16200637817382812
-0.21386684477329254
-0.03362574428319931
0.05268432945013046
-0.10880836844444275
-0.03375250846147537
-0.22236298024654388
-0.4209437966346741
-0.29525789618492126
-0.3009556233882904
-0.27210643887519836
-0.00047247353359125555
-0.6013622879981995
-0.24238719046115875
-0.16655205190181732
0.09809714555740356
-0.06301629543304443
-0.24518156051635742
-0.17204450070858002
-0.07918833941221237
0.12123113870620728
-0.05362696573138237
-0.6326786875724792
-0.46232056617736816
-0.6671056151390076
-0.290363073348999
-0.01377507671713829
-0.04881180077791214
-0.1450812667608261
0.1260601282119751
-0.015524258837103844
0.08204799890518188
0.03606201335787773
0.20532502233982086
-0.04331272840499878
-0.7685695290565491
-0.30889320373535156
-0.007418172433972359
-0.2298143357038498
-0.027926435694098473
-0.11245393753051758
-0.029688041657209396
0.022422783076763153
-0.008756428956985474
-0.04032144322991371
-0.1264936327934265
-0.46209239959716797
-0.11096590757369995
-0.26583829522132874
-0.02540362998843193
-0.17837321758270264
-0.03622985631227493
-0.8482521772384644
-0.1973291039466858
-0.1100299209356308
0.18982097506523132
-0.046639930456876755
-0.12182215601205826
0.04288770630955696
-0.17367076873779297
0.03956766426563263
-0.38982972502708435
0.008344540372490883
-0.33091649413108826
-0.519442081451416
0.03303233161568642
0.0075219180434942245
-0.17062269151210785
0.075063057243824
-0.34139615297317505
-0.07011906057596207
-0.5772258639335632
-0.1917889565229416
-0.01800628937780857
0.11083383858203888
-0.23083193600177765
-0.07006849348545074
0.04297637566924095
0.06636688113212585
-0.18060225248336792
-0.24857735633850098
-0.4046155512332916
-0.051345180720090866
-0.3308948278427124
-0.054781872779130936
-0.07851088047027588
0.08251672238111496
-0.15367427468299866
-0.22894287109375
-0.27018964290618896
-0.3252071440219879
-0.1587453931570053
-0.028051845729351044
0.05682381987571716
-0.08596397191286087
-0.08017813414335251
-0.4799174666404724
-0.44162243604660034
-0.3877515196800232
-0.12997475266456604
0.13327808678150177
-0.10374675691127777
-0.04020212963223457
-0.05686702951788902
0.06816953420639038
-0.5912399888038635
-0.27671417593955994
-0.0654408410191536
0.14506185054779053
-0.3651697337627411
-0.3040761351585388
0.012719791382551193
0.013185850344598293
-0.15030249953269958
0.12143323570489883
-0.09825660288333893
-0.15190188586711884
-0.28104111552238464
-0.4185678958892822
0.11144442856311798
-0.06186888366937637
0.07392396032810211
-0.8655623197555542
-0.1688981056213379
-0.140983447432518
-0.677472710609436
-0.6787800192832947
-0.40780648589134216
0.0009931882377713919
-0.20057010650634766
-0.1260952651500702
-0.011625263839960098
0.12429977208375931
-0.13926684856414795
-0.7066088318824768
-0.03382818400859833
0.13742931187152863
-0.01812475174665451
-0.10494045913219452
-0.12942776083946228
0.12839438021183014
-0.0799010768532753
-0.5302642583847046
0.0907655879855156
-0.12772423028945923
-0.2436491847038269
0.00632743863388896
0.02775680646300316
0.16907434165477753
-0.18676318228244781
-0.6143088936805725
0.2513680160045624
-0.26831677556037903
-0.09082002937793732
0.14994627237319946
-0.26249614357948303
-0.05501542240381241
-0.019483143463730812
0.14845477044582367
0.03101770207285881
-0.03144261613488197
0.00800933875143528
-0.4191006124019623
0.12124516069889069
0.016568033024668694
0.04196445643901825
0.0004890913842245936
-0.11671029031276703
-0.17936216294765472
-0.1411067545413971
-0.6060323119163513
0.01940113492310047
-0.03777280077338219
-0.4526251256465912
-0.2658231556415558
-0.20907475054264069
-0.21827320754528046
-0.08640812337398529
-0.37745144963264465
-0.08032096922397614
-0.06240231916308403
-0.016752561554312706
0.11575115472078323
-0.002638834295794368
-0.4969591498374939
-0.07834494858980179
-0.6208100318908691
-0.0010866509983316064
-0.025370744988322258
-0.002999312477186322
-0.1624455451965332
0.08101118355989456
-1.016477346420288
0.048313070088624954
-0.08392263203859329
-0.01117762178182602
-0.5429437160491943
-0.0782964676618576
0.03497841954231262
-0.0771794468164444
-0.08702470362186432
-0.21635238826274872
-0.018504176288843155
-0.06795188784599304
0.022800788283348083
-0.368915855884552
0.08938771486282349
-0.05745251849293709
-0.151264488697052
-0.39818423986434937
0.17097903788089752
-0.22876855731010437
0.009730258025228977
-0.19020402431488037
-0.020957523956894875
0.0942712351679802
-0.499240905046463
0.12105490267276764
-0.2093973159790039
-0.06434996426105499
-0.19684748351573944
-0.22731263935565948
-0.0829571783542633
-0.46501684188842773
-0.9655357003211975
0.1718326210975647
-0.015599842183291912
-0.20519757270812988
-0.09900063276290894
0.09269655495882034
-0.2996254563331604
0.004276242572814226
-0.1284797191619873
-0.2314186543226242
0.004858221393078566
-0.16980010271072388
-0.45522454380989075
0.038338154554367065
-0.12770888209342957
-0.005071812774986029
-0.30892056226730347
-0.08580794930458069
-0.20818760991096497
-0.6879227757453918
-0.497936874628067
-0.19824671745300293
-0.5922794342041016
-0.4237165153026581
-0.1400424838066101
0.10978495329618454
-0.0657382383942604
0.004805297590792179
-0.15231168270111084
0.08948778361082077
0.01282847672700882
-0.11298025399446487
-0.14369484782218933
-0.08155134320259094
-0.36974209547042847
0.23783433437347412
0.03838719427585602
-0.21999964118003845
0.04410853609442711
-0.29833585023880005
-0.29305946826934814
-0.13999240100383759
-0.038816697895526886
-0.2604732811450958
0.1489628106355667
0.20372845232486725
-0.12421081960201263
-1.1237586736679077
-0.010272352024912834
-0.07379058003425598
-0.27420035004615784
0.16192254424095154
0.05347563326358795
-0.03155970200896263
-0.24535010755062103
0.07784408330917358
