-0.12211674451828003
-0.031282939016819
0.20199495553970337
-0.27814623713493347
-0.08278694748878479
0.1319161057472229
0.17026309669017792
-0.01563660427927971
-0.20040494203567505
0.0735074132680893
-0.06574571132659912
-0.11790301650762558
-0.12996909022331238
-0.02059268020093441
-0.11414879560470581
-0.1329111009836197
-0.1598692536354065
0.15011277794837952
0.09894312918186188
0.09653528779745102
0.05695042014122009
0.1098567470908165
-0.07192911952733994
-0.1421317607164383
0.13914242386817932
0.07143620401620865
0.20802246034145355
0.12415049225091934
0.05197061970829964
-9.375334047945216e-05
0.08478602021932602
-0.10561468452215195
0.040905967354774475
0.104517862200737
0.15805089473724365
0.23624807596206665
-0.10615719854831696
-0.004337855149060488
-0.095123790204525
0.1317293494939804
0.12040509283542633
0.06033024564385414
-0.005382147151976824
0.19778050482273102
0.19743117690086365
0.05565435811877251
0.008587117306888103
0.06031730771064758
0.13187946379184723
0.24367325007915497
-0.047565605491399765
-0.04159000888466835
-0.17202624678611755
-0.1011442020535469
-0.10588742792606354
0.18507574498653412
-0.1408088505268097
-0.21170291304588318
0.2926657199859619
-0.08618955314159393
0.10728194564580917
-0.13034048676490784
-0.06866393983364105
-0.01960908994078636
0.10887220501899719
-0.015266373753547668
-0.04308963939547539
0.09998328983783722
0.014653821475803852
-0.012165007181465626
0.0026781961787492037
-0.040479931980371475
0.05671653151512146
-0.029079990461468697
-0.07975036650896072
0.013692247681319714
0.0357174426317215
-0.05219769477844238
0.009524783119559288
-0.04794444143772125
0.013672725297510624
0.04278390854597092
0.060912564396858215
0.07170116901397705
-0.04972035437822342
-0.09059440344572067
-0.010556449182331562
-0.035030897706747055
-0.014799434691667557
-0.03764984384179115
0.036660365760326385
-0.0223885215818882
0.010695409029722214
0.03184767812490463
0.015114313922822475
0.0718870609998703
0.05528461933135986
-0.08464907854795456
-0.06210700422525406
0.10343499481678009
-0.027929753065109253
0.04881899431347847
-0.11314991116523743
0.031099362298846245
0.019902437925338745
-0.02036191150546074
-0.1313936561346054
0.032655268907547
-0.004687433131039143
0.03923238068819046
-0.0257726963609457
0.035348016768693924
-0.052750200033187866
-0.011329876258969307
-0.03488205000758171
-0.020671524107456207
-0.024464718997478485
-0.01763930544257164
0.017519788816571236
0.057401224970817566
0.023217197507619858
0.0004220927075948566
-0.09962501376867294
-0.01600448414683342
0.0238251443952322
-0.030637074261903763
0.045405395328998566
0.0050644841976463795
