-4.682694002985954285e-02
9.196525439620018005e-03
3.794816508889198303e-02
4.471570253372192383e-02
-3.007285669445991516e-02
-2.179471217095851898e-02
9.651561081409454346e-02
-6.802054494619369507e-02
5.395927652716636658e-02
6.345087289810180664e-02
-1.060719266533851624e-01
-2.343137050047516823e-03
-1.037573516368865967e-01
-8.270540088415145874e-02
1.117456927895545959e-01
-9.394445270299911499e-02
7.257063686847686768e-02
1.175474375486373901e-01
-8.701121062040328979e-02
1.373445987701416016e-02
1.417716294527053833e-01
-1.427397429943084717e-01
6.372993439435958862e-02
-4.974485561251640320e-02
-1.212457790970802307e-01
-2.902802824974060059e-02
-3.426761925220489502e-02
1.218850389122962952e-01
-2.018527686595916748e-02
5.828393623232841492e-02
-9.884395450353622437e-02
-7.532591931521892548e-03
-1.166359111666679382e-01
4.679121822118759155e-02
-9.371928125619888306e-02
-2.509826980531215668e-02
-4.736301302909851074e-02
9.451001137495040894e-02
1.010785624384880066e-01
2.135407552123069763e-02
-9.380612522363662720e-02
-1.533516347408294678e-01
-2.512906305491924286e-02
6.781799253076314926e-03
-5.337553471326828003e-02
-2.728820592164993286e-02
-5.356479808688163757e-02
-7.656549662351608276e-02
-1.095470413565635681e-02
-3.499980084598064423e-03
-8.347135037183761597e-02
-4.916901886463165283e-02
1.758669875562191010e-02
5.969473347067832947e-02
5.875523015856742859e-02
1.696661561727523804e-01
7.942326366901397705e-03
4.632329940795898438e-02
1.319557726383209229e-01
2.624942064285278320e-01
-9.145850688219070435e-02
-2.337576448917388916e-02
3.411304205656051636e-02
3.901077061891555786e-02
9.809133410453796387e-02
5.300439894199371338e-02
-1.286593452095985413e-02
5.183877795934677124e-02
-1.205153614282608032e-01
-3.517194464802742004e-02
8.052697777748107910e-02
2.045178227126598358e-02
-9.154625236988067627e-02
-9.040778502821922302e-03
-5.670357961207628250e-03
2.217382192611694336e-03
1.872411370277404785e-02
1.455621980130672455e-02
3.402829542756080627e-02
1.825305372476577759e-01
-3.635182231664657593e-02
4.202111810445785522e-02
-7.864320650696754456e-03
-2.399209700524806976e-02
-7.759303599596023560e-02
9.651223570108413696e-02
4.184146225452423096e-02
7.294591981917619705e-03
-5.749985110014677048e-03
4.509175941348075867e-02
7.462135516107082367e-03
-1.919096452184021473e-03
1.290135830640792847e-01
1.079528480768203735e-01
8.020390756428241730e-03
-1.407602727413177490e-01
-2.131905406713485718e-02
1.248848736286163330e-01
-1.351045221090316772e-01
8.547274768352508545e-02
6.318020075559616089e-02
1.200230270624160767e-01
8.237113803625106812e-02
-4.660546407103538513e-02
1.589691191911697388e-01
1.399600598961114883e-02
-7.655213773250579834e-02
4.925192147493362427e-02
-1.638984307646751404e-02
2.578134275972843170e-02
-1.353674661368131638e-02
3.774040937423706055e-02
2.128819078207015991e-01
1.703084819018840790e-02
-7.201332598924636841e-02
-7.036888599395751953e-02
-5.634255707263946533e-02
4.773784801363945007e-02
-5.452413856983184814e-02
-7.259085774421691895e-02
-7.789492607116699219e-02
-1.066195741295814514e-01
-4.689732193946838379e-02
1.005366072058677673e-02
-2.244532294571399689e-02
5.183697491884231567e-02
1.376328468322753906e-01
1.712362468242645264e-01
1.882172003388404846e-02
-7.457101345062255859e-02
-9.077747911214828491e-02
-1.093819830566644669e-02
-6.562050431966781616e-02
2.894738502800464630e-02
9.261339902877807617e-02
2.671748772263526917e-02
-2.720574103295803070e-02
-3.666030988097190857e-02
-2.871504984796047211e-02
5.442503839731216431e-03
6.824276875704526901e-03
-1.235942244529724121e-01
-5.266096908599138260e-03
2.761543169617652893e-02
8.756130933761596680e-02
1.860141195356845856e-02
-3.633873909711837769e-02
-6.177787482738494873e-02
1.013647913932800293e-01
1.664278507232666016e-01
4.482517763972282410e-02
-7.492932677268981934e-02
2.784390188753604889e-02
1.751962117850780487e-02
3.232866898179054260e-02
-9.250035881996154785e-02
-8.665190637111663818e-02
3.871053457260131836e-03
-1.529000997543334961e-01
7.798193488270044327e-03
4.129500687122344971e-02
-2.765466086566448212e-02
4.507841914892196655e-02
2.142094541341066360e-03
-8.739157766103744507e-02
-1.492846161127090454e-01
-1.410746853798627853e-02
2.293631993234157562e-02
1.061878427863121033e-01
-1.300010532140731812e-01
5.049955472350120544e-02
-3.807171806693077087e-02
1.204855367541313171e-01
-6.325861066579818726e-02
7.965862751007080078e-03
-2.119718492031097412e-02
1.075273677706718445e-01
5.004312470555305481e-02
-2.655576728284358978e-02
-7.473502308130264282e-03
-4.689686372876167297e-02
7.693638652563095093e-02
3.962074220180511475e-02
3.921715170145034790e-02
-3.183123422786593437e-03
7.093601673841476440e-02
-1.641719788312911987e-01
-2.790583670139312744e-02
-1.204128488898277283e-01
7.474523037672042847e-02
9.643597900867462158e-02
-4.228818044066429138e-02
8.331044763326644897e-02
-7.253185659646987915e-02
5.832656100392341614e-02
1.047038845717906952e-02
1.152394060045480728e-02
-4.071781411767005920e-02
-4.410792887210845947e-02
3.968351781368255615e-01
2.152162790298461914e-02
1.076670736074447632e-02
-5.447448045015335083e-02
4.861709196120500565e-03
8.381959050893783569e-02
1.036782041192054749e-01
-6.987582892179489136e-02
-1.701791211962699890e-02
5.283683165907859802e-02
2.317847916856408119e-03
4.397061094641685486e-02
2.173829674720764160e-01
1.176953166723251343e-01
-8.472868055105209351e-02
2.941185422241687775e-02
-1.562235597521066666e-02
-1.116100549697875977e-01
1.148680746555328369e-01
1.080036722123622894e-02
-4.581096395850181580e-02
-5.078084766864776611e-03
-9.015943855047225952e-02
1.719865351915359497e-01
5.627767741680145264e-02
-6.630044081248342991e-04
1.656119152903556824e-02
7.312136888504028320e-02
-7.001789659261703491e-02
1.134243085980415344e-01
2.834186144173145294e-02
1.206077411770820618e-01
-4.802277311682701111e-02
-1.792109571397304535e-02
-1.968142092227935791e-01
-3.670743107795715332e-02
3.124368563294410706e-02
-1.208680048584938049e-01
1.631795056164264679e-02
-4.193460941314697266e-02
-2.146573737263679504e-02
1.387213263660669327e-02
-1.615041494369506836e-01
6.311780214309692383e-02
2.665395289659500122e-02
1.018372029066085815e-01
-3.703128173947334290e-02
-1.805434376001358032e-02
3.745195269584655762e-02
-1.158007606863975525e-01
-1.430186331272125244e-01
3.433470427989959717e-02
-5.722597613930702209e-02
9.393404237926006317e-03
-7.388465106487274170e-02
1.778042614459991455e-01
1.635380275547504425e-02
4.606671631336212158e-02
1.180251613259315491e-01
-7.872559875249862671e-02
3.077086806297302246e-02
1.120923180133104324e-02
4.735206440091133118e-02
-9.043402969837188721e-02
-5.215294077061116695e-04
-9.602431952953338623e-02
-7.217150926589965820e-02
8.384902961552143097e-03
4.151002317667007446e-02
1.466512680053710938e-01
-4.095364362001419067e-02
9.942043572664260864e-02
-1.138196960091590881e-01
1.580355572514235973e-03
1.594796217978000641e-02
1.535067614167928696e-02
-5.639638379216194153e-02
4.233183711767196655e-02
-5.957770720124244690e-02
2.474717795848846436e-02
-1.328672096133232117e-02
1.441456377506256104e-01
1.424072831869125366e-01
-1.791625469923019409e-02
-3.866613283753395081e-02
-8.752741664648056030e-02
-2.517074346542358398e-02
2.100395224988460541e-02
8.524385839700698853e-02
-6.546104699373245239e-02
4.609044268727302551e-02
2.106491923332214355e-01
-3.685715422034263611e-02
-6.341467797756195068e-02
-1.357783526182174683e-01
-2.887184382416307926e-04
3.032833337783813477e-02
1.263746898621320724e-02
-7.261080667376518250e-03
-6.191197037696838379e-02
4.931088164448738098e-02
1.871919818222522736e-02
2.714907051995396614e-03
-5.863692611455917358e-02
-4.464879631996154785e-03
-5.195161327719688416e-02
-3.894237801432609558e-02
6.697123497724533081e-02
6.315845996141433716e-03
5.135412886738777161e-02
2.954712696373462677e-02
-3.179236501455307007e-02
2.929244004189968109e-02
7.225891202688217163e-02
3.887441009283065796e-02
1.385535895824432373e-01
-3.174507291987538338e-03
-2.808832935988903046e-02
8.161767572164535522e-02
4.129379987716674805e-02
-1.504686940461397171e-02
-2.741492167115211487e-02
-5.611420050263404846e-02
8.278407901525497437e-02
-3.756715729832649231e-02
8.828105032444000244e-02
-4.820533469319343567e-02
-1.664112806320190430e-01
-2.756749745458364487e-03
1.006091237068176270e-01
-1.253971010446548462e-01
1.473418716341257095e-02
-7.439436763525009155e-02
-4.626682773232460022e-02
3.612757846713066101e-02
2.065815590322017670e-02
2.152248471975326538e-02
-7.681492716073989868e-02
4.616594314575195312e-02
2.264091558754444122e-02
-2.110589668154716492e-02
-1.348866848275065422e-03
6.027845293283462524e-02
-9.135974943637847900e-02
-2.638096921145915985e-02
-6.703734863549470901e-03
-7.960316538810729980e-02
-1.737775355577468872e-01
1.001024693250656128e-01
-3.220343589782714844e-02
1.524930913001298904e-02
2.733747288584709167e-02
-4.784438759088516235e-02
9.076512604951858521e-02
-3.982222452759742737e-02
1.640468537807464600e-01
-5.611854419112205505e-02
-3.533888608217239380e-02
6.034854426980018616e-02
2.993545681238174438e-02
5.546190217137336731e-02
-1.717350184917449951e-01
-7.180189341306686401e-02
-9.889545850455760956e-03
6.674721091985702515e-02
-5.977698415517807007e-02
-6.465669721364974976e-02
-2.877065911889076233e-02
6.105827167630195618e-02
-3.386968746781349182e-02
-8.689805865287780762e-03
-5.838309600949287415e-02
-1.101316045969724655e-02
6.045045331120491028e-02
3.231801837682723999e-02
-1.098184585571289062e-01
-4.840469360351562500e-02
2.223940007388591766e-02
3.061095997691154480e-02
-6.793120410293340683e-03
8.189663290977478027e-02
-4.786726087331771851e-02
9.673052281141281128e-02
1.222650706768035889e-02
3.662702068686485291e-02
-2.100534737110137939e-02
-3.334598615765571594e-02
-1.269654929637908936e-01
-4.367487132549285889e-02
9.853602200746536255e-02
-1.659521311521530151e-01
-2.654437720775604248e-02
9.571669623255729675e-03
6.741565465927124023e-02
-2.374473027884960175e-02
-2.738827839493751526e-02
-6.529125850647687912e-03
-8.440358936786651611e-02
5.956293269991874695e-02
-8.787818253040313721e-03
-6.839604675769805908e-02
-7.555652409791946411e-02
-2.122299280017614365e-03
-6.954982876777648926e-02
6.956020742654800415e-02
1.410100609064102173e-01
-1.481117308139801025e-01
-1.476270426064729691e-02
-1.742977648973464966e-02
-7.342159748077392578e-02
-2.801835536956787109e-02
-2.267318777740001678e-02
2.291603013873100281e-02
-8.286394178867340088e-02
1.218719333410263062e-01
-7.806017994880676270e-02
6.710248440504074097e-02
2.592700719833374023e-02
6.103425845503807068e-02
-1.503875944763422012e-02
7.322132587432861328e-02
-1.104666851460933685e-02
-6.524124741554260254e-02
9.671294130384922028e-03
1.499186921864748001e-02
7.339857518672943115e-02
-1.987168565392494202e-02
2.686809301376342773e-01
-3.687583142891526222e-03
1.382212936878204346e-01
-3.286626562476158142e-02
-4.041623696684837341e-02
-1.419766433537006378e-02
3.214263543486595154e-02
-1.582008041441440582e-02
-3.404393047094345093e-02
-9.855102747678756714e-02
2.939658984541893005e-02
-1.036617904901504517e-02
3.212494030594825745e-02
6.065545231103897095e-02
4.170655459165573120e-02
1.382167339324951172e-01
8.541606366634368896e-02
9.969418495893478394e-02
-2.912345714867115021e-02
3.234400600194931030e-02
2.587971277534961700e-02
-3.236739709973335266e-02
3.127081552520394325e-03
-5.325165763497352600e-02
7.413648068904876709e-02
3.455907851457595825e-02
5.624260380864143372e-02
9.848019108176231384e-03
6.530661880970001221e-02
6.781658530235290527e-02
1.172433048486709595e-02
5.322072654962539673e-03
5.975728854537010193e-02
6.143172085285186768e-02
7.992629893124103546e-03
1.638778299093246460e-01
-2.046208456158638000e-02
1.163681000471115112e-01
5.641338229179382324e-02
-2.001416310667991638e-02
9.905389696359634399e-02
2.560490928590297699e-02
-2.291220426559448242e-01
-1.574140042066574097e-02
1.753196120262145996e-01
-4.760845750570297241e-02
-1.571078039705753326e-02
4.847623407840728760e-02
-1.199999526143074036e-01
-1.969724148511886597e-01
-2.648072503507137299e-02
2.343527448829263449e-04
4.893958568572998047e-02
-7.543633133172988892e-02
-2.090340703725814819e-01
2.021284699440002441e-01
-1.294623315334320068e-01
2.816520258784294128e-02
-7.542608678340911865e-02
1.029737852513790131e-02
2.479440160095691681e-02
-9.574176371097564697e-02
-2.009152173995971680e-01
-1.495185773819684982e-02
-2.515434846282005310e-02
2.300759404897689819e-01
5.666255578398704529e-02
-6.996355205774307251e-02
1.018945574760437012e-01
-4.196520522236824036e-02
-4.873640090227127075e-02
-5.936942622065544128e-02
-1.113782003521919250e-01
1.059134379029273987e-01
-6.258852314203977585e-03
6.921657174825668335e-02
-3.784340247511863708e-02
-2.836669329553842545e-03
-2.454398758709430695e-02
-5.867164954543113708e-02
-4.520656913518905640e-02
-1.336281653493642807e-02
-1.390682533383369446e-02
4.572581965476274490e-03
-2.907179296016693115e-02
-9.706401824951171875e-02
-7.555947452783584595e-02
-8.638212084770202637e-02
-1.088403537869453430e-01
-1.064422428607940674e-01
6.220906600356101990e-02
3.259713575243949890e-02
9.304460883140563965e-02
1.695258729159832001e-02
2.401285246014595032e-02
-1.046009454876184464e-02
-2.558866143226623535e-02
-1.015084758400917053e-01
5.843662470579147339e-02
-4.358715936541557312e-02
-1.147179491817951202e-02
-5.397431552410125732e-02
-7.815851271152496338e-02
5.873554572463035583e-02
-1.462456863373517990e-02
-3.081258386373519897e-02
6.691624224185943604e-02
-1.639842242002487183e-01
6.865530461072921753e-02
1.426764577627182007e-02
-4.568503797054290771e-02
-8.845291286706924438e-02
7.480515632778406143e-03
8.425656706094741821e-02
2.037243545055389404e-02
3.582786768674850464e-02
-9.782537817955017090e-03
2.570734824985265732e-03
1.969167776405811310e-02
6.940833292901515961e-03
2.168534882366657257e-02
-4.875180870294570923e-02
-5.889835208654403687e-02
-6.091089919209480286e-02
-4.355786368250846863e-02
2.083250321447849274e-02
1.060718074440956116e-01
3.902128711342811584e-02
-2.702195895835757256e-03
-4.068356007337570190e-02
4.674779996275901794e-02
-1.093000695109367371e-01
-2.932367846369743347e-02
1.433330494910478592e-02
-1.844296753406524658e-01
5.098938196897506714e-02
4.729714617133140564e-02
1.335792094469070435e-01
1.304119266569614410e-02
-3.783667832612991333e-02
3.190947696566581726e-02
1.253610826097428799e-03
2.602657377719879150e-01
-5.190562084317207336e-02
-6.208907812833786011e-02
-1.390891373157501221e-01
-6.318381428718566895e-02
-3.650877624750137329e-02
-3.153210505843162537e-02
8.673779666423797607e-02
-1.388409882783889771e-01
-8.210773766040802002e-02
-6.368205696344375610e-02
7.391261309385299683e-02
2.816221490502357483e-02
-1.606799960136413574e-01
-8.043184131383895874e-02
3.307690843939781189e-02
1.059128269553184509e-01
-1.020195856690406799e-01
-2.256708033382892609e-02
-1.656002104282379150e-01
4.906732216477394104e-02
-6.292209029197692871e-02
3.529439121484756470e-02
-1.334913522005081177e-01
-3.617839142680168152e-02
1.323841791599988937e-02
6.546826660633087158e-02
3.366615390405058861e-03
-6.924340128898620605e-02
-1.157451868057250977e-01
5.148346349596977234e-02
4.888409748673439026e-02
-2.228837609291076660e-01
-4.309144243597984314e-02
2.700330130755901337e-02
-2.193102613091468811e-02
-2.231916971504688263e-02
-3.433986380696296692e-02
3.001666069030761719e-02
-1.826024055480957031e-01
1.138718798756599426e-02
-1.468404680490493774e-01
5.488365422934293747e-03
-7.143393158912658691e-02
-6.270813941955566406e-02
-7.137167453765869141e-02
-5.949597433209419250e-02
6.965747475624084473e-02
-7.065508514642715454e-02
-1.246866397559642792e-02
-5.761411786079406738e-02
9.545613825321197510e-02
-1.089979782700538635e-01
-5.083280429244041443e-02
9.679702110588550568e-03
3.177033737301826477e-02
-1.515225321054458618e-01
-4.745801910758018494e-02
5.061858519911766052e-02
-3.929411992430686951e-03
1.539499163627624512e-01
-2.532854117453098297e-02
-2.079443074762821198e-02
-3.717239247635006905e-03
8.034547418355941772e-02
9.108493477106094360e-02
-5.083831772208213806e-02
4.002097621560096741e-02
8.398137055337429047e-03
1.817355304956436157e-01
-8.585108816623687744e-02
-7.602201402187347412e-02
2.493677660822868347e-02
3.108042106032371521e-02
5.598706658929586411e-03
1.521530374884605408e-02
-1.028810441493988037e-01
-3.768254071474075317e-02
-3.759347274899482727e-02
6.370585877448320389e-03
1.288560032844543457e-01
3.144809603691101074e-02
1.273892521858215332e-01
-2.060239948332309723e-02
-6.328720599412918091e-02
5.139715969562530518e-02
-1.685991734266281128e-01
-2.553980052471160889e-02
-1.469402015209197998e-01
3.182952105998992920e-02
-2.697868272662162781e-02
6.369983404874801636e-02
4.723981022834777832e-02
-2.000328898429870605e-01
-5.557488277554512024e-02
-1.341997459530830383e-02
3.812859579920768738e-02
8.305626362562179565e-02
2.842750772833824158e-02
9.084071964025497437e-02
6.550852209329605103e-02
1.188267860561609268e-02
-1.611564657650887966e-03
-4.462499544024467468e-02
-1.801213473081588745e-01
-5.325996130704879761e-02
3.842902928590774536e-02
-1.481999754905700684e-01
3.033987013623118401e-03
-1.400214880704879761e-01
-3.509096056222915649e-02
-1.752957142889499664e-02
-3.139999508857727051e-02
3.818324953317642212e-02
-6.305480748414993286e-02
1.294055134057998657e-01
1.082268878817558289e-01
2.259947732090950012e-02
1.773495972156524658e-02
-1.180088967084884644e-01
6.006779149174690247e-02
-1.135815680027008057e-01
-1.323236227035522461e-01
2.056467346847057343e-03
-1.469665765762329102e-02
-9.651800990104675293e-02
-3.859603777527809143e-02
-2.921523898839950562e-02
1.522484235465526581e-03
-2.188725769519805908e-02
4.450209811329841614e-02
2.656661160290241241e-02
-1.184535101056098938e-01
2.034989930689334869e-02
-5.579789727926254272e-02
-9.254776686429977417e-02
1.495413780212402344e-01
-1.972808130085468292e-02
-9.809494763612747192e-02
-2.424409985542297363e-02
4.493423923850059509e-02
2.611556835472583771e-02
-2.081177383661270142e-02
-1.190269738435745239e-01
-4.830363832297734916e-05
-1.508900374174118042e-01
6.396906077861785889e-02
1.195469051599502563e-01
6.195047870278358459e-02
-8.220183849334716797e-02
3.072023391723632812e-02
-2.599043073132634163e-03
-7.914645224809646606e-02
4.793286323547363281e-02
-7.049760967493057251e-02
-7.781038433313369751e-02
-7.812175899744033813e-02
-2.471554838120937347e-02
6.519967317581176758e-02
-3.891272470355033875e-02
-9.580407291650772095e-03
-4.873801395297050476e-02
-1.357904970645904541e-01
9.263525903224945068e-02
-1.907880306243896484e-01
-1.409725993871688843e-01
6.039910018444061279e-02
-7.220801711082458496e-02
2.879998879507184029e-03
4.529297351837158203e-02
-9.304919093847274780e-02
6.287050992250442505e-02
5.105316173285245895e-03
1.599180698394775391e-02
-7.039853930473327637e-02
-4.743040725588798523e-02
6.360835582017898560e-02
3.415577579289674759e-03
7.082321494817733765e-02
-5.600425601005554199e-02
2.058833464980125427e-02
6.807118654251098633e-02
6.862198561429977417e-02
8.993357419967651367e-02
-5.706309899687767029e-02
6.824724376201629639e-02
-1.279491186141967773e-02
3.448009490966796875e-02
-1.092139538377523422e-02
7.121583819389343262e-02
1.165661029517650604e-02
-1.230803728103637695e-01
-3.111861646175384521e-03
1.078572310507297516e-02
2.884439006447792053e-02
-2.352276444435119629e-02
5.916712060570716858e-02
-1.801382191479206085e-02
-4.954542219638824463e-02
-5.489756911993026733e-02
7.323420047760009766e-02
-4.359561949968338013e-02
-2.976611442863941193e-02
1.296345740556716919e-01
-1.054934859275817871e-01
2.027270384132862091e-02
4.273521527647972107e-02
-9.587938338518142700e-02
-1.361129283905029297e-01
-1.652538217604160309e-02
-1.662138253450393677e-01
8.456363528966903687e-02
-3.103911504149436951e-02
-3.227081522345542908e-02
4.681482166051864624e-02
4.758713021874427795e-02
-2.570713683962821960e-02
1.133816316723823547e-01
5.319662392139434814e-02
-5.328371748328208923e-02
-1.163382306694984436e-01
-1.205365061759948730e-01
-1.308089047670364380e-01
5.596712231636047363e-02
-9.368693828582763672e-02
3.850090876221656799e-02
5.367235094308853149e-02
-8.646596223115921021e-02
-3.445706143975257874e-02
5.980534479022026062e-02
7.013608515262603760e-02
-1.823612749576568604e-01
6.052035838365554810e-02
5.945673957467079163e-02
-1.061470508575439453e-01
-4.721874743700027466e-02
1.264789700508117676e-01
-3.488049283623695374e-02
5.581679567694664001e-02
-3.419917449355125427e-02
2.610162086784839630e-02
5.961555056273937225e-03
3.674663370475172997e-03
-2.137116789817810059e-01
-5.312052089720964432e-03
2.355169318616390228e-02
1.114493235945701599e-01
4.645476490259170532e-02
-8.550452440977096558e-02
3.982894867658615112e-02
5.843462049961090088e-02
-2.941299676895141602e-01
-2.438040636479854584e-02
3.250546753406524658e-02
-2.954349294304847717e-02
9.291949868202209473e-02
-4.618728160858154297e-02
-2.238994240760803223e-01
9.444963186979293823e-02
-1.039988454431295395e-02
-3.147425502538681030e-02
1.644776016473770142e-02
1.074694842100143433e-02
5.554129555821418762e-02
2.766640624031424522e-03
2.573189511895179749e-02
-3.572436794638633728e-02
7.115922123193740845e-02
-1.143283098936080933e-01
-1.028302460908889771e-01
4.978984221816062927e-02
1.689175702631473541e-02
-6.186897866427898407e-03
1.287813633680343628e-01
5.468094721436500549e-02
1.758955419063568115e-02
2.709800004959106445e-01
8.470726758241653442e-02
-2.341479249298572540e-02
-2.304213866591453552e-02
-1.818913221359252930e-02
7.475459016859531403e-03
9.773845225572586060e-02
-1.891270279884338379e-02
-9.311879985034465790e-03
-1.282714027911424637e-02
7.123783230781555176e-02
1.304839998483657837e-01
6.014581769704818726e-02
-6.983666867017745972e-02
-3.163622617721557617e-01
-6.353078782558441162e-02
5.796580389142036438e-02
6.177321076393127441e-02
6.488761305809020996e-02
-1.494090445339679718e-02
6.676959991455078125e-02
-6.306712329387664795e-02
-3.870965680107474327e-03
-4.570012912154197693e-02
6.120010092854499817e-02
9.003853052854537964e-02
-6.825399398803710938e-02
-9.881648421287536621e-02
-4.982727766036987305e-02
-1.315575242042541504e-01
-1.178239881992340088e-01
-7.318156212568283081e-02
7.070185244083404541e-02
-2.539730258285999298e-02
-1.304052583873271942e-02
2.641896717250347137e-02
-1.634015589952468872e-01
-9.955044090747833252e-02
-3.685727342963218689e-02
1.754617691040039062e-02
-3.212050348520278931e-02
-3.586786985397338867e-02
2.715575275942683220e-03
-5.456348136067390442e-02
6.322864443063735962e-02
4.197022318840026855e-02
1.679335604421794415e-03
-9.432589262723922729e-02
1.016144305467605591e-01
7.746310532093048096e-02
-4.927440732717514038e-02
-1.892271488904953003e-01
-1.209498569369316101e-01
2.024684660136699677e-02
8.051299303770065308e-02
-7.395706325769424438e-02
2.811210602521896362e-02
4.422684386372566223e-02
4.964328184723854065e-02
8.156280964612960815e-02
4.804038628935813904e-02
-1.608484797179698944e-02
-7.015564292669296265e-02
-9.578286856412887573e-02
-3.369562327861785889e-02
-4.296541213989257812e-02
-4.962348565459251404e-02
-1.481790244579315186e-01
-3.558328002691268921e-02
1.694973744451999664e-02
8.033695816993713379e-02
1.470882818102836609e-02
1.110661961138248444e-02
3.802276030182838440e-02
-4.814387112855911255e-02
2.965788915753364563e-02
5.963139701634645462e-03
2.310759574174880981e-02
-4.247999936342239380e-02
3.081322833895683289e-02
6.732037663459777832e-02
1.162736583501100540e-02
-1.850883103907108307e-02
2.458522468805313110e-02
4.197898879647254944e-02
2.636848250404000282e-03
4.789947345852851868e-02
-1.928692124783992767e-02
1.528742909431457520e-01
-1.271043568849563599e-01
-1.342426985502243042e-01
5.219833552837371826e-02
-1.535252016037702560e-02
-7.401832193136215210e-02
-9.230826050043106079e-02
9.555536508560180664e-02
-7.649600505828857422e-02
4.802657663822174072e-02
4.274842888116836548e-02
-5.930629745125770569e-02
-3.192057088017463684e-02
7.695868145674467087e-03
-3.248783200979232788e-02
-5.613097921013832092e-02
2.129150740802288055e-02
2.577567845582962036e-02
3.209160268306732178e-02
-1.106884032487869263e-01
7.996549457311630249e-02
-1.274282578378915787e-03
1.507413238286972046e-01
-3.946905955672264099e-02
-7.774865627288818359e-02
7.772573735564947128e-03
3.615483641624450684e-03
-6.340870261192321777e-02
-2.226687036454677582e-02
1.326740384101867676e-01
8.646529912948608398e-02
-1.541752368211746216e-01
-5.939471884630620480e-04
-1.012458428740501404e-01
6.646673381328582764e-02
-1.084974594414234161e-02
-1.688239909708499908e-02
8.918996900320053101e-02
7.746045291423797607e-02
-9.188203513622283936e-02
7.126449793577194214e-02
-4.652893543243408203e-02
-1.165157780051231384e-01
-1.185940206050872803e-01
2.848263457417488098e-02
-5.755584686994552612e-02
1.225048769265413284e-02
8.530377596616744995e-02
-6.220983713865280151e-02
4.847305268049240112e-02
1.167202293872833252e-01
1.734280399978160858e-02
-7.274293154478073120e-02
-2.477064728736877441e-02
-5.075834691524505615e-02
1.573682725429534912e-01
-1.183690950274467468e-01
6.366974115371704102e-02
-8.467142283916473389e-02
-9.229540079832077026e-02
3.211433440446853638e-02
1.097973734140396118e-01
-1.507388502359390259e-01
1.116383522748947144e-01
-1.538698654621839523e-02
-1.050798147916793823e-01
-2.786247804760932922e-02
8.700111508369445801e-02
-9.353268891572952271e-03
7.662153989076614380e-02
5.729551613330841064e-02
-1.128528937697410583e-01
4.641763493418693542e-02
1.496913284063339233e-01
-2.413179539144039154e-02
1.228306721895933151e-02
3.318313881754875183e-02
-1.236982941627502441e-01
-1.542434003204107285e-02
-4.229513928294181824e-02
-3.384584560990333557e-02
5.081744119524955750e-02
2.769979089498519897e-02
4.153443500399589539e-02
-8.235426247119903564e-02
4.471084848046302795e-02
-2.945766411721706390e-02
8.281681686639785767e-02
6.931716203689575195e-02
-1.138149797916412354e-01
6.459587067365646362e-02
-1.769492030143737793e-02
-4.966482892632484436e-02
-2.658260613679885864e-02
1.186583414673805237e-01
-9.534958750009536743e-03
-4.692105110734701157e-03
-8.771851658821105957e-02
-5.837337672710418701e-02
-2.181182615458965302e-02
-9.110942482948303223e-02
2.180368602275848389e-01
9.064048528671264648e-02
-1.375579461455345154e-02
-1.028784513473510742e-01
1.494344230741262436e-02
2.534320764243602753e-02
-1.764549016952514648e-01
-2.500680461525917053e-02
1.692824997007846832e-02
-1.405877899378538132e-02
-2.420281805098056793e-02
-7.098090648651123047e-02
-6.981461495161056519e-02
-3.581127896904945374e-02
2.818113937973976135e-02
1.193834841251373291e-02
-7.997251302003860474e-02
-1.048903260380029678e-02
4.796285927295684814e-02
1.537113189697265625e-01
9.603633731603622437e-02
-6.813573092222213745e-02
3.944793716073036194e-02
-4.343044385313987732e-02
2.724929340183734894e-02
-4.078938066959381104e-02
-5.704544484615325928e-02
-1.549101769924163818e-01
-4.952579736709594727e-03
-6.590920686721801758e-02
6.222771853208541870e-02
4.334275051951408386e-02
1.576791517436504364e-02
3.491517156362533569e-03
-4.160943254828453064e-02
1.031718924641609192e-01
-2.029024213552474976e-01
-4.293012619018554688e-02
-1.555186975747346878e-02
-8.416238427162170410e-02
8.941774070262908936e-02
1.080411151051521301e-01
6.274913251399993896e-02
8.475167304277420044e-02
1.418724656105041504e-01
5.311294272541999817e-02
1.903037168085575104e-02
-9.630812704563140869e-02
8.060929924249649048e-02
-5.797016248106956482e-02
-5.730831623077392578e-02
1.266232226043939590e-02
-3.385876119136810303e-02
3.327525034546852112e-02
3.977542370557785034e-02
-1.136986762285232544e-01
6.472176313400268555e-02
1.137230172753334045e-02
1.700754314661026001e-01
4.327092319726943970e-02
-7.229486946016550064e-03
-1.838790923357009888e-01
5.643557384610176086e-02
8.530274033546447754e-02
-1.717915572226047516e-02
5.801176652312278748e-02
-9.065802395343780518e-02
3.142938017845153809e-02
1.363259106874465942e-01
6.312564015388488770e-02
6.803165376186370850e-02
9.659191220998764038e-02
6.302025914192199707e-02
8.708178997039794922e-02
1.068668887019157410e-01
3.992190957069396973e-02
-5.629587918519973755e-02
-4.396727681159973145e-02
-8.374006301164627075e-02
-4.540628567337989807e-02
9.693007171154022217e-02
4.365844279527664185e-02
5.768494680523872375e-02
9.315424412488937378e-02
-2.399957180023193359e-02
-3.412450104951858521e-02
-2.925899624824523926e-02
-1.529194228351116180e-02
-8.359086513519287109e-02
-6.859549880027770996e-02
9.155494160950183868e-03
1.067764908075332642e-01
4.391361959278583527e-03
5.575313046574592590e-02
-4.667545482516288757e-02
-7.725655287504196167e-02
-4.767717327922582626e-03
-2.584179490804672241e-02
-1.536535751074552536e-02
-4.822165891528129578e-02
6.206227466464042664e-02
-4.604747146368026733e-02
-4.936371743679046631e-02
-9.209069609642028809e-02
8.633492887020111084e-02
4.019469022750854492e-02
8.269119262695312500e-02
-1.495528966188430786e-01
-1.069148629903793335e-01
-4.493459686636924744e-02
1.704976707696914673e-02
9.207794070243835449e-02
-1.028436720371246338e-01
1.351295858621597290e-01
-4.629924148321151733e-02
1.103086210787296295e-02
-6.521269213408231735e-03
4.269658774137496948e-02
-2.256244122982025146e-01
-3.831664472818374634e-02
1.801909529604017735e-03
4.914122074842453003e-02
1.343702245503664017e-02
-2.934166230261325836e-02
2.128560468554496765e-02
-6.341218948364257812e-02
-8.226826786994934082e-02
1.603882908821105957e-01
5.315563827753067017e-02
6.869070231914520264e-02
2.112861350178718567e-02
-2.568275853991508484e-02
8.080819994211196899e-02
1.064084768295288086e-01
1.733130775392055511e-02
-1.465197205543518066e-01
1.141909137368202209e-01
1.355522572994232178e-01
-2.850858261808753014e-03
5.069775506854057312e-03
-2.107153981924057007e-01
-4.639291018247604370e-02
8.636335283517837524e-02
4.237706586718559265e-02
1.652966253459453583e-02
-5.626539885997772217e-02
4.019324854016304016e-02
1.200314685702323914e-01
1.610067859292030334e-02
5.971702560782432556e-02
-2.647408097982406616e-02
-2.235955744981765747e-01
-5.982810258865356445e-02
-1.514951698482036591e-02
4.479913040995597839e-02
6.917329132556915283e-02
9.213760495185852051e-02
1.375261396169662476e-01
-1.084527745842933655e-01
2.199042122811079025e-03
1.276204288005828857e-01
8.257008343935012817e-02
-7.732909917831420898e-02
1.480989903211593628e-01
1.394869387149810791e-02
-5.588571541011333466e-03
-9.335869923233985901e-03
-1.212125346064567566e-01
-3.962709382176399231e-02
1.610068790614604950e-02
-1.056996434926986694e-01
-3.967816941440105438e-03
-2.378566190600395203e-02
-1.757838204503059387e-02
-2.730987221002578735e-02
-4.757314454764127731e-03
9.069389104843139648e-02
-7.674966752529144287e-02
-9.172509610652923584e-02
3.987800329923629761e-03
-4.569684341549873352e-02
-4.075309727340936661e-03
-2.899161074310541153e-03
1.190077289938926697e-01
-3.496789559721946716e-02
9.377631358802318573e-03
4.928917810320854187e-02
-3.262108191847801208e-02
9.248714894056320190e-02
-1.669639497995376587e-01
-1.951939910650253296e-01
1.657156646251678467e-02
7.175920158624649048e-02
1.310131400823593140e-01
-4.167459160089492798e-02
-9.949903003871440887e-03
-9.578942507505416870e-02
6.753036379814147949e-02
-2.403892204165458679e-02
-8.193708211183547974e-02
4.568105097860097885e-03
8.182977139949798584e-02
-6.969499588012695312e-02
-3.877021744847297668e-02
-6.342837214469909668e-02
-5.613665655255317688e-02
-3.355491533875465393e-02
4.943816363811492920e-02
1.005929522216320038e-02
3.228505328297615051e-02
3.186983987689018250e-02
-4.421951621770858765e-02
-2.223831042647361755e-02
-1.151274144649505615e-01
8.013941347599029541e-02
-4.129975661635398865e-02
7.530454546213150024e-03
-3.509779646992683411e-02
2.872296981513500214e-02
-1.208331529051065445e-02
-7.814652286469936371e-03
-8.433467894792556763e-02
-1.521074213087558746e-02
6.224136333912611008e-03
8.810841478407382965e-03
-1.576259732246398926e-01
6.879065651446580887e-03
2.485114615410566330e-03
-8.400590717792510986e-02
5.418882519006729126e-02
4.229480400681495667e-02
-7.480250205844640732e-03
7.188252359628677368e-02
9.626525454223155975e-03
1.002785637974739075e-01
7.351820915937423706e-02
4.705054685473442078e-02
-2.160265110433101654e-02
-1.884818263351917267e-02
-9.162802249193191528e-02
1.294397562742233276e-01
5.854020640254020691e-02
8.295913040637969971e-02
5.310406535863876343e-02
2.076496742665767670e-02
9.197256714105606079e-02
-1.667720824480056763e-01
1.702864021062850952e-01
-6.261155754327774048e-02
1.345783472061157227e-01
-7.234063744544982910e-02
1.051952615380287170e-01
-4.205123707652091980e-02
-1.496674679219722748e-02
-6.181803345680236816e-02
-4.830003529787063599e-02
5.469682812690734863e-02
-4.880923777818679810e-02
4.258589446544647217e-02
-1.248778998851776123e-01
8.973676711320877075e-02
6.053125485777854919e-02
-1.601958721876144409e-01
-2.211210131645202637e-02
2.101735444739460945e-03
-3.057378157973289490e-02
2.090543881058692932e-02
-4.004162922501564026e-02
-1.186400093138217926e-02
6.627284735441207886e-02
-1.108117518015205860e-03
1.083258241415023804e-01
1.116645485162734985e-01
4.697344079613685608e-02
-6.930822855792939663e-04
-8.837471902370452881e-02
-1.033287346363067627e-01
8.874338120222091675e-02
-8.801636844873428345e-02
1.293775532394647598e-02
-1.626439094543457031e-01
-5.276139080524444580e-02
-3.508441848680377007e-03
-2.878226153552532196e-02
3.242313861846923828e-02
-2.105248859152197838e-03
2.570119798183441162e-01
-1.534763276576995850e-01
3.855026513338088989e-02
5.510607361793518066e-02
-8.796516060829162598e-02
1.028125286102294922e-01
-2.235513553023338318e-02
8.506877347826957703e-03
-8.779390156269073486e-02
-5.173303186893463135e-02
-8.174362033605575562e-02
2.631644532084465027e-02
5.385133996605873108e-02
-7.499905675649642944e-02
7.956922799348831177e-02
-6.712815910577774048e-02
1.212444826960563660e-01
2.671051397919654846e-02
-1.204936876893043518e-01
-1.139502376317977905e-01
6.502902507781982422e-02
1.849341765046119690e-02
-7.698815315961837769e-02
5.662477388978004456e-02
8.812136203050613403e-02
3.821693360805511475e-02
3.079952858388423920e-02
4.829456657171249390e-02
-1.661799475550651550e-02
-7.979738712310791016e-02
-7.159727811813354492e-02
5.940083786845207214e-02
4.640166088938713074e-02
-2.915749549865722656e-01
7.962144911289215088e-02
-4.892528429627418518e-02
1.701501756906509399e-02
-1.301934011280536652e-02
-7.512017339468002319e-02
-4.563732072710990906e-03
-7.446576654911041260e-02
-3.868599608540534973e-02
-5.697080492973327637e-02
5.879120156168937683e-02
2.252868190407752991e-02
1.097737625241279602e-01
1.435122489929199219e-01
-3.480425849556922913e-02
1.143300160765647888e-01
6.800632923841476440e-02
-1.256748437881469727e-01
-3.056325018405914307e-02
-2.605298720300197601e-02
-5.997497215867042542e-02
4.682359844446182251e-02
1.128970459103584290e-02
-3.987623751163482666e-02
-1.244470942765474319e-02
-1.353910118341445923e-01
-7.307156175374984741e-02
7.682313024997711182e-02
8.147486485540866852e-03
-5.184705555438995361e-02
1.803248934447765350e-02
3.379547968506813049e-02
3.551232442259788513e-02
5.368617177009582520e-02
-3.857374191284179688e-02
-3.937372937798500061e-03
-2.534192800521850586e-01
8.633188158273696899e-02
5.297743529081344604e-02
8.881340175867080688e-02
-5.367854237556457520e-02
-4.729511216282844543e-02
4.674168303608894348e-02
-4.252728447318077087e-02
-9.292032569646835327e-02
2.269539982080459595e-03
-2.366042882204055786e-02
7.090700417757034302e-02
5.625913664698600769e-02
-2.723763883113861084e-02
6.092294584959745407e-03
-1.092118863016366959e-02
3.175875172019004822e-02
3.063224814832210541e-02
1.628076583147048950e-01
-1.671698875725269318e-02
5.389578267931938171e-02
-5.236238241195678711e-03
-1.212549805641174316e-01
8.900722861289978027e-02
-1.567087881267070770e-02
-6.858655065298080444e-02
2.650969475507736206e-02
-2.578082680702209473e-02
-2.452833205461502075e-02
4.519778862595558167e-02
9.213748574256896973e-02
5.678592622280120850e-02
-6.150337308645248413e-02
-2.796661108732223511e-02
1.179913058876991272e-03
-1.767273433506488800e-02
1.051084697246551514e-01
5.848517641425132751e-03
-7.364891469478607178e-02
-3.700842335820198059e-02
8.719602972269058228e-02
4.391293600201606750e-02
-1.060067713260650635e-01
-1.558874826878309250e-02
6.844267249107360840e-02
8.328811079263687134e-02
-9.801720269024372101e-03
2.564979530870914459e-02
2.885919995605945587e-02
-4.749021306633949280e-02
-7.428781688213348389e-02
-1.371985860168933868e-02
2.466992288827896118e-02
1.924485340714454651e-02
-9.107126295566558838e-02
-2.506328932940959930e-02
1.370350420475006104e-01
-1.047703623771667480e-01
1.355681121349334717e-01
-3.524277359247207642e-02
-2.133781276643276215e-02
-4.934091703034937382e-04
-2.480143755674362183e-01
2.653617784380912781e-02
-1.491264849901199341e-01
2.906975150108337402e-02
-5.852354317903518677e-02
-4.955493845045566559e-03
-7.714317739009857178e-02
-3.622516244649887085e-02
1.375623494386672974e-01
-8.653686195611953735e-02
-4.083564504981040955e-03
3.006972745060920715e-02
1.134493574500083923e-02
-4.085188359022140503e-02
-4.762195423245429993e-02
-6.858143210411071777e-02
-9.012500941753387451e-02
-4.576115682721138000e-02
-4.086943715810775757e-02
5.146268010139465332e-02
-1.006207391619682312e-01
-2.014534361660480499e-02
-1.411714404821395874e-01
-1.475637406110763550e-01
-5.451830569654703140e-03
7.229459285736083984e-02
-9.889976680278778076e-02
-6.185875087976455688e-02
-1.396176218986511230e-02
8.405937254428863525e-02
1.004908531904220581e-01
-3.744956851005554199e-02
3.372823446989059448e-02
1.712512224912643433e-02
2.143389545381069183e-02
-6.272600498050451279e-03
-2.401483245193958282e-02
-1.246606856584548950e-01
-2.769929124042391777e-03
-9.126622229814529419e-02
2.149366959929466248e-02
3.112238086760044098e-02
6.819406896829605103e-02
-7.426232844591140747e-02
-5.981292948126792908e-02
2.432308532297611237e-02
-1.295416951179504395e-01
9.073293954133987427e-02
-1.888713985681533813e-02
6.618966162204742432e-02
-1.011784747242927551e-01
1.153174787759780884e-01
7.317825406789779663e-02
-4.712841659784317017e-02
1.850491166114807129e-01
3.745814785361289978e-02
-7.170287519693374634e-02
-6.242525298148393631e-03
6.405633687973022461e-02
-7.520321756601333618e-02
7.234257645905017853e-03
6.869392842054367065e-02
1.758344322443008423e-01
1.967868022620677948e-02
2.758087217807769775e-02
-1.922635436058044434e-01
4.693670570850372314e-02
7.664881646633148193e-02
-4.841049085371196270e-04
-4.072708263993263245e-02
1.129588335752487183e-01
1.223012953996658325e-01
1.327326297760009766e-01
1.682617962360382080e-01
-4.232851788401603699e-02
3.347513079643249512e-02
1.102995406836271286e-02
3.842914476990699768e-02
3.676594421267509460e-02
3.137782961130142212e-02
2.561277896165847778e-02
-1.915437984280288219e-03
-1.271369457244873047e-01
-6.262595206499099731e-02
5.750990658998489380e-02
-2.191606909036636353e-02
3.542971238493919373e-02
-1.068754643201828003e-01
1.047154143452644348e-01
-8.620147407054901123e-02
-1.018885076045989990e-01
5.557813122868537903e-02
-5.641840398311614990e-02
3.050101362168788910e-02
2.000507339835166931e-02
2.243564724922180176e-01
3.620813786983489990e-02
7.596044242382049561e-02
-2.757093869149684906e-02
7.996147871017456055e-02
1.062206551432609558e-01
-1.606586724519729614e-01
-1.131151691079139709e-01
7.418362796306610107e-02
4.257397726178169250e-02
-8.493440598249435425e-02
-5.334727838635444641e-02
-3.130404651165008545e-02
-8.253228664398193359e-02
3.112097643315792084e-02
8.051715046167373657e-02
-1.846194118261337280e-01
-2.449245937168598175e-02
-7.088722288608551025e-02
-7.828773558139801025e-02
1.055370718240737915e-01
1.840550452470779419e-02
5.033233389258384705e-02
-2.243560180068016052e-02
-5.811836570501327515e-02
-1.123545691370964050e-01
4.996201023459434509e-02
8.808173984289169312e-02
1.340046152472496033e-02
4.087182134389877319e-02
8.078515529632568359e-02
3.938422724604606628e-02
8.720458298921585083e-02
1.693422645330429077e-01
9.364047646522521973e-02
-4.775478318333625793e-02
1.697110477834939957e-03
-8.008594810962677002e-02
-5.092824622988700867e-02
4.337481036782264709e-02
9.182374179363250732e-02
5.679825786501169205e-03
3.592542186379432678e-02
-6.648012204095721245e-04
-7.503353524953126907e-03
-9.176684170961380005e-02
7.433978468179702759e-02
-2.999798767268657684e-02
-1.795485317707061768e-01
4.760862141847610474e-02
-1.164153870195150375e-02
-3.255323274061083794e-03
-8.930301666259765625e-02
-1.298853456974029541e-01
5.165998637676239014e-02
-1.068741604685783386e-01
-3.237800672650337219e-02
-3.242431953549385071e-02
4.681524634361267090e-02
1.506458036601543427e-02
-8.064933866262435913e-02
-6.776285171508789062e-02
3.008848801255226135e-02
1.468917075544595718e-02
9.581778198480606079e-02
5.582411959767341614e-02
-1.438201963901519775e-01
-2.945803664624691010e-02
1.852893382310867310e-01
1.412290632724761963e-01
3.448846191167831421e-02
-7.014417648315429688e-02
3.010592795908451080e-02
5.207222420722246170e-03
-3.838359564542770386e-02
1.272555142641067505e-01
-1.027384102344512939e-01
-5.643295869231224060e-02
1.973119191825389862e-02
1.788707636296749115e-02
6.265801191329956055e-02
7.523503154516220093e-02
-4.057647660374641418e-02
-1.644803285598754883e-01
1.252046879380941391e-02
-8.580554276704788208e-02
1.368585377931594849e-01
-5.606459453701972961e-02
-4.988439031876623631e-04
-1.239055469632148743e-01
7.355871796607971191e-02
-9.987092763185501099e-02
6.570336967706680298e-02
2.890044637024402618e-02
8.431520313024520874e-02
8.860243111848831177e-02
-4.542560502886772156e-02
-2.389901317656040192e-02
-1.679192855954170227e-02
9.523431770503520966e-03
3.678166121244430542e-02
-2.164155989885330200e-02
3.428285941481590271e-03
-4.767037555575370789e-02
-3.533303737640380859e-02
-8.962099999189376831e-02
6.958892941474914551e-02
-5.315312370657920837e-02
5.413461104035377502e-02
-1.069846525788307190e-01
-4.036928340792655945e-02
-2.124494872987270355e-02
7.262281328439712524e-02
3.758320212364196777e-02
-2.511269412934780121e-02
-1.692790770903229713e-03
8.896584808826446533e-02
6.241819262504577637e-02
-4.692144319415092468e-02
4.311081022024154663e-02
8.948665112257003784e-02
8.099497854709625244e-02
7.112643867731094360e-02
-7.439340651035308838e-02
6.812974065542221069e-02
4.221444949507713318e-02
-4.964298382401466370e-02
9.168068319559097290e-02
1.861166954040527344e-02
2.736971341073513031e-02
1.160104349255561829e-01
-3.939894214272499084e-02
-3.809760324656963348e-03
-2.611628547310829163e-02
6.677477061748504639e-02
-1.564126759767532349e-01
2.027882635593414307e-02
2.140708565711975098e-01
-4.687580838799476624e-02
-5.151545628905296326e-02
-2.307901531457901001e-01
1.045627333223819733e-02
1.151922792196273804e-01
-1.220126077532768250e-01
-5.731486156582832336e-02
5.358723551034927368e-02
7.373534888029098511e-02
-1.042073592543601990e-01
-8.646792918443679810e-02
-1.043562069535255432e-01
-1.631611958146095276e-02
-3.203907981514930725e-02
-2.078395038843154907e-01
9.317328780889511108e-02
1.521942615509033203e-01
1.207270771265029907e-01
-5.300826858729124069e-03
-7.649222016334533691e-02
-1.035826504230499268e-01
8.090503513813018799e-02
2.430149354040622711e-02
6.067090481519699097e-02
-3.299252688884735107e-02
2.852764911949634552e-02
5.475269258022308350e-02
-7.041863352060317993e-02
2.179121412336826324e-02
-1.658822782337665558e-02
-1.300166249275207520e-01
-1.136938929557800293e-01
-2.790893660858273506e-03
-2.596566639840602875e-02
-5.254456028342247009e-02
2.608604915440082550e-02
1.780397258698940277e-02
1.228010095655918121e-02
-2.161941863596439362e-02
-1.414601132273674011e-02
-1.561527401208877563e-01
1.116308197379112244e-01
-4.240950196981430054e-02
4.978880286216735840e-02
5.279342830181121826e-02
-2.838331647217273712e-02
-6.287585198879241943e-02
-1.093362942337989807e-01
2.244790317490696907e-03
1.815997250378131866e-02
3.493886813521385193e-02
-1.048768758773803711e-01
-4.198914393782615662e-02
-7.979866117238998413e-03
1.061924248933792114e-01
-8.993812650442123413e-02
-1.006531789898872375e-01
-5.530046299099922180e-02
-1.192345693707466125e-01
9.710691124200820923e-02
-1.261951774358749390e-01
7.826144993305206299e-02
-6.567937321960926056e-03
-2.362331002950668335e-02
-2.867459878325462341e-02
-9.263565298169851303e-04
2.649347856640815735e-02
-8.192649483680725098e-02
-1.182278245687484741e-02
3.255408257246017456e-02
5.861687287688255310e-02
3.535872325301170349e-02
-2.873973548412322998e-02
1.827727816998958588e-02
-6.366610527038574219e-02
-1.070207580924034119e-01
-1.331933541223406792e-03
-1.285110972821712494e-02
2.979886345565319061e-02
2.141449600458145142e-02
1.000311300158500671e-01
6.785262376070022583e-03
7.206226885318756104e-02
-1.003442704677581787e-01
6.027288362383842468e-02
1.116305496543645859e-02
1.740682870149612427e-02
2.031488111242651939e-03
-8.859571069478988647e-02
6.008694320917129517e-02
-2.235610038042068481e-01
5.195519328117370605e-02
-1.497156172990798950e-01
4.715724661946296692e-02
1.154790222644805908e-01
-5.440064147114753723e-02
-2.300618588924407959e-02
6.033845618367195129e-02
3.598247095942497253e-02
3.022508136928081512e-02
7.074880599975585938e-02
-1.191127486526966095e-02
-1.973987184464931488e-02
9.688580036163330078e-02
-9.987271577119827271e-02
-3.139961510896682739e-02
1.365826092660427094e-02
7.921287417411804199e-02
2.593155950307846069e-02
2.201662957668304443e-02
-4.154463484883308411e-02
2.411918900907039642e-02
-5.554946605116128922e-03
4.090629145503044128e-02
-1.662993687205016613e-03
1.714555621147155762e-01
-6.925612688064575195e-02
-7.708273828029632568e-02
9.863786399364471436e-02
-1.488887071609497070e-01
7.418225705623626709e-02
-9.860882908105850220e-02
6.270258873701095581e-02
3.436104394495487213e-03
7.799146324396133423e-02
3.816934674978256226e-02
8.654366247355937958e-03
-1.282268762588500977e-01
7.047632243484258652e-03
1.597101613879203796e-02
-9.804712980985641479e-02
1.762981899082660675e-02
8.170173317193984985e-02
9.844263643026351929e-02
1.074615493416786194e-01
1.462901011109352112e-02
-1.698291115462779999e-02
1.857606321573257446e-01
8.157703094184398651e-03
4.725099727511405945e-02
-1.041143089532852173e-01
1.244470011442899704e-03
-1.924894005060195923e-02
-7.306401617825031281e-03
-2.164519578218460083e-02
4.155677184462547302e-02
-3.797874972224235535e-02
7.003532350063323975e-02
-1.571913510560989380e-01
-1.526925563812255859e-01
-3.796111792325973511e-02
6.296364217996597290e-02
1.809601904824376106e-03
2.852469123899936676e-02
1.884049922227859497e-01
3.306480869650840759e-02
-3.471245616674423218e-02
-1.504094805568456650e-02
6.494547240436077118e-03
4.305963590741157532e-02
6.726703047752380371e-02
-3.416977450251579285e-02
-1.298574358224868774e-01
-5.005772411823272705e-02
-7.678614929318428040e-03
7.331184297800064087e-02
1.221829503774642944e-01
-9.097966551780700684e-02
-3.673063591122627258e-02
1.701761595904827118e-02
1.182470098137855530e-02
8.770430460572242737e-03
3.713355958461761475e-02
1.535329967737197876e-01
2.185679227113723755e-02
5.237029120326042175e-02
1.588622294366359711e-02
-1.340891867876052856e-01
3.312750952318310738e-03
-4.764562100172042847e-02
5.455528199672698975e-02
-3.967898711562156677e-02
3.657421097159385681e-02
-5.016823485493659973e-02
-2.898075990378856659e-02
8.896980434656143188e-02
4.008008912205696106e-02
-9.468939155340194702e-03
6.797527930757496506e-06
-4.908508062362670898e-02
1.373213808983564377e-02
-9.379369020462036133e-02
8.576542139053344727e-02
1.801483705639839172e-02
-5.138105899095535278e-02
-6.079567130655050278e-03
-1.003203243017196655e-01
-4.697123542428016663e-02
-1.262966245412826538e-01
3.885764256119728088e-02
-5.871167406439781189e-02
-5.485230358317494392e-04
-4.686665534973144531e-02
4.066013917326927185e-02
-1.162944287061691284e-01
2.548163756728172302e-02
1.618128642439842224e-02
5.654965713620185852e-02
4.424345493316650391e-02
-1.770316660404205322e-01
-5.614973232150077820e-02
7.727556675672531128e-02
-6.303742527961730957e-02
2.856756560504436493e-02
6.898400932550430298e-02
-3.362071886658668518e-02
-5.588820669800043106e-03
1.165813207626342773e-01
-8.962398022413253784e-02
1.234429981559514999e-02
3.040395677089691162e-02
-5.469571799039840698e-02
5.276349931955337524e-02
1.181750930845737457e-02
-1.680475473403930664e-02
-7.616024464368820190e-02
-5.206698924303054810e-02
2.814173698425292969e-02
-1.320099830627441406e-01
1.923761814832687378e-01
-2.667876891791820526e-02
1.287173330783843994e-01
-7.338858395814895630e-02
-4.716257564723491669e-03
-1.060921419411897659e-02
1.901109814643859863e-01
1.415870040655136108e-01
1.317804753780364990e-01
-3.888105228543281555e-02
-7.490218430757522583e-02
-8.370814844965934753e-03
1.269663274288177490e-01
-1.566929966211318970e-01
8.606812916696071625e-03
-5.320790410041809082e-02
1.151130571961402893e-01
-4.833699017763137817e-02
1.289599686861038208e-01
9.844536334276199341e-02
4.819895327091217041e-02
-3.574258461594581604e-02
6.474763900041580200e-02
6.562018766999244690e-03
-6.864027678966522217e-02
-1.564286053180694580e-01
-2.992615103721618652e-02
3.191011026501655579e-02
-4.104504734277725220e-02
-4.334817081689834595e-02
-8.033387362957000732e-02
-8.565251715481281281e-03
2.944249659776687622e-02
-1.140536740422248840e-01
3.056027181446552277e-02
2.018934115767478943e-02
-3.052975237369537354e-02
1.264018118381500244e-01
-5.239945650100708008e-02
1.336536258459091187e-01
-1.482773423194885254e-01
1.800636947154998779e-02
5.645265057682991028e-02
7.807542383670806885e-02
3.263518214225769043e-02
-2.049893327057361603e-02
-1.460151188075542450e-02
9.660522639751434326e-02
1.056977175176143646e-02
-1.110907122492790222e-01
-1.215819343924522400e-01
8.995252102613449097e-02
-7.557184249162673950e-02
4.201157763600349426e-02
-1.180293858051300049e-01
3.398577868938446045e-02
7.591693103313446045e-02
4.803741176147013903e-04
2.327978610992431641e-02
5.273553356528282166e-02
-2.401592768728733063e-02
5.344335921108722687e-03
6.227689795196056366e-03
5.881951004266738892e-02
-1.459138002246618271e-02
4.857026040554046631e-02
6.248406134545803070e-03
-3.318972513079643250e-02
-2.604769915342330933e-02
-8.770123869180679321e-02
-5.378007888793945312e-02
1.531402021646499634e-02
1.298052165657281876e-02
3.249458223581314087e-02
-9.839836508035659790e-03
6.867052614688873291e-02
5.723151564598083496e-02
-6.698897480964660645e-02
-4.528924077749252319e-02
3.841652721166610718e-02
8.445178717374801636e-02
-1.797372661530971527e-02
2.236905321478843689e-02
-2.294392557814717293e-03
1.924701966345310211e-02
-5.303670838475227356e-02
-2.206762135028839111e-02
-3.031478263437747955e-02
-5.865478515625000000e-02
-7.020553946495056152e-02
5.366329848766326904e-02
2.365915849804878235e-02
-8.808425813913345337e-02
1.116786617785692215e-02
-8.436455577611923218e-02
1.287427544593811035e-01
-3.530023992061614990e-02
-2.468021586537361145e-02
4.266168922185897827e-02
-3.517735283821821213e-03
-8.900298923254013062e-02
-3.432596847414970398e-02
-2.404680401086807251e-01
-6.375303026288747787e-03
-1.668619923293590546e-02
7.966576516628265381e-02
7.469900697469711304e-02
-2.047870680689811707e-02
-1.044154837727546692e-01
6.458164751529693604e-02
3.507280349731445312e-02
8.323024958372116089e-02
6.311983615159988403e-02
-1.040166942402720451e-03
-1.044517159461975098e-01
-2.359975874423980713e-01
-1.665063649415969849e-01
6.102997809648513794e-02
1.581666618585586548e-02
-6.453092675656080246e-03
3.432359173893928528e-02
6.171505153179168701e-02
1.157680973410606384e-01
1.496197935193777084e-02
-6.866308394819498062e-04
3.448364883661270142e-02
1.769659429555758834e-04
9.207586757838726044e-03
1.297031790018081665e-01
2.267840085551142693e-03
-7.886142283678054810e-02
7.495439611375331879e-03
-1.222321689128875732e-01
4.128403589129447937e-02
2.096204832196235657e-02
-4.650506377220153809e-02
-3.579306416213512421e-03
-1.164838857948780060e-02
8.155070990324020386e-02
1.678654458373785019e-03
-4.935319349169731140e-02
-2.233356796205043793e-02
8.403970301151275635e-02
-1.490908116102218628e-01
-9.518529474735260010e-02
-1.844499446451663971e-02
9.079929441213607788e-02
6.828773021697998047e-02
1.296346634626388550e-01
4.834267310798168182e-03
-3.290618583559989929e-02
-8.536682277917861938e-02
-1.481674704700708389e-02
1.131383329629898071e-01
1.138343289494514465e-01
-9.461282938718795776e-02
9.369305334985256195e-03
-8.484681695699691772e-02
5.637030676007270813e-02
-6.297739688307046890e-03
3.604488074779510498e-02
1.602113693952560425e-01
3.584550321102142334e-02
-1.023529842495918274e-02
-7.422811537981033325e-02
1.807300746440887451e-02
-2.526413463056087494e-02
-2.967067621648311615e-02
-3.815830871462821960e-02
-4.505640640854835510e-02
1.993468403816223145e-01
5.037622153759002686e-02
8.024959266185760498e-02
1.295174509286880493e-01
5.726353824138641357e-02
-2.543000271543860435e-03
1.877084933221340179e-02
-5.758574232459068298e-02
-1.231456454843282700e-02
-1.086380109190940857e-01
3.793425485491752625e-02
-1.355737261474132538e-02
-1.239929050207138062e-01
-4.709428921341896057e-02
-2.637073025107383728e-02
3.094657137989997864e-02
6.740994006395339966e-02
4.851704090833663940e-02
5.177603662014007568e-02
-6.308301538228988647e-02
-2.526259282603859901e-03
-8.835254609584808350e-02
-1.940631568431854248e-01
1.251852605491876602e-02
9.274919331073760986e-02
9.869939088821411133e-02
1.902068220078945160e-02
6.431889254599809647e-03
8.809368312358856201e-02
-2.481585927307605743e-02
8.296428620815277100e-02
-6.336212158203125000e-02
1.821799017488956451e-02
4.208547994494438171e-02
8.054942823946475983e-03
-8.633273653686046600e-03
5.882615223526954651e-02
1.106661930680274963e-01
2.068781666457653046e-02
1.286501288414001465e-01
-2.039894834160804749e-02
-2.095658630132675171e-01
-1.005604863166809082e-01
2.247412689030170441e-02
4.738162737339735031e-03
3.183024749159812927e-02
4.400463774800300598e-02
1.351013034582138062e-02
-1.876606047153472900e-02
1.229597181081771851e-01
4.208989813923835754e-02
5.980121344327926636e-02
-7.439062744379043579e-02
6.651898380368947983e-03
8.938790857791900635e-02
5.312032252550125122e-02
-1.465806961059570312e-01
-9.252314455807209015e-03
1.532697528600692749e-01
2.775948494672775269e-02
-7.145233452320098877e-02
-5.668754875659942627e-02
-1.365297883749008179e-01
7.540721446275711060e-02
-2.060029096901416779e-02
-1.826873272657394409e-01
5.326274409890174866e-02
2.207322249887511134e-04
-1.228971406817436218e-01
3.865019232034683228e-02
1.262347400188446045e-01
-3.454080224037170410e-02
-7.659333199262619019e-02
-5.335404723882675171e-02
1.272030174732208252e-01
2.924184501171112061e-02
1.788715124130249023e-01
1.294627785682678223e-01
7.431310415267944336e-02
1.099529266357421875e-01
1.524135563522577286e-02
-2.242333069443702698e-02
3.368596360087394714e-02
-1.212870478630065918e-01
-5.862621963024139404e-02
1.506584975868463516e-02
5.608060397207736969e-03
9.794851392507553101e-02
-8.743481338024139404e-02
3.948945552110671997e-02
3.861268237233161926e-02
-1.783396676182746887e-02
-4.718250036239624023e-02
4.640787839889526367e-02
1.943628303706645966e-02
-3.494008630514144897e-02
7.059744745492935181e-02
-8.417775481939315796e-02
1.090882346034049988e-01
5.044071748852729797e-02
-3.223926573991775513e-02
-7.900585979223251343e-02
2.996569126844406128e-02
-6.858464330434799194e-02
-2.641393058001995087e-02
-5.642017722129821777e-02
-3.070888342335820198e-04
2.715837676078081131e-03
1.998129114508628845e-02
-8.016736805438995361e-02
5.223412811756134033e-02
-4.640142247080802917e-02
-1.596461385488510132e-01
-3.634757548570632935e-02
-7.898309081792831421e-02
-6.101102381944656372e-02
-5.716840922832489014e-02
-5.495350807905197144e-02
-4.219293594360351562e-02
9.241993725299835205e-02
9.057046845555305481e-04
1.206290721893310547e-01
1.005691066384315491e-01
2.842022292315959930e-02
-8.590961247682571411e-02
-1.055736560374498367e-02
3.848266974091529846e-02
6.447277963161468506e-02
-1.191238984465599060e-01
1.579674035310745239e-01
4.564671963453292847e-02
2.204642742872238159e-01
-3.569348528981208801e-02
-2.942139096558094025e-02
3.145460784435272217e-02
-1.100334003567695618e-01
-4.450688511133193970e-02
4.417483881115913391e-02
1.761854141950607300e-01
-1.439584791660308838e-02
2.292250515893101692e-03
3.156804665923118591e-02
-6.781557947397232056e-02
3.746525943279266357e-02
-1.456821262836456299e-01
3.300262615084648132e-02
-1.168150380253791809e-01
-8.793349564075469971e-02
1.160479709506034851e-02
4.846857860684394836e-02
-5.989335011690855026e-03
-1.058196797966957092e-01
-9.827533736824989319e-03
2.338965656235814095e-03
-8.967450261116027832e-02
5.646777153015136719e-02
-1.125900074839591980e-02
-1.083829328417778015e-01
1.863846480846405029e-01
-2.928658388555049896e-02
7.649480551481246948e-02
-3.306205198168754578e-02
-4.460916668176651001e-02
-4.755805805325508118e-02
-3.562441095709800720e-02
8.893602341413497925e-02
8.427195250988006592e-02
5.487910285592079163e-02
7.256185263395309448e-02
-2.704163268208503723e-02
9.916959702968597412e-02
5.050653964281082153e-02
-4.635970667004585266e-02
-1.241774186491966248e-01
-1.107350289821624756e-01
-1.127232611179351807e-02
9.094014763832092285e-02
1.966770179569721222e-02
-2.857781574130058289e-02
8.155535161495208740e-02
3.152326121926307678e-02
3.947570547461509705e-02
-3.181684017181396484e-02
3.355009714141488075e-03
-2.050193957984447479e-02
-2.288816869258880615e-02
-1.598689854145050049e-01
6.622254103422164917e-02
1.948794350028038025e-02
-1.115140244364738464e-01
-2.502311207354068756e-02
-6.005742028355598450e-02
3.279759362339973450e-02
-6.216049939393997192e-02
8.067998103797435760e-03
-2.162352055311203003e-01
-2.091789990663528442e-02
-3.148815780878067017e-02
-9.088257700204849243e-02
1.189536377787590027e-01
2.037193626165390015e-02
-2.196414209902286530e-02
4.652424529194831848e-02
8.945766836404800415e-02
5.325250700116157532e-02
5.992427840828895569e-02
7.236724346876144409e-02
2.413109503686428070e-02
1.019752770662307739e-02
4.640034586191177368e-02
3.429897502064704895e-02
8.227511495351791382e-02
1.961358785629272461e-01
3.041785024106502533e-02
3.396769985556602478e-02
1.016176305711269379e-02
-3.133194986730813980e-04
3.993089497089385986e-02
-2.187484502792358398e-02
-2.170348912477493286e-02
1.369946151971817017e-01
-1.410896033048629761e-01
1.365806814283132553e-02
3.165085241198539734e-02
6.829046458005905151e-02
-1.210854873061180115e-01
3.262734040617942810e-02
-4.214781895279884338e-02
2.410238608717918396e-02
-1.312645524740219116e-01
-1.111119799315929413e-02
-3.827009722590446472e-02
5.684433877468109131e-02
2.397473007440567017e-01
-8.885888755321502686e-02
-8.554787933826446533e-02
3.379739588126540184e-03
1.197813078761100769e-01
1.150005497038364410e-02
-2.727911807596683502e-02
1.015803292393684387e-01
-1.508317142724990845e-02
5.263205990195274353e-02
-1.795330941677093506e-01
2.358907647430896759e-02
-6.421557627618312836e-03
3.274515569210052490e-01
1.420014947652816772e-01
-2.636952325701713562e-02
-3.753008320927619934e-02
-1.988810747861862183e-01
5.606294795870780945e-02
-3.716383129358291626e-02
-4.677279666066169739e-02
5.181589350104331970e-02
-2.678353339433670044e-02
7.440513372421264648e-02
-1.153081804513931274e-01
9.911624714732170105e-03
1.119825616478919983e-01
-5.578352138400077820e-03
1.412727870047092438e-02
5.446147173643112183e-02
-1.195577159523963928e-01
5.899582174606621265e-04
2.014733478426933289e-02
-5.987113341689109802e-03
-1.780162304639816284e-01
9.069192409515380859e-02
-5.634156614542007446e-02
7.404334098100662231e-02
1.244713203050196171e-04
9.970994293689727783e-02
5.850174650549888611e-02
1.069924607872962952e-02
-1.592586049810051918e-03
-4.675895348191261292e-02
1.035124361515045166e-01
-3.029352612793445587e-02
-4.042917490005493164e-02
-8.550745248794555664e-02
1.142749339342117310e-01
-3.761742636561393738e-02
1.113518700003623962e-01
-7.150214910507202148e-02
-4.653988406062126160e-02
6.285238265991210938e-02
-8.950524963438510895e-03
-2.154420688748359680e-02
3.257524687796831131e-03
7.733107358217239380e-02
2.143045328557491302e-02
-1.261735856533050537e-01
-9.851782023906707764e-02
4.315569996833801270e-02
7.663445081561803818e-03
-7.311160862445831299e-02
8.889466989785432816e-04
-1.007552742958068848e-01
-1.289372593164443970e-01
-1.077439077198505402e-02
-2.525069117546081543e-01
3.248500451445579529e-02
-3.734625875949859619e-02
-4.414263740181922913e-02
8.322295546531677246e-02
1.137143224477767944e-01
8.849408477544784546e-02
-4.727194458246231079e-02
-3.103286260738968849e-03
1.254925429821014404e-01
-3.400015830993652344e-02
1.179348006844520569e-01
-2.937838435173034668e-02
-9.758676588535308838e-02
4.019563272595405579e-02
1.211004927754402161e-01
-1.146990898996591568e-02
-1.411511451005935669e-01
6.594739854335784912e-02
-5.243473127484321594e-02
3.136339783668518066e-02
4.555100575089454651e-02
-5.284212529659271240e-03
-6.802559643983840942e-02
4.199140146374702454e-02
1.096846759319305420e-01
3.074813447892665863e-02
1.212730444967746735e-02
1.023773923516273499e-01
1.213706843554973602e-02
1.058636158704757690e-01
3.489923477172851562e-02
9.220062941312789917e-02
-5.260162428021430969e-02
2.278216183185577393e-02
1.591740734875202179e-02
5.184860154986381531e-02
3.259122744202613831e-02
7.468198239803314209e-02
-6.973278522491455078e-02
-1.522127166390419006e-02
4.434373602271080017e-02
-1.018094364553689957e-02
-3.162173554301261902e-02
2.492237836122512817e-02
-3.726093843579292297e-02
2.676369063556194305e-02
-5.870538204908370972e-02
3.436097502708435059e-02
4.119216650724411011e-02
9.364556521177291870e-02
2.179814130067825317e-02
-3.109320439398288727e-02
-2.453501373529434204e-01
-3.806545212864875793e-02
-3.612215444445610046e-02
-3.523430228233337402e-02
-3.860589116811752319e-02
2.183913625776767731e-02
-8.169552165782079101e-05
-8.927691727876663208e-02
5.530645139515399933e-03
-1.397307496517896652e-02
-6.217167899012565613e-02
1.613465510308742523e-02
-5.402257665991783142e-02
6.939768325537443161e-03
7.493294030427932739e-02
-9.058386087417602539e-02
-3.496881574392318726e-02
-6.201677024364471436e-02
2.263317815959453583e-03
-6.044221576303243637e-03
4.058708623051643372e-02
1.227087527513504028e-01
-4.177754372358322144e-02
5.862954631447792053e-02
1.834737509489059448e-02
-7.063471525907516479e-02
-3.415347309783101082e-03
-1.477700471878051758e-01
1.245046686381101608e-02
-7.227086275815963745e-02
-2.458309940993785858e-02
1.210129708051681519e-01
-4.679758567363023758e-04
1.833000592887401581e-02
9.878395497798919678e-02
5.995148792862892151e-02
1.105387322604656219e-02
-5.206627398729324341e-02
4.941471293568611145e-02
-1.301036495715379715e-02
-1.256732791662216187e-01
1.621124707162380219e-02
1.196360439062118530e-01
4.982385411858558655e-02
8.651375770568847656e-02
-1.883618384599685669e-01
1.176515221595764160e-02
-1.040708571672439575e-01
-1.002117171883583069e-01
6.726619601249694824e-02
-8.842349983751773834e-03
1.164110079407691956e-01
-1.329242289066314697e-01
-1.148074269294738770e-01
-3.960612043738365173e-02
-7.427273690700531006e-02
3.328876569867134094e-02
-1.042501032352447510e-01
1.395144220441579819e-02
3.575557842850685120e-03
4.300398379564285278e-02
-7.213262841105461121e-03
-1.117136701941490173e-01
4.588834941387176514e-02
-7.550472393631935120e-03
-4.415184259414672852e-02
-1.037911027669906616e-01
-4.466079920530319214e-02
4.143873229622840881e-02
-1.440207101404666901e-02
1.674987189471721649e-02
-5.661803483963012695e-02
9.917009621858596802e-03
6.728131324052810669e-03
-2.090053260326385498e-02
6.606857478618621826e-02
-2.644871734082698822e-02
8.573262393474578857e-02
-6.469068676233291626e-02
-5.087841674685478210e-02
9.601347893476486206e-02
-2.004790492355823517e-02
4.069802537560462952e-02
-1.349960565567016602e-01
-2.446866631507873535e-01
-6.320289801806211472e-03
7.268092129379510880e-03
-5.266904458403587341e-02
-1.193397194147109985e-01
9.039339423179626465e-02
1.008826568722724915e-01
-3.674019128084182739e-02
-1.772974804043769836e-02
1.268782764673233032e-01
-1.407797336578369141e-01
4.181087389588356018e-02
6.887748092412948608e-02
-8.678581565618515015e-02
9.230437874794006348e-02
-2.848249487578868866e-02
6.843432784080505371e-03
-3.081287629902362823e-02
-2.207031473517417908e-02
8.262071758508682251e-02
1.065261662006378174e-01
-7.686970382928848267e-02
-1.108056679368019104e-01
6.685230135917663574e-02
-1.250220835208892822e-01
-8.401423692703247070e-03
-2.701603248715400696e-02
-4.449830576777458191e-02
2.618628181517124176e-02
-4.462856054306030273e-02
-3.106786310672760010e-02
-4.217368364334106445e-02
-2.471087872982025146e-02
-1.987789524719119072e-03
7.953501492738723755e-02
-3.799131885170936584e-02
-1.724956091493368149e-03
6.232848018407821655e-02
-3.110158070921897888e-02
-7.882931828498840332e-02
9.353787451982498169e-02
1.060313638299703598e-02
1.568426378071308136e-02
-6.181296706199645996e-02
2.570814639329910278e-02
-3.152504563331604004e-02
-5.015643313527107239e-02
-3.599898144602775574e-02
3.234111890196800232e-02
-4.601091891527175903e-02
-1.166794914752244949e-03
-1.293515879660844803e-02
2.218358032405376434e-02
6.016337871551513672e-02
4.331941157579421997e-02
2.473695427179336548e-01
-3.125327453017234802e-02
2.781386114656925201e-02
7.932335883378982544e-02
7.017380744218826294e-02
-4.865854233503341675e-02
-8.163312450051307678e-03
-6.549251793330768123e-06
3.727990016341209412e-02
5.409167148172855377e-03
1.339508146047592163e-01
-9.768848121166229248e-02
-6.566949933767318726e-02
-5.315335001796483994e-03
7.085421122610569000e-03
-1.590670272707939148e-02
1.210354361683130264e-02
-3.157589817419648170e-03
-3.413938730955123901e-02
-6.697520148009061813e-03
-5.161824822425842285e-02
4.070610180497169495e-02
8.450142294168472290e-02
8.193360269069671631e-02
2.823111973702907562e-02
-8.091165870428085327e-02
8.287850767374038696e-02
1.026254817843437195e-01
-9.177068620920181274e-02
-1.343870609998703003e-01
-1.019772440195083618e-01
2.825670316815376282e-02
-1.070711538195610046e-01
-8.988260477781295776e-02
4.556290805339813232e-02
-2.789698308333754539e-03
4.268335551023483276e-02
-6.598850339651107788e-02
-9.623421728610992432e-02
4.050583764910697937e-02
-9.385877847671508789e-02
-7.882662862539291382e-02
8.410285413265228271e-02
-5.141016095876693726e-02
1.459368620999157429e-03
-4.755836352705955505e-02
-1.402855385094881058e-02
-2.709507476538419724e-03
5.749396607279777527e-02
4.036961495876312256e-02
4.976329579949378967e-02
1.728317583911120892e-03
7.222089171409606934e-02
-3.030880168080329895e-02
-3.968704491853713989e-02
3.347487002611160278e-02
1.805481687188148499e-02
-1.022927016019821167e-01
1.486746780574321747e-02
6.876314431428909302e-02
1.039566919207572937e-01
8.625159412622451782e-02
1.380900740623474121e-01
3.220362588763237000e-02
-8.603140711784362793e-02
3.693274408578872681e-02
-4.059599339962005615e-02
-1.360288821160793304e-02
-2.821625769138336182e-02
8.669579774141311646e-02
1.766015440225601196e-01
-5.003169924020767212e-02
-3.374412283301353455e-02
1.249365508556365967e-01
9.117282181978225708e-02
-5.795388668775558472e-02
-1.130740344524383545e-02
1.201146766543388367e-01
2.999795600771903992e-02
-1.841534115374088287e-02
-2.080844156444072723e-02
-6.661680340766906738e-02
8.314817398786544800e-02
2.854792214930057526e-02
5.284120887517929077e-02
-4.303316771984100342e-02
-7.988399267196655273e-02
-1.857077181339263916e-01
1.535697281360626221e-01
1.829982697963714600e-01
-7.838340848684310913e-02
7.529492676258087158e-02
-2.124808914959430695e-02
6.378065794706344604e-02
-2.899076091125607491e-03
3.076499886810779572e-02
-4.499381780624389648e-02
7.533595710992813110e-02
-3.337461501359939575e-02
1.639721728861331940e-02
5.731630325317382812e-02
6.079358235001564026e-02
1.569613628089427948e-02
1.155694276094436646e-01
6.837465614080429077e-02
-4.536325484514236450e-02
1.530431304126977921e-02
3.282576054334640503e-02
9.286641329526901245e-02
2.416104637086391449e-02
-9.745021350681781769e-03
4.324211925268173218e-02
1.414468735456466675e-01
-6.260788440704345703e-02
-2.266943827271461487e-02
6.741881370544433594e-04
-5.378536880016326904e-02
-6.325193680822849274e-03
4.442722350358963013e-02
-7.383575197309255600e-03
8.368499577045440674e-02
7.897258910816162825e-06
-4.836230352520942688e-02
-8.919925987720489502e-02
9.569715708494186401e-03
-7.118633389472961426e-02
-6.279446929693222046e-02
6.057517230510711670e-02
-2.682395838201045990e-02
5.620104447007179260e-02
5.433525890111923218e-02
-1.618461906909942627e-01
2.963439561426639557e-03
-2.258708514273166656e-02
-4.337425529956817627e-02
8.024953305721282959e-02
-6.646783649921417236e-02
-3.156516700983047485e-02
-1.695172861218452454e-02
-3.162347245961427689e-03
-2.547060372307896614e-03
4.116646945476531982e-02
-6.326746940612792969e-02
7.359470427036285400e-02
-8.345069736242294312e-02
-1.272142529487609863e-01
1.327762305736541748e-01
-5.418805032968521118e-02
4.762406647205352783e-02
1.455012261867523193e-01
5.529892817139625549e-02
-4.463487491011619568e-02
7.256629317998886108e-02
-6.837418675422668457e-02
1.016689911484718323e-01
3.106530942022800446e-02
1.286500394344329834e-01
-1.823225170373916626e-01
-3.699321299791336060e-02
-2.518176846206188202e-02
-5.732360295951366425e-03
-6.819359958171844482e-02
2.544858865439891815e-02
-1.178648173809051514e-01
5.761630833148956299e-02
4.320537671446800232e-02
-3.981037065386772156e-02
5.723231006413698196e-03
-8.048978634178638458e-03
2.276225201785564423e-02
-4.005454108119010925e-02
3.810887783765792847e-02
2.113673649728298187e-02
2.270428836345672607e-02
4.718181118369102478e-02
-4.293850623071193695e-03
9.844783693552017212e-02
-9.363449364900588989e-02
5.969787761569023132e-02
-7.050095498561859131e-02
-6.351490318775177002e-02
1.492128521203994751e-01
6.384018808603286743e-02
9.094035625457763672e-02
1.127311661839485168e-01
-4.143537953495979309e-02
7.658025622367858887e-02
-2.027194388210773468e-02
2.195802703499794006e-02
-1.752965524792671204e-02
1.124924793839454651e-01
-2.965459227561950684e-02
3.508349135518074036e-02
2.631924115121364594e-02
-5.156517960131168365e-03
-1.740819192491471767e-03
4.488412290811538696e-02
4.813365265727043152e-02
1.030514389276504517e-01
1.778593752533197403e-03
-4.600102081894874573e-03
3.832993656396865845e-02
-6.318795680999755859e-02
4.443057253956794739e-02
-3.547734394669532776e-02
6.511224061250686646e-02
1.503226459026336670e-01
8.306033164262771606e-02
-2.291489951312541962e-02
-1.351914368569850922e-02
-1.353925913572311401e-01
-5.397574603557586670e-02
4.202967509627342224e-02
-2.282623900100588799e-03
-1.301495917141437531e-02
2.729548141360282898e-02
3.964873496443033218e-03
-2.446872182190418243e-02
4.317510873079299927e-03
-7.469727098941802979e-02
-2.388730272650718689e-02
3.161820769309997559e-02
1.611742079257965088e-01
2.547829411923885345e-02
-1.122108474373817444e-02
1.371848583221435547e-01
4.776201397180557251e-02
-2.089697681367397308e-02
-7.465904578566551208e-03
-3.347518667578697205e-02
8.046160638332366943e-02
4.570517688989639282e-02
-3.935331478714942932e-02
4.193983227014541626e-02
3.408013656735420227e-02
2.366028539836406708e-02
4.095386341214179993e-02
3.075329028069972992e-02
-7.877431809902191162e-02
3.639379516243934631e-02
4.044774919748306274e-02
-2.034121751785278320e-02
1.065817754715681076e-02
-1.949132606387138367e-02
-4.307916387915611267e-02
-1.328272162936627865e-03
-4.656529426574707031e-02
3.651290014386177063e-02
1.348888725042343140e-01
3.002870269119739532e-02
-4.627490043640136719e-02
2.313605695962905884e-02
-5.922161415219306946e-02
-4.996979609131813049e-02
-5.226979032158851624e-02
2.326905913650989532e-02
4.666111245751380920e-02
-6.003819778561592102e-02
-2.937809005379676819e-02
1.475336030125617981e-02
-1.981766149401664734e-02
1.407333300448954105e-03
3.072767332196235657e-02
6.095400080084800720e-02
4.726228863000869751e-02
6.680481135845184326e-02
-2.159079462289810181e-01
7.177555561065673828e-02
2.732656896114349365e-02
-4.483476653695106506e-02
-3.220026940107345581e-02
3.476921468973159790e-02
-1.356950588524341583e-02
-3.368887305259704590e-02
7.735075801610946655e-02
6.150095537304878235e-02
-8.667994290590286255e-03
-6.935448199510574341e-02
-6.563358008861541748e-03
-8.538339287042617798e-02
5.370934959501028061e-04
1.508555263280868530e-01
7.110641151666641235e-02
-3.895627567544579506e-03
-5.941094458103179932e-02
-4.950502514839172363e-02
1.694513671100139618e-02
5.399207025766372681e-02
8.237260580062866211e-02
4.072804749011993408e-02
-2.920512668788433075e-02
-1.630587689578533173e-02
6.033166125416755676e-02
-1.844347082078456879e-02
-2.439420670270919800e-02
5.994435399770736694e-02
-4.794237762689590454e-02
-1.800663769245147705e-01
-1.251715421676635742e-01
-3.395895007997751236e-03
2.575722895562648773e-02
1.518209557980298996e-02
-2.654755301773548126e-02
-3.973882645368576050e-02
3.938895836472511292e-02
-2.796380221843719482e-02
5.515120457857847214e-03
-8.977226167917251587e-02
-6.862615048885345459e-02
1.607508212327957153e-01
5.676083639264106750e-02
4.134837538003921509e-02
-1.522031873464584351e-01
1.212694793939590454e-01
-1.626062542200088501e-01
-1.586564583703875542e-03
-4.962064698338508606e-02
-4.308100417256355286e-02
-1.971027441322803497e-02
9.839860722422599792e-03
-3.501919098198413849e-03
-6.936916615813970566e-04
1.085197329521179199e-01
-9.008956700563430786e-02
-1.890845410525798798e-02
2.574340254068374634e-02
-8.036309480667114258e-02
3.225469961762428284e-02
-4.772533848881721497e-02
-7.099948357790708542e-03
7.958072423934936523e-02
-2.411016961559653282e-03
6.199666112661361694e-02
-5.403536930680274963e-02
-5.537961144000291824e-03
-8.235413581132888794e-02
-3.014413826167583466e-02
-2.170569151639938354e-01
6.418091058731079102e-02
1.002328768372535706e-01
-3.847360238432884216e-02
1.273389309644699097e-01
6.880329549312591553e-02
-1.310162432491779327e-02
7.097915560007095337e-02
-4.763849824666976929e-02
6.643524020910263062e-02
1.731496490538120270e-02
-6.940715759992599487e-02
5.665747448801994324e-02
-2.020993456244468689e-02
1.278298068791627884e-02
-5.916714668273925781e-02
1.307843923568725586e-01
-2.992396987974643707e-02
-2.307826653122901917e-02
4.036286473274230957e-02
6.448548287153244019e-02
-6.017776206135749817e-02
1.211898773908615112e-01
-7.990104146301746368e-03
-8.351150155067443848e-02
-5.137341096997261047e-02
1.556159276515245438e-02
-5.849222093820571899e-02
1.183302551507949829e-01
-7.447527348995208740e-02
-7.806584239006042480e-03
1.086731906980276108e-02
7.456924021244049072e-02
1.043150573968887329e-01
5.511578172445297241e-02
1.418505143374204636e-02
-1.309537980705499649e-02
1.757437139749526978e-01
2.600364945828914642e-02
-6.239591538906097412e-02
3.450774773955345154e-02
-3.850088641047477722e-02
4.278516396880149841e-02
4.123551398515701294e-02
-2.793246414512395859e-03
-1.345525123178958893e-02
4.360252991318702698e-02
9.124314412474632263e-03
5.017031356692314148e-02
3.638696298003196716e-02
1.486471742391586304e-01
-1.915730163455009460e-02
-2.699343673884868622e-02
6.911479681730270386e-02
7.903257757425308228e-02
1.256334483623504639e-01
1.179445534944534302e-02
-2.244953438639640808e-02
1.198387965559959412e-01
-4.336510226130485535e-02
9.275885671377182007e-02
2.818771637976169586e-02
-1.735967397689819336e-02
-1.240620482712984085e-02
-4.300989210605621338e-02
-7.457369565963745117e-02
1.245456188917160034e-02
1.338793784379959106e-01
1.672039180994033813e-01
8.689783513545989990e-02
1.571038970723748207e-03
-1.269461363554000854e-01
1.124143674969673157e-01
-2.501054480671882629e-02
1.032288298010826111e-01
-1.264509111642837524e-01
2.211828716099262238e-02
9.840623475611209869e-03
-1.030145329423248768e-03
1.460517104715108871e-02
8.272358775138854980e-02
-5.838029086589813232e-02
-2.675098553299903870e-02
-4.589179903268814087e-02
6.279457360506057739e-02
1.207414716482162476e-01
5.543516948819160461e-02
5.458949133753776550e-02
1.934423856437206268e-02
3.782579675316810608e-02
-1.565370559692382812e-01
-3.081914223730564117e-02
7.021185010671615601e-02
1.000265963375568390e-02
-2.082597836852073669e-02
1.933628134429454803e-02
5.073585733771324158e-02
-1.019794940948486328e-01
-4.329237714409828186e-02
1.147297844290733337e-01
-1.978690177202224731e-02
9.766500443220138550e-03
-4.821924120187759399e-02
-9.568613022565841675e-02
-4.687192291021347046e-02
-1.034722942858934402e-02
-6.791651248931884766e-02
-7.125340402126312256e-02
-9.886133484542369843e-03
9.472922235727310181e-02
9.369616210460662842e-02
2.778170630335807800e-02
7.054743170738220215e-02
6.158702075481414795e-02
-7.629204541444778442e-02
-2.732781134545803070e-02
1.451541017740964890e-02
1.614955626428127289e-02
5.034213885664939880e-02
-6.082046404480934143e-02
4.017247352749109268e-03
-7.682187110185623169e-02
-3.389510139822959900e-02
-5.680403113365173340e-02
3.812018409371376038e-02
4.348488897085189819e-02
-9.017174690961837769e-02
5.587816238403320312e-02
-3.335157781839370728e-02
-7.052625715732574463e-02
7.193311303853988647e-02
-1.773949339985847473e-02
-6.104664411395788193e-03
3.418003022670745850e-02
8.988877758383750916e-03
-1.363721191883087158e-01
-1.143650244921445847e-02
7.585276663303375244e-02
7.250551879405975342e-02
2.638816647231578827e-02
-8.204315602779388428e-02
7.890130393207073212e-03
-8.059770613908767700e-02
4.748023301362991333e-02
-8.463863283395767212e-02
-1.286756899207830429e-02
-8.627199567854404449e-03
-1.533845812082290649e-01
6.946855038404464722e-02
2.857676707208156586e-02
-1.085472702980041504e-01
-9.082543849945068359e-02
-3.318891301751136780e-02
7.413625717163085938e-02
3.475093841552734375e-02
-3.573242202401161194e-02
6.710052490234375000e-02
1.628905534744262695e-02
-1.947716996073722839e-02
2.711764827836304903e-04
-2.787896059453487396e-02
-1.251991689205169678e-01
1.432420313358306885e-01
-9.871009737253189087e-03
-9.930102154612541199e-03
-2.950135804712772369e-02
-6.615412980318069458e-02
1.603530645370483398e-01
1.593419723212718964e-02
-1.720561385154724121e-01
-1.420104317367076874e-02
-1.243368238210678101e-01
6.282690912485122681e-02
-2.262071240693330765e-03
-2.793460711836814880e-02
-1.773754656314849854e-01
-1.291492953896522522e-02
-1.483470648527145386e-01
2.267963998019695282e-02
6.579300761222839355e-02
-3.132653189823031425e-03
-4.588415101170539856e-02
1.824955269694328308e-02
-8.996642194688320160e-03
1.813216321170330048e-02
-1.598747074604034424e-01
4.362117499113082886e-02
3.592746704816818237e-02
3.120795823633670807e-02
-7.071600295603275299e-03
2.732750773429870605e-02
-4.430024698376655579e-02
-1.278406232595443726e-01
1.184642463922500610e-01
7.486610859632492065e-02
-8.869415521621704102e-02
5.272806063294410706e-02
3.453566133975982666e-02
-8.545172214508056641e-02
-2.738828770816326141e-02
7.079032063484191895e-02
7.689902931451797485e-02
1.182962730526924133e-01
-5.477207154035568237e-02
7.626601308584213257e-02
7.697959244251251221e-02
2.066447958350181580e-02
-1.602937877178192139e-01
1.136526167392730713e-01
-9.345035068690776825e-03
3.560483455657958984e-02
-7.174058351665735245e-03
-2.291618660092353821e-02
-2.802029810845851898e-02
-7.460097223520278931e-02
9.230539202690124512e-03
-2.102223932743072510e-01
4.550332203507423401e-02
-2.578504197299480438e-02
-9.921488165855407715e-02
2.108355984091758728e-02
1.333280745893716812e-02
2.780282229650765657e-04
4.615798220038414001e-02
-1.746903359889984131e-01
4.663274809718132019e-02
-8.714803494513034821e-03
-1.284121721982955933e-01
-6.599238608032464981e-03
1.386966090649366379e-02
6.180989369750022888e-02
2.097018994390964508e-02
2.528074011206626892e-02
-7.022900041192770004e-03
3.764352202415466309e-02
1.348527669906616211e-01
7.766783237457275391e-02
2.327213995158672333e-02
1.071918308734893799e-01
8.278714865446090698e-02
6.129164993762969971e-02
-4.406923055648803711e-02
-9.034756571054458618e-02
-4.048776254057884216e-02
8.867122232913970947e-02
-1.267673075199127197e-01
3.552975505590438843e-02
-4.192202538251876831e-02
-4.424779489636421204e-02
1.246308255940675735e-02
4.610329866409301758e-02
-1.285841874778270721e-02
-7.470071315765380859e-03
-5.729799717664718628e-02
-3.737039119005203247e-02
2.566849589347839355e-01
-6.677896529436111450e-02
1.272179000079631805e-02
4.180565848946571350e-02
-4.911981523036956787e-02
6.714154779911041260e-02
4.491390660405158997e-03
3.914406150579452515e-02
3.072700463235378265e-02
1.631230860948562622e-01
8.278235793113708496e-02
2.256292477250099182e-02
1.780970953404903412e-02
-4.034948348999023438e-02
2.105332911014556885e-02
3.024643985554575920e-03
-1.123771890997886658e-01
-1.080740913748741150e-01
-8.724894374608993530e-02
2.376595139503479004e-02
-5.110200494527816772e-02
2.509581670165061951e-02
5.521276593208312988e-02
9.533939510583877563e-02
8.033142238855361938e-02
7.703655958175659180e-02
-6.723409891128540039e-02
2.096632681787014008e-02
3.000560589134693146e-02
-9.697191417217254639e-03
8.693576604127883911e-02
-1.012781336903572083e-01
-2.537340484559535980e-02
-6.682285666465759277e-02
9.289940446615219116e-02
-1.093290075659751892e-01
1.002138331532478333e-01
9.399328380823135376e-02
-4.453213140368461609e-02
-7.390419952571392059e-03
7.557490468025207520e-02
-1.030504330992698669e-01
8.869847655296325684e-02
6.181207299232482910e-02
-1.398842930793762207e-01
-2.172335423529148102e-02
7.255557924509048462e-02
-4.502873867750167847e-02
2.921662293374538422e-02
-8.048903942108154297e-02
-6.206934340298175812e-03
1.924492865800857544e-01
-4.592198878526687622e-02
4.318020865321159363e-02
-1.146764121949672699e-02
-2.020336873829364777e-02
2.624259702861309052e-02
-1.390868565067648888e-03
5.376851558685302734e-02
1.610582508146762848e-02
9.172195568680763245e-03
-1.386395990848541260e-01
2.772141806781291962e-02
1.432919315993785858e-02
2.601067908108234406e-02
1.030665114521980286e-01
-4.648700729012489319e-02
-4.216217622160911560e-02
1.128342151641845703e-01
6.356254685670137405e-03
1.924545466899871826e-01
-2.964738570153713226e-02
8.433078974485397339e-02
8.976335823535919189e-02
-9.639063477516174316e-02
-2.519974019378423691e-03
-3.457002714276313782e-02
1.836808174848556519e-01
-2.520279213786125183e-02
6.643265485763549805e-02
9.921679645776748657e-02
-6.603466812521219254e-03
-1.742333918809890747e-01
1.418960988521575928e-01
3.498638421297073364e-02
-4.829863086342811584e-02
-1.561841368675231934e-01
-2.205270715057849884e-02
6.916023045778274536e-02
-2.135860174894332886e-02
-3.073859214782714844e-02
1.031463965773582458e-01
-3.446731343865394592e-02
1.332650333642959595e-01
-1.360690873116254807e-02
-1.197290024720132351e-03
-4.666664171963930130e-03
2.493440918624401093e-02
1.130719780921936035e-01
-2.959351055324077606e-02
7.028083316981792450e-03
7.451617717742919922e-02
-1.387967262417078018e-02
-1.645235121250152588e-01
-5.306416749954223633e-02
2.377817593514919281e-02
2.712171971797943115e-01
6.239458546042442322e-02
-2.867750357836484909e-03
-7.485982775688171387e-02
-7.514879852533340454e-02
-6.561040878295898438e-02
1.111515313386917114e-01
-7.850357890129089355e-02
-5.872217938303947449e-02
3.717559203505516052e-02
-9.115300141274929047e-03
-1.095405295491218567e-01
-5.512763559818267822e-02
1.635241806507110596e-01
6.046137213706970215e-02
-5.842887237668037415e-02
-3.485623374581336975e-02
8.092029392719268799e-02
-5.141216889023780823e-02
1.065539792180061340e-01
-2.391206659376621246e-02
-5.089921131730079651e-02
8.712735027074813843e-03
1.924004638567566872e-03
9.507183730602264404e-02
-2.801472693681716919e-02
6.224457547068595886e-02
1.031725332140922546e-01
-4.570759832859039307e-02
8.986625820398330688e-03
-5.569840595126152039e-02
2.337360568344593048e-02
-7.228677719831466675e-02
3.190114349126815796e-02
-2.761095017194747925e-02
-7.968141697347164154e-03
-1.575496196746826172e-01
7.837058044970035553e-03
-2.083808928728103638e-02
6.562572717666625977e-02
1.698596216738224030e-02
-1.108623817563056946e-01
6.331926584243774414e-02
3.813886642456054688e-02
-4.580984637141227722e-02
-6.642729789018630981e-02
3.041690774261951447e-02
7.620429247617721558e-02
4.509875550866127014e-02
2.648995257914066315e-03
1.221817284822463989e-01
4.689610213972628117e-04
5.345047451555728912e-03
3.472435101866722107e-02
2.791673690080642700e-02
4.848384484648704529e-02
4.815498739480972290e-02
-2.987601049244403839e-02
-2.192706428468227386e-02
-8.696394041180610657e-03
8.073563128709793091e-02
3.351750224828720093e-02
7.116831094026565552e-02
2.506900113075971603e-03
8.000394701957702637e-02
-1.892797946929931641e-01
-1.180903613567352295e-01
9.800326079130172729e-02
-3.176895901560783386e-02
-6.365767121315002441e-02
1.926156133413314819e-02
3.065420780330896378e-03
-7.148467004299163818e-02
-4.532747343182563782e-02
-2.616454847157001495e-02
1.196471825242042542e-01
2.160603553056716919e-01
-1.073273569345474243e-01
3.957770392298698425e-02
1.266218870878219604e-01
1.653477400541305542e-01
-1.104239840060472488e-02
8.775097131729125977e-02
-3.778916224837303162e-02
7.207254413515329361e-03
-5.637634918093681335e-02
2.691280841827392578e-02
4.506259411573410034e-02
1.984568499028682709e-02
-6.091510411351919174e-03
1.171557698398828506e-02
1.297232806682586670e-01
-1.006985977292060852e-01
-5.068688467144966125e-02
5.613040179014205933e-02
5.590093880891799927e-02
-3.018503775820136070e-03
1.701210066676139832e-02
1.249859258532524109e-01
9.017479605972766876e-03
-3.172185271978378296e-02
-9.359907358884811401e-02
-1.228918414562940598e-02
-7.576281577348709106e-02
5.390351265668869019e-02
-1.374344080686569214e-01
8.215303719043731689e-02
5.275129224173724651e-04
-2.573438175022602081e-02
-1.665405184030532837e-02
5.944391340017318726e-02
4.564505442976951599e-02
1.603604555130004883e-01
2.352792471647262573e-01
-5.782419070601463318e-02
-1.369572244584560394e-02
-5.500301346182823181e-02
-3.064909018576145172e-02
-5.315597727894783020e-02
7.567867636680603027e-02
-8.794672787189483643e-02
-2.502578869462013245e-02
-1.158196199685335159e-02
-2.440802752971649170e-02
-1.529291388578712940e-03
4.784809798002243042e-02
1.319669634103775024e-01
2.959374897181987762e-02
8.198372274637222290e-02
2.971307188272476196e-02
-1.078036800026893616e-02
-5.440012365579605103e-02
-6.021596863865852356e-02
-1.268498878926038742e-02
8.537446707487106323e-02
2.931248396635055542e-02
5.646650493144989014e-02
1.757236570119857788e-02
7.843294739723205566e-02
-2.286223322153091431e-02
1.164421513676643372e-01
-2.660807594656944275e-02
-6.879672408103942871e-02
1.533810049295425415e-02
4.115062579512596130e-02
1.893786787986755371e-01
3.830712288618087769e-02
4.808572307229042053e-02
1.012686453759670258e-02
-1.051988825201988220e-02
9.244865924119949341e-02
2.030574232339859009e-01
3.392433747649192810e-02
1.896986365318298340e-02
3.587386384606361389e-02
-9.249275177717208862e-02
1.159876771271228790e-02
6.496945768594741821e-02
7.952503859996795654e-02
-2.515990659594535828e-02
-1.393484417349100113e-02
6.656987220048904419e-02
-8.525123819708824158e-03
6.692213937640190125e-03
-1.855991408228874207e-02
9.198938310146331787e-02
3.500035405158996582e-02
-1.088510267436504364e-02
-7.295691221952438354e-02
-1.048981249332427979e-01
7.560606300830841064e-02
-2.783953095786273479e-04
1.132695674896240234e-01
-1.312612742185592651e-01
2.530261175706982613e-03
-5.514558032155036926e-02
-1.141006797552108765e-01
-9.456779807806015015e-02
-4.645808041095733643e-02
-7.507539540529251099e-02
-8.844684809446334839e-03
-1.566300094127655029e-01
5.514272302389144897e-02
3.176606893539428711e-01
-4.915084689855575562e-02
-1.671310514211654663e-02
1.284252852201461792e-01
4.526601731777191162e-02
-1.151508465409278870e-02
-2.597478777170181274e-02
1.691368594765663147e-02
-4.181318357586860657e-02
-2.260050550103187561e-02
7.052211463451385498e-02
-4.706620424985885620e-02
-1.367511153221130371e-01
7.737246900796890259e-02
1.271322071552276611e-01
-1.492644846439361572e-02
-8.416570723056793213e-02
-6.403482705354690552e-02
-1.393053773790597916e-02
-1.461125817149877548e-02
-4.364804551005363464e-02
-8.152238279581069946e-02
-5.064729228615760803e-02
-9.766345471143722534e-02
2.045717649161815643e-02
-3.100033849477767944e-02
-3.140238299965858459e-02
-2.252928446978330612e-03
2.908590249717235565e-02
3.006491065025329590e-02
3.455375880002975464e-02
1.020873785018920898e-01
1.543092578649520874e-01
1.019827574491500854e-01
-8.532800525426864624e-02
-1.408844534307718277e-02
-5.010998994112014771e-02
1.229152549058198929e-02
1.581768691539764404e-02
3.138219937682151794e-02
-1.259017735719680786e-01
4.222297295928001404e-02
-7.110098004341125488e-02
2.545995078980922699e-02
-1.080108955502510071e-01
-2.523021213710308075e-02
1.117188930511474609e-01
-6.634819507598876953e-02
-2.476028539240360260e-02
6.247597560286521912e-02
4.665666446089744568e-02
-3.624502569437026978e-02
3.055815398693084717e-02
-3.087061457335948944e-02
-1.019343640655279160e-02
-2.508763410151004791e-02
-4.067973047494888306e-02
-1.175925433635711670e-01
7.349680364131927490e-02
2.700476348400115967e-02
-4.491833969950675964e-02
1.472545713186264038e-01
2.360414899885654449e-02
-1.963395997881889343e-02
1.408834159374237061e-01
5.951953306794166565e-02
-2.173057943582534790e-02
1.029777247458696365e-02
-7.942104339599609375e-02
4.138531908392906189e-02
1.780107431113719940e-02
-2.895584621001034975e-04
-8.368999511003494263e-02
-7.471029460430145264e-02
3.218851285055279732e-03
1.481755971908569336e-01
5.734666436910629272e-02
1.375602278858423233e-02
6.140917912125587463e-02
-8.665362000465393066e-02
7.645199541002511978e-03
1.884713396430015564e-02
6.825076043605804443e-02
-1.683567091822624207e-02
-7.589156180620193481e-02
3.221137821674346924e-02
8.567035943269729614e-02
4.740992933511734009e-02
6.240998208522796631e-02
-2.645930275321006775e-02
-2.277290262281894684e-02
-8.740177005529403687e-02
9.633029252290725708e-02
8.860360085964202881e-02
1.129569858312606812e-02
1.174538359045982361e-01
3.091017529368400574e-02
1.513758897781372070e-01
-5.261373892426490784e-02
3.340576589107513428e-02
-7.180812954902648926e-02
-2.722066082060337067e-02
-3.148106113076210022e-02
-8.417980745434761047e-03
9.600973688066005707e-03
2.912912052124738693e-03
6.206614896655082703e-02
2.016372680664062500e-01
3.896053880453109741e-02
-1.051761209964752197e-01
8.024203777313232422e-02
-5.314422771334648132e-02
7.758670300245285034e-02
7.957890629768371582e-02
8.185815811157226562e-02
-7.888423278927803040e-03
8.771860972046852112e-03
-2.044085040688514709e-02
7.206463813781738281e-02
4.378475248813629150e-03
5.436312779784202576e-02
-4.407352954149246216e-02
-7.012940198183059692e-02
8.040085434913635254e-03
7.789218425750732422e-02
2.802508510649204254e-02
-3.865794092416763306e-02
2.366992458701133728e-02
-7.090143859386444092e-02
-2.211628668010234833e-02
9.819116443395614624e-02
8.674538135528564453e-02
-1.587943360209465027e-02
-2.054073475301265717e-02
-3.290680795907974243e-02
8.167095482349395752e-03
4.749424383044242859e-02
-1.893724128603935242e-02
-1.018220782279968262e-01
7.676812261343002319e-02
-4.227925091981887817e-02
-7.005278021097183228e-02
6.208914890885353088e-02
-4.823562130331993103e-02
-4.904861375689506531e-02
6.232582032680511475e-02
1.010757386684417725e-01
2.152196131646633148e-02
-7.095161080360412598e-02
1.229869127273559570e-01
-8.810600265860557556e-03
1.089705005288124084e-01
-7.614041119813919067e-02
-1.969036459922790527e-01
8.417870104312896729e-02
-1.103992909193038940e-01
2.627127803862094879e-02
-6.102356314659118652e-02
1.283836551010608673e-03
-9.850673377513885498e-02
-4.297287389636039734e-02
4.166951030492782593e-02
-5.446686223149299622e-02
-7.928881794214248657e-03
-3.004269860684871674e-02
6.580023560672998428e-03
6.461009383201599121e-02
3.570121154189109802e-02
6.369937211275100708e-02
-9.025064855813980103e-02
-3.144563362002372742e-02
-3.210883960127830505e-02
8.220441639423370361e-03
-4.691813141107559204e-02
-1.063546724617481232e-02
3.416126221418380737e-02
9.305464476346969604e-02
-7.674774527549743652e-02
4.089683294296264648e-02
-4.113730788230895996e-02
4.600695148110389709e-02
1.775565184652805328e-02
-5.349118262529373169e-02
2.042816020548343658e-02
-3.284532129764556885e-01
1.343013644218444824e-01
5.647906661033630371e-02
-1.523698419332504272e-01
-3.239850327372550964e-02
6.817115005105733871e-03
4.299490898847579956e-02
1.386411208659410477e-02
1.971924118697643280e-02
-6.682006269693374634e-02
-1.223835349082946777e-01
-7.430142909288406372e-02
-4.957315325736999512e-02
6.337399035692214966e-02
-6.870778650045394897e-02
1.482508424669504166e-02
-2.115201763808727264e-02
1.769164018332958221e-02
-5.746480077505111694e-02
-3.777642920613288879e-02
-2.063724026083946228e-02
-5.102642998099327087e-02
-1.369194686412811279e-01
-1.614511758089065552e-01
4.717907309532165527e-02
-8.256877213716506958e-02
5.954484641551971436e-02
2.754805143922567368e-03
3.051850572228431702e-02
1.958926618099212646e-01
1.221570000052452087e-02
-5.978829041123390198e-02
3.013845998793840408e-03
-3.165846690535545349e-02
-1.521395146846771240e-01
5.178072303533554077e-02
-3.181780129671096802e-02
-5.655156448483467102e-02
1.257298886775970459e-01
4.906168580055236816e-01
-1.290166657418012619e-02
-2.240957878530025482e-02
-1.070911288261413574e-01
2.140204422175884247e-02
-7.998035289347171783e-03
6.548964232206344604e-02
-3.550380468368530273e-02
-5.147189274430274963e-02
-1.291832178831100464e-01
-1.987698720768094063e-03
-6.257269531488418579e-03
-7.961648702621459961e-02
-5.276579875499010086e-03
1.404441054910421371e-02
-1.917129755020141602e-02
1.372481584548950195e-01
-1.013215184211730957e-01
6.967797130346298218e-02
-3.735766047611832619e-03
-1.902002282440662384e-02
-2.242368832230567932e-02
1.535601019859313965e-01
7.816427946090698242e-02
1.204667910933494568e-01
6.482238322496414185e-02
-4.572239145636558533e-02
1.093433275818824768e-01
-2.832729928195476532e-02
7.892407476902008057e-03
-4.911151900887489319e-02
-4.019889608025550842e-02
-1.760999709367752075e-01
2.786758169531822205e-02
-2.345783822238445282e-02
8.161338418722152710e-02
-7.310557365417480469e-02
1.991540193557739258e-01
1.982272602617740631e-02
6.283739954233169556e-02
-6.411017477512359619e-02
3.652673959732055664e-02
-2.217386662960052490e-02
3.127967566251754761e-02
3.958028554916381836e-02
6.579320132732391357e-02
1.186319515109062195e-01
-3.778413310647010803e-02
2.886390313506126404e-02
-2.483040466904640198e-02
-6.691345945000648499e-03
1.518201529979705811e-01
7.814475148916244507e-02
3.475393401458859444e-03
-7.479722797870635986e-02
-1.585711836814880371e-01
3.078728355467319489e-02
6.741264462471008301e-02
-4.490668419748544693e-03
-9.732257574796676636e-02
4.978820309042930603e-02
2.049655094742774963e-02
1.351239159703254700e-02
-1.800187230110168457e-01
1.030715331435203552e-01
-1.312988400459289551e-01
-4.287536814808845520e-02
-1.580926626920700073e-01
2.939240336418151855e-01
1.887595653533935547e-02
2.266084104776382446e-01
8.556601405143737793e-02
-3.578355908393859863e-02
-1.167238727211952209e-01
9.206869453191757202e-02
-3.950395807623863220e-02
3.765907883644104004e-02
5.218914523720741272e-02
-1.222261860966682434e-01
-2.030610106885433197e-02
-4.609841480851173401e-02
-9.634879976511001587e-02
2.083093859255313873e-03
1.178902015089988708e-02
-2.377994358539581299e-02
-7.297541946172714233e-02
4.117797687649726868e-02
3.814951330423355103e-02
-1.104045361280441284e-01
-1.302494388073682785e-02
-1.112079396843910217e-01
-6.533310562372207642e-02
-5.048224329948425293e-02
4.356143772602081299e-01
-7.677012681961059570e-02
-1.193982362747192383e-01
2.247198671102523804e-02
-1.678873002529144287e-01
-1.165689248591661453e-02
-3.134331479668617249e-02
6.241883710026741028e-02
-4.830013960599899292e-02
4.357086494565010071e-02
-1.266333907842636108e-01
-3.428841233253479004e-01
9.626884758472442627e-02
-4.520343244075775146e-02
2.371929399669170380e-02
-2.957070246338844299e-04
-4.556922242045402527e-02
1.530615389347076416e-01
-8.030551671981811523e-02
-1.881815143860876560e-03
5.790040269494056702e-02
3.000679612159729004e-02
-1.854152977466583252e-02
-5.765567347407341003e-02
-4.755987599492073059e-02
4.316324368119239807e-02
8.259227871894836426e-02
-9.326568245887756348e-02
6.617951393127441406e-02
5.751541256904602051e-02
2.872359193861484528e-02
-8.102443069219589233e-03
7.709520310163497925e-02
1.058530807495117188e-02
1.329840868711471558e-01
1.049985550343990326e-02
-7.793745025992393494e-03
-1.062910333275794983e-01
1.015255674719810486e-01
8.015638589859008789e-02
-6.494066864252090454e-02
-7.870551943778991699e-02
1.194595126435160637e-03
6.876381486654281616e-02
-1.973191089928150177e-02
7.764101028442382812e-02
-2.522273547947406769e-02
5.319663323462009430e-03
1.490961853414773941e-02
-2.211645394563674927e-01
3.294252604246139526e-02
4.616718366742134094e-02
7.108744233846664429e-02
5.946476757526397705e-02
-2.116953134536743164e-01
1.238014325499534607e-01
-4.263692721724510193e-02
2.413659170269966125e-02
9.780759364366531372e-02
-1.329082846641540527e-01
-4.023081436753273010e-02
1.473784595727920532e-01
-4.051803797483444214e-02
-7.208124548196792603e-02
-2.198699163272976875e-03
-6.194807961583137512e-02
-1.189292520284652710e-01
-6.380603462457656860e-02
1.176695972681045532e-01
-1.029857899993658066e-02
5.213037878274917603e-02
-5.148728564381599426e-02
-4.218903835862874985e-03
3.360050916671752930e-02
-1.233886703848838806e-01
-2.516580931842327118e-02
6.165646389126777649e-02
5.116407200694084167e-02
1.256071031093597412e-01
-5.037393793463706970e-02
-7.519213110208511353e-02
-4.408893734216690063e-02
8.757482469081878662e-02
1.667862571775913239e-02
-8.179691433906555176e-02
8.388054557144641876e-03
-7.520826160907745361e-02
4.299630969762802124e-02
-9.691076725721359253e-02
-1.259364932775497437e-01
-5.506585538387298584e-02
4.603282362222671509e-02
1.361297070980072021e-01
2.041238099336624146e-01
1.161543577909469604e-01
8.719409815967082977e-03
-3.586048260331153870e-02
2.342594042420387268e-02
5.661115050315856934e-02
-1.184312850236892700e-01
2.558491192758083344e-02
5.826950818300247192e-02
-2.174898236989974976e-01
-1.648745499551296234e-02
-1.152275204658508301e-01
4.217352718114852905e-02
5.382152739912271500e-03
2.806961536407470703e-02
-4.761739075183868408e-02
3.932030871510505676e-02
8.700282312929630280e-03
1.363381147384643555e-01
-2.714570984244346619e-02
-1.853988878428936005e-02
7.044603675603866577e-02
1.042827311903238297e-02
2.056519314646720886e-02
-1.020741369575262070e-02
-3.545392304658889771e-02
-8.008329570293426514e-02
5.010500550270080566e-03
6.257788836956024170e-02
1.793807297945022583e-01
-2.948996424674987793e-02
9.954838082194328308e-03
2.995001673698425293e-01
-1.205044314265251160e-01
1.376369595527648926e-01
1.215124577283859253e-01
1.108490154147148132e-01
-8.433433249592781067e-03
-5.629186704754829407e-02
6.361669301986694336e-02
2.629772573709487915e-02
9.229593724012374878e-02
-3.380376845598220825e-02
-2.439350634813308716e-02
5.404418706893920898e-02
8.625373244285583496e-02
1.472884695976972580e-02
-5.292157456278800964e-02
-9.188537299633026123e-02
-2.527036704123020172e-02
-2.766761463135480881e-03
-1.626767516136169434e-01
8.511672168970108032e-02
-1.755359582602977753e-02
3.734718542546033859e-03
-1.041084527969360352e-01
-3.892293572425842285e-02
