-0.18081188201904297
0.010792517103254795
-0.12110093235969543
0.0047027310356497765
-0.11162218451499939
0.06456980854272842
-0.09442205727100372
-0.019693734124302864
0.023100879043340683
0.023104995489120483
0.0012928383657708764
0.019061975181102753
0.020825237035751343
0.0954180657863617
-0.1034875363111496
0.022173963487148285
0.04273984581232071
0.008887281641364098
-0.07517042756080627
-0.011362050659954548
0.07342992722988129
0.028880935162305832
0.043086737394332886
-0.08365315198898315
-0.09386996924877167
0.01084934826940298
-0.1642739474773407
0.059664882719516754
0.0524543933570385
0.012229646556079388
0.002647076267749071
-0.012910384684801102
-0.023923661559820175
-0.0681224912405014
0.012583836913108826
0.11492765694856644
-0.10546726733446121
-0.012834480032324791
-0.011220009066164494
-0.12720167636871338
0.03874310851097107
0.14521104097366333
-0.15112599730491638
0.0658784881234169
-0.030997321009635925
0.010297578759491444
-0.12990586459636688
0.12187520414590836
0.02926424890756607
0.040475595742464066
0.028512336313724518
-0.010720166377723217
0.00019227330631110817
0.06841304153203964
0.09262936562299728
0.04748086631298065
-0.05790647491812706
0.041269805282354355
0.056546472012996674
0.016846124082803726
0.01769898645579815
-0.06988310813903809
0.021146679297089577
0.03489970043301582
0.039305638521909714
-0.105801522731781
0.0535409152507782
-0.0673062801361084
0.1445217877626419
0.05782550200819969
0.1571134775876999
0.0009834634838625789
-0.15150251984596252
-0.015244905836880207
0.0876523107290268
-0.004803964402526617
0.029991887509822845
-0.010979555547237396
0.004759514704346657
0.0331447459757328
0.05968450754880905
-0.010930508375167847
-0.055051520466804504
-0.1167604923248291
0.12715768814086914
-0.03731509670615196
-0.011340666562318802
-0.0741538554430008
0.027432961389422417
-0.01745852269232273
-0.03835620358586311
0.064042828977108
-0.0017459848895668983
0.15748392045497894
0.028609341010451317
0.052071377635002136
-0.08770754188299179
-0.0943417102098465
-0.15527436137199402
-0.03285318240523338
-0.061884619295597076
0.004625892732292414
-0.15625596046447754
-0.03276117891073227
-0.09269694983959198
0.026758821681141853
-0.14666901528835297
-0.08118361979722977
0.0015821027336642146
0.01620692014694214
0.1657523363828659
0.056550730019807816
-0.10500835627317429
0.14519110321998596
-0.07432042062282562
-4.2896750528598204e-05
0.026920098811388016
0.028391724452376366
0.006283196620643139
-0.0022578416392207146
-0.020078394562005997
-0.17486539483070374
-0.06327706575393677
0.08803444355726242
-0.17397454380989075
0.05184704065322876
0.06003464758396149
0.1107042208313942
