4.768830258399248123e-03 9.557528421282768250e-03 2.111640013754367828e-02 4.359814804047346115e-03 -2.228452824056148529e-02 4.007950425148010254e-03 -4.699484258890151978e-02 1.533445063978433609e-02 6.078036502003669739e-03 1.596772484481334686e-02 2.463117707520723343e-03 2.690273523330688477e-02 -2.100267820060253143e-02 6.279352586716413498e-03 1.894941926002502441e-02 -1.362857036292552948e-02 -3.536437824368476868e-02 -6.139539182186126709e-04 1.054918486624956131e-02 1.668863929808139801e-02 -1.174265611916780472e-02 -1.109045743942260742e-02 -2.278132177889347076e-02 -7.337662857025861740e-03 9.480016306042671204e-03 -7.390381069853901863e-04 2.495261607691645622e-03 -4.814306646585464478e-02 2.906125225126743317e-02 7.380937691777944565e-03 2.135387808084487915e-02 -1.233682129532098770e-02 4.515503067523241043e-03 -3.485152870416641235e-02 1.519052684307098389e-02 -1.914047985337674618e-03 4.445641767233610153e-03 -1.241074968129396439e-02 -1.577408239245414734e-02 -1.220505405217409134e-02 2.110346965491771698e-02 -1.891134306788444519e-02 2.272561006247997284e-02 1.448010280728340149e-02 -2.467081323266029358e-02 3.655609441921114922e-03 1.616270653903484344e-02 -1.220733392983675003e-02 3.220169106498360634e-03 2.218610141426324844e-03 -2.274355292320251465e-02 1.717730890959501266e-03 2.360955439507961273e-02 -7.202913984656333923e-03 5.946898832917213440e-02 1.115613989531993866e-02 -1.821008324623107910e-02 2.834937348961830139e-02 6.357441097497940063e-02 -8.433928713202476501e-03 1.161840092390775681e-02 4.994991235435009003e-03 -2.113335020840167999e-02 -4.441231489181518555e-02 1.666208845563232899e-04 -1.056898967362940311e-03 1.207388471812009811e-02 1.350051257759332657e-02 -5.603613797575235367e-03 2.585036214441061020e-03 2.873558364808559418e-02 1.982656866312026978e-02 3.206065669655799866e-02 -2.556570246815681458e-02 1.144531369209289551e-02 -1.658296212553977966e-03 -4.217981174588203430e-02 2.366342209279537201e-02 2.379205636680126190e-02 -3.964323922991752625e-02 9.356572292745113373e-03 -3.069908358156681061e-02 2.180918678641319275e-02 2.015686966478824615e-02 -2.458394039422273636e-03 3.164162486791610718e-02 1.558170374482870102e-02 -2.417186042293906212e-03 -7.244367734529078007e-04 -2.898000413551926613e-03 4.276065621525049210e-03 1.554187666624784470e-02 -2.968782559037208557e-02 1.317590102553367615e-02 3.673514351248741150e-03 2.165455080103129148e-04 -4.478843510150909424e-02 1.066321972757577896e-02 2.766461577266454697e-03 1.848975569009780884e-02 2.634093165397644043e-02 2.241693250834941864e-02 3.320681676268577576e-02 -7.803485728800296783e-03 -5.569466855376958847e-03 -2.564047463238239288e-02 2.641928941011428833e-02 4.192649852484464645e-03 1.624668017029762268e-02 -2.434263378381729126e-02 3.406468313187360764e-03 -1.058652810752391815e-02 -2.120913378894329071e-02 -5.396913271397352219e-03 -1.491650659590959549e-02 -8.602308109402656555e-03 2.017837762832641602e-02 -1.177794393151998520e-02 2.693116664886474609e-02 -3.551827743649482727e-02 1.181688625365495682e-02 -3.764296183362603188e-03 -2.556513762101531029e-03 -4.865801020059734583e-05 2.793086692690849304e-02 -7.605887018144130707e-03 -1.808222942054271698e-02 1.696667820215225220e-02
-3.283963724970817566e-02 -2.989376522600650787e-02 -1.633458957076072693e-02 1.286079175770282745e-02 1.232591457664966583e-04 -1.746342889964580536e-02 2.874626405537128448e-02 9.462442249059677124e-03 1.282490976154804230e-02 -2.397131919860839844e-02 -3.273550188168883324e-03 -4.123536869883537292e-02 2.712636440992355347e-02 1.209572772495448589e-03 4.014696553349494934e-02 -3.472765162587165833e-02 3.286566585302352905e-02 2.773088961839675903e-02 2.578114904463291168e-02 2.296690130606293678e-03 1.632804982364177704e-02 1.930318772792816162e-02 -4.127816110849380493e-02 -2.514300495386123657e-02 -1.596265099942684174e-02 1.112023834139108658e-02 -1.853292062878608704e-02 1.819774322211742401e-02 2.292607910931110382e-02 -2.468983177095651627e-03 -4.782047122716903687e-02 -4.481167066842317581e-03 -1.096097193658351898e-02 -9.128302335739135742e-03 1.486524660140275955e-02 -1.020414987578988075e-03 3.604461997747421265e-02 -1.658039540052413940e-02 6.701741833239793777e-03 3.632751479744911194e-02 2.750942669808864594e-02 1.273335423320531845e-02 2.724385447800159454e-02 -1.404664106667041779e-02 2.070741174975410104e-05 2.745747193694114685e-02 -2.241991460323333740e-02 -1.192713435739278793e-02 -3.076092340052127838e-02 -1.212819572538137436e-02 4.253678396344184875e-02 3.232609480619430542e-03 2.361095137894153595e-02 2.383744902908802032e-02 -9.818959981203079224e-03 4.195192828774452209e-03 5.048888735473155975e-03 -3.633074834942817688e-02 1.732787676155567169e-02 9.537514299154281616e-03 1.744421198964118958e-02 4.022188112139701843e-02 -2.603945787996053696e-03 -8.250489830970764160e-03 2.205008640885353088e-02 -9.137998335063457489e-03 -1.376028731465339661e-02 -3.733910853043198586e-03 4.588961973786354065e-02 -2.752720005810260773e-02 -9.454709477722644806e-03 3.923329524695873260e-03 -1.127310376614332199e-02 4.089473281055688858e-03 -6.779389921575784683e-03 -1.513862796127796173e-02 -2.202823059633374214e-03 7.255191449075937271e-03 -1.798079162836074829e-02 -1.498352456837892532e-02 -3.830490633845329285e-03 -7.860309444367885590e-03 3.323178738355636597e-03 -1.805979013442993164e-02 -2.048543095588684082e-02 7.078771945089101791e-03 8.889627642929553986e-03 1.677988283336162567e-02 1.918398402631282806e-02 6.126802880316972733e-03 -1.764625310897827148e-02 4.794696718454360962e-02 -1.678476296365261078e-02 -6.458504591137170792e-03 -1.032792031764984131e-02 1.317499671131372452e-03 2.391904965043067932e-02 -4.679906181991100311e-03 -9.936547838151454926e-03 4.222980514168739319e-02 -8.825649507343769073e-03 4.129010438919067383e-02 -8.036945015192031860e-03 -7.535704877227544785e-03 1.441776379942893982e-02 5.935912020504474640e-03 -2.058764360845088959e-02 -1.975718652829527855e-03 1.102899387478828430e-02 -3.343687206506729126e-02 1.784231700003147125e-02 -2.245166804641485214e-03 -1.371720992028713226e-02 5.559500772505998611e-03 1.141017396003007889e-02 5.860670469701290131e-03 6.310896016657352448e-03 8.574658073484897614e-03 -1.654284633696079254e-02 3.593873407226055861e-04 -5.227682646363973618e-03 -3.382145613431930542e-02 1.353060454130172729e-02 -1.018484774976968765e-02 1.835834607481956482e-02 5.511885043233633041e-03 5.944847129285335541e-03 -3.671360434964299202e-03
1.835211552679538727e-02 2.285090088844299316e-02 1.806512847542762756e-02 -2.504210453480482101e-03 2.551092952489852905e-02 1.188878156244754791e-02 2.351927757263183594e-02 -1.357428263872861862e-02 8.395571261644363403e-03 2.146923542022705078e-02 -2.363971434533596039e-02 2.459694864228367805e-03 -2.590305730700492859e-02 2.577189123257994652e-03 1.949033886194229126e-02 -1.649454794824123383e-02 -1.663496717810630798e-02 -3.129464574158191681e-03 -2.470660582184791565e-02 -6.655465811491012573e-03 9.267467074096202850e-03 1.740274578332901001e-02 -2.506539225578308105e-02 7.218708284199237823e-03 3.899099538102746010e-03 1.037721894681453705e-02 3.430723771452903748e-02 -1.858703233301639557e-02 7.447520736604928970e-03 -1.278193295001983643e-02 1.839412003755569458e-02 -8.020992390811443329e-03 5.536603741347789764e-03 -9.167197160422801971e-03 2.330733090639114380e-02 -5.540756043046712875e-03 1.665181294083595276e-02 5.738936737179756165e-02 -2.997524477541446686e-02 1.962311333045363426e-03 -3.613153472542762756e-02 8.743045851588249207e-03 -4.191230982542037964e-03 -1.920968666672706604e-02 -2.680428558960556984e-03 3.508945519570261240e-04 2.994368784129619598e-02 2.250199904665350914e-04 1.944180764257907867e-02 -9.824636392295360565e-03 3.012750064954161644e-03 1.763443462550640106e-02 1.243333797901868820e-02 7.853473536670207977e-03 1.655511371791362762e-02 3.663595765829086304e-02 -1.179464533925056458e-02 2.063706889748573303e-02 -2.137637510895729065e-02 -3.072587540373206139e-03 1.204422954469919205e-02 2.560980618000030518e-03 9.140828624367713928e-04 1.547965500503778458e-02 2.219371311366558075e-02 3.898714482784271240e-02 2.067950181663036346e-02 9.450048208236694336e-03 7.123128045350313187e-03 7.523675914853811264e-03 -4.839326255023479462e-03 1.577249541878700256e-02 -2.101273275911808014e-03 9.119161404669284821e-03 1.146446680650115013e-03 3.602142632007598877e-02 1.759511046111583710e-02 -3.613003063946962357e-03 1.839111000299453735e-02 4.376928322017192841e-03 1.103586982935667038e-02 -2.941275574266910553e-02 -3.809052519500255585e-03 5.544434487819671631e-02 1.351401023566722870e-02 9.700991213321685791e-03 2.544145099818706512e-02 -1.926646195352077484e-02 -3.166417125612497330e-03 1.987684983760118484e-03 -9.763909503817558289e-03 1.534901745617389679e-02 -3.630694700405001640e-03 2.226098068058490753e-02 -1.742744259536266327e-02 2.574456110596656799e-02 2.445273101329803467e-02 -2.943202853202819824e-03 1.486910693347454071e-02 -3.719222499057650566e-03 2.072547329589724541e-03 1.662497781217098236e-02 1.428196858614683151e-02 -1.295432168990373611e-02 1.803958788514137268e-02 -2.090282365679740906e-02 -3.373498795554041862e-03 -1.197918783873319626e-02 3.623095527291297913e-02 5.544745828956365585e-03 3.359091700986027718e-03 -1.893388456664979458e-03 -1.496365480124950409e-02 5.017695366404950619e-04 -6.999529898166656494e-03 -3.625047579407691956e-02 1.907865633256733418e-03 -1.827386673539876938e-03 -2.378422953188419342e-02 -9.945702739059925079e-03 -2.719465643167495728e-02 -2.929241023957729340e-02 3.158313781023025513e-02 -1.844928599894046783e-02 3.175617009401321411e-02 3.069380670785903931e-02 2.663883194327354431e-02 -2.568861236795783043e-03
1.165773812681436539e-02 -2.074057795107364655e-02 8.221692405641078949e-03 3.132802201434969902e-03 3.306788206100463867e-02 4.073759168386459351e-02 9.123825468122959137e-03 6.236414890736341476e-03 -2.933579683303833008e-02 3.248558193445205688e-02 -3.502024710178375244e-02 -2.670891210436820984e-02 2.536894753575325012e-02 -5.154680111445486546e-04 -1.093859100365079939e-04 8.961072191596031189e-03 -3.251508995890617371e-02 2.667553909122943878e-02 2.509244903922080994e-02 3.789983224123716354e-03 -8.541064453311264515e-04 2.365614660084247589e-02 1.185823138803243637e-02 5.338992457836866379e-03 -2.025043033063411713e-02 6.973433191888034344e-04 3.215022757649421692e-02 3.921539988368749619e-03 1.102173328399658203e-02 6.100392714142799377e-02 4.213752225041389465e-02 3.838519006967544556e-02 -1.367641845718026161e-03 -2.605381980538368225e-02 -3.301625698804855347e-02 6.707530934363603592e-03 -1.300960779190063477e-02 1.567038334906101227e-02 -6.697403732687234879e-03 6.779827177524566650e-03 1.755505613982677460e-02 2.027489803731441498e-02 -3.912993147969245911e-02 3.199698030948638916e-02 8.538599940948188305e-04 -2.683020941913127899e-02 -5.131919402629137039e-03 1.133732497692108154e-02 3.486279398202896118e-02 -3.270708955824375153e-03 -9.859525598585605621e-03 -2.722678007557988167e-03 1.503729843534529209e-03 -1.151285786181688309e-02 2.132962271571159363e-02 -9.073179215192794800e-03 -1.935001462697982788e-02 -2.161165466532111168e-03 4.612900689244270325e-02 -3.315731137990951538e-02 2.171653555706143379e-03 -1.130471238866448402e-03 2.235281094908714294e-02 -8.085356093943119049e-03 -3.700010944157838821e-03 1.021329592913389206e-02 -4.114061594009399414e-02 1.453233696520328522e-02 -4.986388143151998520e-03 -4.820175841450691223e-02 -4.178049974143505096e-03 -1.694058440625667572e-02 -2.375356666743755341e-02 1.196961011737585068e-02 8.363021770492196083e-04 -2.884750813245773315e-02 -6.376980803906917572e-03 9.407536126673221588e-03 1.993555016815662384e-02 -4.902748018503189087e-02 -1.334811327978968620e-03 -3.454237803816795349e-02 -2.105139382183551788e-02 -7.209585048258304596e-03 2.670974843204021454e-02 1.856159605085849762e-02 9.639566764235496521e-03 1.613825187087059021e-02 1.088061602786183357e-03 -3.968848660588264465e-02 3.486536815762519836e-02 -5.441857501864433289e-05 -3.262121230363845825e-03 8.540602400898933411e-03 -1.385955722071230412e-03 -1.528398320078849792e-02 -8.938271552324295044e-03 2.591194771230220795e-02 9.522316046059131622e-03 2.545789256691932678e-02 5.112504214048385620e-02 -1.002856250852346420e-02 3.317179623991250992e-03 -7.481081411242485046e-03 3.534520743414759636e-03 1.100319996476173401e-02 -5.320670083165168762e-03 -1.572662964463233948e-02 -1.547433901578187943e-02 1.425690762698650360e-02 1.220482960343360901e-02 2.017619647085666656e-02 7.453287253156304359e-04 -1.154700759798288345e-02 3.790612099692225456e-03 2.205056138336658478e-02 1.026228908449411392e-02 3.840572666376829147e-03 4.376969859004020691e-02 1.191167160868644714e-03 2.670104149729013443e-04 3.531709685921669006e-02 1.380880549550056458e-02 -3.300593700259923935e-03 2.823240356519818306e-03 -7.972772233188152313e-03 4.159662500023841858e-02 4.736639559268951416e-03
-1.736200228333473206e-02 -8.167370222508907318e-03 -6.161505007185041904e-04 -1.431576721370220184e-02 -6.292811594903469086e-03 6.184184458106756210e-03 -2.241365611553192139e-03 1.156799215823411942e-02 2.442467398941516876e-02 -2.306656353175640106e-02 1.483983639627695084e-02 3.870560554787516594e-03 3.436808660626411438e-02 -2.410774864256381989e-02 3.326655924320220947e-02 1.353096123784780502e-02 1.650893362239003181e-03 3.839749842882156372e-02 1.038054935634136200e-02 -1.116763334721326828e-02 -2.224113978445529938e-02 7.173280697315931320e-03 -5.767223890870809555e-03 -2.351100929081439972e-02 -1.947792246937751770e-03 -6.557359360158443451e-03 6.429979577660560608e-03 -9.796517901122570038e-03 7.230584160424768925e-04 -2.597657404839992523e-02 -4.146282561123371124e-03 3.836921823676675558e-04 -4.897355102002620697e-03 1.493590697646141052e-02 1.978570967912673950e-02 -1.889748685061931610e-02 -1.053892634809017181e-02 -1.357718463987112045e-02 2.931129001080989838e-02 -2.697113715112209320e-02 1.606735028326511383e-02 1.415387727320194244e-02 2.087036147713661194e-02 -1.172544062137603760e-02 8.459199219942092896e-03 -1.464892551302909851e-02 -7.881798781454563141e-03 -2.933483570814132690e-02 -3.209939459338784218e-04 -1.153317559510469437e-02 -2.470426447689533234e-02 5.646071210503578186e-02 5.261870566755533218e-03 2.792878635227680206e-02 1.815432310104370117e-02 -1.513667404651641846e-02 -4.359843209385871887e-03 -1.019072346389293671e-02 2.156581357121467590e-02 2.800910966470837593e-03 7.907703518867492676e-03 1.790763065218925476e-02 2.501078695058822632e-02 2.796747256070375443e-03 -1.386502943933010101e-02 2.808285690844058990e-02 2.946679713204503059e-03 -1.228322926908731461e-02 -2.818549424409866333e-02 -1.271491777151823044e-02 -3.496722877025604248e-02 -6.438618153333663940e-02 -2.017632126808166504e-02 -2.044122666120529175e-02 -1.409579347819089890e-02 -3.688848763704299927e-02 5.519241560250520706e-03 -4.792480263859033585e-03 -8.247398771345615387e-03 -3.919379040598869324e-02 -3.744766861200332642e-02 -4.128982499241828918e-02 3.174522891640663147e-02 -2.008430659770965576e-02 2.205582521855831146e-02 3.922639414668083191e-02 -1.867057383060455322e-02 3.745203837752342224e-03 1.147711835801601410e-02 -2.054842188954353333e-02 1.356121897697448730e-02 1.003807061351835728e-03 7.054744753986597061e-03 -1.042209099978208542e-02 -2.301510237157344818e-02 7.461409550160169601e-03 -2.557832933962345123e-02 -8.132350631058216095e-03 2.244011871516704559e-02 -2.143340744078159332e-02 -6.973723415285348892e-03 -1.832158677279949188e-02 2.069317363202571869e-02 -3.052683360874652863e-02 -2.497709915041923523e-02 1.549899112433195114e-02 8.821243420243263245e-03 -3.921337793144630268e-06 3.505413187667727470e-03 -1.658516190946102142e-02 1.684314012527465820e-02 7.535237353295087814e-03 1.304131094366312027e-02 2.350993826985359192e-02 -6.875351537019014359e-03 -3.428477793931961060e-02 -6.129833054728806019e-04 -1.617172732949256897e-02 7.259448524564504623e-03 2.116536721587181091e-03 -3.181832283735275269e-02 -1.889505609869956970e-02 -1.679020188748836517e-02 -1.523334719240665436e-02 9.786437265574932098e-03 -3.293992253020405769e-03 -1.776575110852718353e-02 5.793327582068741322e-04
2.235270664095878601e-02 -1.680188998579978943e-02 -1.554191764444112778e-02 8.017582818865776062e-03 -1.274881139397621155e-02 -9.410907514393329620e-03 1.726134307682514191e-02 2.786850556731224060e-02 1.834359392523765564e-02 -3.899723524227738380e-03 -3.993317484855651855e-03 3.101176209747791290e-02 1.722206547856330872e-02 1.140657532960176468e-02 -2.922643348574638367e-02 -1.637053443118929863e-03 -1.057452987879514694e-02 -5.579865071922540665e-03 3.861227631568908691e-02 1.573420874774456024e-02 1.767082139849662781e-04 1.939418539404869080e-02 2.693981677293777466e-02 -3.532554209232330322e-02 9.069240652024745941e-03 -3.042238950729370117e-02 -3.464156016707420349e-02 8.633823134005069733e-03 1.653376966714859009e-02 2.219340205192565918e-02 -1.892044208943843842e-02 -1.510986033827066422e-02 -8.835407905280590057e-03 -1.025151740759611130e-02 3.197076544165611267e-02 -8.834321051836013794e-03 -4.713085014373064041e-03 2.354272641241550446e-03 -7.238065358251333237e-03 1.888914965093135834e-02 2.412055991590023041e-02 -6.090882234275341034e-03 1.666854880750179291e-02 -4.195722751319408417e-03 9.112528525292873383e-03 -2.310003386810421944e-03 -1.194790378212928772e-02 1.952299475669860840e-02 2.344246394932270050e-02 -5.393311381340026855e-03 -6.364857777953147888e-03 1.237628702074289322e-02 -2.432777546346187592e-02 -2.968209423124790192e-02 -4.991255700588226318e-04 4.275121900718659163e-04 -2.255769446492195129e-02 -3.632475435733795166e-02 -2.814428322017192841e-02 1.397777162492275238e-02 2.713468670845031738e-02 -2.201559720560908318e-03 -3.189375624060630798e-02 9.074137546122074127e-03 -1.438623759895563126e-02 -1.080382522195577621e-02 2.754058223217725754e-03 8.500142022967338562e-03 -3.776230663061141968e-02 2.031147852540016174e-02 -1.556440908461809158e-02 -3.459176793694496155e-02 -9.729408775456249714e-04 -9.852384217083454132e-03 -2.721720933914184570e-02 1.100447773933410645e-02 1.939285732805728912e-02 -1.843502372503280640e-02 3.355289995670318604e-02 -9.036879055202007294e-03 -2.085791714489459991e-02 -1.877119764685630798e-02 -1.238185819238424301e-02 -1.496643014252185822e-02 9.106650948524475098e-03 -2.616940625011920929e-02 1.653665490448474884e-02 -5.197614897042512894e-03 -1.526862476021051407e-02 5.467225797474384308e-03 1.608249545097351074e-02 3.440240025520324707e-02 -1.692321238806471229e-04 -3.001220896840095520e-02 -1.623013056814670563e-02 1.141437422484159470e-02 4.688938334584236145e-02 -3.596013411879539490e-03 1.686959178186953068e-03 -2.148365229368209839e-02 -4.664706066250801086e-02 -1.488346979022026062e-02 2.572062611579895020e-02 2.339571714401245117e-03 3.494682908058166504e-02 -1.676348038017749786e-02 -1.419608830474317074e-03 -3.760390449315309525e-03 -2.288537845015525818e-02 1.610837504267692566e-02 -2.109054941684007645e-03 -1.451719366014003754e-02 1.840704469941556454e-03 -2.286749146878719330e-02 -7.539791986346244812e-03 -4.006139561533927917e-02 -1.245772372931241989e-02 1.234924071468412876e-03 -1.030910108238458633e-02 7.086914032697677612e-03 1.371015887707471848e-02 3.312206128612160683e-03 1.958549022674560547e-03 3.357182815670967102e-02 5.027393810451030731e-03 -1.111581176519393921e-02 2.798700705170631409e-02 -8.881325833499431610e-03
1.899759471416473389e-02 -2.546562813222408295e-02 -4.630265291780233383e-03 2.099071256816387177e-02 3.310247883200645447e-02 -3.199938312172889709e-02 9.653531946241855621e-03 -1.597166806459426880e-02 3.122494556009769440e-02 -2.329206652939319611e-02 -2.491789683699607849e-02 -2.125055715441703796e-02 -2.908706851303577423e-02 1.710468204692006111e-03 -1.689486391842365265e-02 2.625042386353015900e-02 2.922228537499904633e-02 1.657099812291562557e-03 -5.349399894475936890e-02 2.457211166620254517e-02 1.062829699367284775e-02 -1.165005099028348923e-02 1.606329903006553650e-02 -5.764487013220787048e-02 4.446806386113166809e-03 -7.832552306354045868e-03 -1.968701835721731186e-03 -2.471275068819522858e-02 2.474348247051239014e-02 1.857648417353630066e-02 -2.889928780496120453e-02 2.040816284716129303e-02 2.584702521562576294e-02 -2.479892224073410034e-02 1.108223386108875275e-02 -1.113396883010864258e-02 -5.439182277768850327e-03 -9.707293473184108734e-03 2.809708938002586365e-03 -4.310537478886544704e-04 1.430903654545545578e-02 1.402230933308601379e-02 2.654565684497356415e-02 -3.334729000926017761e-02 -1.196527201682329178e-02 -1.033485028892755508e-02 8.369174785912036896e-03 -1.873875409364700317e-02 -2.075871825218200684e-02 1.772675476968288422e-02 -7.768825627863407135e-03 1.317941863089799881e-02 2.143680490553379059e-02 -8.210724219679832458e-03 3.469790518283843994e-02 3.275325149297714233e-02 -4.260529298335313797e-03 7.166095077991485596e-03 -3.262947313487529755e-03 7.876592688262462616e-03 7.918166927993297577e-03 -1.315713487565517426e-02 1.666181720793247223e-02 -1.030479371547698975e-02 -2.933479659259319305e-02 2.828930737450718880e-04 4.904255643486976624e-02 -3.365718061104416847e-03 2.916724421083927155e-03 -2.326575852930545807e-02 9.947096928954124451e-03 -3.346063196659088135e-02 -6.466792896389961243e-03 -1.044398732483386993e-02 -2.982856938615441322e-03 -1.017336826771497726e-02 -3.098796587437391281e-03 -1.377715077251195908e-02 5.454957950860261917e-03 -3.295550122857093811e-02 -9.153448976576328278e-03 -6.823406089097261429e-03 -1.472220476716756821e-02 1.996149681508541107e-02 2.457557432353496552e-02 -1.278875954449176788e-02 1.051188353449106216e-02 -8.663677726872265339e-04 -2.309742150828242302e-03 3.745513409376144409e-02 2.844781801104545593e-02 3.932074084877967834e-02 2.625603228807449341e-02 2.553123235702514648e-02 1.903433725237846375e-02 1.699574105441570282e-02 -2.963550854474306107e-03 -2.321552298963069916e-02 4.471498541533946991e-03 -2.031989581882953644e-02 2.320096828043460846e-03 1.737915724515914917e-02 5.931074265390634537e-03 -1.208609808236360550e-02 -3.105784393846988678e-02 -2.016618615016341209e-03 -9.701896458864212036e-03 1.561045646667480469e-02 3.532662615180015564e-02 8.835106273181736469e-04 3.678465960547327995e-03 1.825651898980140686e-02 3.410848230123519897e-02 -1.661596819758415222e-02 -1.413588505238294601e-02 8.119946345686912537e-03 1.070358604192733765e-02 -3.535120049491524696e-03 2.118180319666862488e-02 9.935210458934307098e-03 -1.244294643402099609e-02 3.127703676000237465e-03 3.428823780268430710e-03 1.907938905060291290e-02 -6.202975753694772720e-03 3.553546220064163208e-02 9.978417307138442993e-03 2.735098451375961304e-02
1.102995686233043671e-02 -2.070530783385038376e-03 -1.585953868925571442e-02 -1.019441802054643631e-02 2.347422530874609947e-03 -1.687389425933361053e-02 1.555015053600072861e-02 4.244219977408647537e-03 1.376573368906974792e-02 1.717325486242771149e-02 3.243405371904373169e-02 -2.063781395554542542e-02 2.379295788705348969e-02 -4.368409886956214905e-02 -2.430128119885921478e-02 3.568371012806892395e-02 1.196261867880821228e-02 1.946131139993667603e-02 5.720482207834720612e-03 3.415375249460339546e-03 -5.120692029595375061e-02 1.985270297154784203e-03 -1.024529989808797836e-02 -6.097201723605394363e-03 -2.031213790178298950e-02 -4.298534709960222244e-03 3.011995740234851837e-02 1.673471368849277496e-02 2.000752091407775879e-02 -1.408283878117799759e-02 -1.342453900724649429e-02 -9.805100969970226288e-03 1.017029862850904465e-02 -1.627204753458499908e-02 -4.239622503519058228e-02 -6.495412904769182205e-03 5.874483380466699600e-03 1.421986147761344910e-02 1.624869368970394135e-02 2.912989817559719086e-02 -1.718331687152385712e-02 -1.764469780027866364e-02 1.069189398549497128e-03 1.453769393265247345e-02 8.987882174551486969e-03 2.458828734233975410e-03 -3.042278625071048737e-02 -3.022645367309451103e-03 -1.278054434806108475e-02 -4.750148393213748932e-03 1.109108561649918556e-04 -3.343297168612480164e-02 -9.006790816783905029e-03 -4.915322177112102509e-03 -3.770635277032852173e-02 5.212984979152679443e-02 -1.567531004548072815e-02 3.889758605509996414e-03 -9.630507789552211761e-03 -2.460148371756076813e-02 9.245586581528186798e-03 -1.671725884079933167e-02 -1.990830525755882263e-02 2.218278869986534119e-02 1.643336378037929535e-02 6.212476175278425217e-03 -4.369583446532487869e-03 1.720586419105529785e-02 1.194145064800977707e-02 -3.183268418069928885e-04 5.110410600900650024e-02 -2.351662144064903259e-03 -5.402921885251998901e-02 2.367468737065792084e-02 -7.134807761758565903e-03 1.372110098600387573e-03 4.957599565386772156e-02 -1.035098917782306671e-02 2.633434161543846130e-02 -2.657526056282222271e-04 -2.085062488913536072e-02 -7.780520711094141006e-03 -3.985214512795209885e-03 5.377139151096343994e-02 2.035663835704326630e-02 -4.519437905400991440e-03 -1.047046738676726818e-03 -2.129124710336327553e-03 -1.258280966430902481e-02 -5.633548367768526077e-03 -1.940912380814552307e-02 1.008303463459014893e-02 1.323517970740795135e-02 5.763644352555274963e-03 2.109181880950927734e-02 1.194886770099401474e-02 1.617893576622009277e-02 5.723513662815093994e-03 -1.735086436383426189e-03 2.674723044037818909e-02 2.286992967128753662e-03 1.309308409690856934e-02 -1.519204303622245789e-02 2.096877619624137878e-02 9.773175232112407684e-03 -1.366050448268651962e-02 8.982738479971885681e-03 -1.884987950325012207e-02 8.088114671409130096e-03 1.604450051672756672e-03 2.072159759700298309e-02 -1.187642943114042282e-02 9.771047160029411316e-03 1.266089966520667076e-03 -2.178937196731567383e-02 -3.125230595469474792e-02 8.091395720839500427e-03 -3.686057031154632568e-02 -9.961744770407676697e-03 6.619600113481283188e-03 2.352865971624851227e-02 -9.720201604068279266e-03 8.819401264190673828e-03 3.299313597381114960e-03 1.318876817822456360e-02 -1.374456100165843964e-02 -1.061887480318546295e-02 7.488667964935302734e-03
-3.036027587950229645e-02 1.007579918950796127e-02 -2.333191037178039551e-02 -1.737877726554870605e-02 -6.240108516067266464e-03 9.196785278618335724e-03 6.271006539463996887e-03 -4.799209907650947571e-02 2.994895214214920998e-03 1.874127425253391266e-02 1.259048283100128174e-02 1.469052862375974655e-03 -3.148961439728736877e-02 -1.148487813770771027e-02 -7.665711920708417892e-03 8.669669739902019501e-03 3.208345174789428711e-02 -1.230834703892469406e-02 -6.575080566108226776e-03 -1.004557218402624130e-02 -1.585575379431247711e-02 6.811468396335840225e-03 4.736787232104688883e-04 -7.048023398965597153e-03 8.034341037273406982e-03 -3.136080503463745117e-02 4.167221114039421082e-02 -3.790243715047836304e-02 -7.075352594256401062e-03 2.336777932941913605e-02 -3.454761952161788940e-02 -4.956562537699937820e-03 -4.701450816355645657e-04 -2.166078798472881317e-02 5.244774278253316879e-03 -5.408820230513811111e-03 1.761884056031703949e-02 -1.007862761616706848e-02 -2.660694345831871033e-02 -5.092869699001312256e-02 6.671695411205291748e-02 -1.633340120315551758e-02 -3.160690888762474060e-02 4.594180267304182053e-03 1.256555086001753807e-03 1.278735138475894928e-02 3.283710032701492310e-02 -2.253308333456516266e-02 -2.149209380149841309e-02 5.020166933536529541e-02 -3.703729435801506042e-02 -1.131589058786630630e-02 -2.369963377714157104e-02 -2.561855316162109375e-02 -5.535607226192951202e-03 -5.708039388991892338e-04 -5.871744453907012939e-02 2.156730368733406067e-02 -3.507974743843078613e-02 -3.466112772002816200e-03 2.143766358494758606e-02 2.432412281632423401e-02 1.578823477029800415e-02 1.280936785042285919e-02 -7.162256632000207901e-03 5.637194495648145676e-03 3.634898737072944641e-02 2.343315817415714264e-02 3.974302858114242554e-02 1.224812585860490799e-03 -6.061449646949768066e-03 -7.677469868212938309e-03 -2.766886167228221893e-02 -8.559809066355228424e-03 -4.793688654899597168e-03 1.126110926270484924e-02 -1.356478873640298843e-02 -1.708621904253959656e-02 8.584471419453620911e-03 -3.925489261746406555e-02 9.571695700287818909e-03 -1.512883044779300690e-02 -5.284962058067321777e-02 -7.147662341594696045e-03 -1.787246391177177429e-02 -2.173791872337460518e-03 -1.220965757966041565e-02 -1.394536346197128296e-02 1.262346748262643814e-02 -1.371931284666061401e-02 -1.519996393471956253e-02 4.260956309735774994e-03 -2.974443882703781128e-02 4.553088545799255371e-02 -5.488219205290079117e-03 4.875160753726959229e-03 -6.418292876332998276e-03 3.442276269197463989e-02 2.191118709743022919e-02 -8.502346463501453400e-03 1.372263208031654358e-02 -2.792292740195989609e-03 -4.075055941939353943e-03 6.716612260788679123e-03 3.130163997411727905e-02 -1.576545834541320801e-02 -2.446694299578666687e-03 -2.747730724513530731e-02 1.138549204915761948e-02 1.001280546188354492e-02 2.454817295074462891e-02 1.763478666543960571e-02 -1.604670472443103790e-02 -2.155332453548908234e-02 8.841278962790966034e-03 1.623138203285634518e-03 1.579471677541732788e-02 -7.924607023596763611e-03 1.959672011435031891e-02 5.742294713854789734e-02 -1.268094591796398163e-02 -3.528630360960960388e-02 9.259419515728950500e-03 1.107602566480636597e-02 2.451408654451370239e-02 2.561611821874976158e-03 8.122704923152923584e-03 -1.232851203531026840e-02
-9.592919610440731049e-03 2.507690526545047760e-02 2.214044798165559769e-03 9.153707884252071381e-03 -5.591620225459337234e-03 7.977617904543876648e-03 -2.096731588244438171e-02 -2.038342691957950592e-02 2.548605203628540039e-02 -7.012880407273769379e-03 -2.301343738508876413e-05 -2.016864903271198273e-02 -4.277648404240608215e-03 -2.823041938245296478e-02 3.368574893102049828e-03 5.145339295268058777e-03 -9.093690663576126099e-03 1.980834268033504486e-02 6.507266778498888016e-03 1.395289599895477295e-02 5.465913098305463791e-03 3.731059608981013298e-03 1.005697902292013168e-02 -1.266617886722087860e-02 2.395244501531124115e-02 -2.002767100930213928e-02 -1.545290835201740265e-02 4.017578437924385071e-02 1.463168533518910408e-03 1.824615872465074062e-03 4.406572319567203522e-03 -1.749362051486968994e-02 -1.993244327604770660e-02 1.807729899883270264e-02 2.164915762841701508e-02 2.675993181765079498e-02 3.228228166699409485e-02 -1.395376306027173996e-02 2.856174018234014511e-03 -1.602745614945888519e-02 2.948060631752014160e-02 1.817932724952697754e-02 -2.743375254794955254e-03 4.117774369660764933e-04 -8.982223458588123322e-03 -2.250699140131473541e-02 1.668532937765121460e-02 -2.918555960059165955e-02 -8.054831996560096741e-03 -3.806860744953155518e-02 1.736993715167045593e-02 -1.795154623687267303e-02 5.221140105277299881e-03 -3.179046139121055603e-02 -1.141424872912466526e-03 -3.021168150007724762e-02 8.263105526566505432e-03 -2.124695479869842529e-02 2.963318116962909698e-02 -5.686877295374870300e-03 3.422066802158951759e-03 3.861937671899795532e-02 1.108381804078817368e-02 -9.136412292718887329e-03 1.506885048002004623e-02 -2.116934768855571747e-02 7.742073852568864822e-03 1.961827743798494339e-03 -1.755031291395425797e-03 1.478762831538915634e-02 -1.138565875589847565e-02 -1.115718670189380646e-02 -7.136518135666847229e-03 -1.758299395442008972e-02 -5.823901854455471039e-03 2.238238789141178131e-02 1.661826297640800476e-02 1.107708271592855453e-02 4.297965206205844879e-03 -1.182868704199790955e-02 -1.205561030656099319e-02 3.559118136763572693e-02 -5.116544198244810104e-03 -1.971136778593063354e-02 8.731571957468986511e-03 7.378900423645973206e-03 2.673077164217829704e-03 1.212919317185878754e-02 1.328344922512769699e-02 4.085592180490493774e-02 8.509008213877677917e-03 -6.006459239870309830e-03 1.695816963911056519e-02 -1.109012681990861893e-02 1.639630761928856373e-03 -3.489061258733272552e-03 1.586048118770122528e-02 -2.629876509308815002e-02 -3.295333683490753174e-02 1.993376389145851135e-02 -2.330199442803859711e-02 -1.922890171408653259e-02 2.811387740075588226e-02 -2.966124191880226135e-02 -1.310442015528678894e-02 3.700555860996246338e-02 9.329656139016151428e-03 6.115370430052280426e-03 -3.415419161319732666e-02 -1.394108030945062637e-02 1.202883478254079819e-02 8.814612403512001038e-03 1.284911204129457474e-02 -3.309844061732292175e-02 -1.163864973932504654e-02 -3.551931818947196007e-03 2.886629663407802582e-02 3.108054585754871368e-02 2.112925238907337189e-02 2.835336327552795410e-02 -2.708048559725284576e-03 2.284430526196956635e-02 -3.193584457039833069e-02 -2.570067904889583588e-02 3.085654228925704956e-03 -2.112630382180213928e-02 9.667027741670608521e-03 7.313384115695953369e-02
-6.440359167754650116e-03 1.259484561160206795e-03 -3.712045028805732727e-02 -3.410669788718223572e-02 8.978228084743022919e-03 1.200615894049406052e-02 -3.435024619102478027e-02 1.026164647191762924e-02 -6.324405316263437271e-03 -2.986178966239094734e-03 -8.880694396793842316e-03 2.005017176270484924e-02 1.064862310886383057e-02 -5.891771987080574036e-02 1.096043642610311508e-02 5.518004763871431351e-03 -1.813451573252677917e-02 -6.424056366086006165e-03 1.119364984333515167e-02 -1.760361902415752411e-02 1.603355864062905312e-03 4.240108188241720200e-03 8.630014955997467041e-03 1.611512340605258942e-02 -1.657881028950214386e-02 1.529834140092134476e-02 3.455704078078269958e-02 -2.539551258087158203e-02 5.260926205664873123e-03 -1.271173171699047089e-02 1.446341164410114288e-02 3.817414119839668274e-02 2.289841137826442719e-02 -2.966352365911006927e-02 5.302797071635723114e-03 6.188966333866119385e-03 -4.986509308218955994e-02 -4.261130839586257935e-02 2.267532050609588623e-03 1.224297215230762959e-03 -1.372672058641910553e-02 -1.259571500122547150e-02 1.218790002167224884e-02 -2.081159502267837524e-02 -2.409031987190246582e-02 1.319669000804424286e-02 -5.975507199764251709e-03 3.256446123123168945e-02 1.007090881466865540e-02 1.213442813605070114e-02 3.921660594642162323e-03 -1.371344178915023804e-02 1.918623968958854675e-02 2.997517026960849762e-02 -1.054002996534109116e-02 -1.532824244350194931e-02 -1.586059480905532837e-02 -1.131743751466274261e-02 1.581542566418647766e-02 -4.210782796144485474e-02 -4.881977103650569916e-03 1.031831372529268265e-02 8.645366877317428589e-03 2.370689809322357178e-02 3.652567509561777115e-03 1.452471828088164330e-03 -1.248428365215659142e-03 -2.110417559742927551e-02 1.574457436800003052e-02 1.267908141016960144e-02 -1.060179900377988815e-02 1.550602726638317108e-02 -7.714008446782827377e-03 -2.127760276198387146e-02 -1.535440050065517426e-02 1.988273859024047852e-02 -2.154901437461376190e-02 2.460292726755142212e-02 6.080939434468746185e-03 2.107863314449787140e-02 4.488085210323333740e-02 4.651315044611692429e-03 -4.281446337699890137e-03 -2.382986806333065033e-02 -7.206634152680635452e-03 -1.615653745830059052e-03 -4.322852473706007004e-03 -3.197453450411558151e-03 1.435441337525844574e-02 -2.129101008176803589e-02 4.783089738339185715e-03 1.178592815995216370e-02 1.511488296091556549e-02 -1.054594293236732483e-02 7.295989431440830231e-03 -1.901047071442008018e-03 -5.467547569423913956e-03 2.403672225773334503e-02 -4.731831140816211700e-03 -1.950603909790515900e-02 -2.512007579207420349e-02 -2.460405603051185608e-02 -3.331504017114639282e-02 1.466410700231790543e-02 2.569517306983470917e-02 -1.531443279236555099e-02 -3.427795693278312683e-02 3.327679820358753204e-03 2.209828048944473267e-02 1.229668036103248596e-02 -3.160286461934447289e-03 -3.955380246043205261e-02 2.009132318198680878e-02 1.360511314123868942e-02 -1.660842075943946838e-02 -3.214835748076438904e-02 -2.093336544930934906e-03 -3.329199180006980896e-02 8.604094386100769043e-03 -1.364317908883094788e-02 1.609274372458457947e-02 2.333598583936691284e-02 -1.302228868007659912e-02 2.497132495045661926e-02 9.095793589949607849e-03 2.722719870507717133e-02 -2.461256645619869232e-02 1.156356744468212128e-02
-3.957370296120643616e-02 2.419231692329049110e-03 -3.521060943603515625e-02 3.759080776944756508e-03 1.071142312139272690e-02 -1.860154606401920319e-02 1.901762001216411591e-02 -3.935104701668024063e-03 -2.161201275885105133e-02 5.024167522788047791e-02 -1.890745596028864384e-03 2.308370359241962433e-02 -1.396696455776691437e-02 -1.007339078933000565e-02 -3.841679543256759644e-03 -1.688686385750770569e-02 1.071051228791475296e-02 4.701955709606409073e-03 4.014517180621623993e-03 -5.182775668799877167e-03 9.727200493216514587e-03 3.244666382670402527e-02 -6.798129528760910034e-03 -3.976739197969436646e-02 4.522368311882019043e-02 -5.392318125814199448e-03 -3.027156740427017212e-02 -8.366025984287261963e-03 -3.680755384266376495e-03 -1.403319090604782104e-02 7.169822230935096741e-03 3.918347880244255066e-02 5.934312939643859863e-03 3.239501267671585083e-02 -1.846764981746673584e-02 -3.186345472931861877e-02 1.866019889712333679e-02 -9.547282010316848755e-03 2.168678306043148041e-02 -6.601460278034210205e-03 -1.731696538627147675e-02 -8.835311047732830048e-03 8.997841738164424896e-03 1.506123784929513931e-02 2.624049596488475800e-02 1.827885396778583527e-02 -1.809865050017833710e-02 -1.198218483477830887e-02 -1.773064211010932922e-02 2.357695251703262329e-02 -1.032610144466161728e-02 -4.036425054073333740e-02 -9.474234655499458313e-03 -2.035897411406040192e-02 -1.640025526285171509e-02 1.590281724929809570e-02 1.526325754821300507e-02 -4.099407047033309937e-02 -1.449602190405130386e-03 -3.511231392621994019e-02 -3.559626266360282898e-02 3.213281556963920593e-02 -2.044460922479629517e-02 2.073507057502865791e-03 -2.875130157917737961e-03 -2.310179732739925385e-02 3.877434507012367249e-02 1.425305660814046860e-02 9.420637041330337524e-03 -2.910793386399745941e-02 1.320470869541168213e-02 8.599987253546714783e-03 -2.184986136853694916e-02 3.893487155437469482e-02 1.884562522172927856e-02 1.231205184012651443e-02 -2.675366401672363281e-02 -4.008213803172111511e-02 2.797059714794158936e-02 -8.574274368584156036e-03 -1.180566754192113876e-02 -1.116779912263154984e-02 -4.028615355491638184e-02 -1.851836219429969788e-02 7.023460930213332176e-04 -9.628907777369022369e-03 4.827344324439764023e-03 -2.747237123548984528e-02 -1.894720457494258881e-02 5.541719496250152588e-03 1.787564158439636230e-02 7.967426441609859467e-03 -4.860159754753112793e-02 4.925347864627838135e-03 -1.171278301626443863e-02 1.573723508045077324e-03 8.852417580783367157e-03 2.268978022038936615e-02 1.292906142771244049e-02 -1.745771616697311401e-02 7.114194333553314209e-03 -2.346922177821397781e-03 -4.818008281290531158e-03 -2.202502824366092682e-02 2.125903777778148651e-02 -1.460998505353927612e-02 2.567385137081146240e-02 8.266686461865901947e-03 7.899875752627849579e-03 1.285530906170606613e-02 -5.940814502537250519e-03 -3.808971669059246778e-04 -1.523401588201522827e-02 -1.000596862286329269e-02 -1.371065899729728699e-02 -1.064036227762699127e-02 -7.974241860210895538e-03 1.593567617237567902e-02 -1.189051847904920578e-02 -8.868671138770878315e-04 -1.260791346430778503e-02 2.195404283702373505e-02 -2.872811816632747650e-02 6.901258137077093124e-03 -2.664950303733348846e-02 3.554761642590165138e-03 -2.146747522056102753e-02 1.125455275177955627e-02
1.403894834220409393e-02 -1.542358938604593277e-02 -1.202399563044309616e-02 -1.218476705253124237e-02 7.622472941875457764e-03 4.376756399869918823e-02 -2.034162171185016632e-02 -2.635728567838668823e-02 2.297554630786180496e-03 1.556811766931787133e-04 -2.575796283781528473e-02 2.050737105309963226e-02 -3.347066417336463928e-02 -8.242455311119556427e-03 1.197106856852769852e-02 -2.109192870557308197e-02 -2.402454242110252380e-02 8.636556565761566162e-03 -2.907115779817104340e-02 7.741295732557773590e-03 1.101494487375020981e-02 -6.143168546259403229e-03 -4.306769464164972305e-03 -2.259283326566219330e-02 -3.957054112106561661e-03 3.122989088296890259e-02 -7.915894500911235809e-03 1.445319410413503647e-02 -2.291327342391014099e-02 -3.032386768609285355e-03 3.314249962568283081e-02 -7.470733486115932465e-03 1.417380105704069138e-02 -1.554219704121351242e-02 -3.801849856972694397e-02 7.073785364627838135e-02 1.840578019618988037e-02 3.552564652636647224e-03 4.914546385407447815e-02 1.333137974143028259e-02 -1.361401006579399109e-02 -5.159955471754074097e-03 6.664482410997152328e-03 2.125782705843448639e-02 -4.227941390126943588e-03 -5.021178722381591797e-02 1.077348180115222931e-02 1.450050156563520432e-02 -5.730128847062587738e-03 -1.925283460877835751e-03 2.929287403821945190e-02 9.321820922195911407e-03 2.996850945055484772e-02 -1.301401853561401367e-02 3.281554952263832092e-02 -5.749570205807685852e-03 -2.293960005044937134e-02 -1.166314119473099709e-03 3.288441523909568787e-02 1.160770189017057419e-02 -1.417288184165954590e-02 1.539481244981288910e-02 1.475204806774854660e-02 -3.418112918734550476e-02 -1.245335768908262253e-02 -2.306116558611392975e-02 2.929801307618618011e-02 -1.095992792397737503e-02 -1.330222655087709427e-02 -1.366614457219839096e-02 5.801393650472164154e-03 2.396731171756982803e-03 1.187877613119781017e-03 -6.938292644917964935e-03 5.593210924416780472e-03 -3.401656076312065125e-02 2.420531958341598511e-02 -3.532318165525794029e-03 6.995811127126216888e-03 -6.665086746215820312e-02 -4.664622992277145386e-02 -1.206393726170063019e-02 1.747947186231613159e-02 3.490325808525085449e-02 -1.790629327297210693e-02 -1.586254127323627472e-02 -1.084800716489553452e-02 -1.889054290950298309e-02 4.486114718019962311e-03 6.220384035259485245e-03 -1.564479805529117584e-02 -5.053924862295389175e-03 -1.485154312103986740e-02 8.178233169019222260e-03 -1.471385452896356583e-02 -2.330796606838703156e-02 -2.122923545539379120e-02 1.274321135133504868e-02 -8.002686314284801483e-03 2.856872417032718658e-02 -8.134203031659126282e-03 5.054889712482690811e-03 1.553069334477186203e-02 -2.163716126233339310e-04 -7.760158739984035492e-03 -4.846260882914066315e-03 -1.458686217665672302e-02 -7.791347801685333252e-03 1.567142270505428314e-02 -5.350561812520027161e-02 -2.441701013594865799e-03 6.516284309327602386e-03 -3.460025647655129433e-03 -7.842390798032283783e-03 1.741114258766174316e-02 1.517532672733068466e-02 5.192117393016815186e-02 3.547457046806812286e-03 -1.328202895820140839e-02 -4.059485346078872681e-02 8.732146816328167915e-04 -2.891134843230247498e-02 3.067624941468238831e-02 -3.245398029685020447e-02 -4.971743561327457428e-03 6.942470092326402664e-03 3.252440318465232849e-02 1.743063563480973244e-03
2.768763899803161621e-02 7.931246608495712280e-02 6.914420053362846375e-03 7.122797425836324692e-03 -4.021118953824043274e-02 -8.290410973131656647e-03 2.262028679251670837e-02 4.070794582366943359e-02 -4.782428964972496033e-02 -2.258651703596115112e-02 -1.755034364759922028e-02 1.731464453041553497e-02 -9.429883211851119995e-03 -3.480911999940872192e-02 -3.580167191103100777e-03 2.251363173127174377e-02 -1.999963540583848953e-03 -3.549650311470031738e-02 -1.759096421301364899e-02 2.126361057162284851e-02 1.544565148651599884e-02 -4.022533074021339417e-03 3.141946345567703247e-02 -3.646392375230789185e-02 1.244573295116424561e-02 -4.016916267573833466e-03 -1.957976818084716797e-02 -2.122844196856021881e-02 2.753083407878875732e-02 3.687467193230986595e-03 -2.450407482683658600e-02 -1.008264068514108658e-02 3.660716349259018898e-03 -1.500829402357339859e-02 3.667913377285003662e-03 3.263966180384159088e-03 1.390186510980129242e-02 3.246821870561689138e-05 -9.092380059882998466e-04 -1.431424729526042938e-02 1.580218784511089325e-02 9.703513234853744507e-03 -3.442087676376104355e-03 -6.304998532868921757e-04 9.229763410985469818e-03 1.610600948333740234e-02 -1.517632772447541356e-04 7.075613364577293396e-03 3.030513972043991089e-02 6.548496428877115250e-03 -1.479604048654437065e-03 6.585456430912017822e-03 6.182980909943580627e-02 -1.547792274504899979e-02 1.477697957307100296e-02 2.716619893908500671e-02 1.371033024042844772e-02 -2.246471680700778961e-02 8.278522640466690063e-03 -2.098655886948108673e-02 -2.650298923254013062e-02 -9.444541297852993011e-03 -2.110560610890388489e-02 5.118123255670070648e-03 3.647628426551818848e-02 1.530846673995256424e-02 1.790098100900650024e-02 -1.247276272624731064e-02 -1.043460681103169918e-03 1.909447833895683289e-02 -1.988477818667888641e-02 -5.517218727618455887e-03 -8.880930021405220032e-03 4.658057540655136108e-02 -3.354018554091453552e-02 -7.110717240720987320e-03 -7.480236701667308807e-03 -6.849810946732759476e-03 -2.456744201481342316e-02 -3.538749739527702332e-02 -3.811421245336532593e-02 2.541622333228588104e-02 -3.137578815221786499e-02 -5.694877356290817261e-03 -2.911138720810413361e-02 1.534975226968526840e-02 -4.366762563586235046e-02 -3.888012608513236046e-03 1.064835768193006516e-02 -2.318494208157062531e-02 -3.335975483059883118e-02 -3.961915522813796997e-02 -3.955843299627304077e-02 -3.459453210234642029e-02 1.026415545493364334e-02 -3.853846713900566101e-02 -5.046588834375143051e-03 3.151882439851760864e-02 5.952368024736642838e-03 7.442560046911239624e-03 1.289187371730804443e-02 8.169093169271945953e-03 -3.267148882150650024e-02 1.299437228590250015e-02 2.541483379900455475e-02 1.532419212162494659e-02 1.760287559591233730e-03 -1.920220814645290375e-02 1.341871358454227448e-02 1.075455080717802048e-02 3.550373017787933350e-03 2.283274568617343903e-02 -6.097892764955759048e-03 2.964983135461807251e-02 -4.197978414595127106e-03 -1.510966848582029343e-02 -5.861291289329528809e-02 -6.171991117298603058e-03 -6.750482134521007538e-03 -4.410788824316114187e-04 5.605595931410789490e-02 1.483657676726579666e-02 5.628665443509817123e-03 -2.426078356802463531e-02 -3.145580738782882690e-02 7.139119785279035568e-03 1.084945537149906158e-02 2.797563187777996063e-02
-3.038369864225387573e-02 -2.716048434376716614e-02 -2.319702133536338806e-02 5.313904955983161926e-03 -5.164604168385267258e-03 -8.595239371061325073e-03 -1.741751842200756073e-02 -5.817872006446123123e-04 -2.432690560817718506e-02 -8.032649755477905273e-03 2.302740176673978567e-05 2.317992597818374634e-02 2.626704610884189606e-02 5.228206515312194824e-03 -6.000414490699768066e-03 5.816946271806955338e-03 1.067656278610229492e-02 2.083040960133075714e-02 2.086343988776206970e-02 -4.570145625621080399e-03 4.631764255464076996e-03 -8.398815989494323730e-03 -4.224801959935575724e-04 -2.024661749601364136e-02 9.903176687657833099e-03 -2.483575604856014252e-02 -3.478043898940086365e-02 -2.506159059703350067e-02 1.752236858010292053e-02 -9.834646247327327728e-03 -9.966406971216201782e-03 -2.401887625455856323e-02 2.638402953743934631e-02 3.637070767581462860e-03 2.736075036227703094e-02 2.343545667827129364e-02 9.048179723322391510e-03 -1.261347066611051559e-02 1.031996309757232666e-02 4.579895362257957458e-02 9.988805279135704041e-03 -5.498232319951057434e-03 -3.835856914520263672e-03 1.931858994066715240e-02 -1.392494607716798782e-02 -2.040954306721687317e-03 1.246622856706380844e-02 1.099162641912698746e-02 -9.790754877030849457e-03 1.590312086045742035e-02 -9.855541400611400604e-03 -6.597584113478660583e-03 -1.756092347204685211e-02 1.518923509865999222e-02 1.537883933633565903e-02 -1.242557074874639511e-03 1.599128916859626770e-02 6.433404050767421722e-03 -3.978732973337173462e-03 2.223465219140052795e-02 -8.570635691285133362e-04 -1.304929610341787338e-02 -2.042079903185367584e-02 1.170348282903432846e-02 1.184953935444355011e-02 2.332788193598389626e-03 7.912987843155860901e-03 -7.952761836349964142e-03 -2.653635479509830475e-02 1.398059888742864132e-03 -3.122086264193058014e-02 -2.163532376289367676e-02 7.472681812942028046e-03 -2.235342003405094147e-02 -3.222138062119483948e-02 1.028065453283488750e-03 -3.527574241161346436e-02 1.018626429140567780e-02 1.818651892244815826e-02 -6.828023120760917664e-03 -1.241815276443958282e-02 -4.242462664842605591e-02 -3.017994388937950134e-02 -3.688988834619522095e-02 7.280333433300256729e-03 -3.971436247229576111e-02 -6.254227459430694580e-02 -2.653243951499462128e-02 1.829611510038375854e-02 -2.592276036739349365e-02 1.455569267272949219e-02 -1.947808265686035156e-02 -9.187768213450908661e-03 1.222492940723896027e-02 -2.786538563668727875e-02 -4.549244185909628868e-04 -3.182075545191764832e-02 -6.294563878327608109e-03 -6.241207476705312729e-03 -3.123294748365879059e-02 -1.872831839136779308e-03 2.150202170014381409e-02 5.638082511723041534e-03 -1.154301874339580536e-02 -3.779725637286901474e-03 -2.015275135636329651e-02 -2.607299201190471649e-02 1.847144216299057007e-02 -2.255283296108245850e-02 7.664708886295557022e-03 4.335144069045782089e-03 7.021901663392782211e-03 1.784394308924674988e-02 1.262635830789804459e-02 7.097154739312827587e-04 3.898853319697082043e-04 -6.611996330320835114e-03 -1.774537935853004456e-02 -8.485479280352592468e-03 -2.643975429236888885e-02 1.799182780086994171e-02 1.716133952140808105e-02 -2.598877530544996262e-03 1.079882727935910225e-03 7.428338751196861267e-03 3.597460919991135597e-03 -2.816218882799148560e-02 -1.039501838386058807e-02
-1.353685464709997177e-02 1.228947471827268600e-02 -2.348569780588150024e-02 1.693810336291790009e-02 -2.914826758205890656e-02 3.150019561871886253e-03 -1.852889172732830048e-02 7.024871651083230972e-03 2.634654520079493523e-03 -6.416148971766233444e-03 3.128469921648502350e-03 4.053079336881637573e-02 1.549384556710720062e-02 -4.790832754224538803e-03 -8.578038774430751801e-03 2.358440309762954712e-02 2.203101664781570435e-02 3.011357411742210388e-02 6.075641606003046036e-03 1.215103082358837128e-02 4.939088597893714905e-02 1.869426923803985119e-03 -3.533919155597686768e-02 -1.057175640016794205e-02 1.850135251879692078e-02 -8.003390976227819920e-04 1.115775434300303459e-03 1.027879118919372559e-02 4.982773214578628540e-03 -9.179640561342239380e-03 1.721449755132198334e-02 -2.075730822980403900e-02 1.197371259331703186e-02 4.165084660053253174e-02 2.773215062916278839e-02 -7.226795889437198639e-03 -1.539305318146944046e-02 3.429477661848068237e-02 1.605795929208397865e-03 1.845566555857658386e-02 -1.254098117351531982e-02 -8.506710641086101532e-03 2.810774138197302818e-03 1.638186513446271420e-03 1.455005723983049393e-02 3.034588415175676346e-03 2.521719597280025482e-02 3.770434763282537460e-03 1.575336977839469910e-02 1.718539558351039886e-02 2.311364049091935158e-03 5.462018307298421860e-03 -9.856502525508403778e-03 -1.231492869555950165e-02 -1.840745797380805016e-03 7.293974515050649643e-03 7.782602333463728428e-04 3.707417473196983337e-02 -3.100201301276683807e-02 -1.747232861816883087e-02 1.194116286933422089e-02 1.608929410576820374e-02 -2.997062541544437408e-02 2.199245616793632507e-02 -4.094183817505836487e-02 2.753847837448120117e-02 -3.590809926390647888e-02 1.855599135160446167e-02 1.982199773192405701e-02 -8.841417729854583740e-03 5.035143811255693436e-03 3.196534235030412674e-03 -3.351868689060211182e-02 1.833047345280647278e-02 2.267066948115825653e-02 -8.787985891103744507e-03 1.045480836182832718e-03 -1.019365526735782623e-02 -3.585715778172016144e-03 -2.154284901916980743e-02 -1.758902706205844879e-02 1.214892324060201645e-02 1.393334590829908848e-03 1.686323434114456177e-02 3.188171237707138062e-02 -1.034787762910127640e-02 3.876904724165797234e-03 1.123335678130388260e-02 1.365183293819427490e-02 -1.175136771053075790e-02 6.738784140907227993e-04 -6.668916903436183929e-03 1.322336960583925247e-02 2.543576247990131378e-02 -2.121605165302753448e-02 6.403875886462628841e-04 -5.831867922097444534e-03 3.261771798133850098e-02 -2.206231839954853058e-02 2.253762260079383850e-02 -3.637301549315452576e-02 7.108471821993589401e-03 -6.344987079501152039e-03 -1.144103147089481354e-02 1.537324022501707077e-02 2.022202685475349426e-02 -3.540019318461418152e-02 1.152201672084629536e-03 8.533275686204433441e-03 -2.128061652183532715e-02 -6.833484396338462830e-03 -1.373100467026233673e-02 2.259726263582706451e-02 3.407832002267241478e-03 -1.031698007136583328e-02 -4.638788104057312012e-02 2.265401370823383331e-02 -1.430899463593959808e-02 -1.859029196202754974e-02 3.946711868047714233e-02 -9.987439028918743134e-03 9.839129634201526642e-03 3.686313750222325325e-03 -1.618559285998344421e-02 2.420033700764179230e-02 -1.817725412547588348e-02 8.479206589981913567e-04 3.068990819156169891e-02
-5.789597984403371811e-03 -8.179876022040843964e-03 2.200522832572460175e-02 -3.172198077663779259e-03 -2.641648426651954651e-02 -1.051697973161935806e-02 -1.188618130981922150e-02 -2.147524617612361908e-02 2.487159706652164459e-02 1.840035244822502136e-02 1.054202020168304443e-02 4.990331362932920456e-03 2.168229594826698303e-02 7.831365801393985748e-03 -6.602806970477104187e-03 3.009667992591857910e-02 7.731332443654537201e-03 1.600003615021705627e-02 2.886574715375900269e-03 2.063987404108047485e-02 1.383456122130155563e-02 -4.003586247563362122e-02 -1.086495816707611084e-02 3.634715219959616661e-03 4.057865217328071594e-02 5.458001978695392609e-03 -3.006929997354745865e-03 2.416882477700710297e-02 -2.487612515687942505e-02 1.518215052783489227e-02 -1.174200791865587234e-02 4.199780896306037903e-02 -1.897260546684265137e-02 9.153121151030063629e-03 -1.927143521606922150e-02 1.853407011367380619e-03 1.042473129928112030e-02 8.643365465104579926e-03 -3.407890442758798599e-03 2.622398547828197479e-02 3.865338861942291260e-02 1.929525844752788544e-02 -1.790584437549114227e-02 -7.613159250468015671e-03 1.202798797748982906e-03 7.701510563492774963e-03 3.560266643762588501e-02 -3.033951669931411743e-02 6.496099289506673813e-03 3.344811499118804932e-03 1.140629127621650696e-02 -1.011819258565083146e-04 -1.419635955244302750e-02 1.990548707544803619e-02 6.995035335421562195e-03 -3.181898593902587891e-02 6.799221038818359375e-03 -2.437261492013931274e-02 1.476701442152261734e-02 5.701531656086444855e-03 7.908213883638381958e-03 5.627577658742666245e-03 -3.281950578093528748e-02 1.310422364622354507e-02 1.917871274054050446e-02 3.287606313824653625e-02 -1.737927459180355072e-02 -1.383301429450511932e-02 -2.085529454052448273e-02 -1.848121732473373413e-02 -1.106187328696250916e-02 -1.173341460525989532e-02 -1.454506441950798035e-02 3.792233765125274658e-02 -1.980230957269668579e-02 8.713055402040481567e-03 -3.076110966503620148e-02 1.453336328268051147e-03 -1.511717122048139572e-02 -2.972608432173728943e-03 1.279782131314277649e-02 -2.970607392489910126e-02 -2.521100640296936035e-02 -1.766725629568099976e-02 -1.712884195148944855e-02 3.636426851153373718e-02 -2.666519023478031158e-02 -1.019629370421171188e-02 8.681432227604091167e-04 6.078581791371107101e-03 -1.428719051182270050e-02 1.134494505822658539e-02 -3.543313965201377869e-02 -2.242899313569068909e-02 1.670312508940696716e-02 -2.018157765269279480e-02 -3.287180559709668159e-03 2.403792738914489746e-02 7.400741451419889927e-04 2.657821774482727051e-02 1.222628355026245117e-02 2.447975100949406624e-03 1.403271406888961792e-02 3.445169888436794281e-03 -1.491471473127603531e-02 -3.614090615883469582e-03 -2.249184623360633850e-02 1.799576170742511749e-02 3.980223834514617920e-02 -2.768191916402429342e-04 -6.579882465302944183e-04 1.852197386324405670e-02 -1.647554896771907806e-02 4.113684874027967453e-03 -1.134990155696868896e-02 -3.426923882216215134e-03 3.142932895570993423e-03 -2.609900012612342834e-02 -8.878567256033420563e-03 2.955125458538532257e-02 3.136940300464630127e-02 -5.181004526093602180e-04 -3.328864229843020439e-03 2.969411760568618774e-02 -2.318534255027770996e-02 -5.324578378349542618e-03 3.877408802509307861e-02 7.423402275890111923e-03
1.730904169380664825e-02 2.933513745665550232e-02 1.081003155559301376e-02 2.683445625007152557e-02 1.717671938240528107e-02 1.592687517404556274e-02 -4.077422432601451874e-03 -1.625749631784856319e-03 3.787726163864135742e-02 -3.066550008952617645e-02 2.417714707553386688e-02 -3.007306531071662903e-02 1.366892131045460701e-03 5.657714791595935822e-04 7.766356691718101501e-03 -2.688768506050109863e-02 1.903302222490310669e-02 1.309893210418522358e-03 4.042761866003274918e-03 7.038368377834558487e-03 1.524676382541656494e-02 -1.628537662327289581e-02 -2.615086920559406281e-02 -1.133642904460430145e-02 -2.433925867080688477e-02 -1.748027093708515167e-02 1.768700778484344482e-02 -9.347121231257915497e-04 -7.080304902046918869e-03 5.880971904844045639e-03 -3.665582090616226196e-02 6.802125833928585052e-03 8.951684460043907166e-03 -4.471752326935529709e-03 2.857618592679500580e-02 -2.314162254333496094e-02 3.336251247674226761e-03 -3.259842051193118095e-04 9.315126575529575348e-03 4.295457899570465088e-02 1.024556532502174377e-02 2.580018527805805206e-02 -3.239741781726479530e-03 -4.514492582529783249e-03 -2.433332614600658417e-02 -1.090442854911088943e-02 2.295890264213085175e-02 2.229014784097671509e-02 3.200185671448707581e-02 6.608054041862487793e-03 1.922891847789287567e-02 -1.223686267621815205e-03 -2.465827018022537231e-02 2.609820803627371788e-03 8.585044182837009430e-03 1.540562696754932404e-02 -1.078848075121641159e-02 -9.431011043488979340e-03 3.416927903890609741e-02 -7.146372459828853607e-03 1.353611890226602554e-02 -2.637852681800723076e-03 2.775783464312553406e-02 -5.132041405886411667e-03 6.497747730463743210e-03 2.950276806950569153e-02 4.172458872199058533e-02 -5.610145744867622852e-04 -1.678339019417762756e-02 -1.742734946310520172e-02 2.401144243776798248e-02 -8.291443809866905212e-03 2.636501751840114594e-02 4.289568401873111725e-03 -4.434769041836261749e-03 2.852760441601276398e-02 2.136991545557975769e-02 -8.026703260838985443e-03 -5.015780683606863022e-03 2.421486377716064453e-02 6.742472294718027115e-03 -1.702712103724479675e-02 -2.356162294745445251e-02 -2.919236384332180023e-02 -1.642520539462566376e-02 -4.165730252861976624e-02 1.855191960930824280e-02 2.074704319238662720e-02 -4.380339384078979492e-02 3.491440787911415100e-02 1.314191613346338272e-03 8.308491669595241547e-04 1.052106637507677078e-02 1.228043547598645091e-04 -5.903981626033782959e-02 -1.211308222264051437e-02 -1.618419960141181946e-02 8.349389769136905670e-03 1.683209650218486786e-02 5.144072230905294418e-03 2.380693331360816956e-02 -2.074722433462738991e-03 -7.683017756789922714e-03 -3.848448395729064941e-02 6.169008091092109680e-03 -2.037325128912925720e-02 -3.109739907085895538e-02 -7.158314343541860580e-03 4.434993118047714233e-02 6.853271741420030594e-03 2.867533080279827118e-02 1.019784901291131973e-02 -1.792108081281185150e-02 3.446270525455474854e-02 -1.353309722617268562e-03 8.717245655134320259e-04 -1.737847365438938141e-02 -1.527337171137332916e-02 2.381958439946174622e-02 -1.501160208135843277e-02 -2.896774187684059143e-02 -7.890767417848110199e-03 -1.450848206877708435e-02 -4.824070725589990616e-03 1.264794729650020599e-03 4.582977388054132462e-03 -2.379019185900688171e-02 1.495603658258914948e-02
1.295243948698043823e-02 5.428929813206195831e-03 9.407982230186462402e-03 -1.198906917124986649e-02 -3.181764855980873108e-02 -2.182477340102195740e-02 -1.370825525373220444e-02 -1.678901910781860352e-02 3.079872578382492065e-02 -2.435126900672912598e-02 9.115379652939736843e-04 1.686993986368179321e-02 -4.059083387255668640e-02 8.972391486167907715e-03 7.982113747857511044e-04 3.761415928602218628e-02 1.252528652548789978e-02 1.979931630194187164e-02 1.309641404077410698e-03 -1.750279590487480164e-02 7.108244113624095917e-03 -1.307873707264661789e-02 1.611101068556308746e-02 -3.663496300578117371e-02 -1.518854591995477676e-02 2.757923863828182220e-02 6.339773535728454590e-03 -1.041824929416179657e-02 1.017671357840299606e-02 -6.511267274618148804e-03 -3.894968889653682709e-03 -5.008079111576080322e-03 8.317467756569385529e-03 3.358018584549427032e-03 -1.016622129827737808e-02 -1.191312447190284729e-03 -4.580821469426155090e-02 -1.671452075242996216e-02 -1.824263017624616623e-03 4.556444007903337479e-03 -1.220792345702648163e-02 -1.475546602159738541e-02 6.037625484168529510e-03 -1.767496019601821899e-02 4.477936029434204102e-02 2.103614807128906250e-02 -4.081653431057929993e-03 3.780451789498329163e-02 3.388560144230723381e-04 3.530412912368774414e-02 6.209659855812788010e-03 1.162759866565465927e-02 1.786224171519279480e-02 1.122904010117053986e-02 1.065256353467702866e-02 -1.455998234450817108e-02 -4.124748986214399338e-03 2.340891398489475250e-02 -3.071748651564121246e-02 -4.308188334107398987e-03 -9.177486412227153778e-03 4.269535839557647705e-02 -3.355183172971010208e-03 2.322268206626176834e-03 -4.686171654611825943e-03 1.054255943745374680e-02 6.420648423954844475e-04 2.898734807968139648e-02 -2.416650205850601196e-02 -1.680967956781387329e-02 5.395600572228431702e-03 5.137975793331861496e-03 1.962233707308769226e-02 -2.363404259085655212e-02 8.065990172326564789e-03 6.634069606661796570e-03 9.161042398773133755e-04 1.626150868833065033e-02 -2.369465120136737823e-02 -1.838619820773601532e-02 1.488791592419147491e-02 2.830998273566365242e-03 -4.998847842216491699e-02 8.691503666341304779e-03 4.916721209883689880e-02 -1.602096110582351685e-02 -1.360053755342960358e-02 -1.450094114989042282e-02 -9.297513402998447418e-03 -1.724708476103842258e-03 -2.692883647978305817e-02 -1.221237983554601669e-02 9.251473471522331238e-03 2.061404474079608917e-02 -1.531815063208341599e-02 1.331781223416328430e-02 1.427125651389360428e-02 1.931596547365188599e-03 -1.186634134501218796e-02 7.415876723825931549e-03 1.147306151688098907e-02 2.583488076925277710e-02 2.316736429929733276e-02 -7.563720922917127609e-03 -1.669387705624103546e-02 3.012255206704139709e-02 -3.051083069294691086e-03 -2.145706675946712494e-02 2.264189347624778748e-02 -1.755556836724281311e-02 -1.758231408894062042e-02 -6.888440810143947601e-03 1.411743089556694031e-02 3.699916601181030273e-02 3.897240012884140015e-02 2.019833959639072418e-02 -3.566412255167961121e-02 -4.085882753133773804e-02 -1.553681027144193649e-02 -7.974795065820217133e-03 -2.783705480396747589e-02 5.320081487298011780e-03 -2.686726627871394157e-03 2.618774771690368652e-02 1.314540859311819077e-02 3.967378661036491394e-02 -1.689037494361400604e-02 -6.164092104882001877e-03
4.954521078616380692e-03 -1.815634779632091522e-03 1.199537329375743866e-02 4.654103890061378479e-03 -5.495286546647548676e-03 -2.570875734090805054e-02 5.149083212018013000e-03 4.460927739273756742e-04 -3.679677844047546387e-02 -3.341610729694366455e-02 5.918319150805473328e-02 -2.694473974406719208e-02 1.638403907418251038e-02 -3.759521525353193283e-03 -1.484292745590209961e-02 -1.355401612818241119e-02 1.924738101661205292e-02 -1.658142730593681335e-02 -2.924489602446556091e-02 5.107253789901733398e-03 1.374907139688730240e-02 2.599868550896644592e-02 2.487186156213283539e-02 -5.486448295414447784e-03 -4.710458219051361084e-03 -4.312341567128896713e-03 4.626715183258056641e-02 -1.140890177339315414e-02 -7.096468470990657806e-03 4.215733613818883896e-03 -1.795257255434989929e-02 2.853184193372726440e-02 1.784871891140937805e-02 -1.880222558975219727e-02 -7.278047036379575729e-03 -1.434567198157310486e-02 4.338394477963447571e-02 7.182457484304904938e-03 3.676422685384750366e-02 -3.785094618797302246e-02 -3.242491744458675385e-03 -1.411692588590085506e-03 2.554730046540498734e-03 -2.967046340927481651e-03 3.190109855495393276e-04 3.402663394808769226e-02 1.157483784481883049e-03 -1.200615055859088898e-02 1.239895634353160858e-02 -1.872937195003032684e-02 1.913217827677726746e-02 -3.256850317120552063e-02 -2.108792215585708618e-02 1.500824093818664551e-02 -3.860020637512207031e-02 1.119185518473386765e-02 2.295084111392498016e-02 1.714420318603515625e-02 1.359474752098321915e-02 -5.302049219608306885e-03 8.804693818092346191e-03 1.589576527476310730e-02 1.996668614447116852e-02 7.526820059865713120e-03 3.461585566401481628e-02 7.397771347314119339e-03 6.899221334606409073e-03 3.827396035194396973e-02 -1.826944760978221893e-02 9.682074189186096191e-03 -7.770297583192586899e-03 -6.117742974311113358e-03 -5.384346004575490952e-03 3.994666785001754761e-02 2.113398350775241852e-02 -2.027782611548900604e-02 3.151002747472375631e-04 1.852032542228698730e-02 1.994147524237632751e-02 4.679796099662780762e-02 1.913280785083770752e-02 5.143276974558830261e-02 -3.304311260581016541e-02 -3.474267199635505676e-02 -4.329684656113386154e-03 6.277797743678092957e-03 1.714237220585346222e-02 1.008696015924215317e-02 -1.216954458504915237e-02 1.083178166300058365e-02 -1.216555945575237274e-02 4.670271649956703186e-02 -2.793153934180736542e-02 6.277078762650489807e-03 1.980723068118095398e-02 -3.981663379818201065e-03 -9.067617356777191162e-04 4.209364950656890869e-02 1.671154424548149109e-02 -1.466096937656402588e-02 -1.382697653025388718e-02 2.155645377933979034e-02 1.237154565751552582e-02 2.625407092273235321e-02 1.364907808601856232e-02 -2.251834981143474579e-02 2.408804604783654213e-03 -6.145651917904615402e-03 -1.199729857034981251e-03 -2.385022863745689392e-02 6.910413969308137894e-03 -1.957190223038196564e-02 1.270657591521739960e-02 -2.473360672593116760e-02 2.530620992183685303e-02 2.078954130411148071e-02 1.432885881513357162e-02 -1.271550729870796204e-02 8.586352691054344177e-03 -6.483226269483566284e-02 2.291914448142051697e-02 1.135647948831319809e-02 3.076471202075481415e-02 -8.026663213968276978e-03 -8.757783100008964539e-03 2.157670445740222931e-02 -1.942421682178974152e-02 -1.088659930974245071e-02
-2.380239963531494141e-02 4.366948734968900681e-03 -2.413227222859859467e-02 2.249982394278049469e-02 -9.919813834130764008e-03 2.132748626172542572e-02 -2.271758764982223511e-02 1.411646977066993713e-02 2.287622308358550072e-03 -1.878064498305320740e-02 -1.886865589767694473e-03 6.151246372610330582e-03 -3.835840849205851555e-03 8.856216445565223694e-03 -3.416236117482185364e-02 3.251908347010612488e-02 -2.908610366284847260e-02 -2.309106849133968353e-02 2.048559254035353661e-03 1.422353088855743408e-02 -3.584678284823894501e-03 2.313393354415893555e-02 -4.924298264086246490e-03 -1.931074261665344238e-02 -1.171516906470060349e-02 -9.985554963350296021e-03 1.177010312676429749e-02 1.736705936491489410e-02 3.520284220576286316e-02 4.027263075113296509e-02 -3.150602802634239197e-02 -1.634437963366508484e-02 -1.437386497855186462e-02 9.200784377753734589e-03 8.134401403367519379e-03 5.784501321613788605e-03 9.278775192797183990e-03 -4.704548511654138565e-03 5.852712783962488174e-03 4.522921890020370483e-02 1.029927562922239304e-02 -3.046564059332013130e-03 4.690850619226694107e-03 -2.221695333719253540e-02 5.661866161972284317e-03 -4.088548477739095688e-03 1.812224090099334717e-02 -2.189235575497150421e-02 -3.372794948518276215e-03 -2.504947595298290253e-02 4.980975016951560974e-02 -9.790238924324512482e-03 4.939144011586904526e-03 -1.779676973819732666e-02 -4.837435204535722733e-03 1.786415092647075653e-02 -4.552512255031615496e-04 4.933925345540046692e-03 -2.727144025266170502e-02 2.422634325921535492e-02 1.310386974364519119e-02 1.509386580437421799e-02 7.379941642284393311e-03 -1.332522556185722351e-02 -2.647021226584911346e-02 -4.473125934600830078e-02 -2.058474719524383545e-02 9.359296411275863647e-03 -5.148492753505706787e-03 -1.123222243040800095e-02 -2.674876898527145386e-02 -2.207554876804351807e-03 -1.391156204044818878e-02 6.871218327432870865e-03 -2.609561430290341377e-03 -1.851954869925975800e-02 -1.587718166410923004e-02 1.049129641614854336e-03 4.034755402244627476e-04 -1.526924222707748413e-02 1.788341999053955078e-02 -2.035499550402164459e-02 -1.450912933796644211e-02 -3.619719063863158226e-03 -8.825588971376419067e-03 2.670701127499341965e-03 1.121671497821807861e-02 1.616480760276317596e-02 -2.396172285079956055e-02 -1.387779042124748230e-02 2.352469135075807571e-03 1.021976117044687271e-02 -1.989933848381042480e-02 1.980897411704063416e-02 4.506265744566917419e-03 1.335203414782881737e-04 -3.086688695475459099e-03 3.571154782548546791e-03 1.148747652769088745e-02 2.375949546694755554e-02 2.197613241150975227e-03 1.889414153993129730e-03 -2.055333554744720459e-02 -5.803664680570363998e-03 3.170628100633621216e-02 -7.328198291361331940e-03 2.105345390737056732e-02 1.940801367163658142e-02 -3.777417540550231934e-02 1.085389591753482819e-02 1.751093566417694092e-02 2.090619131922721863e-02 -7.949233986437320709e-03 -3.248716890811920166e-02 5.588816478848457336e-03 5.410218145698308945e-03 4.687212780117988586e-02 -6.948418449610471725e-03 -1.364815421402454376e-02 -1.727601327002048492e-02 -2.528781630098819733e-02 -2.671388676390051842e-03 -5.013317801058292389e-03 -1.431584171950817108e-02 1.782101765275001526e-02 1.342548243701457977e-02 -2.522530779242515564e-02 3.986020013689994812e-02
1.558937411755323410e-02 -6.259297952055931091e-03 1.691366918385028839e-02 -2.896595560014247894e-02 1.693533267825841904e-03 1.950322650372982025e-02 -2.331334725022315979e-02 -1.356148067861795425e-02 -9.946140460669994354e-03 -1.110003329813480377e-02 1.657093316316604614e-02 3.004780225455760956e-02 6.053823046386241913e-03 -6.267437245696783066e-03 -1.141429785639047623e-02 -6.214761640876531601e-03 1.107265893369913101e-02 2.333541400730609894e-02 1.481734588742256165e-02 -8.146408945322036743e-03 8.420050726272165775e-04 4.325889050960540771e-03 1.848487742245197296e-02 2.217977494001388550e-02 1.788868568837642670e-02 1.921669393777847290e-02 1.452740374952554703e-02 9.360590018332004547e-03 1.152159296907484531e-03 1.731476187705993652e-02 8.144231978803873062e-04 2.490852959454059601e-02 -2.737264148890972137e-02 1.966580376029014587e-02 -1.625948026776313782e-02 2.445732941851019859e-03 1.642230548895895481e-03 1.520516164600849152e-02 1.163659058511257172e-02 -2.130962163209915161e-02 1.964342081919312477e-03 -2.263600565493106842e-02 4.541240166872739792e-03 -8.745127706788480282e-04 6.972744129598140717e-03 3.405767027288675308e-03 1.759999804198741913e-02 2.116451784968376160e-02 4.094626288861036301e-03 -1.807475346140563488e-03 3.331695916131138802e-03 -2.417274378240108490e-02 -1.015335880219936371e-02 -1.929018180817365646e-04 -2.881641127169132233e-02 -1.063990779221057892e-02 6.320565007627010345e-03 -9.606201201677322388e-03 1.230829115957021713e-02 2.254848740994930267e-02 8.139501325786113739e-03 2.544441074132919312e-02 1.662623882293701172e-02 2.867369540035724640e-02 -3.479374200105667114e-02 1.019850606098771095e-03 1.345575321465730667e-02 4.237354546785354614e-02 -4.663654044270515442e-02 -2.187725715339183807e-02 -3.680102992802858353e-03 1.959438435733318329e-02 -1.361224986612796783e-02 2.244432223960757256e-03 -2.008167561143636703e-03 -2.737239748239517212e-02 -9.486755356192588806e-03 -8.839746005833148956e-03 2.399636199697852135e-03 6.826852913945913315e-03 2.198636997491121292e-03 7.350911851972341537e-03 -3.724520280957221985e-02 -1.701907627284526825e-02 7.559674791991710663e-03 3.214346617460250854e-02 1.001323200762271881e-02 8.378894068300724030e-03 1.149332616478204727e-02 1.757223071763291955e-05 -9.346250444650650024e-03 1.996797509491443634e-02 1.488658785820007324e-02 1.545586856082081795e-03 -9.191100485622882843e-03 2.408206835389137268e-02 -2.188346534967422485e-02 1.493285037577152252e-02 -2.021065913140773773e-02 -2.514922618865966797e-02 4.026462510228157043e-02 1.064550876617431641e-02 -2.646072767674922943e-02 -5.466397106647491455e-02 2.527304179966449738e-02 -2.641176618635654449e-02 2.103104628622531891e-02 -3.213505074381828308e-02 -9.810379706323146820e-03 -2.131892926990985870e-02 -4.060942679643630981e-02 -1.195780839771032333e-02 1.476626284420490265e-02 9.372403845191001892e-03 2.927706576883792877e-02 3.744390979409217834e-02 1.471200771629810333e-02 3.474885225296020508e-02 -4.267239943146705627e-02 -7.732469122856855392e-03 -1.929965056478977203e-02 -1.353449933230876923e-02 -4.198347404599189758e-02 2.044083736836910248e-02 2.984584309160709381e-02 1.616377569735050201e-02 -2.209057565778493881e-03 9.857436642050743103e-03
4.432521236594766378e-04 -1.640988513827323914e-02 -7.747459225356578827e-03 2.286539040505886078e-02 -1.956114545464515686e-02 3.973976708948612213e-03 1.891711726784706116e-02 -1.123832655139267445e-03 2.614958398044109344e-02 -1.144725922495126724e-02 3.590177744626998901e-02 -7.928799837827682495e-03 -4.408324311953037977e-04 -1.947232149541378021e-02 -2.439701464027166367e-03 -1.301673892885446548e-02 -2.352168969810009003e-02 1.303967647254467010e-02 -3.007904253900051117e-02 1.679111737757921219e-03 4.598602652549743652e-02 -1.964370161294937134e-02 1.558680273592472076e-02 1.199955679476261139e-02 1.328688114881515503e-02 -2.239261008799076080e-02 -2.009106054902076721e-02 -1.508192718029022217e-02 -2.485723979771137238e-02 2.456425863783806562e-04 1.783041632734239101e-03 3.445749403908848763e-03 3.400186821818351746e-02 3.321062773466110229e-03 -2.679940126836299896e-02 -3.820308018475770950e-03 2.011163160204887390e-02 6.403153389692306519e-02 2.194633707404136658e-02 -2.925175009295344353e-03 -6.600095890462398529e-03 -1.471662614494562149e-02 4.638680443167686462e-02 8.672732859849929810e-03 -1.260106451809406281e-02 -3.792025893926620483e-02 -2.358551695942878723e-02 1.715051382780075073e-02 1.403637416660785675e-02 -8.758348412811756134e-03 -9.728322736918926239e-03 1.666052825748920441e-02 1.615776680409908295e-02 1.786511950194835663e-02 1.307178381830453873e-02 3.215850144624710083e-02 3.295309096574783325e-02 -1.469564437866210938e-02 4.252993967384099960e-03 -2.795705199241638184e-02 -9.460945730097591877e-04 -8.198023773729801178e-03 -2.002291008830070496e-02 4.487782716751098633e-02 3.505093045532703400e-03 1.152389333583414555e-03 -1.174300070852041245e-02 1.983410678803920746e-02 1.051184721291065216e-02 -1.136671286076307297e-02 -8.464138954877853394e-03 9.248635731637477875e-03 -3.648824244737625122e-02 -2.244232036173343658e-02 -1.727537438273429871e-02 -8.162719197571277618e-03 9.091902524232864380e-03 8.452266454696655273e-03 1.759645342826843262e-02 5.461103282868862152e-03 4.284273087978363037e-02 8.002089336514472961e-03 -5.080894567072391510e-03 -2.105326205492019653e-02 3.286760672926902771e-02 -2.546882815659046173e-02 -1.543457806110382080e-02 3.880394250154495239e-02 1.909596472978591919e-02 -3.879298269748687744e-02 -3.826684504747390747e-02 2.787417173385620117e-02 9.722081944346427917e-03 3.780056489631533623e-03 2.715267427265644073e-02 -1.295658643357455730e-03 1.863603107631206512e-02 5.231940187513828278e-03 1.142922043800354004e-02 -2.921961806714534760e-02 3.399564593564718962e-04 1.379485707730054855e-02 2.449861494824290276e-03 1.376601308584213257e-02 2.408809773623943329e-02 1.519612316042184830e-02 1.300351321697235107e-02 -1.450568903237581253e-02 1.503626164048910141e-02 -5.684353411197662354e-03 1.031564548611640930e-02 -1.794430078007280827e-03 6.213171873241662979e-03 -1.458913180977106094e-02 5.555664654821157455e-03 -5.393394269049167633e-03 -7.020640186965465546e-03 -1.561028789728879929e-02 5.040002521127462387e-03 8.108038455247879028e-03 -1.953621953725814819e-02 2.790401922538876534e-03 -3.385571017861366272e-02 -3.165757656097412109e-02 -3.004541248083114624e-02 -1.950806006789207458e-02 8.213225752115249634e-03 -1.318979449570178986e-02
-8.197609335184097290e-03 -1.520750951021909714e-02 1.700739935040473938e-02 -1.916832849383354187e-02 4.071541875600814819e-02 1.363452058285474777e-02 1.646702364087104797e-02 -1.384419016540050507e-02 2.252682670950889587e-02 -3.647728124633431435e-03 -2.554631419479846954e-02 2.272265730425715446e-03 -4.762325063347816467e-02 1.435135211795568466e-02 -4.644392058253288269e-03 2.486521378159523010e-02 1.914561167359352112e-02 -6.978507619351148605e-03 -1.314551569521427155e-02 1.181628182530403137e-02 1.318249758332967758e-02 -6.494039203971624374e-03 1.033713202923536301e-02 1.448407117277383804e-02 3.394708270207047462e-03 -1.081714034080505371e-02 1.169059332460165024e-02 2.199663035571575165e-02 -6.519252434372901917e-03 1.732203736901283264e-02 -2.765399590134620667e-02 1.161032170057296753e-02 2.896759659051895142e-02 -9.445882402360439301e-03 2.584049105644226074e-02 -1.127039734274148941e-02 -2.674325555562973022e-02 4.287667106837034225e-03 -1.656874828040599823e-02 1.803388260304927826e-02 6.411374546587467194e-03 -1.744796708226203918e-02 -2.296411548741161823e-04 9.030075743794441223e-03 -2.197221480309963226e-02 -5.527188535779714584e-03 -2.623584121465682983e-02 1.983274333178997040e-02 1.188817713409662247e-02 -2.124441042542457581e-02 1.383560523390769958e-02 2.161733992397785187e-02 2.109746448695659637e-02 -7.215765770524740219e-03 -5.496513098478317261e-03 3.721402585506439209e-02 2.065829001367092133e-02 1.005526445806026459e-02 -9.914583526551723480e-03 7.588812150061130524e-03 -6.917953491210937500e-03 2.560206316411495209e-02 2.868218906223773956e-02 -5.691230762749910355e-03 1.452079694718122482e-02 -2.072875760495662689e-02 3.942343592643737793e-02 -3.670156234875321388e-03 -1.541636534966528416e-03 -2.823834121227264404e-02 -2.304410189390182495e-02 1.891733333468437195e-02 -1.999902352690696716e-02 4.974638670682907104e-02 3.855561465024948120e-02 -2.513678511604666710e-03 1.577415503561496735e-02 -2.572369575500488281e-02 3.349914401769638062e-02 2.345749549567699432e-02 -1.337715331465005875e-02 8.236764930188655853e-03 -2.844751067459583282e-02 2.657438442111015320e-02 -1.631442457437515259e-02 8.025742135941982269e-03 -1.723167300224304199e-02 -3.816737979650497437e-02 1.003336743451654911e-03 -2.425436675548553467e-02 1.874667592346668243e-02 -1.511293742805719376e-02 1.833447022363543510e-03 1.789440028369426727e-02 2.488814853131771088e-02 1.269072946161031723e-02 2.047061361372470856e-02 3.594386577606201172e-02 -1.992330700159072876e-02 2.153645968064665794e-03 -4.266852140426635742e-02 2.523942093830555677e-04 1.366110146045684814e-02 4.909694194793701172e-03 -8.978676050901412964e-03 3.194155916571617126e-02 1.861252449452877045e-02 -5.400191526859998703e-03 -1.464903540909290314e-02 2.584730088710784912e-02 2.635840885341167450e-02 1.121315360069274902e-02 6.653554271906614304e-03 -1.292961067520081997e-03 2.389843808487057686e-03 -7.177500985562801361e-03 5.155944731086492538e-03 -7.433707360178232193e-03 3.963301889598369598e-03 -2.046846412122249603e-02 -3.681341418996453285e-03 1.293317507952451706e-02 5.968193989247083664e-03 2.363558672368526459e-02 1.152976136654615402e-02 1.465982850641012192e-02 1.519212592393159866e-02 1.125812157988548279e-02
-9.033458307385444641e-03 6.235553417354822159e-03 1.676841452717781067e-02 -5.301313474774360657e-03 2.504066936671733856e-02 6.702906638383865356e-02 1.103351078927516937e-02 2.276511862874031067e-03 3.872981294989585876e-02 8.918674662709236145e-03 -8.362291380763053894e-03 2.731702663004398346e-02 9.987330064177513123e-03 4.940903279930353165e-03 1.471984386444091797e-02 -1.438206620514392853e-02 -1.624367386102676392e-02 -1.733107119798660278e-02 9.437194094061851501e-03 -1.433174312114715576e-02 9.015645831823348999e-03 9.348046965897083282e-03 3.657566010951995850e-02 -7.940529845654964447e-03 -2.994865365326404572e-02 -2.610364183783531189e-02 -6.018223240971565247e-03 1.054088305681943893e-02 8.275425061583518982e-03 -2.192482165992259979e-02 3.034850768744945526e-02 1.292219571769237518e-02 7.673909422010183334e-03 2.780579030513763428e-03 -2.264552377164363861e-02 4.219116270542144775e-02 1.544112892588600516e-04 1.879112422466278076e-02 3.787545720115303993e-03 -2.082098647952079773e-02 2.153512462973594666e-02 -1.584574393928050995e-02 5.955409724265336990e-03 -4.173307213932275772e-03 3.598458319902420044e-02 -1.111778151243925095e-02 -9.652878157794475555e-03 1.349111367017030716e-02 1.377522572875022888e-02 -9.870884241536259651e-04 2.119310013949871063e-02 -1.941756810992956161e-03 -2.696610614657402039e-02 -9.969211183488368988e-03 -1.756427437067031860e-02 1.278977375477552414e-02 2.634143829345703125e-02 -2.733678556978702545e-02 -5.087573546916246414e-03 -3.100030357018113136e-03 -1.080354559235274792e-03 -7.014422677457332611e-03 -3.205953165888786316e-02 2.991765178740024567e-02 1.483797654509544373e-02 -1.265786960721015930e-02 1.051962841302156448e-02 5.498369224369525909e-03 2.592585980892181396e-02 -1.076874323189258575e-02 3.660550713539123535e-02 4.730941727757453918e-03 1.642753928899765015e-02 4.782614763826131821e-03 1.838675513863563538e-02 -2.401121519505977631e-02 1.757053285837173462e-02 -1.738432608544826508e-02 -4.757496528327465057e-03 1.201491709798574448e-02 6.520394701510667801e-03 7.480491884052753448e-03 6.425360217690467834e-03 6.231074221432209015e-04 3.048970829695463181e-03 -1.015856210142374039e-02 -6.393327377736568451e-03 4.891325253993272781e-03 -2.395826624706387520e-03 -5.097641143947839737e-03 7.160271983593702316e-03 3.065203875303268433e-02 3.368433192372322083e-02 6.826422177255153656e-03 -1.988425478339195251e-02 1.700646057724952698e-02 -1.261285855434834957e-03 4.789526760578155518e-02 -3.457548469305038452e-02 3.180762007832527161e-02 1.909702457487583160e-02 -2.963816560804843903e-02 7.149315439164638519e-03 -3.227622061967849731e-02 -1.817030832171440125e-02 -2.367798238992691040e-02 4.657973069697618484e-03 -1.988511718809604645e-02 5.481057451106607914e-04 2.673486946150660515e-03 -1.394401770085096359e-02 -1.918092370033264160e-02 -1.579106040298938751e-02 1.155024953186511993e-02 -3.272153809666633606e-02 1.065614819526672363e-02 -2.016673982143402100e-02 -3.577963681891560555e-03 3.930219262838363647e-02 7.819212041795253754e-03 -5.986115895211696625e-03 -1.953481696546077728e-02 -3.666120022535324097e-02 3.396297246217727661e-02 4.583491012454032898e-03 3.733139857649803162e-02 -2.140142722055315971e-03 5.167135037481784821e-03
4.020259156823158264e-02 1.205786317586898804e-02 -9.130259422818198800e-05 6.172947585582733154e-03 -6.191929336637258530e-03 5.979584157466888428e-02 -5.599637515842914581e-03 -2.829275839030742645e-02 -5.579378455877304077e-02 2.793054329231381416e-03 -1.562667451798915863e-02 4.952429980039596558e-02 1.518583018332719803e-02 -5.846201442182064056e-03 -4.899403546005487442e-03 1.074529346078634262e-02 8.049369789659976959e-03 8.878877386450767517e-03 6.671929266303777695e-03 8.991635404527187347e-03 5.575090646743774414e-03 -5.246122367680072784e-03 -2.597961761057376862e-02 -4.477168619632720947e-02 1.011773571372032166e-02 -3.093761764466762543e-02 1.642462424933910370e-02 -8.785832673311233521e-03 8.732686750590801239e-03 8.025907911360263824e-03 2.206324785947799683e-02 -2.592016570270061493e-02 -1.397057715803384781e-02 1.488712523132562637e-02 2.421247586607933044e-02 3.006475791335105896e-02 2.008560113608837128e-02 -1.803504116833209991e-02 -1.975779794156551361e-02 -2.451154403388500214e-02 7.117263507097959518e-03 -3.814683062955737114e-03 1.569555513560771942e-02 -2.770734578371047974e-02 1.054520905017852783e-02 -1.602245494723320007e-02 1.039903238415718079e-02 1.697806641459465027e-02 3.660500794649124146e-02 2.801226824522018433e-02 -3.038408420979976654e-02 2.803926123306155205e-03 -2.748027257621288300e-02 -1.753102429211139679e-02 -5.141844507306814194e-03 -7.060683518648147583e-02 8.155571296811103821e-03 2.997037023305892944e-03 -2.767542935907840729e-02 3.665834292769432068e-02 -7.715244777500629425e-03 3.318800032138824463e-02 -3.380359150469303131e-03 6.863187998533248901e-03 -2.214085496962070465e-02 9.462686255574226379e-03 4.198953043669462204e-03 -2.239475725218653679e-03 2.114781364798545837e-02 -1.161846611648797989e-02 -4.011965543031692505e-02 -6.709361914545297623e-03 -1.391817163676023483e-02 -5.491865798830986023e-03 1.319796778261661530e-02 -5.368071608245372772e-03 -2.779495669528841972e-03 3.024011291563510895e-02 -2.957150712609291077e-02 -6.639413069933652878e-03 -1.692655496299266815e-02 5.801334232091903687e-02 5.927386134862899780e-02 3.223516792058944702e-02 -9.603799320757389069e-03 -3.370197722688317299e-03 -8.962196297943592072e-03 -1.304993219673633575e-02 2.754505351185798645e-02 -2.879718691110610962e-02 1.095078419893980026e-02 -1.497866213321685791e-02 2.212631143629550934e-02 -2.442331984639167786e-02 -2.527819760143756866e-02 -2.070277184247970581e-02 -3.461452946066856384e-02 -1.276424527168273926e-02 1.565316505730152130e-02 -9.238098748028278351e-03 5.406052805483341217e-03 -1.338721998035907745e-02 3.527241351548582315e-04 3.643380105495452881e-02 -2.723882533609867096e-02 1.880071870982646942e-02 -4.256501048803329468e-02 -3.797909244894981384e-02 3.736243769526481628e-02 1.899881474673748016e-02 -1.879472658038139343e-02 -2.646957151591777802e-02 -4.224722459912300110e-02 3.688536956906318665e-02 -6.650620605796575546e-03 2.547974931076169014e-03 8.746786974370479584e-03 2.868785522878170013e-02 9.410274215042591095e-03 -3.386326879262924194e-02 -1.503087021410465240e-02 -1.185810659080743790e-02 -2.232005074620246887e-02 -2.291827462613582611e-03 -2.270122990012168884e-02 6.196481641381978989e-03 3.791628638282418251e-03 1.833511143922805786e-02
8.473470807075500488e-03 2.057116851210594177e-02 -2.516666427254676819e-02 -3.014920838177204132e-02 -5.834055598825216293e-03 -3.410269320011138916e-02 -1.803787192329764366e-03 -2.059799060225486755e-02 -1.535386685281991959e-02 9.006975218653678894e-03 1.836463809013366699e-02 2.080882526934146881e-02 -7.857470773160457611e-03 3.562300652265548706e-02 -2.478069812059402466e-02 1.193443778902292252e-02 6.760976277291774750e-03 8.208738639950752258e-03 2.060901559889316559e-02 -2.602092223241925240e-03 -1.581784524023532867e-02 -1.345113106071949005e-02 -1.600451208651065826e-02 -1.207653991878032684e-02 2.644800767302513123e-02 -2.038623020052909851e-02 -1.966203749179840088e-02 -1.181566249579191208e-02 -1.418979372829198837e-02 -2.943358151242136955e-03 2.476349472999572754e-02 -1.934083737432956696e-02 1.419534534215927124e-02 -1.491838041692972183e-02 3.165568923577666283e-03 2.236559428274631500e-02 2.632866613566875458e-02 -1.010176725685596466e-02 1.149982027709484100e-02 4.911519587039947510e-02 -2.017351798713207245e-02 3.886369289830327034e-03 -5.751672666519880295e-03 1.282052695751190186e-02 1.864174567162990570e-02 -9.496120619587600231e-04 -2.029609307646751404e-02 -3.074156492948532104e-02 2.803613198921084404e-03 2.610795758664608002e-02 -5.712301284074783325e-02 -1.178168971091508865e-02 -1.919291540980339050e-02 4.789197817444801331e-03 6.327761802822351456e-04 1.846901886165142059e-02 3.639463800936937332e-03 -3.485593572258949280e-02 -1.818873919546604156e-02 5.369817372411489487e-03 -9.350100532174110413e-03 1.212554983794689178e-02 1.242642104625701904e-02 -4.705413058400154114e-02 -1.571115292608737946e-02 2.020391635596752167e-02 -2.214438095688819885e-02 4.753515124320983887e-03 6.677185650914907455e-03 -5.893277004361152649e-03 -4.194866493344306946e-02 8.292286656796932220e-03 6.131991744041442871e-02 2.053785324096679688e-02 3.966144751757383347e-03 2.628254145383834839e-02 2.076539397239685059e-02 6.707209977321326733e-04 2.050256915390491486e-02 -1.890117768198251724e-03 2.836356498301029205e-02 5.397287313826382160e-04 8.337238978128880262e-05 -8.574181236326694489e-03 2.398433722555637360e-02 8.090063929557800293e-03 5.914243683218955994e-02 -2.775050001218914986e-03 -3.214089199900627136e-03 -1.425038184970617294e-02 -2.165776863694190979e-02 -1.877326890826225281e-02 -1.180267706513404846e-02 6.682291626930236816e-03 -1.641742512583732605e-02 -2.091906592249870300e-02 1.697842963039875031e-02 7.214244455099105835e-03 2.726694941520690918e-02 7.400000002235174179e-03 2.672252245247364044e-03 7.384415715932846069e-03 -1.541681867092847824e-02 -1.802260056138038635e-02 4.696504399180412292e-02 -1.712940260767936707e-02 5.644120275974273682e-03 5.648522637784481049e-03 -1.786249503493309021e-02 2.158427610993385315e-02 -2.766555547714233398e-02 -1.457888353615999222e-02 8.128421381115913391e-03 4.268987104296684265e-02 9.409476071596145630e-03 1.297342940233647823e-03 -1.733222417533397675e-02 5.806104280054569244e-03 3.207503585144877434e-03 2.203062735497951508e-02 -3.685858799144625664e-03 -2.404744550585746765e-02 3.646022826433181763e-02 -6.660942453891038895e-03 2.886103279888629913e-02 -1.950498297810554504e-02 -2.664547786116600037e-02 -9.805163368582725525e-03
-1.476017571985721588e-02 -2.267212979495525360e-02 3.035715036094188690e-02 9.625298902392387390e-03 -2.555408887565135956e-02 2.324953675270080566e-02 -1.786697655916213989e-02 8.275937288999557495e-04 2.396902069449424744e-02 1.892058923840522766e-02 1.863299682736396790e-02 -5.353660322725772858e-03 7.539830403402447701e-04 -6.268250755965709686e-03 -1.864575594663619995e-02 1.970208808779716492e-02 7.885329425334930420e-03 1.061427593231201172e-02 1.967913098633289337e-02 2.044099755585193634e-02 -6.874878890812397003e-03 2.937629632651805878e-02 1.835618540644645691e-02 3.328894451260566711e-02 -1.194464135915040970e-02 3.306663036346435547e-02 -6.060530897229909897e-03 -1.531282672658562660e-03 2.550114644691348076e-03 8.904247544705867767e-03 -5.739306099712848663e-03 -4.161284305155277252e-03 1.081953383982181549e-02 -2.667531929910182953e-02 -2.674243412911891937e-02 2.351895673200488091e-03 -8.349244482815265656e-03 6.114901625551283360e-04 3.676412254571914673e-02 -3.483437374234199524e-02 2.129088155925273895e-02 -1.992562785744667053e-02 3.497752128168940544e-03 -1.722270809113979340e-02 -5.013934802263975143e-03 2.241122536361217499e-03 -1.913569495081901550e-02 2.208502776920795441e-02 -3.503790870308876038e-02 -1.324041653424501419e-02 -3.072842024266719818e-02 -1.167589146643877029e-02 -1.727235130965709686e-02 -3.737175837159156799e-02 3.929354250431060791e-02 -2.374251745641231537e-02 -2.380456216633319855e-02 -1.199090853333473206e-02 2.182032726705074310e-02 6.210927385836839676e-04 2.104136906564235687e-02 -1.592927984893321991e-02 4.425722640007734299e-03 5.641745869070291519e-03 -1.867122761905193329e-02 1.140605565160512924e-02 -1.713762991130352020e-02 8.823639713227748871e-03 1.141173113137483597e-02 -5.490155890583992004e-02 2.021147683262825012e-02 -3.476697206497192383e-02 7.969624362885951996e-03 1.902628131210803986e-02 7.165966555476188660e-03 -2.285925857722759247e-02 -1.311536785215139389e-02 -2.043639868497848511e-02 1.888421922922134399e-02 1.649424806237220764e-02 -1.840442046523094177e-02 -1.111734844744205475e-02 -2.931903814896941185e-03 -7.098741363734006882e-03 -4.255966469645500183e-02 -2.983319200575351715e-02 -3.890966065227985382e-03 -3.215812612324953079e-03 7.798161095706745982e-05 -9.531828574836254120e-03 2.374211885035037994e-02 1.648995094001293182e-02 -1.324734557420015335e-02 1.565662445500493050e-03 1.490195747464895248e-02 -2.675160020589828491e-02 -3.122851252555847168e-02 -1.878119818866252899e-02 1.912616193294525146e-03 1.847385428845882416e-02 1.969595812261104584e-02 -8.015532046556472778e-03 4.370849113911390305e-03 2.309092786163091660e-03 -1.499323733150959015e-02 1.135087851434946060e-02 6.367988884449005127e-03 -8.655252750031650066e-04 -1.422350760549306870e-02 -2.001905441284179688e-02 2.375921234488487244e-02 -1.727961935102939606e-02 9.997480548918247223e-03 1.541642472147941589e-02 -9.714955464005470276e-03 -1.199874910525977612e-03 5.283301230520009995e-03 1.739695109426975250e-02 -8.116002427414059639e-04 1.325396168977022171e-02 -3.475838899612426758e-02 1.158774830400943756e-03 -3.144971281290054321e-02 1.838430995121598244e-03 1.246481784619390965e-03 2.220805548131465912e-02 1.610374893061816692e-03 -1.364225754514336586e-03
-3.324015298858284950e-03 -2.475142851471900940e-02 -9.414841420948505402e-03 -5.573443137109279633e-03 2.111178636550903320e-02 8.646575734019279480e-03 -2.622820250689983368e-02 -3.594996407628059387e-02 1.418913900852203369e-02 -1.226760353893041611e-02 4.984321817755699158e-02 -3.988690208643674850e-03 2.230975544080138206e-03 -8.384707383811473846e-03 1.012150850147008896e-02 2.215065620839595795e-02 1.873516663908958435e-02 -7.084523094817996025e-04 8.629814721643924713e-03 4.866508021950721741e-02 1.994039677083492279e-02 -1.142205949872732162e-02 2.766891568899154663e-02 -2.630323637276887894e-03 -1.984564960002899170e-02 2.328751422464847565e-02 -2.167202532291412354e-03 -1.416445709764957428e-02 1.126868743449449539e-02 -7.548843044787645340e-03 -3.385315462946891785e-02 -4.251906182616949081e-03 -2.209021942690014839e-03 2.608889946714043617e-03 3.746552765369415283e-02 -2.268164791166782379e-02 2.599751017987728119e-02 -7.750326301902532578e-03 -2.099777944386005402e-02 -1.894297637045383453e-02 -4.428298678249120712e-03 -2.715395204722881317e-02 6.571195553988218307e-03 -6.207275204360485077e-03 3.239456564188003540e-03 -1.759229786694049835e-02 1.762395724654197693e-02 1.572546921670436859e-02 2.257412858307361603e-02 -8.110483759082853794e-04 -1.793975383043289185e-02 3.605450328905135393e-04 6.209239829331636429e-03 -8.100481703877449036e-03 7.354916539043188095e-03 2.418609894812107086e-02 2.411121316254138947e-02 -1.541673857718706131e-02 2.726432308554649353e-02 4.108636453747749329e-02 2.465914748609066010e-02 -3.952788561582565308e-02 -2.605777233839035034e-02 1.048075873404741287e-02 -6.691012531518936157e-02 -1.584283076226711273e-03 -1.438121683895587921e-02 4.340223502367734909e-03 1.174268661998212337e-03 -6.364024709910154343e-03 3.302836418151855469e-02 2.462732791900634766e-02 2.191990986466407776e-02 -2.667952515184879303e-02 2.431170456111431122e-02 1.193973887711763382e-02 9.559939615428447723e-03 -2.109418995678424835e-02 -1.618113182485103607e-02 -1.797769963741302490e-02 3.992311656475067139e-02 -2.323484420776367188e-02 -1.529873721301555634e-02 2.376812277361750603e-03 -5.336122587323188782e-03 -2.632340416312217712e-02 9.636580944061279297e-03 1.232457626610994339e-02 9.735069237649440765e-03 4.617533646523952484e-03 -3.839062526822090149e-02 1.784450933337211609e-02 1.720961881801486015e-03 -7.764184381812810898e-03 1.507386378943920135e-02 4.419948160648345947e-02 6.954009179025888443e-03 -1.787124201655387878e-02 7.370568346232175827e-03 5.274159833788871765e-03 -3.874142654240131378e-03 2.540994994342327118e-02 6.952834082767367363e-04 -2.615823596715927124e-02 2.624832559376955032e-03 1.370193436741828918e-02 -9.821428917348384857e-03 3.061643987894058228e-02 -1.599089801311492920e-02 -4.867224022746086121e-03 5.920710042119026184e-03 1.667758077383041382e-02 4.122080653905868530e-02 1.102171838283538818e-02 1.002435944974422455e-02 -2.898427471518516541e-02 -4.192307242192327976e-04 -2.414364553987979889e-02 -1.723032630980014801e-02 -5.179036036133766174e-02 1.301632262766361237e-02 -2.253283746540546417e-02 -3.197181597352027893e-02 3.665580973029136658e-02 2.742449194192886353e-02 -3.211832046508789062e-02 -1.775719039142131805e-02 -3.034062497317790985e-02
-8.395249024033546448e-03 2.187906205654144287e-02 -1.166204921901226044e-02 -1.260453648865222931e-02 -1.933371182531118393e-03 -2.373203448951244354e-02 9.437136352062225342e-03 3.942931443452835083e-02 -1.848814263939857483e-02 -1.500833220779895782e-02 8.803226985037326813e-03 1.456816121935844421e-02 -3.356370329856872559e-02 6.088406313210725784e-03 1.620474085211753845e-02 2.933336189016699791e-03 -2.249953523278236389e-02 2.884253673255443573e-02 2.863584645092487335e-02 2.148010767996311188e-02 -5.773726385086774826e-03 -1.048031449317932129e-02 2.687329053878784180e-02 7.054205983877182007e-03 2.398498542606830597e-02 3.411671519279479980e-02 1.776305027306079865e-02 7.773814257234334946e-03 -3.722877427935600281e-02 3.033091872930526733e-02 -4.803489148616790771e-02 -1.401646714657545090e-02 6.221909541636705399e-03 1.262539625167846680e-02 1.734161190688610077e-02 1.412731409072875977e-02 -4.090147092938423157e-03 -2.597420662641525269e-02 -1.626107841730117798e-02 -4.804269410669803619e-03 2.942377328872680664e-02 6.072688382118940353e-03 2.726618945598602295e-02 -1.717606745660305023e-02 3.082031197845935822e-02 8.401529863476753235e-03 1.322691980749368668e-02 -3.130490705370903015e-02 3.835731372237205505e-02 -1.838585920631885529e-02 1.876044273376464844e-02 -7.694171275943517685e-03 4.018904268741607666e-02 1.646346971392631531e-02 -2.830547094345092773e-02 -3.310194611549377441e-02 -4.324808716773986816e-03 2.197136916220188141e-02 3.242858871817588806e-02 -3.107950091361999512e-02 1.452492643147706985e-02 -4.245404619723558426e-03 5.956969689577817917e-03 -2.309837564826011658e-02 6.698077544569969177e-03 -5.837789271026849747e-03 1.671419106423854828e-02 -1.997023634612560272e-02 -2.931629680097103119e-02 2.115454152226448059e-02 -1.187535375356674194e-02 1.350943057332187891e-05 1.616599969565868378e-02 1.052854396402835846e-02 -2.796280896291136742e-03 -9.012982249259948730e-03 -8.075836231000721455e-04 -2.883526310324668884e-02 -2.206257544457912445e-02 8.497925475239753723e-03 -1.425533741712570190e-02 2.085430780425667763e-03 3.336741030216217041e-02 2.351695299148559570e-02 -1.415466517210006714e-02 2.867116592824459076e-03 -2.103916555643081665e-02 1.603833772242069244e-02 -3.011256083846092224e-02 -6.650876719504594803e-03 2.366725821048021317e-03 -3.576894057914614677e-03 7.873481139540672302e-03 -1.491028256714344025e-02 -2.574373036623001099e-02 -4.509396851062774658e-02 3.528140857815742493e-02 -9.808421134948730469e-03 3.780708834528923035e-02 7.440282497555017471e-03 1.535293739289045334e-02 1.580604724586009979e-02 1.839365996420383453e-02 7.318180520087480545e-03 1.161312311887741089e-02 -2.736028749495744705e-03 -1.462689507752656937e-02 -4.922925494611263275e-03 -2.411089837551116943e-02 1.132623385637998581e-02 1.772950589656829834e-02 1.823494955897331238e-02 -2.153789997100830078e-02 1.729145087301731110e-02 1.650773920118808746e-02 -5.329195037484169006e-02 -7.632017601281404495e-03 -1.876425370573997498e-02 -6.604190915822982788e-03 -9.284717380069196224e-04 -2.895897626876831055e-02 1.324730645865201950e-02 -1.852273591794073582e-03 -1.909850351512432098e-02 1.552464812994003296e-02 7.667601574212312698e-03 1.085439044982194901e-02 4.086116794496774673e-03
