-1.680623739957809448e-02 -6.453080568462610245e-03 -6.739153061062097549e-03 3.834414761513471603e-03 -1.000492181628942490e-02 -2.683559618890285492e-02 8.163876482285559177e-04 1.380095258355140686e-02 7.130491547286510468e-03 2.578946202993392944e-02 5.198849248699843884e-04 -1.331300102174282074e-02 -2.026054076850414276e-02 -1.507561560720205307e-02 1.535971462726593018e-02 -1.990425586700439453e-02 -1.976498588919639587e-02 1.188901253044605255e-02 -8.608606643974781036e-03 1.597725041210651398e-02 -9.060196578502655029e-03 -3.155421838164329529e-02 -4.829323384910821915e-03 -2.362248115241527557e-02 6.900321226567029953e-03 1.920674555003643036e-02 3.390363184735178947e-03 1.553769409656524658e-02 6.274506449699401855e-03 1.774912327527999878e-02 -4.839855711907148361e-03 -2.060452708974480629e-03 -1.189353596419095993e-02 2.397288754582405090e-02 2.400372736155986786e-02 2.655621059238910675e-02 1.665983907878398895e-02 -5.444235634058713913e-03 -2.080474607646465302e-02 1.734928973019123077e-02 -2.937655895948410034e-02 6.461640354245901108e-03 -1.748808100819587708e-02 -1.610944792628288269e-02 -2.108888328075408936e-02 -1.697255484759807587e-02 -2.000885456800460815e-02 -3.084023483097553253e-03 3.286370262503623962e-02 -2.427752129733562469e-02 3.434660285711288452e-02 -9.567945264279842377e-03 -1.907359837787225842e-04 2.282683365046977997e-02 -2.192184142768383026e-02 1.305120903998613358e-02 -2.298712730407714844e-03 9.475459228269755840e-04 3.411649086046963930e-04 2.165202982723712921e-02 1.500368304550647736e-02 2.775348536670207977e-02 3.370918333530426025e-02 3.015736490488052368e-02 3.279394656419754028e-02 1.124253869056701660e-02 -2.688708156347274780e-02 -4.302619956433773041e-03 -4.367129877209663391e-02 -7.356376852840185165e-03 1.009829621762037277e-02 -2.114997617900371552e-02 8.212512359023094177e-03 2.536514401435852051e-02 -9.033491834998130798e-03 -1.822968013584613800e-02 -3.412707522511482239e-02 -9.960667230188846588e-03 -1.620070450007915497e-02 -2.032076154137030244e-04 -1.939172670245170593e-02 1.901172287762165070e-02 1.158847287297248840e-02 7.821870036423206329e-03 -2.655328065156936646e-02 -1.693366654217243195e-02 8.550317957997322083e-03 3.467850759625434875e-02 1.654391060583293438e-03 -1.642726361751556396e-02 1.359177939593791962e-02 -8.258127490989863873e-04 4.356942605227231979e-03 -1.423953007906675339e-02 7.910745218396186829e-03 3.515953198075294495e-02 8.340895175933837891e-03 -2.496364759281277657e-03 -2.319026738405227661e-02 1.254141563549637794e-03 -8.464505895972251892e-03 3.268501907587051392e-02 2.030944684520363808e-03 -1.600249297916889191e-02 -1.056837104260921478e-02 -2.118378644809126854e-03 2.704994985833764076e-04 -5.601332057267427444e-03 -8.065277710556983948e-03 3.561431774869561195e-03 -5.724329501390457153e-02 1.675343327224254608e-02 -1.676676236093044281e-02 1.331224851310253143e-02 -7.105846889317035675e-03 -1.026819180697202682e-02 -1.228706073015928268e-02 2.418325655162334442e-02 -1.559822913259267807e-02 2.251748554408550262e-02 2.068049833178520203e-02 2.501375228166580200e-02 2.000908553600311279e-02 -1.132454443722963333e-02 2.431257441639900208e-02 -2.183922799304127693e-03 1.847431808710098267e-02 -2.653418295085430145e-02
9.029497392475605011e-03 3.730036783963441849e-03 -9.534816257655620575e-03 -2.138579031452536583e-03 -1.149067375808954239e-02 2.648767782375216484e-03 1.543337106704711914e-02 1.156303752213716507e-02 -7.668500766158103943e-03 -5.616028327494859695e-03 -1.329860929399728775e-02 9.615199523977935314e-04 3.943320363759994507e-02 -2.781278267502784729e-02 -3.642702009528875351e-03 1.548421662300825119e-02 -1.379644591361284256e-02 -8.555119857192039490e-03 5.136984866112470627e-03 5.895981565117835999e-02 -7.805641740560531616e-03 2.204035967588424683e-02 -1.529793627560138702e-02 -4.017604514956474304e-03 2.380085177719593048e-02 3.531170310452580452e-03 1.574582047760486603e-02 2.432000619592145085e-04 1.621228456497192383e-02 3.261595964431762695e-02 -8.186815306544303894e-03 3.952987957745790482e-03 -9.047971107065677643e-03 2.563573606312274933e-02 4.592259880155324936e-03 1.262250635772943497e-02 1.282495819032192230e-02 -2.321715466678142548e-02 -2.863550093024969101e-03 3.668085485696792603e-02 -2.030708827078342438e-02 -2.978922985494136810e-02 -6.582559435628354549e-04 -1.543187629431486130e-02 4.749374464154243469e-03 -1.972838491201400757e-02 2.297863923013210297e-02 -3.111585788428783417e-02 3.023854643106460571e-02 2.689218707382678986e-02 1.212048064917325974e-02 1.748795621097087860e-02 -9.274986572563648224e-03 -1.804008707404136658e-02 -1.718572527170181274e-02 1.630489830859005451e-03 1.092112530022859573e-02 3.171444404870271683e-03 4.982182383537292480e-02 3.781513869762420654e-02 5.692104343324899673e-03 1.793861505575478077e-03 3.626847406849265099e-03 -5.261011421680450439e-02 -9.344173013232648373e-04 -2.756949141621589661e-02 -4.788800724782049656e-04 -2.595190145075321198e-02 8.298324537463486195e-04 1.056228484958410263e-02 4.692883230745792389e-03 2.592254802584648132e-02 3.587186336517333984e-02 1.144659705460071564e-03 3.215348988305777311e-04 -9.048909880220890045e-03 2.159556560218334198e-02 -2.412655577063560486e-02 -3.447466716170310974e-02 -4.402811825275421143e-02 -2.250847220420837402e-02 2.415628917515277863e-02 -1.943500526249408722e-02 4.831719771027565002e-02 5.125202238559722900e-02 -1.952814683318138123e-02 -1.883105188608169556e-02 -3.415347635746002197e-02 1.618163101375102997e-02 2.336746454238891602e-02 -4.421506449580192566e-02 -3.434093901887536049e-03 -1.949710655026137829e-03 -1.327016111463308334e-02 1.551236677914857864e-02 2.376727014780044556e-02 2.106681466102600098e-02 1.515728514641523361e-02 1.529204845428466797e-02 -1.117078121751546860e-02 -1.284586172550916672e-02 4.212728235870599747e-03 3.808100474998354912e-03 -2.929140813648700714e-02 1.981861703097820282e-02 -1.884979195892810822e-02 1.193296443670988083e-02 -9.040374308824539185e-03 -3.975363448262214661e-02 -2.549657225608825684e-02 2.050571702420711517e-02 -1.133977994322776794e-02 1.385332271456718445e-02 -1.122899632900953293e-02 -6.559345405548810959e-03 1.120946835726499557e-02 -3.348955512046813965e-02 -1.014081644825637341e-03 -2.240004576742649078e-02 1.433223765343427658e-02 -3.132968209683895111e-03 1.785404421389102936e-02 -3.570530330762267113e-03 -1.027494086883962154e-03 1.392531208693981171e-02 1.784491236321628094e-03 -1.867847703397274017e-02 -2.398251323029398918e-03
1.851638220250606537e-02 -4.230408929288387299e-03 -5.753959994763135910e-03 8.252249681390821934e-04 -1.209876965731382370e-02 1.872093975543975830e-02 2.959589101374149323e-02 -3.177016973495483398e-03 2.066936157643795013e-02 -1.142797060310840607e-02 2.898758836090564728e-02 -1.948238722980022430e-02 -1.125204935669898987e-02 -1.315641775727272034e-02 2.733500441536307335e-03 -3.130875155329704285e-02 -1.037606596946716309e-02 1.104099489748477936e-02 9.356972761452198029e-03 6.801126059144735336e-03 -6.742185796611011028e-04 3.503895131871104240e-03 -1.758549921214580536e-02 -1.944343000650405884e-02 2.571985498070716858e-02 -1.032020058482885361e-02 5.558960139751434326e-03 -1.451399084180593491e-02 -1.844570785760879517e-02 -2.964782994240522385e-03 -2.749967016279697418e-02 1.405964139848947525e-02 6.899813655763864517e-03 3.291442617774009705e-02 3.242364898324012756e-02 -2.984340675175189972e-02 6.800362840294837952e-03 7.085159886628389359e-03 -2.802382595837116241e-02 2.509348653256893158e-02 -1.063198223710060120e-02 1.642375602386891842e-03 -1.585899852216243744e-02 -2.160023897886276245e-03 -3.927906602621078491e-02 -1.956161111593246460e-03 -1.495248172432184219e-02 3.303425852209329605e-03 -2.199375256896018982e-02 3.234211122617125511e-03 4.098631907254457474e-03 -1.834245398640632629e-02 3.951590508222579956e-03 2.375962398946285248e-02 -9.706661105155944824e-03 -3.058437444269657135e-02 8.009432815015316010e-03 1.665639877319335938e-02 2.125606313347816467e-02 5.967093165963888168e-03 1.922704465687274933e-02 -1.793864369392395020e-02 7.790468167513608932e-03 -1.493516657501459122e-02 -1.482352241873741150e-02 -2.693043788895010948e-03 5.083085037767887115e-03 -2.159986272454261780e-02 4.566811397671699524e-02 -8.875992149114608765e-03 -1.692024618387222290e-02 -1.832501776516437531e-02 -4.206495359539985657e-03 -1.005925051867961884e-02 -1.236748322844505310e-02 2.187839895486831665e-02 1.692330278456211090e-02 2.098787762224674225e-02 1.509758085012435913e-02 2.902233600616455078e-02 1.838181167840957642e-02 -6.475214380770921707e-03 -1.692989468574523926e-02 -1.307657547295093536e-02 -2.192085236310958862e-02 1.998601946979761124e-03 2.155164256691932678e-03 -1.121546141803264618e-02 -8.598254993557929993e-03 4.702635481953620911e-02 1.969242468476295471e-02 1.399256940931081772e-02 5.082076881080865860e-03 2.632976695895195007e-02 -4.527978599071502686e-03 -1.678953319787979126e-02 6.283647846430540085e-03 -2.503499761223793030e-02 -7.830711081624031067e-03 9.499299339950084686e-03 2.784906513988971710e-02 -1.149559952318668365e-02 2.058689296245574951e-02 -8.006001822650432587e-03 8.265798911452293396e-03 1.482840278185904026e-03 4.305594041943550110e-02 7.268005516380071640e-03 -1.257965900003910065e-02 -2.415098436176776886e-02 1.570929889567196369e-04 1.067194156348705292e-02 1.680830679833889008e-02 -2.127947472035884857e-02 -1.564680249430239201e-03 -1.095120422542095184e-02 2.160443179309368134e-02 2.283352054655551910e-02 2.141474932432174683e-02 1.305278856307268143e-02 1.189568778499960899e-03 3.397910669445991516e-02 -2.611945150420069695e-03 -1.985402544960379601e-03 -1.271866168826818466e-02 -2.312365174293518066e-02 -1.703325309790670872e-03 -1.677365414798259735e-02
-4.765052348375320435e-03 2.966785337775945663e-03 1.646066084504127502e-02 -2.741508744657039642e-02 -1.965468376874923706e-02 2.498465403914451599e-02 -9.036752162501215935e-04 -1.626185327768325806e-02 -4.583960026502609253e-02 6.186874583363533020e-03 5.125589668750762939e-03 -7.056190818548202515e-02 -1.360304653644561768e-02 3.505591303110122681e-03 3.620092943310737610e-02 2.659817924723029137e-03 1.801549084484577179e-02 -2.599098661448806524e-04 1.701744855381548405e-03 -1.106314081698656082e-02 8.892426267266273499e-03 -1.128139067441225052e-02 9.583818726241588593e-03 5.149916280061006546e-03 2.120573073625564575e-02 2.508219704031944275e-02 3.925779368728399277e-03 -3.389686346054077148e-02 1.384969707578420639e-02 -2.141503803431987762e-02 1.284305937588214874e-02 2.783901290968060493e-03 -2.136057801544666290e-02 3.476836904883384705e-02 2.723772637546062469e-02 -5.904993158765137196e-04 -7.669329643249511719e-04 2.997391857206821442e-02 -5.119256209582090378e-03 1.864237338304519653e-02 8.055246435105800629e-03 5.286193918436765671e-03 -2.899820171296596527e-02 -1.270888745784759521e-02 2.346665784716606140e-02 2.360640652477741241e-02 2.385463798418641090e-03 2.913247980177402496e-02 -4.824740439653396606e-02 -6.465874612331390381e-03 2.927411906421184540e-02 1.736676879227161407e-02 -1.279420033097267151e-02 -9.617653675377368927e-03 1.941229030489921570e-02 -4.997123964130878448e-03 -1.782965473830699921e-02 1.896591298282146454e-02 -7.580298464745283127e-03 2.365648373961448669e-02 4.682495072484016418e-02 -1.403169799596071243e-02 2.599335089325904846e-02 -1.407142728567123413e-02 1.925292424857616425e-02 3.225226653739809990e-03 5.279820412397384644e-03 -2.536651864647865295e-02 -1.915101148188114166e-02 3.479770384728908539e-03 1.098422147333621979e-02 -8.182798046618700027e-04 9.177172556519508362e-03 2.264974638819694519e-03 -1.942256130860187113e-05 -2.251916192471981049e-02 -1.182342972606420517e-02 -1.958444342017173767e-02 1.556321792304515839e-02 -5.407275632023811340e-03 9.059678763151168823e-03 -3.782722726464271545e-02 1.616981928236782551e-03 2.788296155631542206e-02 -4.815067630261182785e-03 -3.536590561270713806e-02 6.041620858013629913e-03 -7.960403338074684143e-03 -1.779103465378284454e-02 -1.168272923678159714e-02 -6.739514879882335663e-03 3.387543186545372009e-02 7.774191442877054214e-03 -4.517495166510343552e-03 1.036559045314788818e-02 -1.073887478560209274e-02 -6.175729446113109589e-03 -1.657728850841522217e-02 1.885780133306980133e-02 -1.963939704000949860e-02 -1.060150563716888428e-02 -7.637793198227882385e-03 -7.628789171576499939e-03 -8.053421974182128906e-03 -1.079698652029037476e-02 -5.377433076500892639e-02 -1.049231830984354019e-02 5.242854822427034378e-03 6.251534447073936462e-03 2.924699708819389343e-02 -1.148490328341722488e-02 -3.786426782608032227e-02 3.927130997180938721e-02 -2.002076059579849243e-02 3.367331996560096741e-02 -1.416061446070671082e-02 -2.183890528976917267e-02 -1.725410670042037964e-02 -9.562053717672824860e-03 -6.468521896749734879e-03 3.766350820660591125e-02 8.791368454694747925e-03 1.915318518877029419e-02 -2.796870470046997070e-02 -2.543396875262260437e-02 -7.141632493585348129e-03 1.497243624180555344e-02 -3.901056188624352217e-04
-1.681339927017688751e-02 1.487132161855697632e-02 -1.748019084334373474e-02 -3.096792148426175117e-03 1.711986213922500610e-02 -1.516079064458608627e-02 1.194756757467985153e-02 1.785416714847087860e-02 -1.102231815457344055e-02 -1.152800023555755615e-02 -3.123547416180372238e-03 2.400031685829162598e-02 2.206099778413772583e-02 2.153524756431579590e-02 -2.753513120114803314e-02 3.051337227225303650e-02 7.809626404196023941e-03 4.515027161687612534e-03 5.758203100413084030e-03 2.376691997051239014e-02 2.166973799467086792e-02 -1.819146424531936646e-02 -2.028802991844713688e-04 -1.959248632192611694e-02 -1.729472540318965912e-02 -9.425405412912368774e-03 -9.070345200598239899e-03 -2.256340114399790764e-03 1.635229587554931641e-02 -2.504205331206321716e-02 -4.717205185443162918e-03 -9.686837904155254364e-03 2.111090347170829773e-02 1.097241695970296860e-02 9.041589219123125076e-04 -3.921351954340934753e-02 2.040982013568282127e-03 1.002587191760540009e-02 2.503377385437488556e-03 -3.728616237640380859e-02 -3.399550914764404297e-02 -2.123958803713321686e-02 3.111490746960043907e-03 -1.556325890123844147e-02 -4.270856268703937531e-03 -2.020930871367454529e-02 1.918498426675796509e-02 -3.350112959742546082e-02 -2.294133417308330536e-02 1.242610160261392593e-02 -5.964122712612152100e-03 -2.701852098107337952e-02 -6.565997842699289322e-03 8.471163921058177948e-03 -5.325231328606605530e-02 6.622214335948228836e-03 3.961441572755575180e-03 -1.025384478271007538e-02 -3.530216217041015625e-02 2.012155018746852875e-02 1.468613464385271072e-02 -9.249848313629627228e-03 2.443379256874322891e-03 -2.153310179710388184e-02 9.419119916856288910e-03 9.986522607505321503e-03 1.914806850254535675e-02 -3.644460067152976990e-02 -5.463520810008049011e-02 2.929527254309505224e-04 -4.665454104542732239e-02 2.448451705276966095e-02 2.583385817706584930e-02 -1.038159336894750595e-02 -9.454795508645474911e-04 3.885349258780479431e-02 -8.102757856249809265e-03 -1.788699626922607422e-02 -3.687142860144376755e-03 2.418337576091289520e-02 2.053084783256053925e-02 2.214407920837402344e-02 -3.018494322896003723e-02 -5.924402736127376556e-03 -8.592307567596435547e-04 -3.557474166154861450e-02 3.435233607888221741e-02 1.128281583078205585e-03 8.352117612957954407e-03 1.861156150698661804e-02 4.019257053732872009e-02 1.760312356054782867e-02 1.024362631142139435e-02 -1.047240011394023895e-02 7.574579212814569473e-04 3.757294267416000366e-02 1.486389804631471634e-02 -8.907672949135303497e-03 -9.309526649303734303e-05 5.894588772207498550e-03 -6.771593354642391205e-03 -2.788152545690536499e-03 -1.226869691163301468e-02 -1.128442003391683102e-03 -9.250145405530929565e-03 1.717455312609672546e-02 -3.323718532919883728e-02 -1.099745742976665497e-02 -1.277598831802606583e-02 1.475946046411991119e-02 -1.406480837613344193e-02 -3.093730658292770386e-02 1.500082667917013168e-02 -4.338040575385093689e-02 1.128340605646371841e-02 -3.349093347787857056e-02 -7.230752147734165192e-03 -1.936559006571769714e-02 8.911552722565829754e-04 -1.014780811965465546e-02 -1.300779450684785843e-02 2.216465398669242859e-02 -1.386102847754955292e-02 3.048585169017314911e-02 3.450505062937736511e-02 -1.504814345389604568e-02 -1.166636776179075241e-02 -3.374335914850234985e-02
-5.089002661406993866e-03 1.071102358400821686e-02 -2.097881957888603210e-02 -5.432286765426397324e-03 -4.775517154484987259e-03 -2.106817439198493958e-02 -2.490408020094037056e-03 -5.582085996866226196e-02 -5.764211993664503098e-03 7.248643320053815842e-03 -1.204064814373850822e-03 -3.428624942898750305e-02 4.166370723396539688e-03 -4.028822854161262512e-02 1.435008179396390915e-02 -4.548179358243942261e-02 1.450565550476312637e-02 2.170170471072196960e-02 -3.220594255253672600e-03 4.593010526150465012e-03 3.577744960784912109e-02 -1.464315596967935562e-02 7.081517949700355530e-03 -8.101877756416797638e-03 -1.012834440916776657e-02 -2.360817603766918182e-02 3.414976596832275391e-02 -1.829702779650688171e-02 2.813990926370024681e-03 1.832023635506629944e-02 -5.731859244406223297e-03 1.080254372209310532e-02 -1.105256192386150360e-02 -6.040203385055065155e-03 2.051188424229621887e-02 3.453045710921287537e-02 -6.228605750948190689e-03 1.080720964819192886e-02 4.032193217426538467e-03 -8.621602319180965424e-03 -3.456538170576095581e-02 -1.331891119480133057e-02 6.905279122292995453e-03 -2.712649106979370117e-02 -3.871484426781535149e-03 -4.280831664800643921e-02 9.410668164491653442e-03 4.088230431079864502e-02 -8.176376111805438995e-03 -8.631203323602676392e-03 -4.955313634127378464e-03 7.934502325952053070e-03 8.809388615190982819e-03 1.496358681470155716e-02 9.905067272484302521e-04 7.038019131869077682e-03 -9.393668733537197113e-04 1.441149972379207611e-03 5.181476473808288574e-03 1.560156699270009995e-02 1.958537101745605469e-02 -4.550052341073751450e-03 2.887914143502712250e-02 -2.744657732546329498e-02 8.140048012137413025e-03 9.442877955734729767e-03 1.624283567070960999e-02 -6.982573773711919785e-03 5.920288618654012680e-03 1.494027953594923019e-02 -2.843952504917979240e-03 -1.846274174749851227e-02 7.286285050213336945e-03 2.409364469349384308e-02 2.647269703447818756e-02 -1.108982786536216736e-02 -1.860832609236240387e-02 -8.389883674681186676e-03 -1.378956902772188187e-02 2.054414711892604828e-02 -3.627093392424285412e-04 -1.033908966928720474e-02 -6.836021784693002701e-03 -7.522267405875027180e-04 4.060917347669601440e-02 -2.201410010457038879e-02 1.403716043569147587e-03 1.328919641673564911e-02 4.743288736790418625e-03 2.680510655045509338e-02 -5.752995610237121582e-03 7.763514760881662369e-03 -2.499365806579589844e-02 -1.522640115581452847e-03 -2.238670550286769867e-02 9.008890017867088318e-03 -1.302922889590263367e-02 -4.332491662353277206e-03 1.136172283440828323e-02 -1.062706485390663147e-02 -9.912394918501377106e-03 2.117667347192764282e-02 -7.127145305275917053e-03 1.498254016041755676e-02 -6.402264535427093506e-02 -1.130388025194406509e-02 8.612087927758693695e-03 1.614220067858695984e-02 -4.820073081646114588e-05 -1.426659291610121727e-03 -1.983639597892761230e-02 -1.002264488488435745e-02 -8.511788910254836082e-04 6.572254002094268799e-03 -5.490509048104286194e-02 1.974950917065143585e-02 2.216055989265441895e-02 -1.619514450430870056e-02 2.157627046108245850e-02 -6.406988482922315598e-03 -2.907841838896274567e-02 -2.298569679260253906e-02 3.648810833692550659e-02 -7.607397157698869705e-03 -2.020411938428878784e-02 1.730280928313732147e-02 1.237536314874887466e-03 -1.393674965947866440e-02
2.027159184217453003e-02 -1.216601300984621048e-02 -1.413669902831315994e-02 1.596604846417903900e-02 -3.513482213020324707e-02 3.347296267747879028e-02 -1.340337470173835754e-02 6.297374056885018945e-05 -4.740820825099945068e-02 1.817769929766654968e-02 -2.129933983087539673e-02 1.053670607507228851e-02 3.317666053771972656e-02 3.900960145983844995e-04 1.793688908219337463e-02 1.599155925214290619e-02 1.430578995496034622e-02 -6.710542365908622742e-03 1.850966736674308777e-02 -3.411235986277461052e-03 -2.358500659465789795e-02 -1.428139768540859222e-02 -1.391911506652832031e-02 -1.632124185562133789e-02 2.490306831896305084e-02 2.127292752265930176e-02 -8.364725857973098755e-03 1.584959775209426880e-02 -3.123208135366439819e-02 -3.179403021931648254e-02 6.007870193570852280e-03 2.136087045073509216e-02 6.196885369718074799e-03 1.763487048447132111e-02 -1.615654863417148590e-02 1.704190485179424286e-02 3.714147023856639862e-03 -3.213009564206004143e-03 -1.908436231315135956e-02 -2.814524993300437927e-02 1.344324555248022079e-02 1.119807735085487366e-02 -4.171664640307426453e-02 8.993254974484443665e-03 -1.677797845331951976e-04 -8.817493915557861328e-03 1.369272172451019287e-02 -8.523088035872206092e-05 3.052186593413352966e-02 -2.292784489691257477e-02 -5.492108874022960663e-03 -1.160707231611013412e-02 -1.904276572167873383e-02 2.013272838667035103e-03 5.033327732235193253e-03 -1.058558840304613113e-02 2.808125689625740051e-02 1.357476413249969482e-02 1.376180350780487061e-02 -4.196735844016075134e-02 -2.483891439624130726e-04 -2.594351023435592651e-02 -2.008387073874473572e-02 3.426545113325119019e-02 -8.374704979360103607e-03 -4.510506615042686462e-02 8.843373507261276245e-03 3.641837090253829956e-02 -3.637769073247909546e-02 1.332784350961446762e-02 -2.580855041742324829e-02 -1.878776005469262600e-03 -3.183417394757270813e-02 -2.967877872288227081e-02 -1.254801079630851746e-02 3.313398046884685755e-04 -1.191646046936511993e-02 -1.629597682040184736e-04 -1.494914945214986801e-02 8.438132354058325291e-04 1.779473759233951569e-02 2.891758643090724945e-02 2.300554513931274414e-02 -2.106440719217061996e-03 2.631636336445808411e-02 2.994121983647346497e-02 -9.518497623503208160e-03 1.254605408757925034e-02 -3.597749164327979088e-03 -3.325119242072105408e-02 5.284729879349470139e-03 2.776571922004222870e-02 -1.982879452407360077e-02 3.040216118097305298e-02 -2.030593110248446465e-03 9.862929582595825195e-03 -1.982925087213516235e-02 -2.234884165227413177e-02 -1.434429455548524857e-02 8.150503039360046387e-03 -1.461498066782951355e-02 4.865371156483888626e-03 2.881367132067680359e-02 -1.160189136862754822e-02 1.240123528987169266e-02 -1.229953952133655548e-02 3.921340778470039368e-02 1.575705781579017639e-02 2.834310941398143768e-02 -4.941414576023817062e-03 9.364732541143894196e-03 -1.794325932860374451e-02 -9.342932142317295074e-03 -6.165637634694576263e-03 -3.517200797796249390e-02 -2.044822089374065399e-02 -5.216739140450954437e-03 -4.527584835886955261e-02 -6.825667340308427811e-03 -1.602949947118759155e-02 3.221063176169991493e-03 3.889448940753936768e-02 -2.017379924654960632e-02 -8.858376182615756989e-03 -3.661602735519409180e-02 -2.708437968976795673e-04 -3.691043332219123840e-02 -1.468306872993707657e-02
-9.673272259533405304e-03 1.498943846672773361e-02 2.921353280544281006e-02 2.794288564473390579e-03 2.730960398912429810e-02 -1.478702109307050705e-02 1.584420911967754364e-02 5.933699663728475571e-03 3.607869381085038185e-03 -4.257102310657501221e-02 1.088908314704895020e-02 1.793694309890270233e-02 -8.774005807936191559e-03 -1.945361262187361717e-03 -3.015951998531818390e-02 -3.743246570229530334e-02 -1.986012794077396393e-02 -1.827435800805687904e-03 1.230383012443780899e-02 2.244487218558788300e-02 3.990073222666978836e-03 2.248797193169593811e-02 1.860934868454933167e-02 2.234307676553726196e-02 -2.398856915533542633e-03 -1.208152342587709427e-02 5.138533562421798706e-02 -1.699006184935569763e-03 -1.647562533617019653e-02 -7.151108235120773315e-03 2.219190075993537903e-02 -8.048130199313163757e-03 1.465522334910929203e-03 -3.243984282016754150e-02 -3.232010640203952789e-03 -2.070206392090767622e-04 3.046837449073791504e-02 2.410661615431308746e-02 2.857088577002286911e-03 -2.309124730527400970e-02 -2.582479827105998993e-02 -3.011059947311878204e-02 3.818299388512969017e-03 1.350175309926271439e-02 -3.491542069241404533e-03 -8.150638081133365631e-03 -1.737718097865581512e-02 -9.495434933342039585e-04 2.374904975295066833e-02 -2.071832306683063507e-02 -5.197768565267324448e-03 -2.364822290837764740e-02 -1.818905211985111237e-02 -3.837365657091140747e-02 1.274670939892530441e-02 -7.094850763678550720e-03 1.655501837376505136e-04 8.983097039163112640e-03 3.630255348980426788e-03 2.678076364099979401e-02 9.199951309710741043e-04 -9.581248275935649872e-03 -1.253147376701235771e-03 2.741663902997970581e-02 -7.262340746819972992e-03 -1.418577274307608604e-03 3.046544734388589859e-03 1.540220691822469234e-04 -5.279053468257188797e-03 -2.048961631953716278e-02 -1.678680302575230598e-03 3.846077993512153625e-02 6.883106194436550140e-03 -1.398339285515248775e-03 -8.276850916445255280e-03 -2.430419437587261200e-02 1.278515905141830444e-03 7.007541134953498840e-03 2.393608354032039642e-02 -9.817439131438732147e-03 -1.768568297848105431e-03 -3.986481111496686935e-03 -2.658942015841603279e-03 -5.919802002608776093e-03 5.139527097344398499e-02 3.420125460252165794e-03 -9.223712841048836708e-04 1.664208807051181793e-02 1.941237365826964378e-03 -3.261172911152243614e-03 -3.541034087538719177e-02 3.513081755954772234e-04 -1.076244655996561050e-02 1.962899463251233101e-03 -2.377881295979022980e-02 -1.856886898167431355e-03 -3.525765240192413330e-02 -1.234808191657066345e-02 1.158650871366262436e-02 5.535725038498640060e-03 1.133229210972785950e-02 1.000845246016979218e-02 -3.975664731115102768e-03 -9.562305174767971039e-03 4.048245027661323547e-03 -1.456021796911954880e-02 3.307865187525749207e-02 -2.795036695897579193e-02 5.256839096546173096e-03 1.927130296826362610e-02 -1.482417900115251541e-02 3.636491298675537109e-02 -3.870615735650062561e-02 2.749500423669815063e-02 -1.273459289222955704e-02 -1.157513353973627090e-02 1.690459623932838440e-02 2.678414434194564819e-02 -5.724795162677764893e-03 2.308782562613487244e-02 -2.721609314903616905e-03 -1.111324876546859741e-02 -3.577593481168150902e-03 -1.487814169377088547e-02 3.246347978711128235e-02 -2.944084629416465759e-02 2.378894761204719543e-02 -1.554705668240785599e-02
-2.897508442401885986e-03 -8.811497129499912262e-03 -1.172967068850994110e-02 4.882025532424449921e-03 1.008973456919193268e-02 2.288233302533626556e-02 8.925816975533962250e-03 -4.411614313721656799e-02 -3.067694045603275299e-02 1.411431282758712769e-02 -4.306768253445625305e-02 3.053522296249866486e-02 -4.794564098119735718e-02 2.054704353213310242e-02 2.411165460944175720e-02 5.220730789005756378e-03 5.189111921936273575e-03 5.560775753110647202e-03 -1.331030018627643585e-02 6.261988077312707901e-03 -4.816811124328523874e-04 2.492527104914188385e-02 -4.018717631697654724e-02 -1.257684174925088882e-02 6.082414183765649796e-03 -2.590637654066085815e-02 -2.770778909325599670e-02 -2.919052541255950928e-02 -1.090399082750082016e-02 3.523713722825050354e-02 -2.203545346856117249e-02 -2.858280437067151070e-03 -2.393056079745292664e-02 2.562823519110679626e-02 1.116251223720610142e-03 4.766286816447973251e-03 -1.862130872905254364e-02 -1.617822796106338501e-03 -4.376228433102369308e-03 -1.437156274914741516e-02 -2.370410598814487457e-02 3.372680163010954857e-03 -1.622371957637369633e-03 -9.267832152545452118e-03 -3.522164747118949890e-02 1.129638496786355972e-02 6.967534311115741730e-03 -2.189210616052150726e-03 1.685293577611446381e-02 6.202154792845249176e-03 -3.056625835597515106e-02 -1.758242584764957428e-02 -3.191519528627395630e-02 -1.203542761504650116e-02 -1.529702357947826385e-02 1.844161190092563629e-02 -1.107009127736091614e-02 2.018319070339202881e-02 -6.034537032246589661e-02 2.567803021520376205e-03 -2.062744274735450745e-02 2.298678737133741379e-03 -1.107890624552965164e-02 -1.889439299702644348e-02 2.501356229186058044e-02 1.818062178790569305e-02 5.464407615363597870e-03 1.872253045439720154e-02 -4.658676218241453171e-03 1.943526603281497955e-02 -5.545228719711303711e-03 -1.602477952837944031e-02 -2.298265695571899414e-02 -1.725040376186370850e-02 -9.720831178128719330e-03 -1.924230717122554779e-02 1.023279409855604172e-02 1.485497318208217621e-02 1.682017114944756031e-03 2.062940225005149841e-02 1.248802896589040756e-02 -5.046446342021226883e-03 -1.647037640213966370e-02 -1.403590664267539978e-02 -1.996595039963722229e-02 2.847862243652343750e-02 5.011400580406188965e-02 -3.433036617934703827e-03 1.010734308511018753e-02 8.831822313368320465e-03 4.623057320713996887e-02 1.819136738777160645e-02 3.948062658309936523e-03 -1.764706894755363464e-02 -2.502767927944660187e-02 2.216303721070289612e-02 6.140922755002975464e-02 1.133828237652778625e-02 2.408544067293405533e-03 -1.704652234911918640e-02 -1.579687371850013733e-02 1.510220859199762344e-02 3.562969714403152466e-02 -1.658716239035129547e-02 2.531445771455764771e-02 1.579891704022884369e-02 4.704323783516883850e-02 1.363699790090322495e-02 -3.052156185731291771e-03 1.564531028270721436e-02 1.927516981959342957e-02 2.229507081210613251e-02 -1.737173460423946381e-02 2.845390327274799347e-02 -2.978261932730674744e-02 3.602663055062294006e-02 -1.713455282151699066e-02 1.271070819348096848e-02 4.910529125481843948e-03 -1.557615585625171661e-02 -3.511530905961990356e-02 -2.975542098283767700e-03 8.482223376631736755e-03 -1.497630123049020767e-02 -1.663512922823429108e-02 -3.278610110282897949e-02 -1.575885899364948273e-02 2.227655611932277679e-02
-1.406662445515394211e-02 1.470209471881389618e-02 5.074661970138549805e-02 -7.898387499153614044e-03 3.320372849702835083e-02 -8.295815438032150269e-03 2.537970244884490967e-02 -4.990314599126577377e-03 -5.037045478820800781e-02 -8.817631751298904419e-03 -1.744306460022926331e-02 7.895428687334060669e-03 4.876746330410242081e-03 -1.001097913831472397e-02 -1.982816681265830994e-02 2.495012478902935982e-03 1.037118770182132721e-02 1.094916928559541702e-02 8.465222199447453022e-04 2.768773352727293968e-03 -3.694360703229904175e-02 -3.187357634305953979e-02 -1.682330295443534851e-02 -3.707055468112230301e-03 1.790829375386238098e-02 2.225694432854652405e-02 1.598935574293136597e-02 -9.756430983543395996e-03 -8.269729092717170715e-03 -1.617339439690113068e-02 2.126459591090679169e-02 2.029483579099178314e-02 9.063809178769588470e-03 4.715925315394997597e-04 2.873963676393032074e-03 -1.090479199774563313e-03 -3.947200253605842590e-03 4.080777987837791443e-02 2.527812030166387558e-03 9.713615290820598602e-03 2.616288512945175171e-02 -2.040412649512290955e-02 -3.051282092928886414e-02 -6.898808293044567108e-03 -1.354186702519655228e-02 -2.125842124223709106e-02 -2.468269504606723785e-02 -1.952513493597507477e-02 -6.013058125972747803e-03 -1.041475962847471237e-02 8.490857668220996857e-03 -1.487430278211832047e-02 1.084727933630347252e-03 1.572150737047195435e-02 -2.838024124503135681e-02 -7.325393613427877426e-03 1.085455249994993210e-02 -1.450337283313274384e-02 -7.363968994468450546e-03 9.749811724759638309e-04 -1.024582330137491226e-02 -2.411988750100135803e-02 7.030417211353778839e-03 -4.969285801053047180e-04 -7.763893809169530869e-03 2.065996872261166573e-03 -1.640008017420768738e-02 -1.205291133373975754e-02 -1.551712863147258759e-02 -3.703495115041732788e-02 2.622724743559956551e-03 3.653904190286993980e-03 9.066229686141014099e-03 -4.200556501746177673e-02 1.631842181086540222e-02 -1.735533401370048523e-02 2.580582536756992340e-02 3.700186498463153839e-03 2.998601645231246948e-02 2.781287766993045807e-04 -2.354588173329830170e-02 -3.101819194853305817e-02 3.094296343624591827e-02 1.116387546062469482e-02 -1.343157701194286346e-02 1.734418980777263641e-02 -3.182607889175415039e-02 -1.850727200508117676e-02 2.523250691592693329e-02 -1.269119139760732651e-02 -3.748781234025955200e-02 -3.801900148391723633e-02 -7.999125868082046509e-03 -5.158174317330121994e-03 -2.206100709736347198e-02 -1.922477968037128448e-02 2.662534639239311218e-02 -4.415486752986907959e-02 -2.111664041876792908e-02 2.066620625555515289e-02 -2.494883909821510315e-02 1.419482752680778503e-02 -8.583990857005119324e-03 -1.014789566397666931e-02 2.278842218220233917e-02 1.004753913730382919e-02 -3.743486013263463974e-03 1.389256771653890610e-02 1.685259118676185608e-02 3.718614578247070312e-02 -1.274530217051506042e-02 4.560609813779592514e-03 1.542552467435598373e-02 7.419922621920704842e-04 -1.258319616317749023e-02 -5.957297049462795258e-03 1.157678663730621338e-03 1.000403426587581635e-02 -2.581790648400783539e-02 -1.036764867603778839e-02 1.506734918802976608e-02 2.522579580545425415e-02 3.010838665068149567e-02 2.973852492868900299e-02 5.404225550591945648e-03 -9.342672303318977356e-03 -6.195393856614828110e-03 -1.973075047135353088e-02
3.373551880940794945e-03 1.542657800018787384e-02 -6.791233085095882416e-03 -2.510201930999755859e-02 1.152101624757051468e-02 -4.314145073294639587e-02 -1.008491031825542450e-02 2.912705065682530403e-03 -1.249578897841274738e-03 3.755735233426094055e-02 2.575992373749613762e-03 -1.487182453274726868e-02 9.492160752415657043e-04 1.791697693988680840e-03 -2.307007461786270142e-02 2.441540174186229706e-02 -1.033768244087696075e-02 -1.067253481596708298e-02 7.559374789707362652e-04 2.474905736744403839e-02 3.063368983566761017e-02 -9.418704546988010406e-03 -2.145799063146114349e-02 -1.511425618082284927e-02 5.107086617499589920e-03 -1.183607382699847221e-03 3.082309849560260773e-02 3.911348991096019745e-03 1.688549667596817017e-02 -1.790112629532814026e-02 -1.607361994683742523e-02 2.560721896588802338e-02 -1.998825557529926300e-02 -3.947506472468376160e-02 -1.157422550022602081e-02 -1.114965416491031647e-02 7.063683588057756424e-03 1.130605675280094147e-02 1.025292905978858471e-03 -2.302620746195316315e-02 4.964898526668548584e-02 -2.124885097146034241e-02 1.268925424665212631e-02 1.969675906002521515e-02 -3.763897344470024109e-02 2.092256769537925720e-02 -8.427753113210201263e-03 6.086889654397964478e-02 -1.922555454075336456e-02 1.248765643686056137e-02 -3.051093593239784241e-02 -1.070224586874246597e-02 -6.774963811039924622e-03 -2.045207656919956207e-02 4.820993635803461075e-03 4.493289068341255188e-02 -5.224241409450769424e-03 -1.616665162146091461e-02 -1.845542341470718384e-02 -1.918268203735351562e-02 -1.005003321915864944e-02 4.986402764916419983e-02 -1.526065869256854057e-03 2.557177282869815826e-02 1.356054656207561493e-02 1.594973169267177582e-02 -2.193805202841758728e-02 -7.864418439567089081e-03 3.818467259407043457e-02 9.368787519633769989e-03 -4.205716308206319809e-03 -2.258226834237575531e-02 2.209153771400451660e-02 2.340962644666433334e-03 2.247339859604835510e-02 -1.287903171032667160e-02 -2.256279438734054565e-02 -1.899868249893188477e-02 -3.500553220510482788e-02 1.542533282190561295e-02 4.122044891119003296e-02 -1.103161741048097610e-02 9.170047007501125336e-03 -1.791900582611560822e-02 5.386609118431806564e-03 9.462860412895679474e-03 -1.166997198015451431e-02 3.122027963399887085e-02 3.833607304841279984e-03 2.371384389698505402e-02 1.254880800843238831e-02 5.007067695260047913e-03 1.361695397645235062e-02 2.467835322022438049e-02 2.612892165780067444e-02 8.130284957587718964e-03 2.995327580720186234e-03 1.200551632791757584e-02 7.413017563521862030e-03 -3.121207095682621002e-02 1.293373201042413712e-02 -3.964932262897491455e-02 5.827041342854499817e-03 1.712094433605670929e-02 9.643918834626674652e-03 4.524482879787683487e-03 4.419805482029914856e-03 -1.996709732338786125e-03 -1.920264773070812225e-02 4.396733269095420837e-02 5.538534838706254959e-03 1.374422851949930191e-02 1.652168110013008118e-02 -2.105129242409020662e-04 2.385782310739159584e-03 -1.669022068381309509e-02 7.427302654832601547e-03 -2.018977515399456024e-02 6.644225679337978363e-03 2.843283675611019135e-02 1.843030937016010284e-02 -4.481529444456100464e-02 5.610766820609569550e-03 -2.286057919263839722e-02 3.980177454650402069e-03 -4.347831010818481445e-03 1.281124074012041092e-02 7.248932495713233948e-03
5.148476921021938324e-03 -2.941603772342205048e-02 -7.635737303644418716e-03 -3.624171018600463867e-03 -6.027132621966302395e-04 1.618294604122638702e-02 -2.658415213227272034e-02 4.207926243543624878e-02 -5.407369229942560196e-03 -2.870635688304901123e-02 1.031706109642982483e-02 1.112098805606365204e-02 3.710740944370627403e-03 7.338371593505144119e-03 -2.144980058073997498e-02 -5.037092417478561401e-02 2.653683908283710480e-02 -2.611692994832992554e-02 4.517347086220979691e-03 -7.023851503618061543e-04 -3.591604530811309814e-02 3.487798944115638733e-02 2.167867124080657959e-02 1.371025200933218002e-02 -1.804161630570888519e-02 -2.612223103642463684e-02 2.439833991229534149e-02 1.309185381978750229e-02 -2.393857017159461975e-02 1.960807945579290390e-03 -1.621130853891372681e-02 9.080871823243796825e-04 -1.428956817835569382e-02 -2.533672191202640533e-02 -2.397464215755462646e-02 -2.202924573794007301e-03 -8.253750391304492950e-03 9.665281395427882671e-04 2.288152649998664856e-02 1.808944344520568848e-02 4.373918287456035614e-03 1.422131154686212540e-02 1.558628212660551071e-02 9.423587471246719360e-03 -1.465654186904430389e-02 6.001543719321489334e-03 -2.039498835802078247e-02 -1.482563745230436325e-02 -3.999349661171436310e-03 -1.387023460119962692e-02 7.989466539584100246e-04 1.199815236032009125e-02 1.404514629393815994e-02 1.289735897444188595e-03 -2.682131249457597733e-03 7.659838069230318069e-03 7.094055879861116409e-03 -1.369366305880248547e-03 1.915435655973851681e-03 2.492051944136619568e-02 1.489464845508337021e-02 -3.209554124623537064e-03 3.023388981819152832e-02 -1.125869620591402054e-02 2.236017899122089148e-04 1.429956965148448944e-02 -5.645045544952154160e-03 1.251658890396356583e-02 1.893489621579647064e-02 2.366007771342992783e-03 1.394629216520115733e-04 9.337497875094413757e-03 6.633599754422903061e-03 1.879854686558246613e-02 -1.812248839996755123e-03 -2.828087657690048218e-02 -1.709816418588161469e-02 -2.789977565407752991e-02 1.666412805207073689e-03 -7.711835205554962158e-03 3.524600341916084290e-02 -2.634087204933166504e-02 -1.929977163672447205e-02 5.652543623000383377e-03 1.083751674741506577e-02 -6.779256509616971016e-04 -7.958534988574683666e-04 -2.376633882522583008e-02 -6.978003773838281631e-03 2.537138294428586960e-03 4.595809616148471832e-03 -2.434417983749881387e-04 -3.556995885446667671e-03 3.853988647460937500e-02 -2.249332889914512634e-02 2.162100188434123993e-02 -2.763762325048446655e-02 4.582148510962724686e-03 2.871864102780818939e-02 -2.197921648621559143e-02 4.171862453222274780e-02 1.235373597592115402e-02 -3.295762836933135986e-02 3.013506066054105759e-03 2.220847178250551224e-03 -6.095251534134149551e-03 1.917095622047781944e-03 -9.790778160095214844e-03 -1.178249367512762547e-03 -2.444917708635330200e-02 2.036764752119779587e-03 -1.009836141020059586e-02 2.119882591068744659e-02 -2.503934875130653381e-02 1.771944761276245117e-02 2.729610912501811981e-02 -1.689668186008930206e-02 1.041884534060955048e-02 6.599416024982929230e-03 2.371902018785476685e-02 3.585341572761535645e-02 2.372679114341735840e-02 2.738254331052303314e-02 2.338922955095767975e-02 -1.801150105893611908e-02 1.661490462720394135e-02 -4.695738665759563446e-03 -5.656070075929164886e-03
3.617369756102561951e-02 7.149715442210435867e-03 7.715430576354265213e-03 1.799518242478370667e-02 2.226106077432632446e-02 4.867858253419399261e-03 8.961557410657405853e-03 -2.046780847012996674e-02 -7.726556621491909027e-03 1.022148318588733673e-02 -4.240673035383224487e-02 -1.344644115306437016e-03 -2.671515569090843201e-02 4.671539645642042160e-03 6.159949698485434055e-04 1.898254081606864929e-02 9.340770542621612549e-03 -1.515712961554527283e-02 3.853646107017993927e-03 1.438393350690603256e-02 5.052235350012779236e-02 -1.946073770523071289e-02 2.225413732230663300e-02 2.861513011157512665e-02 1.431399723514914513e-03 -1.809890940785408020e-02 2.092382311820983887e-02 -3.663439070805907249e-03 -1.942244544625282288e-02 -2.414267696440219879e-02 1.046552788466215134e-02 5.023348610848188400e-03 1.843202672898769379e-02 -2.004295773804187775e-02 7.783357519656419754e-03 -1.706670783460140228e-02 1.486070360988378525e-02 2.395888231694698334e-02 8.197533898055553436e-03 3.155339881777763367e-02 4.993026331067085266e-02 5.496690049767494202e-03 8.838036097586154938e-03 -4.812670126557350159e-02 -4.960031248629093170e-03 1.647108793258666992e-02 -1.161824818700551987e-02 2.173413150012493134e-02 2.224412374198436737e-02 1.529834233224391937e-02 4.093652963638305664e-02 -3.381412476301193237e-03 2.537171356379985809e-02 8.874266408383846283e-03 -3.402536362409591675e-02 -1.377672515809535980e-02 2.183296903967857361e-02 1.814944669604301453e-02 -2.679930627346038818e-02 1.017385907471179962e-02 -3.635822609066963196e-02 -3.370314091444015503e-02 -5.997006781399250031e-03 2.934100292623043060e-02 2.980997785925865173e-02 1.252036821097135544e-02 -1.114579010754823685e-02 -1.522348844446241856e-03 -2.292094565927982330e-02 -4.960669321008026600e-04 6.754455622285604477e-03 -7.521723862737417221e-03 -8.515244349837303162e-03 1.344643160700798035e-02 -1.609645970165729523e-02 -1.406027283519506454e-02 4.142950288951396942e-03 -1.421646680682897568e-02 -5.266278982162475586e-03 6.335693411529064178e-03 6.170862819999456406e-03 3.507055342197418213e-03 -1.959932036697864532e-02 -2.413054369390010834e-02 -3.540783002972602844e-02 2.604423789307475090e-03 2.387772779911756516e-03 -2.629385702311992645e-02 -1.102564390748739243e-02 7.209512870758771896e-03 -2.657775022089481354e-02 1.844889111816883087e-02 1.236042845994234085e-02 5.595719814300537109e-02 1.280881837010383606e-02 1.540039945393800735e-02 8.111432194709777832e-03 -1.788874715566635132e-02 1.462659705430269241e-02 7.247714325785636902e-03 -1.840521581470966339e-02 -1.033900398761034012e-02 1.137853041291236877e-02 -5.214375257492065430e-02 -4.978356882929801941e-03 8.218479342758655548e-03 -1.503197196871042252e-02 7.611342705786228180e-03 -4.841728508472442627e-02 1.063658110797405243e-02 -5.564516410231590271e-02 -9.543140418827533722e-03 -1.252789143472909927e-02 2.242325432598590851e-02 2.478854916989803314e-02 6.060830317437648773e-03 3.815874084830284119e-02 4.952514078468084335e-03 1.721628382802009583e-02 -1.863416098058223724e-02 2.220717445015907288e-02 5.681542679667472839e-03 3.314692294225096703e-03 1.752167940139770508e-02 -1.426044292747974396e-02 8.550971746444702148e-03 3.504489734768867493e-02 -1.970226177945733070e-03
-5.702429451048374176e-03 4.098104685544967651e-02 -3.478097543120384216e-02 -4.527602344751358032e-03 3.222731873393058777e-02 -6.516061257570981979e-03 -1.248377282172441483e-02 -2.288604900240898132e-02 -5.723331496119499207e-02 -3.465718356892466545e-03 3.920821007341146469e-03 -2.153882756829261780e-02 -1.724502258002758026e-02 1.204347237944602966e-02 -6.277689710259437561e-03 2.012340538203716278e-02 -4.116556420922279358e-02 3.272991254925727844e-02 -2.519473433494567871e-02 -2.956965379416942596e-02 7.238284219056367874e-03 -3.168591763824224472e-03 3.420530632138252258e-02 -2.169515006244182587e-02 -2.132075373083353043e-03 -2.661402337253093719e-02 2.650838159024715424e-02 9.495689533650875092e-03 2.089253440499305725e-02 -3.089784272015094757e-02 1.142494659870862961e-02 2.303816936910152435e-02 -2.343379193916916847e-03 8.800341747701168060e-03 -3.535337746143341064e-02 -9.193691425025463104e-03 1.076911343261599541e-03 7.107360754162073135e-03 -4.622577503323554993e-02 -1.816366426646709442e-02 -2.984951250255107880e-02 -7.666628342121839523e-03 -3.133480669930577278e-03 7.393912412226200104e-03 -1.178510021418333054e-02 -2.099180221557617188e-02 -6.756079848855733871e-03 3.763321042060852051e-02 7.732636760920286179e-03 3.027843497693538666e-02 2.816348709166049957e-02 -3.945004940032958984e-02 2.097999677062034607e-02 3.177073225378990173e-02 -4.084798973053693771e-03 4.698319826275110245e-03 -1.909796893596649170e-02 -1.185542065650224686e-02 8.542575873434543610e-03 1.092646084725856781e-02 2.836330793797969818e-02 -5.591470748186111450e-02 2.323808381333947182e-03 5.382210481911897659e-03 -3.339321911334991455e-02 -3.412719815969467163e-02 -1.557848416268825531e-03 1.739001646637916565e-02 -3.648209199309349060e-02 2.298300899565219879e-02 -4.299402236938476562e-02 -7.675046566873788834e-03 -7.613389752805233002e-03 1.120986230671405792e-02 -3.490430489182472229e-02 1.365459430962800980e-02 -7.105851080268621445e-03 2.216925285756587982e-02 2.281645499169826508e-02 6.579267792403697968e-03 2.846733480691909790e-02 -2.400547638535499573e-02 2.164890244603157043e-02 5.473970435559749603e-03 1.738928025588393211e-03 9.198795072734355927e-03 2.252013236284255981e-02 1.784049533307552338e-02 -1.959067955613136292e-02 -2.359157428145408630e-02 -1.368689723312854767e-02 -8.912620134651660919e-03 1.913338340818881989e-02 -1.948907598853111267e-02 1.541423052549362183e-02 -2.258470468223094940e-02 -1.294346153736114502e-02 -3.393438830971717834e-02 4.520416259765625000e-03 2.400936745107173920e-02 1.074868440628051758e-02 2.114088973030447960e-03 9.551448747515678406e-03 -1.095223147422075272e-02 2.593738771975040436e-02 -1.192336995154619217e-02 -3.571942448616027832e-03 -2.227373421192169189e-03 1.723071746528148651e-02 -1.520120771601796150e-03 -1.503340527415275574e-02 4.253075644373893738e-02 3.497774526476860046e-02 -3.279296681284904480e-02 2.653067000210285187e-02 1.848347834311425686e-03 7.454797625541687012e-03 2.300844062119722366e-03 3.406759118661284447e-03 2.039296552538871765e-02 6.000176537781953812e-03 -7.760008331388235092e-03 2.376673184335231781e-02 -1.456931885331869125e-02 -2.888874523341655731e-02 -5.190978758037090302e-03 2.785282395780086517e-02 3.339024260640144348e-04
1.882170140743255615e-02 4.522364120930433273e-03 -8.998242206871509552e-03 -2.691796422004699707e-02 6.427871435880661011e-02 -1.275634579360485077e-02 -5.438739317469298840e-04 -1.590737514197826385e-02 2.026483416557312012e-02 -1.758652552962303162e-02 -7.930434308946132660e-03 1.243885979056358337e-02 -2.888078615069389343e-02 5.992102436721324921e-03 -1.442878134548664093e-02 1.588049344718456268e-02 5.225394852459430695e-03 3.432020917534828186e-02 4.188302438706159592e-03 -1.629462814889848232e-03 -1.213291008025407791e-02 1.130472519434988499e-03 3.120814450085163116e-02 6.293341983109712601e-03 3.789003007113933563e-03 3.413134720176458359e-03 -1.534984167665243149e-02 1.844745129346847534e-02 1.120271626859903336e-02 9.257455356419086456e-03 3.069438505917787552e-03 2.684757485985755920e-02 7.741303648799657822e-03 4.948322847485542297e-02 2.894612960517406464e-02 9.426239877939224243e-03 -1.338532660156488419e-02 -2.194570936262607574e-02 3.383631119504570961e-03 7.203642744570970535e-03 3.105867363046854734e-04 -3.139035310596227646e-03 -1.789551042020320892e-02 -6.596255116164684296e-03 7.467714603990316391e-03 1.296494156122207642e-03 4.487401992082595825e-02 2.585401525720953941e-03 -1.480229012668132782e-02 5.470766685903072357e-03 2.484537474811077118e-02 -3.617905452847480774e-02 4.954053461551666260e-02 -1.480443403124809265e-02 -1.765228435397148132e-02 1.497990917414426804e-02 5.873333662748336792e-03 5.749859847128391266e-03 -1.219640206545591354e-02 2.915267646312713623e-02 3.267635405063629150e-02 -1.333172433078289032e-02 -4.998595919460058212e-03 -2.127260155975818634e-02 -3.209553193300962448e-03 -2.024481818079948425e-02 5.158074200153350830e-04 1.038443006109446287e-04 1.344352681189775467e-02 1.188515592366456985e-02 -9.038618765771389008e-03 -3.741576510947197676e-04 1.461191382259130478e-02 7.487407885491847992e-03 -1.239298749715089798e-02 -3.249688073992729187e-03 -1.692763715982437134e-02 1.761144772171974182e-02 3.117956779897212982e-02 -9.136879234574735165e-04 6.185647100210189819e-03 1.025717984884977341e-02 1.527589978650212288e-03 1.093001477420330048e-02 -4.384767729789018631e-03 -1.602554880082607269e-02 -6.492411252111196518e-03 1.703378185629844666e-02 1.209081243723630905e-02 5.727631505578756332e-03 2.393817156553268433e-02 -1.038195448927581310e-03 1.208400726318359375e-02 5.947354249656200409e-03 -2.548554912209510803e-02 -6.714065093547105789e-03 -2.994350390508770943e-03 4.621062800288200378e-02 2.666803076863288879e-02 -1.584761776030063629e-02 2.197757177054882050e-02 -2.226614020764827728e-02 3.871509106829762459e-03 -4.581668414175510406e-03 -2.525859745219349861e-03 -9.136346168816089630e-03 -4.581817891448736191e-03 3.697707131505012512e-02 -2.440186776220798492e-02 -1.790073327720165253e-02 3.242015838623046875e-02 1.004914939403533936e-02 4.481216147541999817e-02 9.519129991531372070e-03 8.457002229988574982e-03 -2.321552950888872147e-03 -4.632778465747833252e-03 -1.632148027420043945e-02 3.484896942973136902e-02 -2.934217453002929688e-02 -1.411971985362470150e-03 -4.140946269035339355e-02 -9.821755811572074890e-03 -3.540512546896934509e-02 -3.351039439439773560e-02 2.062616124749183655e-02 2.045303769409656525e-02 2.637470839545130730e-03
-5.322414916008710861e-03 1.290110778063535690e-02 -1.363627519458532333e-02 2.487728744745254517e-02 -9.227494709193706512e-03 1.681990921497344971e-02 -2.327024377882480621e-02 -2.155622839927673340e-02 4.083815496414899826e-03 -3.450313583016395569e-02 -1.621824456378817558e-03 2.483602985739707947e-02 3.581254929304122925e-02 -1.311882864683866501e-03 -3.651358187198638916e-02 -1.781876198947429657e-02 1.166070066392421722e-02 6.891782861202955246e-03 -2.393789216876029968e-02 5.256659351289272308e-03 -3.452670201659202576e-02 2.395543828606605530e-02 2.951105311512947083e-02 -1.333164330571889877e-02 -3.825363144278526306e-02 3.499952843412756920e-03 9.840948507189750671e-03 1.964677125215530396e-02 -1.730763167142868042e-02 -2.894577756524085999e-02 -2.376845804974436760e-03 8.341337554156780243e-03 4.392607510089874268e-02 -2.082186937332153320e-02 2.585112117230892181e-02 2.618581289425492287e-03 -6.326454691588878632e-03 -8.963420055806636810e-03 -6.307475268840789795e-03 6.947926245629787445e-03 -1.352646946907043457e-02 1.397733762860298157e-02 -3.257509693503379822e-02 6.258016452193260193e-03 -1.819616500142728910e-06 1.069482043385505676e-02 -6.650830619037151337e-04 -7.595887407660484314e-03 3.367100283503532410e-02 -2.420542389154434204e-02 -3.577188029885292053e-02 -2.054957672953605652e-02 -2.621937170624732971e-02 1.731706783175468445e-02 2.389904297888278961e-02 -3.700027009472250938e-03 2.521393820643424988e-03 -3.442874178290367126e-02 -2.272600121796131134e-02 -1.430419273674488068e-02 4.591783042997121811e-03 -2.685191296041011810e-02 5.570801906287670135e-03 -2.829050458967685699e-02 1.560215186327695847e-02 4.409487918019294739e-02 1.585865020751953125e-02 2.613509446382522583e-02 1.000381540507078171e-02 1.344922743737697601e-02 -2.420938760042190552e-02 6.063777836970984936e-04 7.002587663009762764e-04 2.481257915496826172e-02 2.419578284025192261e-02 -3.864618949592113495e-03 -5.964943207800388336e-03 1.636110013350844383e-03 4.502739291638135910e-03 1.965065486729145050e-02 -5.768597126007080078e-03 -2.654317021369934082e-02 2.131356595782563090e-04 -3.935604915022850037e-02 1.555465999990701675e-02 1.752641238272190094e-02 3.837408870458602905e-02 1.280929055064916611e-02 1.929704286158084869e-02 1.949452050030231476e-02 9.689716622233390808e-03 1.001054071821272373e-03 -7.094145752489566803e-03 3.303140401840209961e-02 -1.127884816378355026e-02 -1.718287728726863861e-02 -1.814045570790767670e-02 5.544986575841903687e-02 -5.223122611641883850e-02 -2.867504023015499115e-03 -5.398757755756378174e-03 5.462934263050556183e-03 2.241425029933452606e-02 -4.765011370182037354e-03 -1.552657806314527988e-03 -5.200466513633728027e-02 -3.216300904750823975e-02 6.570959463715553284e-03 6.507261190563440323e-03 4.123936221003532410e-02 7.189066614955663681e-03 3.079783543944358826e-02 2.265367766085546464e-05 1.668938621878623962e-02 7.783864624798297882e-03 3.091213665902614594e-02 -2.362174168229103088e-02 2.098982688039541245e-03 3.805466368794441223e-02 -4.231536388397216797e-02 -2.095618471503257751e-02 -9.093356318771839142e-03 -1.805940829217433929e-02 -5.500151310116052628e-03 1.747056609019637108e-03 -6.093347910791635513e-03 -1.132963318377733231e-02 1.528514735400676727e-02
-2.529434300959110260e-02 2.513273619115352631e-03 2.306141145527362823e-02 1.297036651521921158e-02 -5.394159816205501556e-03 -1.824487000703811646e-02 -2.689831703901290894e-02 -9.468827396631240845e-03 3.710897872224450111e-04 1.961030066013336182e-02 -2.799438498914241791e-02 2.495230920612812042e-02 1.192317111417651176e-03 -1.894079707562923431e-02 -3.161167725920677185e-02 -8.708420209586620331e-03 -1.599124632775783539e-02 -1.780448108911514282e-02 1.285925135016441345e-02 -1.519810874015092850e-03 -3.399403067305684090e-03 9.540494531393051147e-03 -1.385012455284595490e-02 -1.761305704712867737e-02 -1.579321920871734619e-02 -7.618729141540825367e-04 -2.465268038213253021e-02 -5.284688435494899750e-03 -1.731355302035808563e-02 -5.578235723078250885e-03 8.169212378561496735e-03 1.064314506947994232e-02 -2.464286983013153076e-02 6.398653145879507065e-03 1.406249962747097015e-02 1.148399803787469864e-02 -5.552813876420259476e-03 6.970867980271577835e-03 1.112771220505237579e-03 -2.021986618638038635e-02 1.912400126457214355e-02 1.758787035942077637e-02 4.131939634680747986e-02 1.664893701672554016e-02 -9.366870857775211334e-03 -1.412957534193992615e-02 2.052202820777893066e-02 1.339166704565286636e-02 2.078205719590187073e-02 1.166081754490733147e-03 -2.133669517934322357e-02 -1.668400317430496216e-02 -1.184053439646959305e-02 1.127507817000150681e-02 -2.350264415144920349e-02 5.077827349305152893e-02 1.385477225994691253e-04 7.522138766944408417e-03 3.981602378189563751e-03 -3.283721953630447388e-02 8.974177762866020203e-03 1.863026805222034454e-02 2.045129192993044853e-03 1.148517243564128876e-02 3.434039652347564697e-02 6.739232339896261692e-04 1.410549040883779526e-02 -1.851722598075866699e-02 5.696745356544852257e-04 4.256783053278923035e-03 -3.194040060043334961e-02 -4.184632748365402222e-02 -1.773216389119625092e-02 -8.231324143707752228e-03 2.969811111688613892e-02 6.918215658515691757e-03 -1.908804662525653839e-02 8.391162380576133728e-03 -2.119797840714454651e-02 -1.525157783180475235e-02 -5.004025995731353760e-03 -1.992221549153327942e-02 1.293593831360340118e-02 2.000708598643541336e-03 1.827540434896945953e-02 -3.029804443940520287e-03 -7.081747055053710938e-03 -2.197128906846046448e-02 -5.206047557294368744e-03 -1.737140119075775146e-02 -1.610111258924007416e-02 2.133638784289360046e-02 1.384337712079286575e-02 6.684951018542051315e-03 -2.144015626981854439e-03 2.590327756479382515e-03 -1.220149360597133636e-02 -3.057954134419560432e-03 3.676184918731451035e-03 3.416254743933677673e-02 2.105080708861351013e-02 -6.317812483757734299e-03 -1.243462320417165756e-04 -3.382353112101554871e-03 -5.905056837946176529e-03 -7.163972128182649612e-03 1.584644801914691925e-02 8.113121730275452137e-04 -2.670972235500812531e-02 -5.476179067045450211e-03 -3.223392739892005920e-02 4.370567575097084045e-02 2.254925854504108429e-02 -2.025279775261878967e-02 2.370579354465007782e-02 -1.093894615769386292e-02 -1.041041873395442963e-02 3.264318779110908508e-02 -1.857299124822020531e-03 3.934314940124750137e-03 2.275075577199459076e-02 3.023273311555385590e-02 1.113499049097299576e-02 2.977102063596248627e-02 2.195006050169467926e-02 -5.250410176813602448e-03 1.718988828361034393e-02 -1.127737225033342838e-03
-6.960459053516387939e-03 2.015654556453227997e-02 -1.171584799885749817e-02 3.057875670492649078e-03 1.807231083512306213e-02 -3.371015936136245728e-02 -1.350255962461233139e-02 3.271044418215751648e-02 -1.531938277184963226e-02 4.089634865522384644e-02 -4.784676246345043182e-03 -9.059521369636058807e-03 6.581121589988470078e-03 5.858645308762788773e-03 1.507935114204883575e-02 -2.795975422486662865e-03 9.166190400719642639e-03 3.840379882603883743e-03 -9.986403165385127068e-04 2.011505886912345886e-02 2.029341831803321838e-02 6.427595857530832291e-03 -1.946607790887355804e-02 3.628101199865341187e-02 8.833742700517177582e-03 1.197866257280111313e-02 9.327532723546028137e-03 1.216446701437234879e-02 -6.947710062377154827e-04 9.401476942002773285e-03 -1.785624958574771881e-02 2.171586500480771065e-03 1.172852329909801483e-02 2.951416419818997383e-03 2.087026601657271385e-03 -1.013815868645906448e-02 8.210260421037673950e-03 -2.357342280447483063e-02 3.357124328613281250e-02 -1.018776278942823410e-02 -1.285384222865104675e-02 1.424663048237562180e-02 -9.932430461049079895e-03 1.546901930123567581e-02 -7.633312139660120010e-03 2.057605236768722534e-02 -6.776204332709312439e-03 4.078307002782821655e-02 1.078504510223865509e-02 -3.519776975736021996e-03 -2.087323373416438699e-04 3.386319801211357117e-02 2.358921058475971222e-02 -6.231611967086791992e-02 -9.572643786668777466e-03 7.063085213303565979e-03 7.304798811674118042e-03 1.814292954804841429e-05 2.769232541322708130e-02 -1.107512786984443665e-02 -7.211565040051937103e-03 3.367859497666358948e-02 2.024143235757946968e-03 -3.326761350035667419e-02 2.172399312257766724e-02 -4.074644763022661209e-03 -3.856249619275331497e-03 -1.908601075410842896e-02 -3.739865869283676147e-02 -2.349489368498325348e-02 6.161207333207130432e-03 1.745147630572319031e-02 3.373472020030021667e-02 1.617001742124557495e-02 9.562119841575622559e-03 1.249823439866304398e-02 2.144407294690608978e-02 2.302897721529006958e-02 -3.327514603734016418e-02 -5.568533088080585003e-04 -2.519686892628669739e-02 -3.293305635452270508e-02 1.254249084740877151e-02 -1.728674769401550293e-02 2.822259068489074707e-02 -8.841971866786479950e-03 -2.778754010796546936e-02 -1.571342535316944122e-02 -1.715396717190742493e-02 -7.094726897776126862e-03 3.511040657758712769e-02 -6.071780249476432800e-02 4.519696906208992004e-02 -5.414137267507612705e-04 -2.335741184651851654e-03 4.434265196323394775e-03 -6.164146121591329575e-03 -2.886415459215641022e-03 -2.824400924146175385e-02 -1.937306951731443405e-03 3.685284405946731567e-03 1.654121279716491699e-02 3.222123906016349792e-02 7.261912804096937180e-03 1.262088771909475327e-02 -1.615148223936557770e-02 -2.076418139040470123e-03 6.479727569967508316e-03 4.843590036034584045e-02 -2.910552918910980225e-02 1.234456058591604233e-02 -2.368680387735366821e-02 7.989701698534190655e-04 -2.495343610644340515e-02 -3.948556259274482727e-02 1.050283899530768394e-03 1.210765354335308075e-02 -1.503244321793317795e-02 -9.156991145573556423e-04 -2.139309421181678772e-02 -3.795884549617767334e-02 6.042587105184793472e-03 5.081100855022668839e-03 1.439166627824306488e-02 2.016804367303848267e-02 -1.046678423881530762e-02 1.437337230890989304e-02 4.029935691505670547e-03
-2.470256015658378601e-02 1.630405150353908539e-02 -1.646715099923312664e-03 4.270082572475075722e-04 1.744470745325088501e-02 7.151894271373748779e-03 2.061156788840889931e-03 1.479240972548723221e-02 1.275367103517055511e-02 6.844426039606332779e-03 9.892718866467475891e-03 -1.559145748615264893e-02 1.158442255109548569e-02 1.905569806694984436e-02 2.646063268184661865e-02 -4.052574187517166138e-02 -1.834087073802947998e-02 -4.476187285035848618e-03 1.126006059348583221e-02 1.706414297223091125e-02 9.627683088183403015e-03 5.732329562306404114e-03 1.526943407952785492e-03 2.957227826118469238e-02 2.931730635464191437e-02 1.279951911419630051e-02 -1.480846852064132690e-02 1.025149598717689514e-02 -5.778901278972625732e-02 6.096546538174152374e-03 -2.575063705444335938e-02 -3.368801623582839966e-02 2.123984275385737419e-03 -9.481973014771938324e-03 1.333625614643096924e-02 9.649005718529224396e-03 1.216363906860351562e-02 3.032591007649898529e-02 -4.076882451772689819e-02 -1.134952623397111893e-02 2.532538026571273804e-02 -2.386546134948730469e-02 -1.315361913293600082e-02 -6.269482523202896118e-02 7.954688044264912605e-04 -2.523877471685409546e-02 -2.685688994824886322e-02 -2.745870128273963928e-02 -2.165973419323563576e-03 -8.127141743898391724e-03 -2.486974000930786133e-02 2.922853687778115273e-03 5.228670313954353333e-03 -1.096943020820617676e-02 8.960078703239560127e-04 9.184996597468852997e-03 1.846302673220634460e-02 -2.556123584508895874e-02 3.353172168135643005e-02 -6.681176368147134781e-03 6.258194334805011749e-03 5.480519961565732956e-03 -2.609256841242313385e-02 1.927166245877742767e-02 2.465406805276870728e-02 5.280599463731050491e-03 2.425342425704002380e-02 -8.499657735228538513e-03 -1.835805363953113556e-02 -7.491405587643384933e-03 1.359804440289735794e-02 -9.797842241823673248e-03 3.565465286374092102e-02 2.193382708355784416e-03 2.414417918771505356e-03 -1.858806819655001163e-03 2.747939527034759521e-02 -5.153530277311801910e-03 2.113614045083522797e-02 2.295477502048015594e-02 2.098047919571399689e-02 1.175451651215553284e-02 1.010492630302906036e-02 -1.325984764844179153e-02 2.078254707157611847e-02 1.091578323394060135e-02 8.095746859908103943e-03 1.751262322068214417e-02 5.578408017754554749e-03 -2.842354401946067810e-02 2.189340814948081970e-02 2.216287888586521149e-03 2.722496166825294495e-02 -1.236934866756200790e-02 1.573148369789123535e-02 6.624477915465831757e-03 2.420442365109920502e-02 2.596398442983627319e-02 -2.104149386286735535e-02 1.383368484675884247e-02 1.245626527816057205e-02 9.324721060693264008e-03 3.650091588497161865e-02 2.532994933426380157e-02 -2.788827259792014956e-06 2.418317086994647980e-02 2.359172329306602478e-02 1.818151772022247314e-02 -1.089076139032840729e-02 -1.681276783347129822e-02 -1.894577033817768097e-02 8.945538662374019623e-03 -2.208767086267471313e-02 2.361991209909319878e-03 -6.898230058141052723e-04 1.742254709824919701e-03 1.995967701077461243e-02 -5.437166430056095123e-03 -2.761309733614325523e-03 2.435667067766189575e-02 -1.698379218578338623e-02 7.471186574548482895e-03 -1.610897667706012726e-02 -1.061476487666368484e-02 -1.461984962224960327e-02 -6.416252814233303070e-03 9.368800558149814606e-03 5.887574981898069382e-03
2.791606821119785309e-02 -4.428217187523841858e-03 -3.459947928786277771e-02 -1.153322868049144745e-02 1.819407939910888672e-02 -7.243271917104721069e-03 5.883143283426761627e-03 -2.703130478039383888e-03 -2.088914811611175537e-02 2.532875537872314453e-02 -3.373857960104942322e-02 1.000212156213819981e-03 1.040312461555004120e-02 4.343364015221595764e-02 -3.999436274170875549e-02 -3.305076854303479195e-03 1.672810129821300507e-02 -1.538613578304648399e-03 1.164902281016111374e-02 2.249420806765556335e-02 -1.733160763978958130e-02 2.161600254476070404e-02 1.599062001332640648e-03 -1.943877339363098145e-02 -1.865118741989135742e-02 5.680849030613899231e-02 -8.373635821044445038e-03 -1.271260343492031097e-02 -2.675858512520790100e-02 1.242745853960514069e-02 -3.380488976836204529e-02 2.467940747737884521e-02 1.138010621070861816e-02 7.584481034427881241e-03 -3.587180981412529945e-03 9.693427942693233490e-03 2.050076145678758621e-03 2.278498746454715729e-02 1.447524037212133408e-02 1.893408596515655518e-02 -1.756773144006729126e-02 -1.134707219898700714e-02 2.584441192448139191e-02 -1.894294843077659607e-02 -8.829851634800434113e-03 -2.131792018190026283e-03 -7.742861751466989517e-03 4.751333501189947128e-03 -2.741189859807491302e-02 -2.558944514021277428e-03 4.262883588671684265e-02 -7.324728183448314667e-03 1.427442487329244614e-02 -5.193535611033439636e-02 -2.332038432359695435e-02 5.025816615670919418e-03 1.379536278545856476e-02 -3.068237937986850739e-02 2.546609751880168915e-02 -8.443138562142848969e-03 -1.995411328971385956e-02 1.278223819099366665e-03 -2.311085723340511322e-02 -4.153929185122251511e-03 1.427730452269315720e-02 1.474749017506837845e-02 3.510450012981891632e-03 5.232354160398244858e-03 -2.471393207088112831e-03 1.743256114423274994e-02 -3.945738077163696289e-02 2.854972146451473236e-02 -1.089727040380239487e-02 2.305191010236740112e-02 3.744021430611610413e-02 -5.001434474252164364e-04 -2.926187822595238686e-03 1.069246511906385422e-02 5.719070788472890854e-03 1.711181178689002991e-02 -6.572724319994449615e-03 3.128215670585632324e-02 -1.683351583778858185e-02 -1.961982622742652893e-02 -2.312076836824417114e-02 -4.555040504783391953e-03 1.300716772675514221e-03 -7.452015765011310577e-03 -1.638637669384479523e-02 -3.134533297270536423e-03 -1.723946258425712585e-02 -1.837276853621006012e-02 -8.048917166888713837e-03 2.496444806456565857e-02 2.172321546822786331e-04 -3.986084833741188049e-02 3.091122955083847046e-02 4.083827510476112366e-02 1.473034615628421307e-03 -6.170273758471012115e-03 -5.198866128921508789e-02 -1.435584854334592819e-02 -9.298251010477542877e-03 -2.100131474435329437e-02 -3.306386619806289673e-02 2.725524082779884338e-02 -1.627537421882152557e-04 -3.063018433749675751e-02 1.797370053827762604e-02 4.783245548605918884e-02 2.772277593612670898e-02 -6.567020318470895290e-04 2.409299276769161224e-02 2.545083686709403992e-02 -2.089272998273372650e-02 -9.393667802214622498e-03 -4.019841179251670837e-02 -2.091666497290134430e-02 6.023920606821775436e-03 7.965756230987608433e-04 -1.051760558038949966e-02 3.533443063497543335e-02 -1.268221903592348099e-02 3.579994663596153259e-02 -3.292243927717208862e-02 -2.142736129462718964e-02 5.622269585728645325e-03 4.483640659600496292e-03
8.914831094443798065e-03 5.423602834343910217e-02 -2.505012042820453644e-02 4.350192099809646606e-02 1.414367277175188065e-02 -1.468550413846969604e-02 -8.790043182671070099e-03 2.120338380336761475e-02 -1.546503230929374695e-02 -5.831086076796054840e-03 5.040524899959564209e-02 2.287904731929302216e-02 3.342315182089805603e-02 4.603560548275709152e-03 -9.373991750180721283e-03 5.800916347652673721e-03 -1.516759674996137619e-02 -2.549497783184051514e-02 2.491077594459056854e-02 4.464690759778022766e-02 -1.422002562321722507e-03 1.519676065072417259e-03 1.830519735813140869e-02 -3.042870899662375450e-03 -2.252573147416114807e-03 -2.530696510802954435e-04 -1.874315738677978516e-02 5.337541457265615463e-03 7.864394225180149078e-03 1.816500723361968994e-02 -2.025089971721172333e-02 -3.598421066999435425e-02 -1.176211051642894745e-02 -2.986485138535499573e-02 -4.947076551616191864e-03 5.300847347825765610e-03 -3.505373373627662659e-02 -2.243630588054656982e-02 -9.133697021752595901e-04 4.202812910079956055e-03 3.746874630451202393e-02 -3.450884670019149780e-02 -2.322528511285781860e-02 -2.646699780598282814e-03 -2.135521732270717621e-03 1.223163958638906479e-02 2.528253756463527679e-02 3.432435542345046997e-02 -2.747822739183902740e-02 -1.488487794995307922e-02 -1.380087062716484070e-02 -2.073210850358009338e-02 -2.150866016745567322e-02 1.003005634993314743e-02 3.799087926745414734e-02 -2.686346322298049927e-02 -7.826707325875759125e-03 -2.302244678139686584e-02 -4.898154176771640778e-03 3.801935585215687752e-03 1.415230613201856613e-02 -1.016419846564531326e-02 -2.249866351485252380e-02 1.702876947820186615e-02 1.465466339141130447e-02 8.930600248277187347e-03 -2.220285870134830475e-02 5.331880878657102585e-03 1.750438474118709564e-02 -5.755124147981405258e-03 -2.398540265858173370e-02 -2.150452136993408203e-02 9.457650012336671352e-04 3.245020657777786255e-02 1.648583449423313141e-02 6.644496694207191467e-03 2.504778280854225159e-02 4.335651919245719910e-02 -1.277889683842658997e-02 1.948287338018417358e-02 -8.970954455435276031e-03 4.365076776593923569e-03 -2.255591377615928650e-02 -6.092013209126889706e-04 -1.104257069528102875e-02 1.255715824663639069e-02 -1.069650426506996155e-02 6.972424220293760300e-03 5.903332028537988663e-03 -9.903111495077610016e-03 -1.827172562479972839e-02 2.922560647130012512e-02 2.869897149503231049e-02 -1.137145329266786575e-02 2.460276475176215172e-03 -9.947090438799932599e-05 -1.890501007437705994e-02 2.637906698510050774e-03 -1.304114330559968948e-02 4.430672153830528259e-03 3.102667257189750671e-02 -3.370892629027366638e-02 4.915712866932153702e-03 3.095582127571105957e-02 -1.071409601718187332e-02 -1.536426716484129429e-03 7.452858611941337585e-03 1.647844724357128143e-02 5.230805370956659317e-03 -8.269647136330604553e-03 9.589069522917270660e-03 2.889428287744522095e-02 2.961549535393714905e-02 1.779296994209289551e-02 2.506101131439208984e-02 9.029890410602092743e-03 1.066511869430541992e-02 -2.508854307234287262e-02 1.976701430976390839e-02 -4.005841165781021118e-02 1.929068006575107574e-02 -4.373542219400405884e-02 1.866206899285316467e-02 -2.636654861271381378e-02 -1.055748667567968369e-02 -1.309693418443202972e-02 -3.611824661493301392e-02 -2.528550801798701286e-03
-2.146878745406866074e-03 2.028369531035423279e-02 1.038105506449937820e-02 1.208224520087242126e-02 -2.108920924365520477e-02 -3.337296843528747559e-02 1.647368632256984711e-02 1.221329066902399063e-02 1.268736459314823151e-02 6.842773873358964920e-03 2.297726646065711975e-02 -3.487778455018997192e-02 2.067308872938156128e-02 1.933521591126918793e-02 2.622465044260025024e-02 -2.609931863844394684e-02 -8.473004214465618134e-03 -2.153907343745231628e-02 -4.687687382102012634e-02 -2.597117796540260315e-02 1.720773987472057343e-03 1.873093098402023315e-02 -1.599639095366001129e-02 -1.388103701174259186e-02 3.454254195094108582e-02 3.317812085151672363e-02 -4.904008004814386368e-03 2.312727831304073334e-02 -8.104182779788970947e-03 -7.247425615787506104e-03 4.091438371688127518e-03 2.186778746545314789e-02 3.000693768262863159e-02 4.736398346722126007e-03 -2.221984602510929108e-02 -4.098827764391899109e-02 9.223375469446182251e-03 -3.557856660336256027e-03 -9.027385152876377106e-03 -6.880667526274919510e-03 -1.641006581485271454e-02 4.876985214650630951e-03 1.798290573060512543e-02 -2.119292691349983215e-02 1.122097391635179520e-02 1.638265885412693024e-02 3.279357776045799255e-02 -5.216799327172338963e-04 -5.427623167634010315e-03 -1.254123169928789139e-02 -1.649311184883117676e-02 -3.391888458281755447e-03 -1.526478491723537445e-02 -5.702229961752891541e-02 -2.888998016715049744e-02 -1.516128238290548325e-02 1.150804385542869568e-02 9.958133101463317871e-03 -1.399125531315803528e-02 -1.278252433985471725e-02 -7.725920062512159348e-03 4.480627551674842834e-02 -1.042319345287978649e-03 9.119414724409580231e-03 1.653643883764743805e-02 -1.623972505331039429e-02 -1.055235601961612701e-02 -4.101545549929141998e-03 3.728721989318728447e-03 2.956268563866615295e-02 1.514640543609857559e-02 1.550743915140628815e-02 -1.451699435710906982e-02 2.627228095661848783e-04 -3.955382108688354492e-02 1.513434480875730515e-02 1.716103591024875641e-02 1.956966146826744080e-02 7.801930885761976242e-03 -3.209148347377777100e-02 -8.846228010952472687e-03 1.964152231812477112e-02 -1.566389389336109161e-02 2.910149469971656799e-02 3.659537807106971741e-02 2.342866547405719757e-02 3.599694231525063515e-03 -2.189160697162151337e-02 -5.361169576644897461e-03 -2.118294686079025269e-02 -1.963455229997634888e-02 -9.628459811210632324e-04 -2.393434755504131317e-02 -2.452651970088481903e-02 -2.276099845767021179e-02 -8.576968684792518616e-03 2.033452503383159637e-02 -8.225321769714355469e-03 -3.314309939742088318e-02 -1.524657104164361954e-02 -6.426770705729722977e-03 -4.062394611537456512e-03 1.403495017439126968e-02 2.330102585256099701e-02 2.357106655836105347e-02 3.099613450467586517e-02 1.194822322577238083e-02 -2.302498742938041687e-02 2.032899484038352966e-02 -7.137814536690711975e-03 1.975988410413265228e-02 -2.976240823045372963e-03 1.074015628546476364e-02 -1.672217994928359985e-02 -7.173983845859766006e-03 -8.498042821884155273e-03 -3.002126328647136688e-02 1.561693008989095688e-02 9.528655209578573704e-04 -1.845633424818515778e-02 -6.212120410054922104e-03 -5.472728610038757324e-02 -4.784841556102037430e-03 -1.024131197482347488e-02 -1.049882173538208008e-02 -1.883553713560104370e-02 6.204890087246894836e-05 -3.632896346971392632e-03
-5.761195905506610870e-03 -1.304972637444734573e-02 -5.710747558623552322e-03 1.704864669591188431e-03 1.738420501351356506e-02 -1.622913987375795841e-03 -1.199623337015509605e-03 -5.097343586385250092e-03 -1.039744727313518524e-02 1.512403599917888641e-03 -1.824400201439857483e-02 1.941191591322422028e-02 -2.660840190947055817e-02 5.122511647641658783e-03 2.350144647061824799e-02 -1.278823241591453552e-02 2.022225596010684967e-02 -5.644986405968666077e-03 -5.849889945238828659e-03 -3.134063631296157837e-02 4.219667986035346985e-03 6.283615715801715851e-03 -1.224500499665737152e-02 1.249206066131591797e-02 -6.681669969111680984e-03 -1.186965685337781906e-02 2.921533305197954178e-03 6.012650206685066223e-03 3.638659603893756866e-03 4.201578348875045776e-02 5.054954905062913895e-03 -1.809088699519634247e-02 -7.086494937539100647e-03 -9.453194215893745422e-03 -1.296388823539018631e-02 -8.251656778156757355e-03 3.881056560203433037e-03 2.007635077461600304e-03 3.818249329924583435e-03 -3.209342435002326965e-02 -8.095670491456985474e-03 1.868454366922378540e-02 2.436036616563796997e-02 1.451933756470680237e-03 -7.398143876343965530e-03 -2.360822074115276337e-02 2.312161587178707123e-02 2.164483768865466118e-03 1.097426470369100571e-02 1.052174437791109085e-02 5.366287659853696823e-03 3.980839997529983521e-02 2.673890255391597748e-02 3.087501414120197296e-02 3.398921340703964233e-02 -1.445314288139343262e-02 7.328924257308244705e-03 3.469906374812126160e-02 -5.854670889675617218e-03 8.726630359888076782e-03 -3.196970745921134949e-02 4.972712486051023006e-04 3.907704353332519531e-02 1.923007331788539886e-02 2.623783238232135773e-02 -3.628391772508621216e-03 1.025082357227802277e-02 2.612476237118244171e-02 -3.880064934492111206e-02 1.909012533724308014e-02 -2.127499505877494812e-02 2.782049775123596191e-02 1.789099536836147308e-02 1.258974242955446243e-02 -6.193362176418304443e-03 -1.652845740318298340e-02 -1.413901522755622864e-02 1.861140504479408264e-02 -9.439667919650673866e-04 2.023850381374359131e-02 1.719363965094089508e-02 1.630128733813762665e-02 -1.555204670876264572e-02 -1.231970917433500290e-02 -6.800796836614608765e-03 -1.597158610820770264e-02 -2.592531591653823853e-02 1.513807289302349091e-02 3.463501634541898966e-04 -5.645324662327766418e-02 -1.846640743315219879e-02 1.015619281679391861e-02 2.063856372842565179e-04 2.278886176645755768e-02 1.082725543528795242e-02 -2.707376331090927124e-02 1.056977175176143646e-02 -5.817444995045661926e-03 2.920084446668624878e-02 1.866584457457065582e-02 -4.246495664119720459e-02 3.487413749098777771e-03 1.489377673715353012e-02 -6.456413306295871735e-03 -2.537576854228973389e-02 1.275291317142546177e-03 3.999767452478408813e-02 6.669734604656696320e-03 2.514275908470153809e-02 -1.370519027113914490e-02 -2.140307566151022911e-03 -1.697271130979061127e-03 1.758976653218269348e-02 2.301011234521865845e-02 -2.799879573285579681e-02 1.566569879651069641e-02 -1.954421028494834900e-02 -6.869979202747344971e-03 -9.410134516656398773e-03 -3.080368973314762115e-02 -2.392461709678173065e-02 -1.481997780501842499e-03 -6.208998616784811020e-03 -1.994847506284713745e-02 1.646168716251850128e-02 2.508435864001512527e-04 3.083248808979988098e-02 -3.480668738484382629e-02
2.980570308864116669e-02 1.235320582054555416e-03 3.065014071762561798e-02 1.286749821156263351e-02 2.455787174403667450e-02 1.490149088203907013e-02 -2.368615753948688507e-02 -4.065802204422652721e-04 9.658442810177803040e-03 -1.270715892314910889e-02 1.914208941161632538e-02 1.301332563161849976e-02 -2.331342175602912903e-02 4.326118901371955872e-02 -3.295739740133285522e-02 9.603050537407398224e-03 6.213239859789609909e-03 9.282489307224750519e-03 -3.295212611556053162e-02 5.604739766567945480e-03 2.130271680653095245e-02 1.705886609852313995e-02 4.519290477037429810e-02 -1.263233739882707596e-02 1.215477357618510723e-03 -2.001279965043067932e-02 -2.197524346411228180e-02 1.512493565678596497e-02 5.043483339250087738e-03 1.669192919507622719e-03 -2.821934968233108521e-02 -2.494727633893489838e-02 -7.001771125942468643e-03 -7.093780674040317535e-03 1.707625202834606171e-02 4.448618739843368530e-03 -2.104621194303035736e-02 -1.470660418272018433e-02 1.711843884550035000e-03 1.469445414841175079e-02 -2.560820989310741425e-02 8.902284316718578339e-03 -3.292365744709968567e-02 -1.645858213305473328e-02 -2.973196469247341156e-02 7.901903241872787476e-03 4.748182836920022964e-03 -4.745705053210258484e-02 2.980023808777332306e-02 -1.780217699706554413e-02 -1.705477386713027954e-02 -4.473119974136352539e-03 -1.775660924613475800e-02 1.003951486200094223e-02 6.177217699587345123e-03 -1.770399138331413269e-02 1.600318704731762409e-03 -1.736183464527130127e-02 -1.956751383841037750e-02 -1.380041893571615219e-02 1.836352236568927765e-02 2.744843624532222748e-02 1.212820224463939667e-02 3.154688328504562378e-02 -1.195142325013875961e-02 4.146071523427963257e-02 1.433875062502920628e-03 3.569226339459419250e-02 -1.304147951304912567e-02 -3.390255151316523552e-03 -1.962573966011404991e-03 -1.358922477811574936e-02 -1.831267587840557098e-02 1.640617288649082184e-02 -2.649793028831481934e-02 -1.003798563033342361e-02 -2.266642078757286072e-02 7.297511678189039230e-03 6.960111670196056366e-03 1.340680476278066635e-02 5.173701047897338867e-02 -9.630339220166206360e-03 -3.735552355647087097e-02 -1.591083710081875324e-03 3.296684473752975464e-02 -1.967871328815817833e-03 1.345300301909446716e-02 -1.140097156167030334e-02 -3.692179452627897263e-03 -1.790711423382163048e-03 -1.677326858043670654e-02 -2.934076823294162750e-03 -3.465250134468078613e-02 -5.810123402625322342e-03 -2.027112431824207306e-02 -6.587971467524766922e-03 4.064948111772537231e-02 2.127960696816444397e-02 -1.751042529940605164e-02 -2.772762067615985870e-02 2.039144188165664673e-02 1.018813345581293106e-02 -3.146964311599731445e-02 3.148735500872135162e-03 -1.986062154173851013e-02 1.792682521045207977e-02 1.971573382616043091e-02 1.376570109277963638e-02 -8.409526199102401733e-03 -3.573435917496681213e-02 2.247652783989906311e-02 1.019691303372383118e-02 4.955763369798660278e-02 1.370175182819366455e-02 -1.040890440344810486e-02 -9.544313885271549225e-03 1.085963658988475800e-02 -1.314150262624025345e-02 -2.536240732297301292e-03 -3.483103588223457336e-02 1.081268861889839172e-02 4.377075657248497009e-02 -2.023720368742942810e-02 1.161009073257446289e-02 -1.160507369786500931e-02 -2.399826794862747192e-02 -2.394324867054820061e-03 2.774124592542648315e-02
3.857143968343734741e-02 2.294020541012287140e-02 4.859527572989463806e-03 -2.822997979819774628e-02 1.423737965524196625e-02 1.645500399172306061e-02 3.167297691106796265e-02 1.221804227679967880e-02 -1.765598542988300323e-02 -3.372409194707870483e-02 1.788633130490779877e-02 -9.855242446064949036e-03 -8.729367516934871674e-03 1.818930730223655701e-03 -4.605909343808889389e-03 5.208592396229505539e-03 1.379724219441413879e-02 4.715761914849281311e-02 1.786972209811210632e-02 -2.198633924126625061e-02 -1.879332028329372406e-02 1.556947641074657440e-02 -4.468362778425216675e-03 -6.491846404969692230e-03 9.858336299657821655e-03 -3.447673097252845764e-02 -1.828418485820293427e-02 -6.935424637049436569e-03 2.194871893152594566e-03 -5.122457072138786316e-02 2.051473781466484070e-02 -3.536346135661005974e-03 -1.322749350219964981e-02 -2.152874879539012909e-02 2.255860716104507446e-02 -3.267551586031913757e-02 1.386576239019632339e-02 -2.145007892977446318e-04 -3.737544408068060875e-03 -6.361387204378843307e-03 3.812249004840850830e-02 1.380647532641887665e-02 -1.375717297196388245e-02 2.045135758817195892e-02 -1.279029808938503265e-02 -5.721506197005510330e-03 -2.395763806998729706e-02 2.817970141768455505e-02 -6.218560039997100830e-03 4.840081557631492615e-03 -2.090189605951309204e-02 1.250797975808382034e-02 -3.168798238039016724e-02 -2.353846468031406403e-02 2.429436892271041870e-02 -5.645832512527704239e-03 5.242905113846063614e-03 1.178154349327087402e-02 1.013272628188133240e-02 -8.896029554307460785e-03 -2.120486460626125336e-02 1.748925447463989258e-02 -2.196444664150476456e-03 -1.424411777406930923e-02 4.863217845559120178e-02 1.384918019175529480e-02 -1.103244442492723465e-02 1.508833933621644974e-02 -2.566479146480560303e-02 3.435882041230797768e-03 8.824424818158149719e-03 8.321401663124561310e-03 1.305928919464349747e-02 8.904589340090751648e-04 5.828938446938991547e-03 7.960112765431404114e-03 -1.874728314578533173e-02 -2.541032247245311737e-02 3.492774209007620811e-03 9.437509812414646149e-03 7.351784035563468933e-03 6.692774128168821335e-03 -3.294443944469094276e-03 -3.973869234323501587e-02 2.118380740284919739e-02 -3.808471374213695526e-03 -3.733681887388229370e-02 -2.321091480553150177e-03 3.587936609983444214e-02 -1.914558187127113342e-02 1.652405038475990295e-02 1.528929919004440308e-02 -4.698923788964748383e-03 7.948851212859153748e-03 -1.002656761556863785e-02 -1.943774707615375519e-02 -2.148761227726936340e-02 3.718828782439231873e-03 2.730787172913551331e-02 -4.828341770917177200e-03 -1.205251552164554596e-02 5.692540202289819717e-03 -2.578132320195436478e-03 1.152507308870553970e-02 5.308841355144977570e-03 3.797457367181777954e-02 2.948593534529209137e-02 -8.698162622749805450e-03 1.312727108597755432e-02 -3.047025529667735100e-03 2.508207410573959351e-02 9.120025672018527985e-03 1.162333693355321884e-02 2.831663703545928001e-03 -2.214900217950344086e-02 8.978363126516342163e-03 2.205163985490798950e-02 -2.200231887400150299e-02 1.974780671298503876e-02 -2.204129472374916077e-02 6.208595354110002518e-03 5.235187709331512451e-03 2.433124929666519165e-02 -2.818507887423038483e-02 -2.630857191979885101e-02 3.753319382667541504e-02 2.910674083977937698e-03 1.145389047451317310e-03
5.384275224059820175e-03 6.274585612118244171e-03 -2.162899449467658997e-02 -1.137974858283996582e-02 9.456397034227848053e-03 3.849394246935844421e-02 2.185862325131893158e-02 -9.800742380321025848e-03 1.864860579371452332e-02 -1.996211335062980652e-02 4.351261071860790253e-03 -3.175988793373107910e-03 1.884423382580280304e-02 -9.754884988069534302e-03 9.375543333590030670e-03 -3.045912459492683411e-02 -4.541937261819839478e-03 3.483741357922554016e-02 -1.272589154541492462e-02 3.591754008084535599e-03 -3.795601800084114075e-02 -1.105405669659376144e-02 -7.157476153224706650e-03 -3.619222715497016907e-02 2.633251808583736420e-02 -1.632979372516274452e-03 -1.745882257819175720e-02 1.372104883193969727e-02 -1.625131629407405853e-02 3.736675251275300980e-03 2.285065129399299622e-02 1.300402451306581497e-02 -8.723439648747444153e-03 5.359979346394538879e-03 -2.774536795914173126e-02 -2.692998573184013367e-02 -1.621068455278873444e-02 2.129105632775463164e-05 4.341504536569118500e-03 -5.831812042742967606e-03 -1.786836422979831696e-02 -1.511239795945584774e-03 -8.435901254415512085e-04 2.046957053244113922e-02 2.512007206678390503e-02 1.458496879786252975e-02 -2.953065268229693174e-04 -6.096377037465572357e-03 1.361073739826679230e-02 -7.708294782787561417e-03 -1.881555467844009399e-02 1.812071911990642548e-02 1.122808177024126053e-02 -9.278737939894199371e-03 1.206741947680711746e-02 -7.530794478952884674e-03 -7.598321419209241867e-03 -8.909194730222225189e-03 -2.561113052070140839e-02 8.664614520967006683e-03 -1.704815030097961426e-02 -3.362749144434928894e-02 2.890119321818929166e-05 -1.093274448066949844e-02 -2.218226902186870575e-02 3.756541525945067406e-03 -7.721347268670797348e-03 -1.437941752374172211e-02 2.653482370078563690e-02 1.325541920959949493e-02 4.338143044151365757e-04 1.661948510445654392e-03 4.093597643077373505e-03 2.375655341893434525e-03 7.758560590445995331e-03 -6.121170241385698318e-03 -3.758209932129830122e-04 2.512452891096472740e-03 -1.851204037666320801e-02 1.660756021738052368e-02 7.895620539784431458e-03 -3.643257543444633484e-03 -1.436021551489830017e-02 -1.778140105307102203e-02 -7.109705824404954910e-03 -1.591897383332252502e-02 -1.669098250567913055e-02 -1.373755279928445816e-02 2.553005144000053406e-02 1.143749221228063107e-03 -1.462449040263891220e-02 -3.143363073468208313e-02 8.511411957442760468e-03 2.516592480242252350e-02 1.285306923091411591e-02 4.261160211171954870e-04 -3.034530964214354753e-04 -1.294350135140120983e-03 -1.626561395823955536e-02 -1.666441187262535095e-02 1.107330434024333954e-02 -8.583131246268749237e-03 1.478188112378120422e-02 1.719698496162891388e-02 8.737760595977306366e-03 -1.689506694674491882e-02 2.714243484660983086e-03 -4.879391752183437347e-03 1.623610965907573700e-02 -2.164616994559764862e-02 2.913437969982624054e-02 1.426250860095024109e-02 3.812605142593383789e-02 6.433870643377304077e-03 -2.175719663500785828e-02 6.894335150718688965e-03 2.064115740358829498e-02 1.496741897426545620e-03 2.775304578244686127e-02 4.013947618659585714e-04 1.484140846878290176e-02 -3.157580271363258362e-02 -2.345149777829647064e-02 1.856726780533790588e-02 -1.242815423756837845e-02 2.325498126447200775e-02 -2.354324981570243835e-02 1.437761541455984116e-02
-4.439689964056015015e-02 5.750935990363359451e-03 9.468374773859977722e-03 -5.940966730122454464e-05 -9.427567943930625916e-03 -2.554039820097386837e-04 -1.871102117002010345e-02 1.819319836795330048e-02 -2.745013497769832611e-02 5.618806928396224976e-03 -8.950402028858661652e-03 2.438968606293201447e-02 -3.706871345639228821e-02 2.164760045707225800e-02 -3.480232087895274162e-03 -1.880773575976490974e-03 2.000112459063529968e-02 -2.967301011085510254e-02 4.667229950428009033e-02 -1.889175176620483398e-02 -1.673349924385547638e-02 2.551603503525257111e-02 1.931986957788467407e-02 3.414333332329988480e-03 -1.096965745091438293e-02 -6.613265722990036011e-03 -6.664881855249404907e-02 -6.311660632491111755e-03 1.556975673884153366e-02 -2.730571664869785309e-03 2.872894285246729851e-03 2.155848219990730286e-02 -5.995564162731170654e-03 3.758856654167175293e-02 1.689945906400680542e-02 -3.168049827218055725e-02 -4.195799306035041809e-02 -2.033557556569576263e-02 2.073416486382484436e-02 -8.678376674652099609e-03 -1.679302379488945007e-02 5.878688534721732140e-04 -6.455939728766679764e-03 1.785564981400966644e-02 -5.288134794682264328e-03 2.271798998117446899e-02 3.460512310266494751e-02 5.889673531055450439e-02 -1.217148848809301853e-03 8.465802296996116638e-03 -7.517346180975437164e-03 -6.223638541996479034e-03 -3.108626231551170349e-02 -4.042873159050941467e-03 -7.331697270274162292e-03 -1.826655119657516479e-03 -8.143145591020584106e-03 -5.133936181664466858e-03 -2.346357144415378571e-02 -6.081505492329597473e-02 4.601913504302501678e-03 1.310466695576906204e-02 -8.224438875913619995e-03 -1.381635386496782303e-02 1.064503751695156097e-02 -6.129563786089420319e-03 -1.812169700860977173e-02 -1.542655192315578461e-02 8.869710378348827362e-03 2.749237418174743652e-02 -1.031723245978355408e-02 1.069025951437652111e-03 2.959780581295490265e-02 -1.181023009121417999e-02 2.753104455769062042e-02 -4.385197535157203674e-03 2.749577909708023071e-02 -2.597796171903610229e-02 -1.592693291604518890e-02 -1.905750855803489685e-02 1.178504060953855515e-02 -2.002371707931160927e-03 -7.986423559486865997e-03 -7.983438554219901562e-04 6.834654137492179871e-03 -3.849576413631439209e-02 5.892160814255475998e-03 -1.449019327992573380e-04 -3.588674589991569519e-02 -4.778514616191387177e-03 9.153290651738643646e-03 2.176154963672161102e-02 4.690890759229660034e-02 1.461409311741590500e-02 2.348021604120731354e-02 -1.935125212185084820e-03 3.191430866718292236e-02 -4.769521299749612808e-03 3.598821116611361504e-03 1.792538166046142578e-02 1.211508270353078842e-02 -7.412565406411886215e-03 2.076030895113945007e-02 -3.286732535343617201e-04 6.223694421350955963e-03 -3.815038362517952919e-03 1.779870502650737762e-02 -2.430626749992370605e-02 -1.969787478446960449e-02 2.585328370332717896e-02 -2.847282029688358307e-02 -5.043596960604190826e-03 2.300520194694399834e-03 9.944788180291652679e-03 -2.917254110798239708e-03 7.634092587977647781e-03 1.927308924496173859e-02 -1.572112925350666046e-02 1.824460108764469624e-03 -3.117893636226654053e-02 -1.759812235832214355e-02 4.129333421587944031e-02 4.073067009449005127e-02 -2.116977609694004059e-02 3.054855950176715851e-02 -7.250935304909944534e-03 -2.986839041113853455e-02 5.860880017280578613e-03
1.146017480641603470e-02 -2.453254908323287964e-02 -6.367384456098079681e-03 3.949747607111930847e-02 -1.251866109669208527e-02 1.641276874579489231e-03 -1.085565891116857529e-02 1.346944086253643036e-02 3.230351489037275314e-03 3.964237123727798462e-02 7.363576907664537430e-03 4.055821336805820465e-03 9.036775445565581322e-04 -2.524991892278194427e-02 -3.809302672743797302e-02 -1.174644194543361664e-02 1.235199626535177231e-02 -7.338658440858125687e-03 -1.212244480848312378e-02 -1.878651790320873260e-02 -1.015285030007362366e-02 6.115942262113094330e-03 1.167854852974414825e-02 -1.446001138538122177e-02 -1.793653704226016998e-02 -1.218933332711458206e-02 2.719651674851775169e-03 -6.545159034430980682e-03 -6.864013150334358215e-03 -1.699758577160537243e-03 1.961576193571090698e-02 2.087923325598239899e-02 -2.354324609041213989e-02 1.107348781079053879e-02 1.072886120527982712e-02 -3.321119118481874466e-03 7.285324973054230213e-04 -1.323319412767887115e-02 2.255887910723686218e-02 -7.808981928974390030e-03 -5.313688516616821289e-02 2.301699109375476837e-02 -3.523841872811317444e-02 -3.942009352613240480e-04 -5.793119221925735474e-02 5.102083552628755569e-03 1.217957586050033569e-02 -7.606705185025930405e-03 2.504717372357845306e-02 -3.314117714762687683e-02 -2.959333825856447220e-03 -1.409627031534910202e-02 1.994395442306995392e-02 1.001678686589002609e-02 3.890612721443176270e-02 -1.408500317484140396e-02 1.213338691741228104e-02 9.309246670454740524e-04 -6.105856038630008698e-03 -5.795795843005180359e-02 1.567190885543823242e-02 -2.113539911806583405e-02 -4.748906008899211884e-03 9.307783097028732300e-03 -1.661230577155947685e-03 -1.214873138815164566e-02 7.080559618771076202e-03 7.992570288479328156e-03 1.750381849706172943e-02 2.401593700051307678e-02 -3.987880051136016846e-02 1.585347764194011688e-02 -2.610514126718044281e-02 1.314761349931359291e-03 -3.974029794335365295e-02 1.626659370958805084e-02 2.473720908164978027e-02 1.876375079154968262e-02 1.646658219397068024e-02 -3.859794139862060547e-02 -2.339876629412174225e-02 -1.311095245182514191e-02 -1.001914590597152710e-02 4.295587912201881409e-02 -7.592600304633378983e-03 1.322452630847692490e-02 -4.977296106517314911e-03 -2.259980142116546631e-02 -1.201108563691377640e-02 -4.404833074659109116e-03 3.072628192603588104e-02 6.088798982091248035e-04 -5.817630328238010406e-03 2.351206028833985329e-03 -2.217801986262202263e-03 1.676301844418048859e-02 -4.097938537597656250e-02 3.173793479800224304e-02 -1.912214048206806183e-02 1.223220117390155792e-02 8.671845309436321259e-03 -2.456885017454624176e-02 2.286377595737576485e-03 5.131076090037822723e-03 2.088852412998676300e-02 4.048054106533527374e-03 1.032436080276966095e-02 -4.613719414919614792e-03 1.071439869701862335e-02 3.688968718051910400e-03 -1.032938307616859674e-04 -6.379682105034589767e-03 -8.802053518593311310e-03 3.541902173310518265e-03 1.720592845231294632e-03 -1.612207293510437012e-02 3.398102149367332458e-02 1.021361351013183594e-02 8.953288197517395020e-03 -2.271479740738868713e-02 -3.853068128228187561e-02 1.560912095010280609e-02 -1.783072762191295624e-02 -4.050701390951871872e-03 -2.886956371366977692e-02 1.097279042005538940e-02 9.172952733933925629e-03 -2.159883268177509308e-02
7.530577480792999268e-03 2.134484704583883286e-03 -2.130385674536228180e-02 -7.468347903341054916e-03 6.823187228292226791e-03 2.190122567117214203e-02 -3.195284679532051086e-02 8.429689332842826843e-03 8.661959320306777954e-03 5.494084209203720093e-02 1.731829531490802765e-02 -3.570182248950004578e-03 1.670737867243587971e-03 1.474201027303934097e-02 5.784454755485057831e-03 3.604869917035102844e-02 5.777182523161172867e-03 3.533842042088508606e-02 1.612530276179313660e-02 2.349022403359413147e-02 3.382006660103797913e-02 2.706764452159404755e-02 -4.187781829386949539e-03 1.999881491065025330e-02 -2.213144674897193909e-02 2.541632577776908875e-02 -2.721456065773963928e-02 2.436828240752220154e-02 1.203307881951332092e-02 -5.223418585956096649e-03 -1.044144388288259506e-02 -3.211246058344841003e-02 1.415533851832151413e-02 2.227935707196593285e-03 -2.297903411090373993e-02 1.979131624102592468e-02 6.372641772031784058e-03 -1.774630509316921234e-02 -5.026132566854357719e-04 3.437473624944686890e-02 -2.623379405122250319e-04 4.361704364418983459e-02 -1.470006536692380905e-03 1.023267395794391632e-02 2.277531847357749939e-02 2.004989422857761383e-02 -4.403210710734128952e-03 1.534932665526866913e-02 4.517222195863723755e-02 1.463907212018966675e-02 1.956956088542938232e-02 2.379315532743930817e-02 -1.393540948629379272e-02 -3.932135924696922302e-02 2.592086419463157654e-02 -3.726701717823743820e-03 2.521653659641742706e-03 8.135912008583545685e-03 -1.233587227761745453e-02 -1.504208054393529892e-02 1.311853248625993729e-02 -5.672344472259283066e-03 1.619902811944484711e-02 9.007653221487998962e-03 -1.356850378215312958e-02 -6.452496629208326340e-03 9.536404162645339966e-03 -3.257527202367782593e-02 7.512959651648998260e-03 1.579952053725719452e-02 -1.465495303273200989e-02 -6.308202166110277176e-03 -2.083603851497173309e-02 2.336843870580196381e-02 -5.936844646930694580e-02 -8.485901169478893280e-03 -1.064305379986763000e-02 -9.264385327696800232e-03 -3.515356453135609627e-03 -9.093788452446460724e-03 -1.858307421207427979e-02 -4.044073633849620819e-03 -1.743397302925586700e-02 -5.599907413125038147e-02 2.228405140340328217e-02 4.101809859275817871e-02 -2.951533906161785126e-02 3.555355942808091640e-04 1.472934242337942123e-02 1.119016576558351517e-02 7.794817909598350525e-03 -3.459142753854393959e-03 -4.403139930218458176e-03 -3.955721110105514526e-02 -5.650985054671764374e-03 -1.101713534444570541e-02 -3.683960996568202972e-03 -1.672689057886600494e-02 6.882233079522848129e-03 3.440932603552937508e-03 1.140482071787118912e-02 -4.285106435418128967e-03 6.932910531759262085e-03 2.841935725882649422e-03 -2.341756224632263184e-02 2.021281421184539795e-02 -1.829736982472240925e-03 1.816453970968723297e-02 -9.629340842366218567e-03 -4.441643133759498596e-02 8.096115197986364365e-04 -1.545149553567171097e-02 2.971652662381529808e-03 -8.253254927694797516e-03 5.754173267632722855e-03 -2.971575828269124031e-03 -5.850165151059627533e-03 -6.675395183265209198e-03 -7.672104518860578537e-03 2.971043251454830170e-02 -4.149366635829210281e-03 2.442813292145729065e-02 1.239119190722703934e-02 -3.221847116947174072e-02 6.702778395265340805e-03 -1.711304113268852234e-02 -4.543103743344545364e-03 2.456913143396377563e-02
-3.925798460841178894e-02 -2.733191661536693573e-02 -1.316993404179811478e-02 -4.194968938827514648e-02 -3.144789487123489380e-02 -7.942722178995609283e-03 -4.381714854389429092e-03 -8.703357540071010590e-03 -1.882075332105159760e-02 1.726191863417625427e-02 -1.097303815186023712e-02 1.821257732808589935e-02 1.073526963591575623e-02 -2.376453392207622528e-02 -1.390455104410648346e-02 -1.149298157542943954e-02 -4.730880260467529297e-03 -1.830689422786235809e-02 2.620072476565837860e-02 1.562212780117988586e-02 -3.008430125191807747e-03 -8.771769702434539795e-03 3.345201164484024048e-02 2.267147041857242584e-02 -2.977228350937366486e-02 -5.962904077023267746e-03 2.621054183691740036e-03 -2.106571104377508163e-03 3.235727176070213318e-02 2.697372809052467346e-02 3.189604030922055244e-04 1.358327642083168030e-02 -5.833259783685207367e-03 6.006458308547735214e-03 1.275262329727411270e-02 -1.855795737355947495e-03 2.554593421518802643e-02 6.923093460500240326e-03 2.750286657828837633e-04 -7.127388380467891693e-03 8.220351301133632660e-03 -2.463586628437042236e-03 1.455683074891567230e-02 1.181198656558990479e-02 -9.901984594762325287e-03 -9.126317454501986504e-04 -1.469248160719871521e-02 -2.946902625262737274e-02 2.636003494262695312e-02 4.343007504940032959e-02 -6.361057981848716736e-03 -2.102678641676902771e-02 9.106765501201152802e-03 3.101957263424992561e-03 3.250489477068185806e-03 4.825726151466369629e-03 7.393367588520050049e-03 1.500609610229730606e-02 -1.648457720875740051e-03 2.617685310542583466e-02 2.166808955371379852e-02 -4.775722045451402664e-03 -1.722990884445607662e-03 -6.579985842108726501e-03 2.918570674955844879e-02 1.760506071150302887e-02 -4.124207771383225918e-04 7.589673157781362534e-03 -9.102290496230125427e-03 -1.737466454505920410e-02 7.484509609639644623e-03 1.395819429308176041e-02 1.399199105799198151e-02 3.997884225100278854e-03 -8.464107522740960121e-04 -9.199877269566059113e-03 -4.904010798782110214e-03 -7.558914367109537125e-03 -4.159322753548622131e-02 4.282628744840621948e-02 1.619915128685534000e-03 -2.188766933977603912e-02 1.309481263160705566e-02 2.445349656045436859e-02 8.957644458860158920e-04 7.303381804376840591e-03 4.162163473665714264e-03 4.633449390530586243e-02 1.273812819272279739e-02 -1.128881424665451050e-02 3.583143465220928192e-03 -1.867149397730827332e-02 1.443183049559593201e-02 -2.193852141499519348e-02 3.383722854778170586e-03 -3.325589373707771301e-02 -1.909428462386131287e-02 1.430577598512172699e-02 -1.038078404963016510e-02 1.663576997816562653e-02 2.717179991304874420e-02 -2.156085707247257233e-02 -7.037025410681962967e-03 3.841013181954622269e-03 -1.797333918511867523e-02 1.083589624613523483e-02 2.585484646260738373e-02 5.838068667799234390e-03 -6.157605908811092377e-03 -2.938736788928508759e-02 -4.426685161888599396e-03 -2.721840329468250275e-02 1.410696841776371002e-02 -1.391781214624643326e-02 6.394065450876951218e-03 3.036076901480555534e-03 -8.826238103210926056e-03 1.342133153229951859e-02 -5.389459058642387390e-02 -1.866369880735874176e-02 1.007299963384866714e-02 -2.134166425094008446e-03 6.196735426783561707e-03 7.766293827444314957e-03 -2.665795036591589451e-04 -1.926846243441104889e-02 2.876406349241733551e-02 -1.827864907681941986e-02
