1.858321204781532288e-02 2.701780013740062714e-02 -9.520277380943298340e-03 -4.204139113426208496e-02 1.818944327533245087e-02 2.047440782189369202e-02 -1.112692640163004398e-03 -1.699149981141090393e-02 -1.669932529330253601e-02 2.693235315382480621e-02 1.768954913131892681e-03 1.480710809119045734e-03 2.519639208912849426e-02 1.245872396975755692e-02 -1.836956292390823364e-02 -9.176471270620822906e-03 2.151615358889102936e-02 5.538878217339515686e-02 2.637109020724892616e-03 -4.660921171307563782e-03 1.549112983047962189e-02 1.141958776861429214e-02 -3.480739891529083252e-02 -5.725025199353694916e-03 9.798143059015274048e-03 1.058645453304052353e-02 -3.680827468633651733e-02 8.815947920083999634e-03 -1.324232108891010284e-02 2.641253359615802765e-02 -2.220908366143703461e-02 2.325846627354621887e-02 4.318346735090017319e-03 -1.884775422513484955e-02 1.874099671840667725e-02 -7.154904305934906006e-03 -5.383279174566268921e-03 -1.517717353999614716e-02 -1.977827399969100952e-03 2.262655645608901978e-02 1.261289697140455246e-03 -2.344891987740993500e-02 3.338176757097244263e-02 -2.690512314438819885e-02 -1.395061030052602291e-03 -2.122450806200504303e-02 3.502437099814414978e-02 5.883269011974334717e-03 -1.132865063846111298e-02 4.375931341201066971e-03 -1.837018318474292755e-02 -7.951941341161727905e-03 -7.197657134383916855e-03 1.326437480747699738e-02 1.161786168813705444e-02 -1.135290693491697311e-02 5.593616887927055359e-02 1.458636205643415451e-02 7.909585721790790558e-03 -3.697222331538796425e-03 1.152444537729024887e-02 1.108547672629356384e-02 -2.830482833087444305e-02 -1.513290405273437500e-02 -2.426858618855476379e-02 9.013990871608257294e-03 1.548869907855987549e-02 -2.713196445256471634e-04 1.745197339914739132e-03 2.439666725695133209e-02 5.251807719469070435e-02 9.621089324355125427e-03 -6.046994589269161224e-03 -2.062499895691871643e-02 -1.954370737075805664e-02 -1.344714127480983734e-02 2.971360832452774048e-02 -1.778263971209526062e-02 -5.886471830308437347e-03 1.561274472624063492e-02 1.511581649538129568e-04 1.229349989444017410e-02 3.288169950246810913e-02 -1.353413984179496765e-02 1.694711297750473022e-02 1.856907643377780914e-02 -1.806980371475219727e-02 -1.763796806335449219e-02 2.973051741719245911e-02 2.751243487000465393e-02 8.750110864639282227e-04 -3.175283595919609070e-02 -3.610668005421757698e-03 -2.554837148636579514e-03 -5.250085610896348953e-03 1.286276266910135746e-03 -4.666263610124588013e-02 2.118801698088645935e-03 -1.508153975009918213e-02 -5.853034090250730515e-03 1.375760417431592941e-02 -5.448592454195022583e-02 1.684126257896423340e-02 6.285257171839475632e-03 -1.714783534407615662e-02 1.802139915525913239e-02 -2.386247506365180016e-03 9.441197849810123444e-03 -3.197196498513221741e-02 6.489366758614778519e-03 -2.391438744962215424e-02 1.014743559062480927e-02 -2.603353373706340790e-02 3.520643711090087891e-02 -2.162450738251209259e-02 -2.513588592410087585e-02 4.344823770225048065e-03 1.893543079495429993e-02 2.320098131895065308e-02 -5.653382278978824615e-03 1.867995597422122955e-02 -3.296120837330818176e-02 3.792635165154933929e-03 2.048863098025321960e-04 1.495579537004232407e-02 -2.641062438488006592e-02 4.880664125084877014e-02 4.405125509947538376e-03
-9.712502360343933105e-03 -1.615513698197901249e-03 -1.475112326443195343e-02 1.368575170636177063e-02 -1.185931172221899033e-02 -2.195976115763187408e-02 -1.971931196749210358e-03 1.403155457228422165e-02 1.462873187847435474e-03 -4.272302612662315369e-04 -4.823350813239812851e-03 -4.454844165593385696e-03 -1.170228817500174046e-03 -1.682110317051410675e-02 4.324246663600206375e-03 -1.750485599040985107e-02 4.693294316530227661e-02 1.955600082874298096e-02 3.701683133840560913e-02 1.460912823677062988e-02 -2.397142536938190460e-02 -2.150196768343448639e-02 -1.717810519039630890e-02 -2.442486025393009186e-02 1.664968393743038177e-02 2.932017669081687927e-02 -7.291418965905904770e-03 2.829030388966202736e-03 7.226491346955299377e-03 2.485756389796733856e-02 1.883773133158683777e-02 -3.125121071934700012e-02 5.215442273765802383e-03 -3.884297795593738556e-03 -8.323837071657180786e-03 1.270234957337379456e-02 -1.458991132676601410e-02 1.557320472784340382e-03 -8.535128086805343628e-03 3.132481873035430908e-02 -3.920051828026771545e-02 7.748609059490263462e-04 -4.127922467887401581e-03 9.787138551473617554e-04 -2.950213104486465454e-02 -1.382580120116472244e-02 3.180643543601036072e-02 -4.671442881226539612e-02 8.069215342402458191e-03 -4.108806140720844269e-03 -2.348508872091770172e-02 -2.205547131597995758e-02 3.933665808290243149e-03 -8.134515956044197083e-03 -1.260785292834043503e-02 -1.024219859391450882e-02 1.212501525878906250e-02 -1.108482247218489647e-04 1.744103804230690002e-02 -8.989566005766391754e-03 -9.181004017591476440e-03 1.489436347037553787e-02 1.422337628901004791e-02 4.241073131561279297e-02 -2.091037295758724213e-02 -3.501249104738235474e-02 -1.051151379942893982e-02 -1.597038656473159790e-02 1.809238456189632416e-02 -4.943502321839332581e-02 2.697286836337298155e-04 2.873843535780906677e-02 1.602317206561565399e-02 -4.225089401006698608e-02 7.984216208569705486e-04 -4.994569718837738037e-02 -8.041119202971458435e-03 2.953484468162059784e-02 -1.099603995680809021e-02 -2.343824878334999084e-02 2.683050557971000671e-02 -1.043816935271024704e-02 2.570076845586299896e-02 7.776041049510240555e-03 -4.834060091525316238e-03 2.714329957962036133e-02 8.581633679568767548e-03 -3.011845052242279053e-03 -1.937954314053058624e-02 -1.848350465297698975e-02 -3.637475520372390747e-02 1.933032646775245667e-02 1.894139125943183899e-02 -1.336438860744237900e-02 4.458162467926740646e-03 7.583383005112409592e-03 1.127333287149667740e-02 3.383701667189598083e-02 -1.893251761794090271e-02 -1.250410545617341995e-02 -2.936176210641860962e-02 2.268384705530479550e-04 -3.326113894581794739e-02 8.566368371248245239e-03 -1.260247919708490372e-02 1.340256538242101669e-02 -3.095597960054874420e-02 -2.863479964435100555e-02 8.143085055053234100e-03 -7.153681479394435883e-03 -1.832087151706218719e-02 -9.824834996834397316e-04 -1.186202932149171829e-02 1.153820380568504333e-02 2.885912545025348663e-02 2.355768159031867981e-02 4.138238728046417236e-03 2.204817533493041992e-02 1.669394783675670624e-02 -8.960942737758159637e-03 -2.963849809020757675e-03 4.812706261873245239e-02 1.018769852817058563e-02 -1.866606995463371277e-03 1.106766797602176666e-02 2.071938477456569672e-02 -2.459921315312385559e-02 3.196672722697257996e-02
2.521985210478305817e-02 2.841990813612937927e-02 3.441862994804978371e-03 -3.898729570209980011e-03 1.394128892570734024e-02 2.769661834463477135e-03 -1.639938727021217346e-02 1.824714243412017822e-03 -3.039510734379291534e-02 -1.675551012158393860e-02 3.008770057931542397e-03 2.145984582602977753e-02 -2.635641768574714661e-02 -8.268694393336772919e-03 -2.306681498885154724e-02 2.549876831471920013e-02 -1.039791759103536606e-02 -1.387678459286689758e-02 3.696454316377639771e-02 -7.716112770140171051e-03 3.573624044656753540e-02 -3.226709784939885139e-03 1.236856169998645782e-02 1.719085127115249634e-02 2.821049652993679047e-02 -1.518179848790168762e-02 4.315137863159179688e-02 1.363110262900590897e-02 9.325254708528518677e-03 -2.794723212718963623e-02 -1.666883751749992371e-02 1.394111383706331253e-02 -1.166260335594415665e-03 -3.755397722125053406e-02 1.428643520921468735e-02 5.781888030469417572e-03 1.010315399616956711e-02 1.352341473102569580e-02 -1.007954217493534088e-02 3.121353127062320709e-02 -1.856372877955436707e-02 7.088955491781234741e-03 2.176012657582759857e-02 1.614560559391975403e-02 1.790551468729972839e-02 -3.390563279390335083e-02 -2.404843270778656006e-02 1.442039664834737778e-02 -1.567142317071557045e-03 2.286514732986688614e-03 2.330480515956878662e-02 -3.569028805941343307e-03 2.475838875398039818e-03 -9.409507736563682556e-03 -1.596026495099067688e-02 1.756390184164047241e-02 -2.064592763781547546e-02 1.101854164153337479e-02 -2.768283337354660034e-02 -1.928812637925148010e-02 -3.439139574766159058e-03 -3.659941256046295166e-02 -1.181462872773408890e-02 -4.535971581935882568e-02 -1.473446190357208252e-02 -4.291585832834243774e-02 1.474058907479047775e-02 -7.058852934278547764e-04 2.080990932881832123e-02 2.771711722016334534e-02 -1.470120530575513840e-02 2.230638638138771057e-02 1.354261953383684158e-02 2.367874793708324432e-02 3.402220085263252258e-02 3.674514126032590866e-03 2.474688179790973663e-02 -3.183615952730178833e-02 -7.528585847467184067e-03 2.440237626433372498e-02 -2.908470574766397476e-03 2.368726395070552826e-02 2.300465106964111328e-02 -1.386517845094203949e-02 -2.127964980900287628e-02 -2.004004642367362976e-02 4.818075336515903473e-03 -1.082402095198631287e-02 -6.610690150409936905e-03 -1.394801679998636246e-02 9.399996139109134674e-03 1.517771929502487183e-02 -1.398598682135343552e-02 5.854257848113775253e-03 2.595377853140234947e-03 -2.982639335095882416e-02 -1.045089121907949448e-02 -4.993047099560499191e-03 1.293248962610960007e-02 4.024253785610198975e-02 1.256482955068349838e-02 -8.907516486942768097e-03 -2.621402405202388763e-02 -2.957187779247760773e-02 -1.781574264168739319e-02 1.948661170899868011e-02 4.791816696524620056e-02 2.383900806307792664e-02 -3.304908052086830139e-02 2.572022378444671631e-03 -2.968945074826478958e-03 1.667509600520133972e-02 2.273152582347393036e-02 1.859213924035429955e-03 -2.674962952733039856e-02 -1.551190949976444244e-02 -3.862430155277252197e-02 -3.071052720770239830e-03 2.576079778373241425e-02 6.226153112947940826e-03 2.180635184049606323e-02 1.599434390664100647e-02 -1.011483278125524521e-02 -1.238329615443944931e-02 -1.968354731798171997e-02 -1.441168598830699921e-02 5.731437820941209793e-03 -1.968207396566867828e-02
-2.844067756086587906e-03 -4.027128592133522034e-02 -2.012629993259906769e-02 -1.385364797897636890e-03 8.963229134678840637e-03 -1.927831768989562988e-02 -1.700685359537601471e-02 1.716035977005958557e-02 -2.995930612087249756e-02 -7.961667142808437347e-03 -4.913056618534028530e-04 -1.566308550536632538e-02 2.659977413713932037e-02 -2.891167812049388885e-02 1.733662793412804604e-05 -1.514184288680553436e-02 -1.520723570138216019e-02 4.326417669653892517e-02 4.128731321543455124e-03 2.269267663359642029e-02 6.590050179511308670e-03 1.318779774010181427e-02 7.830121321603655815e-04 -2.776919119060039520e-02 1.552050840109586716e-02 -7.411360740661621094e-03 8.307165466248989105e-03 1.903801225125789642e-02 -1.236737705767154694e-02 5.593271926045417786e-04 -2.263493649661540985e-02 -2.139294520020484924e-02 1.404861547052860260e-02 -3.956698626279830933e-02 -1.053012814372777939e-02 3.775091841816902161e-02 1.278554182499647141e-02 -2.781265880912542343e-03 -2.012575743719935417e-03 -2.995742252096533775e-03 1.199387758970260620e-02 2.751007303595542908e-02 -3.610441088676452637e-02 -3.238165751099586487e-02 2.374578826129436493e-02 9.762429632246494293e-03 1.626788266003131866e-02 4.963525570929050446e-03 4.583500698208808899e-02 1.725911535322666168e-02 1.800683885812759399e-02 -5.418241769075393677e-02 -3.084714524447917938e-02 -8.516525849699974060e-04 -4.122515022754669189e-02 1.650920882821083069e-02 7.674877531826496124e-03 -2.316241711378097534e-02 9.966355748474597931e-03 -1.743001863360404968e-02 1.030491665005683899e-02 1.138410903513431549e-02 -9.122034534811973572e-03 2.563409693539142609e-02 -3.221497312188148499e-02 -8.822817355394363403e-03 -2.369190938770771027e-02 2.809428796172142029e-02 -1.109039317816495895e-02 1.799594797194004059e-02 3.343328833580017090e-02 2.330825664103031158e-02 -3.489292412996292114e-02 1.069615967571735382e-02 2.652939409017562866e-02 1.230732910335063934e-02 1.587871694937348366e-03 -3.894775174558162689e-03 -1.228180062025785446e-02 8.621782064437866211e-03 3.092101775109767914e-02 2.479222789406776428e-02 1.643645763397216797e-02 -4.434518516063690186e-03 -2.083245664834976196e-02 -1.562616229057312012e-02 -1.887480611912906170e-03 1.957741007208824158e-02 -2.098815888166427612e-02 1.395221054553985596e-02 -1.070975046604871750e-02 -2.103296574205160141e-03 -7.488410454243421555e-03 1.936768181622028351e-02 -1.014877203851938248e-02 -4.973938222974538803e-03 -4.611981660127639771e-02 -1.566865108907222748e-02 1.901168562471866608e-02 -2.146958746016025543e-02 -3.136569168418645859e-03 2.285925112664699554e-02 4.263904702384024858e-04 4.309523105621337891e-02 -8.183903060853481293e-03 1.680580154061317444e-02 -1.053296402096748352e-02 1.963295973837375641e-02 5.887520965188741684e-03 1.210005022585391998e-02 -1.309728948399424553e-03 -2.281154133379459381e-02 1.321664173156023026e-02 4.556515440344810486e-02 2.837057784199714661e-02 1.542517077177762985e-02 2.867520973086357117e-02 -3.776281664613634348e-04 4.449962638318538666e-03 -1.032992079854011536e-02 1.719437353312969208e-02 -3.432453051209449768e-02 -1.415456179529428482e-02 3.330879285931587219e-02 -3.774242475628852844e-02 -1.788225769996643066e-02 4.010085482150316238e-03 6.153643596917390823e-03
1.441263779997825623e-02 -2.345997840166091919e-02 -4.164176061749458313e-02 -5.638072267174720764e-03 6.871829181909561157e-02 2.513507753610610962e-02 2.138458658009767532e-03 -1.114470697939395905e-02 2.474486827850341797e-02 8.344869129359722137e-03 -1.750336959958076477e-03 -6.869275588542222977e-03 -4.179175943136215210e-03 -8.921367116272449493e-03 3.369084745645523071e-02 5.460649728775024414e-03 2.682353369891643524e-02 2.527693472802639008e-02 5.629284307360649109e-03 -1.431481679901480675e-03 1.399771217256784439e-02 1.239733584225177765e-02 2.075870707631111145e-02 -1.922258362174034119e-02 4.173492081463336945e-03 8.317235042341053486e-04 1.409264747053384781e-03 -3.729027882218360901e-02 -2.089572697877883911e-02 8.600438944995403290e-03 1.181335747241973877e-02 3.259029611945152283e-02 -3.180946037173271179e-02 -5.580612923949956894e-03 -2.597799524664878845e-02 -2.272017300128936768e-03 2.755630202591419220e-02 -1.069533359259366989e-02 -8.403104729950428009e-03 -1.277904026210308075e-03 1.592918112874031067e-02 9.102836251258850098e-03 4.995852708816528320e-02 -1.251546107232570648e-02 8.063504472374916077e-03 -2.426208369433879852e-02 -2.183841355144977570e-02 2.032192423939704895e-02 -2.089309319853782654e-02 -4.237301275134086609e-02 -2.303874120116233826e-02 4.390837624669075012e-03 -1.788256689906120300e-02 -7.544409949332475662e-03 2.558532916009426117e-02 -4.451652243733406067e-02 -3.805490955710411072e-02 -3.732883930206298828e-02 2.116392739117145538e-02 -2.262978348881006241e-03 2.689606323838233948e-02 1.491846982389688492e-02 2.470275200903415680e-02 -4.075030330568552017e-03 1.366514625260606408e-04 2.745632827281951904e-02 3.305983263999223709e-03 -2.103577740490436554e-02 1.566771045327186584e-02 3.027979098260402679e-02 2.106938976794481277e-03 2.283436246216297150e-02 6.072085350751876831e-03 -4.604123823810368776e-04 1.248292066156864166e-02 7.697367691434919834e-04 1.444620173424482346e-02 -1.980407349765300751e-02 -1.447042543441057205e-02 -7.602922618389129639e-03 1.667573116719722748e-02 -1.290693506598472595e-02 2.585394494235515594e-02 1.893352530896663666e-02 -1.446958747692406178e-03 1.786397333489730954e-04 3.433510661125183105e-03 -5.352520383894443512e-03 -1.537953782826662064e-02 -2.307045646011829376e-02 -1.178503967821598053e-02 -1.016029855236411095e-03 1.079042628407478333e-02 -4.969910159707069397e-02 -3.546217456459999084e-02 2.475658257026225328e-04 3.728757053613662720e-02 3.400539606809616089e-02 -1.628384366631507874e-02 -9.083918295800685883e-03 1.347509864717721939e-02 -2.881619613617658615e-03 -1.707222778350114822e-03 8.804329670965671539e-03 1.419998891651630402e-02 -1.314728707075119019e-02 -2.466422505676746368e-02 5.774284247308969498e-03 -2.639030665159225464e-02 9.963020682334899902e-03 3.164471359923481941e-03 5.938437301665544510e-03 2.083455584943294525e-02 -1.415858394466340542e-03 -1.697064749896526337e-02 1.365147763863205910e-03 4.288193210959434509e-02 2.904936298727989197e-02 -1.681567355990409851e-02 -1.036810129880905151e-02 6.218381598591804504e-02 2.448843605816364288e-02 6.736268755048513412e-03 1.865789876319468021e-03 6.704913452267646790e-03 -2.466413937509059906e-02 -5.123415961861610413e-03 1.571352221071720123e-02
2.509133704006671906e-02 -8.519118651747703552e-03 -2.845685230568051338e-03 -2.681833878159523010e-02 1.488797366619110107e-02 1.610025204718112946e-02 2.539506927132606506e-02 1.339906267821788788e-02 2.020333707332611084e-02 -6.298040971159934998e-03 -2.220658119767904282e-03 -1.917429454624652863e-02 8.634610101580619812e-03 4.543681629002094269e-03 -3.013361804187297821e-02 -2.847229689359664917e-02 -2.553811063989996910e-03 1.118727866560220718e-02 -7.855114527046680450e-03 -1.230276655405759811e-02 -2.435935428366065025e-03 2.044488210231065750e-03 -1.222416944801807404e-02 1.495907735079526901e-02 1.492048148065805435e-02 1.654705591499805450e-02 1.426326110959053040e-02 9.335476905107498169e-03 -1.112690754234790802e-02 1.297169178724288940e-02 1.787927234545350075e-03 -2.354729175567626953e-02 1.075767725706100464e-02 -4.486042074859142303e-03 2.699917182326316833e-02 -2.030652016401290894e-03 -4.593037534505128860e-03 -8.215164765715599060e-03 -9.697155095636844635e-03 -2.201069146394729614e-02 1.112906634807586670e-02 8.702957420609891415e-04 -2.168611064553260803e-02 -6.984997075051069260e-03 1.601524651050567627e-02 -1.297396607697010040e-02 2.221204154193401337e-02 -4.330630600452423096e-02 -3.389643970876932144e-03 1.500792242586612701e-02 3.344712778925895691e-02 -1.494993455708026886e-02 5.530587863177061081e-03 5.031862761825323105e-03 -1.050815451890230179e-02 -2.122872136533260345e-02 -1.158165186643600464e-02 -3.691483987495303154e-03 2.635942213237285614e-02 3.853054717183113098e-02 -1.378070842474699020e-02 9.449249133467674255e-03 4.946740344166755676e-03 -4.840635508298873901e-02 -3.371647372841835022e-02 2.255984349176287651e-03 8.108911104500293732e-03 -2.372375130653381348e-02 -1.633305661380290985e-02 -5.811135051771998405e-04 -4.863211885094642639e-03 -2.048442512750625610e-02 -7.961228489875793457e-03 -3.161720559000968933e-02 -1.594807580113410950e-02 2.765424735844135284e-02 -2.661664038896560669e-03 -6.855551619082689285e-03 -2.663506427779793739e-03 3.010290861129760742e-02 5.806482862681150436e-03 -8.879797533154487610e-03 3.911025356501340866e-03 -9.464401751756668091e-03 -1.161251496523618698e-02 3.493641689419746399e-02 -2.150164172053337097e-02 6.163136102259159088e-03 -2.646953798830509186e-02 -2.295901300385594368e-03 1.274528354406356812e-02 -1.329672639258205891e-03 -3.520924597978591919e-03 1.643458753824234009e-02 3.386398404836654663e-02 7.942751049995422363e-03 -1.151874847710132599e-02 -3.404733166098594666e-02 -1.917529478669166565e-02 3.427295759320259094e-02 -1.431692112237215042e-02 -9.942850098013877869e-03 1.351397205144166946e-02 -1.564534753561019897e-02 -1.658271183259785175e-03 6.072877906262874603e-03 -4.991777706891298294e-03 2.848070114850997925e-02 -1.483562123030424118e-02 -3.231435269117355347e-02 -1.541271572932600975e-03 1.193462777882814407e-02 2.687225490808486938e-02 -2.104089129716157913e-03 9.070496074855327606e-03 4.908496048301458359e-03 4.214805550873279572e-03 -6.338146049529314041e-03 2.141917496919631958e-02 1.641085185110569000e-02 1.572856307029724121e-02 8.578849519835785031e-05 -2.944742143154144287e-02 -5.401931703090667725e-02 5.133438389748334885e-03 2.663573483005166054e-03 7.160302717238664627e-03 -3.309948369860649109e-03
7.175853825174272060e-04 -3.890977427363395691e-02 2.050384879112243652e-02 -3.030510619282722473e-02 -7.231497205793857574e-03 2.639553742483258247e-03 -8.856439031660556793e-03 -7.123437244445085526e-03 -3.528048470616340637e-02 -3.637208044528961182e-02 -9.532436728477478027e-03 2.928912290371954441e-04 1.245261635631322861e-02 1.544264610856771469e-02 1.560762338340282440e-02 2.715282887220382690e-02 -9.830725379288196564e-03 -5.918837618082761765e-03 2.860275283455848694e-02 -1.563018560409545898e-02 -3.613657131791114807e-02 1.511291228234767914e-02 -1.217427477240562439e-02 1.508094370365142822e-02 3.509712638333439827e-03 2.578696422278881073e-02 1.399721577763557434e-02 -3.112588077783584595e-02 -9.126933291554450989e-03 -1.633954048156738281e-02 -3.689174726605415344e-02 -1.435862388461828232e-02 3.554845927283167839e-03 2.396961487829685211e-02 -2.136567048728466034e-02 -1.700090803205966949e-02 1.072291471064090729e-02 1.295555103570222855e-02 4.101715609431266785e-02 -7.118366193026304245e-03 -1.054236944764852524e-02 -6.836347281932830811e-03 3.927358239889144897e-02 -1.137802319135516882e-04 -3.124444745481014252e-03 -2.155419252812862396e-02 1.849124208092689514e-02 -1.472501666285097599e-03 -3.200034052133560181e-02 -7.369540166109800339e-03 2.463563904166221619e-02 -2.111000241711735725e-03 -1.016792189329862595e-02 -1.691452786326408386e-02 -3.251411020755767822e-03 -3.994088619947433472e-03 1.161206420511007309e-02 1.684431359171867371e-02 -2.565076341852545738e-03 -1.296789105981588364e-02 1.950467005372047424e-02 -2.035611309111118317e-02 -2.938230708241462708e-02 -1.322188507765531540e-02 -6.886454764753580093e-03 -4.246428143233060837e-03 -1.155779417604207993e-02 1.467041857540607452e-02 -3.494196012616157532e-02 -2.392798103392124176e-02 -7.116065360605716705e-03 -1.813190244138240814e-02 -1.895378157496452332e-02 -2.850348688662052155e-02 -1.258010324090719223e-02 -1.566295395605266094e-03 2.780793793499469757e-02 9.737199172377586365e-03 -1.459844037890434265e-02 3.994106501340866089e-02 3.686019405722618103e-02 1.235830318182706833e-02 -3.525718674063682556e-02 1.087708212435245514e-02 -6.901960819959640503e-03 7.389231119304895401e-03 2.602502517402172089e-02 1.285335142165422440e-02 -3.777631092816591263e-03 -8.791492320597171783e-03 1.837353408336639404e-02 -2.946703322231769562e-02 -9.613719768822193146e-03 -4.049561545252799988e-02 -2.629652991890907288e-02 1.088977325707674026e-03 -8.745129453018307686e-04 2.806231612339615822e-03 -3.958509303629398346e-03 6.486269179731607437e-03 1.402746792882680893e-02 2.896095253527164459e-02 -1.173000782728195190e-02 1.080028712749481201e-02 -1.828800654038786888e-03 -1.939162611961364746e-02 -2.696304954588413239e-02 -3.175880014896392822e-02 -1.411250233650207520e-02 1.682793907821178436e-02 1.627660170197486877e-02 1.255923882126808167e-02 2.236655127489939332e-04 -3.950332757085561752e-04 5.517153185792267323e-04 -5.000366363674402237e-04 -3.655930608510971069e-02 -1.521309372037649155e-02 2.703995443880558014e-02 3.308867290616035461e-02 4.998529702425003052e-02 -4.176273010671138763e-03 1.429365947842597961e-03 -1.820342056453227997e-02 -2.612143009901046753e-02 -6.428721360862255096e-03 1.904039829969406128e-02 2.287216921104118228e-04
4.275159910321235657e-02 5.931316409260034561e-03 -1.132517028599977493e-02 -9.797073900699615479e-03 -3.919876739382743835e-02 1.644654758274555206e-02 -1.161798369139432907e-02 -3.151113865897059441e-03 3.448711475357413292e-03 1.358418725430965424e-03 -4.690340254455804825e-03 -1.367941312491893768e-02 2.569024451076984406e-02 1.908222585916519165e-02 1.420746371150016785e-02 -1.511966809630393982e-03 1.030788756906986237e-03 7.858442142605781555e-03 -9.208096307702362537e-04 2.813960239291191101e-02 -1.041168440133333206e-02 -1.476036850363016129e-02 2.086598798632621765e-02 -1.102183479815721512e-02 -9.348002262413501740e-03 -2.110960893332958221e-02 -5.380139336921274662e-04 1.778349652886390686e-02 2.971403766423463821e-03 1.881752163171768188e-02 2.726817503571510315e-02 -1.123857963830232620e-02 4.242164641618728638e-02 1.516467798501253128e-02 -1.892929524183273315e-02 -2.776962518692016602e-02 3.927347436547279358e-02 3.417938202619552612e-02 -1.860382221639156342e-02 1.225767098367214203e-02 1.920343562960624695e-02 -9.075572714209556580e-03 -5.957842338830232620e-03 -1.846805028617382050e-02 4.567792639136314392e-03 1.586319133639335632e-02 1.988808624446392059e-02 -2.568507194519042969e-02 6.306650117039680481e-03 1.697956584393978119e-02 -3.972192294895648956e-03 1.811210066080093384e-02 -2.765735611319541931e-02 -1.529777608811855316e-02 -1.070864032953977585e-02 -1.682686433196067810e-02 -2.899419981986284256e-03 9.418696165084838867e-03 6.356180645525455475e-03 3.716971352696418762e-02 -5.554931703954935074e-03 2.322233095765113831e-02 -8.110063150525093079e-03 -2.931091934442520142e-02 3.808354027569293976e-03 1.923469826579093933e-02 -1.747584715485572815e-02 -1.809396594762802124e-02 1.245403848588466644e-02 -1.022270321846008301e-02 -1.225917693227529526e-02 -1.162394043058156967e-02 5.007858388125896454e-03 8.586048148572444916e-03 -9.379083290696144104e-03 -2.848243340849876404e-03 -6.174582056701183319e-03 -1.802316121757030487e-02 -1.404989790171384811e-02 -4.952675104141235352e-02 7.603531703352928162e-03 1.277844049036502838e-02 1.824255846440792084e-02 1.024186797440052032e-02 6.509172264486551285e-03 -2.774923481047153473e-02 1.525059062987565994e-02 4.529907833784818649e-03 -4.539249464869499207e-03 -2.077318355441093445e-02 1.216693688184022903e-02 -1.927682384848594666e-02 -5.562548525631427765e-03 1.919059269130229950e-02 1.045448984950780869e-02 2.587102353572845459e-02 3.103724494576454163e-02 1.206773892045021057e-02 -4.490260500460863113e-03 -1.410513278096914291e-02 -3.988824319094419479e-03 -2.069247700273990631e-02 2.443398407194763422e-04 -3.881625365465879440e-03 2.599724102765321732e-03 -6.091263610869646072e-03 1.186768058687448502e-02 3.011759184300899506e-02 1.133677922189235687e-02 5.914186593145132065e-03 1.459217071533203125e-02 1.630053855478763580e-02 -7.077408954501152039e-03 4.136099014431238174e-03 -1.061942428350448608e-02 1.659794338047504425e-02 -3.416152298450469971e-02 -2.713434584438800812e-02 2.756442502140998840e-02 1.454323995858430862e-02 3.065173281356692314e-03 7.141903974115848541e-03 -3.001570887863636017e-02 -8.148223161697387695e-03 -1.088669523596763611e-02 -9.202447719871997833e-03 6.325151305645704269e-03 -2.027467451989650726e-02
1.366063766181468964e-02 -2.090497128665447235e-02 -1.043720357120037079e-02 -1.534652989357709885e-02 3.512006951496005058e-03 -1.351155526936054230e-02 -2.710927650332450867e-02 2.377877011895179749e-02 -1.167118735611438751e-02 -5.933847744017839432e-03 2.511085383594036102e-02 1.812725531635805964e-04 -1.323074684478342533e-03 -1.671114191412925720e-02 -2.292069420218467712e-02 2.068193070590496063e-02 1.468818355351686478e-02 1.583572290837764740e-02 3.884955495595932007e-02 6.219542585313320160e-03 7.465712726116180420e-02 -5.623838398605585098e-03 1.432038471102714539e-02 1.636631600558757782e-02 -2.732673846185207367e-02 3.462138026952743530e-02 9.746816940605640411e-03 -1.455711666494607925e-02 -2.364110201597213745e-02 -1.586168631911277771e-02 1.676156185567378998e-02 -2.874425612390041351e-02 -1.754686050117015839e-02 8.390408940613269806e-03 2.740691043436527252e-02 -3.522617043927311897e-03 2.248266339302062988e-02 -2.110704220831394196e-02 1.683057099580764771e-02 1.944324001669883728e-02 3.298750519752502441e-02 -4.974783863872289658e-03 -5.970231257379055023e-03 2.477542124688625336e-02 -1.147029222920536995e-03 4.514964297413825989e-03 -1.974138803780078888e-02 1.278207637369632721e-02 -6.258345674723386765e-03 -3.085114248096942902e-02 -3.087075613439083099e-02 5.637145601212978363e-03 1.204878743737936020e-02 2.752342447638511658e-02 2.225126512348651886e-02 -1.177350059151649475e-02 1.412825565785169601e-02 -3.386288136243820190e-02 2.365640737116336823e-02 7.130397018045186996e-03 -1.211587805300951004e-02 -8.577286498621106148e-04 2.974031120538711548e-02 3.194737806916236877e-02 1.759817823767662048e-02 8.901283144950866699e-03 2.776998654007911682e-02 9.710407815873622894e-03 -1.899005100131034851e-02 -3.097910247743129730e-02 -1.763988472521305084e-02 -2.631813287734985352e-02 -2.049686573445796967e-02 6.713810143992304802e-04 -1.131199207156896591e-02 -2.093451842665672302e-02 1.326530892401933670e-02 3.688183054327964783e-02 -1.987139880657196045e-02 2.791037969291210175e-02 -1.076524611562490463e-02 8.459659293293952942e-03 1.297006104141473770e-02 -2.857249055523425341e-04 -3.261429956182837486e-03 -2.883454225957393646e-02 9.310640743933618069e-04 -4.043113440275192261e-03 -1.451952569186687469e-02 9.944287128746509552e-03 -1.925672404468059540e-02 -1.778020523488521576e-02 -3.611841797828674316e-02 8.789469487965106964e-03 -3.048580139875411987e-02 -1.993526890873908997e-02 -1.735175587236881256e-02 5.499679129570722580e-03 -1.165101025253534317e-02 -3.536017239093780518e-02 4.592323675751686096e-04 -3.209326183423399925e-03 -2.705900231376290321e-03 -1.746682077646255493e-02 1.818330213427543640e-02 -2.249183878302574158e-02 1.519021205604076385e-02 -2.698364853858947754e-02 1.254297327250242233e-02 -1.529538352042436600e-02 -3.779251826927065849e-03 -8.445261977612972260e-03 1.886159926652908325e-02 -1.220401376485824585e-02 -1.647447608411312103e-02 2.989613683894276619e-03 -3.134827828034758568e-03 -2.149308472871780396e-02 -1.022554282099008560e-02 -8.802230469882488251e-03 1.907796040177345276e-02 5.930173210799694061e-03 -1.261056400835514069e-02 2.710132393985986710e-04 -2.040777727961540222e-02 -5.525899305939674377e-02 -2.386779338121414185e-02 -1.688514836132526398e-02
1.217424590140581131e-02 -1.913653500378131866e-02 -3.612435888499021530e-03 -7.118313573300838470e-03 1.524222083389759064e-02 1.445418689399957657e-02 -1.938932761549949646e-02 -3.622013900894671679e-04 -3.272476792335510254e-02 1.057683303952217102e-02 -1.827902346849441528e-02 -3.381962655112147331e-03 -7.764350157231092453e-03 -1.363006234169006348e-02 -1.530699897557497025e-02 -2.569654025137424469e-03 1.386559195816516876e-02 -1.270934659987688065e-02 2.503824234008789062e-02 -2.335397340357303619e-02 9.494351223111152649e-03 -4.605027660727500916e-02 1.581468619406223297e-02 -2.068271860480308533e-02 -2.522193826735019684e-04 1.887582987546920776e-02 7.937887683510780334e-03 -1.184962876141071320e-02 2.292089862748980522e-03 -2.055793628096580505e-02 6.834499537944793701e-03 -3.824925795197486877e-02 2.745428681373596191e-02 -1.669427193701267242e-02 -8.584782481193542480e-03 1.024461444467306137e-02 2.401164919137954712e-02 -2.249397709965705872e-02 -7.021124940365552902e-03 -1.212738174945116043e-02 1.114998664706945419e-02 1.326015219092369080e-02 3.302685916423797607e-02 -1.539204921573400497e-02 1.481202524155378342e-02 -3.334838524460792542e-02 3.001390583813190460e-02 1.952746883034706116e-02 9.320173412561416626e-03 -1.443286053836345673e-02 3.549500135704874992e-03 9.924123995006084442e-03 1.099988352507352829e-02 1.675486797466874123e-03 -2.022561384364962578e-03 3.869165200740098953e-03 -1.248496491461992264e-02 1.422534114681184292e-04 -5.820183083415031433e-03 3.586405143141746521e-02 1.730401441454887390e-02 -2.170963911339640617e-03 1.237313821911811829e-02 -2.520649880170822144e-02 5.630556028336286545e-03 -1.750937779434025288e-03 -3.021001815795898438e-02 -5.021779332309961319e-03 -1.620411872863769531e-02 -7.219819817692041397e-03 1.795569621026515961e-02 -2.667681314051151276e-03 -1.008251029998064041e-02 -8.256901986896991730e-03 -2.532012993469834328e-03 7.687869016081094742e-03 -3.408178687095642090e-03 -2.339841797947883606e-03 -3.321043774485588074e-02 -1.512365322560071945e-02 -3.129114210605621338e-02 -1.353592146188020706e-02 2.543085999786853790e-02 -1.393654663115739822e-02 2.959203906357288361e-03 3.976114466786384583e-02 -8.876251056790351868e-03 -4.187078215181827545e-03 5.270457826554775238e-03 7.723310030996799469e-03 2.191864699125289917e-02 -2.085816347971558571e-03 -6.626308429986238480e-03 7.718459237366914749e-03 2.214429527521133423e-02 8.439593948423862457e-03 -1.419060770422220230e-02 -1.584091456606984138e-03 -7.553579751402139664e-03 -1.197132188826799393e-02 -3.507119044661521912e-02 -2.367561496794223785e-02 1.295118872076272964e-02 9.611083194613456726e-03 -2.042697928845882416e-02 3.602207079529762268e-02 7.202726555988192558e-05 4.536961205303668976e-03 8.321949280798435211e-03 3.025107085704803467e-02 1.078186277300119400e-02 1.838483102619647980e-02 7.886275649070739746e-03 -1.035788003355264664e-02 -1.228447258472442627e-02 -1.214696280658245087e-02 -2.688669785857200623e-02 -3.502839431166648865e-02 -4.150135442614555359e-02 -1.758780889213085175e-02 -6.963576655834913254e-03 1.453443244099617004e-02 -1.454081293195486069e-02 -8.829582482576370239e-03 -4.135717637836933136e-03 4.494162276387214661e-03 3.484246134757995605e-02 2.617618069052696228e-02
1.462753047235310078e-03 7.066937978379428387e-04 2.337677218019962311e-02 -2.619399502873420715e-02 -5.559667944908142090e-03 -4.568940494209527969e-03 -2.576553821563720703e-02 -1.187995169311761856e-02 2.079853974282741547e-02 -2.055014483630657196e-02 -5.096404813230037689e-03 -1.972756721079349518e-02 9.734804742038249969e-03 -2.963256835937500000e-02 8.325818926095962524e-03 1.503344718366861343e-02 -7.347910664975643158e-03 -2.345947735011577606e-02 5.151598900556564331e-02 -2.020631358027458191e-02 -1.827095076441764832e-02 -9.598189033567905426e-03 -4.205317702144384384e-03 1.692395657300949097e-02 -4.617495834827423096e-02 1.893475838005542755e-02 -5.421536974608898163e-03 -6.548990961164236069e-03 1.284768991172313690e-02 1.295369863510131836e-02 -6.798831163905560970e-04 7.869570516049861908e-03 2.725052833557128906e-02 3.400031127966940403e-04 -9.539959952235221863e-03 2.715265192091464996e-02 -1.255048811435699463e-02 -2.213811501860618591e-02 3.551653772592544556e-02 3.906577080488204956e-02 -2.469486743211746216e-02 -1.724798418581485748e-02 -1.203775219619274139e-02 5.773359909653663635e-03 -1.254336722195148468e-02 1.207732688635587692e-02 -6.927099544554948807e-03 2.013058215379714966e-02 -1.756932400166988373e-02 1.130002457648515701e-02 1.345923263579607010e-02 4.578645527362823486e-02 4.631251613318454474e-06 -1.759925298392772675e-02 3.343730047345161438e-02 2.707102708518505096e-02 -7.916147820651531219e-03 -1.763426698744297028e-02 2.238661516457796097e-03 -3.238109126687049866e-02 8.505444042384624481e-03 -1.321354880928993225e-03 6.484866607934236526e-03 2.921869419515132904e-02 -2.776043675839900970e-02 -3.814268624410033226e-03 3.246422391384840012e-03 -3.389800339937210083e-02 3.722843900322914124e-02 -2.337752468883991241e-02 1.206029113382101059e-02 7.848656736314296722e-03 4.998824093490839005e-03 -6.520411930978298187e-03 -6.308573298156261444e-03 -2.655219286680221558e-02 -1.646785996854305267e-02 -2.254037884995341301e-03 -4.743875004351139069e-03 -9.800818748772144318e-03 8.909278549253940582e-03 -6.110957823693752289e-03 -1.589536666870117188e-02 -1.042120065540075302e-02 -1.455571409314870834e-02 1.722247712314128876e-02 -3.217484802007675171e-02 8.945802226662635803e-03 2.876060642302036285e-02 -4.600577801465988159e-02 2.495424123480916023e-03 1.243355963379144669e-02 -2.775776572525501251e-02 -1.451961044222116470e-02 -2.007285505533218384e-02 -4.121760278940200806e-02 1.443561911582946777e-02 3.630581125617027283e-02 -2.797736600041389465e-02 -4.200059920549392700e-03 -5.263216327875852585e-03 -2.203108556568622589e-02 1.584126986563205719e-02 -4.439795017242431641e-02 -1.805448159575462341e-02 1.510727033019065857e-02 -4.100551363080739975e-03 4.451009444892406464e-03 4.557169508188962936e-03 -4.699652642011642456e-02 7.661121780984103680e-04 -2.876773709431290627e-03 -8.218699134886264801e-03 -1.279580686241388321e-02 2.694256976246833801e-02 2.340223081409931183e-02 -2.175943693146109581e-03 -4.659191891551017761e-02 -2.763073332607746124e-02 6.636170670390129089e-03 3.471995517611503601e-02 -1.544231316074728966e-03 -2.295866142958402634e-03 2.712444961071014404e-02 -3.149834647774696350e-02 -2.576969377696514130e-02 1.007560081779956818e-02 -2.447813283652067184e-03
-1.988103054463863373e-02 3.072928451001644135e-02 1.339295879006385803e-02 3.050520643591880798e-02 -9.914234280586242676e-03 -4.903655964881181717e-03 -2.689305692911148071e-03 2.323516085743904114e-02 2.657008916139602661e-02 2.653494011610746384e-03 1.341904606670141220e-02 2.098734304308891296e-02 4.687621816992759705e-02 1.413761079311370850e-02 -9.677505120635032654e-03 -4.587168805301189423e-03 -5.378597415983676910e-03 4.725188948214054108e-03 -1.466354075819253922e-02 -4.050208628177642822e-02 2.170765365008264780e-04 -3.030411154031753540e-02 -2.891568094491958618e-02 -1.369031611829996109e-03 -7.456942461431026459e-03 1.359582092845812440e-04 -1.009239000268280506e-03 -3.748430870473384857e-03 2.826456166803836823e-02 7.003606879152357578e-04 -2.093735709786415100e-02 -1.184751279652118683e-02 -2.866837428882718086e-03 3.088658303022384644e-02 1.272017695009708405e-02 1.168349105864763260e-02 8.013841696083545685e-03 1.986781507730484009e-02 -2.253108657896518707e-02 -1.249192375689744949e-02 -8.023126050829887390e-03 1.858723163604736328e-02 6.863030605018138885e-03 3.369956091046333313e-02 -1.214698143303394318e-02 -3.433013707399368286e-02 1.384565792977809906e-02 9.038183838129043579e-03 1.413351017981767654e-02 3.213502466678619385e-02 8.734082803130149841e-03 2.067340351641178131e-02 -6.111223716288805008e-03 -1.159436162561178207e-02 -5.581249017268419266e-03 -2.209091372787952423e-02 7.367904763668775558e-03 1.352951023727655411e-02 1.629859581589698792e-02 1.419475488364696503e-02 1.685465127229690552e-02 -6.316385231912136078e-03 -2.256647124886512756e-02 -3.868990018963813782e-02 1.865029335021972656e-02 -1.495714392513036728e-02 1.829340122640132904e-03 3.301875665783882141e-02 -6.583379581570625305e-04 -1.450467947870492935e-02 -3.052618703804910183e-04 1.290455460548400879e-02 -3.282131999731063843e-02 7.940832525491714478e-03 1.408451795578002930e-02 3.246435895562171936e-02 -1.035914197564125061e-02 1.390154473483562469e-02 -4.303669929504394531e-02 -8.182567544281482697e-03 -1.485305745154619217e-02 -4.208839312195777893e-02 -5.698846653103828430e-03 2.229292411357164383e-03 -6.352532189339399338e-03 -3.992066718637943268e-03 1.815386675298213959e-02 -4.720091074705123901e-02 2.071955613791942596e-02 1.647946191951632500e-03 8.439233526587486267e-03 5.922491475939750671e-02 -3.911204636096954346e-03 9.300125762820243835e-03 -2.388962544500827789e-02 -1.888093724846839905e-02 -2.877300046384334564e-02 1.831748755648732185e-03 -6.507911719381809235e-03 -1.880898512899875641e-02 1.751487329602241516e-02 2.283183485269546509e-02 -5.897870752960443497e-03 -1.636741869151592255e-02 -3.215319663286209106e-02 -2.927853725850582123e-02 -2.116303425282239914e-03 -4.266311600804328918e-02 -1.111083757132291794e-02 -1.266721915453672409e-02 -1.885520108044147491e-02 1.007757498882710934e-03 -7.956063374876976013e-03 1.989527605473995209e-03 -3.317057387903332710e-03 6.958131678402423859e-03 1.431713905185461044e-02 -4.197968542575836182e-02 9.736824780702590942e-03 2.571654319763183594e-02 -1.904023997485637665e-02 -1.935733295977115631e-02 1.402155403047800064e-02 2.066658064723014832e-02 1.052787993103265762e-02 -1.798918092390522361e-04 4.836243391036987305e-02 7.801533211022615433e-03
-1.201324537396430969e-02 -8.140807040035724640e-03 -2.043331041932106018e-04 -9.548401460051536560e-03 2.525304071605205536e-02 -1.462475396692752838e-02 -4.045030102133750916e-03 1.918082684278488159e-02 -1.754623092710971832e-02 -3.910476714372634888e-02 2.498685009777545929e-02 8.990342728793621063e-03 4.514388367533683777e-02 -3.014754317700862885e-02 -3.814853727817535400e-02 -3.884134814143180847e-02 -3.029374638572335243e-03 3.072842257097363472e-03 -1.258489023894071579e-02 -2.463826350867748260e-02 2.571134595200419426e-03 3.973671700805425644e-04 -1.129179354757070541e-02 -3.147295676171779633e-03 -1.531973201781511307e-02 7.941774092614650726e-03 1.776111312210559845e-02 -3.030752204358577728e-02 -5.236739292740821838e-03 -1.342555228620767593e-02 1.943768933415412903e-02 7.052273489534854889e-03 -3.668038547039031982e-02 -3.809533268213272095e-02 -1.893239282071590424e-02 -1.732676406390964985e-03 2.589690964668989182e-03 5.400930345058441162e-02 1.871136389672756195e-02 1.601857878267765045e-02 6.485474761575460434e-03 -4.575917497277259827e-02 -1.121635269373655319e-02 -2.245497144758701324e-02 1.680329069495201111e-02 2.847212739288806915e-02 1.823542080819606781e-02 -8.846875280141830444e-03 5.386313889175653458e-03 3.333443403244018555e-02 1.353987399488687515e-02 -1.756305061280727386e-02 -3.893593093380331993e-03 1.870469935238361359e-02 1.769372820854187012e-02 1.335178222507238388e-02 -2.397910319268703461e-02 2.014251891523599625e-03 -4.640220478177070618e-02 -7.429659366607666016e-03 5.475152749568223953e-03 1.481967046856880188e-02 -1.076107099652290344e-02 -8.631849661469459534e-03 -2.251588739454746246e-02 -2.230805531144142151e-02 -3.573485836386680603e-02 1.390526723116636276e-02 7.895386777818202972e-03 -7.402803748846054077e-03 -1.336280163377523422e-02 -5.119975190609693527e-03 -6.241565104573965073e-03 4.653077572584152222e-03 7.756251376122236252e-03 -1.275735790841281414e-03 1.208081655204296112e-02 7.649898994714021683e-03 1.213166210800409317e-02 9.431344456970691681e-03 3.525405749678611755e-02 -7.190247997641563416e-03 1.770841516554355621e-02 -1.809423603117465973e-02 7.118434179574251175e-03 9.802632266655564308e-04 -7.130513433367013931e-03 -6.298705004155635834e-03 2.057619020342826843e-02 -7.643235847353935242e-03 1.481723412871360779e-02 4.131294786930084229e-02 -1.124029513448476791e-02 4.296129941940307617e-02 2.601036243140697479e-02 -8.228670805692672729e-03 -1.922775804996490479e-02 -1.595329307019710541e-02 -3.223091363906860352e-02 6.301936227828264236e-03 -1.594643481075763702e-02 3.051387332379817963e-02 3.699763910844922066e-03 3.340094350278377533e-03 -4.595011938363313675e-03 7.389604113996028900e-03 3.205706598237156868e-03 3.134490549564361572e-02 2.988939173519611359e-02 -2.241698466241359711e-02 1.760162599384784698e-02 -1.042445655912160873e-02 -6.470731459558010101e-03 -2.868614345788955688e-02 -9.742051362991333008e-03 7.266489788889884949e-03 -3.553801216185092926e-04 1.438511535525321960e-02 2.336507197469472885e-03 -3.008304163813591003e-03 -1.215802738443017006e-03 2.103742770850658417e-02 4.726554732769727707e-03 -5.829315166920423508e-03 -1.297654490917921066e-02 3.528310731053352356e-02 -2.323595620691776276e-02 7.049269508570432663e-03
1.252263784408569336e-02 1.394316274672746658e-02 2.747432328760623932e-02 -1.849618740379810333e-02 -8.568605408072471619e-03 1.716850884258747101e-02 -2.984638325870037079e-02 1.296538300812244415e-02 1.041756756603717804e-02 2.917998470366001129e-02 8.944200351834297180e-03 -1.397823914885520935e-03 -2.744089113548398018e-03 -1.465274859219789505e-02 -6.537439767271280289e-03 8.354595862329006195e-03 -5.887515842914581299e-02 -1.074271183460950851e-02 3.423555754125118256e-03 -1.730469986796379089e-02 1.157977036200463772e-03 9.822251275181770325e-03 -9.793864563107490540e-03 -1.565312407910823822e-02 -5.268827080726623535e-03 -3.608822450041770935e-02 4.152263980358839035e-03 9.353689849376678467e-03 2.525188215076923370e-02 -3.002309240400791168e-02 -3.427169844508171082e-02 -2.335682883858680725e-02 -2.098211087286472321e-02 2.442950755357742310e-02 -2.330696908757090569e-03 2.504475042223930359e-02 -2.789274416863918304e-02 -4.752214252948760986e-02 3.228395804762840271e-02 5.430321674793958664e-03 2.082170220091938972e-03 -5.571559537202119827e-03 -6.898561958223581314e-03 6.477953866124153137e-03 -2.423206716775894165e-02 2.287909947335720062e-02 2.411816082894802094e-02 2.995247207581996918e-02 -4.032647982239723206e-02 1.016547088511288166e-03 2.709435485303401947e-02 1.969037204980850220e-02 3.895464166998863220e-02 -1.201803889125585556e-02 3.224779618903994560e-03 -1.501942519098520279e-02 2.536540292203426361e-02 1.112899556756019592e-02 -3.031883947551250458e-02 -5.858520744368433952e-04 1.767490641213953495e-03 2.070090500637888908e-03 -2.689588442444801331e-02 -1.039649918675422668e-02 2.004015957936644554e-03 -3.675645217299461365e-02 -4.818376619368791580e-03 -9.711524471640586853e-03 2.445077989250421524e-03 -4.643529246095567942e-04 6.853861734271049500e-03 4.930894449353218079e-02 -1.854815520346164703e-02 -5.909803439863026142e-04 -1.478374842554330826e-02 -8.773628622293472290e-03 -1.922595873475074768e-02 2.579401433467864990e-02 1.321143750101327896e-02 -5.062521435320377350e-03 2.779407054185867310e-02 2.427325118333101273e-03 3.431263938546180725e-02 -9.516507852822542191e-04 2.420066110789775848e-02 3.608483448624610901e-02 -6.630148738622665405e-03 5.624236539006233215e-03 -2.672049216926097870e-02 -5.944211501628160477e-03 -1.000306382775306702e-02 9.036286734044551849e-03 -9.004317224025726318e-03 1.061766594648361206e-02 3.460892289876937866e-02 1.475337240844964981e-02 -3.731892630457878113e-02 6.915598176419734955e-03 1.432428788393735886e-02 -1.286747585982084274e-02 -1.211418304592370987e-03 -5.422045011073350906e-03 -4.129153210669755936e-03 9.156803600490093231e-03 -1.155842188745737076e-02 2.653006091713905334e-02 -4.734795913100242615e-02 -1.937762252055108547e-03 2.336755208671092987e-02 -1.249623671174049377e-02 -3.293653950095176697e-02 -3.067755140364170074e-02 -2.086040936410427094e-02 1.933848857879638672e-02 -1.532181818038225174e-02 1.208072248846292496e-02 -9.474516846239566803e-03 -2.778890728950500488e-02 5.324262659996747971e-03 4.824028350412845612e-03 -6.023824214935302734e-03 -7.123251911252737045e-03 -5.233912263065576553e-03 7.021491881459951401e-03 2.886690013110637665e-02 8.899749256670475006e-03 1.836838573217391968e-02 -6.713675335049629211e-03
4.386773332953453064e-02 5.395495798438787460e-03 1.103241741657257080e-02 5.168606876395642757e-04 2.642158232629299164e-02 -8.720014244318008423e-03 2.571037225425243378e-02 1.389489974826574326e-02 7.743386551737785339e-03 3.008739091455936432e-02 2.012892998754978180e-02 5.715759936720132828e-03 1.307937223464250565e-02 -7.891198620200157166e-03 -9.798252023756504059e-03 1.643999479711055756e-02 2.135191485285758972e-02 2.519879117608070374e-02 2.090294845402240753e-02 1.837044395506381989e-02 1.020945259369909763e-03 -8.431971073150634766e-03 3.180776536464691162e-02 -2.423533704131841660e-03 -2.701349742710590363e-02 2.340905927121639252e-02 -2.752068452537059784e-02 -3.717017546296119690e-02 -1.790672726929187775e-02 5.652979388833045959e-02 -1.915845274925231934e-02 3.439846914261579514e-03 2.584702149033546448e-02 1.466782856732606888e-02 -3.865155857056379318e-03 2.124548144638538361e-02 9.744447888806462288e-04 -1.811235398054122925e-02 -6.075049284845590591e-03 3.320396319031715393e-02 4.658414050936698914e-03 -5.927033722400665283e-03 2.276197075843811035e-02 -2.281725406646728516e-02 2.831418439745903015e-02 -1.624514721333980560e-02 2.443269826471805573e-03 -4.153999686241149902e-02 -2.536708116531372070e-02 2.301538595929741859e-03 -8.565813302993774414e-03 2.094938233494758606e-02 -2.953524515032768250e-02 -1.424470823258161545e-02 2.069170027971267700e-02 -1.532567478716373444e-02 2.802410721778869629e-02 2.908398024737834930e-02 -1.127916667610406876e-02 1.730849221348762512e-02 2.459194138646125793e-02 -2.580461651086807251e-02 5.091080674901604652e-04 9.509653784334659576e-03 -1.066161505877971649e-02 -5.571778491139411926e-02 -1.368389837443828583e-02 -4.138012416660785675e-03 8.840384893119335175e-03 -3.864564059767872095e-04 2.726124785840511322e-02 -1.388268917798995972e-02 2.533636288717389107e-03 5.184837616980075836e-03 1.902349293231964111e-02 3.528390824794769287e-02 -1.286690705455839634e-03 -7.986216805875301361e-03 -1.510046329349279404e-02 2.401616610586643219e-02 -5.687218159437179565e-03 -5.647883750498294830e-03 -1.083080656826496124e-03 -1.881381869316101074e-02 -1.595698110759258270e-02 1.217815931886434555e-02 8.793998509645462036e-03 -3.547121584415435791e-02 -5.910029169172048569e-03 2.272711135447025299e-02 -1.595217548310756683e-02 4.514339938759803772e-02 -3.608535230159759521e-02 4.738454241305589676e-03 -2.373787574470043182e-02 1.156122307293117046e-03 8.676023222506046295e-03 2.000671997666358948e-02 3.211412206292152405e-02 -3.579171001911163330e-02 8.076340891420841217e-03 2.651529852300882339e-03 -1.286405790597200394e-02 -5.910234525799751282e-03 -4.671525675803422928e-03 2.017882885411381721e-03 -3.346969187259674072e-02 5.747576709836721420e-03 -2.634388161823153496e-03 -3.620261792093515396e-03 1.088998862542212009e-03 -3.960622940212488174e-03 -3.145625116303563118e-03 9.931708686053752899e-03 3.164405375719070435e-02 -5.964332260191440582e-03 2.619872055947780609e-02 4.061758518218994141e-03 -1.228474453091621399e-02 1.681131497025489807e-02 -1.574574853293597698e-03 -1.472631935030221939e-02 8.562610484659671783e-03 7.943415548652410507e-04 -1.626921817660331726e-02 4.952020943164825439e-03 8.211818523705005646e-03 3.649375587701797485e-02
-5.851172842085361481e-03 -2.615698799490928650e-02 4.667369066737592220e-04 1.164481975138187408e-02 -2.214780822396278381e-02 -1.188545580953359604e-02 -9.259349666535854340e-03 -9.958143346011638641e-03 1.120682340115308762e-02 7.829828187823295593e-03 -1.814208179712295532e-02 6.425782921724021435e-04 -1.071734447032213211e-02 -1.966424519196152687e-03 3.998835384845733643e-02 -3.563068807125091553e-03 -5.409093573689460754e-03 -2.987820282578468323e-02 1.009123586118221283e-02 1.099552027881145477e-04 -3.410525154322385788e-03 -1.303816307336091995e-02 1.165250129997730255e-02 1.272862404584884644e-02 3.692172095179557800e-02 1.468677166849374771e-02 -2.289569564163684845e-02 5.160793289542198181e-02 -4.201743379235267639e-02 3.386758500710129738e-03 1.830284483730792999e-02 6.058805411157663912e-06 1.119374204427003860e-02 -1.006101258099079132e-02 1.479904539883136749e-02 9.091611020267009735e-03 2.657374739646911621e-02 2.759646065533161163e-02 7.983364048413932323e-04 2.183281444013118744e-02 -2.344776643440127373e-03 1.674739527516067028e-03 -3.482764586806297302e-02 -1.795478537678718567e-02 2.365001477301120758e-02 -3.818865865468978882e-02 5.328194238245487213e-03 1.134926918894052505e-02 1.741590560413897038e-03 1.195216178894042969e-02 -3.997407853603363037e-03 2.134313620626926422e-02 3.146883472800254822e-02 5.667673051357269287e-02 3.455117344856262207e-03 2.319802530109882355e-02 1.327974628657102585e-02 1.452636066824197769e-02 -2.654694020748138428e-02 -3.156202659010887146e-02 -2.271617762744426727e-02 -1.443521701730787754e-03 2.275787852704524994e-02 1.741626858711242676e-02 -4.701382666826248169e-02 -5.007024388760328293e-03 1.475234329700469971e-02 -7.347951177507638931e-03 -1.527769304811954498e-02 -1.606451533734798431e-02 3.872027993202209473e-02 -2.043559215962886810e-02 -1.504753809422254562e-02 4.209138453006744385e-02 -2.246661856770515442e-02 -7.203876972198486328e-03 1.837307936511933804e-03 -1.337829232215881348e-02 -1.119952183216810226e-02 -3.838115185499191284e-02 -9.915037080645561218e-03 2.349039353430271149e-02 9.062939323484897614e-03 -9.783587418496608734e-03 3.379920963197946548e-03 6.667200941592454910e-03 1.856159232556819916e-02 -9.578282944858074188e-03 1.253732014447450638e-02 1.800842583179473877e-03 -8.101199753582477570e-03 -3.493553027510643005e-02 3.429661155678331852e-04 -1.391546241939067841e-02 -2.514714840799570084e-03 4.135062918066978455e-02 1.463604439049959183e-02 2.894540876150131226e-02 1.445955876260995865e-02 2.286228910088539124e-02 7.572438335046172142e-04 4.368575289845466614e-03 -2.563213743269443512e-02 -3.116016974672675133e-03 -1.479995064437389374e-02 6.346461828798055649e-03 -1.160846929997205734e-02 1.281345542520284653e-02 2.384502068161964417e-02 3.613518550992012024e-02 -1.762034930288791656e-02 2.021243795752525330e-02 -1.182867027819156647e-02 -7.773689925670623779e-03 -1.179288513958454132e-02 -2.267554774880409241e-02 -1.609266735613346100e-02 1.151947863399982452e-02 4.036167636513710022e-02 -1.847392693161964417e-02 6.360149942338466644e-03 -9.806608781218528748e-03 -2.322457544505596161e-02 -1.444368809461593628e-02 2.041489258408546448e-02 2.495073946192860603e-03 -8.055225014686584473e-03 -7.082439959049224854e-03
2.827084809541702271e-02 -7.920933887362480164e-03 -7.655107765458524227e-04 3.164037130773067474e-03 -3.372896835207939148e-02 5.538973025977611542e-03 4.246622323989868164e-02 -2.036387566477060318e-03 1.252686697989702225e-02 3.325042501091957092e-02 -1.714354380965232849e-02 -1.150032877922058105e-02 -2.247055247426033020e-02 3.929296042770147324e-03 -1.218800246715545654e-02 1.882576383650302887e-02 3.304051607847213745e-02 1.079496275633573532e-02 5.575692746788263321e-03 2.485856413841247559e-02 -4.840236157178878784e-03 -4.853586666285991669e-03 9.437125176191329956e-03 6.623081397265195847e-03 -3.962640650570392609e-03 -2.299513295292854309e-02 3.070203028619289398e-02 1.950843818485736847e-02 -2.169818617403507233e-02 -9.293131879530847073e-04 6.363684311509132385e-03 -1.878577843308448792e-02 -3.452928364276885986e-02 1.296511152759194374e-03 -2.389362454414367676e-02 -7.417874876409769058e-03 -8.112995885312557220e-03 1.244088052771985531e-03 1.534494222141802311e-03 1.147082820534706116e-02 -3.830408677458763123e-02 -4.390832502394914627e-03 5.141379311680793762e-03 -2.936186082661151886e-02 -4.002878069877624512e-02 -2.423646673560142517e-02 -2.810303680598735809e-02 -8.501695469021797180e-03 -2.884053625166416168e-02 -1.812228001654148102e-02 5.811525508761405945e-03 -1.188337802886962891e-02 7.103455718606710434e-03 -4.993521724827587605e-04 2.335895411670207977e-02 -3.573452308773994446e-02 -8.925257134251296520e-04 1.327294507063925266e-03 -2.919212356209754944e-02 3.307113423943519592e-02 1.141782756894826889e-02 -3.131742775440216064e-02 1.495413482189178467e-02 -2.967254491522908211e-03 -1.043595373630523682e-03 -3.741722553968429565e-03 1.367515139281749725e-02 -2.653572591952979565e-04 -3.596264403313398361e-03 -9.269201196730136871e-03 2.398405969142913818e-02 4.940345138311386108e-02 1.808204874396324158e-02 -5.980730522423982620e-03 9.296391159296035767e-03 -1.124977879226207733e-02 -7.480449974536895752e-03 1.278784126043319702e-02 1.551154907792806625e-02 2.519944682717323303e-02 -1.233963016420602798e-02 1.264020986855030060e-02 2.087885886430740356e-02 -1.255901996046304703e-02 -1.847313903272151947e-02 -1.491829566657543182e-02 7.240983191877603531e-03 -5.694293882697820663e-03 9.401942370459437370e-04 2.770814811810851097e-03 8.750720880925655365e-03 -1.159365847706794739e-02 5.687935743480920792e-03 -9.276263299398124218e-04 -5.696823820471763611e-02 3.105131536722183228e-02 5.675079766660928726e-03 4.230582714080810547e-02 -1.805337704718112946e-02 8.363633416593074799e-03 -5.214425735175609589e-03 -1.379037834703922272e-02 1.794434897601604462e-02 2.769370935857295990e-02 -5.527599714696407318e-03 1.134266145527362823e-02 9.695259854197502136e-03 -1.864595338702201843e-02 1.995191536843776703e-02 1.499322336167097092e-02 -4.337328672409057617e-02 2.219420857727527618e-02 -1.753261499106884003e-02 -9.878506883978843689e-03 -3.866786509752273560e-02 2.329822815954685211e-02 1.067161560058593750e-02 -1.523548085242509842e-02 -1.477732148487120867e-04 8.931627497076988220e-03 -2.582500316202640533e-02 -2.773199789226055145e-02 8.033788762986660004e-03 -1.360919419676065445e-02 2.804392948746681213e-02 1.334415562450885773e-02 4.583734553307294846e-03 1.489164214581251144e-02
8.444870822131633759e-03 2.063832944259047508e-03 3.260421566665172577e-03 -4.390178946778178215e-05 2.763520739972591400e-02 8.395150303840637207e-03 1.477940194308757782e-02 -4.459081683307886124e-03 -4.040031228214502335e-03 -6.608328549191355705e-04 7.282407023012638092e-03 1.284374762326478958e-02 2.754320763051509857e-02 -3.928541019558906555e-02 -2.103163674473762512e-02 -1.243781670928001404e-02 1.163574680685997009e-02 -1.669884286820888519e-02 -1.999904029071331024e-02 -2.780002541840076447e-02 7.266269531100988388e-03 -9.935208596289157867e-03 2.951851347461342812e-03 -1.480805501341819763e-02 -3.393372893333435059e-02 -1.245718169957399368e-02 2.484211139380931854e-02 -1.711924676783382893e-03 4.910267889499664307e-02 3.038191469386219978e-03 -2.126751095056533813e-02 3.344652429223060608e-02 1.455402839928865433e-02 -3.372220322489738464e-02 3.468915447592735291e-02 -1.320599927566945553e-03 2.564262039959430695e-02 -2.120855823159217834e-02 4.700361937284469604e-02 1.879261620342731476e-02 2.990663610398769379e-02 2.520398236811161041e-03 -4.522110801190137863e-03 -1.798823289573192596e-02 8.961366489529609680e-03 -5.719452165067195892e-03 -1.771376654505729675e-02 4.883782193064689636e-02 3.494838252663612366e-02 2.466828934848308563e-02 -3.142040595412254333e-02 9.417292661964893341e-03 1.127210911363363266e-02 -3.778036683797836304e-02 1.817757450044155121e-02 9.711433202028274536e-03 1.874983869493007660e-02 2.372408984228968620e-03 2.421724144369363785e-03 1.006287895143032074e-02 -2.239764481782913208e-02 2.869241684675216675e-02 -1.279159355908632278e-02 -1.520100748166441917e-03 -8.905724622309207916e-03 -2.000937424600124359e-02 2.752628549933433533e-02 -6.702511105686426163e-03 -2.062497287988662720e-02 -1.485627703368663788e-02 1.319972053170204163e-02 -1.111621689051389694e-02 -6.360921543091535568e-03 1.113300863653421402e-02 -1.273227739147841930e-03 -9.977757930755615234e-03 1.185858715325593948e-02 -5.677381902933120728e-02 -1.107156742364168167e-03 7.353604771196842194e-03 -3.002091310918331146e-03 -2.187888137996196747e-02 2.710342779755592346e-02 2.051267027854919434e-02 -5.254743993282318115e-02 -4.752853140234947205e-02 3.293057531118392944e-02 -7.639557588845491409e-03 -1.113858446478843689e-02 -1.736688800156116486e-02 -7.289963308721780777e-03 3.815630683675408363e-03 3.006624430418014526e-02 -1.293999329209327698e-02 1.666782610118389130e-02 1.777533441781997681e-02 1.108779385685920715e-02 -6.045213900506496429e-03 -4.717936366796493530e-02 1.143521256744861603e-02 -2.577903121709823608e-02 2.006129920482635498e-02 -1.433103810995817184e-03 -8.036857470870018005e-03 4.829238168895244598e-03 -8.158718235790729523e-03 -7.179550360888242722e-03 -3.591520339250564575e-02 -2.751149423420429230e-02 2.390155009925365448e-02 -1.931819692254066467e-02 7.452853024005889893e-03 3.373614326119422913e-02 -1.047032140195369720e-02 -3.852936206385493279e-03 5.870040622539818287e-04 -1.430709473788738251e-02 -3.452738048508763313e-03 -9.852584451436996460e-03 -2.345956675708293915e-02 -3.684544563293457031e-02 3.182951128110289574e-03 -2.252285182476043701e-02 -2.411125926300883293e-03 1.846088469028472900e-02 -2.878358354791998863e-03 3.862748667597770691e-02 -1.854986697435379028e-02
1.173540949821472168e-02 -1.315398421138525009e-02 -8.315545506775379181e-03 1.717494800686836243e-02 -3.748392919078469276e-03 4.446629900485277176e-03 3.210830688476562500e-02 3.361821919679641724e-02 1.861826702952384949e-02 -2.495807781815528870e-02 2.165213972330093384e-02 1.781607419252395630e-02 -3.847926855087280273e-02 -1.616168767213821411e-02 -3.538801521062850952e-02 1.084691286087036133e-02 -2.804931811988353729e-02 8.754395879805088043e-03 2.677548443898558617e-03 3.013742156326770782e-02 -2.115548960864543915e-02 -4.343401268124580383e-02 -3.353943675756454468e-02 -3.839220106601715088e-02 -2.067784778773784637e-02 3.169777244329452515e-02 -8.845537900924682617e-03 -7.851566188037395477e-03 -1.058599539101123810e-02 -1.452558557502925396e-03 -2.307695150375366211e-02 -8.463680744171142578e-03 2.065591979771852493e-03 2.783548459410667419e-02 6.314976140856742859e-03 -2.072618529200553894e-02 5.639336537569761276e-03 2.197517827153205872e-02 -3.101039212197065353e-03 2.105130068957805634e-02 -2.907171100378036499e-02 1.450471021234989166e-02 -6.051204167306423187e-03 -1.093240547925233841e-02 2.372800838202238083e-03 -1.256486773490905762e-02 3.114477731287479401e-02 6.010279990732669830e-03 -4.311583936214447021e-02 -8.519875700585544109e-04 -1.644578762352466583e-02 1.335858250968158245e-03 5.244874861091375351e-03 -3.589157480746507645e-03 7.373308762907981873e-03 -2.110343798995018005e-02 2.851795777678489685e-02 3.979708254337310791e-02 -1.992175588384270668e-03 9.043526370078325272e-04 4.110802430659532547e-03 -2.662342414259910583e-02 -5.688848439604043961e-03 2.176257967948913574e-02 2.867397852241992950e-03 -4.408769309520721436e-03 1.090257707983255386e-02 -4.198466241359710693e-02 -9.679791401140391827e-04 1.033294014632701874e-02 -3.264817968010902405e-02 1.719680614769458771e-02 2.004708535969257355e-02 1.301992777734994888e-02 1.859667710959911346e-02 8.044964633882045746e-03 1.283496338874101639e-02 2.253384143114089966e-02 -4.846417345106601715e-03 -1.906491443514823914e-02 2.224791422486305237e-02 -1.264069508761167526e-02 -2.096960321068763733e-02 -1.787129789590835571e-02 -7.047706749290227890e-03 1.379570458084344864e-02 -1.149896439164876938e-02 -3.825648687779903412e-03 -6.707059685140848160e-03 -2.287523634731769562e-02 -8.069649338722229004e-03 8.560823276638984680e-03 3.758635744452476501e-02 -6.506105884909629822e-03 3.743411600589752197e-02 -2.836661972105503082e-02 1.450325455516576767e-02 -2.423520945012569427e-02 -1.915611140429973602e-02 -8.585363626480102539e-03 -9.757078252732753754e-03 -2.073336765170097351e-02 -3.360041882842779160e-03 -7.415682193823158741e-04 3.177458187565207481e-03 -1.958299428224563599e-03 5.749035160988569260e-03 -1.641385816037654877e-02 -1.172123756259679794e-02 1.404154766350984573e-02 -1.482324581593275070e-02 -2.648003958165645599e-02 -3.402101993560791016e-02 1.172597054392099380e-02 1.754689216613769531e-02 3.117015585303306580e-03 -2.423215191811323166e-03 3.255840856581926346e-03 -3.081289306282997131e-02 1.386081147938966751e-02 2.433718927204608917e-02 -2.214401401579380035e-02 -2.680322527885437012e-02 7.430338859558105469e-02 1.780186034739017487e-02 2.909914962947368622e-02 -3.169662877917289734e-02 6.435274146497249603e-03
2.192768454551696777e-02 1.446755975484848022e-02 1.473823795095086098e-03 -5.130651406943798065e-03 3.060671687126159668e-02 4.181408137083053589e-02 2.074691466987133026e-02 8.064604480750858784e-04 1.960036531090736389e-02 1.695047877728939056e-02 1.067553646862506866e-02 -3.928007092326879501e-03 -2.451124228537082672e-02 2.222007699310779572e-02 -6.306348368525505066e-03 6.390402093529701233e-03 -1.473758893553167582e-04 2.542525529861450195e-02 -5.595698952674865723e-03 -7.347730919718742371e-03 5.773157812654972076e-03 4.936506040394306183e-03 4.701020196080207825e-02 -9.252801537513732910e-03 -1.447449065744876862e-02 -2.733438741415739059e-03 -3.329480066895484924e-02 2.274462580680847168e-02 1.046189758926630020e-02 -1.716544292867183685e-02 -1.364834047853946686e-02 -1.614974439144134521e-02 1.353055890649557114e-02 2.021461911499500275e-02 -3.202638402581214905e-02 -7.173769990913569927e-04 -4.806818440556526184e-02 5.901077762246131897e-03 -1.268038712441921234e-02 2.323566190898418427e-02 8.977369405329227448e-03 -2.070245891809463501e-02 -3.863079473376274109e-02 1.134023908525705338e-02 -1.614629849791526794e-02 -3.862520307302474976e-02 -2.216310240328311920e-02 -5.079791415482759476e-03 -1.716949231922626495e-02 -3.120658546686172485e-02 -3.237805515527725220e-02 -6.855479441583156586e-04 -4.004120081663131714e-02 3.548170626163482666e-02 -1.322690304368734360e-02 8.471944369375705719e-03 1.393325626850128174e-02 -2.691528573632240295e-02 1.371574588119983673e-02 8.672056719660758972e-03 -1.360223535448312759e-02 1.334546366706490517e-03 2.139825373888015747e-02 -1.486698910593986511e-02 -9.005188941955566406e-03 7.726212032139301300e-03 -1.005308330059051514e-02 -1.169050205498933792e-02 2.264740131795406342e-02 4.928832408040761948e-03 1.462642196565866470e-02 2.401275373995304108e-02 -1.179843861609697342e-02 -1.026993058621883392e-02 6.085792556405067444e-03 -3.094241768121719360e-02 3.297480568289756775e-02 -1.556720584630966187e-02 1.241205632686614990e-02 3.224826231598854065e-02 -8.008754812180995941e-04 -3.867414779961109161e-03 -8.552376180887222290e-03 -3.647278994321823120e-03 -1.263339817523956299e-02 -3.022123826667666435e-03 9.048080071806907654e-03 3.425579890608787537e-02 2.788612991571426392e-02 1.850738306529819965e-03 -2.812759578227996826e-02 2.053159847855567932e-02 -1.545055955648422241e-02 -1.652563363313674927e-02 6.095477379858493805e-03 1.179023738950490952e-02 -1.207315269857645035e-02 -7.509430870413780212e-03 2.148772031068801880e-02 -3.296748921275138855e-02 9.968446567654609680e-03 -1.796092465519905090e-02 1.677705533802509308e-02 3.370679914951324463e-04 -3.121689194813370705e-03 -1.199719496071338654e-02 1.073584333062171936e-02 -9.396289242431521416e-04 3.818099945783615112e-02 -6.440907716751098633e-03 7.885950617492198944e-03 2.522299997508525848e-02 4.407928884029388428e-02 -3.313186764717102051e-02 -1.693313941359519958e-03 -5.460960324853658676e-03 9.682659991085529327e-03 1.631566695868968964e-02 -4.816298931837081909e-02 -2.402178384363651276e-02 -1.620270893909037113e-03 -2.449586521834135056e-03 -8.022350259125232697e-03 -2.613417059183120728e-02 -2.411152981221675873e-02 -1.972612738609313965e-02 4.451918881386518478e-03 7.151747588068246841e-03
-1.631779409945011139e-02 -1.082555949687957764e-02 1.665716432034969330e-02 3.576383460313081741e-03 2.829918405041098595e-03 1.623427867889404297e-02 3.077135421335697174e-03 1.142394170165061951e-02 1.714385580271482468e-03 3.447781130671501160e-02 -1.945518143475055695e-02 -1.860472955740988255e-03 -2.982032252475619316e-03 4.122049547731876373e-03 -4.291429650038480759e-03 1.463358290493488312e-02 -4.751881118863821030e-03 1.421967172063887119e-03 1.352650485932826996e-02 2.717919182032346725e-03 -1.212560757994651794e-02 6.603479385375976562e-03 -4.524698480963706970e-03 4.202564060688018799e-02 2.711881510913372040e-02 1.821680925786495209e-02 3.400737047195434570e-02 6.827159319072961807e-03 2.181974984705448151e-02 3.019141592085361481e-02 -2.932074666023254395e-02 -1.835669949650764465e-02 -2.238310314714908600e-02 3.303336352109909058e-02 -2.134763263165950775e-02 2.774493582546710968e-02 6.874494254589080811e-03 4.260754957795143127e-02 5.935917943133972585e-05 -5.531111732125282288e-03 -2.625132910907268524e-02 -5.271494761109352112e-02 -7.691405247896909714e-03 4.020942747592926025e-02 1.313896849751472473e-02 -1.644214615225791931e-02 5.218754522502422333e-03 -9.204146452248096466e-03 6.506585516035556793e-03 -1.767004840075969696e-02 -1.608826220035552979e-02 -9.547344408929347992e-03 -9.664032608270645142e-03 -1.433282811194658279e-02 -1.270284876227378845e-03 -2.598416060209274292e-02 -1.084628794342279434e-02 6.388266774592921138e-05 -9.412151761353015900e-03 -2.936706505715847015e-02 1.803481392562389374e-02 -4.700162913650274277e-03 1.141204591840505600e-02 9.002161212265491486e-03 -4.127396643161773682e-02 1.234205439686775208e-02 -1.462390739470720291e-02 -2.646027691662311554e-02 -1.184329390525817871e-03 -3.730079904198646545e-02 1.116056554019451141e-02 -7.187888957560062408e-03 -3.240053728222846985e-02 -3.790022805333137512e-02 -2.400589920580387115e-02 4.230456426739692688e-03 -1.640945323742926121e-03 -9.755806997418403625e-03 -2.625107020139694214e-02 1.048890687525272369e-02 1.321351341903209686e-02 -9.996911976486444473e-04 2.726257778704166412e-02 3.214193880558013916e-02 8.544813841581344604e-03 1.454339083284139633e-02 -6.531490385532379150e-02 3.007861785590648651e-02 -2.692469768226146698e-02 7.026485167443752289e-03 1.432268973439931870e-02 2.054100856184959412e-02 -2.746929822023957968e-04 6.611705292016267776e-03 -3.871360793709754944e-02 1.877525821328163147e-02 -1.096720434725284576e-02 2.545402199029922485e-02 -2.054191380739212036e-02 6.131879985332489014e-03 7.285249885171651840e-03 -1.000265777111053467e-02 1.509649585932493210e-02 -2.960150362923741341e-03 -1.966457813978195190e-02 -3.586605563759803772e-02 -3.995960205793380737e-02 2.399793639779090881e-02 -2.547872066497802734e-02 -1.376752462238073349e-02 3.435344249010086060e-02 1.181872375309467316e-02 -9.614753536880016327e-03 -3.219926264137029648e-03 -9.844077285379171371e-04 7.349545136094093323e-03 4.466755315661430359e-03 2.121931500732898712e-02 -8.723532781004905701e-03 -4.389741271734237671e-02 -9.527331218123435974e-03 1.414252445101737976e-02 2.249110490083694458e-03 -1.053681503981351852e-02 1.127376873046159744e-02 2.116715069860219955e-03 -1.742793805897235870e-02 7.604996208101511002e-03
-3.608451411128044128e-02 -3.062848001718521118e-02 1.430299133062362671e-02 -8.927174843847751617e-03 -1.441881339997053146e-02 1.858010701835155487e-02 2.858199179172515869e-03 -9.356371127068996429e-03 2.499794587492942810e-02 -5.244236439466476440e-02 -3.064379654824733734e-02 3.008775599300861359e-02 7.263182662427425385e-03 -7.184393703937530518e-03 2.438551932573318481e-02 2.008982934057712555e-02 2.262809686362743378e-02 -2.874377369880676270e-02 3.388545289635658264e-02 -1.118459040299057961e-03 -3.185751289129257202e-02 1.498251780867576599e-02 1.329781138338148594e-03 3.532662615180015564e-02 1.485442742705345154e-02 2.270998619496822357e-02 -2.013531327247619629e-02 -2.490813285112380981e-02 -1.586487703025341034e-02 1.999165862798690796e-02 2.550648897886276245e-02 -4.787748213857412338e-03 1.265406701713800430e-02 3.504085121676325798e-03 1.593399247212801129e-05 -8.262172341346740723e-03 -2.975134737789630890e-02 1.120968814939260483e-02 -2.392232883721590042e-03 1.272611785680055618e-02 -1.880844123661518097e-02 1.172147132456302643e-02 1.411261036992073059e-04 2.385682612657546997e-02 3.271098062396049500e-02 -4.508695099502801895e-03 1.703105494379997253e-02 -1.545199099928140640e-02 -3.140661492943763733e-02 -8.933349512517452240e-03 3.120141476392745972e-02 2.479661628603935242e-02 -3.319422155618667603e-02 -1.206452865153551102e-02 6.841233931481838226e-03 1.947334781289100647e-02 5.424910923466086388e-04 6.787848542444407940e-04 -2.501305565237998962e-02 -4.174339119344949722e-03 -4.523012414574623108e-02 3.103801514953374863e-03 3.011024789884686470e-03 -4.023382440209388733e-02 5.147865507751703262e-03 -1.738142594695091248e-02 -2.555095218122005463e-02 1.847045728936791420e-03 3.699240507557988167e-03 3.643008321523666382e-02 -1.107843965291976929e-02 2.185261622071266174e-02 -1.319745555520057678e-02 8.083041757345199585e-03 -1.129726134240627289e-02 1.068695634603500366e-02 2.476412057876586914e-02 -2.410399354994297028e-02 -3.010011091828346252e-02 -3.048289101570844650e-03 4.233226180076599121e-03 2.958939038217067719e-02 1.740351691842079163e-02 -1.719330251216888428e-02 1.176400855183601379e-02 2.294016070663928986e-02 2.752347476780414581e-02 2.941369265317916870e-02 7.155469211284071207e-05 1.436572056263685226e-02 -2.248860709369182587e-02 1.189217064529657364e-02 -1.102578733116388321e-02 5.664498358964920044e-02 5.811397917568683624e-03 1.080102287232875824e-02 1.862379908561706543e-02 2.393765002489089966e-02 -4.976356402039527893e-02 6.221857620403170586e-04 -1.579878292977809906e-02 2.078569307923316956e-02 3.402555733919143677e-02 -2.046844363212585449e-02 -1.199742182507179677e-04 -1.349878683686256409e-02 3.100446192547678947e-03 -5.248541943728923798e-03 1.491634082049131393e-02 -3.445406444370746613e-03 -3.661017864942550659e-02 -7.591152098029851913e-03 2.330281538888812065e-03 -1.607654616236686707e-02 -2.771242149174213409e-02 3.473832085728645325e-02 2.250623703002929688e-02 1.331885438412427902e-02 1.500136312097311020e-02 -8.141266182065010071e-03 -3.181635960936546326e-02 -1.677292957901954651e-02 -9.245606139302253723e-03 1.127338735386729240e-03 1.623122952878475189e-02 -7.058322429656982422e-03 -4.183692485094070435e-02 3.276987373828887939e-02
-3.925282508134841919e-02 -3.837369382381439209e-02 1.293952926062047482e-03 1.972937490791082382e-03 2.491931617259979248e-02 -3.047645650804042816e-02 1.102376542985439301e-02 5.600199103355407715e-03 1.659832336008548737e-02 4.240021575242280960e-03 4.286997020244598389e-03 7.673579733818769455e-03 -2.866085618734359741e-02 -1.010386645793914795e-02 -7.157883606851100922e-03 2.593718282878398895e-02 -9.103114716708660126e-03 -1.741004548966884613e-02 1.072009559720754623e-02 -1.013027317821979523e-02 -2.798363938927650452e-02 1.542152743786573410e-02 4.122964665293693542e-02 1.218356657773256302e-02 1.980003900825977325e-02 -2.430659905076026917e-02 4.731353744864463806e-02 -5.990942008793354034e-03 4.754988942295312881e-03 -2.750999107956886292e-02 2.271551080048084259e-02 -1.975103095173835754e-02 -1.167832780629396439e-02 3.306611254811286926e-02 -4.000893794000148773e-03 2.520218491554260254e-02 1.587714441120624542e-02 1.249403320252895355e-02 -4.002448171377182007e-02 -2.927284128963947296e-02 -4.306727554649114609e-03 8.622951805591583252e-03 2.552127093076705933e-02 -2.598856203258037567e-02 -7.392322644591331482e-03 1.286743022501468658e-02 1.939672231674194336e-02 7.200887426733970642e-03 8.694784715771675110e-03 -1.686953939497470856e-02 1.041680807247757912e-03 8.785849437117576599e-03 -4.881828092038631439e-03 -2.841401658952236176e-02 1.300264336168766022e-02 1.894319802522659302e-02 4.264750168658792973e-04 -3.280470613390207291e-03 -1.463021617382764816e-02 1.713223010301589966e-02 -1.520150993019342422e-02 2.164238318800926208e-02 -2.997971884906291962e-02 4.325540736317634583e-03 4.130171239376068115e-02 -2.996687591075897217e-02 -2.870860509574413300e-02 -1.582434028387069702e-02 1.917169243097305298e-02 -9.090601466596126556e-03 -2.159373089671134949e-02 -1.982103474438190460e-02 2.242098934948444366e-02 1.617380976676940918e-02 -3.022627206519246101e-03 6.579308770596981049e-03 -3.354576183483004570e-03 1.622604206204414368e-02 2.280922420322895050e-02 -8.832251653075218201e-03 -1.639457233250141144e-02 1.390989311039447784e-02 1.612482219934463501e-02 1.729211397469043732e-02 1.131510362029075623e-02 7.149050012230873108e-03 3.192883450537919998e-03 -2.979740872979164124e-02 -2.146367682144045830e-03 -1.500146836042404175e-02 1.141001193900592625e-04 -1.069880928844213486e-02 3.562905127182602882e-03 -1.592330448329448700e-02 -9.272360242903232574e-03 8.033487945795059204e-03 -2.132306061685085297e-02 6.446137093007564545e-03 -8.624681271612644196e-03 -5.501214880496263504e-03 8.422207087278366089e-03 -1.878373138606548309e-02 -1.731324754655361176e-02 1.251792628318071365e-02 3.288579732179641724e-02 1.439884956926107407e-02 -1.476413942873477936e-02 1.907622627913951874e-02 2.834321372210979462e-02 1.899213646538555622e-03 -1.751494407653808594e-02 4.955368116497993469e-03 -1.760494895279407501e-02 2.078061923384666443e-02 -1.599395414814352989e-03 1.237711869180202484e-02 -1.733306236565113068e-02 -3.430454758927226067e-03 2.311656717211008072e-03 3.025776939466595650e-03 -5.095421522855758667e-02 -1.176466420292854309e-02 -2.021050779148936272e-03 -2.135081775486469269e-02 2.250633388757705688e-02 1.570562832057476044e-02 1.853316836059093475e-02 1.015354599803686142e-02
2.045763470232486725e-02 4.373329505324363708e-02 3.545454517006874084e-02 -1.142208930104970932e-02 2.006475441157817841e-02 1.216981653124094009e-02 -2.902760729193687439e-02 -5.781937856227159500e-03 -6.397433113306760788e-03 1.167741790413856506e-02 -3.858813783153891563e-03 1.076107006520032883e-02 -8.601332083344459534e-03 -4.478918854147195816e-03 9.523537009954452515e-03 -1.387385465204715729e-02 2.622046321630477905e-02 -1.024262607097625732e-02 4.047269001603126526e-03 6.104243453592061996e-03 -3.319827094674110413e-02 -8.145800791680812836e-03 -9.235839359462261200e-03 -8.941642940044403076e-03 1.024789642542600632e-02 -3.871786873787641525e-03 -1.474962104111909866e-03 7.577551528811454773e-03 -5.652856081724166870e-02 1.715030521154403687e-02 -1.223894767463207245e-02 4.891559481620788574e-02 -3.009777888655662537e-02 1.602979563176631927e-02 6.939484272152185440e-03 7.590814493596553802e-03 1.838884502649307251e-02 -1.216259226202964783e-02 3.080605901777744293e-02 4.173301160335540771e-03 -9.056410752236843109e-03 8.760402910411357880e-03 -3.938946465495973825e-04 -1.043817959725856781e-02 -2.609666204079985619e-03 3.025512956082820892e-02 -9.235580451786518097e-03 -2.712145075201988220e-02 2.322594076395034790e-02 -2.067107893526554108e-02 -1.060655340552330017e-02 2.472134865820407867e-02 1.934945210814476013e-02 1.512203272432088852e-02 -1.172561105340719223e-02 5.187413189560174942e-03 6.274436600506305695e-03 -4.935760982334613800e-03 2.435247879475355148e-03 9.102821350097656250e-03 -1.846450939774513245e-02 4.370097443461418152e-02 2.607360295951366425e-02 1.555863418616354465e-03 -1.358212903141975403e-02 -2.568504214286804199e-02 -5.418479908257722855e-03 -4.304043203592300415e-02 1.754558458924293518e-02 1.309754420071840286e-02 2.396024204790592194e-02 7.495661266148090363e-03 1.568986102938652039e-02 1.959090679883956909e-02 -3.019398637115955353e-02 -3.909054677933454514e-03 1.078819576650857925e-02 1.018716953694820404e-03 -1.175962761044502258e-02 -6.840482354164123535e-03 3.385143727064132690e-02 -2.677962929010391235e-02 -4.036953300237655640e-02 -6.196305155754089355e-03 -2.680927142500877380e-02 2.529065823182463646e-03 1.268366910517215729e-02 1.793847605586051941e-02 -3.709775209426879883e-02 9.864995256066322327e-03 -5.595248192548751831e-02 5.397125147283077240e-03 8.056433871388435364e-03 6.665729451924562454e-04 4.075434058904647827e-03 2.549483068287372589e-02 2.069215988740324974e-03 -1.711534336209297180e-03 2.200568467378616333e-02 3.645869437605142593e-03 -2.844788599759340286e-03 1.061677280813455582e-02 -2.206317521631717682e-02 -1.367496792227029800e-02 1.780909136869013309e-03 7.875187322497367859e-03 -3.047636523842811584e-02 -1.307157054543495178e-02 -7.838723249733448029e-03 4.278473090380430222e-03 3.132179751992225647e-02 -5.523497820831835270e-04 -2.351942285895347595e-02 -4.689565673470497131e-02 3.210506960749626160e-02 3.708135336637496948e-02 2.272465452551841736e-02 1.393008325248956680e-02 2.822187962010502815e-03 5.304562393575906754e-03 1.342588383704423904e-02 -2.257663942873477936e-02 2.555093495175242424e-03 -1.592454151250422001e-03 -2.159808389842510223e-02 6.844684947282075882e-03 1.561377313919365406e-03 5.995337851345539093e-03
1.052068918943405151e-02 3.037341311573982239e-02 8.899753913283348083e-03 -3.323731571435928345e-02 -4.272575303912162781e-02 1.016099192202091217e-02 1.764823682606220245e-02 -1.799049600958824158e-02 3.149525448679924011e-02 5.383339244872331619e-03 5.312957614660263062e-02 8.249210193753242493e-03 6.348160561174154282e-03 4.943923279643058777e-02 -2.948298864066600800e-02 2.178639359772205353e-02 -1.649351604282855988e-02 -2.141709253191947937e-02 -2.422601170837879181e-02 9.625098668038845062e-03 -1.819617860019207001e-02 1.320562325417995453e-02 8.962697535753250122e-02 -2.001846954226493835e-02 -3.487008810043334961e-02 3.284489363431930542e-02 1.254169456660747528e-02 1.741404458880424500e-02 -1.108378358185291290e-02 -1.071711420081555843e-03 6.788015831261873245e-03 -1.459605805575847626e-02 2.140745520591735840e-02 3.752760123461484909e-03 -1.896147616207599640e-02 -7.995743304491043091e-03 3.185620531439781189e-02 3.953099250793457031e-02 2.518766187131404877e-02 -2.885080873966217041e-03 1.094159577041864395e-02 2.850458398461341858e-02 -7.084371056407690048e-03 -1.130977459251880646e-02 -1.613389328122138977e-02 -2.275010943412780762e-02 -1.625293679535388947e-02 1.304346136748790741e-02 -2.351413480937480927e-02 2.097037807106971741e-02 7.796856516506522894e-05 -4.179335664957761765e-03 -1.746363751590251923e-02 7.461476139724254608e-03 4.812801256775856018e-02 -3.504750318825244904e-03 -1.810289453715085983e-03 1.922501064836978912e-02 -3.554034978151321411e-03 2.111224603140726686e-04 -2.723565511405467987e-02 -1.204792968928813934e-02 -7.699267473071813583e-03 -3.756869118660688400e-04 1.763745676726102829e-03 -1.366469357162714005e-02 9.684941731393337250e-03 -2.018615603446960449e-02 -1.167688239365816116e-02 -1.066818553954362869e-02 1.812815479934215546e-02 4.388194065541028976e-03 -9.175636805593967438e-03 5.121422465890645981e-03 -2.522302977740764618e-02 1.061632391065359116e-02 -1.799462176859378815e-02 -4.126680549234151840e-03 7.108227815479040146e-03 5.437125451862812042e-03 -3.368446603417396545e-02 2.099165692925453186e-03 9.443600662052631378e-03 -1.105672586709260941e-02 5.005300510674715042e-03 -3.937008604407310486e-02 1.886123418807983398e-02 2.862714976072311401e-02 -3.542750142514705658e-03 -4.905122797936201096e-03 -3.250073641538619995e-02 1.358762104064226151e-02 2.762877009809017181e-02 1.508684270083904266e-02 -3.266237210482358932e-03 1.377907488495111465e-02 1.985759660601615906e-02 -7.233306765556335449e-03 -7.587586995214223862e-03 1.448730472475290298e-02 4.038183484226465225e-03 -1.052163424901664257e-03 2.138632535934448242e-02 -3.697163984179496765e-02 2.335260622203350067e-02 -1.243377570062875748e-02 -4.114050418138504028e-02 -6.091895513236522675e-03 2.067770576104521751e-03 6.298491731286048889e-03 -5.742700304836034775e-04 1.219409517943859100e-03 -7.519888458773493767e-04 4.045795649290084839e-03 1.267986139282584190e-03 -1.980113424360752106e-02 -1.907727681100368500e-02 2.378492383286356926e-03 -1.893338002264499664e-02 2.035699784755706787e-02 3.407236654311418533e-03 -1.020714454352855682e-02 6.116549018770456314e-03 2.315785363316535950e-02 -3.668394638225436211e-03 7.845956832170486450e-03 8.995869196951389313e-03 -5.023005418479442596e-03
-3.189969807863235474e-02 -3.867128398269414902e-03 1.668093912303447723e-02 1.708877831697463989e-02 2.366355992853641510e-02 3.015347570180892944e-02 4.160520061850547791e-02 -1.097207516431808472e-02 2.453396655619144440e-02 4.761971533298492432e-03 3.236662596464157104e-03 3.423000453040003777e-03 2.005770802497863770e-02 1.250472012907266617e-02 5.770087987184524536e-02 -3.059161640703678131e-02 2.915170416235923767e-02 -9.372802451252937317e-03 -1.203967072069644928e-02 -2.771291881799697876e-02 3.340439498424530029e-02 1.667051110416650772e-03 -2.099259383976459503e-02 -2.009480446577072144e-02 1.881992444396018982e-02 1.230169367045164108e-02 4.455770365893840790e-03 2.514975517988204956e-02 -6.148006301373243332e-03 -2.391414158046245575e-02 -1.411231467500329018e-03 -1.795358769595623016e-02 5.473338067531585693e-02 2.501703100278973579e-03 -3.536049276590347290e-02 -5.300513468682765961e-03 2.864253520965576172e-02 -1.755427010357379913e-02 5.064338445663452148e-02 -2.650462649762630463e-02 1.758748106658458710e-02 4.504431504756212234e-03 -9.888909757137298584e-03 4.544662777334451675e-03 -1.220369059592485428e-02 -2.783568762242794037e-02 1.638312451541423798e-02 1.274195872247219086e-02 1.903993636369705200e-02 -4.785176366567611694e-03 9.734159335494041443e-03 -2.071285247802734375e-02 1.029501575976610184e-02 -7.591767702251672745e-03 2.881610579788684845e-02 9.916287846863269806e-03 -1.343327760696411133e-02 7.185289636254310608e-03 -4.421990830451250076e-03 1.178784854710102081e-02 -2.839350327849388123e-02 -2.364583127200603485e-02 2.546173287555575371e-03 -3.666645660996437073e-02 1.914047449827194214e-02 -3.093831986188888550e-02 -4.680697340518236160e-03 -3.456761315464973450e-02 -3.367749974131584167e-02 1.830417662858963013e-02 -1.199840381741523743e-02 -2.032867865636944771e-03 -2.965550869703292847e-02 5.324513837695121765e-02 -9.699525311589241028e-03 6.707923952490091324e-03 -2.290858887135982513e-02 1.265846379101276398e-02 -2.090794779360294342e-02 2.906188834458589554e-03 -2.390201948583126068e-02 -2.567231655120849609e-03 -2.543366514146327972e-03 -3.860186412930488586e-02 -1.415889430791139603e-02 2.044984325766563416e-02 -2.933556679636240005e-03 8.281542919576168060e-03 3.142945095896720886e-02 1.439112890511751175e-02 -2.830309793353080750e-02 7.572769187390804291e-03 -8.942637592554092407e-03 -1.933678798377513885e-02 2.507496811449527740e-02 1.759608089923858643e-02 -1.401837449520826340e-03 1.528839301317930222e-02 2.635593339800834656e-02 -5.453599151223897934e-03 -2.321404963731765747e-02 -1.272500399500131607e-02 -3.134449571371078491e-02 1.461027935147285461e-02 -2.058265730738639832e-02 -2.195178158581256866e-02 4.814567801076918840e-04 -3.901488706469535828e-02 4.853864375036209822e-04 5.746287759393453598e-03 -1.109835039824247360e-02 -1.404855586588382721e-02 1.104155741631984711e-02 3.019836358726024628e-02 1.387590193189680576e-03 -3.929687198251485825e-03 -9.641068987548351288e-03 -2.958915941417217255e-02 2.876275777816772461e-02 -9.462209418416023254e-03 -4.980003926903009415e-03 -8.610662072896957397e-03 -1.129439845681190491e-02 2.776356227695941925e-02 6.939847487956285477e-03 -3.381311427801847458e-03 -2.343138679862022400e-03 1.843252568505704403e-03
-4.912015795707702637e-02 -6.021689157932996750e-03 -3.206161782145500183e-02 -6.148851476609706879e-03 2.062239125370979309e-02 -2.459176070988178253e-02 -1.329686120152473450e-02 4.439647495746612549e-02 -3.500081598758697510e-02 1.829792186617851257e-02 -3.483269247226417065e-04 -3.061136975884437561e-02 -8.527399972081184387e-03 1.338628772646188736e-02 3.091169334948062897e-02 -2.285720966756343842e-02 -7.177581544965505600e-03 2.489002607762813568e-02 2.004875801503658295e-02 -5.599343567155301571e-04 1.184886042028665543e-02 -2.005757950246334076e-02 1.128185633569955826e-02 3.494748380035161972e-03 1.404150109738111496e-02 1.486408989876508713e-02 -5.443627480417490005e-03 -2.838235115632414818e-03 -9.450280107557773590e-03 -2.570247510448098183e-03 -1.062650885432958603e-02 6.760710850358009338e-03 -9.184861555695533752e-04 -2.016704902052879333e-02 4.654536955058574677e-03 2.130931988358497620e-02 1.145760621875524521e-02 -1.569709554314613342e-02 7.997044362127780914e-03 -6.878842250443994999e-04 1.429235935211181641e-02 1.479548402130603790e-02 4.149268381297588348e-03 -5.239061545580625534e-03 -2.931980229914188385e-02 -2.420795708894729614e-02 -2.643159031867980957e-02 4.187124222517013550e-02 -7.083722855895757675e-03 5.597104318439960480e-03 -2.497489564120769501e-02 -2.275394462049007416e-02 9.218148887157440186e-03 -4.231726750731468201e-03 2.738407999277114868e-02 -1.935585401952266693e-02 2.086959592998027802e-02 9.487221017479896545e-03 -1.561619155108928680e-02 -3.808230906724929810e-02 2.707373537123203278e-02 7.603321690112352371e-03 -7.777025457471609116e-03 -2.531069144606590271e-02 1.284536253660917282e-02 2.721156738698482513e-02 -3.315958008170127869e-02 1.033230964094400406e-02 -7.338766474276781082e-03 1.471900660544633865e-02 -1.876073773019015789e-03 -1.805375143885612488e-02 1.237552240490913391e-02 6.361995823681354523e-03 6.080026552081108093e-02 -1.534335967153310776e-02 2.393160015344619751e-03 -4.177201166749000549e-02 -1.375573035329580307e-02 -5.761654116213321686e-03 -2.633154392242431641e-02 6.949684023857116699e-02 1.623252220451831818e-02 8.052615448832511902e-03 3.417636733502149582e-03 1.265926659107208252e-02 -2.196665387600660324e-03 7.956157438457012177e-03 1.137432828545570374e-02 9.628284606151282787e-04 3.512288630008697510e-02 -2.089878916740417480e-02 1.693069189786911011e-02 -1.876636035740375519e-02 -3.793191164731979370e-03 4.707453306764364243e-03 1.514186151325702667e-02 -2.668889053165912628e-02 2.110499329864978790e-02 1.103902352042496204e-03 7.888740859925746918e-03 1.154271326959133148e-02 1.124537549912929535e-02 3.182118525728583336e-03 -1.184142101556062698e-02 1.979026384651660919e-02 -6.346127949655056000e-03 1.111329300329089165e-03 1.174039486795663834e-02 -1.289253006689250469e-03 -7.167802657932043076e-03 2.753100730478763580e-02 -3.369297459721565247e-02 1.041531562805175781e-02 -4.548790864646434784e-03 2.095979638397693634e-02 1.501861028373241425e-02 -2.202936448156833649e-02 -2.666082046926021576e-02 1.713774539530277252e-02 5.092094652354717255e-04 -4.845460411161184311e-03 1.901458576321601868e-02 -2.746178023517131805e-02 6.709740264341235161e-04 3.738643229007720947e-02 1.641938835382461548e-02 1.751284487545490265e-02
2.679122146219015121e-03 9.359941817820072174e-03 5.021295323967933655e-02 6.951326970010995865e-03 -7.294457405805587769e-03 -5.362228490412235260e-03 1.768032833933830261e-02 -3.517978638410568237e-02 8.001585956662893295e-05 -1.320003718137741089e-02 2.768278354778885841e-03 4.217216279357671738e-03 -3.415467962622642517e-02 -2.948467992246150970e-02 -9.031824767589569092e-03 4.341108351945877075e-02 -4.870834760367870331e-03 1.791550964117050171e-02 1.016272325068712234e-02 1.679388573393225670e-03 -1.709417323581874371e-03 7.403729483485221863e-03 2.957404218614101410e-02 2.266440726816654205e-02 2.360818348824977875e-02 3.098615817725658417e-02 -1.906462712213397026e-04 1.237693428993225098e-02 -1.507759653031826019e-02 -1.311973202973604202e-02 -3.165990486741065979e-02 -1.169038284569978714e-02 -5.835665855556726456e-03 2.601012215018272400e-02 9.797805920243263245e-03 -9.572473354637622833e-03 -8.866348653100430965e-04 2.436294592916965485e-02 -3.041164763271808624e-02 6.953618489205837250e-03 -6.767003331333398819e-03 1.958322525024414062e-02 1.451108139008283615e-02 2.770234271883964539e-02 -2.185028977692127228e-02 -1.861230470240116119e-02 1.980200409889221191e-02 -3.082602843642234802e-02 1.321288198232650757e-02 -4.217399656772613525e-02 4.484484437853097916e-03 -1.994546502828598022e-02 3.185625653713941574e-03 1.319876685738563538e-02 -8.826442994177341461e-03 1.718430407345294952e-02 1.778248883783817291e-02 7.988860830664634705e-03 -2.822070755064487457e-02 -4.560493305325508118e-02 -8.402265608310699463e-03 -2.442007535137236118e-04 -1.133632194250822067e-02 1.110028941184282303e-02 3.212026879191398621e-02 2.630972862243652344e-02 -9.453380480408668518e-03 -2.044990099966526031e-02 1.385535299777984619e-02 1.833078637719154358e-02 -1.023335568606853485e-02 1.818242482841014862e-02 5.832312162965536118e-03 -3.139823209494352341e-03 7.843868806958198547e-03 -1.379818096756935120e-02 1.481278706341981888e-02 3.497926751151680946e-03 -5.043267272412776947e-03 -1.596915535628795624e-02 2.288270741701126099e-02 -1.486590970307588577e-02 -9.835324250161647797e-03 -2.181967534124851227e-02 -1.641288585960865021e-02 2.467151172459125519e-02 -9.418480098247528076e-03 4.098596982657909393e-03 -2.136069815605878830e-03 -3.655997104942798615e-03 -6.355584599077701569e-03 1.469782926142215729e-02 7.458311971276998520e-03 -1.355190994217991829e-03 -3.811011090874671936e-02 1.392948627471923828e-02 -1.297735143452882767e-02 -1.154221827164292336e-03 2.553199883550405502e-03 -2.452159300446510315e-02 -1.362238172441720963e-02 -1.826123520731925964e-02 -1.570809632539749146e-02 3.476036339998245239e-02 -2.615559846162796021e-03 8.383176289498806000e-03 -2.756333723664283752e-02 -1.506396010518074036e-02 6.425264291465282440e-03 -2.774481661617755890e-02 -1.130363065749406815e-02 -6.814845651388168335e-02 -1.719449181109666824e-03 -8.158213458955287933e-03 1.291591394692659378e-02 3.211377887055277824e-03 2.020117361098527908e-03 1.579477079212665558e-02 -1.755446381866931915e-02 -1.560753863304853439e-02 -1.283874642103910446e-02 2.152073010802268982e-02 -5.331231746822595596e-03 -1.443014387041330338e-02 -8.295400999486446381e-03 -4.164868593215942383e-02 1.480128150433301926e-02 -2.227149903774261475e-03
1.839159801602363586e-02 -2.985688857734203339e-02 1.058146357536315918e-02 -2.452292107045650482e-02 8.094461634755134583e-03 -2.427316084504127502e-02 -5.681237671524286270e-03 -8.444836363196372986e-03 -7.758541963994503021e-03 -4.246966913342475891e-03 1.311503257602453232e-02 1.918311347253620625e-03 7.244376931339502335e-03 6.111540133133530617e-04 -8.599983528256416321e-03 -1.084756851196289062e-02 -5.765987560153007507e-03 -6.200212519615888596e-03 1.446381327696144581e-03 8.416368626058101654e-03 -8.006419986486434937e-03 1.696295291185379028e-02 2.632398158311843872e-02 -2.115967310965061188e-02 3.644578857347369194e-03 4.199551045894622803e-02 -2.513993903994560242e-02 -4.029873292893171310e-03 -1.044008228927850723e-02 1.617792993783950806e-02 3.239237237721681595e-03 -2.487591654062271118e-02 -3.142896573990583420e-03 7.090320345014333725e-03 6.788631435483694077e-03 -1.209563342854380608e-03 1.783536560833454132e-02 1.973905973136425018e-02 -1.638370007276535034e-02 5.828661378473043442e-03 2.427597157657146454e-02 5.519203376024961472e-03 -3.449679166078567505e-02 1.989131234586238861e-02 4.392572445794939995e-04 7.858471944928169250e-03 1.141761150211095810e-02 -1.980807445943355560e-02 9.303087717853486538e-04 -3.932177060050889850e-05 4.043737798929214478e-02 6.460668519139289856e-03 4.251223057508468628e-03 -4.680942744016647339e-03 -7.707634475082159042e-03 -1.033764239400625229e-02 3.549715271219611168e-03 -4.313011467456817627e-02 -4.200460389256477356e-03 -4.070987179875373840e-02 -5.354118999093770981e-03 -6.987619679421186447e-03 -1.446566451340913773e-02 -8.581318892538547516e-03 6.946652196347713470e-03 6.342379003763198853e-02 -3.993436228483915329e-03 2.662332169711589813e-02 -2.616165392100811005e-02 -5.338156595826148987e-03 -3.875254769809544086e-04 -9.749346412718296051e-03 1.600582338869571686e-02 1.090820506215095520e-02 2.715885639190673828e-02 2.295606769621372223e-02 -2.763978205621242523e-03 3.968767076730728149e-02 2.117777802050113678e-02 -1.057657599449157715e-02 7.746317889541387558e-03 -7.955959998071193695e-03 -2.603016793727874756e-02 -7.799944840371608734e-03 -1.240257266908884048e-02 3.677928447723388672e-02 1.440952904522418976e-02 -3.553807036951184273e-04 -2.758807875216007233e-02 1.594232954084873199e-02 -2.009807340800762177e-02 9.739348664879798889e-03 7.230848073959350586e-03 1.826704293489456177e-02 4.272672347724437714e-03 1.269272528588771820e-02 1.091965846717357635e-02 -5.741331260651350021e-03 -2.590546943247318268e-02 -5.543855950236320496e-03 -4.541401192545890808e-02 -5.649657920002937317e-03 3.367086127400398254e-02 2.289954386651515961e-02 3.705191193148493767e-03 1.955502666532993317e-03 1.461291871964931488e-02 -2.360805310308933258e-02 9.477916173636913300e-03 2.942060120403766632e-03 1.618003845214843750e-02 -1.247105374932289124e-02 -1.055272482335567474e-02 1.183273736387491226e-02 -3.563572093844413757e-02 1.472114864736795425e-02 -3.244940657168626785e-03 2.747213467955589294e-02 -4.880503751337528229e-03 -2.131502516567707062e-02 1.870177686214447021e-02 2.595674013718962669e-03 4.862455651164054871e-03 9.503324981778860092e-04 -2.506995201110839844e-02 -5.709958076477050781e-02 -7.925325073301792145e-03 -2.318202145397663116e-02
2.158134616911411285e-02 -4.666875582188367844e-03 -1.489595603197813034e-02 -4.468254372477531433e-02 -3.749244660139083862e-02 -2.602604590356349945e-02 -6.355767603963613510e-03 -1.118568761739879847e-04 2.016089484095573425e-02 3.006267547607421875e-02 3.116448037326335907e-02 -2.358672767877578735e-02 1.171516906470060349e-02 -1.861582882702350616e-02 1.869760826230049133e-02 -2.080524712800979614e-02 -1.997081376612186432e-02 -2.010467089712619781e-02 2.617524378001689911e-02 -7.100192829966545105e-03 -2.026341110467910767e-02 1.563712768256664276e-02 7.216064725071191788e-03 -2.025216817855834961e-02 3.505942225456237793e-02 2.795415557920932770e-02 1.283363439142704010e-02 6.917521357536315918e-03 -8.512387983500957489e-03 3.816938726231455803e-03 -3.260876238346099854e-02 3.691161796450614929e-02 -8.069752715528011322e-03 1.106693688780069351e-02 -3.577261231839656830e-03 -1.890910975635051727e-02 9.522180072963237762e-03 -5.974952946417033672e-04 2.315969951450824738e-02 -3.073818981647491455e-03 -1.330231595784425735e-02 -2.263781381770968437e-03 3.787480667233467102e-02 2.875310741364955902e-02 1.094309054315090179e-02 7.201735861599445343e-03 -2.174637978896498680e-03 -1.314493268728256226e-02 7.074706954881548882e-04 -4.309252277016639709e-02 -8.553853258490562439e-03 9.524763561785221100e-03 1.905705779790878296e-03 -3.689788654446601868e-02 -1.803843304514884949e-02 9.006556938402354717e-04 1.139503065496683121e-02 -1.352819520980119705e-02 1.228705048561096191e-02 -2.071991376578807831e-02 -4.009990021586418152e-02 3.166694194078445435e-03 -2.999268472194671631e-02 -1.374288182705640793e-02 1.681429520249366760e-02 1.323456224054098129e-02 1.987848617136478424e-02 1.728566712699830532e-03 7.184012793004512787e-03 1.073963474482297897e-02 -2.882629260420799255e-02 1.919975318014621735e-02 4.744234960526227951e-03 5.734349414706230164e-02 -6.350370123982429504e-03 1.816991716623306274e-02 -1.907040178775787354e-02 -7.461245986633002758e-04 -2.866298891603946686e-02 2.419091016054153442e-02 -3.179400414228439331e-02 9.816145524382591248e-03 -6.697919685393571854e-03 1.914671622216701508e-02 -2.832451718859374523e-04 3.274004161357879639e-02 -8.858290500938892365e-03 -2.622700668871402740e-02 -4.534504935145378113e-02 -1.413893885910511017e-02 -8.976789191365242004e-03 -1.225856319069862366e-02 1.019055116921663284e-02 -2.127952128648757935e-02 1.038314960896968842e-02 -2.194863744080066681e-03 6.057294085621833801e-03 3.877009730786085129e-03 2.682936936616897583e-02 6.725456099957227707e-03 -1.443315856158733368e-02 8.915254846215248108e-03 -3.933033440262079239e-03 5.279299337416887283e-03 -2.687852131202816963e-03 3.218476846814155579e-02 -2.717423811554908752e-02 1.068047247827053070e-02 -2.419225312769412994e-02 -3.079509921371936798e-02 2.409155604254920036e-05 5.519039696082472801e-04 -3.104165010154247284e-02 -9.382232092320919037e-03 3.141684830188751221e-02 1.664703479036688805e-03 -8.595636114478111267e-03 1.585794053971767426e-02 7.970571517944335938e-03 -1.040866691619157791e-02 2.162621729075908661e-02 -2.969149127602577209e-02 -4.484191536903381348e-03 -1.377278752624988556e-02 -7.471908349543809891e-03 5.309853330254554749e-02 2.494184486567974091e-02 2.987786941230297089e-02
