9.831291623413562775e-03 2.282454079249873757e-04 7.762324530631303787e-03 1.932821323862299323e-04 6.803468335419893265e-03 4.266314581036567688e-02 -1.685210503637790680e-02 -1.657445915043354034e-02 9.835189208388328552e-03 4.579326510429382324e-02 -1.375976298004388809e-02 2.294433116912841797e-02 1.914774533361196518e-03 -1.830310933291912079e-02 2.429255517199635506e-03 1.307990308851003647e-02 4.292878136038780212e-02 -2.332424512133002281e-03 -9.862188249826431274e-03 3.434630855917930603e-02 -1.195512991398572922e-02 -1.305370032787322998e-02 -1.624893047846853733e-03 -2.738849259912967682e-02 1.144809741526842117e-02 -5.258480668999254704e-04 -1.982524804770946503e-02 1.733059436082839966e-02 -6.213787477463483810e-03 -2.646032907068729401e-02 7.447319570928812027e-03 -1.129195443354547024e-03 8.041066117584705353e-03 -5.459424108266830444e-03 2.264494774863123894e-03 -2.142920158803462982e-02 -1.717200875282287598e-02 6.188926752656698227e-03 4.090801253914833069e-02 -1.562537066638469696e-02 -3.958461340516805649e-03 -4.857451654970645905e-03 -3.344703465700149536e-02 -1.810057647526264191e-02 -2.104427479207515717e-02 -2.821338595822453499e-03 -5.783085711300373077e-03 9.153676219284534454e-03 1.381057198159396648e-03 1.421507075428962708e-02 2.296066470444202423e-02 -2.188544534146785736e-02 2.462495490908622742e-02 -9.158155880868434906e-03 1.223633624613285065e-02 -2.183026075363159180e-02 8.546273224055767059e-03 8.385180495679378510e-03 2.544074878096580505e-02 -3.612980246543884277e-03 -2.418319694697856903e-02 3.381023928523063660e-02 3.268794156610965729e-03 -7.690712809562683105e-03 3.119420260190963745e-02 1.992307975888252258e-02 -4.553628154098987579e-03 3.093605674803256989e-02 4.241455812007188797e-03 1.714947633445262909e-02 -4.405929706990718842e-03 1.094532199203968048e-02 2.798496186733245850e-02 -9.356681257486343384e-03 3.369589895009994507e-02 -2.052448317408561707e-02 -4.548513144254684448e-02 -9.927683509886264801e-03 2.566436678171157837e-02 1.181835960596799850e-02 2.334108948707580566e-02 3.544361144304275513e-02 -8.168728090822696686e-03 7.147051393985748291e-03 2.461462654173374176e-02 -6.376952398568391800e-03 -1.497595012187957764e-02 2.478002198040485382e-02 1.997989416122436523e-02 2.215762808918952942e-02 -2.561570331454277039e-02 1.193543616682291031e-02 8.522716350853443146e-03 4.679273988585919142e-04 2.470244094729423523e-02 2.726530283689498901e-02 1.825894601643085480e-02 1.036967523396015167e-02 4.213826730847358704e-03 -1.363586727529764175e-02 -1.830437779426574707e-02 -1.809290144592523575e-03 -1.249572262167930603e-02 4.122783988714218140e-02 7.540487567894160748e-04 -8.856653235852718353e-03 1.362168882042169571e-02 6.078356411308050156e-03 -2.785734087228775024e-02 2.160702273249626160e-02 -1.893450133502483368e-02 -3.225822746753692627e-02 -7.100737653672695160e-03 1.843775436282157898e-02 9.838176891207695007e-03 -2.527377568185329437e-02 1.737153343856334686e-02 2.420641295611858368e-02 -1.266384962946176529e-02 3.788870200514793396e-02 2.818824024870991707e-03 1.379019231535494328e-03 -2.676747040823101997e-03 2.461379626765847206e-03 -1.600611582398414612e-02 -7.735893130302429199e-03 -5.380620248615741730e-03 -1.527216844260692596e-02
-8.935575897339731455e-05 1.230298168957233429e-02 1.653596758842468262e-02 -1.104079652577638626e-02 7.091152481734752655e-03 1.179610917461104691e-04 -8.754862472414970398e-03 -2.569191902875900269e-02 2.691700309514999390e-02 -1.123274676501750946e-02 -4.144331067800521851e-02 8.163899183273315430e-03 -1.133996807038784027e-02 -2.571517229080200195e-02 -9.861240163445472717e-03 -1.595639623701572418e-02 2.481011115014553070e-02 1.824496872723102570e-02 -1.097725797444581985e-02 -4.738237708806991577e-03 4.658473655581474304e-03 -1.806833781301975250e-02 9.357428178191184998e-03 2.009449526667594910e-02 2.271858230233192444e-02 2.120923454640433192e-05 1.257104612886905670e-02 1.484984997659921646e-02 1.690126024186611176e-02 -1.884621381759643555e-02 -3.428129246458411217e-03 -1.969987526535987854e-02 4.026888869702816010e-03 -5.276880227029323578e-03 -1.410850137472152710e-02 -2.873419085517525673e-03 7.437095511704683304e-03 3.226864337921142578e-02 -3.477581217885017395e-02 -9.834347292780876160e-03 1.036260463297367096e-02 -8.955544792115688324e-03 -1.886566169559955597e-02 -2.916069142520427704e-02 7.207971066236495972e-03 -1.406753784976899624e-03 2.970322780311107635e-02 1.058415975421667099e-02 2.769369073212146759e-02 2.359368139877915382e-03 -3.650554269552230835e-02 9.705871343612670898e-03 -1.932264678180217743e-02 -1.757025532424449921e-02 5.598995368927717209e-03 3.862826561089605093e-04 7.940824143588542938e-03 3.176690638065338135e-02 -3.234424814581871033e-02 1.767416857182979584e-02 -3.551068156957626343e-02 -1.051300298422574997e-02 -3.270122921094298363e-03 -3.132121171802282333e-03 1.979069085791707039e-03 5.225587170571088791e-03 -2.652635984122753143e-02 -2.111894264817237854e-02 -1.972717233002185822e-02 4.755391739308834076e-03 -2.285407483577728271e-02 -2.212981926277279854e-03 7.447682321071624756e-02 1.735496707260608673e-02 -1.247014012187719345e-02 -1.043811091221868992e-03 3.481388557702302933e-03 -2.831647638231515884e-03 1.715516671538352966e-02 -2.066844888031482697e-02 -3.801810089498758316e-03 -3.309749998152256012e-03 -2.000533603131771088e-02 -7.085665129125118256e-03 9.367123246192932129e-03 -2.055132295936346054e-03 -4.732087254524230957e-03 1.882425136864185333e-02 -3.277932293713092804e-03 -1.528938487172126770e-02 1.301522832363843918e-02 3.780128434300422668e-02 9.516830556094646454e-03 -3.963749855756759644e-03 2.879915013909339905e-02 -6.729174870997667313e-03 1.835916750133037567e-02 8.226273930631577969e-04 -2.419293159618973732e-03 -1.451211422681808472e-02 -7.953626103699207306e-03 2.767781727015972137e-02 -1.897039473988115788e-03 -2.698520570993423462e-02 3.241115808486938477e-02 -1.102372258901596069e-02 -7.002308964729309082e-03 2.900848165154457092e-02 2.099525183439254761e-02 -2.516305632889270782e-02 -1.563045516377314925e-04 3.720336826518177986e-03 5.293171852827072144e-03 -1.579990983009338379e-02 -8.964107371866703033e-03 -6.898721680045127869e-03 -1.005798298865556717e-02 3.165751695632934570e-02 3.225538507103919983e-02 1.914703287184238434e-02 -2.152142487466335297e-02 6.482194643467664719e-03 -1.374356355518102646e-02 -1.815139199607074261e-03 -3.552926937118172646e-03 -4.599725082516670227e-02 3.281001001596450806e-03 -1.486022258177399635e-03
-1.359411794692277908e-02 -3.787238895893096924e-02 -1.128669362515211105e-02 8.874787949025630951e-03 -6.629366427659988403e-02 -7.929302752017974854e-03 1.018356159329414368e-02 3.634716570377349854e-02 -3.826210275292396545e-02 -4.330423660576343536e-03 1.551858242601156235e-02 2.588253654539585114e-02 -4.237105604261159897e-03 -7.211280521005392075e-03 4.492281004786491394e-02 1.141859497874975204e-02 6.660117767751216888e-03 2.942892909049987793e-02 1.254890230484306812e-03 -2.812185790389776230e-03 -1.709494739770889282e-02 -5.166405811905860901e-03 3.304310888051986694e-02 4.341730847954750061e-03 2.535959472879767418e-03 -1.710032857954502106e-02 -4.136160388588905334e-02 -9.956442750990390778e-03 2.448975294828414917e-02 -1.107404660433530807e-02 -3.774655750021338463e-03 1.519856788218021393e-02 2.273479476571083069e-02 3.061289712786674500e-02 -2.644172683358192444e-02 -2.139871008694171906e-02 -2.726973406970500946e-02 6.882131565362215042e-03 -3.738312050700187683e-02 2.260643616318702698e-02 -5.406879819929599762e-03 1.438499335199594498e-02 -7.206539157778024673e-03 1.091369241476058960e-02 -6.824683398008346558e-03 2.899237442761659622e-03 6.349275936372578144e-04 -1.282303407788276672e-02 -7.829263806343078613e-03 6.147691514343023300e-03 -7.610995788127183914e-03 -4.320120811462402344e-02 2.088215388357639313e-02 -1.747824018821120262e-03 -9.855792857706546783e-03 -1.965809240937232971e-02 -3.222846426069736481e-04 1.477465266361832619e-03 -1.574217458255589008e-03 1.473606284707784653e-02 1.596983335912227631e-02 2.980028651654720306e-02 -1.865065097808837891e-02 -3.932214807718992233e-03 2.279268391430377960e-02 1.109688356518745422e-02 -4.994433000683784485e-02 -1.462330110371112823e-02 -1.910795085132122040e-02 -2.520618587732315063e-02 2.930279634892940521e-02 -1.742324093356728554e-03 1.865053921937942505e-02 -2.239868417382240295e-02 -3.035470377653837204e-03 6.148120155557990074e-04 1.489397836849093437e-03 -5.114412400871515274e-03 3.675812482833862305e-02 -6.472287233918905258e-03 -1.442037802189588547e-02 3.595453454181551933e-03 4.646639153361320496e-02 -3.929693624377250671e-02 1.330144982784986496e-02 3.038205951452255249e-02 1.747737824916839600e-02 -1.563776284456253052e-02 2.100056037306785583e-02 8.980861864984035492e-03 2.347517386078834534e-02 3.922303672879934311e-03 -1.648683659732341766e-02 -2.324124053120613098e-02 -3.130939230322837830e-02 1.496081054210662842e-02 1.472336705774068832e-02 -7.401521783322095871e-03 5.249010398983955383e-03 8.879252709448337555e-03 -6.855492247268557549e-04 -2.356498688459396362e-02 1.212376542389392853e-02 -2.177993021905422211e-02 1.454724837094545364e-02 6.188726425170898438e-02 2.568373084068298340e-02 2.470405586063861847e-02 8.408818393945693970e-03 -1.526066660881042480e-02 -1.924657635390758514e-02 -1.612190529704093933e-02 5.259589292109012604e-03 -1.380910724401473999e-02 1.115650590509176254e-02 3.533402457833290100e-02 -2.855869010090827942e-02 -2.939984761178493500e-02 1.612599566578865051e-02 -2.400114759802818298e-02 -6.298261228948831558e-03 4.391319525893777609e-04 -3.779854252934455872e-02 2.622340805828571320e-02 1.604488678276538849e-02 6.595177575945854187e-03 -6.933907512575387955e-03 4.133478179574012756e-02
2.454429632052779198e-03 -1.104175578802824020e-03 1.195826381444931030e-02 3.948457539081573486e-03 -9.656760841608047485e-03 2.152859792113304138e-02 4.879208747297525406e-03 -1.055878866463899612e-02 -1.983639597892761230e-02 -1.672272570431232452e-02 -2.925672195851802826e-02 2.854992076754570007e-02 3.754926472902297974e-02 7.639788091182708740e-04 -1.673956401646137238e-02 -4.074148088693618774e-02 2.718313829973340034e-03 1.015447638928890228e-02 1.177244354039430618e-02 2.551905252039432526e-02 3.815302252769470215e-02 2.957088872790336609e-02 -7.613518740981817245e-03 3.593426570296287537e-02 3.521246463060379028e-02 -2.081397548317909241e-02 7.170350290834903717e-03 1.404363429173827171e-03 2.052794396877288818e-02 3.494770964607596397e-03 -1.019721012562513351e-02 -8.823651820421218872e-03 -2.888961322605609894e-02 4.543537739664316177e-03 -1.441829092800617218e-02 -1.932320557534694672e-02 3.121415618807077408e-03 -2.931953035295009613e-02 -4.204463213682174683e-02 1.771604642271995544e-03 3.454868122935295105e-02 -1.668765954673290253e-02 3.238828480243682861e-02 -2.361715771257877350e-02 -7.667150814086198807e-03 3.236011415719985962e-02 9.303557453677058220e-04 -1.849533244967460632e-02 9.272302500903606415e-03 -8.958941325545310974e-03 -1.002344302833080292e-02 4.264166578650474548e-02 1.578774861991405487e-02 -1.249431166797876358e-03 -8.121147751808166504e-03 -5.335606634616851807e-03 -1.050111372023820877e-02 9.864678606390953064e-03 -1.812183856964111328e-02 4.526091367006301880e-02 7.217226549983024597e-03 2.589637413620948792e-02 -2.514927648007869720e-02 -4.101235419511795044e-03 -4.851243924349546432e-03 7.709107361733913422e-03 -2.753952704370021820e-02 2.617229335010051727e-02 1.305882446467876434e-02 1.806164905428886414e-02 -2.068206667900085449e-02 -3.302412852644920349e-02 3.708549961447715759e-02 8.758174255490303040e-03 -5.729665048420429230e-03 -5.318019073456525803e-03 -3.138622501865029335e-03 2.989753335714340210e-02 7.743113674223423004e-03 -8.619815111160278320e-03 -1.698586158454418182e-02 -9.810376912355422974e-03 4.378129728138446808e-03 -1.089590135961771011e-02 -1.361331995576620102e-02 5.484834313392639160e-03 1.218663621693849564e-02 -2.202842384576797485e-02 -2.220382168889045715e-02 -1.520337816327810287e-02 3.278522490290924907e-05 3.336702287197113037e-02 -1.005218736827373505e-02 -8.047698996961116791e-03 -1.148416008800268173e-02 -2.813457278534770012e-03 -7.459993008524179459e-03 1.057688891887664795e-02 7.662822492420673370e-03 1.054612174630165100e-02 3.134372830390930176e-02 1.528746914118528366e-02 -2.780493907630443573e-02 -3.729940857738256454e-03 -1.602369546890258789e-02 -3.609505714848637581e-03 7.386212237179279327e-03 -1.446838118135929108e-02 -3.450270509347319603e-03 2.683488652110099792e-03 2.776687778532505035e-02 1.442461740225553513e-02 -2.438203245401382446e-02 -1.966801844537258148e-02 -1.918645761907100677e-02 -2.332000527530908585e-03 9.955868124961853027e-03 -2.782499231398105621e-02 -2.042153850197792053e-02 -2.494542114436626434e-02 -4.308016970753669739e-03 -1.252743601799011230e-02 -8.742779493331909180e-03 2.085534622892737389e-03 4.318469017744064331e-02 -2.732155099511146545e-02 -1.022891979664564133e-02 -1.123681664466857910e-03
1.427981536835432053e-02 -1.457515172660350800e-03 -9.695676155388355255e-03 5.681876558810472488e-03 1.716477796435356140e-02 1.533926837146282196e-02 -1.720437780022621155e-02 1.799776591360569000e-02 2.419805526733398438e-02 -4.957175254821777344e-02 -2.225413918495178223e-02 1.464876532554626465e-02 -1.424677320756018162e-03 1.700406707823276520e-02 -3.573526814579963684e-02 2.763775736093521118e-02 3.814378008246421814e-02 4.023185465484857559e-03 3.095797635614871979e-02 3.966971766203641891e-03 1.064239814877510071e-02 3.205982595682144165e-02 1.880062371492385864e-02 -1.140828151255846024e-02 -3.615672513842582703e-02 2.266700938344001770e-02 1.339679583907127380e-02 9.014641982503235340e-04 1.102397684007883072e-02 -9.949722327291965485e-03 -1.781512051820755005e-02 2.384114265441894531e-02 1.105855591595172882e-02 -1.389346085488796234e-02 1.178550766780972481e-03 2.479537157341837883e-03 4.420717712491750717e-03 3.381358925253152847e-03 4.778017755597829819e-03 8.981860009953379631e-04 -2.281133830547332764e-02 2.016255073249340057e-02 6.500462070107460022e-03 -5.536601413041353226e-03 1.425200793892145157e-02 -2.552991546690464020e-02 -1.226885989308357239e-02 1.797544024884700775e-02 1.450025755912065506e-02 1.192615367472171783e-02 -1.064919494092464447e-02 4.733222536742687225e-03 -1.176615245640277863e-02 -1.871128194034099579e-02 -5.513276904821395874e-03 8.506114594638347626e-03 -3.684600070118904114e-02 7.258663419634103775e-03 -1.854141987860202789e-02 1.453179051168262959e-03 -2.717378782108426094e-03 1.726407930254936218e-02 -8.716340176761150360e-03 2.042613923549652100e-03 3.762587904930114746e-02 4.061819612979888916e-02 1.587628573179244995e-02 1.011114846915006638e-02 -3.374449536204338074e-02 2.126946114003658295e-02 -1.274443813599646091e-03 1.149413548409938812e-02 -1.444125175476074219e-02 -3.254601964727044106e-03 5.416710395365953445e-03 -3.759688884019851685e-02 1.851154840551316738e-03 7.611234206706285477e-03 -1.408552005887031555e-02 1.357296761125326157e-02 4.778273776173591614e-02 2.908659353852272034e-02 -7.181420922279357910e-03 9.951208718121051788e-03 -2.756364457309246063e-02 -9.995657950639724731e-03 -4.892128985375165939e-03 -3.573602065443992615e-02 -6.609740201383829117e-03 2.210257947444915771e-02 -8.456646464765071869e-03 -1.959689147770404816e-02 6.720296107232570648e-03 2.079251036047935486e-02 -7.466475013643503189e-03 -2.685131970793008804e-03 -2.966062538325786591e-02 -4.635571967810392380e-03 1.712854206562042236e-02 -7.001609541475772858e-03 3.336061199661344290e-04 -7.248595822602510452e-03 -8.091586641967296600e-03 -6.011075805872678757e-03 -3.271268680691719055e-02 -1.639843685552477837e-03 -7.535025477409362793e-03 4.339916259050369263e-02 -7.040491327643394470e-03 -2.044635079801082611e-02 -3.942368179559707642e-02 -3.366521000862121582e-02 -2.229604497551918030e-02 6.887335795909166336e-03 -4.934390541166067123e-03 5.075164139270782471e-03 -1.870422251522541046e-02 2.347307093441486359e-02 -1.996203698217868805e-02 1.577814668416976929e-02 -3.281624754890799522e-03 3.113093087449669838e-03 2.138048410415649414e-03 -2.100730314850807190e-03 -2.528140507638454437e-02 2.110110037028789520e-02 -2.202047221362590790e-02 8.041926659643650055e-03
1.272093597799539566e-02 3.079885244369506836e-02 3.446073085069656372e-02 -4.931956995278596878e-03 3.610967472195625305e-02 -7.403896655887365341e-03 -4.693691805005073547e-02 3.210760653018951416e-02 6.832711398601531982e-03 8.754522539675235748e-03 6.226002238690853119e-03 2.696400275453925133e-03 3.502713516354560852e-02 1.647394895553588867e-02 -2.094587683677673340e-02 7.777309045195579529e-03 5.133894737809896469e-03 -9.059276431798934937e-03 1.675378344953060150e-02 5.744854733347892761e-02 9.052672423422336578e-03 1.356238126754760742e-02 3.200500505045056343e-03 1.481729932129383087e-02 2.035356312990188599e-02 -1.389219542033970356e-03 6.820153910666704178e-03 -3.958834335207939148e-03 -1.740206778049468994e-02 -1.347688864916563034e-02 -3.971076384186744690e-02 -2.272952720522880554e-02 1.881811395287513733e-02 -4.625551402568817139e-03 2.863438241183757782e-02 3.785869048442691565e-04 -1.190197281539440155e-02 -2.015444450080394745e-02 3.992082783952355385e-04 4.698909819126129150e-03 -2.560315420851111412e-03 1.168833114206790924e-02 2.329693175852298737e-02 -6.922783795744180679e-03 2.923860400915145874e-02 -1.863468997180461884e-02 1.082249172031879425e-02 4.431904852390289307e-02 6.027181167155504227e-03 -8.365265093743801117e-03 -3.508663922548294067e-02 3.391889110207557678e-02 2.494976483285427094e-02 -1.485170796513557434e-02 1.041069161146879196e-02 -2.431022375822067261e-02 -3.936637076549232006e-04 1.638793386518955231e-02 -6.025320850312709808e-03 1.527244038879871368e-02 -1.408358663320541382e-02 -1.726100593805313110e-02 -2.324332855641841888e-02 2.172530815005302429e-02 2.889802865684032440e-02 -2.570814918726682663e-03 1.204032171517610550e-02 -5.879445001482963562e-02 6.035215221345424652e-03 7.244994398206472397e-03 -9.100455790758132935e-03 1.080496329814195633e-02 9.579857811331748962e-03 5.366770550608634949e-03 4.768347833305597305e-03 1.639227382838726044e-03 -1.899268850684165955e-02 4.610607028007507324e-02 -3.566629486158490181e-03 5.210970714688301086e-02 -3.759161010384559631e-02 -8.139913901686668396e-03 1.029609888792037964e-02 1.815055124461650848e-02 -3.494796156883239746e-02 2.077078819274902344e-02 -2.614033594727516174e-02 4.434729926288127899e-03 2.718336321413516998e-02 4.062179476022720337e-02 7.569830864667892456e-03 -1.760627143085002899e-02 6.858591455966234207e-03 1.622248999774456024e-02 1.237250305712223053e-02 4.146856069564819336e-02 7.346484926529228687e-04 -3.569433838129043579e-02 1.500668004155158997e-02 5.369031568989157677e-04 -1.897175237536430359e-02 4.342476278543472290e-02 -1.007523946464061737e-02 -1.864112541079521179e-02 -1.611069589853286743e-02 1.731363311409950256e-02 -6.933451164513826370e-03 3.115659020841121674e-02 -3.409512341022491455e-02 2.088353037834167480e-02 -2.100811898708343506e-02 -1.408998947590589523e-02 -6.736762356013059616e-03 -1.567987492308020592e-03 1.086911186575889587e-03 3.413848206400871277e-02 -1.923263445496559143e-02 2.218487206846475601e-03 2.331578172743320465e-02 -3.896971791982650757e-02 -2.791083790361881256e-02 -1.996691571548581123e-03 6.231587380170822144e-03 1.448860578238964081e-02 1.225510030053555965e-03 -2.524070255458354950e-02 -1.021668873727321625e-02 8.573677390813827515e-03
-2.099908888339996338e-03 1.376179885119199753e-02 -1.214143261313438416e-02 -6.187665462493896484e-02 3.036928363144397736e-02 3.480904921889305115e-02 -3.865106031298637390e-03 3.695370256900787354e-02 -1.036040484905242920e-02 -2.903009066358208656e-03 -1.186558604240417480e-02 -4.787341691553592682e-03 -5.394001491367816925e-03 -3.017360810190439224e-03 -4.713007248938083649e-03 2.642191387712955475e-02 -1.071104127913713455e-02 -1.149504911154508591e-02 1.402760483324527740e-02 -4.234573338180780411e-03 1.251958962529897690e-02 -2.475486509501934052e-02 -1.365913264453411102e-02 -9.126129443757236004e-04 -1.475324481725692749e-02 5.934428889304399490e-03 -1.622323319315910339e-02 -4.481944721192121506e-03 -4.954148971592076123e-05 -5.303439218550920486e-03 1.983759924769401550e-02 -5.018000490963459015e-03 2.890724875032901764e-02 -1.224025432020425797e-02 -1.282261498272418976e-02 6.031430326402187347e-03 4.464318510144948959e-03 3.431657701730728149e-02 1.464559324085712433e-02 -4.348977003246545792e-03 -2.028957754373550415e-02 2.164030075073242188e-02 1.119259744882583618e-03 3.456652164459228516e-03 4.144982248544692993e-02 -2.911052480340003967e-02 6.500917952507734299e-03 5.178458616137504578e-02 -1.828638254664838314e-03 -1.289499830454587936e-02 -5.325681529939174652e-03 7.278716191649436951e-03 1.656103879213333130e-03 2.042275294661521912e-02 3.487872704863548279e-02 -5.296301096677780151e-03 1.947100972756743431e-03 -3.357794508337974548e-02 4.890266340225934982e-03 -1.197624485939741135e-03 -1.319755800068378448e-02 -1.278020441532135010e-02 -2.020438946783542633e-02 9.888867847621440887e-03 -8.650828152894973755e-03 4.875482060015201569e-03 -1.420267391949892044e-02 -2.041570469737052917e-02 -5.858995951712131500e-03 1.422664802521467209e-02 -1.861512474715709686e-02 -3.347587585449218750e-02 -9.173153899610042572e-03 2.609167248010635376e-03 -1.824904978275299072e-02 -1.357958093285560608e-02 -1.937127485871315002e-02 -5.326406098902225494e-03 2.353271469473838806e-02 2.044825069606304169e-02 -1.257099956274032593e-02 -1.282895263284444809e-02 -1.984010450541973114e-02 -7.017874740995466709e-04 -7.222509942948818207e-03 2.908772416412830353e-02 -7.562237326055765152e-03 -1.026978809386491776e-02 4.138701036572456360e-02 2.347632683813571930e-02 3.528614761307835579e-03 -1.799730770289897919e-02 1.983300899155437946e-04 -8.888309821486473083e-03 -3.916773013770580292e-03 -3.484175540506839752e-03 -5.343607161194086075e-03 -1.290703378617763519e-02 1.226995699107646942e-02 3.176563652232289314e-03 2.779662609100341797e-03 -6.393984891474246979e-03 -1.245945878326892853e-02 3.030169010162353516e-02 1.763314753770828247e-02 -1.920299022458493710e-03 -2.664357610046863556e-02 -1.833645161241292953e-03 1.102602109313011169e-02 1.565022021532058716e-02 -2.936333417892456055e-03 5.990393459796905518e-03 -1.986779831349849701e-02 2.252336218953132629e-02 -1.116032362915575504e-03 8.058695122599601746e-03 1.398792490363121033e-03 2.887312136590480804e-02 -9.926064871251583099e-03 1.074385945685207844e-03 1.751966541633009911e-03 5.989983677864074707e-03 -1.028301194310188293e-02 1.493931282311677933e-02 3.206229954957962036e-02 2.219539321959018707e-02 -7.153487764298915863e-03 -2.408705092966556549e-02
2.079866454005241394e-02 7.303070276975631714e-03 1.049296930432319641e-02 8.830174920149147511e-05 1.867333054542541504e-02 2.751343417912721634e-03 1.057049352675676346e-02 -2.400675043463706970e-02 3.693080693483352661e-02 3.558635246008634567e-03 -2.470625797286629677e-03 -2.901612035930156708e-02 -3.246267139911651611e-02 -3.548934683203697205e-02 1.050930377095937729e-02 1.479247398674488068e-02 3.732470422983169556e-02 1.471375231631100178e-03 -1.945190690457820892e-02 -1.215796079486608505e-02 -9.676853194832801819e-03 1.542755682021379471e-02 1.197681017220020294e-02 1.661961525678634644e-02 -9.697034955024719238e-03 9.413904510438442230e-03 4.410353489220142365e-03 2.842974849045276642e-03 -1.443748082965612411e-02 -2.155692130327224731e-02 -2.119643241167068481e-02 6.683948915451765060e-03 -3.167210891842842102e-02 -1.647904887795448303e-02 -1.280353311449289322e-02 -2.606801129877567291e-02 -1.849799067713320255e-03 -5.946326069533824921e-03 -4.651227220892906189e-02 1.870922930538654327e-02 -1.302686519920825958e-02 -8.968617767095565796e-04 3.543950617313385010e-03 -2.212163805961608887e-02 -5.139666143804788589e-03 6.889497395604848862e-03 -1.223886851221323013e-02 2.120078355073928833e-02 -3.056818852201104164e-03 1.725196838378906250e-02 7.423518691211938858e-03 -2.573946677148342133e-02 6.364026572555303574e-03 -1.133805327117443085e-02 -4.322287440299987793e-02 1.672443747520446777e-02 -2.767331153154373169e-02 1.799458055756986141e-03 -1.456687506288290024e-02 -5.236142897047102451e-04 2.545899897813796997e-02 1.765512744896113873e-03 -8.000686764717102051e-03 -3.059695102274417877e-02 -1.486351806670427322e-02 -1.034864317625761032e-02 4.037166479974985123e-03 1.007107272744178772e-02 -2.466070093214511871e-02 -9.473687969148159027e-03 2.714956738054752350e-02 -1.018803007900714874e-02 1.272867899388074875e-03 -1.863709464669227600e-02 2.474837005138397217e-02 1.463033910840749741e-02 2.572577260434627533e-02 2.689570933580398560e-02 2.842575497925281525e-02 8.786789141595363617e-03 2.091159299015998840e-02 1.094859093427658081e-02 -1.561606884934008121e-03 4.110451322048902512e-03 1.592218503355979919e-02 -9.957487694919109344e-03 1.578083634376525879e-02 -2.387883141636848450e-02 -4.906616173684597015e-03 -9.299797937273979187e-03 5.649168416857719421e-02 4.798804875463247299e-03 -1.566604524850845337e-02 2.755368128418922424e-02 -1.661230111494660378e-03 3.435197845101356506e-02 1.130569912493228912e-02 3.987276460975408554e-03 -2.269412623718380928e-03 1.456155907362699509e-02 5.111563019454479218e-03 -2.431378141045570374e-02 -1.860822178423404694e-02 -2.608114387840032578e-03 1.076376810669898987e-02 3.699489170685410500e-03 -5.120058543980121613e-03 1.253989152610301971e-02 2.255516685545444489e-02 -1.703370013274252415e-03 -2.163849584758281708e-02 -1.283606514334678650e-02 -1.415883074514567852e-03 -2.178795635700225830e-03 1.613273983821272850e-03 -4.127153195440769196e-03 3.145073074847459793e-03 -1.496510114520788193e-02 -2.958495542407035828e-02 -1.951894164085388184e-02 -3.153043612837791443e-02 1.143167819827795029e-02 1.115827448666095734e-02 -6.508520804345607758e-03 -3.806827962398529053e-02 -1.759245060384273529e-02 -7.448012474924325943e-03 -9.191898629069328308e-03
1.719461567699909210e-02 4.591745324432849884e-03 -3.367098793387413025e-02 8.331602439284324646e-03 3.070638980716466904e-03 -2.316345088183879852e-02 1.859580911695957184e-02 -2.914694487117230892e-04 9.468799456954002380e-03 5.084988102316856384e-02 2.598563209176063538e-02 8.402063511312007904e-03 -1.837945356965065002e-02 2.770279161632061005e-02 4.403820727020502090e-03 -6.418639793992042542e-03 1.143601536750793457e-02 -1.842430979013442993e-02 8.612604811787605286e-03 -1.891828700900077820e-02 3.900934709236025810e-03 -3.634742693975567818e-03 1.207107398658990860e-02 3.599705919623374939e-02 -1.778507791459560394e-02 -3.746816143393516541e-02 -1.666840352118015289e-02 2.352835796773433685e-02 -5.774216726422309875e-03 -1.208498701453208923e-02 9.042101912200450897e-03 1.242499239742755890e-02 -2.865644916892051697e-02 -3.966217860579490662e-02 2.940064994618296623e-03 1.245026214746758342e-04 6.684672553092241287e-03 -2.415558509528636932e-02 4.308958351612091064e-02 -9.843238512985408306e-05 1.189420092850923538e-02 -6.436009425669908524e-03 -5.874998401850461960e-03 2.766102785244584084e-03 9.315728209912776947e-03 1.751828007400035858e-02 -7.178043480962514877e-03 2.978870179504156113e-03 2.994578331708908081e-02 6.629792507737874985e-03 1.599114015698432922e-02 -3.028176166117191315e-02 2.793840318918228149e-02 -3.456272184848785400e-03 -3.573475405573844910e-02 6.250418373383581638e-04 2.568528056144714355e-02 -1.926833949983119965e-02 1.504660956561565399e-02 9.672014974057674408e-03 6.368367467075586319e-03 1.752100139856338501e-02 9.793973527848720551e-03 2.360959723591804504e-02 -6.724062375724315643e-03 -7.415332831442356110e-03 -2.186391130089759827e-02 -9.269941598176956177e-03 -4.191586747765541077e-03 2.277942188084125519e-02 -1.816723868250846863e-02 2.467903308570384979e-02 -1.290675997734069824e-02 1.934049837291240692e-02 1.879129931330680847e-02 -4.002027213573455811e-03 1.064403075724840164e-02 -2.420266345143318176e-02 -1.143401023000478745e-03 2.959449030458927155e-02 -4.441490024328231812e-02 -7.893975707702338696e-04 -3.469690307974815369e-02 2.808644436299800873e-02 1.692783832550048828e-02 -3.015726990997791290e-02 -1.376438653096556664e-03 6.918524857610464096e-03 -1.265017967671155930e-02 -2.510156948119401932e-03 1.861684583127498627e-02 -5.073131062090396881e-03 -7.249055895954370499e-03 -8.455759845674037933e-03 -7.414447609335184097e-03 -1.337692723609507084e-03 -3.685780242085456848e-02 -2.465938217937946320e-02 2.049600332975387573e-02 1.221545273438096046e-03 -4.110663384199142456e-02 -9.950745850801467896e-03 1.705983839929103851e-02 -6.368630565702915192e-03 1.735030300915241241e-02 1.748801581561565399e-02 -7.647431455552577972e-03 1.590350829064846039e-02 -2.311383932828903198e-02 1.465191482566297054e-03 -1.854741200804710388e-02 -7.241642102599143982e-03 5.475161131471395493e-03 9.963904507458209991e-03 7.980239577591419220e-03 -3.376636421307921410e-03 -3.429635241627693176e-02 -1.868022792041301727e-02 -7.938677445054054260e-04 -4.631458222866058350e-02 1.797558553516864777e-02 -4.592731595039367676e-03 -3.944332897663116455e-02 1.748737646266818047e-03 -1.693099923431873322e-02 -3.241290897130966187e-02 -1.286652404814958572e-02 1.208292786031961441e-03
8.788518607616424561e-03 1.494491752237081528e-02 3.135298937559127808e-02 9.600229561328887939e-03 -1.026330050081014633e-02 -1.876727864146232605e-02 9.607912972569465637e-03 -3.296527545899152756e-03 -1.620327308773994446e-02 -1.487092114984989166e-02 -1.719685457646846771e-02 7.921136566437780857e-04 1.192672085016965866e-02 -7.863138802349567413e-03 -1.830803789198398590e-02 2.223094739019870758e-02 -1.216799020767211914e-02 1.149214524775743484e-02 -2.204691059887409210e-02 -6.686863955110311508e-03 -2.096278779208660126e-02 7.599575910717248917e-03 -7.178854662925004959e-03 -3.053524706047028303e-04 -2.767280675470829010e-02 2.657181955873966217e-02 -2.143117599189281464e-03 1.817829720675945282e-02 -2.929351292550563812e-02 -2.329384675249457359e-03 2.436092821881175041e-03 -8.587465621531009674e-03 -2.596690785139799118e-03 4.843427799642086029e-03 2.342059835791587830e-02 -9.923783130943775177e-03 4.199296981096267700e-02 2.199608460068702698e-02 -4.998486954718828201e-03 -1.615918986499309540e-02 7.071359548717737198e-03 1.547458022832870483e-02 -6.721614859998226166e-03 1.497853267937898636e-02 1.405835524201393127e-02 -1.556022092700004578e-03 -1.712598721496760845e-03 -1.307918503880500793e-02 -4.086852446198463440e-02 1.924058608710765839e-02 6.219674833118915558e-03 2.629010938107967377e-02 -8.965766988694667816e-03 -1.695207133889198303e-02 7.167371455579996109e-03 -6.911209202371537685e-04 7.623548153787851334e-03 2.410012856125831604e-02 -3.710372000932693481e-02 -2.744643203914165497e-02 -3.884413512423634529e-03 1.799412630498409271e-02 -2.284199930727481842e-02 2.058609947562217712e-02 -3.791127353906631470e-03 -1.707722619175910950e-02 -5.233420990407466888e-03 -2.048621699213981628e-02 -1.447989046573638916e-02 1.140710525214672089e-02 4.071941133588552475e-03 4.061116371303796768e-03 1.876350119709968567e-02 -2.019725926220417023e-02 1.785078900866210461e-03 1.305045932531356812e-02 -3.178503364324569702e-02 -3.238758817315101624e-02 5.456779617816209793e-03 -2.347682230174541473e-02 4.711576737463474274e-03 4.709252156317234039e-03 5.032120738178491592e-03 -6.334643345326185226e-03 1.377576310187578201e-02 -3.959028422832489014e-02 1.710852375254034996e-03 6.543331779539585114e-03 -8.571706712245941162e-03 7.985850796103477478e-03 -9.079387527890503407e-04 9.367452934384346008e-03 -2.226155437529087067e-02 9.408741258084774017e-03 -2.267788909375667572e-02 -2.948866225779056549e-03 -3.340454306453466415e-03 -8.694501593708992004e-03 -5.309741199016571045e-02 -1.826761057600378990e-03 -1.979027874767780304e-02 3.646368905901908875e-02 -1.836062729125842452e-04 -2.453151717782020569e-02 -3.058689087629318237e-02 -3.372157225385308266e-03 4.203484579920768738e-02 1.852444373071193695e-02 -3.790029790252447128e-03 4.065214097499847412e-02 1.146120764315128326e-02 -2.717497944831848145e-02 -7.937191054224967957e-03 9.193448349833488464e-03 2.573817968368530273e-02 -2.821533381938934326e-02 4.343470931053161621e-02 2.559668198227882385e-02 -9.760281071066856384e-03 -5.107985064387321472e-02 1.514401379972696304e-02 -5.996073409914970398e-02 2.651742100715637207e-02 -7.061735261231660843e-03 -2.457850612699985504e-03 1.460708864033222198e-02 -2.714911662042140961e-02 -3.930195700377225876e-03
-2.261411398649215698e-02 8.692837436683475971e-04 -3.184664994478225708e-02 -1.061063818633556366e-02 1.482338551431894302e-02 -3.483289107680320740e-02 -2.431613951921463013e-02 3.574340371415019035e-03 4.646244458854198456e-03 2.752665430307388306e-03 1.167393941432237625e-02 1.260956842452287674e-02 2.381539717316627502e-02 1.137145608663558960e-02 9.831172414124011993e-03 2.979328855872154236e-03 -6.765371188521385193e-03 -1.299300137907266617e-02 -7.479552645236253738e-03 -1.084348652511835098e-03 -1.252216938883066177e-02 1.248404011130332947e-02 -7.191861048340797424e-03 1.561692915856838226e-02 -2.253391221165657043e-02 1.649712957441806793e-02 -9.357422241009771824e-04 -2.492609247565269470e-02 8.714288473129272461e-03 7.575401570647954941e-03 -9.496373240835964680e-04 5.233009811490774155e-03 -2.238266170024871826e-02 9.048997162608429790e-05 -4.736727476119995117e-02 2.541724778711795807e-02 2.119522541761398315e-02 2.792603708803653717e-02 3.209294518455862999e-03 -6.794806104153394699e-03 -1.019056048244237900e-02 2.423040755093097687e-02 1.219545304775238037e-02 1.796601898968219757e-02 -7.443119306117296219e-03 9.744863025844097137e-03 -2.745212428271770477e-02 -1.102078426629304886e-02 -3.051681444048881531e-02 4.081721231341362000e-02 -1.140320301055908203e-02 -5.280327051877975464e-03 -1.363695133477449417e-02 -5.028052628040313721e-02 -5.524194333702325821e-03 2.282753353938460350e-03 -5.609686952084302902e-03 -8.538161404430866241e-03 3.074281476438045502e-02 -1.397177670150995255e-02 -7.175974547863006592e-03 -9.959262795746326447e-03 -4.594044759869575500e-03 2.635538764297962189e-02 -7.735181134194135666e-03 3.228629380464553833e-02 -1.461565680801868439e-02 1.431343890726566315e-02 -2.602045238018035889e-02 9.194326587021350861e-03 3.446015715599060059e-02 -2.151017822325229645e-02 7.330503431148827076e-04 -7.492335862480103970e-04 6.337290415103780106e-06 -2.999049611389636993e-03 1.689153909683227539e-02 1.844256930053234100e-02 1.774473302066326141e-02 8.688460104167461395e-03 1.372592989355325699e-02 -3.577084746211767197e-03 1.122858840972185135e-02 1.119025866501033306e-03 -5.307757761329412460e-03 -4.351944476366043091e-02 1.730607263743877411e-02 8.143283426761627197e-03 -7.645201403647661209e-04 -1.784177869558334351e-02 -9.636858594603836536e-04 6.887051276862621307e-04 -6.338684353977441788e-03 2.521088533103466034e-02 8.089725859463214874e-03 6.940566818229854107e-04 -4.131593741476535797e-03 -1.329599507153034210e-02 -9.059810079634189606e-03 1.078201923519372940e-03 3.379609435796737671e-02 -1.103317271918058395e-02 6.697145756334066391e-03 1.987986825406551361e-02 -2.296648919582366943e-02 8.585410541854798794e-04 6.154851987957954407e-03 1.270298194140195847e-02 6.581811700016260147e-03 -1.630859263241291046e-02 -4.267261363565921783e-03 1.043210737407207489e-02 1.667775586247444153e-02 3.053243970498442650e-03 3.279550373554229736e-02 9.914202615618705750e-03 2.033185586333274841e-02 2.006599120795726776e-02 1.601379550993442535e-02 -1.634187623858451843e-02 -3.428069502115249634e-02 1.722228899598121643e-02 2.076855860650539398e-03 -1.635416783392429352e-02 2.543715201318264008e-02 2.607680298388004303e-02 -3.716842504218220711e-03 5.569241009652614594e-03
-1.502473466098308563e-02 -1.126460079103708267e-02 -2.814318798482418060e-02 3.366018086671829224e-02 8.033179678022861481e-03 -4.616991430521011353e-02 -2.472581341862678528e-03 1.501021347939968109e-02 -8.714829571545124054e-03 -6.230297498404979706e-03 5.089180916547775269e-02 1.460232306271791458e-02 -1.138452719897031784e-02 -1.616640016436576843e-02 -1.618193462491035461e-02 -2.584511227905750275e-02 -4.850093973800539970e-04 -6.114823743700981140e-03 -9.424319490790367126e-03 -4.090098198503255844e-03 -3.051140904426574707e-02 -9.628077968955039978e-03 -1.437486894428730011e-02 3.019000217318534851e-02 -1.368983299471437931e-03 -1.432576123625040054e-02 -8.027479983866214752e-03 6.463553756475448608e-03 9.141246788203716278e-03 -1.086888648569583893e-02 -7.167769595980644226e-03 1.568854227662086487e-02 -8.054539212025702000e-04 1.523864082992076874e-02 -4.690909758210182190e-02 -1.028058025985956192e-02 6.967042107135057449e-03 1.746755465865135193e-02 3.371345228515565395e-04 1.920059882104396820e-02 2.978294342756271362e-02 1.994574628770351410e-02 -2.340787835419178009e-02 2.933439612388610840e-02 -3.442626446485519409e-02 1.470663934014737606e-03 1.199946459382772446e-02 1.130466163158416748e-02 -2.854429371654987335e-02 1.291050668805837631e-02 -1.107731461524963379e-02 3.660911228507757187e-03 -1.703666336834430695e-02 1.512818224728107452e-02 1.654477603733539581e-02 2.644298598170280457e-03 4.016478080302476883e-03 8.123991079628467560e-03 5.186917632818222046e-02 -2.602970041334629059e-02 7.074266250128857791e-06 2.944922447204589844e-02 1.433839788660407066e-03 4.236447159200906754e-03 -9.426832199096679688e-03 1.322543714195489883e-02 6.693683099001646042e-03 1.582164550200104713e-03 -1.764239370822906494e-02 -8.538172580301761627e-03 -4.092064872384071350e-02 2.368645183742046356e-02 -1.351131778210401535e-02 -6.450532935559749603e-03 2.574587054550647736e-02 1.198393478989601135e-02 2.158971689641475677e-02 -2.918127737939357758e-02 -1.505089644342660904e-02 1.486585661768913269e-02 -9.841895662248134613e-03 4.148197174072265625e-02 -4.327733814716339111e-02 3.110994026064872742e-02 4.295107722282409668e-02 -6.033599376678466797e-03 3.795647621154785156e-02 -7.219817023724317551e-03 -2.736986055970191956e-02 2.592428587377071381e-02 6.521344650536775589e-03 -9.167719399556517601e-04 -1.600320264697074890e-02 4.727175924926996231e-03 1.550748199224472046e-02 -1.372385676950216293e-02 3.372251521795988083e-03 -4.305959492921829224e-02 -3.187196329236030579e-02 2.562516182661056519e-02 -3.379434719681739807e-02 -6.286006420850753784e-03 -6.373422220349311829e-03 -1.209008693695068359e-02 3.536395030096173286e-03 4.143989831209182739e-02 1.367823593318462372e-02 2.426072768867015839e-02 1.047510001808404922e-02 -2.388797886669635773e-02 6.809571757912635803e-03 3.609776496887207031e-02 2.621382474899291992e-02 6.206940161064267159e-04 4.863339290022850037e-02 -2.669585682451725006e-02 -3.946470841765403748e-02 -3.528764704242348671e-03 -1.262157689779996872e-02 -6.644732318818569183e-03 -1.867229864001274109e-02 1.284097600728273392e-02 6.346999108791351318e-02 5.286340136080980301e-03 2.977317431941628456e-03 5.197509191930294037e-03 1.280104648321866989e-02 -1.002032402902841568e-02
4.700044915080070496e-02 4.254835098981857300e-02 -1.322177611291408539e-02 2.833767607808113098e-02 2.004432864487171173e-02 -3.032166324555873871e-02 -3.349285339936614037e-03 1.547904219478368759e-02 4.905465617775917053e-02 1.486981380730867386e-02 -2.279288694262504578e-02 2.472550608217716217e-02 -1.418065279722213745e-02 1.316882297396659851e-02 1.876622252166271210e-02 -1.235629059374332428e-02 1.866703107953071594e-02 -1.964809186756610870e-02 -1.089231576770544052e-02 -1.691066846251487732e-02 2.061158604919910431e-02 4.901463980786502361e-04 4.743244498968124390e-02 2.437241375446319580e-03 -2.391009218990802765e-02 -2.089133672416210175e-02 5.832540336996316910e-03 -5.258166696876287460e-03 1.155116874724626541e-02 2.908057905733585358e-02 1.401824131608009338e-02 -1.006395462900400162e-02 -2.732730656862258911e-02 -5.652874708175659180e-03 -5.752622149884700775e-03 7.662076037377119064e-03 -1.014097873121500015e-02 4.814524669200181961e-03 1.888139173388481140e-02 8.854071609675884247e-03 4.155839979648590088e-02 -1.237994153052568436e-02 6.407585740089416504e-02 2.317950688302516937e-02 -5.390309961512684822e-04 -1.582313328981399536e-03 -2.726314356550574303e-03 1.132086105644702911e-02 -8.139925077557563782e-03 -2.175334841012954712e-02 -1.979864388704299927e-02 -1.064717397093772888e-02 1.559044886380434036e-02 1.759634725749492645e-02 2.890836820006370544e-02 -3.000125288963317871e-03 1.161657925695180893e-02 -2.273026853799819946e-02 7.833914831280708313e-03 2.965810522437095642e-02 -1.154351793229579926e-02 -1.835260726511478424e-02 2.334787044674158096e-03 -9.124319069087505341e-03 1.506245974451303482e-02 -7.253651972860097885e-03 -1.495707873255014420e-02 -2.548529068008065224e-03 -6.226670462638139725e-03 -6.729661021381616592e-03 7.347365375608205795e-03 4.941535182297229767e-03 2.344051375985145569e-02 -6.517180241644382477e-03 1.817207597196102142e-02 -1.936832070350646973e-02 2.865714766085147858e-02 4.374799784272909164e-03 -1.123899407684803009e-02 1.925366185605525970e-02 8.532192441634833813e-04 -1.074764505028724670e-02 -1.084990520030260086e-02 2.243502065539360046e-02 2.762171439826488495e-02 2.739301882684230804e-02 1.926651969552040100e-02 -8.883723057806491852e-03 -1.957952554221265018e-05 -3.423188580200076103e-03 6.142993224784731865e-04 1.175071578472852707e-02 -8.130677975714206696e-03 -1.571787148714065552e-02 -2.126063965260982513e-02 -1.623939722776412964e-02 -9.433389641344547272e-03 3.861163184046745300e-02 -3.695247694849967957e-02 3.939953818917274475e-02 -2.292359806597232819e-02 1.137842144817113876e-02 -3.160507418215274811e-03 3.004953637719154358e-02 5.524345673620700836e-03 2.659331820905208588e-02 5.165854468941688538e-03 -2.070191502571105957e-02 -1.899756863713264465e-02 -1.633897796273231506e-02 -1.414173096418380737e-02 -1.758090779185295105e-02 -9.852508082985877991e-03 1.244508544914424419e-03 -2.487177401781082153e-02 -1.585921458899974823e-02 -9.485748596489429474e-03 1.514322240836918354e-03 -4.438836593180894852e-03 1.375902350991964340e-02 -4.902068991214036942e-03 -1.207907870411872864e-02 -6.219249684363603592e-03 2.192808501422405243e-02 4.524197895079851151e-03 2.744074910879135132e-02 -2.415012801066040993e-03 7.242145482450723648e-03
6.577888969331979752e-03 -3.158692643046379089e-02 1.053835358470678329e-02 -3.626743797212839127e-03 -5.085074901580810547e-02 2.467137761414051056e-02 1.311962213367223740e-02 9.690836071968078613e-03 1.469007972627878189e-02 1.167844422161579132e-02 2.118396200239658356e-02 1.124964840710163116e-02 7.570835296064615250e-04 2.969560213387012482e-03 -1.859056390821933746e-02 -1.064101792871952057e-02 -5.066728685051202774e-03 3.398326411843299866e-02 -4.079162608832120895e-03 -1.792827993631362915e-02 -9.640748030506074429e-04 1.859905198216438293e-02 2.115702070295810699e-02 -8.374553173780441284e-03 -3.500023111701011658e-02 -2.399216778576374054e-02 2.664678962901234627e-03 3.039955534040927887e-02 2.107603102922439575e-02 2.573883859440684319e-03 -2.378784585744142532e-03 -1.855792663991451263e-02 -2.385785989463329315e-02 2.206692658364772797e-02 2.071932516992092133e-02 -4.326350986957550049e-03 -1.673303544521331787e-02 -2.964531630277633667e-02 -1.510265655815601349e-02 2.140192687511444092e-02 -1.014054942061193287e-04 -4.013228230178356171e-03 -1.988363265991210938e-02 7.345514837652444839e-03 -9.554537013173103333e-03 -2.186095714569091797e-02 -1.144842244684696198e-02 2.195833064615726471e-02 -2.949217101559042931e-03 1.132655236870050430e-02 -2.125599049031734467e-02 6.826053839176893234e-03 2.407416515052318573e-02 1.112463767640292645e-03 -1.859524287283420563e-02 2.747162804007530212e-02 1.172252837568521500e-02 2.153513953089714050e-02 -5.223824083805084229e-02 2.453299798071384430e-02 5.597973708063364029e-03 1.373331621289253235e-02 -6.539847236126661301e-03 -3.098667599260807037e-02 1.055376976728439331e-02 -1.046460960060358047e-02 -9.476397186517715454e-03 -1.327612251043319702e-02 -1.734028570353984833e-02 -2.544317208230495453e-02 -3.372160717844963074e-02 2.124127186834812164e-02 3.431300446391105652e-02 2.424960397183895111e-02 -2.128851413726806641e-02 1.004164759069681168e-02 3.414728119969367981e-02 1.347304694354534149e-02 1.154902670532464981e-02 -3.896522149443626404e-02 -2.159864176064729691e-03 -3.998702764511108398e-02 4.707686975598335266e-02 -2.001867070794105530e-02 2.640660619363188744e-03 1.342592947185039520e-02 -3.175541758537292480e-02 -1.297287829220294952e-02 -3.550957515835762024e-02 9.126817807555198669e-03 1.274495478719472885e-02 -3.839677199721336365e-03 -1.967472210526466370e-02 2.346891909837722778e-03 -9.137057932093739510e-04 -1.090797595679759979e-02 -1.518331468105316162e-02 -1.486062537878751755e-02 1.409439742565155029e-02 3.595160320401191711e-02 1.399507094174623489e-02 -9.811745025217533112e-03 -5.601606797426939011e-03 1.917772367596626282e-02 9.869318455457687378e-03 -1.368014700710773468e-02 -1.153488364070653915e-02 -2.608801051974296570e-02 4.406728839967399836e-04 2.226992510259151459e-02 -7.091018836945295334e-03 -2.331447973847389221e-02 -2.140139788389205933e-02 -1.314545702189207077e-02 1.246142759919166565e-02 -1.875519193708896637e-02 -2.064642310142517090e-02 -1.411912776529788971e-02 -2.862441167235374451e-02 1.162659376859664917e-02 -4.148780554533004761e-02 2.865054877474904060e-03 -4.470689222216606140e-03 1.355744525790214539e-02 2.032060176134109497e-02 -8.439390920102596283e-03 -5.464951973408460617e-03 -1.167066767811775208e-02
2.818575501441955566e-02 -1.837829127907752991e-02 -6.793672684580087662e-03 -1.363934366963803768e-03 3.142959438264369965e-03 -5.219982005655765533e-03 2.100784517824649811e-02 2.880578301846981049e-02 -1.198073499836027622e-03 2.041081339120864868e-02 1.707634702324867249e-02 -7.862350903451442719e-03 2.153477817773818970e-02 8.206301368772983551e-03 -3.179104253649711609e-02 -6.264159828424453735e-02 1.089837495237588882e-02 1.020639948546886444e-02 1.083647087216377258e-02 -1.786874956451356411e-03 4.892453178763389587e-02 3.728650137782096863e-02 -2.944938372820615768e-03 1.548345200717449188e-02 -4.310075193643569946e-02 1.203954406082630157e-02 1.286997087299823761e-02 1.870367489755153656e-02 -5.229684058576822281e-03 9.596209041774272919e-03 -1.287204097025096416e-03 -2.043849602341651917e-02 -1.684803888201713562e-02 1.743027940392494202e-02 -5.294776987284421921e-03 -3.273284807801246643e-02 3.472076961770653725e-03 -2.666215039789676666e-02 -8.461736142635345459e-03 -1.426620408892631531e-02 3.096219152212142944e-02 -6.975129363127052784e-04 -7.935268804430961609e-04 -1.966433832421898842e-03 5.166394403204321861e-04 7.720373105257749557e-03 2.675517089664936066e-02 1.778995990753173828e-02 -2.103138016536831856e-03 -4.010257124900817871e-02 4.563044384121894836e-02 -4.196539521217346191e-03 3.369310498237609863e-02 2.279068902134895325e-02 1.846287399530410767e-02 -1.481060963124036789e-02 3.188251983374357224e-03 2.054383791983127594e-02 -3.060698136687278748e-02 1.024068892002105713e-02 2.795870229601860046e-02 4.305610433220863342e-03 -1.547899842262268066e-02 1.113528478890657425e-02 -5.850717797875404358e-02 -7.550017442554235458e-03 1.385150663554668427e-02 -3.994838893413543701e-02 -6.480870302766561508e-03 1.605561189353466034e-02 -2.253303071483969688e-03 3.957869485020637512e-03 -5.496141966432332993e-03 2.218921110033988953e-02 6.206474732607603073e-03 -2.127170562744140625e-02 1.386116724461317062e-02 1.258631888777017593e-02 -7.530970964580774307e-03 4.152301698923110962e-02 8.274388499557971954e-03 9.126468561589717865e-03 1.121455617249011993e-02 9.253497235476970673e-03 -5.152953416109085083e-02 -1.653547212481498718e-02 -8.212857879698276520e-03 -2.283355919644236565e-03 1.622915826737880707e-02 2.533072140067815781e-03 2.527592703700065613e-03 1.480475766584277153e-03 2.505757659673690796e-02 -3.304826840758323669e-02 -7.154665887355804443e-03 -4.638431128114461899e-03 3.071456588804721832e-02 1.687009446322917938e-02 -5.413000006228685379e-03 -1.020835991948843002e-02 -3.371339663863182068e-02 4.714845214039087296e-03 2.350858598947525024e-02 -2.996347844600677490e-02 -2.636723406612873077e-02 1.753303222358226776e-02 -2.931225858628749847e-02 2.208364754915237427e-02 -1.114464271813631058e-02 -1.457380969077348709e-02 1.111934799700975418e-02 1.229033060371875763e-02 2.085503563284873962e-02 -3.731598379090428352e-03 7.567594293504953384e-03 -1.736093312501907349e-02 -7.143613416701555252e-03 -2.619408071041107178e-02 -2.432320080697536469e-02 1.438358426094055176e-02 1.630937494337558746e-02 -4.270609468221664429e-02 4.264824747224338353e-05 5.825939588248729706e-04 -2.399715594947338104e-02 -4.729323089122772217e-03 -3.584740683436393738e-02 -3.257234022021293640e-02
-7.202886627055704594e-04 -2.397948689758777618e-02 -5.177806597203016281e-03 2.529587969183921814e-02 -1.122942660003900528e-02 -4.362684208899736404e-03 2.699660882353782654e-02 2.453385107219219208e-02 -6.972789764404296875e-03 3.257678076624870300e-02 -1.608946919441223145e-02 -2.639095671474933624e-02 4.473951831459999084e-02 6.338377017527818680e-03 2.429140545427799225e-02 2.918053604662418365e-02 2.201371081173419952e-02 1.813880726695060730e-02 -6.659909151494503021e-03 -5.142016801983118057e-03 -8.118801750242710114e-03 -3.494691848754882812e-02 3.392801154404878616e-03 1.026608236134052277e-02 -3.471790114417672157e-03 1.898550242185592651e-02 3.184991702437400818e-02 -2.283383533358573914e-02 3.191354218870401382e-03 -8.890159428119659424e-03 -3.418952459469437599e-03 3.157574683427810669e-03 -8.940318599343299866e-03 4.644236341118812561e-02 -1.433331798762083054e-02 -4.490449558943510056e-03 5.494963377714157104e-03 1.892022043466567993e-02 -4.135733470320701599e-02 -1.568484678864479065e-02 -1.549059804528951645e-02 -2.183199673891067505e-02 1.950443163514137268e-02 7.143090665340423584e-02 -3.451579436659812927e-02 2.793076634407043457e-02 -3.099802508950233459e-02 2.617878653109073639e-02 -1.976570859551429749e-02 1.056639384478330612e-02 3.022095374763011932e-02 -1.609530486166477203e-02 2.272822521626949310e-02 -3.625394543632864952e-03 -3.017106791958212852e-03 -1.240942906588315964e-02 2.263644896447658539e-02 1.750814914703369141e-02 1.213627215474843979e-02 -1.677376683801412582e-03 -2.121826820075511932e-02 -3.076956234872341156e-02 3.773942217230796814e-02 -2.491050586104393005e-02 -4.715396463871002197e-02 -1.365466695278882980e-02 -2.864762395620346069e-02 1.301066111773252487e-02 -8.634670637547969818e-03 -2.295399643480777740e-02 2.817573957145214081e-02 -1.454992592334747314e-02 -3.935195505619049072e-02 1.254493184387683868e-02 -4.066336899995803833e-03 -4.008293524384498596e-02 -1.486912649124860764e-02 2.176118269562721252e-02 -3.379115089774131775e-02 1.212131977081298828e-02 1.289768330752849579e-02 2.668835408985614777e-02 -3.735147044062614441e-02 -5.243183113634586334e-03 3.582384437322616577e-03 -6.602323614060878754e-03 4.849302640650421381e-04 1.415079552680253983e-02 -1.541532762348651886e-02 -2.532559912651777267e-03 2.155426336685195565e-04 1.854114234447479248e-03 -1.526104193180799484e-02 3.739634528756141663e-02 -4.028691723942756653e-02 6.915988400578498840e-03 7.195424288511276245e-03 2.549379505217075348e-02 -1.917271129786968231e-02 -1.188059430569410324e-02 -2.456384152173995972e-02 -5.803306587040424347e-03 -1.145758386701345444e-02 -2.769065648317337036e-02 1.012207753956317902e-02 7.787915877997875214e-03 2.087469957768917084e-02 -7.228035945445299149e-03 1.039373036473989487e-02 4.458375740796327591e-03 -1.650222018361091614e-02 6.616801838390529156e-04 -4.646324552595615387e-03 -1.312695094384253025e-03 2.269830182194709778e-02 4.215700179338455200e-02 -1.807930320501327515e-02 2.991251880303025246e-03 -9.963860735297203064e-03 2.171074599027633667e-02 9.759126231074333191e-03 1.695998944342136383e-02 2.359525300562381744e-02 2.832087129354476929e-02 1.828112825751304626e-02 -6.778491195291280746e-03 4.349929839372634888e-02 1.073280349373817444e-03
1.058378070592880249e-02 1.999114267528057098e-02 1.456208154559135437e-02 4.913912154734134674e-03 1.556653343141078949e-02 -2.661687135696411133e-02 -6.327245850116014481e-03 2.227364294230937958e-02 9.985621087253093719e-03 -6.303140893578529358e-03 -4.267279524356126785e-03 -1.443764660507440567e-02 9.423137642443180084e-03 6.923568900674581528e-03 3.286141902208328247e-03 -2.914231037721037865e-03 2.646265178918838501e-02 -7.988216821104288101e-04 -2.422494068741798401e-02 -3.832767531275749207e-02 -6.928973598405718803e-04 4.650337155908346176e-03 9.653033688664436340e-03 5.335524678230285645e-03 3.365349397063255310e-02 -2.382788620889186859e-02 5.128833930939435959e-03 -1.138355303555727005e-02 1.353867165744304657e-02 -8.166172541677951813e-03 2.700967341661453247e-02 1.706062466837465763e-03 2.485390985384583473e-03 1.076670177280902863e-02 6.055974401533603668e-03 5.631466861814260483e-03 -7.509695831686258316e-03 2.366023510694503784e-02 -5.349740386009216309e-02 1.529806014150381088e-02 -1.285244897007942200e-02 3.183009475469589233e-02 9.985380806028842926e-03 1.468391530215740204e-02 2.001721039414405823e-02 4.076146520674228668e-03 -6.989811081439256668e-03 2.329934947192668915e-02 -2.114309184253215790e-02 5.822354927659034729e-03 2.138407435268163681e-03 4.232675954699516296e-02 -1.998695731163024902e-02 -4.201307520270347595e-02 -1.861420087516307831e-02 -1.757863536477088928e-02 -4.334811586886644363e-03 2.020443789660930634e-02 -2.699852734804153442e-02 2.416137431282550097e-04 -3.064814582467079163e-02 9.278744459152221680e-03 -5.220275837928056717e-03 -3.046900033950805664e-02 9.676828049123287201e-03 4.056706558912992477e-03 1.437634322792291641e-02 -6.348389666527509689e-03 -4.683608934283256531e-02 -2.281431108713150024e-02 6.760218180716037750e-03 2.751307329162955284e-03 -1.619157381355762482e-02 7.643593475222587585e-03 9.290249086916446686e-03 5.698549095541238785e-03 -3.070332482457160950e-02 5.370668601244688034e-03 1.905845478177070618e-03 -2.108021173626184464e-03 1.916411519050598145e-02 7.501540705561637878e-03 -2.930125046987086535e-04 3.039656579494476318e-02 -1.723594218492507935e-02 -2.644004486501216888e-02 -3.281398117542266846e-02 -1.938832923769950867e-03 2.805535448715090752e-03 -8.230626583099365234e-03 2.942435443401336670e-02 7.014220114797353745e-03 2.091316273435950279e-03 -2.346542291343212128e-02 -3.152904659509658813e-02 2.884401567280292511e-02 -9.547738358378410339e-03 1.129607320763170719e-03 1.612883619964122772e-02 -1.705455780029296875e-02 -4.323408473283052444e-03 -1.257941685616970062e-02 -1.410305034369230270e-02 8.455032482743263245e-03 2.318903617560863495e-02 -3.664651140570640564e-02 -3.186214342713356018e-02 2.890846459195017815e-03 2.141903853043913841e-03 -3.374188020825386047e-02 -3.431504592299461365e-02 -1.044471096247434616e-02 -3.384502138942480087e-03 7.173806894570589066e-03 4.743387456983327866e-03 1.076091267168521881e-02 1.768987439572811127e-02 1.112999301403760910e-02 -1.265165302902460098e-02 -2.734171692281961441e-03 -1.001713704317808151e-02 -1.868708245456218719e-02 -1.283249724656343460e-02 -1.980183180421590805e-03 1.393349003046751022e-02 -6.627858150750398636e-03 -7.733410224318504333e-03 2.258505113422870636e-02
-8.440587669610977173e-03 3.648359328508377075e-03 2.582424879074096680e-02 4.701667651534080505e-02 4.567185416817665100e-02 -1.254204008728265762e-02 2.120738662779331207e-02 3.767352551221847534e-03 7.786974310874938965e-03 -2.986825443804264069e-02 -1.932756230235099792e-02 -8.372363634407520294e-03 -3.444821387529373169e-02 -1.710244640707969666e-02 -9.505854919552803040e-03 -2.397669479250907898e-02 -1.664258167147636414e-02 -2.202828787267208099e-02 -7.051703985780477524e-03 7.478096988052129745e-03 -6.634705932810902596e-04 -2.027012780308723450e-02 2.399790659546852112e-02 -1.533756777644157410e-02 1.986032351851463318e-02 -4.694342147558927536e-03 1.541831810027360916e-02 2.232953719794750214e-02 -6.455698749050498009e-04 9.283031336963176727e-03 -3.103547543287277222e-02 -2.301614545285701752e-02 -4.795112545252777636e-05 -6.205106619745492935e-03 -2.728903200477361679e-03 -5.186858028173446655e-02 7.247135043144226074e-03 -5.565452389419078827e-03 1.850549946539103985e-03 9.366453741677105427e-04 -1.342778746038675308e-02 1.660926267504692078e-02 6.861119531095027924e-03 1.854721084237098694e-02 8.316073566675186157e-03 1.710033975541591644e-02 1.132690161466598511e-02 5.855967756360769272e-03 -5.748387193307280540e-04 9.800636908039450645e-04 -5.755217745900154114e-03 1.023833639919757843e-03 3.271294524893164635e-03 2.488041855394840240e-02 2.066518925130367279e-02 -3.266774863004684448e-02 2.688836492598056793e-02 -3.220948949456214905e-02 -5.650625564157962799e-03 5.657405592501163483e-03 -4.176148399710655212e-02 -6.446775514632463455e-03 6.922708824276924133e-03 1.357424352318048477e-02 -7.582596299471333623e-05 -5.563441198319196701e-03 -9.658874943852424622e-03 1.513365190476179123e-03 -2.740384312346577644e-03 2.337731979787349701e-02 5.545606091618537903e-02 1.853377558290958405e-02 -8.429967798292636871e-03 -1.544153876602649689e-02 4.943549633026123047e-03 -3.179725259542465210e-03 -8.931160904467105865e-03 -1.282819826155900955e-02 1.933766063302755356e-03 2.219111099839210510e-02 -5.950427148491144180e-03 3.292794805020093918e-03 8.012879639863967896e-03 2.104091085493564606e-02 -2.166100032627582550e-02 8.250555954873561859e-03 -2.005848661065101624e-02 1.358823850750923157e-02 -3.749994933605194092e-02 9.895932860672473907e-03 2.773446962237358093e-02 3.706987015902996063e-03 -1.065770350396633148e-02 1.441088598221540451e-02 1.375670917332172394e-02 1.556355319917201996e-02 3.344063088297843933e-02 7.121874485164880753e-03 1.029163692146539688e-02 3.355739638209342957e-02 -4.166024550795555115e-02 4.831134155392646790e-02 -4.018993675708770752e-02 -2.024086192250251770e-02 -2.209696173667907715e-02 2.915062755346298218e-02 5.435399245470762253e-03 -1.085397973656654358e-02 8.636414073407649994e-03 3.441531583666801453e-02 -1.977927982807159424e-02 1.411125250160694122e-02 -4.621252045035362244e-02 -6.472875829786062241e-03 -5.556800402700901031e-03 5.678122397512197495e-03 -1.595795154571533203e-02 -1.251612138003110886e-02 -8.392844349145889282e-03 1.903121359646320343e-02 1.167976669967174530e-02 3.612377122044563293e-02 3.058605827391147614e-02 -7.642550859600305557e-03 -7.818990387022495270e-03 -3.917663358151912689e-03 1.201260462403297424e-02 9.212337899953126907e-04
4.207680001854896545e-02 1.437990646809339523e-02 2.742731012403964996e-02 2.944285050034523010e-02 4.989166557788848877e-02 2.585698105394840240e-02 -2.062736637890338898e-02 3.386265784502029419e-02 -1.847483590245246887e-02 3.977754339575767517e-02 2.041709376499056816e-03 -6.979110185056924820e-03 1.993837021291255951e-02 -7.868153625167906284e-04 -2.837999351322650909e-02 -1.499738171696662903e-02 3.567377850413322449e-02 1.130917295813560486e-02 4.594582319259643555e-02 2.339084073901176453e-02 -1.225905958563089371e-03 -8.727303706109523773e-03 -5.683703348040580750e-03 -3.991838078945875168e-03 2.599230781197547913e-02 -3.392098844051361084e-02 1.830040360800921917e-03 1.077261380851268768e-02 -3.259345516562461853e-02 2.768958918750286102e-02 1.435619220137596130e-02 4.097843484487384558e-04 1.482865680009126663e-02 -3.170801093801856041e-03 1.712670736014842987e-02 7.284491322934627533e-03 8.127303794026374817e-03 1.929285936057567596e-02 -2.509070560336112976e-02 -2.842914499342441559e-02 3.587605431675910950e-02 2.643935568630695343e-02 -8.784209378063678741e-03 1.679051085375249386e-03 1.904731988906860352e-02 -6.031765136867761612e-03 1.781419105827808380e-02 -4.516281932592391968e-02 -2.273722365498542786e-02 3.861092496663331985e-03 -1.053834147751331329e-02 1.046171179041266441e-03 -3.261220455169677734e-02 4.176363348960876465e-03 1.214846316725015640e-02 4.969012457877397537e-03 1.973515748977661133e-02 2.644457295536994934e-02 4.038094729185104370e-02 1.552965492010116577e-02 -9.031169116497039795e-03 -3.873524069786071777e-02 -5.328874103724956512e-03 2.168449386954307556e-02 2.451532753184437752e-03 -9.368057362735271454e-03 2.092891559004783630e-02 -2.221000567078590393e-02 9.372668340802192688e-03 -2.185111865401268005e-02 3.863617405295372009e-02 2.981069497764110565e-02 2.024397253990173340e-02 -3.213657811284065247e-02 4.661653074435889721e-04 4.771547974087297916e-04 6.817901041358709335e-03 -8.014619350433349609e-03 2.626171708106994629e-02 -2.573831565678119659e-02 -1.870351657271385193e-02 1.341913128271698952e-03 -9.863416664302349091e-03 2.949571236968040466e-02 -9.999563917517662048e-03 -5.626875441521406174e-03 -1.766372658312320709e-02 2.664347877725958824e-03 -1.345157343894243240e-02 -1.561073493212461472e-02 1.749430783092975616e-02 -1.365476194769144058e-02 -4.540653154253959656e-02 -2.257137186825275421e-02 -4.772711172699928284e-02 1.247689593583345413e-02 -1.249092398211359978e-03 -8.996526012197136879e-04 -9.412309154868125916e-03 7.621685508638620377e-04 -1.689681224524974823e-02 -4.385167732834815979e-03 -1.801706384867429733e-03 -1.667780801653862000e-02 -4.458454903215169907e-03 -6.411580368876457214e-03 1.181842293590307236e-02 -1.149425562471151352e-02 -8.980192069429904222e-05 1.997744105756282806e-02 5.741745233535766602e-02 3.561314940452575684e-02 1.214942988008260727e-02 -6.465011741966009140e-03 -4.200791567564010620e-02 -3.402749821543693542e-02 -7.760566193610429764e-03 3.763091284781694412e-03 -4.732915759086608887e-02 -1.971830241382122040e-02 3.114674799144268036e-02 2.505430951714515686e-02 3.271246561780571938e-03 -6.359136663377285004e-03 5.140191875398159027e-03 -1.183309685438871384e-02 -1.141608413308858871e-02 2.380296401679515839e-02
-1.516977790743112564e-02 5.129143595695495605e-03 -6.393156014382839203e-03 2.587055414915084839e-02 1.668506301939487457e-02 1.202289480715990067e-02 -7.957880734466016293e-04 2.171284705400466919e-02 4.563307017087936401e-02 1.107752788811922073e-02 2.562894078437238932e-04 1.858428353443741798e-03 -3.060233220458030701e-02 -1.633321121335029602e-02 2.562966756522655487e-02 -4.288865718990564346e-03 -2.594687789678573608e-02 -3.935606405138969421e-02 -1.357059087604284286e-02 1.674287952482700348e-02 5.190803669393062592e-03 1.278047077357769012e-02 1.197112258523702621e-02 -1.239287573844194412e-02 1.419618446379899979e-02 3.403567522764205933e-02 3.044707700610160828e-03 -1.868943870067596436e-02 1.540684700012207031e-02 3.706838702782988548e-03 -1.331604924052953720e-02 -2.531394921243190765e-02 2.543387748301029205e-02 2.955500781536102295e-02 1.655017957091331482e-02 2.391528710722923279e-02 -2.605002839118242264e-03 -2.821668609976768494e-02 -3.455340489745140076e-02 -1.529383752495050430e-02 7.611155509948730469e-03 5.553346872329711914e-02 -3.343774238601326942e-03 -4.608762974385172129e-04 -3.300772979855537415e-02 -3.570081898942589760e-03 8.381358347833156586e-03 5.555059295147657394e-03 4.302693158388137817e-02 2.460753172636032104e-02 3.012312017381191254e-02 -1.545001752674579620e-02 2.967231161892414093e-02 -1.689274422824382782e-02 8.036497980356216431e-03 1.514056604355573654e-02 1.440876815468072891e-02 -9.141437709331512451e-03 2.319029765203595161e-03 -1.606610789895057678e-02 2.200824394822120667e-02 -1.691750832833349705e-03 -4.155297763645648956e-03 -1.788067631423473358e-02 3.203546802978962660e-04 -1.415942423045635223e-02 4.485929757356643677e-02 -7.803777698427438736e-03 5.942251067608594894e-03 -6.604527123272418976e-03 -2.449596067890524864e-03 -2.591514959931373596e-02 4.681960865855216980e-02 1.079114340245723724e-02 -2.453415654599666595e-02 -9.675665060058236122e-04 -1.409288961440324783e-02 -1.046307268552482128e-03 2.316878549754619598e-02 -3.345380723476409912e-02 2.356947399675846100e-02 7.722055539488792419e-03 5.075087305158376694e-03 -3.902858495712280273e-02 3.695460036396980286e-02 -5.128914490342140198e-03 -7.114418782293796539e-03 -1.001206971704959869e-02 -1.490987278521060944e-02 2.620200160890817642e-03 1.048184093087911606e-02 1.371311023831367493e-02 3.266606107354164124e-02 7.205212488770484924e-03 2.987509360536932945e-03 -3.151000011712312698e-03 4.872266668826341629e-03 1.808641362003982067e-03 1.086551044136285782e-02 2.964125573635101318e-02 -8.233223110437393188e-03 1.483135949820280075e-02 -1.891046762466430664e-02 -1.763849519193172455e-03 -5.247546359896659851e-03 -1.275360118597745895e-03 1.029171608388423920e-02 -3.808514773845672607e-02 3.410088131204247475e-03 -2.143755555152893066e-02 2.653363719582557678e-02 1.621399633586406708e-02 8.607556112110614777e-03 1.186677534133195877e-02 8.266834192909300327e-04 1.054306194419041276e-04 1.370075158774852753e-02 -3.397441655397415161e-02 -1.857588067650794983e-02 2.012203447520732880e-02 1.809244975447654724e-02 6.585764698684215546e-03 2.262176200747489929e-02 1.077186781913042068e-02 -5.551474634557962418e-03 -2.013989142142236233e-04 -5.172675848007202148e-02 2.579838410019874573e-02
9.353393688797950745e-03 -6.336757913231849670e-03 4.149278625845909119e-03 1.685973256826400757e-03 -2.884028712287545204e-03 -1.127293333411216736e-03 2.027793601155281067e-02 -1.507547218352556229e-02 -1.436196547001600266e-02 -7.706370204687118530e-03 5.240023136138916016e-03 -1.048917789012193680e-02 -6.615645252168178558e-03 3.552706213667988777e-03 2.556388638913631439e-02 -1.156525686383247375e-02 -1.392436958849430084e-02 3.153599053621292114e-02 -1.320061739534139633e-02 8.064615540206432343e-03 -4.222223535180091858e-02 -4.000840708613395691e-02 -7.596014067530632019e-03 -4.130164161324501038e-03 6.534361746162176132e-03 1.611456274986267090e-02 -2.122681122273206711e-03 -1.387011166661977768e-02 5.419070366770029068e-03 2.050095424056053162e-02 -1.958610024303197861e-03 -6.201419513672590256e-03 -1.483615953475236893e-03 -2.501507289707660675e-03 7.668703910894691944e-04 -1.448280923068523407e-02 -8.769019506871700287e-03 2.057857066392898560e-02 5.115566309541463852e-03 -8.427654393017292023e-03 6.966153159737586975e-03 -1.103251706808805466e-02 1.123795844614505768e-02 3.079948946833610535e-04 -1.040240633301436901e-03 1.763970404863357544e-02 3.038824722170829773e-02 -1.682766713201999664e-02 -3.421946242451667786e-02 -4.109086096286773682e-02 2.855587052181363106e-03 -4.412586335092782974e-03 1.985229365527629852e-02 9.480047039687633514e-03 1.923609524965286255e-02 -6.840287707746028900e-03 3.640296310186386108e-02 2.927123568952083588e-02 6.399932783097028732e-03 -5.274301860481500626e-03 -1.876495219767093658e-02 -2.248321473598480225e-02 1.227058283984661102e-02 -1.587962359189987183e-02 -8.394314907491207123e-03 -2.422410435974597931e-02 -1.812726818025112152e-02 2.342676743865013123e-02 6.985938176512718201e-03 -1.276198588311672211e-02 3.945251181721687317e-02 -1.286980812437832355e-03 1.233969349414110184e-02 8.489919826388359070e-03 1.178777683526277542e-02 1.168346963822841644e-02 -1.904994994401931763e-02 3.810950368642807007e-02 -2.452407777309417725e-02 -1.808539405465126038e-02 4.396316595375537872e-03 -1.884842477738857269e-02 1.441703876480460167e-03 4.000820685178041458e-03 1.660501398146152496e-02 -6.058126688003540039e-03 -1.102151256054639816e-02 -7.491106167435646057e-03 -1.491540018469095230e-02 1.753316074609756470e-02 2.521454915404319763e-02 8.192273788154125214e-03 3.740795422345399857e-03 3.105326741933822632e-02 -8.022985421121120453e-03 -1.911773905158042908e-02 -9.673031046986579895e-03 -3.064633533358573914e-02 -5.353333428502082825e-03 -1.548336911946535110e-02 1.217507012188434601e-02 9.588413522578775883e-04 -4.373084288090467453e-03 1.290909573435783386e-02 -2.652022754773497581e-03 -2.899786084890365601e-02 -9.117911569774150848e-03 8.494283072650432587e-03 4.769468214362859726e-03 1.910134777426719666e-02 1.147143077105283737e-02 7.917872862890362740e-04 -9.526958689093589783e-03 6.168514955788850784e-03 1.259383745491504669e-02 3.987562283873558044e-02 7.233287673443555832e-03 -1.357484981417655945e-02 4.012869670987129211e-02 -6.904559675604104996e-03 -3.401246294379234314e-02 1.785409264266490936e-02 -1.462872023694217205e-03 2.005070634186267853e-02 -1.741198822855949402e-03 -1.812137430533766747e-03 -1.292336359620094299e-02 2.427222440019249916e-03
-1.298052445054054260e-02 8.175528608262538910e-03 1.938467286527156830e-02 1.849532499909400940e-02 -3.771269693970680237e-02 -1.333973184227943420e-02 3.814706811681389809e-03 9.117281064391136169e-03 -3.506413102149963379e-02 -8.977024815976619720e-03 -4.351264331489801407e-03 -1.799925416707992554e-02 2.631848305463790894e-02 1.911415345966815948e-02 1.697431318461894989e-02 -8.126371540129184723e-03 -3.125981986522674561e-02 -5.090659856796264648e-02 -3.086434863507747650e-02 1.420299056917428970e-03 1.501551084220409393e-02 9.065195918083190918e-03 -3.737272322177886963e-02 1.451764907687902451e-02 -1.566503196954727173e-02 -7.848268374800682068e-03 -3.317717835307121277e-02 -2.973197959363460541e-03 3.514048829674720764e-02 -1.478443853557109833e-02 1.906943693757057190e-02 2.378847636282444000e-02 -5.683101713657379150e-03 -9.241576306521892548e-03 4.368868842720985413e-02 -1.884191669523715973e-02 1.436734851449728012e-02 2.039628289639949799e-02 -7.710440084338188171e-03 -1.545189227908849716e-02 1.780373230576515198e-02 -5.646341480314731598e-03 3.276535542681813240e-03 1.596636697649955750e-02 3.960119094699621201e-03 -2.672343142330646515e-02 5.835770629346370697e-03 -9.020159952342510223e-03 1.381228212267160416e-02 1.902149175293743610e-03 1.345824357122182846e-02 5.602774675935506821e-03 4.603614099323749542e-03 1.368952915072441101e-02 2.231051959097385406e-02 1.207102090120315552e-03 6.939028948545455933e-02 2.876251190900802612e-02 4.828603006899356842e-03 2.631471306085586548e-02 -2.551109064370393753e-03 3.028401546180248260e-02 -2.268681861460208893e-02 3.004938829690217972e-03 7.368711289018392563e-03 -8.152341470122337341e-03 -2.220105752348899841e-02 -8.222640608437359333e-04 4.212820902466773987e-02 -5.687874183058738708e-02 -3.296200186014175415e-02 1.120027247816324234e-02 -2.891722135245800018e-02 -2.416730299592018127e-02 9.823011234402656555e-03 1.895190775394439697e-02 -1.170396618545055389e-02 5.777299404144287109e-03 -1.082164584659039974e-03 2.363464236259460449e-02 -6.100038532167673111e-03 2.866746298968791962e-02 7.123469375073909760e-03 3.222791478037834167e-02 8.558449335396289825e-03 -5.444275215268135071e-03 -1.758005656301975250e-02 1.069487421773374081e-03 -4.729174077510833740e-03 -1.903732679784297943e-02 2.123285457491874695e-02 -4.954928532242774963e-03 -2.350173704326152802e-02 5.390222650021314621e-03 4.112335294485092163e-02 -6.318446248769760132e-03 2.387359738349914551e-02 -6.694455631077289581e-03 -2.898052893579006195e-02 1.701952144503593445e-02 4.219240695238113403e-02 -1.431816443800926208e-02 1.439701672643423080e-02 1.598914153873920441e-02 -2.916090749204158783e-02 -3.738493472337722778e-02 1.672255108132958412e-03 -1.128197275102138519e-02 -2.856492064893245697e-02 -2.452138625085353851e-02 -2.351197600364685059e-02 -2.185712568461894989e-02 3.211373835802078247e-02 -5.532456096261739731e-03 -2.604877576231956482e-03 -1.620872132480144501e-02 1.177342422306537628e-02 -4.870019480586051941e-02 2.452966384589672089e-02 8.043410256505012512e-03 -5.317918490618467331e-03 1.655389554798603058e-02 3.057546447962522507e-03 6.031438708305358887e-03 -1.938176155090332031e-02 1.441442593932151794e-02 -3.860996663570404053e-02 3.014064021408557892e-02
6.815985310822725296e-03 -1.538255997002124786e-02 -1.047890726476907730e-02 4.152252525091171265e-02 -1.582466252148151398e-02 4.835790488868951797e-03 5.973199754953384399e-02 -6.605908274650573730e-03 -3.557723760604858398e-02 2.004892006516456604e-02 5.106859840452671051e-03 -2.236810699105262756e-02 3.634081780910491943e-02 8.433023467659950256e-04 -3.622571751475334167e-02 2.520116046071052551e-02 -1.742597110569477081e-02 7.165687624365091324e-03 -2.672437578439712524e-02 -8.141285739839076996e-03 -3.104741312563419342e-02 3.323254361748695374e-02 -2.261691354215145111e-02 -1.990573247894644737e-03 -6.040654610842466354e-03 2.051081694662570953e-02 7.422032300382852554e-03 -2.595519647002220154e-03 1.603840850293636322e-02 -4.182079806923866272e-03 2.857818827033042908e-02 1.419977657496929169e-02 5.075039807707071304e-03 -1.040291413664817810e-02 6.136741139926016331e-04 -2.876422554254531860e-02 -7.419234141707420349e-03 -4.995572846382856369e-03 -1.281330012716352940e-03 -4.844890907406806946e-02 -5.889115855097770691e-02 -7.540671620517969131e-03 -4.109834134578704834e-02 -1.955858990550041199e-02 -1.737784408032894135e-02 2.231124788522720337e-02 -3.463647142052650452e-02 -1.506233308464288712e-02 -1.893308758735656738e-02 -1.766273379325866699e-02 -8.438004180788993835e-03 7.207515183836221695e-03 -2.324318140745162964e-02 3.101922199130058289e-02 4.622662905603647232e-03 -8.913626894354820251e-03 -3.295051306486129761e-02 1.765847206115722656e-02 -5.852444563060998917e-03 5.534889642149209976e-03 4.566896706819534302e-03 2.461829595267772675e-02 5.516590550541877747e-03 4.467841703444719315e-03 -5.619241390377283096e-03 5.768071487545967102e-02 -2.810440398752689362e-02 -6.240238435566425323e-03 -3.688326478004455566e-02 1.992414519190788269e-02 3.122818842530250549e-02 2.955899946391582489e-02 -3.433236153796315193e-03 -8.923312649130821228e-03 -5.050630494952201843e-02 -9.129168465733528137e-03 -1.328290440142154694e-02 8.311947807669639587e-03 2.845438197255134583e-02 -1.353864558041095734e-02 -4.148698411881923676e-03 4.012465476989746094e-03 -2.409893460571765900e-02 3.836247138679027557e-03 -1.375473570078611374e-02 -3.745137900114059448e-02 1.556590385735034943e-02 2.791960164904594421e-02 4.962940583936870098e-04 -1.750923134386539459e-02 3.071292862296104431e-02 3.440311178565025330e-02 1.379361096769571304e-02 -1.790153328329324722e-04 -3.936892747879028320e-02 2.154219429939985275e-03 -9.057199582457542419e-03 4.766217991709709167e-02 9.726144373416900635e-03 3.112966194748878479e-02 -5.925622303038835526e-03 1.412315852940082550e-02 -1.309532113373279572e-02 9.248058311641216278e-03 -6.137252785265445709e-03 -7.361512165516614914e-03 2.003747411072254181e-02 1.987593807280063629e-02 -1.217100885696709156e-03 1.678707636892795563e-02 1.324396487325429916e-02 2.120421081781387329e-02 -1.447393279522657394e-02 -3.544268384575843811e-02 1.536709628999233246e-02 -1.049755048006772995e-02 2.513044700026512146e-02 -4.395596310496330261e-02 3.386719326954334974e-04 1.922633498907089233e-02 -3.647264093160629272e-02 1.175384735688567162e-03 -3.049619961529970169e-03 -4.288519173860549927e-02 1.128071639686822891e-02 -1.086676958948373795e-02 6.847160402685403824e-03 -6.535472348332405090e-03
-1.715545915067195892e-02 -2.773306146264076233e-02 -1.570253260433673859e-02 2.854241803288459778e-02 2.196926623582839966e-03 9.390237741172313690e-03 -1.883316785097122192e-02 -2.398734353482723236e-02 9.050399996340274811e-03 5.108101759105920792e-03 2.628416568040847778e-02 -4.089589416980743408e-02 5.023749545216560364e-03 4.817872866988182068e-02 -9.812070988118648529e-03 2.797196805477142334e-02 1.867667585611343384e-02 -4.275144543498754501e-03 -1.629864983260631561e-02 -7.129111792892217636e-03 8.205924183130264282e-03 1.888034492731094360e-02 1.047221850603818893e-02 -3.029156848788261414e-02 1.669544726610183716e-02 3.989193122833967209e-03 -1.722424291074275970e-02 -1.092281471937894821e-02 -2.016856893897056580e-02 2.207637764513492584e-02 5.672847479581832886e-02 -1.768425852060317993e-02 -1.034355349838733673e-02 1.911126822233200073e-02 -1.541500817984342575e-02 -4.284520167857408524e-03 -9.882939048111438751e-03 -1.162325311452150345e-02 1.179260388016700745e-02 1.370725035667419434e-02 2.713539823889732361e-02 -1.454865280538797379e-02 9.704384952783584595e-03 1.569191925227642059e-02 -5.550828296691179276e-03 -1.909965649247169495e-02 -6.197722395882010460e-04 4.843099508434534073e-03 -1.076162885874509811e-02 2.887088246643543243e-02 -1.873815432190895081e-02 -1.671175472438335419e-02 -3.436979837715625763e-03 2.211595326662063599e-02 -2.233322151005268097e-02 -8.499533869326114655e-03 -1.666154526174068451e-02 -9.681801311671733856e-03 -1.223706454038619995e-02 3.443490341305732727e-02 1.094567030668258667e-02 -2.102130651473999023e-02 -3.760904818773269653e-02 7.039365824311971664e-03 9.046726860105991364e-03 -5.058480799198150635e-02 -3.655554354190826416e-02 1.080108713358640671e-02 2.811197377741336823e-02 4.135403432883322239e-04 -2.809793129563331604e-02 1.881591416895389557e-02 4.720669239759445190e-03 -2.561530843377113342e-02 -3.478060010820627213e-03 9.500358719378709793e-04 2.229708805680274963e-02 1.072243414819240570e-02 5.250311805866658688e-04 9.540587663650512695e-03 -7.618331583216786385e-04 1.885575614869594574e-02 1.928760483860969543e-02 -4.346086457371711731e-02 -7.525468245148658752e-03 -2.592298015952110291e-02 -2.942466177046298981e-03 3.806145116686820984e-02 -3.621175140142440796e-02 -1.995689049363136292e-02 -2.975362120196223259e-03 1.562021789140999317e-04 -3.443012759089469910e-02 1.197395194321870804e-02 3.200403600931167603e-02 -4.084138665348291397e-03 2.823723480105400085e-03 -1.227427087724208832e-02 6.917506922036409378e-03 7.242620456963777542e-03 -2.206260338425636292e-02 3.703036159276962280e-02 -3.019475564360618591e-02 -6.984947714954614639e-03 1.151844579726457596e-02 1.890562288463115692e-02 3.153215721249580383e-02 2.060987241566181183e-02 6.834404543042182922e-03 1.105256564915180206e-02 -9.413299150764942169e-03 -9.164288640022277832e-03 -8.460452780127525330e-03 2.354017272591590881e-02 -2.308542840182781219e-03 2.615320123732089996e-02 -2.023342996835708618e-02 2.473320346325635910e-03 1.545123662799596786e-02 -1.527366973459720612e-02 5.043115932494401932e-03 -2.855021739378571510e-04 -2.336415275931358337e-02 -4.686151165515184402e-03 1.404445152729749680e-02 -1.765960082411766052e-02 1.039781980216503143e-02 1.026683207601308823e-02
-2.727532992139458656e-03 -5.270605324767529964e-04 -5.506745073944330215e-03 4.060928151011466980e-02 5.648762919008731842e-03 -1.767259649932384491e-02 -5.012960173189640045e-04 3.988513723015785217e-03 -8.296933956444263458e-03 7.760322652757167816e-03 -1.393308863043785095e-02 1.774477027356624603e-02 2.051335014402866364e-02 1.579046249389648438e-02 3.503890475258231163e-03 -6.872125086374580860e-04 -1.962531823664903641e-03 -3.427862003445625305e-02 3.362789377570152283e-02 1.546520181000232697e-02 -7.598025724291801453e-03 -7.305740378797054291e-03 -3.816448897123336792e-02 2.960633486509323120e-03 -9.859529323875904083e-03 -3.032255731523036957e-02 3.020223695784807205e-03 -8.563379757106304169e-03 1.298939157277345657e-02 1.436909288167953491e-02 -2.915314212441444397e-02 -5.848509608767926693e-04 -1.345759816467761993e-02 -3.159672766923904419e-02 3.962302207946777344e-02 -3.324536606669425964e-02 -6.025509908795356750e-03 4.584070667624473572e-02 5.909328814595937729e-03 8.222102187573909760e-03 4.778254311531782150e-03 -2.315961942076683044e-02 1.781796477735042572e-02 -5.664213560521602631e-03 -4.005938302725553513e-03 -3.108855150640010834e-02 -4.752860404551029205e-03 -3.423937130719423294e-03 -9.075708687305450439e-03 -1.248674094676971436e-02 3.163125365972518921e-02 -8.630450814962387085e-03 -4.441781342029571533e-02 1.659438759088516235e-02 3.524908050894737244e-02 -1.282398309558629990e-02 -1.336939446628093719e-02 -7.550149224698543549e-03 5.516101140528917313e-03 -5.544202402234077454e-03 6.492123007774353027e-03 -1.666042208671569824e-02 -2.237946260720491409e-03 -1.200023666024208069e-02 1.828404329717159271e-02 -4.951792652718722820e-04 2.888557268306612968e-03 -6.399913690984249115e-03 3.036925941705703735e-02 -8.214360103011131287e-03 3.590448200702667236e-02 -2.346144802868366241e-02 4.997827485203742981e-02 -1.600054558366537094e-03 2.601554850116372108e-03 2.069788612425327301e-02 3.898587450385093689e-02 1.270325388759374619e-02 8.231892250478267670e-03 7.329709362238645554e-03 -1.265507470816373825e-02 -2.384080551564693451e-02 -1.536929607391357422e-02 -3.161396831274032593e-02 -1.037194207310676575e-02 3.847846016287803650e-02 -3.194757923483848572e-02 -1.155667193233966827e-02 3.759757801890373230e-02 6.636219099164009094e-03 3.845239803194999695e-02 5.658729933202266693e-03 -7.778941188007593155e-03 -4.123185947537422180e-02 1.954995654523372650e-02 -2.626430988311767578e-02 2.330767177045345306e-02 -1.192253548651933670e-02 3.573691099882125854e-02 8.052846416831016541e-03 2.382642775774002075e-02 3.400470828637480736e-03 -1.362015027552843094e-03 -1.606732420623302460e-02 1.904734782874584198e-02 -1.721467822790145874e-03 -2.169529907405376434e-03 4.866886010859161615e-04 9.663812816143035889e-03 5.435531586408615112e-02 -1.301040221005678177e-02 3.091463446617126465e-02 1.840956881642341614e-02 -2.273438870906829834e-02 -7.316241040825843811e-03 -3.785344585776329041e-02 1.188045716844499111e-03 1.392209529876708984e-02 9.064701385796070099e-03 -2.234211191534996033e-02 9.686827659606933594e-03 -1.114538125693798065e-02 1.276546064764261246e-02 -1.190555654466152191e-02 -5.726552568376064301e-03 1.246530748903751373e-02 4.983621090650558472e-02 -2.874187426641583443e-03
-1.672816090285778046e-02 5.653679370880126953e-03 8.232323452830314636e-03 3.338740766048431396e-02 2.240737201645970345e-03 6.843383889645338058e-03 -1.482734642922878265e-02 2.040275372564792633e-03 4.062218964099884033e-02 -2.006436698138713837e-02 -1.044279988855123520e-02 2.757661044597625732e-02 2.184373512864112854e-02 -7.316670380532741547e-03 1.844383031129837036e-02 -1.217939332127571106e-02 2.017058618366718292e-02 -1.823123358190059662e-02 7.225472945719957352e-04 2.287530573084950447e-03 -2.916312543675303459e-03 -5.970563739538192749e-03 2.229288034141063690e-02 -1.973899267613887787e-02 -1.102709397673606873e-02 2.038926072418689728e-02 -1.064114645123481750e-02 -2.810807712376117706e-02 8.265124633908271790e-03 2.771130204200744629e-02 -6.027511553838849068e-04 9.537974372506141663e-03 -2.408629842102527618e-02 -3.308533458039164543e-03 4.915945231914520264e-03 -2.471626922488212585e-02 -5.262843333184719086e-03 -5.525170359760522842e-03 -2.277141250669956207e-02 -3.845244878903031349e-03 2.739506959915161133e-02 1.103356480598449707e-02 -3.027551062405109406e-02 6.458021234720945358e-03 -2.400053292512893677e-02 -1.332060806453227997e-02 -4.762433003634214401e-03 4.408649727702140808e-02 1.238074433058500290e-02 1.065839733928442001e-02 3.046706318855285645e-02 1.356482971459627151e-02 4.070804640650749207e-02 -1.037615723907947540e-02 1.787285506725311279e-02 -3.544050082564353943e-02 -1.540757529437541962e-02 -4.163064062595367432e-03 -1.518407952971756458e-04 -5.645032599568367004e-02 -1.176394987851381302e-02 4.067884758114814758e-03 3.559196135029196739e-03 -1.421475503593683243e-02 -1.633309992030262947e-03 1.465308852493762970e-02 -4.274541512131690979e-03 -3.519644588232040405e-02 -2.210439182817935944e-03 -2.202046290040016174e-02 -1.973644085228443146e-02 1.969693042337894440e-02 -7.095598615705966949e-03 -8.894039201550185680e-04 1.914500258862972260e-02 -2.839375473558902740e-02 -1.946235820651054382e-02 -2.277531847357749939e-02 -2.013525227084755898e-03 2.131582424044609070e-02 7.647793740034103394e-03 -3.915231674909591675e-03 -1.816193386912345886e-02 1.137442048639059067e-02 1.693277270533144474e-03 -2.123899385333061218e-02 -1.358980662189424038e-03 4.863862413913011551e-03 1.581751741468906403e-02 -2.254641987383365631e-02 -3.740900894626975060e-03 3.895607963204383850e-02 2.312055602669715881e-02 3.134322585538029671e-03 1.689762808382511139e-02 2.914689946919679642e-03 3.696079133078455925e-03 6.747961742803454399e-04 -2.023771032691001892e-02 -1.612770254723727703e-03 -5.439723376184701920e-03 8.812671527266502380e-03 7.159716449677944183e-03 -8.088086731731891632e-03 5.479800049215555191e-03 1.512653660029172897e-02 8.133628405630588531e-03 -2.286304719746112823e-03 -1.161712873727083206e-02 -5.847092717885971069e-03 -3.711144998669624329e-02 1.456902269273996353e-02 8.086114190518856049e-03 1.400503702461719513e-02 -1.943331584334373474e-02 -4.198681563138961792e-03 -1.641405746340751648e-02 -3.776327939704060555e-03 1.450758427381515503e-02 2.385818026959896088e-02 -1.259325351566076279e-02 1.814963854849338531e-02 1.104225520975887775e-03 4.749969579279422760e-03 3.248646855354309082e-02 1.341657992452383041e-02 1.099933590739965439e-02 -1.954015716910362244e-02
-2.532333321869373322e-02 -3.156272578053176403e-04 1.355466432869434357e-02 -2.809038013219833374e-02 1.329327095299959183e-02 -7.166545838117599487e-03 -2.674637176096439362e-02 1.095586642622947693e-02 -2.039476856589317322e-02 -3.348338603973388672e-02 3.732486814260482788e-02 4.233393445611000061e-02 2.042220439761877060e-03 4.238324239850044250e-03 -5.080363526940345764e-02 -1.397405844181776047e-02 4.716101568192243576e-03 1.257908763363957405e-03 2.844904782250523567e-03 -1.345764379948377609e-02 7.052952423691749573e-03 3.854953125119209290e-02 1.149980444461107254e-02 -2.511691674590110779e-02 2.816412411630153656e-02 3.794844669755548239e-04 8.895087055861949921e-03 9.913519024848937988e-03 2.332056872546672821e-02 -3.866135329008102417e-02 -1.794475130736827850e-02 -7.585356477648019791e-03 2.530765160918235779e-02 -1.758686080574989319e-02 -2.387710846960544586e-02 -4.228379577398300171e-03 -1.800168247427791357e-04 2.293192036449909210e-02 -2.622302994132041931e-02 -2.117017470300197601e-02 1.442142296582460403e-02 1.425918471068143845e-02 3.902220726013183594e-02 3.873033821582794189e-02 -2.752993255853652954e-02 -1.054958533495664597e-02 3.062374331057071686e-02 2.706685336306691170e-03 -2.462170459330081940e-02 -4.329434409737586975e-02 1.944483071565628052e-02 -3.185077756643295288e-02 2.350612776353955269e-03 -4.602411016821861267e-02 -6.574265658855438232e-03 2.003224007785320282e-02 -1.686337403953075409e-02 1.154700480401515961e-02 -8.286588825285434723e-03 -1.292526070028543472e-02 -3.324416652321815491e-02 -1.666253805160522461e-02 -4.912805277854204178e-03 -1.840136537794023752e-04 6.976077798753976822e-03 1.861821301281452179e-02 -8.284261450171470642e-03 -7.968326099216938019e-03 -4.813620820641517639e-03 -6.119950674474239349e-03 9.865943342447280884e-03 3.580371383577585220e-03 1.406759675592184067e-02 -3.001842461526393890e-02 -1.268443185836076736e-02 -2.957348711788654327e-02 -7.227890309877693653e-04 2.614709548652172089e-02 -1.555026415735483170e-02 1.719308434985578060e-03 1.723189954645931721e-03 3.995197359472513199e-03 -1.549869775772094727e-02 -4.868537187576293945e-03 7.707221899181604385e-03 2.610025741159915924e-02 2.401614934206008911e-02 2.377933636307716370e-02 1.281906664371490479e-02 -9.289341978728771210e-03 3.462478891015052795e-02 1.663066633045673370e-02 4.022296518087387085e-02 -9.224195033311843872e-03 1.131875719875097275e-02 1.189147704280912876e-03 3.012778609991073608e-02 8.261053822934627533e-03 8.934004232287406921e-03 -2.312525175511837006e-02 -2.109451778233051300e-02 2.911290153861045837e-02 -7.205445785075426102e-03 1.241435110569000244e-02 1.478604134172201157e-02 -1.261158753186464310e-02 1.247625239193439484e-02 -4.576991777867078781e-03 -5.232498422265052795e-02 -1.774040982127189636e-02 -1.817942829802632332e-03 -1.673561707139015198e-02 -1.261207181960344315e-02 1.855671778321266174e-02 3.375445678830146790e-02 3.391942707821726799e-03 1.096433959901332855e-02 -1.277155801653862000e-02 3.502689360175281763e-04 6.308329757302999496e-03 -3.534350544214248657e-02 2.069859765470027924e-02 1.959678530693054199e-02 8.297877386212348938e-03 2.628992497920989990e-02 -2.458115294575691223e-02 1.240605302155017853e-02 -5.921150092035531998e-03
-4.252938181161880493e-02 3.606884554028511047e-02 -3.002033010125160217e-02 1.094464678317308426e-02 -6.435820832848548889e-03 1.252110954374074936e-02 6.653397344052791595e-03 9.470171295106410980e-03 1.829593442380428314e-02 4.311008378863334656e-02 2.844971045851707458e-02 1.517568901181221008e-02 -1.419713953509926796e-03 4.490928724408149719e-03 2.522903867065906525e-02 1.000755187124013901e-02 1.027853228151798248e-02 -3.935278952121734619e-02 -3.750149905681610107e-02 5.238885059952735901e-03 -7.496577221900224686e-03 9.097274392843246460e-03 -1.534594874829053879e-02 3.554992377758026123e-02 1.273279730230569839e-02 1.132744736969470978e-02 -3.254526527598500252e-03 1.631743274629116058e-02 1.350086822640150785e-04 -1.921087317168712616e-02 9.064005687832832336e-03 1.155899226432666183e-04 1.452555041760206223e-02 1.646254211664199829e-02 4.023386165499687195e-03 1.600142754614353180e-02 3.045327961444854736e-03 -1.333733182400465012e-02 -1.026243786327540874e-03 1.320576481521129608e-02 -1.682504452764987946e-02 -1.209452841430902481e-02 -3.830600529909133911e-02 1.097751501947641373e-02 2.066971175372600555e-02 1.535785291343927383e-02 9.018658660352230072e-03 -3.047404251992702484e-02 2.388105727732181549e-02 3.839971870183944702e-02 8.951846510171890259e-03 -2.278399653732776642e-03 1.407663919962942600e-03 9.147817618213593960e-04 -7.733417209237813950e-03 -2.331600524485111237e-03 3.801207616925239563e-02 4.338053241372108459e-02 1.337638217955827713e-02 8.579602465033531189e-03 3.475113213062286377e-02 2.860562689602375031e-02 1.491739600896835327e-02 3.812457621097564697e-02 -2.811835147440433502e-02 -1.354519370943307877e-02 -7.877635769546031952e-03 -2.125798910856246948e-02 -1.593485008925199509e-03 -1.885574311017990112e-02 3.130350727587938309e-03 -2.181624528020620346e-03 6.031265947967767715e-03 8.315499871969223022e-03 -3.537973016500473022e-02 1.649414189159870148e-02 -6.142648402601480484e-03 1.192922820337116718e-03 -9.748323820531368256e-03 7.742715999484062195e-03 1.287152245640754700e-02 2.527580654714256525e-04 -8.883428759872913361e-03 -1.761748827993869781e-02 -2.196958754211664200e-03 -2.290141209959983826e-02 -1.194165437482297421e-03 -3.125662356615066528e-02 -1.526670344173908234e-02 5.063679069280624390e-03 3.766313428059220314e-03 2.018948271870613098e-02 3.339636325836181641e-02 1.134853530675172806e-02 1.785711757838726044e-02 5.264513194561004639e-03 1.641365326941013336e-02 -1.001983974128961563e-02 5.563315004110336304e-03 -7.042512297630310059e-03 2.749530365690588951e-03 -2.841385826468467712e-02 1.500736922025680542e-02 -1.230970583856105804e-02 -2.916705794632434845e-02 1.723176985979080200e-02 -9.404060430824756622e-03 -8.048350922763347626e-03 1.593470573425292969e-02 4.912033327855169773e-04 1.236779335886240005e-02 2.129587531089782715e-02 -7.191515993326902390e-03 2.664544619619846344e-03 3.283655643463134766e-02 -8.937683887779712677e-03 -1.574101857841014862e-03 2.629951946437358856e-02 -1.987423747777938843e-02 2.521837130188941956e-02 -1.323141343891620636e-02 -1.301071140915155411e-02 -2.905468456447124481e-02 2.852447703480720520e-02 -1.447620615363121033e-02 -1.822623983025550842e-02 1.659791730344295502e-02 -1.265246234834194183e-02
-3.176226839423179626e-02 1.193832699209451675e-02 -2.815626095980405807e-03 6.973229348659515381e-03 -1.318945642560720444e-02 -3.289108723402023315e-02 1.801455393433570862e-03 2.776303142309188843e-02 -8.028522133827209473e-03 -5.399520508944988251e-03 -1.353858690708875656e-02 2.704967930912971497e-02 7.272687507793307304e-04 3.394252387806773186e-03 3.083883412182331085e-02 -4.743099585175514221e-02 -1.279301568865776062e-02 1.723949797451496124e-02 2.667175792157649994e-02 -2.244291268289089203e-02 7.706791162490844727e-03 2.281273715198040009e-02 4.073570016771554947e-03 -2.697135088965296745e-03 1.083438564091920853e-02 1.143700815737247467e-02 7.609059102833271027e-03 2.347675152122974396e-03 -2.783845551311969757e-02 8.001567795872688293e-03 -3.438116237521171570e-02 -2.247437275946140289e-02 2.802645601332187653e-02 2.478700876235961914e-02 -3.605452133342623711e-03 1.177100371569395065e-02 5.762782413512468338e-03 1.915470138192176819e-02 1.098244637250900269e-02 -7.199503481388092041e-03 -8.950267918407917023e-03 2.308088541030883789e-02 7.385380566120147705e-03 -5.700035020709037781e-03 -4.362743347883224487e-02 4.784934967756271362e-02 -1.427506678737699986e-03 2.561654895544052124e-02 -9.157276712357997894e-03 -2.634480223059654236e-02 -2.486810460686683655e-02 -1.334612816572189331e-02 1.044349092990159988e-02 2.100056596100330353e-02 7.938044145703315735e-03 2.338907495141029358e-02 -3.822721191681921482e-04 -2.353077754378318787e-03 2.053470350801944733e-02 4.613478376995772123e-04 5.188424512743949890e-02 -3.360930830240249634e-02 -3.082063794136047363e-02 -3.190151182934641838e-03 1.895436272025108337e-02 2.368399314582347870e-02 -2.494670636951923370e-02 -1.145444810390472412e-02 -7.654669228941202164e-03 -3.045897930860519409e-02 5.314277950674295425e-03 -9.540406055748462677e-03 6.957699544727802277e-03 1.487113162875175476e-02 3.381844982504844666e-02 7.850901223719120026e-03 -5.078686866909265518e-03 -7.100746501237154007e-03 -6.844325922429561615e-03 4.847229272127151489e-02 -1.121246838010847569e-03 2.169663645327091217e-02 -8.835759945213794708e-03 -1.502610743045806885e-03 3.098958171904087067e-03 1.993363350629806519e-02 3.517929092049598694e-02 3.251288784667849541e-03 1.655789464712142944e-02 3.190543875098228455e-02 1.461814995855093002e-02 1.559374271892011166e-03 1.553163491189479828e-02 -8.761256001889705658e-03 -4.724259953945875168e-03 -1.676549203693866730e-02 9.041362442076206207e-03 -4.373802244663238525e-02 -2.486451342701911926e-02 3.925446420907974243e-02 1.444105245172977448e-02 9.318276308476924896e-03 -1.230732072144746780e-02 4.282744228839874268e-02 9.002533741295337677e-03 -2.225745655596256256e-02 3.485747799277305603e-02 2.736069820821285248e-02 2.071373723447322845e-02 -1.022444479167461395e-02 1.535737235099077225e-02 3.146289847791194916e-03 5.799663718789815903e-03 1.543978974223136902e-02 1.115478575229644775e-02 -4.239726345986127853e-03 -1.217174157500267029e-02 -3.601049259305000305e-02 -2.850650250911712646e-02 -5.729137919843196869e-03 -2.698211371898651123e-02 -2.545840851962566376e-02 3.451901674270629883e-02 -5.700477398931980133e-03 -1.936801359988749027e-03 4.612572863698005676e-02 5.666289944201707840e-03 2.828902192413806915e-02
-3.174371086061000824e-03 -1.105593866668641567e-03 -1.428277138620615005e-02 -5.228109285235404968e-02 -1.943904347717761993e-02 -6.464372854679822922e-03 -2.031903900206089020e-02 1.049449550919234753e-03 -7.661359850317239761e-04 1.002150960266590118e-02 4.171276930719614029e-03 7.940570823848247528e-03 1.420888700522482395e-03 -2.500718832015991211e-02 3.885437548160552979e-02 1.357785332947969437e-02 3.411804139614105225e-02 -1.437224075198173523e-02 -3.323627403005957603e-03 3.179092332720756531e-02 5.612217821180820465e-03 1.607855223119258881e-02 -2.633420564234256744e-02 -1.167840231209993362e-02 3.049034159630537033e-03 6.016474217176437378e-02 2.613578457385301590e-03 -1.644417352508753538e-04 7.458765525370836258e-03 1.987939514219760895e-02 -1.792166009545326233e-02 3.515994176268577576e-02 9.952479042112827301e-03 3.029238246381282806e-02 -1.014038268476724625e-02 1.049408782273530960e-02 -2.180173806846141815e-02 1.603214815258979797e-02 1.690903678536415100e-02 1.673705317080020905e-02 1.307675614953041077e-02 -1.172367203980684280e-02 5.228276713751256466e-04 -1.784598827362060547e-02 8.286586031317710876e-03 -1.696228049695491791e-02 1.591438427567481995e-02 -4.271959420293569565e-03 -2.544431947171688080e-03 5.313351377844810486e-02 -2.673087175935506821e-03 2.917799167335033417e-02 2.045670291408896446e-03 3.149903565645217896e-02 -4.568725824356079102e-03 -2.194007392972707748e-03 1.368893682956695557e-02 2.755708433687686920e-02 8.075815625488758087e-03 -1.772126555442810059e-02 1.139518246054649353e-02 1.344653684645891190e-02 -1.760074310004711151e-02 -6.320910993963479996e-03 8.313498459756374359e-03 -2.443766593933105469e-02 -1.623202487826347351e-02 -1.985005661845207214e-02 -5.738341249525547028e-03 2.089462429285049438e-02 -3.267715685069561005e-03 1.834299066103994846e-03 2.282571513205766678e-03 -2.615682751638814807e-05 4.397196322679519653e-02 -1.000521145761013031e-02 1.260438095778226852e-02 3.159910440444946289e-03 -4.585127159953117371e-02 1.170914992690086365e-02 1.029408304020762444e-03 -1.629605889320373535e-02 -4.106392338871955872e-02 2.161010168492794037e-02 -2.345028100535273552e-03 9.042347664944827557e-04 4.554089531302452087e-02 -4.364230670034885406e-03 3.945668041706085205e-02 -4.674592986702919006e-03 -9.105863049626350403e-03 1.586695201694965363e-02 2.396595664322376251e-02 1.075256057083606720e-02 2.198764309287071228e-02 -1.213927287608385086e-02 7.901943288743495941e-03 -5.339055322110652924e-03 -5.828011408448219299e-02 -5.039264797233045101e-04 -7.107022218406200409e-03 -2.771782502532005310e-02 2.513662539422512054e-02 5.449990928173065186e-02 7.444436196237802505e-03 3.736175596714019775e-03 1.906411536037921906e-02 -1.651322096586227417e-02 1.307387184351682663e-02 -5.290400702506303787e-03 2.158291824162006378e-02 -4.949338734149932861e-02 1.243904698640108109e-02 1.167954877018928528e-02 -1.830819994211196899e-02 5.097511224448680878e-03 -8.295909501612186432e-03 1.757725514471530914e-02 -3.986381366848945618e-02 4.902028013020753860e-03 -1.189520955085754395e-02 -6.078918930143117905e-03 3.825248777866363525e-02 -9.079109877347946167e-03 -1.394689269363880157e-02 2.544038183987140656e-02 -1.241269242018461227e-02 -2.636163681745529175e-02
